~o
<STREAMINFO> 1 39
<VECSIZE> 39<NULLD><MFCC_E_D_A><DIAGC>
~s "silst"
<NUMMIXES> 36
<MIXTURE> 1 2.466440e-02
<MEAN> 39
 -1.240304e-01 4.368083e+00 2.061703e+00 8.761924e+00 7.263125e+00 7.558162e+00 5.204327e+00 3.304561e+00 3.615280e+00 3.814893e+00 2.335857e+00 1.879766e+00 2.129868e+01 3.082055e-02 4.604637e-02 1.314680e-02 -3.930395e-02 5.369104e-02 1.423942e-01 1.311634e-01 3.292409e-01 4.206383e-01 3.315688e-01 4.154967e-01 3.560241e-01 1.396603e-01 -8.162707e-03 -8.912294e-02 -3.795069e-01 -6.139075e-01 -5.463176e-01 -3.024045e-01 -7.413634e-02 1.934681e-02 1.871008e-03 -2.005147e-02 1.488778e-02 2.387393e-02 -1.277363e-01
<VARIANCE> 39
 2.261945e+00 2.728976e+00 3.007258e+00 3.297765e+00 5.684412e+00 8.251774e+00 8.748608e+00 7.759941e+00 9.166412e+00 1.045712e+01 9.857353e+00 9.519011e+00 7.314606e-01 1.619555e-01 2.974458e-01 4.549126e-01 5.978808e-01 8.029991e-01 8.477588e-01 9.396212e-01 1.221556e+00 1.329233e+00 1.167685e+00 1.023390e+00 1.052846e+00 3.540837e-02 3.452284e-02 6.106709e-02 6.505397e-02 7.096907e-02 1.092188e-01 1.880708e-01 1.698627e-01 1.579746e-01 2.173641e-01 2.189727e-01 2.226405e-01 2.106501e-01 7.774027e-03
<GCONST> 5.523592e+01
<MIXTURE> 2 2.424538e-02
<MEAN> 39
 -2.104396e+00 2.703059e+00 2.860436e+00 4.458966e+00 6.319647e-02 7.018242e+00 4.435832e+00 1.652131e+00 3.784836e+00 3.266964e+00 4.547969e-02 -4.381876e-02 2.016743e+01 3.036032e-01 1.918457e-01 -4.335353e-01 3.300605e-01 4.184584e-01 -4.312446e-01 3.198012e-01 2.142086e-01 -1.251010e-01 1.701187e-01 -4.715881e-02 1.477831e-01 1.812783e-02 2.936425e-01 1.758117e-01 -4.923780e-01 -2.178392e-02 4.844765e-01 -2.928102e-01 -3.754670e-02 2.327524e-01 -8.501963e-02 1.289551e-02 3.010862e-01 2.888935e-01 9.409041e-03
<VARIANCE> 39
 3.251541e+00 3.176092e+00 4.145007e+00 8.197976e+00 8.995218e+00 1.225413e+01 1.454818e+01 1.008737e+01 1.185522e+01 1.626388e+01 8.383022e+00 1.318855e+01 1.056371e+00 4.345026e-01 4.915279e-01 1.093772e+00 7.294993e-01 1.066066e+00 1.734925e+00 1.206095e+00 1.230243e+00 1.485815e+00 1.103253e+00 1.144414e+00 1.083047e+00 5.474760e-02 5.328658e-02 5.604460e-02 8.932181e-02 1.613504e-01 1.674157e-01 2.560421e-01 3.076587e-01 2.261864e-01 2.642723e-01 3.512281e-01 1.978342e-01 2.699347e-01 8.791940e-03
<GCONST> 6.838594e+01
<MIXTURE> 3 2.782463e-02
<MEAN> 39
 -2.457666e-01 4.821383e+00 4.646924e-01 5.657009e+00 4.603695e+00 6.184031e+00 6.482984e+00 5.822771e+00 5.638710e+00 5.808745e+00 3.597244e+00 2.532380e+00 2.110850e+01 -1.526904e-01 5.932393e-03 4.455051e-01 1.122687e-01 1.527957e-01 5.513693e-01 2.115644e-01 4.458489e-01 5.260243e-01 5.262463e-01 5.790306e-01 3.667564e-01 2.656409e-01 -1.606081e-01 -1.896772e-01 -1.033829e-01 -2.014440e-01 -1.975211e-01 -9.773361e-02 -3.168710e-01 -3.924323e-01 -3.333088e-01 -3.665563e-01 -2.244241e-01 -8.300747e-02 -1.352126e-01
<VARIANCE> 39
 2.959251e+00 3.007493e+00 4.609728e+00 6.269499e+00 8.532410e+00 9.513499e+00 9.517568e+00 8.922991e+00 1.018291e+01 1.021587e+01 8.432449e+00 9.069244e+00 8.875058e-01 7.206561e-01 6.136060e-01 9.142112e-01 9.765852e-01 1.290922e+00 1.460419e+00 1.266460e+00 1.402292e+00 1.701202e+00 1.397623e+00 1.233646e+00 9.935836e-01 4.448691e-02 9.977188e-02 8.494587e-02 1.474398e-01 1.253835e-01 2.140073e-01 2.204970e-01 1.985977e-01 2.242763e-01 3.037092e-01 2.493845e-01 1.976673e-01 1.905287e-01 8.195734e-03
<GCONST> 6.757387e+01
<MIXTURE> 4 2.514081e-02
<MEAN> 39
 2.090505e+00 4.162585e+00 -2.207987e+00 -4.114107e+00 -5.393193e+00 -3.890152e+00 -3.053459e+00 -2.440995e-01 -5.881341e-01 1.808141e+00 -1.418618e+00 -4.504076e-01 2.113553e+01 -7.925754e-01 6.048819e-01 5.718877e-01 1.940965e+00 8.306131e-01 9.953712e-02 9.574404e-01 -8.272074e-02 5.446108e-02 -3.893995e-01 1.185828e-01 1.053850e-01 -2.181317e-01 -2.677812e-01 -3.851819e-02 -1.919986e-01 -1.373159e-01 1.879714e-01 4.032373e-01 4.895860e-02 -6.971788e-02 5.946421e-02 4.302658e-02 1.543356e-01 -5.241074e-03 6.212806e-03
<VARIANCE> 39
 1.477328e+01 2.743523e+01 3.697199e+01 3.532611e+01 5.549871e+01 5.402576e+01 4.802542e+01 4.396293e+01 3.664160e+01 4.178416e+01 3.980140e+01 3.293906e+01 1.020262e+00 1.873465e+00 2.430972e+00 3.162075e+00 2.684591e+00 5.776330e+00 3.926645e+00 3.803750e+00 3.732336e+00 3.674885e+00 3.390365e+00 3.364391e+00 2.474149e+00 4.019776e-02 1.837603e-01 2.395626e-01 2.421508e-01 4.402933e-01 5.116912e-01 5.182046e-01 4.950833e-01 5.568858e-01 4.561491e-01 4.865342e-01 4.304681e-01 3.914803e-01 6.699169e-03
<GCONST> 1.096376e+02
<MIXTURE> 5 2.139082e-02
<MEAN> 39
 -8.951533e-01 2.825658e+00 -5.359012e-01 5.947062e+00 6.540812e+00 9.573567e+00 8.227446e+00 4.143093e+00 1.187943e+00 1.654607e+00 1.494567e+00 1.012693e+00 2.035769e+01 5.275666e-02 -1.379485e-02 -3.178142e-01 -1.575924e-01 -8.483277e-02 -3.092928e-01 8.290465e-02 4.200342e-02 -1.577944e-01 -8.655576e-02 -2.545457e-01 -1.983301e-01 -1.134738e-01 1.614926e-02 1.080132e-01 3.705881e-02 -2.178838e-01 -4.633698e-01 -6.149228e-01 -5.896236e-01 -1.275163e-01 3.609455e-01 2.450825e-01 7.407422e-02 8.791854e-02 -4.917105e-02
<VARIANCE> 39
 2.236355e+00 3.069025e+00 3.815901e+00 5.020553e+00 6.039917e+00 7.818959e+00 6.505848e+00 8.438352e+00 8.150316e+00 9.762933e+00 8.385082e+00 9.312402e+00 8.597120e-01 3.017512e-01 3.433798e-01 7.073760e-01 6.002114e-01 9.530641e-01 1.232485e+00 1.134067e+00 1.136509e+00 1.212660e+00 1.316700e+00 1.220294e+00 1.051141e+00 3.829427e-02 4.841493e-02 5.767199e-02 1.030857e-01 1.057466e-01 1.405814e-01 1.726621e-01 1.549512e-01 1.919209e-01 1.937473e-01 2.165916e-01 2.050519e-01 2.100561e-01 8.623561e-03
<GCONST> 5.904271e+01
<MIXTURE> 6 2.206538e-02
<MEAN> 39
 -7.590723e+00 8.005158e+00 -1.119275e+00 2.736872e+00 7.110508e+00 5.059595e-01 6.349446e+00 3.194615e+00 2.479546e+00 4.041393e+00 2.359487e+00 2.812967e+00 2.004904e+01 -2.141706e-01 -3.173672e-02 -1.927697e-02 -4.743738e-02 1.922000e-01 -1.318018e-01 1.253233e-01 1.136503e-01 2.466440e-01 2.396546e-01 9.329337e-02 8.960262e-02 4.892367e-02 7.220178e-01 -5.101504e-01 1.293235e-02 1.171531e-01 -5.027092e-01 4.748035e-01 -3.473575e-01 2.950198e-02 6.109525e-02 -1.083134e-01 -3.709232e-02 -1.092239e-01 -2.483103e-02
<VARIANCE> 39
 1.876265e+01 8.141478e+00 1.061855e+01 2.029718e+01 1.758681e+01 1.760587e+01 1.697209e+01 1.822328e+01 1.648726e+01 1.599062e+01 1.479756e+01 1.452195e+01 1.396309e+00 3.118761e+00 1.310230e+00 9.419087e-01 1.356450e+00 2.023687e+00 1.663191e+00 1.474687e+00 1.450482e+00 1.562705e+00 1.424841e+00 1.149061e+00 1.023011e+00 5.610652e-02 3.862840e-01 1.575223e-01 2.319373e-01 3.424927e-01 3.309406e-01 2.956809e-01 3.224073e-01 3.201268e-01 3.989395e-01 3.230014e-01 2.784409e-01 2.500630e-01 1.091165e-02
<GCONST> 8.737668e+01
<MIXTURE> 7 3.974130e-02
<MEAN> 39
 -1.312223e-01 3.378801e+00 -5.861052e-01 5.844813e+00 5.669190e+00 8.514659e+00 8.923091e+00 7.809581e+00 7.170527e+00 5.812847e+00 3.412135e+00 1.943079e+00 2.112022e+01 -4.787625e-02 -1.098317e-01 -1.872670e-01 -2.032521e-01 -1.000880e-01 -3.789679e-02 -5.091752e-02 2.948416e-02 1.053371e-01 -1.046067e-03 -5.113637e-02 5.708881e-03 -2.825241e-02 -1.354518e-03 4.004334e-02 -2.664264e-02 -1.869897e-01 -3.214027e-01 -4.895070e-01 -6.603883e-01 -6.979862e-01 -5.790139e-01 -3.672096e-01 -2.179795e-01 -9.033824e-02 -1.558813e-01
<VARIANCE> 39
 1.762967e+00 2.183692e+00 3.250202e+00 4.332114e+00 5.673450e+00 6.239524e+00 6.271358e+00 6.417201e+00 7.498909e+00 7.301201e+00 6.760673e+00 6.991805e+00 7.950228e-01 1.050834e-01 1.806424e-01 3.659839e-01 5.175166e-01 6.546352e-01 8.015167e-01 1.026764e+00 1.088995e+00 1.130770e+00 1.101988e+00 1.028719e+00 9.766139e-01 3.987889e-02 1.792655e-02 3.561125e-02 6.165260e-02 8.509459e-02 1.264069e-01 1.287620e-01 1.321991e-01 1.484492e-01 1.660297e-01 1.772546e-01 1.510089e-01 1.561733e-01 6.519316e-03
<GCONST> 4.844059e+01
<MIXTURE> 8 3.026212e-02
<MEAN> 39
 1.031939e+00 5.212670e+00 4.578083e-01 5.912497e+00 4.917246e+00 4.887041e+00 1.772955e+00 9.233196e-01 4.162474e+00 5.279573e+00 3.310670e+00 2.415885e+00 2.104826e+01 -9.001451e-02 -1.310412e-01 -2.369596e-01 -3.423274e-01 -3.549735e-01 -3.492286e-01 -1.463595e-01 -8.741974e-02 7.412300e-02 2.078784e-01 1.947568e-01 2.099278e-01 -8.225049e-02 -1.406966e-01 -1.605271e-01 -1.305341e-01 -2.189554e-01 -2.518157e-01 -1.451189e-03 3.670557e-01 3.247991e-01 -1.285076e-01 -2.919212e-01 -2.063970e-01 -1.439845e-01 -9.312803e-02
<VARIANCE> 39
 1.842102e+00 1.669784e+00 2.661414e+00 4.148107e+00 5.465605e+00 6.822631e+00 6.061671e+00 5.729337e+00 6.877113e+00 7.249152e+00 6.451925e+00 7.049877e+00 6.555952e-01 2.800702e-01 2.728159e-01 4.225501e-01 5.940028e-01 8.748897e-01 9.476215e-01 1.099691e+00 1.037230e+00 1.165640e+00 1.180577e+00 9.941982e-01 1.011665e+00 3.514517e-02 3.762126e-02 4.815537e-02 6.384541e-02 9.221985e-02 1.230962e-01 1.473844e-01 1.275174e-01 1.414086e-01 1.579676e-01 1.657830e-01 1.374907e-01 1.503208e-01 6.423272e-03
<GCONST> 5.059684e+01
<MIXTURE> 9 1.587986e-02
<MEAN> 39
 -2.820404e+00 1.339327e+00 -5.451965e-01 1.792337e+00 3.573025e-01 3.813394e+00 1.720730e+00 -3.809320e-02 -3.706751e-01 1.574548e+00 1.095764e+00 7.349651e-01 1.840948e+01 2.784958e-01 2.060033e-01 -1.973408e-01 3.796527e-01 4.230495e-01 -1.948412e-01 3.246768e-01 2.761716e-01 9.063256e-03 7.735448e-02 4.343658e-03 5.085522e-03 -2.212179e-03 2.135226e-01 3.791248e-01 3.060492e-02 2.793557e-01 4.173810e-01 1.393739e-01 3.365589e-01 5.514271e-01 5.337983e-01 2.666588e-01 2.026434e-01 1.790797e-01 2.110079e-01
<VARIANCE> 39
 4.554562e+00 5.661472e+00 7.925534e+00 1.016611e+01 1.643653e+01 1.361222e+01 1.226694e+01 1.094077e+01 1.653704e+01 1.540147e+01 1.212916e+01 1.559235e+01 1.111725e+00 8.643158e-01 7.227400e-01 1.340539e+00 9.282377e-01 1.297184e+00 2.045323e+00 1.312714e+00 1.277710e+00 1.785743e+00 1.560628e+00 1.266868e+00 1.066358e+00 7.590514e-02 1.408277e-01 1.128426e-01 1.412358e-01 1.909423e-01 3.742597e-01 2.483099e-01 2.580408e-01 2.253684e-01 3.847902e-01 2.984340e-01 2.318673e-01 2.978835e-01 1.119732e-02
<GCONST> 7.819825e+01
<MIXTURE> 10 2.336868e-02
<MEAN> 39
 8.536052e-01 4.928912e+00 6.273311e-01 6.455500e+00 6.018346e+00 8.083851e+00 7.613498e+00 5.852463e+00 4.547994e+00 2.763278e+00 1.202085e+00 1.028255e+00 2.128317e+01 1.441476e-01 2.383480e-01 2.883345e-01 3.690240e-01 4.463949e-01 4.396979e-01 3.732708e-01 3.135678e-01 4.174639e-01 2.936994e-01 1.951827e-01 1.576162e-01 2.618775e-01 -1.237245e-01 -1.708755e-01 -2.312803e-01 -3.013219e-01 -3.923379e-01 -4.861615e-01 -5.353743e-01 -4.567122e-01 -2.116133e-01 6.260063e-02 1.029385e-01 6.883608e-02 -1.611940e-01
<VARIANCE> 39
 1.503963e+00 1.559298e+00 2.357941e+00 3.769438e+00 5.877492e+00 6.062545e+00 5.730093e+00 5.484682e+00 6.681465e+00 7.672980e+00 6.241260e+00 7.470987e+00 6.979764e-01 8.533511e-02 1.886290e-01 3.299655e-01 4.569283e-01 6.122288e-01 7.140623e-01 8.737653e-01 9.499761e-01 9.873740e-01 1.109064e+00 9.543355e-01 1.016993e+00 3.339120e-02 1.864813e-02 3.424775e-02 4.887832e-02 7.847815e-02 1.150645e-01 1.306175e-01 1.157238e-01 1.446514e-01 1.636211e-01 1.674450e-01 1.255652e-01 1.692259e-01 5.804885e-03
<GCONST> 4.497651e+01
<MIXTURE> 11 2.402095e-02
<MEAN> 39
 -3.702085e+00 1.070251e+00 5.179172e+00 1.820445e+00 -1.231181e+00 1.178743e+01 1.225511e+00 1.527678e+00 7.108620e+00 1.715671e+00 3.713056e+00 2.116054e+00 2.016927e+01 -1.475600e-01 -2.397449e-01 1.965843e-01 -2.459107e-01 -6.675602e-01 1.569219e-01 -1.399504e-01 -3.294884e-01 1.520176e-01 -1.390556e-01 -8.822930e-02 1.974102e-01 -8.276156e-02 4.549153e-01 3.774613e-01 -8.683683e-01 3.213481e-01 6.093795e-01 -9.864507e-01 3.976606e-01 2.207496e-01 -5.994036e-01 1.850936e-01 -2.140325e-01 -4.140835e-02 -4.570063e-02
<VARIANCE> 39
 2.322414e+00 5.278825e+00 7.052389e+00 7.534005e+00 1.283937e+01 1.070638e+01 1.141994e+01 1.095145e+01 1.197947e+01 1.329636e+01 1.062655e+01 1.298313e+01 1.337621e+00 2.695807e-01 3.746123e-01 9.682918e-01 7.794564e-01 1.350027e+00 1.477769e+00 1.256077e+00 1.080874e+00 1.571509e+00 1.539806e+00 1.107397e+00 1.013837e+00 5.882781e-02 3.565572e-02 1.018435e-01 1.217133e-01 1.199202e-01 2.527507e-01 1.986819e-01 2.054718e-01 2.268646e-01 2.937467e-01 2.912691e-01 2.644720e-01 2.390724e-01 1.191298e-02
<GCONST> 6.923358e+01
<MIXTURE> 12 3.301203e-02
<MEAN> 39
 3.930612e-01 4.145575e+00 -5.101163e-01 5.304548e+00 4.980175e+00 6.624343e+00 5.506010e+00 5.052940e+00 6.335949e+00 7.776135e+00 6.932310e+00 4.976066e+00 2.137020e+01 -3.059126e-02 -6.777199e-02 -1.618792e-01 -1.496676e-01 -1.581945e-01 -1.623521e-01 -1.977414e-01 -3.475249e-01 -3.871057e-01 -3.770429e-01 -2.988158e-01 -6.208235e-02 -7.552170e-02 -6.106687e-02 -5.364520e-02 -2.966170e-02 -9.984122e-02 -2.475339e-01 -2.306761e-01 -1.619086e-01 -2.716775e-01 -4.417132e-01 -6.778343e-01 -7.618145e-01 -5.163720e-01 -1.793340e-01
<VARIANCE> 39
 1.874457e+00 1.824692e+00 3.430886e+00 4.423558e+00 5.384943e+00 6.623570e+00 7.021757e+00 8.086740e+00 9.752127e+00 7.344910e+00 6.159362e+00 6.883700e+00 7.564126e-01 1.204107e-01 2.171129e-01 3.950424e-01 5.361177e-01 6.680515e-01 7.387128e-01 9.269545e-01 1.076464e+00 1.127035e+00 1.131682e+00 1.008858e+00 9.795860e-01 3.579324e-02 2.131609e-02 3.462217e-02 8.170632e-02 9.339470e-02 1.130538e-01 1.266623e-01 1.597102e-01 1.894681e-01 1.924770e-01 1.668241e-01 1.369872e-01 1.474597e-01 5.650913e-03
<GCONST> 4.962864e+01
<MIXTURE> 13 2.091110e-02
<MEAN> 39
 9.383760e-01 4.446993e+00 7.805873e-02 5.785696e+00 4.565347e+00 6.904982e+00 5.915002e+00 3.669136e+00 3.922248e+00 2.642808e+00 1.262225e-01 1.988140e-01 2.089765e+01 -7.500877e-02 -1.321690e-01 -1.739375e-01 -3.587863e-01 -6.374595e-01 -6.914846e-01 -5.989180e-01 -3.981709e-01 -2.589320e-01 -2.784410e-01 -7.448987e-02 -3.885868e-03 -2.240887e-01 -4.141650e-02 -1.957037e-02 -6.627366e-02 -9.114075e-02 -5.860453e-02 -2.168351e-01 -1.629011e-01 2.738082e-02 3.428802e-02 2.032695e-01 3.637214e-01 2.207896e-01 -2.375202e-02
<VARIANCE> 39
 1.363275e+00 1.221549e+00 2.042777e+00 3.064048e+00 3.841575e+00 4.177772e+00 4.495397e+00 5.181470e+00 5.058005e+00 5.528131e+00 4.780599e+00 5.548683e+00 4.569220e-01 1.018199e-01 1.654755e-01 2.757081e-01 4.056636e-01 5.023523e-01 6.510158e-01 9.098859e-01 9.604902e-01 8.176081e-01 8.220006e-01 9.174060e-01 7.791410e-01 1.739218e-02 1.753706e-02 2.566760e-02 4.207091e-02 7.394756e-02 8.093623e-02 1.128496e-01 1.138712e-01 1.199517e-01 1.182470e-01 1.337466e-01 1.103915e-01 1.108160e-01 4.458176e-03
<GCONST> 3.702799e+01
<MIXTURE> 14 2.064464e-02
<MEAN> 39
 -2.615849e+00 5.991243e+00 -2.648641e-01 3.451997e+00 3.534575e+00 4.821169e+00 3.152755e+00 1.554182e+00 1.933148e+00 1.795896e+00 8.653507e-01 6.033990e-01 1.994688e+01 -1.345197e-01 -1.316329e-01 -1.097894e-01 -2.874929e-01 -3.554420e-01 -2.168103e-01 -2.670669e-01 -1.635470e-01 2.614125e-02 1.182641e-01 -3.113030e-02 -1.323682e-01 -1.446795e-01 2.349439e-01 -2.568002e-01 -9.864676e-03 3.348819e-02 2.661220e-05 1.093147e-02 1.474676e-01 2.758177e-01 2.333332e-01 2.785895e-01 2.224035e-01 1.492793e-01 2.660171e-02
<VARIANCE> 39
 4.077486e+00 4.346691e+00 8.422567e+00 1.168299e+01 1.516146e+01 1.168708e+01 1.219167e+01 1.112834e+01 1.525641e+01 1.397035e+01 1.265277e+01 1.089247e+01 1.018244e+00 3.100964e-01 2.826251e-01 4.413641e-01 5.360180e-01 7.721903e-01 7.701649e-01 9.246938e-01 8.928664e-01 1.027251e+00 1.138126e+00 1.059186e+00 9.767297e-01 3.167378e-02 7.533028e-02 6.722057e-02 1.314765e-01 1.798291e-01 2.674089e-01 2.126634e-01 2.463747e-01 2.320104e-01 3.292987e-01 2.560145e-01 2.574689e-01 1.980852e-01 8.228729e-03
<GCONST> 6.667671e+01
<MIXTURE> 15 2.358825e-02
<MEAN> 39
 -9.041194e-01 3.712367e+00 -4.882929e-01 5.207480e+00 3.917012e+00 5.517791e+00 3.998693e+00 2.096835e+00 1.482539e+00 1.317776e+00 1.026768e+00 1.262859e+00 1.969160e+01 -4.177411e-01 1.680295e-01 5.197909e-01 2.414244e-02 3.861237e-02 3.826088e-01 1.437922e-01 3.972214e-01 6.549131e-01 5.210268e-01 5.490807e-01 5.110679e-01 1.443931e-01 -2.239131e-01 8.280582e-02 -2.237312e-02 -1.768467e-01 -7.027125e-02 -8.730037e-02 2.075021e-02 1.717036e-01 2.369154e-01 3.537665e-01 2.000681e-01 1.330459e-01 5.230333e-02
<VARIANCE> 39
 3.171255e+00 3.982162e+00 4.771229e+00 6.079286e+00 6.794033e+00 7.362820e+00 9.406990e+00 9.954296e+00 1.012399e+01 8.530970e+00 9.619732e+00 1.110769e+01 8.328337e-01 2.447575e+00 1.226456e+00 1.376631e+00 1.479257e+00 1.996793e+00 2.276960e+00 1.889202e+00 1.476297e+00 2.001589e+00 1.256417e+00 1.251075e+00 1.110359e+00 5.735574e-02 1.890618e-01 1.125574e-01 1.337421e-01 1.572811e-01 2.032905e-01 2.110978e-01 2.090009e-01 2.192207e-01 2.397069e-01 2.024873e-01 2.247260e-01 2.172456e-01 6.839743e-03
<GCONST> 7.274944e+01
<MIXTURE> 16 3.161543e-02
<MEAN> 39
 1.451757e+00 5.226512e+00 -5.451865e-01 4.513588e+00 3.894945e+00 4.446390e+00 2.871569e+00 1.991121e+00 2.561904e+00 2.015711e+00 1.793695e+00 2.562963e+00 2.075931e+01 -1.087994e-01 -2.323820e-01 -3.782155e-01 -4.265442e-01 -4.579068e-01 -4.484188e-01 -4.964642e-01 -5.419019e-01 -6.093044e-01 -5.520000e-01 -3.959343e-01 -2.833297e-01 -3.337240e-01 -1.164828e-01 -1.504141e-01 3.011473e-02 6.947646e-02 -3.878605e-02 9.942564e-02 2.422588e-01 2.352360e-01 2.064106e-01 2.768075e-01 7.398637e-02 -1.624480e-01 -2.497596e-02
<VARIANCE> 39
 1.394244e+00 1.346351e+00 2.475123e+00 3.444262e+00 4.951683e+00 5.022364e+00 5.448798e+00 5.756462e+00 7.238184e+00 6.737680e+00 7.045474e+00 6.505785e+00 5.767645e-01 9.872950e-02 1.794569e-01 3.180490e-01 4.449560e-01 5.726703e-01 7.753570e-01 9.058161e-01 1.111001e+00 1.076655e+00 1.102682e+00 1.182565e+00 8.857433e-01 2.023219e-02 1.842274e-02 3.050846e-02 4.908116e-02 7.539956e-02 1.104370e-01 1.286105e-01 1.254935e-01 1.427399e-01 1.716997e-01 1.588678e-01 1.645765e-01 1.469139e-01 5.927853e-03
<GCONST> 4.398282e+01
<MIXTURE> 17 3.521314e-02
<MEAN> 39
 1.136355e+00 5.585645e+00 1.535839e+00 6.565777e+00 4.825890e+00 6.378716e+00 6.478725e+00 5.099047e+00 3.921023e+00 3.157183e+00 1.176288e+00 5.966564e-01 2.129981e+01 -1.439944e-01 -2.792605e-01 -2.524460e-01 -3.096539e-01 -3.552069e-01 -3.200894e-01 -2.638004e-01 -3.530663e-01 -2.140922e-01 -7.481749e-02 -1.690505e-02 -2.825742e-02 -1.430917e-01 -1.473154e-01 -2.733051e-01 -3.530554e-01 -3.045903e-01 -2.269158e-01 -2.421823e-01 -3.762616e-01 -3.715540e-01 -1.459967e-01 -2.435425e-02 9.438659e-02 1.184988e-01 -1.856505e-01
<VARIANCE> 39
 1.663371e+00 1.656012e+00 2.300128e+00 3.821038e+00 4.976831e+00 5.965026e+00 7.444969e+00 7.645811e+00 1.001013e+01 8.430481e+00 8.458204e+00 7.282454e+00 6.826495e-01 1.165975e-01 1.923421e-01 3.343074e-01 4.761625e-01 5.929884e-01 7.399119e-01 9.034775e-01 1.007001e+00 1.237567e+00 1.204674e+00 1.076210e+00 9.465344e-01 3.193362e-02 2.125531e-02 3.302326e-02 4.993875e-02 8.591046e-02 1.075521e-01 1.296073e-01 1.480123e-01 1.670999e-01 2.088436e-01 1.690551e-01 1.730944e-01 1.432139e-01 4.201627e-03
<GCONST> 4.769179e+01
<MIXTURE> 18 2.953238e-02
<MEAN> 39
 -6.982592e+00 3.616265e+00 -1.095866e+00 3.594910e+00 2.410123e+00 4.954836e+00 1.551670e+00 4.323520e+00 3.458804e+00 3.262649e+00 2.119696e+00 1.923671e+00 1.957086e+01 -1.840451e-02 -2.979826e-01 7.784151e-03 -2.448150e-01 1.988138e-02 3.831372e-03 -1.548236e-01 7.895830e-02 -1.345415e-01 -2.481503e-01 -5.252922e-02 -2.116546e-01 -5.990366e-02 5.212988e-01 5.185273e-02 1.182990e-01 -8.410931e-02 7.687308e-02 -1.195982e-01 2.009319e-01 -1.455006e-01 -1.462748e-01 -1.192621e-02 1.085289e-02 1.292255e-02 1.428956e-03
<VARIANCE> 39
 1.613852e+01 3.258780e+01 3.398737e+01 3.120738e+01 2.846938e+01 2.695515e+01 2.927835e+01 2.520156e+01 2.870778e+01 1.980050e+01 1.686296e+01 1.563006e+01 1.823944e+00 2.182789e+00 1.386269e+00 1.925645e+00 1.579237e+00 1.770106e+00 1.711503e+00 1.865885e+00 1.983800e+00 2.221149e+00 1.574749e+00 1.629972e+00 1.590333e+00 6.686954e-02 3.300875e-01 4.673227e-01 5.561684e-01 5.122252e-01 4.719948e-01 4.588925e-01 4.835202e-01 4.777533e-01 5.603089e-01 3.872100e-01 3.430408e-01 3.330790e-01 1.230953e-02
<GCONST> 1.005956e+02
<MIXTURE> 19 3.393669e-02
<MEAN> 39
 -1.015231e+00 3.440160e+00 -1.134193e+00 3.107687e+00 1.580785e+00 4.176174e+00 3.422623e+00 3.100751e+00 4.669187e+00 6.313955e+00 5.018044e+00 3.728436e+00 1.996649e+01 5.574184e-02 3.346278e-02 -1.963361e-01 3.822001e-02 1.433511e-01 -1.694979e-01 2.111799e-01 2.190674e-01 -1.081720e-02 2.030850e-01 6.339439e-02 1.337737e-01 1.640168e-02 -5.741680e-02 8.760783e-02 8.829322e-02 1.064535e-01 2.359846e-01 6.328148e-02 4.787721e-02 1.964961e-02 -2.096348e-01 -4.313940e-01 -3.996598e-01 -2.586523e-01 -3.574777e-03
<VARIANCE> 39
 3.131928e+00 4.636512e+00 4.870116e+00 5.937669e+00 8.162971e+00 9.470229e+00 9.385179e+00 9.822492e+00 9.620934e+00 8.002945e+00 6.680294e+00 8.012943e+00 1.084998e+00 1.165497e+00 9.824553e-01 1.342135e+00 1.318363e+00 1.725163e+00 2.034778e+00 1.579725e+00 1.564424e+00 1.803820e+00 1.464680e+00 1.445227e+00 1.177073e+00 4.898497e-02 1.195183e-01 1.095178e-01 1.339195e-01 1.517058e-01 1.928180e-01 2.212493e-01 2.252454e-01 2.197323e-01 2.348258e-01 1.795120e-01 1.738182e-01 1.879773e-01 6.843236e-03
<GCONST> 7.038277e+01
<MIXTURE> 20 2.791018e-02
<MEAN> 39
 -8.208909e-01 2.891263e+00 -1.695927e+00 4.058615e+00 4.354756e+00 7.820000e+00 8.426657e+00 6.556056e+00 5.815639e+00 4.058903e+00 3.979736e-01 -2.299515e-01 2.018384e+01 -9.883179e-02 -9.445308e-02 -1.922772e-01 -3.649185e-01 -5.110939e-01 -5.767316e-01 -6.584374e-01 -6.010639e-01 -4.239732e-01 -2.689664e-01 -3.135801e-01 -3.044461e-01 -2.613514e-01 4.673581e-02 1.140968e-01 1.780546e-01 1.022946e-01 -5.583350e-02 -2.723238e-01 -4.982349e-01 -4.014478e-01 -2.480527e-01 -3.146177e-02 3.131383e-01 2.917337e-01 1.345861e-02
<VARIANCE> 39
 2.015446e+00 2.194419e+00 2.834552e+00 3.723178e+00 4.973909e+00 6.312963e+00 6.228911e+00 7.668529e+00 7.465767e+00 7.649039e+00 5.987031e+00 6.842818e+00 7.935371e-01 1.470742e-01 2.191519e-01 4.175598e-01 4.462889e-01 6.720577e-01 9.393371e-01 1.042808e+00 9.986904e-01 9.620589e-01 1.024127e+00 1.109224e+00 1.048826e+00 3.400763e-02 3.026344e-02 4.110283e-02 6.824455e-02 8.304805e-02 1.096554e-01 1.678633e-01 1.531404e-01 1.864665e-01 1.795538e-01 1.756108e-01 1.316638e-01 1.417959e-01 7.641561e-03
<GCONST> 4.985582e+01
<MIXTURE> 21 3.578568e-02
<MEAN> 39
 6.505442e-01 4.405577e+00 1.015989e-01 5.351497e+00 3.197696e+00 4.207006e+00 4.896174e+00 5.567286e+00 6.317699e+00 4.649819e+00 2.624696e+00 2.255981e+00 2.086699e+01 -2.314741e-01 -4.230035e-01 -5.152093e-01 -5.568202e-01 -4.464241e-01 -2.906857e-01 -1.411612e-01 -6.661065e-02 1.220498e-01 1.735336e-01 1.951550e-01 1.373535e-01 -2.233264e-01 -4.197716e-02 -4.811756e-02 -9.825720e-02 -7.189131e-02 7.651287e-02 1.441740e-01 -7.414134e-02 -3.509135e-01 -4.237427e-01 -1.914795e-01 -8.521921e-02 -1.337225e-01 -7.945684e-02
<VARIANCE> 39
 1.623444e+00 1.540443e+00 2.455911e+00 3.708466e+00 4.697626e+00 5.387460e+00 6.116744e+00 5.147397e+00 5.991900e+00 6.414410e+00 6.041957e+00 6.737247e+00 5.478058e-01 1.238842e-01 1.546534e-01 3.002595e-01 4.333920e-01 6.206923e-01 8.303515e-01 9.357461e-01 9.062772e-01 1.005794e+00 9.490116e-01 8.122210e-01 8.026612e-01 3.058983e-02 1.584183e-02 2.464669e-02 5.341132e-02 8.137133e-02 9.728573e-02 1.123258e-01 1.363615e-01 1.179802e-01 1.490054e-01 1.496778e-01 1.345890e-01 1.526556e-01 4.425898e-03
<GCONST> 4.241252e+01
<MIXTURE> 22 2.634172e-02
<MEAN> 39
 3.497013e-01 4.134537e+00 -5.626090e-03 5.524675e+00 4.648782e+00 6.676568e+00 5.767293e+00 3.200162e+00 1.584429e+00 2.279816e-01 -1.476140e+00 -4.999788e-01 2.022993e+01 -2.491131e-01 -3.141842e-01 -3.498796e-01 -3.180735e-01 -4.292213e-01 -4.585940e-01 -5.719953e-01 -7.913037e-01 -9.329302e-01 -9.908698e-01 -8.621344e-01 -5.853127e-01 -4.331391e-01 -2.143251e-02 -2.221321e-02 -9.973022e-02 -1.580440e-01 -2.075044e-01 -2.615708e-01 -2.517770e-01 -3.210988e-02 2.553598e-01 4.536400e-01 5.028673e-01 2.597498e-01 -3.162311e-02
<VARIANCE> 39
 1.681741e+00 2.068054e+00 3.394893e+00 4.245673e+00 6.434991e+00 6.459539e+00 6.778532e+00 8.128814e+00 7.746136e+00 7.656784e+00 6.227515e+00 6.733841e+00 8.052998e-01 1.079664e-01 1.855029e-01 3.722068e-01 4.464529e-01 6.467151e-01 7.484336e-01 9.237515e-01 1.027033e+00 1.109979e+00 9.780537e-01 1.018762e+00 9.765202e-01 2.672916e-02 2.040889e-02 3.584512e-02 5.912961e-02 7.793285e-02 1.333245e-01 1.322926e-01 1.521511e-01 1.858593e-01 1.656320e-01 1.677348e-01 1.378625e-01 1.542165e-01 8.052683e-03
<GCONST> 4.844241e+01
<MIXTURE> 23 3.120981e-02
<MEAN> 39
 -5.095008e-02 4.422028e+00 7.370993e-02 4.629797e+00 3.553456e+00 5.182991e+00 4.195828e+00 3.512009e+00 3.056987e+00 1.970047e+00 8.204591e-01 1.283726e+00 2.027890e+01 -2.828318e-01 1.104740e-03 -3.336680e-03 -1.777351e-01 -2.035612e-01 -1.395840e-01 -1.783938e-01 -2.279934e-01 -3.293301e-01 -4.382097e-01 -2.751043e-01 -1.938064e-01 -1.078160e-01 -1.342504e-01 -2.036205e-02 -1.180686e-01 -1.340735e-01 -8.252907e-02 -1.590604e-01 -1.054968e-01 -1.145400e-01 -2.893043e-02 1.409800e-01 1.545619e-01 2.101921e-02 -5.205440e-02
<VARIANCE> 39
 2.271409e+00 2.719566e+00 3.533798e+00 4.621874e+00 6.578538e+00 7.556653e+00 8.615633e+00 8.628117e+00 8.514854e+00 7.489139e+00 5.942563e+00 6.428329e+00 8.402396e-01 1.393621e+00 1.239884e+00 1.877680e+00 1.531205e+00 2.494161e+00 2.589288e+00 2.022636e+00 1.867364e+00 2.203168e+00 1.795097e+00 1.449559e+00 1.396778e+00 5.120134e-02 9.450210e-02 8.014929e-02 8.956744e-02 1.296568e-01 1.824322e-01 1.854360e-01 2.136664e-01 1.992678e-01 2.014630e-01 1.816954e-01 1.529542e-01 1.701315e-01 7.300872e-03
<GCONST> 6.827821e+01
<MIXTURE> 24 3.776766e-02
<MEAN> 39
 3.120715e-01 4.240106e+00 -3.335854e-01 5.131807e+00 4.438683e+00 6.127303e+00 5.357351e+00 5.083541e+00 6.167677e+00 5.793498e+00 3.260559e+00 1.734254e+00 2.083290e+01 -1.001936e-01 -1.256279e-01 -1.371934e-01 -1.567672e-01 -3.653736e-01 -5.589017e-01 -7.491843e-01 -9.957093e-01 -1.101536e+00 -1.167248e+00 -1.018401e+00 -5.983854e-01 -3.233765e-01 -3.911522e-02 -6.642391e-02 -6.058939e-02 -8.373472e-02 -1.504212e-01 -1.562020e-01 -1.444972e-01 -2.719654e-01 -4.295520e-01 -3.816322e-01 -2.035418e-01 -3.122665e-02 -1.233624e-01
<VARIANCE> 39
 1.518403e+00 1.880783e+00 3.171560e+00 4.360611e+00 4.866433e+00 5.598913e+00 6.317821e+00 6.886887e+00 6.681368e+00 6.289670e+00 5.332131e+00 6.971936e+00 7.828804e-01 9.777587e-02 1.923541e-01 3.567041e-01 4.756499e-01 6.582921e-01 7.803591e-01 8.987942e-01 9.412455e-01 9.120757e-01 9.520232e-01 1.022690e+00 1.059183e+00 2.563887e-02 1.777530e-02 3.144053e-02 5.493511e-02 8.709975e-02 1.063521e-01 1.133029e-01 1.368331e-01 1.418100e-01 1.530596e-01 1.414649e-01 1.292535e-01 1.467664e-01 6.192723e-03
<GCONST> 4.515997e+01
<MIXTURE> 25 3.707399e-02
<MEAN> 39
 -3.506447e-02 3.682902e+00 -4.236006e-01 6.232650e+00 6.028911e+00 7.112055e+00 4.803988e+00 1.782284e+00 1.038872e+00 2.681644e+00 4.050360e+00 3.997865e+00 2.053052e+01 -1.593566e-01 -2.509010e-01 -3.112939e-01 -3.196339e-01 -3.752072e-01 -3.583685e-01 -3.464327e-01 -4.365794e-01 -4.851636e-01 -4.060882e-01 -4.135706e-01 -3.427320e-01 -2.573046e-01 -8.538623e-03 7.069708e-03 -4.149086e-02 -2.538333e-01 -4.253939e-01 -3.380858e-01 -1.225763e-01 1.718299e-01 3.125652e-01 6.068777e-02 -3.246325e-01 -3.840376e-01 -8.840377e-02
<VARIANCE> 39
 1.903469e+00 2.176680e+00 3.680105e+00 4.333035e+00 4.537459e+00 6.152363e+00 7.024666e+00 6.767575e+00 6.826023e+00 6.898484e+00 5.527719e+00 6.488567e+00 9.074847e-01 1.231351e-01 2.267585e-01 3.534369e-01 4.953544e-01 6.562045e-01 7.880174e-01 1.027741e+00 1.019565e+00 1.108167e+00 1.087351e+00 1.126300e+00 1.075692e+00 2.809053e-02 2.327650e-02 3.857911e-02 7.611841e-02 8.829699e-02 9.828438e-02 1.282702e-01 1.496497e-01 1.538580e-01 1.636078e-01 1.460502e-01 1.277570e-01 1.461061e-01 7.031742e-03
<GCONST> 4.843082e+01
<MIXTURE> 26 3.019181e-02
<MEAN> 39
 -6.111749e-01 3.586442e+00 -2.024905e+00 1.930303e+00 4.934887e-01 1.801779e+00 1.363876e+00 1.506729e+00 2.096911e+00 2.252675e+00 8.264904e-01 4.181958e-01 1.904549e+01 -2.005807e-01 -1.492954e-01 -2.762065e-02 -1.998550e-01 3.794325e-02 -6.858350e-02 -1.354493e-01 -1.383005e-01 -2.933157e-01 -1.158750e-01 4.857662e-03 -1.610106e-01 -1.335560e-01 -1.200038e-01 4.409732e-02 2.360626e-01 2.009421e-01 2.879717e-01 3.765718e-01 2.803749e-01 2.065880e-01 1.260929e-01 1.386592e-01 2.452479e-01 2.225392e-01 1.084011e-01
<VARIANCE> 39
 3.376406e+00 4.047154e+00 5.401660e+00 5.949075e+00 6.457514e+00 7.874810e+00 8.022045e+00 8.929108e+00 1.041286e+01 9.169738e+00 8.393153e+00 9.210953e+00 1.078797e+00 1.327960e+00 1.072131e+00 1.314024e+00 1.333557e+00 1.737491e+00 1.674140e+00 1.658182e+00 1.554645e+00 2.282865e+00 1.483106e+00 1.350535e+00 1.308186e+00 7.432329e-02 1.050824e-01 1.021118e-01 1.352596e-01 1.529849e-01 1.622198e-01 2.140143e-01 2.054482e-01 2.116645e-01 2.710229e-01 2.373345e-01 2.047453e-01 2.223162e-01 8.626187e-03
<GCONST> 7.156837e+01
<MIXTURE> 27 3.721172e-02
<MEAN> 39
 -4.352100e+00 2.547103e+00 3.173254e+00 -4.391141e-01 5.090062e+00 3.290782e+00 1.666389e+00 5.994793e+00 1.644264e+00 3.171406e+00 2.733088e+00 1.251396e+00 1.938453e+01 1.619222e-01 -5.854108e-02 2.046283e-02 1.482914e-01 3.194420e-02 3.346981e-02 1.470488e-01 9.311762e-02 5.784589e-02 5.585735e-02 8.508080e-02 1.180074e-01 3.531543e-02 1.773287e-01 7.905485e-02 -1.979589e-01 2.328772e-01 -1.776688e-01 7.360380e-02 5.776688e-02 -2.677483e-01 8.361476e-02 -6.341945e-02 -5.452977e-02 4.116211e-02 4.800418e-04
<VARIANCE> 39
 4.985738e+00 1.023665e+01 1.020973e+01 1.636560e+01 1.357353e+01 1.795876e+01 2.956355e+01 1.726455e+01 2.248599e+01 1.781437e+01 1.463515e+01 1.252184e+01 1.601226e+00 3.725988e-01 3.846527e-01 5.760231e-01 8.710675e-01 9.363818e-01 1.122043e+00 1.321086e+00 1.415600e+00 1.394198e+00 1.307904e+00 1.188383e+00 1.089936e+00 5.658212e-02 8.945660e-02 1.029967e-01 1.273537e-01 2.416700e-01 2.153340e-01 2.833037e-01 3.650600e-01 3.109065e-01 4.098873e-01 3.270415e-01 2.907475e-01 2.317019e-01 1.116570e-02
<GCONST> 7.782193e+01
<MIXTURE> 28 2.007090e-02
<MEAN> 39
 3.579325e+00 5.690236e+00 4.771738e-01 -4.734004e+00 -8.075752e+00 -2.874687e+00 -3.114728e+00 -1.685151e+00 -2.054447e+00 4.091478e-01 -2.055598e+00 -1.216882e+00 2.121222e+01 3.333828e-01 3.783689e-01 2.415540e-01 5.988072e-01 1.567729e-01 2.294704e-01 3.411810e-01 -3.967648e-01 -9.631999e-02 -3.407319e-02 -1.332219e-01 -1.929812e-01 -4.362897e-02 -1.155548e-01 -9.509139e-02 -9.260906e-02 -8.765680e-02 4.870407e-02 4.624031e-02 -1.730019e-02 -2.103521e-02 6.263047e-02 4.597027e-02 -1.222659e-02 3.811717e-03 1.493342e-02
<VARIANCE> 39
 1.450387e+01 1.976730e+01 3.415948e+01 3.660736e+01 3.487228e+01 3.397642e+01 3.201138e+01 3.553574e+01 2.978986e+01 2.742757e+01 2.889935e+01 2.399576e+01 6.946803e-01 6.720320e-01 6.998050e-01 1.678867e+00 1.400307e+00 1.985080e+00 1.631697e+00 1.895087e+00 2.109298e+00 1.900077e+00 1.552188e+00 1.577830e+00 1.225452e+00 1.779903e-02 7.910161e-02 1.139828e-01 1.597932e-01 1.832085e-01 2.533771e-01 2.507700e-01 2.453149e-01 2.799553e-01 2.485896e-01 2.353062e-01 2.263044e-01 2.000019e-01 2.893966e-03
<GCONST> 8.638423e+01
<MIXTURE> 29 2.778568e-02
<MEAN> 39
 -6.591775e-01 2.671401e+00 -2.600645e+00 3.187072e+00 3.747166e+00 7.179262e+00 7.102198e+00 5.665786e+00 4.746041e+00 4.133271e+00 3.939519e+00 4.196527e+00 2.005609e+01 -1.842265e-01 -2.861432e-01 -4.184951e-01 -5.141160e-01 -4.839195e-01 -4.563035e-01 -4.269106e-01 -5.147999e-01 -5.112606e-01 -3.809889e-01 -4.497337e-01 -4.372064e-01 -3.172553e-01 -4.094026e-03 9.515697e-02 2.313636e-01 1.389051e-01 -1.105809e-01 -3.370766e-01 -4.823541e-01 -4.011675e-01 -2.442801e-01 -1.246427e-01 -2.750270e-01 -3.817204e-01 -7.220142e-02
<VARIANCE> 39
 1.639818e+00 2.657385e+00 3.079017e+00 4.323591e+00 5.110492e+00 7.779073e+00 8.142201e+00 7.138333e+00 7.598747e+00 8.560561e+00 7.590896e+00 6.421576e+00 9.498855e-01 1.074662e-01 2.145592e-01 3.676014e-01 4.382099e-01 7.246705e-01 8.892499e-01 1.013656e+00 1.037821e+00 1.086866e+00 1.091248e+00 9.833258e-01 9.078283e-01 2.807051e-02 2.100609e-02 3.738365e-02 5.621975e-02 8.806428e-02 1.065749e-01 1.507691e-01 1.497691e-01 1.643024e-01 1.792655e-01 1.792517e-01 1.474286e-01 1.290304e-01 8.357673e-03
<GCONST> 4.951542e+01
<MIXTURE> 30 3.524587e-02
<MEAN> 39
 1.346660e+00 5.149658e+00 -5.452900e-01 5.089718e+00 5.069859e+00 6.201282e+00 5.364164e+00 4.253551e+00 3.788607e+00 3.317674e+00 3.111069e+00 2.904321e+00 2.104176e+01 1.521735e-02 6.455108e-02 2.826163e-02 5.770511e-02 3.999969e-02 -5.838007e-02 -1.253910e-01 -1.461717e-01 -5.569237e-02 -4.849422e-02 -3.330204e-02 5.950787e-02 5.395376e-02 -1.934009e-01 -2.308277e-01 -1.117857e-01 -2.013634e-01 -3.844514e-01 -3.501702e-01 -3.298789e-01 -3.137940e-01 -1.876843e-01 -1.181556e-01 -2.674907e-01 -2.896347e-01 -2.029858e-01
<VARIANCE> 39
 1.365240e+00 1.604088e+00 2.233463e+00 3.688793e+00 4.448075e+00 5.850487e+00 5.716249e+00 6.035713e+00 7.183155e+00 6.372294e+00 5.759790e+00 6.237894e+00 7.442645e-01 8.106738e-02 1.662141e-01 2.942810e-01 4.420713e-01 6.430299e-01 7.705155e-01 7.740277e-01 8.142380e-01 9.096588e-01 1.050181e+00 1.030553e+00 9.562380e-01 3.368872e-02 1.458377e-02 2.803847e-02 5.755963e-02 7.974331e-02 9.295451e-02 1.350987e-01 1.232056e-01 1.389730e-01 1.614533e-01 1.582034e-01 1.305059e-01 1.258053e-01 3.434872e-03
<GCONST> 4.243727e+01
<MIXTURE> 31 2.207816e-02
<MEAN> 39
 -2.070555e+00 4.138324e+00 3.667199e-01 3.779518e+00 3.309380e+00 5.084717e+00 5.338718e+00 5.567825e+00 4.633479e+00 5.795216e+00 5.101865e+00 3.757409e+00 2.061007e+01 -1.446637e-01 -4.123592e-01 1.591847e-01 -1.647767e-01 -3.211107e-01 2.293793e-01 -4.729640e-01 -3.607081e-01 -3.518865e-01 -7.690837e-01 -4.843495e-01 -3.903145e-01 -1.227862e-01 1.719089e-03 -7.303683e-02 -1.316952e-01 -4.483851e-02 -4.709117e-02 -1.518884e-01 -2.370791e-01 -3.336134e-01 -2.626270e-01 -4.138859e-01 -4.400268e-01 -2.656174e-01 -1.377205e-01
<VARIANCE> 39
 6.238984e+00 5.788860e+00 8.047866e+00 1.178614e+01 1.157781e+01 1.331770e+01 1.141272e+01 1.302700e+01 1.509272e+01 1.032900e+01 9.612369e+00 1.153077e+01 1.094109e+00 9.366137e-01 6.444312e-01 1.280902e+00 1.093633e+00 1.497584e+00 1.654072e+00 1.524526e+00 1.453293e+00 1.741522e+00 1.386517e+00 1.207667e+00 1.221373e+00 4.021603e-02 1.718835e-01 1.079412e-01 1.534545e-01 2.015748e-01 2.567726e-01 2.419769e-01 2.540642e-01 2.436698e-01 3.166571e-01 2.067984e-01 2.099221e-01 2.319609e-01 6.220158e-03
<GCONST> 7.544321e+01
<MIXTURE> 32 3.010361e-02
<MEAN> 39
 2.650925e-01 3.666155e+00 -8.718206e-01 5.973665e+00 5.805859e+00 5.942069e+00 3.933745e+00 4.127305e+00 4.107474e+00 2.093497e+00 4.047028e-01 4.006822e-01 2.027846e+01 -1.318862e-01 -2.286901e-01 -4.450090e-01 -6.443579e-01 -8.468381e-01 -7.895963e-01 -6.364323e-01 -4.693660e-01 -2.051160e-01 -1.039931e-01 -1.100991e-01 -1.282862e-01 -2.834688e-01 -2.238460e-02 6.373202e-03 -3.280476e-02 -2.676322e-01 -4.249929e-01 -2.031084e-01 -4.237584e-02 -2.178757e-01 -1.862683e-01 1.216507e-01 2.106924e-01 1.466752e-01 -7.254269e-02
<VARIANCE> 39
 1.587362e+00 1.827738e+00 2.777400e+00 3.879438e+00 3.987785e+00 5.579329e+00 5.803379e+00 6.069283e+00 6.193892e+00 6.393790e+00 4.748260e+00 7.249983e+00 8.629764e-01 1.043946e-01 1.925724e-01 2.967251e-01 4.197775e-01 5.839991e-01 6.303919e-01 8.457954e-01 9.725423e-01 9.017333e-01 9.580914e-01 9.028672e-01 1.035722e+00 2.572482e-02 1.496771e-02 2.889395e-02 5.311992e-02 7.098042e-02 7.705683e-02 1.183811e-01 1.299544e-01 1.232449e-01 1.234002e-01 1.421364e-01 1.079862e-01 1.674864e-01 5.937934e-03
<GCONST> 4.245576e+01
<MIXTURE> 33 2.227340e-02
<MEAN> 39
 8.799967e-01 5.178870e+00 -4.708621e-02 4.392584e+00 2.163893e+00 3.244115e+00 3.389066e+00 3.691942e+00 3.700596e+00 3.773807e+00 3.883599e+00 3.469156e+00 2.051735e+01 -2.036498e-01 -3.187838e-01 -3.986026e-01 -6.229969e-01 -8.921604e-01 -8.849399e-01 -6.930289e-01 -5.709018e-01 -3.176883e-01 -2.045502e-02 2.808387e-02 -1.753467e-01 -2.727431e-01 -1.580939e-01 -2.437436e-01 -1.625056e-01 -1.148006e-01 2.894389e-02 1.099393e-01 -3.636095e-02 -2.076149e-01 -2.177198e-01 -1.927075e-01 -3.348253e-01 -3.408276e-01 -1.593564e-01
<VARIANCE> 39
 1.603870e+00 2.128003e+00 3.591205e+00 4.222443e+00 5.052751e+00 5.211678e+00 5.880305e+00 7.174781e+00 6.450505e+00 8.100726e+00 7.434994e+00 8.016698e+00 9.437324e-01 9.836993e-02 1.650746e-01 2.731542e-01 4.089306e-01 5.663805e-01 7.802592e-01 8.054764e-01 1.038079e+00 1.135111e+00 9.012718e-01 9.171808e-01 8.884158e-01 2.816948e-02 1.842798e-02 3.309832e-02 6.018346e-02 8.385283e-02 1.045510e-01 1.293690e-01 1.264107e-01 1.605266e-01 1.600517e-01 1.680999e-01 1.519152e-01 1.612170e-01 4.107431e-03
<GCONST> 4.585152e+01
<MIXTURE> 34 2.273978e-02
<MEAN> 39
 7.443895e-01 4.539323e+00 6.677472e-03 5.324876e+00 2.702733e+00 2.613513e+00 1.663880e+00 1.386376e+00 2.982872e+00 3.573922e+00 2.168726e+00 1.599375e+00 2.029350e+01 -3.179879e-01 -4.816616e-01 -4.148489e-01 -4.624691e-01 -6.884206e-01 -7.259098e-01 -7.523392e-01 -1.090293e+00 -1.184551e+00 -9.565145e-01 -8.484238e-01 -6.638744e-01 -5.141314e-01 -6.503733e-02 -9.510329e-02 -1.143254e-01 -1.488794e-01 6.450634e-02 2.879396e-01 3.110346e-01 2.223512e-01 -8.606634e-04 -6.939869e-02 1.053769e-02 -1.268630e-02 -5.742069e-02
<VARIANCE> 39
 1.290648e+00 1.949484e+00 3.669863e+00 4.552763e+00 6.261693e+00 6.968710e+00 7.180955e+00 6.610423e+00 6.824811e+00 7.753296e+00 7.525150e+00 8.745822e+00 8.099328e-01 1.260756e-01 2.139493e-01 3.913419e-01 4.860494e-01 7.864898e-01 8.490599e-01 7.946914e-01 8.859406e-01 1.181173e+00 1.272392e+00 1.149437e+00 8.349745e-01 2.364570e-02 2.024021e-02 3.475867e-02 7.433632e-02 8.084325e-02 1.321036e-01 1.449735e-01 1.556028e-01 1.471745e-01 1.724342e-01 1.803474e-01 1.771109e-01 1.872277e-01 6.812414e-03
<GCONST> 4.961919e+01
<MIXTURE> 35 2.974677e-02
<MEAN> 39
 4.832778e-01 3.837010e+00 -1.914449e+00 3.988476e+00 3.425923e+00 4.378110e+00 4.249595e+00 3.371127e+00 1.984249e+00 1.725301e+00 1.480996e+00 1.496480e+00 1.991058e+01 -4.729398e-02 -2.366769e-02 7.043664e-02 -4.375199e-02 -3.822857e-02 6.218711e-02 5.579089e-02 8.934514e-03 4.568093e-02 1.778736e-01 1.211898e-01 -1.466550e-01 -3.534720e-02 -2.898111e-01 -9.300847e-02 4.067723e-01 -6.330744e-02 -2.127991e-01 2.246169e-01 -1.862449e-01 -1.211632e-01 2.946163e-01 1.992370e-01 1.501247e-01 1.210605e-02 3.272491e-02
<VARIANCE> 39
 2.117597e+00 2.423397e+00 3.191865e+00 4.367061e+00 5.670293e+00 6.536577e+00 7.028480e+00 7.204644e+00 6.364243e+00 7.548243e+00 7.644115e+00 8.899319e+00 8.384015e-01 4.102134e-01 4.107000e-01 8.257400e-01 6.648873e-01 1.012426e+00 1.325040e+00 1.137464e+00 1.102490e+00 1.202813e+00 1.125103e+00 1.097171e+00 9.224067e-01 4.481634e-02 5.058144e-02 8.759391e-02 9.283750e-02 1.526544e-01 1.965190e-01 2.366232e-01 1.910439e-01 1.845679e-01 2.084654e-01 2.187918e-01 2.067091e-01 2.057242e-01 7.635625e-03
<GCONST> 5.954008e+01
<MIXTURE> 36 1.954347e-02
<MEAN> 39
 -1.876058e+00 2.395517e+00 2.482877e-01 3.584064e+00 1.611089e+00 4.171480e+00 4.403390e+00 2.968761e+00 1.792456e+00 3.247058e+00 2.264980e+00 1.828544e+00 1.945208e+01 -2.015359e-01 -3.190838e-01 -2.979565e-01 -4.400673e-01 -6.314110e-01 -6.640637e-01 -8.454984e-01 -1.006242e+00 -8.817586e-01 -7.960590e-01 -6.898234e-01 -5.130348e-01 -4.529503e-01 1.204644e-01 1.435101e-01 -6.494197e-02 6.602708e-02 2.505415e-01 1.055938e-01 -3.060993e-02 1.304019e-01 2.456609e-01 4.351177e-02 4.487040e-02 4.446233e-02 4.497942e-02
<VARIANCE> 39
 2.919531e+00 4.983321e+00 6.737883e+00 1.037073e+01 1.027194e+01 1.259968e+01 1.307669e+01 1.365913e+01 1.343600e+01 1.422862e+01 8.106391e+00 1.019171e+01 1.128391e+00 2.515372e-01 2.905663e-01 5.063125e-01 6.644899e-01 7.347300e-01 8.997514e-01 1.033488e+00 1.061961e+00 1.411447e+00 1.156313e+00 1.058505e+00 1.146535e+00 3.233479e-02 6.018716e-02 6.992868e-02 9.164000e-02 1.655875e-01 1.807701e-01 2.191395e-01 2.344240e-01 2.614325e-01 2.821395e-01 2.687211e-01 1.891751e-01 2.045626e-01 1.120789e-02
<GCONST> 6.566156e+01
~h "eight"
<BEGINHMM>
<NUMSTATES> 18
<STATE> 2
<NUMMIXES> 20
<MIXTURE> 1 4.955189e-02
<MEAN> 39
 -2.954398e+00 4.253502e+00 -1.833295e+00 4.909210e+00 2.923242e+00 5.877375e+00 4.064756e+00 2.769136e+00 7.252622e+00 5.541123e+00 3.911815e+00 1.308783e+00 1.960365e+01 6.288827e-02 -6.675577e-01 8.030039e-02 -4.770584e-01 5.519005e-01 3.724451e-01 6.984680e-02 1.946841e-01 -2.703777e-01 -8.197904e-02 2.644940e-02 5.304024e-02 3.399444e-02 -7.240082e-02 -5.084244e-01 1.068747e-01 -2.415367e-01 5.776680e-01 -9.468779e-02 -1.257240e-01 1.448525e-01 -4.253917e-01 -4.941141e-01 -1.557415e-01 -1.007090e-02 -5.262924e-03
<VARIANCE> 39
 4.341923e+00 4.879858e+00 7.017320e+00 6.903092e+00 9.522511e+00 8.250164e+00 1.368380e+01 7.881589e+00 9.311839e+00 1.968180e+01 1.006546e+01 8.220132e+00 1.393815e+00 2.769525e-01 9.170446e-01 6.699923e-01 7.785093e-01 1.284834e+00 1.157886e+00 1.380440e+00 1.254924e+00 2.129100e+00 1.223886e+00 1.174546e+00 7.425904e-01 3.190640e-02 6.975484e-02 1.413851e-01 1.141381e-01 1.680790e-01 3.128715e-01 1.705826e-01 3.212530e-01 2.044542e-01 2.334860e-01 2.226313e-01 2.577655e-01 1.713758e-01 4.872330e-03
<GCONST> 6.828894e+01
<MIXTURE> 2 2.422529e-02
<MEAN> 39
 5.126483e-01 4.640457e-01 -1.267997e+01 -9.821772e+00 8.861019e+00 -3.946747e+00 -6.942793e-01 -1.093850e+00 -1.148530e+00 -4.709046e+00 3.905394e+00 -6.410847e+00 2.169976e+01 -1.397531e+00 -1.674131e-01 7.046918e-01 1.142260e+00 2.127639e+00 1.910952e+00 8.424385e-01 -1.206312e-01 -3.392229e-01 -1.894740e-01 1.335780e-02 3.574430e-01 -2.716988e-01 -2.953525e-01 1.775453e-02 5.492109e-01 3.483468e-01 -3.525138e-01 8.773076e-02 -3.790768e-02 1.367451e-01 7.555185e-02 6.483521e-01 -2.393903e-01 5.112131e-01 -1.560155e-03
<VARIANCE> 39
 8.816864e+00 1.997537e+01 5.706941e+00 2.568701e+01 1.372402e+01 4.484398e+01 5.001117e+01 3.978056e+01 2.371808e+01 2.946176e+01 8.385739e+01 5.827719e+01 3.458348e-01 8.614308e-01 8.904338e-01 1.990281e+00 1.705537e+00 3.328450e+00 2.699601e+00 2.086050e+00 2.011423e+00 1.346136e+00 2.980032e+00 2.859113e+00 3.189673e+00 4.168506e-02 8.478190e-02 1.237349e-01 2.065739e-01 1.917562e-01 3.827632e-01 2.992238e-01 4.682475e-01 6.124276e-01 4.664894e-01 5.498533e-01 4.650260e-01 5.958501e-01 6.032289e-03
<GCONST> 9.588797e+01
<MIXTURE> 3 3.287568e-02
<MEAN> 39
 -3.825276e+00 -3.077384e+00 1.756802e+00 1.472422e+00 2.378050e+00 -2.143230e+00 3.370287e+00 5.684331e+00 -1.012424e+00 -2.861704e+00 -1.091456e+00 4.573366e+00 2.046585e+01 -6.120709e-01 -1.798481e+00 -1.860487e+00 1.404505e+00 4.118548e+00 1.235962e-01 -8.645338e-01 9.461318e-01 1.479141e+00 -9.735256e-01 8.209684e-02 3.173486e-01 -1.254652e-01 1.043791e-03 3.425689e-01 1.692331e-02 -6.029369e-01 -5.160900e-01 3.713365e-01 -3.103701e-01 -7.008750e-01 1.316677e-01 5.667632e-01 -1.449848e-01 -7.280377e-01 3.112372e-02
<VARIANCE> 39
 9.246978e+00 1.720275e+01 1.174131e+01 2.331205e+01 2.555741e+01 3.365589e+01 4.025829e+01 3.118302e+01 2.490621e+01 2.326043e+01 2.821411e+01 1.896676e+01 8.467285e-01 4.213281e-01 8.378165e-01 7.445827e-01 1.453589e+00 1.996562e+00 2.294209e+00 3.078624e+00 3.694433e+00 2.800466e+00 1.737860e+00 1.915577e+00 2.292488e+00 3.840814e-02 6.462294e-02 1.357015e-01 1.636639e-01 3.530238e-01 3.747061e-01 5.313385e-01 5.743175e-01 5.512683e-01 3.958254e-01 4.837722e-01 5.829027e-01 3.502213e-01 5.477715e-03
<GCONST> 9.272186e+01
<MIXTURE> 4 6.921149e-02
<MEAN> 39
 -7.581256e-01 2.988192e+00 -2.451924e+00 3.153213e+00 3.143757e+00 5.301114e+00 3.675883e+00 2.464208e+00 2.260912e+00 2.080806e+00 6.163946e-01 3.111167e-01 1.855476e+01 -1.101648e-01 -4.077652e-01 4.468903e-02 -5.795207e-02 4.597465e-01 4.105626e-01 -1.006012e-01 9.764465e-02 3.790716e-01 1.298491e-01 5.238003e-02 -2.011733e-01 6.514790e-02 -2.655993e-01 -3.531413e-01 1.207608e-01 -3.415788e-02 2.443588e-01 1.835941e-02 -1.686407e-01 1.599621e-01 2.047689e-01 5.884589e-02 2.179811e-01 1.512215e-01 6.409599e-02
<VARIANCE> 39
 1.850272e+00 3.730882e+00 4.417065e+00 5.029519e+00 6.163914e+00 6.558633e+00 6.121426e+00 8.746203e+00 8.681120e+00 8.384418e+00 7.384941e+00 8.768607e+00 8.494907e-01 1.781515e-01 7.140528e-01 3.597769e-01 6.526136e-01 8.024245e-01 1.127848e+00 1.120918e+00 1.375507e+00 1.094990e+00 1.106835e+00 8.935862e-01 1.155068e+00 3.544552e-02 5.189190e-02 1.150960e-01 1.447792e-01 1.803891e-01 2.376181e-01 2.061597e-01 2.009770e-01 4.217722e-01 1.985324e-01 1.974316e-01 2.210838e-01 1.926392e-01 7.472234e-03
<GCONST> 6.084957e+01
<MIXTURE> 5 5.917907e-02
<MEAN> 39
 -1.423193e+00 1.725396e+00 -6.331770e+00 -3.594033e+00 8.884455e+00 2.229006e-01 -1.851808e+00 4.157020e-01 3.293829e+00 3.608589e+00 -1.045458e+00 -3.057884e+00 2.058392e+01 -1.908510e+00 -7.541614e-01 4.705915e-01 1.588031e+00 2.718279e+00 5.936993e-02 2.737692e-01 1.089735e+00 9.243450e-01 -1.622848e-01 7.898211e-01 4.968014e-01 -1.693663e-01 1.614002e-01 -3.477765e-01 -9.917447e-02 -3.004963e-01 -5.130364e-01 2.753157e-01 -1.178482e-02 -5.909190e-02 -2.165621e-01 -2.246399e-01 1.295874e-01 6.569627e-03 9.469204e-02
<VARIANCE> 39
 6.223056e+00 1.781913e+01 1.699830e+01 2.508196e+01 2.205187e+01 3.623154e+01 4.310999e+01 3.198013e+01 2.553917e+01 2.698198e+01 4.035428e+01 1.537433e+01 6.488090e-01 7.392954e-01 1.366803e+00 1.382002e+00 1.844426e+00 2.716671e+00 2.212305e+00 3.073028e+00 3.323529e+00 2.551953e+00 3.361344e+00 2.624428e+00 2.136262e+00 4.500925e-02 8.567064e-02 1.269323e-01 1.510211e-01 1.472024e-01 4.298234e-01 2.351448e-01 3.389273e-01 5.475513e-01 3.752057e-01 4.627117e-01 3.752567e-01 3.266307e-01 6.166701e-03
<GCONST> 9.347942e+01
<MIXTURE> 6 5.068750e-02
<MEAN> 39
 -9.359720e-02 4.213069e+00 -1.306218e+00 4.342441e+00 4.489782e+00 6.149075e+00 6.418813e+00 5.959547e+00 4.463214e+00 3.405071e+00 1.878450e+00 2.292206e+00 2.023169e+01 -1.891479e-01 -1.197068e-01 1.160543e-01 2.360073e-01 8.509059e-01 8.208303e-02 1.774847e-01 1.607883e-01 1.711593e-01 2.252191e-01 3.491832e-01 7.948458e-02 1.965633e-01 -3.456400e-01 -3.715172e-01 -6.626424e-02 -8.218046e-02 2.488159e-01 -2.825519e-01 -4.798411e-01 -4.216400e-01 -2.111777e-01 -4.931594e-02 1.528276e-02 -2.513313e-01 -8.637155e-02
<VARIANCE> 39
 1.840601e+00 4.252284e+00 5.044996e+00 5.418181e+00 6.596982e+00 8.066222e+00 7.293242e+00 6.823746e+00 7.271958e+00 9.452100e+00 9.649016e+00 1.060988e+01 8.552502e-01 4.779569e-01 4.997846e-01 4.960024e-01 4.750115e-01 1.196592e+00 1.325547e+00 1.314516e+00 1.405990e+00 1.628208e+00 1.617561e+00 1.515745e+00 1.483967e+00 5.395032e-02 4.857681e-02 1.930753e-01 1.301204e-01 1.133670e-01 2.393519e-01 1.733797e-01 2.226873e-01 2.230683e-01 2.194358e-01 3.075604e-01 3.362740e-01 2.792590e-01 6.485776e-03
<GCONST> 6.551511e+01
<MIXTURE> 7 5.357612e-02
<MEAN> 39
 -6.269484e+00 3.396450e+00 -2.840472e+00 5.171421e-01 2.299349e+00 6.595621e+00 1.615614e+00 3.188020e+00 3.925276e+00 1.935937e+00 1.186555e+00 1.465796e+00 1.833094e+01 -1.235885e-01 -1.124049e-01 -2.418842e-01 -2.494880e-02 1.470729e-01 -2.307896e-02 2.274724e-02 2.227684e-01 1.843874e-01 1.098728e-01 2.781055e-02 -1.401715e-01 1.014644e-02 2.783346e-01 -1.787889e-01 4.989699e-02 1.981029e-01 2.226688e-01 -3.603271e-01 1.228805e-01 -1.024805e-01 -1.575956e-01 1.333514e-01 8.184838e-02 3.529371e-02 2.256100e-02
<VARIANCE> 39
 1.953551e+01 1.645772e+01 2.103625e+01 1.763281e+01 1.933475e+01 2.274128e+01 1.567381e+01 2.379175e+01 2.362430e+01 1.571413e+01 1.419173e+01 1.733349e+01 1.101557e+00 2.011970e+00 7.606100e-01 1.811642e+00 2.452085e+00 1.820473e+00 2.045299e+00 1.864520e+00 1.979680e+00 2.995617e+00 1.667343e+00 1.244004e+00 1.533198e+00 3.440949e-02 3.683907e-01 1.843943e-01 4.964514e-01 5.055656e-01 3.821819e-01 3.384136e-01 3.801313e-01 4.753722e-01 5.898100e-01 2.574614e-01 2.169486e-01 2.911589e-01 8.727284e-03
<GCONST> 9.309840e+01
<MIXTURE> 8 5.595819e-02
<MEAN> 39
 -4.773032e+00 8.920597e-01 2.892610e+00 -4.407281e+00 -2.617824e+00 1.504729e+00 6.683234e+00 -2.520293e+00 -6.641418e+00 -2.986599e+00 -2.543193e+00 -1.393630e+00 1.995205e+01 -7.133935e-01 -2.364271e+00 -1.410402e+00 2.779822e+00 3.360790e+00 4.230655e-01 4.877664e-01 1.339441e+00 -7.856700e-01 -1.491536e+00 1.427266e+00 9.750874e-01 -2.450549e-01 1.120583e-02 -1.234678e-02 -3.842641e-01 -1.913555e-01 1.135996e-01 -3.579443e-01 -7.009319e-01 1.257609e-01 6.510335e-01 1.891376e-01 -3.693643e-03 2.890271e-01 6.322467e-02
<VARIANCE> 39
 6.790580e+00 1.741673e+01 2.358809e+01 3.082788e+01 2.216037e+01 3.884960e+01 3.815641e+01 3.477300e+01 2.764074e+01 2.863960e+01 2.157050e+01 3.468974e+01 8.370975e-01 3.204975e-01 6.706274e-01 8.395579e-01 1.481071e+00 2.726653e+00 3.433506e+00 3.571818e+00 3.260407e+00 2.707717e+00 2.735833e+00 2.535282e+00 2.461941e+00 3.614643e-02 6.295286e-02 1.926861e-01 1.879945e-01 2.919918e-01 2.885128e-01 4.685811e-01 3.516768e-01 4.764501e-01 4.831784e-01 3.634683e-01 5.541723e-01 4.162418e-01 6.159079e-03
<GCONST> 9.458962e+01
<MIXTURE> 9 4.830852e-02
<MEAN> 39
 -1.115929e+00 2.163718e+00 -7.384319e+00 -6.321108e+00 5.130030e+00 1.144331e+01 2.269187e+00 -1.761836e+00 2.963445e-01 4.377539e-01 5.175882e+00 3.470061e-01 2.010973e+01 -1.876423e+00 -9.002351e-01 2.598518e-01 9.573111e-01 2.324948e+00 9.347620e-01 -1.084397e+00 -4.887007e-01 9.419708e-01 7.736851e-01 8.405623e-01 -3.933645e-01 -1.928862e-01 1.621254e-01 -1.776868e-01 9.903725e-02 -2.378259e-01 -3.675310e-01 -4.438459e-01 1.074061e-02 1.802208e-01 1.204300e-02 1.167398e-01 -4.516414e-01 -2.346713e-01 7.539969e-02
<VARIANCE> 39
 8.989552e+00 1.136186e+01 9.514234e+00 3.455042e+01 1.698514e+01 2.190893e+01 3.453615e+01 2.178673e+01 2.095527e+01 2.136456e+01 2.671967e+01 1.485009e+01 6.822901e-01 6.914411e-01 6.630158e-01 2.363672e+00 1.078029e+00 1.715497e+00 2.209952e+00 2.433436e+00 2.673333e+00 2.658444e+00 2.419064e+00 1.669650e+00 1.274685e+00 3.809747e-02 1.104019e-01 1.025270e-01 2.509937e-01 2.180925e-01 3.087754e-01 4.238758e-01 4.202268e-01 3.402250e-01 4.039076e-01 2.613153e-01 3.848844e-01 2.854012e-01 8.127149e-03
<GCONST> 8.842124e+01
<MIXTURE> 10 5.128429e-02
<MEAN> 39
 8.247805e-01 1.134300e+00 -3.994804e+00 -4.801524e+00 1.952063e+00 2.709913e+00 2.490342e+00 4.709089e+00 -1.094365e+00 2.087746e+00 -5.536381e+00 -5.189327e-01 2.094588e+01 -1.353297e+00 -6.465586e-01 -7.533385e-02 1.640303e+00 3.390735e+00 9.955299e-01 1.151701e+00 -8.324664e-01 5.189752e-01 -9.908679e-01 7.691242e-01 2.022368e-01 -2.044427e-01 -2.410645e-01 -2.714930e-01 3.403826e-02 -6.284913e-02 -1.382527e-01 -2.018435e-01 -7.473637e-01 -2.823133e-01 7.007366e-02 8.073145e-02 6.886247e-01 -4.522698e-02 1.591712e-02
<VARIANCE> 39
 6.197692e+00 1.945078e+01 1.158145e+01 1.622790e+01 3.150642e+01 5.573190e+01 3.841413e+01 2.563940e+01 4.233442e+01 6.235600e+01 3.859294e+01 3.928619e+01 6.023348e-01 5.850006e-01 8.857221e-01 8.930006e-01 1.290913e+00 1.898792e+00 1.618738e+00 2.500078e+00 1.843694e+00 3.627227e+00 2.578680e+00 2.181891e+00 2.262237e+00 3.416033e-02 5.314603e-02 1.610096e-01 1.932538e-01 1.610448e-01 3.583534e-01 2.633618e-01 3.634302e-01 3.066030e-01 4.055576e-01 6.859103e-01 2.987588e-01 3.222015e-01 4.544061e-03
<GCONST> 9.155560e+01
<MIXTURE> 11 6.305456e-02
<MEAN> 39
 6.228108e-02 2.689460e+00 -3.375262e-02 5.556944e+00 5.046413e+00 4.951108e+00 3.394449e+00 3.634705e+00 5.291181e+00 3.691746e+00 2.671008e+00 2.335997e+00 2.033999e+01 -1.084375e+00 -2.027315e+00 6.857771e-01 -3.801231e-01 1.542832e+00 2.415923e-01 -7.405838e-01 5.086865e-01 1.960029e-01 -2.370486e-01 -1.292841e-01 -1.476114e-01 5.517055e-02 -5.240589e-01 -6.495114e-01 -5.966063e-02 -3.243144e-01 2.081697e-01 4.299388e-02 -9.199523e-02 -3.262188e-02 -2.825964e-01 -1.339914e-01 -2.463540e-01 -1.036572e-01 -6.691290e-02
<VARIANCE> 39
 1.519952e+00 6.630278e+00 3.869320e+00 6.173098e+00 7.699978e+00 7.790078e+00 8.906064e+00 1.085711e+01 7.959386e+00 9.818406e+00 1.089409e+01 8.670938e+00 9.159963e-01 4.768554e-01 1.305940e+00 9.492649e-01 1.751341e+00 1.577568e+00 1.616794e+00 1.914729e+00 1.791910e+00 1.479661e+00 1.524982e+00 1.752688e+00 1.498959e+00 6.923288e-02 6.255516e-02 1.413664e-01 1.519343e-01 1.704282e-01 2.102470e-01 2.215002e-01 2.569869e-01 2.762985e-01 2.665755e-01 2.678847e-01 2.050716e-01 1.453567e-01 8.628776e-03
<GCONST> 7.096024e+01
<MIXTURE> 12 4.923719e-02
<MEAN> 39
 -1.964682e+00 -1.001120e+00 -3.746919e+00 1.245865e+00 1.011375e+01 4.287556e+00 -1.634057e+00 1.486282e+00 7.194357e-01 -3.558167e+00 -3.741512e+00 -2.350950e+00 2.047737e+01 -1.112452e+00 -5.809545e-01 8.240421e-01 7.301012e-01 9.818828e-01 2.272962e-01 3.508816e-01 4.309485e-01 8.363782e-01 5.111564e-01 7.229112e-01 -1.852172e-02 -1.181848e-01 8.459771e-02 -2.333231e-01 -4.588588e-01 -3.795264e-01 -1.891865e-01 -1.367783e-01 -4.200944e-02 1.456469e-02 -3.069010e-02 1.217925e-01 5.549541e-02 -1.922948e-02 1.958092e-02
<VARIANCE> 39
 9.674563e+00 3.037367e+01 1.213818e+01 1.880236e+01 2.452230e+01 4.222914e+01 4.027362e+01 4.065473e+01 3.642149e+01 3.359661e+01 2.044370e+01 3.992255e+01 5.634004e-01 3.607363e-01 5.524929e-01 1.258833e+00 8.946654e-01 1.691799e+00 1.822220e+00 1.771398e+00 1.926751e+00 2.256019e+00 1.142048e+00 1.190178e+00 1.306908e+00 2.976910e-02 7.901930e-02 1.300090e-01 1.392358e-01 1.736111e-01 2.114310e-01 3.083258e-01 3.105925e-01 3.731684e-01 3.150936e-01 2.361880e-01 2.765973e-01 2.647657e-01 6.467319e-03
<GCONST> 8.566858e+01
<MIXTURE> 13 5.642850e-02
<MEAN> 39
 -1.699741e+00 1.558304e+00 -2.662315e+00 1.567024e+00 2.538754e+00 2.482026e+00 2.469919e-01 1.264274e+00 1.445158e+00 1.718834e+00 1.364413e+00 1.104273e+00 1.814570e+01 -8.888025e-01 -1.306586e+00 2.563579e-01 -4.881161e-01 1.446052e+00 4.640009e-02 -3.603311e-01 2.024183e-01 5.873401e-01 -2.172219e-01 4.426758e-02 -5.775915e-02 6.400741e-02 -3.715776e-01 -2.968467e-01 1.250023e-01 7.285909e-02 5.492009e-01 2.678111e-01 3.665463e-01 1.730315e-01 2.161487e-01 -1.528962e-02 5.517821e-02 6.670300e-02 1.172741e-01
<VARIANCE> 39
 2.409129e+00 4.900316e+00 8.675540e+00 7.951978e+00 1.016011e+01 1.087931e+01 6.550518e+00 1.025751e+01 9.787024e+00 1.047361e+01 1.169562e+01 7.631426e+00 1.060642e+00 4.865343e-01 9.218759e-01 1.206971e+00 1.772126e+00 1.587810e+00 2.015793e+00 1.266396e+00 2.235104e+00 1.724183e+00 1.432969e+00 1.987564e+00 1.151058e+00 5.534168e-02 7.670847e-02 1.098157e-01 1.506373e-01 1.477780e-01 1.681684e-01 2.047453e-01 1.681435e-01 2.607788e-01 2.721739e-01 2.729529e-01 3.357375e-01 2.424820e-01 7.826870e-03
<GCONST> 7.243744e+01
<MIXTURE> 14 4.500965e-02
<MEAN> 39
 3.897518e-01 -6.484365e-01 -5.008612e+00 -2.460731e+00 2.059110e+00 5.922601e+00 1.172486e+00 1.677488e+00 3.301278e+00 5.200541e+00 -1.104363e+00 -4.449589e+00 2.017227e+01 -1.268107e+00 -1.603783e+00 -4.887710e-01 3.309561e-01 2.546880e+00 2.023910e+00 1.458970e+00 -8.473735e-02 1.113470e-01 -1.898433e+00 -5.227332e-01 8.030505e-02 -2.086521e-01 3.487981e-02 -8.810786e-02 2.470470e-03 -2.312437e-01 -9.132013e-02 -2.738034e-01 -3.242789e-01 -1.424575e-01 -5.034712e-01 -1.406537e-01 3.459246e-01 1.214211e-01 5.616505e-02
<VARIANCE> 39
 5.834219e+00 1.540048e+01 2.691126e+01 2.110797e+01 2.300762e+01 3.397496e+01 2.166276e+01 2.218760e+01 3.238927e+01 3.222525e+01 4.300872e+01 2.438208e+01 7.567922e-01 3.779320e-01 8.025793e-01 1.822090e+00 2.750810e+00 1.902978e+00 2.752504e+00 2.062753e+00 1.239527e+00 1.955106e+00 1.377790e+00 2.463070e+00 2.052020e+00 2.671061e-02 5.930388e-02 1.766105e-01 2.582996e-01 2.641085e-01 4.183623e-01 3.147694e-01 4.925254e-01 1.865323e-01 3.522038e-01 3.229139e-01 3.148800e-01 4.127947e-01 4.680951e-03
<GCONST> 8.974622e+01
<MIXTURE> 15 5.535515e-02
<MEAN> 39
 -4.136147e-01 2.536507e+00 -1.604981e+00 3.493287e+00 3.887871e+00 4.726249e+00 3.295956e+00 3.499959e+00 1.988199e+00 2.662310e+00 1.498666e+00 9.564109e-01 1.963066e+01 -8.888595e-01 -1.463126e+00 -5.378159e-01 -9.457943e-01 1.393243e+00 -4.800018e-01 -6.529363e-01 -7.105656e-02 -2.440143e-01 -3.081383e-01 -2.375508e-01 -8.158327e-01 -2.145842e-01 -4.369274e-01 -4.151965e-01 -9.995907e-02 -1.715469e-01 4.040337e-01 -5.666185e-02 -7.277446e-03 -1.217583e-01 1.064188e-01 -5.732991e-02 4.268773e-02 -1.589680e-01 -3.251730e-02
<VARIANCE> 39
 1.704712e+00 4.330912e+00 6.211911e+00 4.484364e+00 1.097008e+01 1.172804e+01 1.378283e+01 1.153942e+01 1.071278e+01 7.761978e+00 9.348350e+00 1.324382e+01 1.054367e+00 5.644785e-01 7.203929e-01 1.037691e+00 1.424873e+00 1.707563e+00 1.880035e+00 2.075110e+00 1.781094e+00 2.117434e+00 1.720004e+00 1.618273e+00 2.007408e+00 3.015972e-02 4.515235e-02 6.472743e-02 1.522307e-01 1.631296e-01 2.442679e-01 2.058993e-01 3.520775e-01 2.175976e-01 1.839735e-01 2.355715e-01 3.152739e-01 3.693089e-01 7.010610e-03
<GCONST> 7.181729e+01
<MIXTURE> 16 6.860363e-02
<MEAN> 39
 6.202300e-01 4.414518e+00 -1.262981e-01 5.551902e+00 3.412673e+00 4.447972e+00 3.181816e+00 2.151062e+00 2.048712e+00 2.443294e+00 1.945485e+00 1.280933e+00 1.998448e+01 -2.771012e-01 -5.119583e-01 -7.229014e-03 -2.049444e-01 7.702516e-01 -4.724375e-02 -2.470254e-01 -1.336109e-02 8.746618e-02 -1.800819e-01 -1.429926e-01 -1.702896e-01 3.375925e-02 -4.806911e-01 -5.461704e-01 -6.870145e-02 -4.377487e-01 4.626264e-01 -1.154310e-01 -1.126079e-01 7.110137e-02 2.317594e-01 6.196630e-02 -2.198759e-02 -6.799547e-02 -5.439471e-02
<VARIANCE> 39
 1.625572e+00 2.049881e+00 2.848929e+00 3.993603e+00 8.223955e+00 7.864877e+00 8.778661e+00 8.972406e+00 1.046181e+01 7.638140e+00 7.008877e+00 7.436504e+00 9.398640e-01 2.170173e-01 3.104858e-01 5.896148e-01 6.410019e-01 1.312365e+00 9.069628e-01 1.108438e+00 8.014920e-01 9.687687e-01 8.886080e-01 1.312834e+00 1.033992e+00 3.678057e-02 4.624444e-02 1.059268e-01 1.643070e-01 1.295964e-01 2.471353e-01 2.734683e-01 2.498779e-01 2.722180e-01 2.498190e-01 2.109608e-01 2.198292e-01 2.562904e-01 9.037673e-03
<GCONST> 6.028301e+01
<MIXTURE> 17 4.186271e-02
<MEAN> 39
 -4.011433e+00 4.038282e+00 -1.825712e+00 2.352306e+00 1.939139e+00 1.607388e+00 1.583138e+00 3.282590e+00 1.647865e+00 3.362131e+00 4.870171e+00 3.280492e+00 1.840750e+01 -5.990739e-01 -1.130203e+00 1.253529e-02 -5.935550e-01 1.235567e+00 -1.979397e-01 -1.822599e-01 4.448860e-01 1.370972e-01 -7.474333e-01 -1.361707e-01 -1.013819e-01 -8.638469e-03 -2.554738e-01 -5.310380e-01 1.064856e-01 -1.434999e-01 4.220980e-01 2.479784e-01 -3.011963e-02 4.679543e-02 2.533038e-01 -2.402844e-01 -4.595421e-01 -9.133837e-02 2.955209e-02
<VARIANCE> 39
 5.618845e+00 1.133564e+01 1.007101e+01 1.185048e+01 1.981102e+01 1.555084e+01 1.634908e+01 1.286907e+01 1.817295e+01 1.366775e+01 1.483363e+01 1.004194e+01 1.065406e+00 1.602659e+00 1.537681e+00 9.965295e-01 1.542147e+00 1.970263e+00 2.005471e+00 2.203590e+00 3.016378e+00 1.733838e+00 1.729463e+00 1.692834e+00 1.336427e+00 4.643219e-02 2.743824e-01 1.892780e-01 2.214187e-01 3.111269e-01 3.532168e-01 3.595181e-01 4.372278e-01 4.120093e-01 4.306546e-01 3.146844e-01 2.655250e-01 1.919876e-01 8.498501e-03
<GCONST> 8.656571e+01
<MIXTURE> 18 3.633397e-02
<MEAN> 39
 -1.465518e+00 1.746643e+00 -7.441166e+00 -4.681608e+00 8.615745e+00 9.948760e+00 -6.566270e-02 -9.061788e-01 9.373153e-01 4.139904e+00 2.538086e+00 -3.149365e-01 2.048553e+01 -1.935964e+00 -1.212593e+00 2.049145e-01 1.316667e+00 2.519892e+00 -5.419741e-01 -1.513621e+00 -4.099287e-01 9.286193e-01 2.468753e-02 -4.192906e-02 -1.404320e+00 -2.987978e-01 2.050218e-01 -1.117983e-01 -1.152856e-03 -5.343739e-01 -7.123965e-01 -3.307050e-01 -2.210873e-02 2.018867e-02 -1.010491e-01 -4.446676e-01 -2.580551e-01 -3.981086e-02 2.375911e-02
<VARIANCE> 39
 1.053234e+01 1.608409e+01 1.754967e+01 3.498175e+01 2.596316e+01 3.058917e+01 4.199662e+01 3.471124e+01 3.804043e+01 1.539244e+01 3.309489e+01 2.657560e+01 9.602469e-01 6.384111e-01 8.536484e-01 1.287331e+00 2.190062e+00 1.867239e+00 1.366954e+00 1.887360e+00 1.949661e+00 2.314064e+00 1.766856e+00 2.652055e+00 1.777789e+00 3.223895e-02 1.034490e-01 1.049097e-01 1.745616e-01 3.001694e-01 2.900758e-01 3.205720e-01 4.827138e-01 5.205973e-01 5.195509e-01 3.480767e-01 3.830876e-01 3.985058e-01 8.944239e-03
<GCONST> 9.296138e+01
<MIXTURE> 19 4.674650e-02
<MEAN> 39
 -2.506786e+00 1.934626e+00 -5.605081e+00 -1.295058e+00 1.109885e+01 -1.750835e+00 -4.064082e+00 1.669474e+00 -2.077228e+00 -7.782024e+00 -6.139559e+00 -2.591141e+00 2.029042e+01 -1.549111e+00 -1.421477e+00 -1.031444e-01 1.337246e+00 2.213131e+00 8.695633e-01 3.002984e-01 4.823014e-01 5.980933e-01 -4.435426e-02 8.773131e-01 1.404757e-01 -2.741838e-01 -1.174225e-01 -5.868925e-02 -1.354361e-01 -3.988271e-01 -4.860229e-01 -2.989036e-02 3.047821e-01 1.519842e-01 2.459123e-01 4.680429e-01 3.671598e-01 2.292548e-01 1.745438e-02
<VARIANCE> 39
 6.685993e+00 1.027815e+01 1.753467e+01 1.495936e+01 3.218747e+01 3.318180e+01 2.644657e+01 3.708362e+01 1.868994e+01 3.116536e+01 3.449813e+01 3.985345e+01 8.167662e-01 4.272759e-01 7.058302e-01 9.092829e-01 2.172608e+00 1.812536e+00 3.218659e+00 2.216118e+00 3.550756e+00 3.139691e+00 2.429417e+00 2.628528e+00 2.210866e+00 2.043956e-02 5.669210e-02 8.171330e-02 1.381820e-01 2.477813e-01 2.395985e-01 2.359104e-01 2.572722e-01 4.375123e-01 3.235174e-01 2.154302e-01 3.897938e-01 3.246537e-01 4.937960e-03
<GCONST> 8.809169e+01
<MIXTURE> 20 4.250667e-02
<MEAN> 39
 -3.647002e+00 -1.713251e+00 9.838248e-01 1.572536e+00 -4.748312e+00 1.667649e+00 6.753030e+00 7.417483e+00 4.127396e-01 -4.051780e-01 -2.316389e+00 1.918150e+00 2.050281e+01 -2.170226e-01 -2.188589e+00 -2.396883e+00 7.418613e-01 3.978858e+00 1.425717e+00 2.035232e-01 5.934907e-01 6.347205e-01 -1.549444e+00 -1.433750e+00 2.470115e-01 -1.951985e-01 -7.600455e-02 -6.547567e-02 8.135411e-03 -3.847310e-01 3.157844e-01 -2.095971e-01 -6.645466e-01 -7.825879e-01 -1.882794e-02 2.148155e-01 2.424902e-01 -4.154740e-01 2.183925e-02
<VARIANCE> 39
 7.971262e+00 1.830125e+01 1.913966e+01 2.277804e+01 3.355508e+01 3.405165e+01 2.444924e+01 3.123109e+01 2.258133e+01 3.474342e+01 1.776702e+01 1.664230e+01 8.464242e-01 7.099874e-01 1.766043e+00 6.582158e-01 2.429695e+00 2.764539e+00 2.061985e+00 2.038608e+00 2.793301e+00 2.126656e+00 2.596386e+00 1.900812e+00 2.367778e+00 3.145443e-02 7.756374e-02 2.339630e-01 1.442265e-01 2.107752e-01 3.731802e-01 1.998089e-01 4.142415e-01 4.423202e-01 4.499757e-01 5.547983e-01 3.275214e-01 2.625622e-01 7.167247e-03
<GCONST> 9.195872e+01
<STATE> 3
<NUMMIXES> 20
<MIXTURE> 1 5.128084e-02
<MEAN> 39
 -1.178916e+00 -2.382265e+00 -4.399349e+00 2.005786e+00 7.026859e+00 5.841474e+00 3.806983e+00 3.127883e+00 7.654056e-01 3.430003e+00 1.990027e+00 -4.943250e-01 1.985501e+01 -2.953436e-01 -8.799587e-01 -3.804058e-02 2.795870e-01 1.264175e+00 1.143340e+00 4.106083e-01 -1.373184e-01 2.067765e-01 2.582864e-01 4.946264e-01 -3.139566e-01 1.780216e-01 -3.952017e-02 7.294235e-02 9.472381e-03 -2.764846e-02 -2.426814e-01 -1.474644e-01 -1.762117e-01 -2.825589e-01 2.687246e-02 -1.370928e-01 -1.208279e-01 -7.792856e-02 2.067253e-02
<VARIANCE> 39
 4.027904e+00 8.628270e+00 7.850440e+00 1.494599e+01 2.140954e+01 2.805856e+01 2.665027e+01 1.454967e+01 1.424749e+01 2.189454e+01 1.856935e+01 1.926264e+01 1.102895e+00 2.671355e-01 6.885588e-01 1.024862e+00 9.140807e-01 1.434986e+00 1.722487e+00 1.649193e+00 2.271484e+00 2.162916e+00 3.463169e+00 1.519543e+00 1.624014e+00 5.514573e-02 5.383863e-02 1.016394e-01 1.530976e-01 2.241501e-01 1.550782e-01 1.854947e-01 3.359824e-01 2.244685e-01 2.163464e-01 3.940226e-01 2.668246e-01 2.264238e-01 1.134778e-02
<GCONST> 8.009489e+01
<MIXTURE> 2 1.577900e-02
<MEAN> 39
 -5.114269e+00 -1.198673e+00 -5.063728e+00 8.232472e+00 1.052496e+01 -3.897904e+00 -1.235595e+00 6.064292e+00 4.409552e+00 6.437296e-01 -1.335350e+00 2.448100e+00 2.002208e+01 -5.907822e-01 -8.600518e-01 3.870115e-01 4.034437e-01 1.199094e+00 -1.725235e-01 1.038209e+00 1.020566e+00 -3.846673e-01 -1.584222e-01 9.501799e-01 1.164586e+00 2.685141e-01 3.474492e-01 -2.369136e-02 4.536161e-01 -7.387174e-01 -7.356921e-01 8.651640e-01 3.173901e-01 -3.206112e-01 -4.825389e-01 -6.029094e-02 1.440799e-01 -3.351534e-01 4.276365e-02
<VARIANCE> 39
 1.251003e+01 3.524033e+01 1.193932e+01 3.730994e+01 2.394288e+01 3.060330e+01 4.420169e+01 3.923075e+01 2.447812e+01 3.767425e+01 8.112370e+00 2.575834e+01 1.354187e+00 1.484840e+00 9.623390e-01 1.739102e+00 2.755267e+00 1.554763e+00 2.215294e+00 2.835101e+00 2.140157e+00 2.368665e+00 1.382331e+00 2.460675e+00 1.133733e+00 6.284176e-02 1.867284e-01 3.029148e-01 3.171700e-01 5.153052e-01 4.637485e-01 3.152210e-01 7.743860e-01 4.469659e-01 4.610751e-01 5.792912e-01 1.133333e-01 3.730963e-01 9.990465e-03
<GCONST> 9.804334e+01
<MIXTURE> 3 6.314631e-02
<MEAN> 39
 -5.793114e+00 9.762015e-01 -5.811327e+00 -7.818279e+00 7.982239e+00 1.256655e+01 4.787770e-01 -3.237942e+00 2.181743e+00 2.674628e+00 4.731210e+00 -1.292204e+00 1.999240e+01 -9.633141e-01 -1.061707e+00 6.565751e-01 1.162978e+00 1.232457e+00 8.296847e-02 -4.326010e-01 -5.601844e-01 4.757396e-01 5.202779e-01 -4.744780e-01 -5.799704e-01 -2.762083e-02 6.579390e-01 -5.388601e-02 -1.484357e-01 -1.484642e-01 -5.012490e-01 -4.070252e-01 5.214020e-01 3.916903e-01 -2.431456e-01 -1.695787e-01 -5.531927e-01 -6.244427e-02 1.081690e-01
<VARIANCE> 39
 1.344823e+01 1.951385e+01 1.219392e+01 2.120152e+01 1.588263e+01 2.907438e+01 2.675527e+01 2.503273e+01 2.861456e+01 2.563618e+01 3.197381e+01 2.060172e+01 5.949043e-01 5.346653e-01 4.254744e-01 6.973403e-01 7.286763e-01 1.357411e+00 1.171591e+00 1.338944e+00 1.711056e+00 1.753908e+00 1.842154e+00 1.744616e+00 1.129817e+00 3.980482e-02 1.047577e-01 8.141942e-02 2.131120e-01 2.662268e-01 2.963017e-01 3.111307e-01 5.304440e-01 3.448422e-01 4.017563e-01 4.132477e-01 4.124646e-01 2.675366e-01 6.234034e-03
<GCONST> 8.498223e+01
<MIXTURE> 4 3.229230e-02
<MEAN> 39
 -3.428751e+00 -1.340464e+00 1.407997e+00 3.090905e+00 8.421406e+00 5.030778e+00 1.710022e+00 5.554864e+00 4.530261e+00 3.153857e+00 4.552786e+00 1.342045e+00 2.046672e+01 -1.520196e+00 -1.717159e+00 1.243637e+00 -5.413268e-01 1.859942e+00 2.448809e-01 2.272756e-02 7.357290e-02 3.252233e-01 5.272118e-01 6.896663e-01 -7.311484e-01 1.749926e-01 -1.686471e-01 -1.763116e-01 -4.676491e-01 -3.315058e-02 -6.603673e-02 -6.814475e-02 1.733996e-01 -4.092177e-01 -1.920547e-01 -2.441817e-02 -2.824287e-01 -2.603351e-01 -5.045545e-02
<VARIANCE> 39
 4.947747e+00 1.605322e+01 7.692177e+00 1.791718e+01 1.572786e+01 2.056959e+01 6.253773e+00 2.778069e+01 1.798609e+01 3.096742e+01 1.011056e+01 1.987477e+01 1.560518e+00 1.021676e+00 1.330722e+00 8.016622e-01 9.827322e-01 1.750368e+00 1.697479e+00 2.173922e+00 1.313647e+00 2.843585e+00 6.957594e-01 9.189689e-01 1.526977e+00 5.853002e-02 1.614974e-01 1.466980e-01 1.283680e-01 2.645717e-01 3.094679e-01 3.298286e-01 2.299336e-01 5.722091e-01 4.764768e-01 4.668441e-01 4.120150e-01 3.547499e-01 7.490500e-03
<GCONST> 8.461954e+01
<MIXTURE> 5 7.475860e-02
<MEAN> 39
 -2.955596e+00 -4.645666e+00 -5.437356e+00 -8.038148e-01 9.789671e+00 5.557113e+00 4.180074e+00 1.511971e+00 -7.546818e-01 -3.521346e+00 -2.794193e+00 1.422028e+00 2.022520e+01 -1.261255e+00 -9.637303e-01 3.263472e-02 7.109472e-01 1.640250e+00 9.652805e-01 1.747067e-01 -4.529175e-01 -5.824828e-01 1.626710e-01 1.126410e+00 5.886968e-02 -6.553493e-02 2.138100e-01 2.469847e-01 6.858262e-02 -2.569277e-01 -7.838020e-01 -5.046254e-01 -4.218708e-01 -1.185568e-02 2.159265e-01 5.234693e-01 -4.002733e-02 -3.423893e-01 4.975515e-02
<VARIANCE> 39
 8.038486e+00 1.447704e+01 1.845495e+01 2.044060e+01 2.320489e+01 5.190116e+01 2.574270e+01 3.096894e+01 2.145291e+01 3.425279e+01 3.262640e+01 3.699072e+01 6.028778e-01 4.997883e-01 6.048070e-01 7.792706e-01 1.243671e+00 1.946306e+00 1.345524e+00 1.634480e+00 1.600501e+00 1.915832e+00 2.402628e+00 2.540230e+00 1.958074e+00 2.995292e-02 7.165234e-02 1.062721e-01 2.477956e-01 1.913571e-01 1.958906e-01 2.775098e-01 2.650435e-01 3.761207e-01 2.530831e-01 3.782136e-01 4.252203e-01 3.745466e-01 6.502270e-03
<GCONST> 8.728712e+01
<MIXTURE> 6 6.123436e-02
<MEAN> 39
 -7.374260e+00 -2.663750e+00 -4.029902e+00 -2.411036e+00 9.339662e+00 2.805439e+00 -3.230079e-01 5.143085e-01 -3.423960e-01 -1.595005e+00 4.971654e-01 -3.260567e+00 1.850584e+01 -1.135737e+00 -9.235635e-01 -1.054494e-01 -1.901627e-01 3.509837e-01 2.109608e-01 3.982013e-01 -3.164274e-01 3.525410e-01 2.343424e-01 5.055013e-01 3.447344e-01 -8.046091e-02 3.476601e-01 1.976035e-01 2.408496e-02 2.574589e-01 -1.467769e-01 2.122459e-01 3.915832e-01 4.895559e-02 1.887902e-01 1.844275e-01 -1.527133e-02 2.550989e-01 1.614389e-01
<VARIANCE> 39
 1.072638e+01 6.104529e+00 1.719033e+01 1.860259e+01 2.070626e+01 1.731616e+01 2.280428e+01 3.414567e+01 1.521979e+01 3.303126e+01 1.685244e+01 1.944000e+01 8.526628e-01 4.114743e-01 5.335671e-01 7.906329e-01 1.069945e+00 1.321691e+00 1.771721e+00 1.565615e+00 1.853308e+00 1.464978e+00 1.854585e+00 2.005257e+00 1.319786e+00 4.465494e-02 7.155992e-02 4.321809e-02 1.284334e-01 1.701778e-01 1.729838e-01 2.258625e-01 3.425991e-01 3.903979e-01 2.467841e-01 2.489372e-01 4.311604e-01 2.565430e-01 4.108963e-03
<GCONST> 7.977304e+01
<MIXTURE> 7 4.152761e-02
<MEAN> 39
 -4.125683e+00 -7.738607e+00 -5.477346e+00 2.061374e+00 6.675852e+00 3.581909e+00 5.087665e+00 6.495080e+00 3.405423e+00 -3.696647e+00 -3.679195e+00 1.791358e+00 2.013809e+01 -3.971128e-01 -1.190745e+00 -1.107618e+00 -1.529051e-03 2.880773e+00 7.889838e-01 -9.748062e-01 -1.084529e+00 5.926489e-01 9.859284e-01 6.470091e-01 -7.614629e-01 -4.068568e-02 -6.001508e-02 6.795704e-01 6.305546e-01 -7.274901e-02 -7.289746e-01 -8.223960e-02 6.186613e-02 -6.140569e-01 -2.936531e-01 6.320374e-01 7.555605e-01 -3.137297e-01 5.638292e-02
<VARIANCE> 39
 1.073794e+01 2.624573e+01 2.627957e+01 1.839492e+01 3.164230e+01 3.421400e+01 3.445910e+01 2.210184e+01 2.209484e+01 2.182778e+01 1.665107e+01 2.234561e+01 8.529515e-01 4.111166e-01 1.146776e+00 1.073322e+00 1.668222e+00 2.125713e+00 1.676406e+00 2.765363e+00 2.755276e+00 2.457065e+00 1.920568e+00 1.813314e+00 1.548794e+00 3.492217e-02 6.488167e-02 1.605557e-01 1.121672e-01 1.635522e-01 4.085373e-01 4.579744e-01 7.735961e-01 4.302461e-01 3.003383e-01 5.998457e-01 2.452947e-01 2.394309e-01 4.601027e-03
<GCONST> 9.015301e+01
<MIXTURE> 8 6.135043e-02
<MEAN> 39
 -3.094296e+00 2.213984e+00 -1.894155e+00 2.171565e+00 1.140970e+01 2.562841e-01 -1.202676e-01 5.508893e+00 5.494615e+00 1.778917e+00 2.781392e+00 -1.456655e+00 2.028559e+01 -1.137888e+00 -7.889672e-01 -6.699925e-01 -2.508063e-01 1.891060e+00 -7.356058e-01 7.316389e-02 1.315519e-01 5.142100e-01 -7.001731e-01 1.816656e-01 -3.265862e-01 -1.142593e-02 -9.801511e-02 -1.052298e-01 -1.595146e-01 6.433954e-03 -2.747152e-01 5.248122e-02 1.908132e-01 -1.750562e-01 -1.902898e-01 -1.109975e-01 -5.683714e-02 1.793159e-01 1.214518e-02
<VARIANCE> 39
 4.102224e+00 3.279299e+00 3.943279e+00 8.054487e+00 1.584669e+01 1.461316e+01 4.143866e+01 1.296486e+01 1.674078e+01 1.200555e+01 1.575491e+01 1.746825e+01 6.500316e-01 5.202110e-01 6.833565e-01 7.431573e-01 1.111179e+00 1.679847e+00 2.019192e+00 2.517484e+00 1.300476e+00 1.500790e+00 1.768438e+00 1.266590e+00 1.831120e+00 5.721838e-02 4.611187e-02 5.909910e-02 1.096969e-01 1.595555e-01 2.144295e-01 1.936477e-01 4.736700e-01 3.671340e-01 3.608053e-01 2.990895e-01 1.706196e-01 2.503547e-01 8.925075e-03
<GCONST> 7.511423e+01
<MIXTURE> 9 4.256796e-02
<MEAN> 39
 -3.215634e+00 -3.774444e-01 -2.253143e-01 -1.120426e+00 7.175381e+00 7.493407e+00 2.303343e+00 5.182464e+00 4.701004e+00 -9.010503e-01 1.871948e+00 2.659878e+00 1.953200e+01 -1.070476e+00 -2.416720e+00 -1.381067e-01 -1.200420e+00 1.972503e+00 8.894956e-01 -9.196272e-03 4.817868e-01 2.743693e-01 -1.618377e+00 -8.254206e-01 4.507290e-01 6.449149e-02 4.111041e-02 -1.996571e-01 -3.824531e-01 2.170217e-01 -2.171462e-01 -3.040410e-01 3.605107e-02 -4.992122e-01 -2.289135e-01 1.436386e-01 -2.485660e-01 -1.159163e-01 -2.813714e-02
<VARIANCE> 39
 7.569958e+00 7.319878e+00 7.398331e+00 1.765195e+01 1.221594e+01 3.007680e+01 2.432339e+01 2.312833e+01 2.659456e+01 1.698758e+01 1.729030e+01 8.854319e+00 1.882303e+00 4.477839e-01 9.553166e-01 1.239025e+00 1.302029e+00 1.563772e+00 1.406363e+00 3.283637e+00 2.624682e+00 2.423202e+00 1.487072e+00 1.445274e+00 1.637640e+00 4.973430e-02 1.054802e-01 1.242647e-01 1.069460e-01 2.614718e-01 1.580091e-01 3.682995e-01 3.998429e-01 3.407079e-01 4.476903e-01 2.401783e-01 2.809536e-01 1.769535e-01 1.454074e-02
<GCONST> 8.408224e+01
<MIXTURE> 10 6.007344e-02
<MEAN> 39
 -6.533605e+00 1.752546e+00 -7.984758e+00 -2.946560e+00 1.302498e+01 2.424484e+00 -4.141602e+00 1.685624e+00 5.768256e+00 3.788202e+00 5.372088e+00 -2.743997e+00 2.008273e+01 -1.465688e+00 -8.846124e-01 -1.927682e-01 7.949489e-01 1.620066e+00 5.273202e-01 1.311981e-01 2.779278e-01 6.859571e-01 -4.114474e-01 4.822596e-01 -8.782275e-02 -6.673332e-02 5.891882e-01 -1.050803e-01 2.236111e-01 -1.686839e-01 -8.791195e-01 3.012675e-01 4.655731e-01 -2.602514e-01 -5.298530e-01 -2.625246e-01 -7.862029e-01 1.084091e-02 1.117988e-01
<VARIANCE> 39
 1.071117e+01 1.062364e+01 1.977998e+01 2.121401e+01 2.387978e+01 2.141423e+01 2.669812e+01 1.716410e+01 1.590001e+01 1.273006e+01 2.323745e+01 1.884898e+01 7.485567e-01 4.698091e-01 7.629015e-01 8.870183e-01 1.467788e+00 1.453101e+00 1.829470e+00 1.483585e+00 2.295011e+00 1.459125e+00 1.976687e+00 2.524149e+00 1.671327e+00 3.282754e-02 8.375647e-02 1.124330e-01 1.386622e-01 3.073793e-01 4.006336e-01 4.792425e-01 4.945631e-01 3.783663e-01 2.623007e-01 4.852078e-01 3.342767e-01 4.690541e-01 7.894180e-03
<GCONST> 8.653860e+01
<MIXTURE> 11 5.144377e-02
<MEAN> 39
 -4.850562e+00 -2.803298e+00 -4.144262e+00 7.074268e-01 1.474343e+01 -1.298426e+00 -3.634174e+00 4.675584e+00 3.721183e+00 -2.951743e+00 -2.082783e+00 -1.218269e+00 1.972520e+01 -1.356154e+00 -1.101859e+00 1.043664e-01 2.194404e-01 9.626426e-01 9.760401e-02 7.915684e-01 4.976458e-01 8.779392e-01 -1.271461e-01 8.934416e-01 4.581148e-01 -6.581371e-02 2.438167e-01 2.405068e-01 -2.019876e-03 -2.111427e-01 -7.398993e-01 3.247594e-01 2.938590e-01 -3.181869e-01 -4.298688e-01 8.552297e-02 8.057569e-02 1.017450e-01 8.909716e-02
<VARIANCE> 39
 4.282630e+00 2.316824e+01 1.155697e+01 1.772936e+01 1.357123e+01 3.715125e+01 2.963029e+01 2.119379e+01 1.970204e+01 2.282108e+01 3.709651e+01 2.196289e+01 1.021451e+00 2.812186e-01 5.593382e-01 1.013546e+00 1.175175e+00 1.550398e+00 2.238954e+00 1.697220e+00 1.956537e+00 2.744675e+00 2.826382e+00 2.591596e+00 2.612149e+00 2.555284e-02 4.640117e-02 8.797614e-02 1.731913e-01 2.439120e-01 2.628998e-01 2.929775e-01 3.088323e-01 2.846335e-01 3.598863e-01 2.699640e-01 3.556900e-01 2.288229e-01 4.491074e-03
<GCONST> 8.425289e+01
<MIXTURE> 12 3.454319e-02
<MEAN> 39
 -4.977165e+00 -6.712154e-01 -4.518069e+00 3.647838e+00 1.133849e+01 -9.669250e-01 4.926495e+00 4.446833e+00 4.680020e+00 9.428064e-01 3.808113e+00 3.227909e+00 1.931274e+01 -1.761138e+00 -1.572596e+00 -1.008272e+00 2.638859e-01 1.723153e+00 -7.719082e-01 4.229078e-01 -4.506823e-01 -2.282886e-01 -9.501404e-01 2.184452e-01 2.778984e-01 -3.463160e-02 3.722708e-02 3.351532e-02 -3.401225e-02 -1.221589e-02 -6.147947e-01 4.497415e-01 -1.458528e-01 -4.620975e-01 -4.428533e-01 -1.873693e-01 -3.097984e-01 -1.082932e-01 -2.618359e-02
<VARIANCE> 39
 6.374260e+00 5.845438e+00 1.226622e+01 1.693314e+01 1.133630e+01 1.702612e+01 1.857771e+01 1.850443e+01 1.354161e+01 1.748871e+01 1.732932e+01 2.166448e+01 1.220000e+00 4.915747e-01 3.637995e-01 7.474822e-01 1.376827e+00 1.296367e+00 2.193875e+00 1.409232e+00 1.746472e+00 1.437548e+00 1.283501e+00 1.134791e+00 1.755972e+00 8.314849e-02 7.168607e-02 7.107472e-02 1.682492e-01 2.613724e-01 9.917001e-02 2.878729e-01 1.796579e-01 3.148783e-01 1.443253e-01 2.139740e-01 2.494195e-01 2.219926e-01 8.449920e-03
<GCONST> 7.641946e+01
<MIXTURE> 13 6.989513e-02
<MEAN> 39
 -6.684715e+00 -4.098743e+00 -2.660671e+00 6.925172e-01 5.522526e+00 1.941130e+00 5.057740e+00 1.034233e+00 -7.061242e+00 -5.732604e+00 -9.898909e-01 -4.983628e-03 1.964993e+01 -4.805553e-01 -1.174333e+00 -1.165689e+00 1.680894e+00 2.404803e+00 3.427797e-02 -5.387165e-01 7.233030e-01 6.156415e-01 -3.607941e-01 5.140994e-01 3.835172e-01 -4.341755e-02 2.630940e-01 5.159577e-01 2.162209e-01 -5.450552e-01 -7.677737e-01 -1.134021e-01 -2.941098e-01 -2.749220e-01 4.935739e-01 2.355317e-01 -3.832671e-01 -1.844613e-01 8.771297e-02
<VARIANCE> 39
 4.612379e+00 2.320358e+01 1.585888e+01 2.147121e+01 2.363300e+01 3.346050e+01 4.815723e+01 3.392625e+01 1.732246e+01 3.710110e+01 3.365894e+01 2.844521e+01 9.202271e-01 3.044146e-01 4.876338e-01 1.168274e+00 1.167620e+00 1.600995e+00 2.302429e+00 1.808960e+00 2.276303e+00 1.910780e+00 1.823879e+00 2.188209e+00 1.873439e+00 2.654008e-02 5.172884e-02 1.030929e-01 1.610042e-01 1.808451e-01 3.544341e-01 4.132055e-01 4.301466e-01 3.981180e-01 3.162462e-01 3.996823e-01 4.350112e-01 3.848163e-01 6.837655e-03
<GCONST> 8.835525e+01
<MIXTURE> 14 3.272393e-02
<MEAN> 39
 -3.848134e+00 -1.772335e+00 -3.221629e+00 -3.927595e+00 9.353564e+00 8.247858e+00 1.431334e-02 -1.694172e+00 1.021613e+00 3.267830e+00 -2.512028e-01 -5.329210e+00 1.939618e+01 -1.492601e+00 -1.502971e+00 -1.611165e-01 -8.031352e-01 1.260132e+00 4.567112e-02 -2.372584e-01 -6.812200e-01 -4.472530e-01 -5.348354e-01 -4.443082e-01 -8.738558e-01 -2.571597e-01 2.952484e-01 1.844736e-01 -1.275001e-01 2.224506e-01 -6.470109e-01 -2.605310e-01 1.967642e-01 1.836539e-01 -4.855929e-02 7.146229e-02 2.741040e-01 4.082176e-01 9.624724e-02
<VARIANCE> 39
 9.240184e+00 1.045134e+01 2.773578e+01 1.326530e+01 1.844933e+01 2.006436e+01 5.227667e+01 2.342287e+01 2.862130e+01 1.074718e+01 1.679487e+01 1.172278e+01 1.749198e+00 5.264377e-01 7.744060e-01 1.182134e+00 1.737032e+00 1.920769e+00 1.301594e+00 2.407808e+00 1.446762e+00 1.908370e+00 1.655779e+00 1.890769e+00 1.917788e+00 3.505268e-02 9.096028e-02 6.247364e-02 2.070017e-01 1.903161e-01 1.856582e-01 2.459805e-01 4.017767e-01 3.216574e-01 3.996186e-01 2.240414e-01 3.830869e-01 2.500923e-01 5.006382e-03
<GCONST> 8.423197e+01
<MIXTURE> 15 4.436181e-02
<MEAN> 39
 -4.061478e+00 -2.236361e+00 -2.297346e+00 9.641908e-01 8.602758e+00 6.218537e-01 3.185710e+00 4.133356e+00 3.109819e+00 -1.324124e+00 -4.528926e+00 5.955343e-01 2.068457e+01 -4.741851e-01 -1.337778e+00 -1.839288e+00 3.270192e-01 2.885036e+00 1.487204e+00 -9.988205e-02 -8.852180e-01 2.588213e-01 -9.701018e-01 -2.916917e-01 -1.204951e+00 -1.379144e-01 1.812043e-01 2.435206e-01 1.159054e-01 -4.325653e-01 -1.042300e+00 -1.978619e-01 3.848506e-02 -2.874130e-01 -4.044728e-01 2.662618e-01 3.401381e-01 -4.357902e-01 2.336941e-02
<VARIANCE> 39
 6.337663e+00 2.298154e+01 1.639424e+01 2.111181e+01 2.239466e+01 3.373307e+01 3.114939e+01 2.605551e+01 3.110228e+01 2.849394e+01 1.937357e+01 1.279458e+01 7.720580e-01 5.807371e-01 9.133533e-01 1.088620e+00 1.212266e+00 3.161862e+00 2.425755e+00 3.052076e+00 2.074782e+00 2.075823e+00 1.539872e+00 2.059621e+00 1.238707e+00 2.532521e-02 5.671683e-02 1.605495e-01 1.936551e-01 2.217848e-01 2.341674e-01 3.244361e-01 5.090373e-01 5.156752e-01 4.157278e-01 3.359433e-01 4.832332e-01 3.109663e-01 4.616121e-03
<GCONST> 8.881816e+01
<MIXTURE> 16 6.324968e-02
<MEAN> 39
 -1.989446e+00 -4.089584e+00 -2.711134e+00 3.530549e+00 4.523256e+00 5.525829e+00 -3.965256e-01 2.109330e+00 4.469253e+00 3.788410e+00 4.657795e-01 -1.807543e+00 1.874636e+01 -7.863150e-01 -2.013469e+00 -1.591222e-02 -3.568756e-01 1.052693e+00 3.534155e-01 -1.450870e-01 -4.064061e-01 6.548611e-02 1.355633e-01 -6.221490e-02 -9.716514e-02 -7.931920e-03 -7.642093e-02 1.279333e-01 -9.681522e-02 -1.365468e-01 6.885862e-02 -7.716613e-03 4.624517e-01 4.372912e-02 -4.155222e-01 -2.377665e-01 -1.637033e-01 3.257837e-01 7.753789e-02
<VARIANCE> 39
 1.524564e+00 7.188005e+00 1.495290e+01 1.111497e+01 7.789862e+00 1.247791e+01 1.699391e+01 1.183199e+01 1.073574e+01 1.414696e+01 2.299631e+01 1.290547e+01 1.152493e+00 4.760366e-01 9.006643e-01 8.790737e-01 1.391823e+00 9.791667e-01 1.592699e+00 1.741704e+00 1.517923e+00 1.950474e+00 1.927775e+00 2.567071e+00 2.288004e+00 6.319597e-02 6.079509e-02 9.704279e-02 1.745667e-01 2.229412e-01 1.817379e-01 1.853580e-01 3.001397e-01 2.593961e-01 1.854689e-01 2.146109e-01 4.134881e-01 2.545313e-01 9.827068e-03
<GCONST> 7.660719e+01
<MIXTURE> 17 5.390763e-02
<MEAN> 39
 -4.423515e+00 2.360527e+00 -8.899041e+00 -9.693304e-01 1.381398e+01 3.838582e+00 1.152626e+00 -1.007877e+00 8.210437e-01 1.050347e+00 4.518773e-01 -3.110900e+00 2.066461e+01 -1.176816e+00 -8.001025e-01 1.700119e-01 1.170629e+00 1.407205e+00 1.389879e-01 5.740005e-01 4.025397e-01 3.951202e-01 -3.571123e-01 -5.742497e-02 -7.610556e-02 -7.548117e-02 5.540276e-01 -1.846158e-01 -2.221183e-01 -5.972598e-01 -8.530913e-01 -2.296828e-01 -4.812123e-02 -1.074751e-01 -2.067943e-01 -3.361541e-01 -2.943355e-01 -1.034525e-01 6.127010e-02
<VARIANCE> 39
 8.246574e+00 9.780290e+00 1.724423e+01 1.855416e+01 2.287548e+01 4.066459e+01 3.952189e+01 2.302652e+01 2.742842e+01 5.211352e+01 2.824859e+01 3.094667e+01 9.029067e-01 6.963596e-01 3.082460e-01 4.124997e-01 1.017352e+00 1.206013e+00 1.515330e+00 1.561975e+00 2.206605e+00 1.995505e+00 1.435086e+00 1.969192e+00 1.288384e+00 4.747742e-02 8.308738e-02 1.430968e-01 1.967592e-01 1.659117e-01 2.662752e-01 2.303762e-01 4.081376e-01 4.686847e-01 3.667830e-01 4.173801e-01 2.280391e-01 4.463145e-01 6.868060e-03
<GCONST> 8.634756e+01
<MIXTURE> 18 4.724855e-02
<MEAN> 39
 -5.083014e+00 -4.619737e+00 -8.056331e-01 6.429541e-01 1.208217e+01 -1.232912e-01 -2.498081e+00 9.112648e+00 3.943473e+00 -3.855465e+00 -1.251176e+00 -1.083627e-01 1.999331e+01 -8.028411e-01 -1.127476e+00 1.720410e-01 9.372503e-02 -3.274950e-02 3.538886e-02 -4.515783e-01 -1.957341e-01 3.376208e-01 -2.118026e-02 -2.496531e-02 3.123104e-01 -1.527760e-01 3.603714e-01 2.072179e-01 -3.298680e-01 -6.866585e-02 -4.947346e-01 3.577624e-01 2.845367e-02 -8.493690e-01 -6.443236e-01 -1.796392e-01 -1.752068e-01 -7.450233e-02 4.247537e-02
<VARIANCE> 39
 7.816210e+00 1.456909e+01 1.389071e+01 1.674227e+01 1.329790e+01 2.804393e+01 2.265421e+01 2.694435e+01 3.560964e+01 2.970469e+01 1.088118e+01 2.087836e+01 8.353031e-01 3.179061e-01 9.589111e-01 1.027614e+00 8.637767e-01 1.222141e+00 9.242129e-01 1.737124e+00 2.092904e+00 1.742668e+00 1.590029e+00 1.222895e+00 1.554791e+00 4.040635e-02 6.242045e-02 1.165254e-01 2.674165e-01 2.225653e-01 3.561523e-01 1.990863e-01 4.099331e-01 2.254761e-01 4.821765e-01 2.915692e-01 2.018095e-01 2.007251e-01 7.568426e-03
<GCONST> 8.214041e+01
<MIXTURE> 19 4.820443e-02
<MEAN> 39
 -3.481120e+00 -6.323191e+00 6.257595e-01 3.446611e+00 8.181810e+00 6.395390e+00 1.641575e+00 4.536199e+00 5.870086e+00 2.138061e+00 -1.945654e-01 3.428445e+00 1.993184e+01 -1.722639e+00 -2.872561e+00 1.040588e-01 -5.754595e-01 1.225884e+00 2.150163e-02 -6.979511e-01 -8.375100e-02 -4.160876e-02 -3.607195e-01 -7.044737e-01 4.830567e-02 -1.370665e-01 7.427067e-02 4.091592e-01 -4.946823e-01 -1.336363e-01 -4.131455e-01 -1.814801e-01 1.129088e-01 -3.963503e-01 -5.318714e-01 -2.485418e-01 -3.352923e-01 -3.737408e-01 -1.890066e-02
<VARIANCE> 39
 5.171365e+00 9.715185e+00 1.186944e+01 1.370118e+01 1.837290e+01 1.725289e+01 1.828888e+01 2.105080e+01 2.252970e+01 1.442616e+01 2.789567e+01 9.836003e+00 1.161735e+00 5.958864e-01 1.167800e+00 9.504421e-01 9.962620e-01 1.609938e+00 1.315181e+00 1.876692e+00 2.184258e+00 1.836495e+00 1.549885e+00 1.699358e+00 1.482647e+00 4.510036e-02 1.048751e-01 1.509333e-01 2.217546e-01 2.773524e-01 2.744850e-01 2.783399e-01 2.714302e-01 4.031841e-01 4.082364e-01 2.527597e-01 4.946271e-01 2.021913e-01 1.139740e-02
<GCONST> 8.379410e+01
<MIXTURE> 20 5.040973e-02
<MEAN> 39
 -4.520732e+00 4.229098e-01 2.431637e+00 8.876063e-01 1.036298e+01 5.335588e+00 1.662556e+00 3.347978e+00 2.040163e+00 5.567979e+00 2.982092e+00 -3.066710e+00 2.002425e+01 -1.838756e+00 -1.534287e+00 3.482917e-01 -9.365857e-01 1.759046e+00 1.066561e-01 -1.636475e-01 -4.087548e-01 -2.773532e-01 5.154461e-01 1.788586e-01 -1.116073e+00 -3.788036e-02 -4.240214e-02 -1.907665e-01 -5.119300e-01 5.169114e-02 -4.713860e-01 7.464223e-02 2.967555e-01 -2.545725e-01 -3.121696e-02 -2.817743e-01 -1.726971e-01 2.306464e-01 -5.512147e-02
<VARIANCE> 39
 5.369622e+00 6.835940e+00 7.094632e+00 1.190817e+01 1.087939e+01 1.109195e+01 1.954844e+01 1.332128e+01 1.319419e+01 1.452065e+01 1.000273e+01 1.112507e+01 8.990112e-01 6.971276e-01 1.543351e+00 7.313495e-01 1.137387e+00 1.307078e+00 1.675087e+00 1.744627e+00 2.406259e+00 1.948258e+00 1.675832e+00 2.311517e+00 1.223583e+00 4.899907e-02 7.227371e-02 9.633243e-02 1.194869e-01 1.364694e-01 1.982302e-01 2.037584e-01 3.787918e-01 2.227603e-01 2.091933e-01 2.068146e-01 2.477303e-01 1.792610e-01 9.171046e-03
<GCONST> 7.553580e+01
<STATE> 4
<NUMMIXES> 20
<MIXTURE> 1 6.003242e-02
<MEAN> 39
 -7.058509e+00 -2.052942e+00 -5.411419e+00 -3.745834e+00 1.531939e+01 7.507599e+00 -4.423645e+00 -5.232511e-01 6.455203e+00 -1.119366e-01 1.333946e+00 -6.913937e-01 1.980860e+01 1.084418e-01 -1.064264e+00 1.487975e-01 7.019535e-01 9.763893e-02 2.548305e-01 1.277048e+00 6.502554e-02 -2.823388e-01 -2.572987e-01 -1.854466e+00 -1.345387e-01 1.556426e-01 6.693916e-01 1.534124e-01 -9.556373e-02 -3.261768e-01 -1.021767e+00 -3.172091e-01 6.083184e-01 1.473842e-01 -6.293549e-01 -1.926341e-01 -6.861051e-01 -1.418217e-01 9.664846e-02
<VARIANCE> 39
 8.222848e+00 1.400965e+01 1.200716e+01 1.755363e+01 1.352570e+01 2.450971e+01 2.018135e+01 2.104323e+01 1.566537e+01 2.206808e+01 2.855770e+01 1.871416e+01 1.116258e+00 6.023697e-01 5.011199e-01 6.291574e-01 1.100301e+00 1.510820e+00 1.972329e+00 2.792530e+00 2.056862e+00 1.816788e+00 2.465514e+00 4.193764e+00 2.102020e+00 4.152308e-02 1.127808e-01 1.602801e-01 2.329385e-01 2.639332e-01 2.843167e-01 2.985211e-01 3.678156e-01 4.557953e-01 5.617147e-01 3.957938e-01 4.929350e-01 2.529500e-01 8.805965e-03
<GCONST> 8.826274e+01
<MIXTURE> 2 7.147741e-02
<MEAN> 39
 -8.830197e+00 -2.223228e+00 -1.331626e+00 -1.397995e+00 1.055153e+01 5.984581e+00 2.962394e+00 2.625554e-02 -6.806652e-02 7.743585e+00 5.178925e+00 -3.914735e+00 2.029048e+01 -5.200593e-01 -7.520909e-01 -3.414380e-01 1.250654e-01 4.115365e-01 4.506393e-01 1.009247e+00 -1.811530e-01 -1.163685e-01 4.760978e-01 -2.276419e-01 -2.776148e-01 9.348076e-02 5.934978e-01 3.571404e-02 -5.019781e-01 -1.195662e-01 -3.054328e-01 -1.242401e-01 1.869153e-01 2.358922e-01 -5.450223e-03 -5.397561e-01 -5.838532e-01 3.684410e-02 1.446044e-02
<VARIANCE> 39
 1.110687e+01 1.264720e+01 9.822452e+00 2.305539e+01 1.698221e+01 1.596175e+01 1.912676e+01 1.981490e+01 1.849095e+01 1.415796e+01 1.758881e+01 1.603932e+01 1.206992e+00 8.305188e-01 6.967103e-01 1.109466e+00 8.926738e-01 1.161238e+00 1.434731e+00 1.671575e+00 1.231845e+00 1.072857e+00 1.388594e+00 1.361661e+00 1.466317e+00 4.832917e-02 9.597038e-02 8.536258e-02 1.167967e-01 1.954475e-01 3.528382e-01 3.110211e-01 2.453878e-01 2.997037e-01 3.096695e-01 3.682716e-01 3.510525e-01 2.368991e-01 9.674134e-03
<GCONST> 8.101873e+01
<MIXTURE> 3 4.142995e-02
<MEAN> 39
 -4.708443e+00 -4.900715e+00 -4.991999e+00 9.879839e-01 1.216597e+01 7.081299e+00 3.275286e+00 -1.627272e+00 2.209840e+00 6.802242e-01 -2.077026e+00 2.058297e+00 1.973741e+01 -2.206301e-01 -2.610315e-01 4.833826e-02 8.017184e-01 2.629456e-01 4.527390e-02 1.035736e+00 5.165626e-01 5.384228e-01 5.732473e-01 3.463537e-01 3.860166e-01 2.237896e-01 2.681468e-01 1.684250e-01 -3.702340e-03 -1.696427e-01 -6.351353e-01 -2.386642e-01 1.147031e-01 3.616482e-01 1.312580e-02 -1.291566e-01 -1.770769e-01 -2.047254e-01 2.745805e-02
<VARIANCE> 39
 5.833765e+00 1.135665e+01 1.229144e+01 2.303591e+01 1.511428e+01 3.341383e+01 1.713753e+01 1.446192e+01 2.088415e+01 2.372729e+01 2.712078e+01 2.141901e+01 6.618626e-01 3.620131e-01 3.082516e-01 9.423748e-01 7.293801e-01 1.023549e+00 1.061345e+00 1.726314e+00 2.217988e+00 1.481518e+00 1.723266e+00 1.574795e+00 1.052332e+00 1.737202e-02 4.881585e-02 4.350500e-02 1.599426e-01 1.684476e-01 1.418333e-01 2.024376e-01 2.987523e-01 2.800248e-01 2.284222e-01 2.774139e-01 2.747761e-01 2.120844e-01 7.614172e-03
<GCONST> 7.537943e+01
<MIXTURE> 4 4.532377e-02
<MEAN> 39
 -5.549646e+00 -1.047662e+01 -3.624755e-01 6.323156e+00 1.062823e+01 2.253130e+00 3.849708e+00 6.724682e+00 -1.393014e+00 -7.716900e-01 1.143404e+00 3.911800e+00 2.037481e+01 -5.713404e-01 -6.316777e-01 7.273620e-02 4.479690e-01 4.280806e-02 6.172652e-01 -4.399523e-01 -2.074217e-01 -2.972012e-01 5.134827e-01 5.636764e-01 -2.833607e-01 9.326956e-02 3.822766e-01 2.660649e-01 -2.601369e-01 -2.172657e-01 -6.466263e-01 2.285902e-01 -3.797650e-01 -5.740427e-01 -2.132246e-01 -4.361462e-01 -5.214117e-01 -1.969278e-01 -8.121531e-03
<VARIANCE> 39
 5.910950e+00 1.190521e+01 1.004722e+01 1.514323e+01 1.616247e+01 2.066407e+01 2.141364e+01 1.550918e+01 2.092339e+01 1.924874e+01 2.033032e+01 1.449444e+01 5.841588e-01 3.292640e-01 5.936676e-01 7.761880e-01 9.568139e-01 1.103675e+00 1.528742e+00 1.626190e+00 1.593775e+00 1.120051e+00 1.349688e+00 1.215915e+00 1.275015e+00 2.886304e-02 3.693907e-02 1.237781e-01 1.535293e-01 1.938699e-01 2.690910e-01 2.869807e-01 2.819479e-01 2.048727e-01 2.208687e-01 3.376135e-01 2.550468e-01 2.640110e-01 6.079455e-03
<GCONST> 7.585954e+01
<MIXTURE> 5 4.955415e-02
<MEAN> 39
 -5.146301e+00 -6.130797e+00 -6.501239e+00 1.908158e+00 1.143393e+01 6.459182e+00 5.581311e+00 2.474364e+00 -2.095997e+00 -6.247558e-01 -2.606392e+00 -5.410546e+00 2.013342e+01 -8.564806e-02 -2.680541e-01 -4.886459e-01 2.469730e-01 7.657077e-01 6.268806e-01 4.248233e-01 -5.796738e-01 -4.332819e-01 -3.484621e-01 3.083799e-01 -1.166340e+00 7.719459e-02 4.817028e-01 6.382884e-01 4.268860e-02 -3.893464e-01 -1.216146e+00 -7.822160e-01 -3.335286e-02 7.443183e-02 4.007522e-01 2.122641e-01 1.088804e-01 1.560359e-01 8.493011e-02
<VARIANCE> 39
 8.745516e+00 1.908960e+01 1.948411e+01 1.734711e+01 1.861238e+01 2.709271e+01 1.465629e+01 2.788937e+01 1.573079e+01 3.277085e+01 3.215149e+01 1.782064e+01 6.743782e-01 3.082119e-01 4.908639e-01 1.098500e+00 9.994563e-01 1.520837e+00 1.297956e+00 1.660738e+00 1.860069e+00 1.647727e+00 1.777002e+00 2.566309e+00 2.084702e+00 3.844140e-02 5.911844e-02 8.371890e-02 2.287019e-01 2.137381e-01 2.868598e-01 2.749141e-01 3.306734e-01 3.796595e-01 3.349154e-01 2.959428e-01 3.580888e-01 3.363230e-01 5.472105e-03
<GCONST> 8.398347e+01
<MIXTURE> 6 3.874107e-02
<MEAN> 39
 -9.302053e+00 8.827308e-01 -5.679154e+00 1.585781e+00 1.492646e+01 -5.855270e-01 -7.524052e-01 8.576546e+00 5.112464e+00 -6.711153e-01 2.517637e+00 -9.007511e-01 2.080471e+01 -7.482095e-01 -4.296497e-01 -7.775605e-02 2.008034e-01 1.901639e-01 6.908543e-01 1.312629e+00 1.757170e-01 3.311113e-01 1.709697e-01 4.893840e-01 1.668195e-01 1.206862e-01 3.667963e-01 -2.189815e-02 -8.117744e-03 -9.320256e-02 -3.437375e-01 -2.079900e-02 -1.296555e-01 -6.044642e-01 -6.623883e-01 -1.246844e-01 -2.051973e-01 -6.763647e-02 -3.371708e-03
<VARIANCE> 39
 4.997853e+00 4.137646e+00 6.686717e+00 9.424711e+00 1.561747e+01 2.517476e+01 2.614836e+01 2.984094e+01 2.319287e+01 2.112808e+01 1.913740e+01 2.034478e+01 7.198871e-01 3.597963e-01 3.279267e-01 7.075268e-01 9.652874e-01 7.984673e-01 1.828030e+00 1.443365e+00 1.688935e+00 1.451197e+00 2.100178e+00 1.656835e+00 1.508829e+00 3.133263e-02 5.507623e-02 6.136084e-02 1.108433e-01 1.933044e-01 2.610173e-01 3.089646e-01 3.568403e-01 2.517473e-01 4.119024e-01 4.282869e-01 3.398756e-01 2.040214e-01 7.227383e-03
<GCONST> 7.683811e+01
<MIXTURE> 7 5.350974e-02
<MEAN> 39
 -4.018085e+00 -6.423504e+00 -5.219508e+00 -2.092121e+00 6.948257e+00 1.166450e+01 1.712612e+00 -2.835538e+00 3.894023e+00 3.972487e+00 1.075041e+00 -1.669409e+00 1.931946e+01 6.296431e-02 -4.044349e-01 -1.159578e-01 -1.033788e-01 7.754435e-02 2.317885e-01 1.229307e+00 7.589921e-03 -2.686675e-01 1.700254e-01 -7.158080e-01 -1.638608e-01 5.464894e-02 5.219308e-01 3.869981e-01 -2.661341e-01 -8.701468e-02 -4.488921e-02 -3.744283e-01 1.653996e-01 7.366879e-02 -2.473290e-01 -1.105358e-01 -4.682668e-01 -9.878946e-03 1.224669e-01
<VARIANCE> 39
 1.157245e+01 1.920366e+01 9.120783e+00 1.030616e+01 1.696242e+01 1.716939e+01 1.262410e+01 1.422018e+01 2.233419e+01 1.835761e+01 2.050718e+01 1.432763e+01 6.922935e-01 1.880422e-01 3.328920e-01 5.946289e-01 7.573604e-01 1.123453e+00 9.893635e-01 1.753413e+00 1.005632e+00 1.720742e+00 1.269200e+00 1.849627e+00 1.280345e+00 3.273583e-02 5.338205e-02 9.364734e-02 1.583590e-01 1.486601e-01 2.867108e-01 2.758049e-01 3.051113e-01 2.446529e-01 2.795123e-01 2.502868e-01 3.928877e-01 2.788626e-01 5.554031e-03
<GCONST> 7.490394e+01
<MIXTURE> 8 4.272474e-02
<MEAN> 39
 -6.145267e+00 -7.279191e+00 -2.543633e+00 -2.466558e+00 6.959973e+00 5.138739e+00 7.275203e-01 1.228045e+00 3.083162e+00 -1.895234e+00 -1.780355e+00 3.174813e+00 1.840083e+01 -8.128794e-01 -1.349796e+00 -4.275764e-01 -3.331225e-01 1.217683e+00 6.692833e-01 1.227902e+00 9.187151e-02 -2.055550e-01 -4.578183e-01 -5.660614e-01 6.731324e-01 2.113260e-01 4.568148e-01 6.009517e-01 -2.243729e-01 2.458060e-01 -3.188355e-01 -2.936891e-02 3.373689e-01 4.944832e-03 -2.838719e-01 2.662616e-01 -1.100242e-01 -3.216911e-01 1.378144e-01
<VARIANCE> 39
 7.414726e+00 1.417586e+01 1.553362e+01 3.459204e+01 2.332905e+01 3.187384e+01 3.727709e+01 2.361841e+01 2.004333e+01 2.291624e+01 2.516914e+01 1.235161e+01 1.132903e+00 5.368136e-01 1.270160e+00 1.122739e+00 1.660564e+00 1.274277e+00 1.173980e+00 3.137878e+00 2.389089e+00 2.590736e+00 2.009006e+00 1.987299e+00 2.054783e+00 4.431732e-02 1.413535e-01 1.312398e-01 2.627330e-01 3.532476e-01 4.668541e-01 3.928393e-01 4.577394e-01 4.612701e-01 2.758369e-01 3.080675e-01 3.769678e-01 2.017360e-01 1.395505e-02
<GCONST> 9.167258e+01
<MIXTURE> 9 5.124722e-02
<MEAN> 39
 -8.234081e+00 -7.136842e+00 3.571420e+00 2.614720e+00 1.251199e+01 4.490990e+00 2.025039e+00 1.955947e+00 4.534214e+00 2.044012e+00 2.027798e+00 8.174922e-01 2.001657e+01 -1.106250e+00 -2.186180e+00 -5.015687e-01 -2.929493e-01 6.143318e-01 4.951008e-01 4.027034e-01 -7.480202e-01 -5.381521e-01 -7.507623e-01 -2.077959e-01 3.445044e-01 3.971545e-02 8.854997e-01 5.203837e-01 -1.000841e+00 -2.118940e-01 -1.041911e+00 -1.514859e-02 -1.170392e-01 -9.906565e-02 -5.639238e-01 -4.638776e-01 -2.931199e-01 -2.601051e-02 4.315498e-02
<VARIANCE> 39
 7.902967e+00 1.282877e+01 6.604629e+00 1.298131e+01 1.512334e+01 2.037174e+01 2.263884e+01 2.121408e+01 2.796443e+01 1.397330e+01 1.713505e+01 1.980798e+01 8.694788e-01 1.368643e+00 1.382478e+00 1.236794e+00 1.040493e+00 1.769955e+00 1.693762e+00 1.231172e+00 2.690189e+00 1.610475e+00 1.757821e+00 2.013786e+00 1.405328e+00 7.085414e-02 1.450937e-01 2.323631e-01 1.874082e-01 2.538322e-01 2.710025e-01 3.923681e-01 5.164869e-01 5.166634e-01 5.116084e-01 1.984261e-01 2.277887e-01 3.036333e-01 1.511365e-02
<GCONST> 8.777813e+01
<MIXTURE> 10 5.522984e-02
<MEAN> 39
 -8.548333e+00 -7.597063e-01 -5.713953e+00 1.352551e+00 1.611617e+01 1.364855e+00 1.096092e+00 4.807571e+00 5.771755e+00 2.429878e-01 9.373155e-01 -2.354302e+00 2.027612e+01 -3.158671e-01 -6.791918e-01 -2.739993e-01 4.349394e-01 -1.067109e-02 1.341740e-01 4.257815e-03 -1.263552e+00 -9.579013e-01 -1.241310e+00 -6.223667e-01 -1.690638e-01 5.059198e-02 8.639829e-01 1.140753e-01 -3.087004e-01 -4.762668e-01 -1.255741e+00 -1.326149e-01 -1.902511e-01 -7.225249e-01 -8.847654e-01 -4.561206e-01 -3.338051e-01 1.405448e-01 8.838948e-02
<VARIANCE> 39
 1.157560e+01 6.339386e+00 1.219170e+01 1.257743e+01 1.444544e+01 2.622773e+01 2.631435e+01 2.119048e+01 1.661608e+01 3.631781e+01 3.179601e+01 1.664360e+01 9.240541e-01 9.200489e-01 5.284077e-01 1.074441e+00 9.087959e-01 1.952080e+00 1.447720e+00 1.731116e+00 2.501366e+00 2.551224e+00 2.453463e+00 2.080676e+00 1.354774e+00 5.288224e-02 9.124301e-02 2.047924e-01 2.722405e-01 2.499580e-01 2.654718e-01 3.883450e-01 5.117751e-01 3.486494e-01 4.788293e-01 5.505295e-01 3.176518e-01 3.227136e-01 1.036259e-02
<GCONST> 8.870781e+01
<MIXTURE> 11 6.687427e-02
<MEAN> 39
 -4.802305e+00 -3.843574e+00 -3.770638e+00 2.551035e+00 1.093938e+01 3.327281e-01 -3.045649e+00 2.327481e+00 -1.169789e+00 -7.142106e+00 -4.740588e+00 -2.555367e+00 1.990834e+01 1.055934e-01 -2.518590e-01 -5.382899e-01 5.398283e-01 -8.752521e-02 1.068114e-01 -5.017762e-01 -1.038175e+00 -3.435917e-01 -7.520632e-01 -2.117697e-01 -2.718827e-01 1.065484e-02 4.567037e-01 1.921007e-01 -3.769639e-01 -5.962279e-01 -7.894982e-01 3.567966e-02 1.894403e-01 -2.253107e-01 -2.682157e-01 1.828668e-02 -2.290017e-02 1.243096e-01 8.499250e-02
<VARIANCE> 39
 4.945932e+00 2.592134e+01 2.067162e+01 1.481362e+01 2.205231e+01 4.145526e+01 3.065687e+01 4.821615e+01 3.387224e+01 2.587542e+01 2.192519e+01 2.116749e+01 5.970555e-01 3.036145e-01 3.941641e-01 8.155992e-01 9.341065e-01 1.061551e+00 1.222149e+00 2.057538e+00 1.675906e+00 1.695755e+00 1.567747e+00 9.713503e-01 1.252512e+00 1.722634e-02 3.681961e-02 1.065106e-01 2.498346e-01 2.775019e-01 2.058720e-01 4.201686e-01 4.135095e-01 4.566395e-01 3.487742e-01 2.808750e-01 2.899791e-01 2.574667e-01 5.591057e-03
<GCONST> 8.255854e+01
<MIXTURE> 12 4.037737e-02
<MEAN> 39
 -3.774408e+00 -5.108080e+00 -5.181790e+00 1.961610e-01 9.793611e+00 8.443459e+00 4.482386e+00 2.226718e+00 4.634704e+00 2.884171e+00 2.304894e+00 2.024421e+00 2.032792e+01 -3.897948e-01 -9.297549e-01 -3.553681e-01 7.622335e-02 -4.029877e-01 -3.015450e-01 2.035779e-01 -7.199993e-01 5.477347e-03 -4.323836e-01 -2.074915e-01 -2.193267e-01 -1.225134e-01 2.186279e-01 2.204283e-01 -3.404509e-02 -5.864798e-03 -3.992837e-01 -2.564663e-01 -1.054107e-01 -3.096327e-01 -5.062853e-01 -4.155499e-01 -6.125242e-01 -5.102414e-01 -5.318775e-02
<VARIANCE> 39
 6.350427e+00 1.125461e+01 1.259922e+01 3.149003e+01 1.484383e+01 2.514843e+01 2.564685e+01 1.626015e+01 2.518061e+01 2.124552e+01 8.706237e+00 1.608430e+01 1.177355e+00 3.840500e-01 5.156461e-01 8.616697e-01 7.611660e-01 1.406859e+00 1.240236e+00 2.107513e+00 8.956518e-01 9.717541e-01 1.861349e+00 1.214464e+00 1.906678e+00 4.187267e-02 5.347915e-02 6.325364e-02 1.693133e-01 2.122499e-01 2.564453e-01 1.848884e-01 2.632421e-01 2.398489e-01 2.373717e-01 2.602914e-01 1.055274e-01 3.258952e-01 7.891514e-03
<GCONST> 7.686041e+01
<MIXTURE> 13 5.989494e-02
<MEAN> 39
 -8.018138e+00 -4.500961e+00 -7.514167e-01 5.762172e-01 7.943338e+00 7.035822e+00 3.270259e+00 6.614891e-01 2.177565e+00 5.104637e+00 3.988960e+00 -3.554034e+00 2.029880e+01 2.289909e-02 -4.710739e-01 -4.392492e-01 -8.054538e-02 -1.688430e-01 4.535077e-01 4.869147e-01 -8.302852e-01 -4.188400e-01 -3.474591e-01 -3.656490e-01 -5.389792e-01 4.521585e-02 9.399826e-01 2.596256e-01 -9.514210e-01 -6.806106e-01 -3.308135e-01 -4.510090e-01 -1.044708e-01 -9.079978e-02 -1.721453e-01 -5.437133e-01 -5.732396e-01 -3.129023e-01 1.119479e-01
<VARIANCE> 39
 1.497233e+01 9.637411e+00 9.110906e+00 2.621269e+01 1.591943e+01 1.721716e+01 1.688884e+01 1.690212e+01 1.896448e+01 1.829156e+01 2.233947e+01 2.200246e+01 6.513130e-01 4.048229e-01 6.569415e-01 1.169961e+00 9.458232e-01 9.694664e-01 1.164280e+00 1.371416e+00 1.560437e+00 1.582456e+00 2.046288e+00 1.235637e+00 1.039730e+00 5.131060e-02 1.315871e-01 1.857925e-01 2.175915e-01 2.126015e-01 2.149260e-01 2.576350e-01 2.786705e-01 2.939372e-01 2.769071e-01 4.490380e-01 3.741800e-01 3.123284e-01 1.088428e-02
<GCONST> 8.219213e+01
<MIXTURE> 14 5.120057e-02
<MEAN> 39
 -5.529540e+00 -6.398833e+00 -2.170220e+00 -3.207613e+00 9.038580e+00 7.274004e+00 4.997427e-01 1.584719e+00 3.558764e+00 1.483640e+00 1.934926e+00 -2.956360e+00 1.903154e+01 -8.696932e-01 -1.609964e+00 -1.059230e+00 -5.222874e-01 7.970138e-01 4.932979e-01 7.071550e-01 -5.747479e-01 -4.493554e-01 -7.438566e-01 -5.858377e-01 -6.920031e-01 -6.181392e-02 5.941348e-01 7.280998e-01 -3.447190e-01 2.823534e-01 -5.913832e-01 -4.142173e-01 4.022757e-01 -1.046543e-01 -2.658601e-01 -1.517917e-01 -3.302346e-01 1.089350e-01 1.267429e-01
<VARIANCE> 39
 5.815570e+00 1.145773e+01 2.216315e+01 2.043947e+01 1.506025e+01 2.038244e+01 2.724148e+01 1.991439e+01 2.520042e+01 2.147111e+01 1.918742e+01 2.147341e+01 1.111302e+00 3.004569e-01 3.803453e-01 1.086051e+00 1.446725e+00 1.158612e+00 1.289219e+00 1.872134e+00 1.406567e+00 1.601534e+00 1.827027e+00 1.602886e+00 1.346427e+00 3.851417e-02 9.270164e-02 1.085261e-01 2.283476e-01 3.490246e-01 2.492929e-01 2.754651e-01 3.692956e-01 3.684243e-01 5.158749e-01 2.823414e-01 3.840319e-01 3.385155e-01 1.526308e-02
<GCONST> 8.472301e+01
<MIXTURE> 15 3.246348e-02
<MEAN> 39
