~o
<STREAMINFO> 1 39
<VECSIZE> 39<NULLD><MFCC_E_D_A><DIAGC>
~s "silst"
<NUMMIXES> 36
<MIXTURE> 1 2.912747e-02
<MEAN> 39
 -5.112536e-02 4.179653e+00 -1.358711e-01 5.880576e+00 5.381726e+00 7.747097e+00 7.134257e+00 5.705488e+00 4.628366e+00 3.684197e+00 1.666651e+00 1.204579e+00 2.009834e+01 1.264705e-01 2.413901e-01 3.467424e-01 4.357831e-01 4.661491e-01 4.220341e-01 3.420500e-01 2.774851e-01 3.100749e-01 2.740951e-01 2.264732e-01 1.895630e-01 2.710880e-01 -8.583221e-02 -1.417027e-01 -2.029647e-01 -2.831890e-01 -3.622243e-01 -4.539196e-01 -5.131557e-01 -4.372166e-01 -2.605253e-01 -8.257844e-02 5.739504e-02 9.759943e-02 -1.489249e-01
<VARIANCE> 39
 1.751451e+00 2.264318e+00 3.284740e+00 4.719589e+00 5.646672e+00 6.467642e+00 6.510308e+00 6.467471e+00 6.973277e+00 7.727799e+00 6.843688e+00 8.037317e+00 6.403647e-01 9.176284e-02 2.003604e-01 3.265066e-01 4.784443e-01 6.268170e-01 7.721670e-01 8.661475e-01 9.643978e-01 1.075596e+00 1.093417e+00 9.623180e-01 9.798064e-01 3.230661e-02 1.979189e-02 3.592451e-02 5.743589e-02 8.810532e-02 1.147749e-01 1.322053e-01 1.266385e-01 1.564203e-01 1.673427e-01 1.693911e-01 1.429695e-01 1.754208e-01 6.271765e-03
<GCONST> 4.762960e+01
<MIXTURE> 2 3.718295e-02
<MEAN> 39
 2.170560e+00 4.604264e+00 -1.583912e+00 -4.677386e+00 -6.887720e+00 -3.730100e+00 -3.645249e+00 -1.402011e+00 -1.918089e+00 6.338535e-01 -2.330218e+00 -1.356357e+00 2.067857e+01 -2.681611e-01 4.606995e-01 4.074924e-01 1.312985e+00 5.121773e-01 1.540896e-01 6.643025e-01 -1.601735e-01 5.717051e-02 -2.349615e-01 3.072262e-02 1.240719e-02 -1.859543e-01 -2.004352e-01 -8.042555e-02 -1.244098e-01 -1.440733e-01 7.533389e-02 2.113735e-01 3.874011e-03 -6.683623e-02 2.933129e-02 2.500593e-02 7.910621e-02 1.232788e-03 9.665892e-03
<VARIANCE> 39
 2.319355e+01 2.785091e+01 3.986342e+01 4.170747e+01 5.309457e+01 4.988253e+01 4.534543e+01 4.274340e+01 3.644398e+01 3.786713e+01 3.818887e+01 2.900866e+01 1.240573e+00 1.724830e+00 1.722196e+00 2.560908e+00 2.556905e+00 4.160480e+00 2.903959e+00 2.992148e+00 2.978138e+00 2.951960e+00 2.607541e+00 2.610606e+00 1.985530e+00 5.126517e-02 1.650213e-01 2.065410e-01 2.183229e-01 3.285289e-01 4.114176e-01 4.323682e-01 4.002766e-01 4.444479e-01 3.733162e-01 3.876385e-01 3.524198e-01 3.105651e-01 6.100066e-03
<GCONST> 1.051217e+02
<MIXTURE> 3 1.993465e-02
<MEAN> 39
 -1.288469e-02 3.361801e+00 -1.758124e+00 5.150379e+00 4.913931e+00 5.756120e+00 4.434110e+00 4.391203e+00 5.732563e+00 6.675077e+00 4.348769e+00 2.292893e+00 1.979824e+01 8.318117e-02 1.923067e-01 2.762229e-01 3.594854e-01 4.259438e-01 4.605310e-01 4.215950e-01 2.855657e-01 1.673042e-01 8.426198e-02 2.352343e-02 -6.628311e-02 1.722564e-01 -4.128836e-03 7.079346e-02 1.171650e-01 -4.592984e-02 -1.717420e-01 -6.468470e-02 1.222226e-02 -1.055026e-01 -2.859996e-01 -4.296142e-01 -2.667320e-01 -8.113246e-03 -2.290151e-02
<VARIANCE> 39
 1.359763e+00 1.621491e+00 2.374298e+00 3.102396e+00 3.928798e+00 4.931686e+00 5.704910e+00 5.015319e+00 6.151456e+00 5.031928e+00 6.201859e+00 6.652210e+00 3.963277e-01 7.628889e-02 1.632320e-01 3.238915e-01 4.771003e-01 6.011498e-01 6.874014e-01 7.956216e-01 1.003091e+00 1.095305e+00 1.011023e+00 9.995295e-01 8.993567e-01 2.714779e-02 1.598291e-02 2.596756e-02 4.149223e-02 6.407692e-02 9.179929e-02 1.034760e-01 1.230757e-01 1.106552e-01 1.404199e-01 1.076028e-01 1.316279e-01 1.471002e-01 3.941147e-03
<GCONST> 3.969280e+01
<MIXTURE> 4 2.054780e-02
<MEAN> 39
 1.278045e+00 5.214043e+00 -9.415492e-02 4.968681e+00 2.917929e+00 4.528534e+00 4.655893e+00 3.246603e+00 1.883422e+00 2.216576e+00 1.710559e+00 1.261540e+00 1.990718e+01 6.815062e-02 1.194816e-01 2.526260e-01 3.336176e-01 3.810816e-01 4.863767e-01 5.420777e-01 6.070712e-01 5.927587e-01 5.477481e-01 4.709815e-01 3.085843e-01 2.732158e-01 -1.510796e-01 -2.075566e-01 -1.462549e-01 -5.538394e-02 4.463939e-02 1.882589e-02 -1.223442e-01 -4.713890e-02 1.863793e-01 1.432497e-01 5.748763e-02 7.267778e-02 -5.917271e-02
<VARIANCE> 39
 1.099520e+00 1.559021e+00 2.840073e+00 3.283887e+00 4.728579e+00 5.638678e+00 5.594969e+00 6.266238e+00 6.339225e+00 7.773888e+00 6.250603e+00 6.320061e+00 4.696647e-01 9.433236e-02 2.058499e-01 3.168003e-01 4.260526e-01 5.917909e-01 7.310814e-01 9.001099e-01 9.718487e-01 1.077294e+00 1.049140e+00 1.018648e+00 1.030513e+00 2.944078e-02 1.554247e-02 2.894371e-02 5.837251e-02 7.305405e-02 9.473287e-02 1.284825e-01 1.332175e-01 1.514224e-01 1.438508e-01 1.680477e-01 1.430187e-01 1.506160e-01 5.150562e-03
<GCONST> 4.353217e+01
<MIXTURE> 5 2.601306e-02
<MEAN> 39
 -3.852908e-01 3.064955e+00 -1.092408e+00 6.389755e+00 6.542480e+00 8.105647e+00 6.003369e+00 3.886563e+00 3.314639e+00 2.762824e+00 7.508963e-01 1.194046e-01 1.963235e+01 -1.703440e-02 -3.354086e-02 -4.372391e-02 -6.424965e-02 -4.569881e-02 1.153502e-01 2.615891e-01 3.902810e-01 4.891767e-01 4.235556e-01 3.296287e-01 2.197088e-01 7.672016e-02 2.929555e-02 8.137450e-02 2.329001e-03 -2.514384e-01 -4.376290e-01 -4.164912e-01 -2.313377e-01 -7.030851e-02 1.419440e-02 1.112676e-01 2.415445e-01 2.667823e-01 -1.959943e-02
<VARIANCE> 39
 1.432938e+00 1.962672e+00 2.883455e+00 3.431918e+00 4.665887e+00 5.871306e+00 7.114724e+00 7.756938e+00 7.997954e+00 6.458872e+00 6.868581e+00 7.167297e+00 4.772342e-01 8.289336e-02 1.750094e-01 2.836720e-01 4.505452e-01 6.520143e-01 7.244578e-01 8.512630e-01 9.220515e-01 1.096904e+00 1.032356e+00 9.688343e-01 9.509940e-01 2.791214e-02 1.654712e-02 2.950375e-02 4.873965e-02 6.589062e-02 1.030290e-01 1.214452e-01 1.521163e-01 1.646516e-01 1.894519e-01 1.427765e-01 1.377489e-01 1.480342e-01 5.256318e-03
<GCONST> 4.442208e+01
<MIXTURE> 6 1.955305e-02
<MEAN> 39
 2.006823e-01 4.235564e+00 3.822636e-01 6.851682e+00 5.072958e+00 5.654294e+00 3.055541e+00 5.041996e-01 1.387469e+00 3.931444e+00 3.599984e+00 2.674499e+00 1.987844e+01 9.476212e-02 2.129841e-01 3.390149e-01 4.752465e-01 5.338023e-01 5.153575e-01 4.070658e-01 2.839134e-01 1.993068e-01 1.117338e-01 5.904818e-02 1.071170e-02 2.269974e-01 -3.761981e-02 -8.233754e-02 -2.144366e-01 -3.467659e-01 -2.881471e-01 -1.338122e-01 1.108818e-01 3.649867e-01 2.712047e-01 -8.990692e-02 -2.012618e-01 -9.849396e-02 -5.514726e-02
<VARIANCE> 39
 1.440096e+00 1.764400e+00 2.718765e+00 3.159729e+00 4.682948e+00 5.855426e+00 6.486391e+00 5.799418e+00 6.626040e+00 6.241298e+00 7.108371e+00 8.999090e+00 4.902097e-01 8.068112e-02 1.766878e-01 3.247661e-01 4.480625e-01 5.882613e-01 7.272051e-01 9.406499e-01 1.048003e+00 1.160628e+00 1.073348e+00 1.012051e+00 1.017968e+00 3.132410e-02 1.613577e-02 2.878968e-02 4.854525e-02 6.090199e-02 9.883072e-02 1.251650e-01 1.304795e-01 1.216905e-01 1.448481e-01 1.388654e-01 1.595041e-01 2.013155e-01 4.815997e-03
<GCONST> 4.389728e+01
<MIXTURE> 7 4.057087e-02
<MEAN> 39
 4.164235e-01 4.209409e+00 -7.126619e-01 5.160966e+00 2.554552e+00 1.702736e+00 2.871474e-01 1.385861e+00 3.485706e+00 4.529129e+00 3.961808e+00 3.046906e+00 1.949189e+01 3.237119e-02 3.478900e-02 -9.079579e-03 3.721536e-02 7.943939e-02 8.557101e-02 6.298716e-02 2.490693e-02 -3.460000e-03 -2.348376e-03 -1.079046e-02 -1.972064e-02 1.594190e-02 -4.748038e-02 -7.739452e-02 -7.992969e-02 -1.159768e-01 5.922199e-02 4.112964e-01 4.917455e-01 1.962837e-01 -9.478170e-02 -2.198635e-01 -2.771568e-01 -1.804033e-01 -1.485164e-02
<VARIANCE> 39
 1.372780e+00 1.873729e+00 3.389414e+00 3.332133e+00 4.715189e+00 4.860591e+00 5.687201e+00 7.051003e+00 6.716362e+00 6.802977e+00 6.092793e+00 7.334727e+00 4.255923e-01 8.979274e-02 1.821064e-01 3.158191e-01 4.738783e-01 6.410940e-01 7.812759e-01 9.061316e-01 9.531584e-01 1.078499e+00 1.028475e+00 9.853051e-01 9.367746e-01 2.868203e-02 1.722702e-02 3.287444e-02 5.398141e-02 6.327362e-02 9.597607e-02 9.938435e-02 1.222653e-01 1.564454e-01 1.548313e-01 1.585983e-01 1.365111e-01 1.634840e-01 5.727279e-03
<GCONST> 4.382178e+01
<MIXTURE> 8 2.919565e-02
<MEAN> 39
 -1.078163e-01 3.596475e+00 -1.599384e+00 4.087239e+00 3.334615e+00 5.578097e+00 6.661703e+00 8.017531e+00 7.847806e+00 6.049682e+00 3.920107e+00 3.090328e+00 1.999981e+01 2.217861e-02 4.081516e-02 3.960823e-02 4.054883e-02 8.503205e-02 9.086100e-02 1.461751e-01 2.025848e-01 1.935927e-01 1.539437e-01 1.385433e-01 1.486277e-01 9.537899e-02 -4.890110e-02 -2.852225e-02 4.287858e-02 4.062672e-02 -1.805544e-02 -1.134111e-01 -4.235775e-01 -7.695411e-01 -7.162925e-01 -4.266980e-01 -2.627839e-01 -1.843117e-01 -1.181252e-01
<VARIANCE> 39
 1.619590e+00 1.980396e+00 2.845628e+00 4.117323e+00 4.918667e+00 5.765422e+00 6.506967e+00 5.479909e+00 6.777016e+00 7.193381e+00 7.208986e+00 7.582537e+00 5.848739e-01 9.638493e-02 1.969162e-01 3.595466e-01 4.969390e-01 6.198271e-01 7.497662e-01 9.159974e-01 1.011188e+00 1.045385e+00 1.053811e+00 9.601207e-01 9.186610e-01 3.461525e-02 1.709107e-02 3.059172e-02 5.255933e-02 8.018243e-02 1.090536e-01 1.086005e-01 1.334953e-01 1.207748e-01 1.426701e-01 1.705234e-01 1.606867e-01 1.638937e-01 6.176410e-03
<GCONST> 4.562338e+01
<MIXTURE> 9 2.051181e-02
<MEAN> 39
 -6.165639e-01 3.511214e+00 3.872954e-01 6.296518e+00 4.364292e+00 6.212152e+00 4.844960e+00 3.615810e+00 5.371017e+00 7.580358e+00 6.002789e+00 4.095535e+00 2.023970e+01 3.801380e-02 2.718437e-02 1.485149e-02 -1.054227e-02 8.102349e-02 2.105780e-01 2.610945e-01 5.068086e-01 6.529688e-01 6.136186e-01 6.472250e-01 4.806266e-01 1.944660e-01 8.640605e-03 -2.290729e-02 -2.288782e-01 -2.929995e-01 -1.934980e-01 -1.669429e-01 -1.076460e-01 -5.525679e-02 -2.960458e-01 -5.907198e-01 -5.100281e-01 -2.451197e-01 -1.230041e-01
<VARIANCE> 39
 1.726470e+00 2.365556e+00 3.296057e+00 4.236326e+00 5.999819e+00 6.599606e+00 7.325887e+00 7.160546e+00 7.514868e+00 6.286627e+00 7.315303e+00 9.085576e+00 6.230201e-01 1.180562e-01 2.285489e-01 3.876843e-01 5.227197e-01 7.136914e-01 8.386446e-01 9.176866e-01 1.031213e+00 1.057723e+00 9.787700e-01 9.517095e-01 9.697104e-01 3.296473e-02 2.002910e-02 3.682562e-02 5.937648e-02 7.741626e-02 1.176260e-01 1.217861e-01 1.396014e-01 1.583630e-01 1.792611e-01 1.529622e-01 1.694162e-01 1.961527e-01 6.241940e-03
<GCONST> 4.897374e+01
<MIXTURE> 10 2.146759e-02
<MEAN> 39
 8.361605e-01 4.864136e+00 -1.183233e-01 5.788922e+00 5.076643e+00 5.909444e+00 4.367913e+00 3.623812e+00 4.628734e+00 4.817901e+00 3.589771e+00 2.732071e+00 2.043785e+01 -1.285062e-01 -2.051591e-01 -3.053847e-01 -3.830644e-01 -3.787220e-01 -3.264784e-01 -2.671289e-01 -2.172099e-01 -1.029924e-01 -7.094775e-02 -3.276206e-02 3.674796e-03 -1.580295e-01 -8.009347e-02 -1.180711e-01 -9.334089e-02 -1.141270e-01 -1.848016e-01 -8.614302e-02 2.614649e-02 -2.298693e-02 -1.400722e-01 -1.617206e-01 -1.662555e-01 -1.034936e-01 -9.041423e-02
<VARIANCE> 39
 1.090645e+00 1.178113e+00 2.147876e+00 3.001394e+00 4.093649e+00 4.830209e+00 5.549330e+00 5.452623e+00 5.977614e+00 5.235559e+00 5.636536e+00 6.382278e+00 4.239490e-01 1.266035e-01 2.144178e-01 3.427733e-01 5.079136e-01 7.197182e-01 8.046570e-01 9.886147e-01 1.007875e+00 1.077007e+00 1.135614e+00 1.066723e+00 9.742944e-01 3.042550e-02 1.571273e-02 2.461458e-02 4.669110e-02 6.327132e-02 9.045001e-02 1.031664e-01 1.241270e-01 1.340168e-01 1.287794e-01 1.255113e-01 1.324340e-01 1.393670e-01 4.067518e-03
<GCONST> 4.112177e+01
<MIXTURE> 11 3.336019e-02
<MEAN> 39
 5.158826e-01 3.899673e+00 -1.983808e+00 3.519140e+00 2.956266e+00 5.338061e+00 5.529338e+00 4.321767e+00 2.833472e+00 1.317045e+00 -2.543453e-01 3.307379e-01 1.936971e+01 -3.789567e-03 -2.625680e-02 -2.763484e-02 -1.054672e-02 2.572354e-02 1.678250e-01 3.288032e-01 3.929580e-01 2.749851e-01 1.488705e-01 2.147157e-02 -3.190264e-02 4.636791e-02 -4.801574e-02 -1.299632e-02 1.271000e-01 1.636337e-01 5.660255e-02 -1.029964e-01 -2.673118e-01 -2.219316e-01 2.288929e-02 2.777357e-01 3.683388e-01 2.166086e-01 1.969849e-02
<VARIANCE> 39
 1.193663e+00 1.608569e+00 2.510482e+00 3.114164e+00 4.326411e+00 5.882088e+00 6.438848e+00 6.048889e+00 6.814972e+00 6.427324e+00 5.584064e+00 6.963360e+00 3.848414e-01 7.762179e-02 1.626765e-01 2.929546e-01 4.447702e-01 6.097360e-01 7.810688e-01 8.086601e-01 8.606791e-01 9.221727e-01 9.734241e-01 8.959997e-01 9.109829e-01 2.860271e-02 1.464435e-02 2.553969e-02 4.339377e-02 6.047905e-02 8.800279e-02 1.223310e-01 1.353404e-01 1.455841e-01 1.584566e-01 1.548918e-01 1.244484e-01 1.439344e-01 4.591438e-03
<GCONST> 4.098527e+01
<MIXTURE> 12 3.500104e-02
<MEAN> 39
 -2.600750e-01 2.961394e+00 -2.595197e+00 3.015018e+00 1.827094e+00 3.617486e+00 3.728705e+00 4.799361e+00 6.346141e+00 5.808060e+00 3.665193e+00 2.984000e+00 1.944355e+01 -2.630182e-02 -5.263081e-02 -8.315987e-02 -1.457640e-01 -1.714765e-01 -2.292799e-01 -2.243536e-01 -2.287511e-01 -2.446700e-01 -1.938880e-01 -1.236761e-01 -1.264873e-01 -1.127347e-01 2.189966e-02 9.647790e-02 2.072037e-01 2.359527e-01 2.257569e-01 1.951046e-01 2.633436e-02 -2.594412e-01 -4.881110e-01 -3.779534e-01 -2.071344e-01 -1.528920e-01 2.589412e-03
<VARIANCE> 39
 1.335912e+00 1.841475e+00 2.895591e+00 3.669828e+00 5.015227e+00 5.766438e+00 6.907810e+00 6.062172e+00 5.430130e+00 7.464344e+00 7.466936e+00 7.423046e+00 4.490293e-01 9.456720e-02 1.833514e-01 2.982457e-01 4.756980e-01 6.834899e-01 7.931510e-01 9.310665e-01 9.633180e-01 1.041093e+00 1.045613e+00 9.541286e-01 9.311839e-01 3.377914e-02 1.482533e-02 2.930566e-02 4.857685e-02 6.653307e-02 9.988809e-02 1.106879e-01 1.352721e-01 1.343147e-01 1.277898e-01 1.663654e-01 1.701155e-01 1.646584e-01 4.491444e-03
<GCONST> 4.398598e+01
<MIXTURE> 13 3.333170e-02
<MEAN> 39
 1.782101e-01 4.054986e+00 -3.201522e-01 5.452274e+00 3.053886e+00 3.190616e+00 1.892905e+00 2.320371e+00 3.394109e+00 2.145365e+00 -9.341058e-01 -9.437848e-01 1.925020e+01 -2.524293e-02 -5.888237e-02 -1.149911e-01 -1.672153e-01 -2.226237e-01 -1.937065e-01 -1.122895e-01 1.530325e-02 7.737518e-02 7.063662e-02 4.059955e-02 1.264752e-02 -7.421818e-02 -2.176261e-02 -6.152520e-02 -1.370250e-01 -1.660722e-01 7.778142e-03 2.261217e-01 2.967654e-01 1.072582e-01 -3.991153e-02 1.631842e-01 4.764910e-01 4.215895e-01 2.874874e-02
<VARIANCE> 39
 1.507861e+00 1.990313e+00 2.965582e+00 3.804826e+00 5.029094e+00 5.812214e+00 6.043378e+00 6.726847e+00 6.042378e+00 7.658674e+00 5.837123e+00 7.083364e+00 4.676162e-01 8.612929e-02 1.818577e-01 2.860087e-01 4.425936e-01 6.229545e-01 7.684696e-01 9.400436e-01 9.774536e-01 9.701028e-01 9.924524e-01 1.020655e+00 9.074103e-01 3.248591e-02 1.743191e-02 3.120850e-02 5.037263e-02 7.429549e-02 1.041230e-01 1.157069e-01 1.164118e-01 1.461696e-01 1.308181e-01 1.720512e-01 1.270782e-01 1.509988e-01 4.813087e-03
<GCONST> 4.380942e+01
<MIXTURE> 14 3.929441e-02
<MEAN> 39
 2.947776e-01 3.980437e+00 -8.638295e-01 5.482397e+00 4.186299e+00 4.392559e+00 1.984831e+00 -3.027489e-01 -8.636700e-01 -4.846556e-03 5.652646e-01 1.632120e+00 1.923253e+01 -2.392023e-02 -4.971480e-02 -5.494844e-02 -1.472987e-02 2.513275e-02 7.471056e-02 9.736695e-02 7.290865e-02 5.481785e-02 2.067538e-02 -5.227973e-02 -2.845207e-02 -2.175253e-02 -3.293186e-02 -4.799817e-02 -6.654734e-02 -1.852304e-01 -1.946450e-01 7.752700e-03 2.475066e-01 4.739726e-01 5.869576e-01 4.863924e-01 2.422349e-01 3.031854e-02 2.770625e-02
<VARIANCE> 39
 1.348397e+00 1.969132e+00 3.109619e+00 3.855174e+00 5.137013e+00 6.357425e+00 7.262719e+00 6.625824e+00 5.923903e+00 6.325292e+00 6.446316e+00 7.348208e+00 4.498465e-01 8.606742e-02 1.638834e-01 2.987812e-01 4.705835e-01 6.282871e-01 7.370374e-01 8.774835e-01 1.020577e+00 1.069434e+00 9.800138e-01 9.375152e-01 8.515740e-01 3.553728e-02 1.810325e-02 3.472352e-02 5.594224e-02 7.415525e-02 1.047010e-01 1.306964e-01 1.428313e-01 1.467903e-01 1.334630e-01 1.381596e-01 1.372938e-01 1.626186e-01 5.338912e-03
<GCONST> 4.452006e+01
<MIXTURE> 15 2.542321e-02
<MEAN> 39
 2.322656e-01 4.446967e+00 2.853422e-01 4.723502e+00 1.466370e+00 3.340421e+00 4.909798e+00 5.665888e+00 5.709420e+00 4.232540e+00 1.733793e+00 1.525298e+00 1.978296e+01 5.619175e-02 6.748015e-02 1.172602e-01 1.570648e-01 1.808015e-01 2.181286e-01 2.874158e-01 3.574188e-01 3.053295e-01 2.580734e-01 2.065878e-01 7.382799e-02 1.356146e-01 -3.295216e-02 -1.022449e-01 -1.797623e-01 -1.361241e-02 2.804255e-01 2.288383e-01 -1.433688e-01 -3.956924e-01 -3.822369e-01 -1.311507e-01 9.936175e-02 8.510816e-02 -3.802542e-02
<VARIANCE> 39
 1.402977e+00 1.693519e+00 2.674785e+00 3.905120e+00 4.795819e+00 5.586953e+00 6.148609e+00 5.414773e+00 5.467416e+00 6.328862e+00 5.587348e+00 6.518242e+00 4.633400e-01 9.222972e-02 1.851696e-01 2.984806e-01 4.466649e-01 6.119117e-01 7.322553e-01 8.850176e-01 9.716729e-01 1.041670e+00 9.977880e-01 1.002527e+00 1.016615e+00 3.172490e-02 1.641094e-02 2.800521e-02 4.674914e-02 7.677130e-02 9.090785e-02 1.088478e-01 1.295496e-01 1.213362e-01 1.220596e-01 1.396280e-01 1.252236e-01 1.364318e-01 5.046847e-03
<GCONST> 4.210615e+01
<MIXTURE> 16 3.175169e-02
<MEAN> 39
 1.252113e-01 3.445596e+00 -1.867154e+00 4.880509e+00 4.335625e+00 5.601974e+00 4.565302e+00 3.302266e+00 2.251999e+00 2.419506e+00 4.151470e+00 4.967125e+00 1.976621e+01 -5.186665e-03 -1.939402e-02 -4.822638e-02 -4.746848e-02 -2.949936e-02 1.330328e-01 3.057209e-01 3.649018e-01 3.943053e-01 3.516556e-01 2.511109e-01 1.741945e-01 8.152490e-02 -3.251813e-02 3.484144e-02 1.052967e-01 -2.479223e-02 -1.523682e-01 -1.368854e-01 -1.034136e-01 -4.678258e-02 1.290007e-01 1.493549e-01 -2.710980e-01 -4.428876e-01 -3.802602e-02
<VARIANCE> 39
 1.225928e+00 1.563548e+00 3.012759e+00 2.997386e+00 3.624037e+00 5.533226e+00 6.110386e+00 6.019067e+00 6.285484e+00 5.488067e+00 5.792568e+00 5.719475e+00 4.303374e-01 9.430441e-02 1.895757e-01 3.313833e-01 4.638700e-01 6.410943e-01 7.633865e-01 8.618875e-01 9.164845e-01 1.007505e+00 9.976213e-01 9.810382e-01 9.447719e-01 2.779821e-02 1.576764e-02 2.841422e-02 4.878986e-02 6.330436e-02 7.990906e-02 1.164736e-01 1.236471e-01 1.359055e-01 1.427398e-01 1.271120e-01 1.276274e-01 1.177501e-01 4.820947e-03
<GCONST> 4.103315e+01
<MIXTURE> 17 3.277596e-02
<MEAN> 39
 -6.622835e-01 3.122823e+00 -9.416387e-01 5.530545e+00 5.678277e+00 8.339747e+00 7.473550e+00 6.185448e+00 5.208732e+00 3.514950e+00 1.025009e+00 6.942139e-01 1.981797e+01 -9.288323e-02 -1.384881e-01 -1.825718e-01 -2.291800e-01 -2.833523e-01 -3.234163e-01 -4.062551e-01 -5.205373e-01 -4.939456e-01 -4.807699e-01 -4.018406e-01 -2.507428e-01 -1.811243e-01 -3.018204e-03 6.375839e-03 -6.369568e-02 -2.113077e-01 -3.846326e-01 -4.940136e-01 -5.186922e-01 -4.556800e-01 -3.099343e-01 -5.057914e-02 1.682783e-01 1.657687e-01 -1.134030e-01
<VARIANCE> 39
 1.845924e+00 2.506764e+00 3.687092e+00 4.615931e+00 4.775009e+00 6.036918e+00 6.973892e+00 7.020595e+00 7.353688e+00 7.139127e+00 6.496553e+00 7.186652e+00 7.054867e-01 1.010857e-01 1.839914e-01 3.398998e-01 5.077865e-01 6.713824e-01 8.438510e-01 9.417157e-01 9.946280e-01 1.004627e+00 1.050191e+00 1.022327e+00 9.657568e-01 3.237798e-02 2.001523e-02 3.671270e-02 6.626914e-02 9.662206e-02 1.099287e-01 1.270420e-01 1.442707e-01 1.540199e-01 1.555378e-01 1.593166e-01 1.377648e-01 1.509877e-01 7.806380e-03
<GCONST> 4.821866e+01
<MIXTURE> 18 2.784732e-02
<MEAN> 39
 4.109260e-01 4.625088e+00 -5.946856e-01 4.883565e+00 4.262660e+00 6.025537e+00 4.948979e+00 3.429264e+00 2.511339e+00 3.809060e+00 4.845459e+00 4.408730e+00 2.013945e+01 -1.457492e-02 1.759345e-02 2.896575e-02 5.633527e-02 3.609170e-02 -1.061494e-02 -7.917216e-02 -1.405527e-01 -1.148510e-01 -1.453068e-01 -1.607561e-01 -5.283406e-02 4.339821e-02 -1.665532e-01 -2.360758e-01 -1.860753e-01 -2.168630e-01 -3.083907e-01 -3.281731e-01 -3.229878e-01 -2.106030e-01 -5.517952e-02 -1.903871e-01 -4.576811e-01 -4.035618e-01 -2.068960e-01
<VARIANCE> 39
 1.686152e+00 2.096020e+00 3.560767e+00 4.303947e+00 5.589031e+00 6.572895e+00 6.706769e+00 7.330932e+00 7.850956e+00 6.623211e+00 6.116255e+00 7.384930e+00 6.150912e-01 9.282736e-02 1.844593e-01 3.176501e-01 4.743139e-01 6.339747e-01 7.236928e-01 8.367537e-01 9.473950e-01 1.039872e+00 1.070011e+00 1.018840e+00 9.492977e-01 3.281363e-02 1.747311e-02 3.322548e-02 6.683350e-02 8.820284e-02 1.169088e-01 1.341817e-01 1.271162e-01 1.549283e-01 1.697081e-01 1.542556e-01 1.361672e-01 1.527808e-01 3.928898e-03
<GCONST> 4.640647e+01
<MIXTURE> 19 3.347736e-02
<MEAN> 39
 4.640613e-01 4.297082e+00 -1.677863e+00 2.318471e+00 1.271117e+00 4.226408e+00 2.765182e+00 7.107597e-01 1.763205e+00 3.872188e+00 3.733707e+00 2.939998e+00 1.944670e+01 2.225623e-02 2.579682e-02 -7.496404e-03 -3.048118e-03 2.163193e-02 8.806488e-02 1.532378e-01 2.012812e-01 1.694420e-01 9.996960e-02 2.490133e-02 -3.664923e-03 2.557495e-02 -6.337712e-02 -7.489333e-02 8.786840e-02 3.153451e-01 2.714515e-01 3.920983e-02 1.093037e-01 3.064354e-01 1.591875e-01 -1.344212e-01 -2.590080e-01 -1.829645e-01 5.653575e-03
<VARIANCE> 39
 1.382144e+00 1.927737e+00 3.043258e+00 3.174654e+00 4.530409e+00 5.705001e+00 6.724051e+00 6.308309e+00 7.227989e+00 6.109533e+00 6.850065e+00 7.121891e+00 4.153096e-01 8.406193e-02 1.681826e-01 3.034484e-01 4.548446e-01 6.227489e-01 7.338983e-01 8.970535e-01 9.155175e-01 1.006560e+00 1.056230e+00 9.807919e-01 9.517785e-01 3.105244e-02 1.684434e-02 3.372407e-02 4.950065e-02 5.870006e-02 9.011929e-02 1.220842e-01 1.329023e-01 1.310019e-01 1.586891e-01 1.415658e-01 1.424082e-01 1.524826e-01 5.379590e-03
<GCONST> 4.329732e+01
<MIXTURE> 20 3.257294e-02
<MEAN> 39
 -5.617022e-01 2.703390e+00 -1.634022e+00 5.512313e+00 4.631272e+00 5.426991e+00 3.392290e+00 3.040679e+00 4.030914e+00 4.422824e+00 3.101655e+00 2.639324e+00 1.941590e+01 -7.668480e-02 -1.258651e-01 -1.512162e-01 -1.535896e-01 -1.946136e-01 -2.358712e-01 -2.821111e-01 -3.280811e-01 -3.521588e-01 -3.333632e-01 -2.803352e-01 -1.746411e-01 -1.463770e-01 -1.424648e-04 5.110429e-02 -1.806843e-02 -2.216985e-01 -2.890046e-01 -1.406269e-01 3.067418e-02 -3.939318e-02 -1.993611e-01 -2.118866e-01 -1.389401e-01 -8.332464e-02 -6.781694e-02
<VARIANCE> 39
 1.143771e+00 1.626906e+00 2.722569e+00 3.191157e+00 3.825179e+00 4.449763e+00 4.980201e+00 5.082837e+00 5.095130e+00 4.809249e+00 5.225314e+00 6.386629e+00 4.223486e-01 7.367568e-02 1.504790e-01 2.747845e-01 4.187632e-01 5.474554e-01 7.321726e-01 8.226751e-01 8.829354e-01 9.502256e-01 9.393987e-01 9.788420e-01 9.463919e-01 2.698661e-02 1.368346e-02 2.456393e-02 3.968505e-02 5.840290e-02 7.689505e-02 9.210354e-02 1.003946e-01 1.125877e-01 1.133281e-01 1.095310e-01 1.151977e-01 1.301141e-01 4.971417e-03
<GCONST> 3.727845e+01
<MIXTURE> 21 2.972364e-02
<MEAN> 39
 -5.743147e-01 3.420528e+00 -5.385219e-01 5.885694e+00 4.871554e+00 5.828247e+00 2.833604e+00 -3.932739e-01 -3.426190e-01 2.685286e+00 4.182444e+00 3.989345e+00 1.945967e+01 -1.090157e-01 -1.550382e-01 -2.140516e-01 -2.889626e-01 -3.674514e-01 -3.677423e-01 -3.816239e-01 -4.387727e-01 -4.350019e-01 -3.606540e-01 -3.029677e-01 -1.952560e-01 -2.117321e-01 7.103310e-03 -1.481595e-02 -1.185119e-01 -2.589989e-01 -3.046615e-01 -1.809836e-01 1.263858e-01 4.888998e-01 4.923798e-01 8.127437e-02 -2.816114e-01 -2.801569e-01 -4.376724e-02
<VARIANCE> 39
 1.593619e+00 2.410194e+00 3.608550e+00 4.295683e+00 5.705146e+00 6.681611e+00 7.760088e+00 6.794111e+00 7.179021e+00 7.348186e+00 6.474905e+00 7.943385e+00 5.908704e-01 9.973894e-02 1.951432e-01 3.320805e-01 4.919190e-01 6.567941e-01 7.392997e-01 9.195234e-01 1.023144e+00 1.118940e+00 1.100026e+00 1.100153e+00 1.032258e+00 3.107822e-02 2.046825e-02 3.720675e-02 5.923935e-02 8.167386e-02 1.174044e-01 1.330478e-01 1.603386e-01 1.367940e-01 1.497730e-01 1.589399e-01 1.426800e-01 1.654776e-01 6.939450e-03
<GCONST> 4.813380e+01
<MIXTURE> 22 2.753993e-02
<MEAN> 39
 -1.290275e+00 2.145216e+00 -2.194084e+00 4.300645e+00 4.728077e+00 8.507836e+00 8.141424e+00 6.460806e+00 5.619998e+00 6.055352e+00 5.232682e+00 4.142765e+00 1.978850e+01 -1.794503e-02 -2.200971e-02 -5.542621e-02 -1.055016e-01 -6.736609e-02 -3.347615e-02 -8.054239e-02 -8.210906e-02 -1.216642e-01 -1.363961e-01 -1.364986e-01 -1.232331e-01 -1.923396e-02 3.656425e-02 1.102702e-01 8.838982e-02 -6.461478e-02 -2.977580e-01 -5.467951e-01 -6.457177e-01 -5.219973e-01 -3.885936e-01 -4.165981e-01 -4.553783e-01 -3.184235e-01 -1.306111e-01
<VARIANCE> 39
 1.775409e+00 2.766083e+00 4.146139e+00 5.508060e+00 5.872555e+00 6.281992e+00 7.481419e+00 7.656028e+00 8.824351e+00 8.677304e+00 7.209580e+00 8.355975e+00 7.792465e-01 1.033230e-01 2.026145e-01 3.966046e-01 5.218850e-01 7.038527e-01 8.457612e-01 1.014096e+00 1.112172e+00 1.153310e+00 1.160800e+00 1.054154e+00 9.837611e-01 4.333951e-02 1.990703e-02 3.428175e-02 6.684767e-02 1.011180e-01 1.184546e-01 1.173934e-01 1.478851e-01 1.674768e-01 1.996789e-01 1.965030e-01 1.577266e-01 1.663667e-01 8.641618e-03
<GCONST> 5.169965e+01
<MIXTURE> 23 2.594703e-02
<MEAN> 39
 2.168873e-01 4.659315e+00 -2.783116e-02 4.294171e+00 1.769620e+00 4.556865e+00 6.036819e+00 5.570997e+00 3.034386e+00 1.502600e+00 1.325270e+00 2.205044e+00 1.964566e+01 -1.259087e-01 -2.202424e-01 -3.443607e-01 -4.769630e-01 -5.097817e-01 -4.307274e-01 -2.740559e-01 -1.037850e-01 5.775914e-02 9.433509e-02 6.527568e-02 1.191788e-02 -1.569880e-01 -1.089460e-01 -2.075219e-01 -2.176572e-01 -6.612076e-02 1.163239e-01 -4.875581e-02 -4.160722e-01 -4.611040e-01 -6.543434e-02 2.045546e-01 1.030557e-01 -5.810360e-02 -1.122878e-01
<VARIANCE> 39
 1.581041e+00 2.144663e+00 3.370996e+00 4.097145e+00 4.831380e+00 6.746770e+00 6.453578e+00 6.052231e+00 6.710354e+00 6.832377e+00 6.561809e+00 6.751060e+00 6.318423e-01 1.044216e-01 1.796543e-01 3.153125e-01 4.330561e-01 6.695358e-01 8.343683e-01 9.138191e-01 9.533831e-01 1.032391e+00 9.560114e-01 9.687622e-01 9.413249e-01 3.166639e-02 1.853651e-02 3.081663e-02 6.135249e-02 8.331033e-02 9.927814e-02 1.301214e-01 1.285595e-01 1.311836e-01 1.415745e-01 1.456712e-01 1.411212e-01 1.416757e-01 5.756128e-03
<GCONST> 4.545832e+01
<MIXTURE> 24 2.855831e-02
<MEAN> 39
 3.031605e-01 3.567135e+00 -1.725335e+00 4.299775e+00 3.706274e+00 5.098351e+00 3.642293e+00 2.368115e+00 2.634271e+00 2.467875e+00 8.769675e-01 7.259468e-01 1.929306e+01 6.910774e-02 2.068788e-01 3.425814e-01 4.648885e-01 3.481865e-01 1.584697e-02 -4.131910e-01 -7.190603e-01 -7.678606e-01 -6.929938e-01 -4.781255e-01 -2.470683e-01 -2.547161e-02 -2.623801e-02 2.590157e-02 8.801395e-02 3.961334e-02 -6.131571e-02 -4.894366e-02 4.831655e-02 1.118576e-01 9.253822e-02 1.212197e-01 1.955323e-01 1.683416e-01 3.255247e-02
<VARIANCE> 39
 1.203709e+00 1.642373e+00 2.580376e+00 3.206954e+00 4.327484e+00 5.245134e+00 6.389304e+00 6.031707e+00 5.802491e+00 5.644299e+00 5.522010e+00 5.836909e+00 4.361549e-01 8.236668e-02 1.598283e-01 2.703812e-01 4.047263e-01 6.145812e-01 7.208705e-01 7.876441e-01 7.796241e-01 8.554846e-01 9.178603e-01 9.422565e-01 9.093896e-01 3.295270e-02 1.561915e-02 2.813562e-02 4.311004e-02 5.925690e-02 8.613637e-02 1.114756e-01 1.223179e-01 1.283425e-01 1.337788e-01 1.378074e-01 1.195660e-01 1.327926e-01 4.863780e-03
<GCONST> 3.976261e+01
<MIXTURE> 25 2.143387e-02
<MEAN> 39
 -9.602618e-01 3.035880e+00 -1.839355e+00 3.408900e+00 2.280446e+00 4.772024e+00 4.806391e+00 5.441825e+00 6.151227e+00 6.292665e+00 5.103703e+00 4.130722e+00 1.945156e+01 -1.638659e-01 -2.945451e-01 -4.174455e-01 -5.374548e-01 -6.484724e-01 -7.078063e-01 -7.278629e-01 -7.503633e-01 -6.960276e-01 -6.113036e-01 -5.806504e-01 -4.482682e-01 -3.492782e-01 -2.938884e-02 -2.315811e-02 8.599747e-03 1.208178e-02 6.223527e-03 -6.108537e-02 -2.268559e-01 -4.005946e-01 -5.035389e-01 -4.452070e-01 -3.672839e-01 -2.511073e-01 -1.244311e-01
<VARIANCE> 39
 1.711241e+00 2.843127e+00 3.889518e+00 5.005284e+00 5.778654e+00 7.176021e+00 7.070689e+00 7.243549e+00 6.614692e+00 7.063458e+00 7.064860e+00 8.691559e+00 7.751856e-01 9.421889e-02 1.848575e-01 3.326015e-01 4.544300e-01 5.920560e-01 7.370909e-01 9.157048e-01 9.547202e-01 1.079962e+00 1.127165e+00 1.144001e+00 1.018069e+00 2.652630e-02 1.543066e-02 3.082775e-02 5.186516e-02 8.269998e-02 9.678821e-02 1.386362e-01 1.274291e-01 1.498546e-01 1.478577e-01 1.443876e-01 1.539507e-01 1.760270e-01 5.454547e-03
<GCONST> 4.737408e+01
<MIXTURE> 26 2.721681e-02
<MEAN> 39
 9.676760e-01 5.044998e+00 -4.534276e-01 4.934052e+00 3.728271e+00 4.635552e+00 2.662916e+00 2.527354e+00 3.522703e+00 2.298904e+00 3.929743e-01 8.474952e-01 1.968518e+01 3.584373e-03 4.188667e-02 6.454021e-02 1.062359e-01 1.160484e-01 3.367120e-02 4.218032e-02 6.528557e-02 9.144356e-02 1.159006e-01 1.912006e-01 1.291861e-01 7.639182e-02 -1.605694e-01 -2.364065e-01 -1.705963e-01 -1.727943e-01 -2.038564e-01 -1.119638e-01 4.843755e-02 -5.232362e-02 -1.764401e-01 5.817615e-02 2.135214e-01 1.342777e-01 -1.014146e-01
<VARIANCE> 39
 1.299964e+00 1.751461e+00 2.948715e+00 3.527936e+00 4.179295e+00 5.029559e+00 5.188857e+00 5.350204e+00 5.624184e+00 5.628431e+00 5.028710e+00 6.921264e+00 5.692500e-01 8.548547e-02 1.782892e-01 3.103385e-01 4.533180e-01 5.972151e-01 7.422078e-01 8.241750e-01 8.978413e-01 9.730710e-01 9.758025e-01 9.369825e-01 9.099865e-01 2.731890e-02 1.393287e-02 2.709115e-02 5.164469e-02 6.893568e-02 8.291230e-02 1.042447e-01 1.174351e-01 1.241676e-01 1.277112e-01 1.304222e-01 1.070254e-01 1.492762e-01 4.326031e-03
<GCONST> 4.040758e+01
<MIXTURE> 27 3.123656e-02
<MEAN> 39
 1.384410e-01 4.164807e+00 2.265181e-02 6.567300e+00 5.682476e+00 7.189359e+00 5.659180e+00 3.088547e+00 6.897803e-01 -3.252266e-01 -2.121151e-01 1.177629e+00 1.976016e+01 -3.293588e-02 -1.556895e-02 3.908402e-03 -4.986718e-02 -1.268930e-01 -1.356669e-01 -1.819716e-01 -1.606260e-01 -1.281251e-01 -1.656953e-01 -1.691825e-01 -8.498912e-02 -4.500715e-02 -5.374776e-02 -1.067673e-01 -2.061390e-01 -3.529942e-01 -4.110318e-01 -4.000858e-01 -3.220940e-01 -6.028371e-02 3.252906e-01 5.031810e-01 3.443733e-01 9.476596e-02 -8.370303e-02
<VARIANCE> 39
 1.473659e+00 1.890977e+00 3.110364e+00 3.777604e+00 5.476439e+00 5.770896e+00 6.386826e+00 6.470842e+00 6.609923e+00 6.056849e+00 7.143425e+00 7.771205e+00 6.053135e-01 1.019755e-01 1.939851e-01 3.490671e-01 5.145012e-01 7.271456e-01 8.337879e-01 9.303770e-01 9.960248e-01 1.037453e+00 1.092156e+00 1.075810e+00 1.066554e+00 3.945406e-02 1.776104e-02 3.053997e-02 5.570141e-02 7.699549e-02 1.090606e-01 1.306190e-01 1.396784e-01 1.496788e-01 1.503824e-01 1.356431e-01 1.587484e-01 1.639621e-01 5.738846e-03
<GCONST> 4.656673e+01
<MIXTURE> 28 1.934919e-02
<MEAN> 39
 -3.155412e-02 4.152921e+00 -1.251998e-01 5.457620e+00 2.842685e+00 2.535457e+00 8.829688e-01 1.607311e+00 3.378064e+00 3.335408e+00 1.761752e+00 1.788061e+00 1.935952e+01 -1.794364e-01 -2.903973e-01 -3.779936e-01 -4.778299e-01 -5.674832e-01 -6.555399e-01 -6.836589e-01 -7.773468e-01 -7.966632e-01 -7.180629e-01 -6.364753e-01 -4.525552e-01 -3.815412e-01 -4.913997e-02 -1.052565e-01 -1.894053e-01 -2.318182e-01 -2.925205e-02 2.804491e-01 3.887922e-01 1.739577e-01 -7.402018e-02 -1.819441e-02 8.864094e-02 3.505722e-02 -4.738401e-02
<VARIANCE> 39
 1.712192e+00 2.364138e+00 3.310714e+00 3.854642e+00 4.927078e+00 5.247691e+00 6.426394e+00 7.112919e+00 7.359414e+00 7.763450e+00 5.423661e+00 7.132952e+00 6.404785e-01 1.060268e-01 1.939447e-01 3.363032e-01 4.646964e-01 6.348014e-01 7.448400e-01 8.616287e-01 9.984927e-01 1.108769e+00 1.095175e+00 1.053090e+00 9.367043e-01 2.854670e-02 1.969456e-02 3.526830e-02 5.578047e-02 7.345833e-02 9.853493e-02 1.039051e-01 1.206102e-01 1.553379e-01 1.718432e-01 1.715066e-01 1.159310e-01 1.490642e-01 6.471833e-03
<GCONST> 4.598526e+01
<MIXTURE> 29 2.705570e-02
<MEAN> 39
 5.774910e-01 4.510168e+00 -9.183401e-01 3.078443e+00 1.883878e-01 2.032943e+00 2.392544e+00 1.880001e+00 1.494361e+00 1.940413e+00 2.185079e+00 2.289914e+00 1.927977e+01 -1.041287e-01 -1.750545e-01 -2.161296e-01 -2.017400e-01 -2.137759e-01 -2.692530e-01 -3.604750e-01 -4.092287e-01 -4.234229e-01 -3.039109e-01 -1.653775e-01 -1.337820e-01 -2.160008e-01 -9.886812e-02 -1.457401e-01 -6.720121e-02 1.427754e-01 3.497672e-01 3.127016e-01 1.245296e-01 7.620226e-02 1.594020e-01 1.331298e-01 -3.811301e-02 -8.232621e-02 -1.542395e-02
<VARIANCE> 39
 1.462087e+00 1.793293e+00 3.090090e+00 3.136933e+00 3.957376e+00 4.834466e+00 5.640952e+00 6.202500e+00 6.809565e+00 7.211636e+00 6.405183e+00 7.739486e+00 5.336166e-01 9.810566e-02 1.750178e-01 3.358702e-01 5.087500e-01 6.524453e-01 7.605826e-01 8.830157e-01 1.004125e+00 1.150588e+00 1.074432e+00 9.766880e-01 8.550101e-01 2.940729e-02 1.634563e-02 3.119861e-02 5.009792e-02 5.993838e-02 8.354644e-02 9.942267e-02 1.224984e-01 1.342790e-01 1.531396e-01 1.691838e-01 1.366724e-01 1.603203e-01 5.590081e-03
<GCONST> 4.349293e+01
<MIXTURE> 30 3.128338e-02
<MEAN> 39
 -4.070460e-01 3.261724e+00 -1.270580e+00 3.853599e+00 1.784911e+00 4.910134e+00 6.301589e+00 4.324008e+00 1.895177e+00 2.916585e+00 4.443239e+00 4.343946e+00 1.953997e+01 -2.940222e-03 1.795633e-02 2.185205e-02 5.189488e-02 3.459379e-03 -1.239530e-01 -3.738526e-01 -5.198580e-01 -5.319005e-01 -4.059334e-01 -3.008273e-01 -1.826383e-01 -8.648377e-02 -4.222328e-03 7.650105e-03 -8.075413e-03 6.896920e-02 1.688207e-01 -6.243908e-02 -4.100738e-01 -2.330347e-01 1.509936e-01 5.262410e-02 -3.093014e-01 -3.247790e-01 -4.835849e-02
<VARIANCE> 39
 1.280267e+00 1.925594e+00 3.301610e+00 3.856548e+00 4.242419e+00 5.948320e+00 6.083107e+00 6.262912e+00 6.366578e+00 5.836913e+00 5.867331e+00 6.837038e+00 4.735803e-01 8.476669e-02 1.697538e-01 3.000866e-01 4.066112e-01 6.192495e-01 7.348670e-01 8.708604e-01 9.523475e-01 9.245467e-01 9.658790e-01 9.305010e-01 9.297782e-01 2.850808e-02 1.557261e-02 2.897184e-02 5.131740e-02 7.386455e-02 8.447093e-02 1.166734e-01 1.174824e-01 1.296922e-01 1.383493e-01 1.327210e-01 1.290832e-01 1.405652e-01 4.941504e-03
<GCONST> 4.201722e+01
<MIXTURE> 31 2.691709e-02
<MEAN> 39
 -3.507485e-03 4.227633e+00 -3.394990e-01 4.998851e+00 2.873377e+00 3.757881e+00 4.028884e+00 6.259583e+00 7.112926e+00 4.187640e+00 2.308263e-01 -2.819023e-01 1.957711e+01 -5.072379e-02 -7.114160e-02 -7.210303e-02 -4.402235e-02 -4.802253e-02 -1.119409e-01 -2.338493e-01 -3.555999e-01 -4.313244e-01 -4.180512e-01 -2.926228e-01 -2.109072e-01 -1.072108e-01 -6.783618e-02 -1.326962e-01 -1.649717e-01 -1.434606e-01 -1.258335e-02 9.844571e-02 -9.240907e-02 -5.453033e-01 -6.491567e-01 -1.961686e-01 2.657291e-01 3.061037e-01 -8.605403e-02
<VARIANCE> 39
 1.829200e+00 2.564719e+00 3.299665e+00 4.602640e+00 4.913831e+00 6.305711e+00 6.254135e+00 5.888097e+00 6.163349e+00 7.397277e+00 6.346560e+00 6.991208e+00 6.185066e-01 1.041112e-01 1.898888e-01 3.550195e-01 4.986805e-01 6.562494e-01 8.046845e-01 9.059597e-01 9.828789e-01 1.117849e+00 1.064083e+00 1.033056e+00 1.037978e+00 3.643469e-02 2.135816e-02 3.795180e-02 6.005158e-02 9.149371e-02 1.031365e-01 1.261563e-01 1.360069e-01 1.325017e-01 1.295067e-01 1.528941e-01 1.401770e-01 1.477540e-01 7.022848e-03
<GCONST> 4.719885e+01
<MIXTURE> 32 2.396813e-02
<MEAN> 39
 -2.321522e-01 4.180917e+00 9.101108e-01 7.250876e+00 5.025530e+00 4.599046e+00 1.799896e+00 1.225497e+00 2.986149e+00 4.063761e+00 2.718735e+00 2.009637e+00 1.968058e+01 -9.445886e-03 -2.933740e-03 -3.273706e-02 -7.538168e-02 -1.040158e-01 -1.230798e-01 -6.756957e-02 -2.210278e-02 1.345132e-02 4.319977e-02 8.418553e-02 1.025616e-01 2.484897e-02 -6.513282e-02 -1.721511e-01 -3.835607e-01 -5.453947e-01 -4.038871e-01 -5.670983e-02 2.080601e-01 1.772928e-01 -6.154235e-02 -1.576718e-01 -7.159004e-02 1.890213e-02 -1.197580e-01
<VARIANCE> 39
 1.595379e+00 2.348694e+00 3.252932e+00 3.890540e+00 5.546484e+00 6.728817e+00 6.615259e+00 7.260358e+00 7.652546e+00 6.782980e+00 6.040673e+00 7.706642e+00 6.053405e-01 9.058728e-02 1.822783e-01 2.952419e-01 4.776267e-01 6.140479e-01 7.908737e-01 8.739040e-01 9.254388e-01 1.027400e+00 1.074243e+00 1.021693e+00 1.002850e+00 2.838414e-02 1.784544e-02 3.000603e-02 4.675092e-02 6.233174e-02 9.696688e-02 1.293652e-01 1.391907e-01 1.565659e-01 1.570345e-01 1.415201e-01 1.349751e-01 1.570676e-01 5.418055e-03
<GCONST> 4.542603e+01
<MIXTURE> 33 2.746789e-02
<MEAN> 39
 6.531059e-02 4.008201e+00 -1.578366e+00 3.242149e+00 3.179785e+00 6.687688e+00 4.902332e+00 2.212606e+00 4.372215e+00 7.058248e+00 3.702885e+00 1.088205e+00 1.956208e+01 2.804270e-02 4.897118e-02 1.644186e-02 1.082792e-02 -1.940009e-03 2.193976e-03 3.135336e-03 1.570870e-02 -1.568380e-02 -1.033903e-01 -1.170468e-01 -8.429936e-02 1.528181e-02 -7.323331e-02 -8.010702e-02 3.287702e-02 1.328260e-01 -2.811123e-02 -3.197105e-01 -2.133628e-01 6.635702e-02 -2.443961e-01 -6.241516e-01 -2.411329e-01 1.224304e-01 -7.276436e-02
<VARIANCE> 39
 1.369097e+00 1.806780e+00 2.901078e+00 3.153248e+00 4.045621e+00 5.527297e+00 6.310853e+00 5.790505e+00 6.408096e+00 4.772379e+00 5.954072e+00 6.232958e+00 5.050665e-01 9.272981e-02 1.880694e-01 3.349127e-01 4.850067e-01 6.594114e-01 7.823177e-01 9.199892e-01 9.599921e-01 1.025849e+00 1.026391e+00 9.691574e-01 9.267662e-01 3.860386e-02 1.639198e-02 2.954462e-02 5.040854e-02 6.075567e-02 9.143154e-02 1.092108e-01 1.309079e-01 1.365539e-01 1.459968e-01 1.072363e-01 1.404486e-01 1.357622e-01 5.403842e-03
<GCONST> 4.250112e+01
<MIXTURE> 34 2.194474e-02
<MEAN> 39
 3.449636e-01 4.169552e+00 -2.070104e+00 2.922756e+00 3.192535e+00 5.831492e+00 4.012129e+00 1.707551e+00 1.352288e+00 1.640933e+00 8.013874e-01 9.563290e-01 1.920257e+01 -5.239247e-02 -7.437777e-02 -8.795217e-02 -1.123697e-01 -2.022151e-01 -3.101295e-01 -5.348685e-01 -6.498135e-01 -7.139193e-01 -7.174482e-01 -6.073188e-01 -4.171860e-01 -2.317275e-01 -1.243586e-01 -1.261803e-01 6.825598e-02 1.138622e-01 -1.149724e-01 -2.784973e-01 -1.485065e-01 9.796797e-02 1.723517e-01 1.947164e-01 1.888029e-01 1.449924e-01 -4.826874e-02
<VARIANCE> 39
 1.488772e+00 2.003170e+00 3.344247e+00 3.801138e+00 4.613285e+00 6.077747e+00 6.934144e+00 5.836348e+00 6.441684e+00 6.297295e+00 5.226363e+00 7.345485e+00 5.982657e-01 8.148343e-02 1.542029e-01 2.818672e-01 4.111678e-01 6.062944e-01 7.499391e-01 8.559473e-01 8.344651e-01 8.884277e-01 8.750022e-01 9.268330e-01 9.671022e-01 2.518596e-02 1.413123e-02 2.951645e-02 5.509727e-02 6.798531e-02 8.352697e-02 1.059164e-01 1.324545e-01 1.384956e-01 1.398632e-01 1.441100e-01 1.256245e-01 1.654548e-01 4.831278e-03
<GCONST> 4.227842e+01
<MIXTURE> 35 2.530855e-02
<MEAN> 39
 -4.562779e-01 3.995121e+00 -2.458582e-01 4.799980e+00 2.693480e+00 3.586900e+00 2.641294e+00 4.042829e+00 6.662414e+00 8.084655e+00 6.337142e+00 4.078164e+00 1.988712e+01 -3.735707e-02 -4.455238e-02 -5.673809e-02 -6.488282e-02 -9.925238e-02 -1.206258e-01 -2.035512e-01 -2.911964e-01 -3.153578e-01 -2.889644e-01 -2.112960e-01 -6.687717e-02 -4.196525e-02 -5.099406e-02 -1.161078e-01 -1.842219e-01 -1.672485e-01 -4.861062e-02 9.414501e-02 8.454286e-02 -2.300972e-01 -5.927632e-01 -7.568100e-01 -6.144545e-01 -2.908542e-01 -1.482639e-01
<VARIANCE> 39
 1.993183e+00 2.528765e+00 3.417188e+00 5.042123e+00 6.598358e+00 6.867980e+00 6.937464e+00 7.681674e+00 8.058546e+00 6.755345e+00 7.145384e+00 8.272449e+00 6.772013e-01 1.013850e-01 1.896026e-01 3.488426e-01 5.024191e-01 6.338706e-01 7.294349e-01 8.487155e-01 1.010792e+00 1.082537e+00 1.106906e+00 9.693350e-01 9.023988e-01 3.227693e-02 2.076491e-02 3.542005e-02 5.781131e-02 9.067334e-02 1.295728e-01 1.273458e-01 1.441953e-01 1.586041e-01 1.727040e-01 1.490067e-01 1.502065e-01 1.719217e-01 5.911463e-03
<GCONST> 4.881771e+01
<MIXTURE> 36 1.600160e-02
<MEAN> 39
 2.669155e-01 4.511962e+00 -2.830837e-01 5.221777e+00 4.127966e+00 5.476954e+00 4.160666e+00 2.979182e+00 3.110450e+00 4.184169e+00 3.602423e+00 3.042369e+00 2.000930e+01 -2.284849e-01 -3.298172e-01 -3.248589e-01 -3.557198e-01 -5.806851e-01 -7.471678e-01 -8.514259e-01 -1.039998e+00 -9.866489e-01 -8.888669e-01 -7.696182e-01 -5.523248e-01 -3.645931e-01 -1.277927e-01 -1.959929e-01 -1.848887e-01 -2.120844e-01 -2.277080e-01 -1.668393e-01 -1.091860e-01 -7.249521e-02 -1.196429e-01 -2.253110e-01 -2.442540e-01 -1.816147e-01 -1.773780e-01
<VARIANCE> 39
 1.800907e+00 2.389923e+00 4.187932e+00 5.189770e+00 5.486126e+00 6.824417e+00 7.587701e+00 7.047660e+00 6.835865e+00 7.748320e+00 6.896785e+00 8.310463e+00 7.491624e-01 9.542385e-02 2.171490e-01 3.324196e-01 5.048792e-01 7.266638e-01 7.707141e-01 8.496750e-01 1.007738e+00 1.187824e+00 1.264299e+00 1.180631e+00 1.002061e+00 2.444407e-02 2.121606e-02 3.615990e-02 6.417212e-02 8.954808e-02 1.039675e-01 1.347608e-01 1.377828e-01 1.445052e-01 1.593624e-01 1.618564e-01 1.471255e-01 1.626923e-01 4.145283e-03
<GCONST> 4.862193e+01
~h "eight"
<BEGINHMM>
<NUMSTATES> 18
<STATE> 2
<NUMMIXES> 20
<MIXTURE> 1 3.754082e-02
<MEAN> 39
 -2.665411e+00 2.175751e+00 -1.694556e+00 3.039542e+00 3.263831e+00 5.259270e+00 5.086815e+00 3.133956e+00 6.236995e+00 6.489926e+00 3.669389e+00 3.591896e+00 1.904075e+01 9.905487e-02 -1.149170e+00 -7.857743e-03 -2.914944e-01 9.434117e-01 8.628963e-01 -3.772941e-01 4.987342e-01 3.973302e-01 -2.521961e-01 6.629093e-01 2.862977e-01 1.529768e-01 -2.498376e-01 -6.125804e-01 -9.928361e-02 -1.262971e-01 3.866977e-01 -7.585281e-02 -3.804055e-01 9.555695e-02 -3.593846e-01 -6.404219e-01 -2.432580e-01 -1.266436e-01 -5.031592e-02
<VARIANCE> 39
 3.938770e+00 9.489263e+00 1.183782e+01 8.545060e+00 1.337722e+01 1.405828e+01 1.401386e+01 1.800993e+01 1.173168e+01 1.472106e+01 1.220737e+01 8.637918e+00 1.192892e+00 3.271219e-01 1.166403e+00 8.541476e-01 1.206823e+00 1.303541e+00 1.257790e+00 1.613541e+00 1.703109e+00 2.030421e+00 1.701728e+00 1.283127e+00 1.078627e+00 7.733956e-02 1.065959e-01 2.028002e-01 1.823114e-01 2.106936e-01 4.523192e-01 1.905400e-01 2.906964e-01 3.907534e-01 3.034037e-01 2.096812e-01 3.298096e-01 2.137051e-01 8.604416e-03
<GCONST> 7.836349e+01
<MIXTURE> 2 2.770692e-02
<MEAN> 39
 2.230189e+00 1.733160e+00 -1.282122e+01 -7.976638e+00 3.181042e+00 1.010828e-01 5.176984e+00 -4.590677e+00 -5.691994e-01 1.062039e-01 6.776426e+00 -4.176672e+00 2.129940e+01 -1.192764e+00 -7.237561e-01 2.770545e-01 9.888217e-01 2.408027e+00 1.969940e+00 -3.255944e-01 7.320065e-01 4.707745e-01 -3.036577e-02 3.024312e-01 -3.784565e-02 -2.419384e-01 -3.361328e-01 -1.217170e-01 7.392054e-01 1.834250e-01 -2.088786e-01 -1.300542e-01 -4.856729e-01 1.212454e-01 -1.162205e-01 2.476352e-01 -3.042265e-01 1.897715e-01 -3.535874e-02
<VARIANCE> 39
 6.734855e+00 2.692949e+01 1.638715e+01 4.362454e+01 3.014741e+01 1.204695e+02 3.164146e+01 5.763963e+01 2.635345e+01 5.987332e+01 3.871756e+01 8.245464e+01 7.972714e-01 6.515456e-01 1.593399e+00 2.703820e+00 2.128202e+00 2.708116e+00 5.023358e+00 3.203658e+00 2.469821e+00 2.397228e+00 2.708510e+00 2.344171e+00 2.998352e+00 7.689759e-02 1.070409e-01 2.180531e-01 2.437519e-01 4.811803e-01 5.153797e-01 7.738193e-01 4.356953e-01 6.810588e-01 4.535522e-01 8.384915e-01 3.782494e-01 9.971976e-01 1.035911e-02
<GCONST> 1.075369e+02
<MIXTURE> 3 3.659783e-02
<MEAN> 39
 -5.141692e+00 -2.513184e+00 -5.388195e-01 2.391657e+00 1.897424e+00 -2.200650e+00 3.790474e+00 5.736268e+00 2.044573e-01 -3.957373e+00 -2.603870e+00 2.908095e+00 1.974276e+01 -1.866434e-01 -1.623008e+00 -2.235813e+00 4.525260e-01 3.422957e+00 9.189805e-01 -6.965764e-01 3.714658e-02 8.756632e-01 -7.131659e-01 -4.055542e-01 -4.041442e-01 -1.659195e-01 -9.067670e-02 2.805205e-01 1.339467e-01 -6.247219e-01 -4.030140e-01 2.698987e-01 -2.204105e-01 -6.287814e-01 -9.271570e-02 7.570200e-01 2.612622e-01 -6.444928e-01 2.933728e-02
<VARIANCE> 39
 8.924829e+00 1.535562e+01 1.128714e+01 3.060633e+01 4.619720e+01 4.472786e+01 2.779846e+01 3.380287e+01 2.298348e+01 3.509579e+01 2.515806e+01 2.040504e+01 9.087264e-01 3.954795e-01 1.242610e+00 8.123313e-01 1.999037e+00 2.556255e+00 2.522955e+00 2.315645e+00 3.920410e+00 2.425179e+00 2.423145e+00 1.610610e+00 2.516744e+00 2.857858e-02 1.167952e-01 1.755100e-01 2.389396e-01 4.071527e-01 4.946850e-01 6.282360e-01 5.987278e-01 7.933677e-01 4.995787e-01 7.431377e-01 4.588880e-01 4.195693e-01 4.707955e-03
<GCONST> 9.709181e+01
<MIXTURE> 4 5.989821e-02
<MEAN> 39
 -1.809255e+00 2.019593e+00 -3.487436e+00 1.642726e+00 1.074477e+00 3.562909e+00 2.153917e+00 2.174819e+00 2.353201e+00 3.062996e+00 2.574289e+00 2.380573e+00 1.742109e+01 -4.538396e-02 -4.853824e-01 1.518590e-01 2.138385e-01 7.273343e-01 2.358720e-01 -1.383483e-01 2.707356e-01 3.572617e-01 -4.178466e-02 3.299807e-02 3.447200e-02 1.404067e-01 -2.403201e-01 -4.837729e-01 9.084579e-02 5.669075e-03 5.340492e-01 2.495357e-02 -1.266400e-01 1.978831e-01 9.149621e-02 -1.597129e-01 -1.944527e-02 -2.872845e-02 6.027133e-02
<VARIANCE> 39
 1.474275e+00 3.082083e+00 6.481602e+00 5.332139e+00 4.990205e+00 9.526828e+00 7.749622e+00 1.023739e+01 5.928064e+00 8.276503e+00 7.065025e+00 1.196178e+01 7.916110e-01 1.351998e-01 5.157114e-01 3.525855e-01 6.884150e-01 1.164433e+00 1.102088e+00 9.718508e-01 9.878240e-01 9.979451e-01 9.387094e-01 8.842745e-01 9.756761e-01 5.891409e-02 4.564019e-02 1.087084e-01 1.328141e-01 2.656391e-01 1.608842e-01 2.078117e-01 2.050518e-01 4.296861e-01 1.876034e-01 1.654014e-01 2.196481e-01 2.585366e-01 1.028712e-02
<GCONST> 6.075432e+01
<MIXTURE> 5 7.923726e-02
<MEAN> 39
 -2.070263e+00 -2.862052e+00 -5.146554e+00 -1.026239e+00 9.219205e+00 2.108400e+00 -2.937517e+00 8.057892e-01 7.418780e-02 -3.027932e+00 -4.129959e+00 -1.518931e+00 1.982792e+01 -1.516793e+00 -7.489640e-01 8.844790e-01 1.149766e+00 1.261503e+00 1.966468e-01 6.053343e-01 4.893518e-01 5.541646e-01 4.883996e-01 8.411897e-01 1.251150e-01 -2.364917e-01 1.277704e-01 -1.842196e-01 -3.952504e-01 -3.756115e-01 -2.757944e-01 -5.848579e-02 -2.981344e-02 -1.430733e-02 -7.110234e-02 2.383504e-02 -1.119690e-01 -9.848525e-02 7.037072e-02
<VARIANCE> 39
 8.029636e+00 2.459675e+01 1.160582e+01 2.517580e+01 1.835138e+01 5.043019e+01 3.997158e+01 3.229327e+01 3.388212e+01 4.713462e+01 3.025281e+01 2.945846e+01 5.172324e-01 4.448096e-01 7.109177e-01 1.395627e+00 1.301367e+00 2.491881e+00 1.826128e+00 1.718437e+00 2.114541e+00 2.261131e+00 1.923259e+00 2.108149e+00 1.453111e+00 2.974313e-02 5.624779e-02 1.127808e-01 1.187753e-01 1.903428e-01 2.924448e-01 3.615400e-01 3.459877e-01 3.460008e-01 2.618298e-01 2.560395e-01 2.743116e-01 2.424607e-01 4.777663e-03
<GCONST> 8.749209e+01
<MIXTURE> 6 4.811860e-02
<MEAN> 39
 -5.026024e+00 -6.080148e-01 3.316048e+00 -3.003154e+00 -2.728714e+00 -2.047198e-01 3.794717e+00 -2.339632e+00 -6.081729e+00 -2.970587e+00 -1.157318e+00 1.286716e+00 1.961559e+01 -8.577157e-01 -2.321107e+00 -1.626801e+00 2.411861e+00 3.228338e+00 -4.243522e-02 3.993948e-01 1.831792e+00 5.707245e-02 -9.626509e-01 1.210379e+00 9.238338e-01 -3.143534e-01 5.116666e-02 6.706639e-02 -4.079761e-01 -4.003870e-01 -2.945007e-02 -1.412691e-01 -5.001482e-01 -1.806834e-02 5.238603e-01 1.539815e-01 -3.665418e-01 -1.382726e-01 6.456710e-02
<VARIANCE> 39
 9.505537e+00 2.422780e+01 2.166633e+01 1.773984e+01 2.185104e+01 2.588801e+01 7.143962e+01 3.975808e+01 2.282762e+01 2.889660e+01 2.352047e+01 2.566791e+01 1.049794e+00 3.177439e-01 5.954256e-01 9.318784e-01 1.500032e+00 2.010957e+00 3.169135e+00 3.616295e+00 3.276851e+00 3.734472e+00 2.375711e+00 3.305752e+00 2.814301e+00 3.767997e-02 5.948879e-02 1.863273e-01 1.893499e-01 1.956927e-01 2.670205e-01 3.729531e-01 5.781311e-01 4.632895e-01 4.062583e-01 3.850547e-01 4.109957e-01 2.786128e-01 5.764056e-03
<GCONST> 9.383020e+01
<MIXTURE> 7 7.497156e-02
<MEAN> 39
 -1.689326e-01 3.357407e+00 -1.216037e+00 4.699569e+00 2.863693e+00 4.526926e+00 3.276123e+00 2.685267e+00 2.536897e+00 2.562943e+00 1.495824e+00 2.114282e+00 1.900143e+01 -6.250989e-01 -1.442609e+00 3.235675e-01 -3.333171e-01 1.086132e+00 1.191549e-01 -5.455816e-01 3.871991e-02 1.710415e-01 -5.022344e-02 -2.271499e-01 -1.556225e-01 3.644197e-02 -6.221757e-01 -8.312033e-01 8.810391e-03 -3.701215e-01 4.778052e-01 -4.982086e-02 -2.133332e-01 -2.001465e-02 1.230425e-01 7.617564e-02 -2.958748e-02 -9.043454e-02 -3.828161e-02
<VARIANCE> 39
 1.521452e+00 4.008428e+00 2.924243e+00 4.768814e+00 8.305836e+00 7.539128e+00 9.037410e+00 1.051586e+01 9.059844e+00 8.996111e+00 7.165442e+00 8.679292e+00 6.945426e-01 4.993570e-01 1.457330e+00 8.107398e-01 8.746193e-01 1.527941e+00 1.149546e+00 1.513598e+00 1.298133e+00 1.182185e+00 1.411933e+00 1.398251e+00 1.183336e+00 5.476991e-02 4.879945e-02 1.275932e-01 1.630825e-01 1.448120e-01 3.370121e-01 2.328286e-01 2.444639e-01 2.590296e-01 2.915033e-01 2.490718e-01 2.588044e-01 2.342554e-01 1.040947e-02
<GCONST> 6.754630e+01
<MIXTURE> 8 6.538904e-02
<MEAN> 39
 -1.641028e+00 3.111201e+00 -7.906391e+00 -3.516359e+00 7.492013e+00 1.366551e+00 -1.615183e+00 -1.113023e+00 2.575195e+00 3.623494e+00 1.648797e+00 -4.620872e+00 2.020164e+01 -2.000228e+00 -1.130047e+00 2.133381e-01 1.440973e+00 2.670338e+00 1.228161e-01 -2.750978e-01 1.345660e+00 1.068847e+00 -3.200026e-01 4.559310e-01 2.171307e-01 -3.048644e-01 1.339998e-01 -4.054422e-01 -6.626979e-02 -4.623423e-01 -5.262032e-01 6.636081e-02 5.879433e-02 -6.364141e-02 -4.002605e-01 -2.959596e-01 6.346875e-02 -1.919148e-03 8.978711e-02
<VARIANCE> 39
 8.014479e+00 1.475468e+01 2.044274e+01 2.843586e+01 2.907882e+01 3.333699e+01 4.780885e+01 3.143222e+01 3.510742e+01 3.425042e+01 3.499374e+01 2.086339e+01 6.059254e-01 9.200949e-01 1.868455e+00 1.448941e+00 2.150629e+00 2.805247e+00 2.951513e+00 3.111042e+00 3.949283e+00 2.873729e+00 3.977648e+00 2.375659e+00 2.886580e+00 4.509663e-02 9.480941e-02 1.223134e-01 1.690911e-01 2.208750e-01 4.158100e-01 3.797242e-01 4.661094e-01 5.842632e-01 3.864529e-01 5.135854e-01 3.249988e-01 3.980880e-01 5.995894e-03
<GCONST> 9.808485e+01
<MIXTURE> 9 5.907778e-02
<MEAN> 39
 -2.978200e+00 1.158793e+00 -3.226238e+00 9.719054e-01 3.106085e+00 2.418326e+00 -1.057835e+00 1.002581e+00 1.495246e-01 1.906726e+00 2.843203e+00 1.875267e+00 1.762192e+01 -8.046658e-01 -1.597265e+00 1.052457e-01 -8.326399e-01 1.806086e+00 4.835775e-02 -2.099412e-01 2.121618e-02 2.835341e-01 -4.485549e-01 9.034835e-02 -4.095019e-02 3.695593e-02 -3.323373e-01 -3.905073e-01 8.958850e-05 1.152722e-02 4.120297e-01 2.221126e-01 5.041651e-01 8.333687e-02 3.636178e-01 -3.613391e-02 -8.382109e-02 2.947101e-02 9.235328e-02
<VARIANCE> 39
 4.721281e+00 6.903539e+00 1.352347e+01 1.139357e+01 1.319243e+01 1.867347e+01 6.747474e+00 1.240827e+01 1.243724e+01 1.472171e+01 6.285453e+00 8.564949e+00 8.917403e-01 7.821448e-01 9.803252e-01 1.420729e+00 1.617700e+00 1.810085e+00 2.644929e+00 1.279071e+00 2.366568e+00 1.808677e+00 2.262614e+00 1.881631e+00 1.296956e+00 5.110489e-02 1.102552e-01 1.324778e-01 1.666471e-01 1.612555e-01 2.248551e-01 2.542735e-01 1.853143e-01 2.018444e-01 2.421445e-01 2.679018e-01 2.705790e-01 1.741825e-01 5.877180e-03
<GCONST> 7.686460e+01
<MIXTURE> 10 3.631226e-02
<MEAN> 39
 5.709632e-01 2.265368e+00 -4.471308e+00 -5.942535e+00 1.808415e+00 2.527808e+00 6.440102e-02 6.380095e+00 -2.696601e+00 7.653717e+00 -3.486042e+00 -3.870602e+00 2.094491e+01 -1.499691e+00 -6.585956e-01 -8.522018e-02 1.320714e+00 3.653713e+00 1.934680e-01 1.534091e+00 -7.560243e-01 1.196997e+00 -6.292196e-01 1.369306e-01 3.595017e-01 -2.918475e-01 -2.224797e-01 -3.136281e-01 6.184283e-02 -4.886983e-02 -2.722281e-01 -1.342202e-01 -6.865599e-01 -5.512688e-01 5.344909e-02 -4.179253e-01 6.742060e-01 -2.615024e-02 5.023364e-03
<VARIANCE> 39
 8.339348e+00 1.580590e+01 1.400629e+01 1.564631e+01 3.818398e+01 5.768995e+01 4.183305e+01 2.018709e+01 3.798697e+01 4.010633e+01 3.062214e+01 2.577108e+01 4.792834e-01 7.584074e-01 6.880576e-01 1.058079e+00 1.098646e+00 2.148934e+00 2.075823e+00 2.082531e+00 2.245437e+00 1.869802e+00 2.350521e+00 2.966323e+00 2.179809e+00 2.641853e-02 9.363174e-02 1.830175e-01 2.278733e-01 1.413931e-01 3.571298e-01 2.229681e-01 4.999542e-01 4.051928e-01 4.121580e-01 5.897946e-01 3.451051e-01 3.090692e-01 4.562794e-03
<GCONST> 9.122911e+01
<MIXTURE> 11 4.361087e-02
<MEAN> 39
 -7.942035e-01 1.258796e+00 -7.786088e+00 -7.544214e+00 4.624527e+00 -4.506642e+00 -3.259051e+00 -4.176771e-01 -1.513132e+00 -8.754408e+00 -1.034827e+01 6.506786e-01 2.047787e+01 -1.375718e+00 -1.042331e+00 5.320162e-01 2.291905e+00 3.006626e+00 1.568300e+00 4.515958e-01 -5.779037e-01 -4.087690e-01 -7.573709e-01 1.044174e+00 1.155108e-01 -3.342992e-01 -2.449477e-01 -3.425946e-01 -6.968287e-02 -3.044239e-04 -5.241279e-02 3.833653e-02 -4.955425e-02 9.474275e-02 2.419828e-01 7.826456e-01 4.988440e-01 1.022487e-01 9.850506e-03
<VARIANCE> 39
 5.488209e+00 2.384730e+01 1.733562e+01 3.133447e+01 4.273983e+01 2.591913e+01 4.918112e+01 3.307438e+01 3.566949e+01 2.799230e+01 3.490873e+01 2.932831e+01 6.017492e-01 5.276059e-01 7.467456e-01 1.119489e+00 1.501025e+00 1.125198e+00 1.436140e+00 2.598795e+00 2.079407e+00 2.968914e+00 4.060753e+00 1.680432e+00 1.386981e+00 1.417130e-02 5.625137e-02 9.437899e-02 1.889957e-01 2.412731e-01 3.702748e-01 2.902401e-01 3.928786e-01 3.633431e-01 5.512891e-01 3.916813e-01 2.714687e-01 2.566878e-01 4.746142e-03
<GCONST> 8.936632e+01
<MIXTURE> 12 8.691639e-02
<MEAN> 39
 -1.605306e+00 1.736786e+00 -1.628937e+00 3.490879e+00 5.398526e+00 3.967485e+00 1.795083e+00 3.865951e+00 3.332954e+00 2.665778e+00 2.739262e+00 2.075847e+00 1.909719e+01 -1.209603e+00 -1.702707e+00 -2.944246e-01 -7.509786e-01 2.075206e+00 -4.398009e-01 -3.819835e-01 3.498144e-01 1.058396e-01 -3.385301e-01 6.732655e-02 -7.053752e-01 -4.951237e-02 -4.514894e-01 -4.271357e-01 -2.409976e-01 -2.522813e-01 2.088458e-01 -1.167218e-01 9.534706e-02 -1.338306e-01 -6.112091e-02 -1.421411e-01 -1.013362e-01 -2.060719e-01 -5.638250e-02
<VARIANCE> 39
 2.660677e+00 6.657641e+00 6.283243e+00 7.252356e+00 9.715823e+00 1.542482e+01 1.326560e+01 1.131788e+01 1.181803e+01 1.382909e+01 9.214759e+00 1.221077e+01 8.472450e-01 4.900050e-01 7.744978e-01 1.123686e+00 1.764288e+00 1.528880e+00 2.291058e+00 2.119196e+00 2.057014e+00 2.035253e+00 2.009597e+00 1.928896e+00 1.993429e+00 5.386825e-02 4.720229e-02 7.829356e-02 1.316435e-01 1.922497e-01 2.187441e-01 2.909872e-01 2.532462e-01 2.494639e-01 3.077314e-01 2.718380e-01 2.855694e-01 2.275997e-01 6.980783e-03
<GCONST> 7.534881e+01
<MIXTURE> 13 6.203446e-02
<MEAN> 39
 -1.587446e+00 2.167677e+00 -7.999349e+00 -9.241275e+00 4.760047e+00 1.110522e+01 7.629498e-01 -2.625142e+00 -4.520485e-01 3.596807e-01 3.554154e+00 3.402507e-01 1.945545e+01 -2.257285e+00 -1.182755e+00 5.256273e-02 1.307480e+00 2.594256e+00 2.388047e-01 -1.508193e+00 -7.765648e-01 1.372301e+00 7.711504e-01 7.917691e-01 -7.822306e-01 -3.448838e-01 1.885223e-01 -1.856156e-01 9.281363e-03 -3.247585e-01 -4.757510e-01 -3.178035e-01 -9.087783e-02 1.777541e-01 -2.985855e-02 5.548496e-03 -3.822834e-01 -1.937808e-01 9.517337e-02
<VARIANCE> 39
 1.289656e+01 1.566679e+01 1.319732e+01 2.468180e+01 2.177051e+01 2.755613e+01 3.649784e+01 2.587054e+01 3.403835e+01 2.003214e+01 3.631361e+01 2.174034e+01 6.135451e-01 6.448506e-01 7.085491e-01 1.439895e+00 1.803355e+00 1.586408e+00 2.036437e+00 2.445106e+00 2.089179e+00 2.475997e+00 2.175741e+00 2.116389e+00 1.488634e+00 2.377501e-02 1.394289e-01 1.196860e-01 1.847738e-01 2.330387e-01 3.151459e-01 3.813459e-01 4.864023e-01 3.652653e-01 4.578455e-01 3.303030e-01 5.137767e-01 3.191754e-01 7.086886e-03
<GCONST> 9.106222e+01
<MIXTURE> 14 4.186661e-02
<MEAN> 39
 -1.860625e+00 6.044975e-01 -4.397751e+00 1.770852e+00 2.976244e+00 5.330636e+00 3.557165e+00 2.774045e+00 1.452514e+00 9.726720e-01 -9.314311e-01 -8.000391e-01 1.752322e+01 -1.473333e-01 -1.468345e+00 -5.002788e-01 -5.133097e-01 6.306599e-01 1.577715e-01 -7.493550e-02 -9.029429e-02 3.289118e-01 3.478613e-01 -1.493378e-01 -7.101278e-01 -9.965343e-03 -3.210173e-01 -3.988116e-01 1.100575e-01 3.346730e-02 2.437409e-01 2.379819e-02 -1.286435e-01 -1.294257e-01 2.019263e-01 1.938878e-01 4.886330e-01 2.166618e-01 8.557951e-02
<VARIANCE> 39
 2.008316e+00 5.992079e+00 6.907378e+00 7.167557e+00 6.810496e+00 8.244230e+00 8.381701e+00 9.915202e+00 1.312786e+01 1.151110e+01 7.804706e+00 9.948344e+00 6.340496e-01 5.771582e-01 1.271712e+00 1.054862e+00 1.205245e+00 1.765358e+00 1.382662e+00 2.733215e+00 1.635530e+00 2.602553e+00 1.433482e+00 1.701072e+00 1.842823e+00 6.302494e-02 6.494826e-02 8.731439e-02 1.013734e-01 1.092203e-01 1.742477e-01 1.365728e-01 2.471686e-01 2.632401e-01 2.780218e-01 2.287477e-01 1.966263e-01 2.839459e-01 8.192775e-03
<GCONST> 7.085391e+01
<MIXTURE> 15 5.794435e-02
<MEAN> 39
 2.610800e-01 -1.776171e+00 -4.032749e+00 -3.782793e+00 2.831593e+00 6.132724e+00 8.601027e-01 1.457607e+00 3.242107e+00 2.714893e+00 -2.620652e+00 -2.846790e+00 1.965159e+01 -1.599269e+00 -1.468387e+00 -8.262776e-01 1.622767e-01 2.654259e+00 1.886750e+00 1.269094e+00 -2.698966e-01 2.197103e-01 -1.668934e+00 1.318354e-01 3.846713e-01 -2.628142e-01 -6.970283e-02 -1.223967e-01 -5.008901e-02 -1.839014e-01 -2.960112e-01 -3.489977e-01 -5.262461e-01 -2.158168e-01 -3.583064e-01 4.756951e-02 4.026169e-01 2.908146e-02 3.331975e-02
<VARIANCE> 39
 7.450402e+00 1.505526e+01 2.105761e+01 1.869791e+01 3.010637e+01 3.761704e+01 2.876029e+01 2.379675e+01 2.965680e+01 3.824512e+01 4.001090e+01 2.309002e+01 5.840393e-01 4.560402e-01 8.447847e-01 1.664581e+00 2.399438e+00 2.330159e+00 2.488884e+00 2.607532e+00 1.248794e+00 2.469725e+00 1.429525e+00 3.676813e+00 2.488446e+00 2.618239e-02 6.662630e-02 1.895827e-01 2.469015e-01 2.130671e-01 4.909074e-01 3.351233e-01 3.949772e-01 2.045337e-01 4.000682e-01 3.825883e-01 3.938643e-01 3.825597e-01 4.721200e-03
<GCONST> 9.169747e+01
<MIXTURE> 16 3.116941e-02
<MEAN> 39
 -4.798518e+00 3.830760e+00 -1.585209e+00 5.196060e+00 2.078107e+00 6.601464e+00 2.432138e+00 2.550256e+00 6.328978e+00 2.565093e+00 4.022874e+00 1.216446e-01 1.853860e+01 4.353732e-02 -6.462260e-01 -2.007349e-01 -4.361278e-01 3.319170e-01 3.213432e-02 2.495487e-01 -7.416461e-02 -7.353652e-01 -9.001787e-02 -2.606289e-02 1.643405e-01 -8.590369e-03 -3.921204e-02 -6.238215e-01 2.027592e-02 -3.744416e-01 5.631943e-01 -2.519878e-01 9.943083e-02 6.888105e-02 -4.643853e-01 -2.457478e-01 -1.037046e-01 8.142889e-02 -1.532152e-02
<VARIANCE> 39
 6.399280e+00 5.585812e+00 1.035097e+01 6.374030e+00 1.031986e+01 9.471275e+00 1.512343e+01 6.164480e+00 1.240252e+01 1.167623e+01 8.312349e+00 4.468659e+00 6.359096e-01 1.846683e-01 1.387786e+00 5.433456e-01 5.614505e-01 2.032835e+00 7.906615e-01 1.238350e+00 9.026687e-01 2.203549e+00 1.055285e+00 1.077826e+00 6.901221e-01 2.324867e-02 5.868312e-02 1.475541e-01 1.353004e-01 1.155412e-01 3.845168e-01 1.810927e-01 3.265085e-01 1.371759e-01 4.154973e-01 1.191702e-01 2.063920e-01 1.070110e-01 5.236391e-03
<GCONST> 6.477328e+01
<MIXTURE> 17 4.072104e-02
<MEAN> 39
 -3.523589e+00 -2.265920e+00 7.612231e-01 1.151272e+00 -5.048706e+00 5.775821e-01 5.365075e+00 7.567891e+00 3.164670e-01 -4.331857e-01 -3.211168e+00 1.279904e+00 2.005047e+01 -4.509101e-01 -2.515157e+00 -2.537550e+00 7.642300e-01 4.217756e+00 1.480252e+00 1.629642e-01 6.840458e-01 6.953432e-01 -1.475479e+00 -1.444077e+00 3.383100e-01 -2.651254e-01 -4.085036e-02 -9.555586e-02 -2.039294e-02 -4.194714e-01 2.170485e-01 -1.969176e-01 -6.482779e-01 -8.315646e-01 -1.141606e-01 1.004240e-01 3.024420e-01 -4.727821e-01 4.041669e-02
<VARIANCE> 39
 7.244891e+00 2.269127e+01 2.595234e+01 1.663612e+01 4.170306e+01 2.924723e+01 2.185729e+01 2.447882e+01 1.970026e+01 3.066279e+01 1.594811e+01 1.650972e+01 8.958350e-01 5.879182e-01 1.648333e+00 7.734872e-01 1.961093e+00 2.468363e+00 2.159216e+00 2.315538e+00 2.800729e+00 2.079816e+00 2.612513e+00 1.833598e+00 2.227409e+00 3.071272e-02 5.947683e-02 2.788419e-01 1.571596e-01 1.681184e-01 4.269786e-01 1.772693e-01 3.803836e-01 3.603967e-01 3.920573e-01 3.987430e-01 2.881273e-01 2.521178e-01 4.963457e-03
<GCONST> 8.956294e+01
<MIXTURE> 18 4.378954e-02
<MEAN> 39
 -2.346970e+00 1.719604e+00 -6.697379e+00 -2.264189e+00 1.126968e+01 -1.163174e+00 -5.203882e+00 -1.792589e+00 -4.169816e+00 -9.801329e+00 -7.779764e+00 -4.368367e+00 1.998752e+01 -1.408897e+00 -1.275029e+00 -4.345639e-02 1.158067e+00 2.101369e+00 1.070790e+00 2.982662e-01 2.137231e-01 5.323033e-01 -1.760453e-02 7.033255e-01 -2.621228e-01 -2.910762e-01 -1.552880e-01 -1.286062e-01 -2.112525e-01 -4.611728e-01 -5.855403e-01 -1.630101e-01 2.555697e-01 4.687685e-01 3.091900e-01 4.521147e-01 4.060823e-01 2.807083e-01 -1.778908e-02
<VARIANCE> 39
 7.455754e+00 1.161787e+01 1.677228e+01 1.331271e+01 3.462496e+01 4.344914e+01 2.652038e+01 3.060662e+01 1.830750e+01 2.682682e+01 3.427402e+01 4.519290e+01 7.105970e-01 4.142048e-01 7.897722e-01 8.488360e-01 1.790995e+00 1.964203e+00 3.165369e+00 2.291699e+00 3.267450e+00 3.146732e+00 1.503650e+00 2.873635e+00 2.630474e+00 2.761317e-02 7.554476e-02 9.688242e-02 1.456299e-01 2.326487e-01 2.302017e-01 2.090729e-01 2.496729e-01 3.619632e-01 3.342905e-01 2.194857e-01 4.136972e-01 3.736115e-01 4.220064e-03
<GCONST> 8.820541e+01
<MIXTURE> 19 3.801395e-02
<MEAN> 39
 -4.689367e+00 1.694709e+00 -3.537328e+00 1.583051e+00 -1.813584e+00 -3.256140e-01 3.648891e-02 8.667486e-01 1.437185e+00 2.586444e+00 3.429780e+00 3.213328e+00 1.669026e+01 -1.294464e-01 -1.296375e+00 -2.602968e-01 -5.056390e-01 1.016133e+00 -2.286907e-01 -3.355258e-01 6.830280e-01 3.232113e-01 -4.496429e-01 -3.151212e-01 -5.002527e-01 -1.956758e-02 -3.897908e-01 -5.687800e-01 1.811461e-01 -2.600481e-01 7.208143e-01 3.302615e-01 4.566808e-02 2.962441e-01 1.191028e-01 -2.557689e-01 -2.254688e-01 -1.501396e-02 7.950392e-02
<VARIANCE> 39
 6.372816e+00 1.064607e+01 1.201711e+01 1.043983e+01 9.169557e+00 1.248945e+01 1.483522e+01 1.335685e+01 1.699686e+01 9.612491e+00 2.149721e+01 1.180402e+01 6.154523e-01 1.138263e+00 1.005190e+00 1.131535e+00 2.028662e+00 1.988571e+00 2.310967e+00 2.279055e+00 2.141385e+00 1.679970e+00 1.924498e+00 2.055215e+00 1.335819e+00 4.973797e-02 2.405184e-01 1.238186e-01 2.522404e-01 3.713532e-01 2.545018e-01 4.180605e-01 4.517886e-01 2.815139e-01 4.108802e-01 2.229901e-01 3.574844e-01 3.774514e-01 1.030658e-02
<GCONST> 8.500900e+01
<MIXTURE> 20 2.907950e-02
<MEAN> 39
 -4.951580e+00 2.189907e+00 1.211287e+00 -9.963573e+00 -5.087679e+00 -1.451806e-01 5.510386e+00 -3.492139e+00 -9.163037e+00 -5.097842e+00 -6.357963e+00 -5.715067e+00 1.982611e+01 -5.815273e-01 -2.393719e+00 -1.122944e+00 3.157935e+00 3.677763e+00 1.117321e+00 1.019331e+00 8.718345e-01 -1.491453e+00 -2.281158e+00 1.098454e+00 4.379705e-01 -3.116668e-01 -9.341688e-02 -2.254650e-01 -4.165390e-01 1.665856e-01 3.779857e-01 -4.106178e-01 -7.994952e-01 1.679629e-01 7.078692e-01 2.171381e-01 4.288474e-01 6.744534e-01 3.405221e-02
<VARIANCE> 39
 4.583655e+00 1.351217e+01 2.215179e+01 3.180282e+01 2.303604e+01 5.082578e+01 2.508357e+01 3.192649e+01 2.345206e+01 2.823645e+01 9.456822e+00 3.932126e+01 5.372653e-01 3.657435e-01 1.026719e+00 8.459545e-01 1.408254e+00 3.385510e+00 2.901674e+00 2.806082e+00 2.434131e+00 1.831592e+00 2.089350e+00 1.785739e+00 1.727222e+00 3.023121e-02 6.781451e-02 2.136646e-01 1.639655e-01 4.195460e-01 3.448414e-01 5.036852e-01 2.454344e-01 4.693767e-01 5.240584e-01 4.359980e-01 3.423335e-01 3.603377e-01 3.614716e-03
<GCONST> 9.026176e+01
<STATE> 3
<NUMMIXES> 20
<MIXTURE> 1 3.349735e-02
<MEAN> 39
 -5.005587e+00 -2.526398e+00 5.126930e-01 1.404464e+00 9.637561e+00 5.093976e+00 7.001082e-01 3.555314e+00 2.399285e+00 3.812589e+00 3.547448e+00 -1.364979e+00 1.891705e+01 -1.954979e+00 -1.651189e+00 1.005154e+00 -5.955931e-01 2.046366e+00 6.543418e-01 1.822170e-01 -1.977015e-01 5.955129e-01 9.680750e-01 7.732909e-01 -1.251519e+00 1.834263e-01 -1.672398e-01 -1.351335e-01 -3.499109e-01 -8.889942e-02 -4.302861e-01 -3.615180e-03 3.105727e-01 -2.641248e-01 1.909591e-02 -2.920413e-02 -2.208079e-01 5.439313e-02 -2.853641e-02
<VARIANCE> 39
 4.681648e+00 1.499917e+01 1.019924e+01 1.454672e+01 1.064400e+01 1.288374e+01 1.725553e+01 2.175490e+01 2.023201e+01 2.206408e+01 1.363448e+01 1.954550e+01 9.495650e-01 7.218844e-01 1.736387e+00 5.933661e-01 8.698249e-01 6.512533e-01 1.463700e+00 1.414262e+00 1.967163e+00 1.661781e+00 1.019867e+00 1.759822e+00 9.663805e-01 5.924734e-02 8.597787e-02 1.417491e-01 1.323527e-01 2.192280e-01 2.689093e-01 2.733679e-01 3.717644e-01 2.856835e-01 2.224025e-01 2.752887e-01 2.606483e-01 2.806488e-01 8.229800e-03
<GCONST> 7.917624e+01
<MIXTURE> 2 3.309376e-02
<MEAN> 39
 -3.725687e+00 -5.926939e+00 -2.417266e+00 3.348385e+00 1.376172e+01 1.660896e+00 6.412433e-02 6.650068e+00 4.349438e+00 -2.645790e+00 -4.070399e-01 2.741911e+00 2.010360e+01 -8.598799e-01 -6.841843e-01 9.857983e-01 3.414904e-01 5.144255e-01 3.594632e-01 5.047575e-01 6.999803e-01 6.765304e-01 3.458838e-01 8.510496e-01 5.740139e-01 1.630065e-01 1.746503e-01 4.473834e-02 -1.261041e-01 -2.717769e-01 -5.501734e-01 2.112148e-02 -2.308151e-01 -7.176579e-01 -3.416798e-01 6.851597e-03 -8.979934e-02 -3.899159e-01 -2.093320e-02
<VARIANCE> 39
 7.113051e+00 2.222700e+01 1.280131e+01 2.273703e+01 1.271677e+01 2.239796e+01 3.188746e+01 2.236311e+01 2.960992e+01 3.416027e+01 1.357919e+01 1.553982e+01 6.753566e-01 2.979003e-01 5.373095e-01 6.421277e-01 6.907691e-01 1.070597e+00 8.779578e-01 1.678627e+00 2.471256e+00 1.488858e+00 2.407780e+00 1.466101e+00 1.154474e+00 5.452318e-02 8.941096e-02 1.668877e-01 3.036561e-01 1.541514e-01 4.410167e-01 2.636182e-01 4.871801e-01 2.478710e-01 3.415686e-01 4.456495e-01 1.240004e-01 2.418898e-01 1.083754e-02
<GCONST> 8.267718e+01
<MIXTURE> 3 4.137702e-02
<MEAN> 39
 -4.884883e+00 -3.054948e+00 -7.302454e+00 -8.202864e+00 7.952108e+00 1.262731e+01 -4.756194e-01 -3.729186e+00 4.952154e+00 1.687666e+00 3.687786e+00 -1.264533e-01 1.893160e+01 -1.049464e+00 -1.029955e+00 1.175252e-01 9.989033e-01 1.083425e+00 -3.254417e-01 -3.294970e-01 1.100963e-01 1.371364e+00 9.615536e-01 -2.594248e-02 -3.024452e-01 -4.664666e-03 5.166281e-01 -8.342356e-03 2.420692e-02 1.886243e-01 -3.822292e-01 -2.650296e-01 5.127519e-01 3.836596e-01 -4.766194e-01 -7.687842e-02 -6.302959e-01 7.635174e-02 1.030264e-01
<VARIANCE> 39
 1.065612e+01 2.348087e+01 1.708848e+01 1.747856e+01 1.784175e+01 2.659143e+01 1.723890e+01 2.439765e+01 2.220438e+01 1.900373e+01 2.399183e+01 1.397058e+01 4.093303e-01 4.998894e-01 4.027606e-01 8.329366e-01 9.938762e-01 1.800198e+00 1.161559e+00 8.769537e-01 1.310827e+00 1.934951e+00 1.324499e+00 1.802077e+00 1.426928e+00 2.170990e-02 7.472910e-02 9.034967e-02 1.439382e-01 1.622908e-01 2.773220e-01 2.701486e-01 3.349060e-01 3.991944e-01 3.530021e-01 3.940872e-01 3.207768e-01 1.599377e-01 7.037113e-03
<GCONST> 7.995267e+01
<MIXTURE> 4 5.482490e-02
<MEAN> 39
 -1.735579e+00 -3.159411e+00 -7.183877e+00 -8.458129e-01 4.869446e+00 8.342373e+00 4.685507e+00 9.566137e-01 2.592765e-01 3.427529e+00 2.642959e+00 -3.324416e-01 1.887394e+01 -4.451592e-01 -1.527070e+00 -3.590536e-01 -1.908848e-01 1.481627e+00 1.132920e+00 5.245131e-01 -3.460957e-01 -1.146193e-01 -3.811831e-01 2.138528e-01 -3.152792e-01 5.860540e-02 -1.418505e-02 1.742169e-01 9.710968e-02 5.769278e-02 -1.867801e-01 -3.744373e-01 -2.124810e-01 -1.783210e-01 8.640465e-02 -4.629452e-02 -9.378190e-02 -2.157164e-01 4.897421e-02
<VARIANCE> 39
 7.287068e+00 6.206738e+00 1.640351e+01 2.300867e+01 2.071934e+01 3.985778e+01 2.032971e+01 2.376899e+01 1.393560e+01 1.957666e+01 1.962020e+01 2.255154e+01 1.431108e+00 4.336599e-01 1.039188e+00 1.189760e+00 1.852362e+00 1.201768e+00 2.185986e+00 1.891194e+00 2.838438e+00 2.247149e+00 2.650784e+00 1.151323e+00 1.525940e+00 5.845239e-02 7.438763e-02 1.224411e-01 1.969917e-01 3.080077e-01 1.794426e-01 1.806452e-01 2.678007e-01 4.853639e-01 2.053718e-01 2.413561e-01 2.443067e-01 2.885096e-01 1.133875e-02
<GCONST> 8.542012e+01
<MIXTURE> 5 6.379956e-02
<MEAN> 39
 -7.878315e+00 5.853354e-01 -5.017752e+00 1.362674e-01 1.365609e+01 -4.668068e+00 -5.939258e+00 9.265472e+00 3.168725e+00 -1.963281e-01 2.258275e+00 -3.287675e+00 1.977509e+01 -7.465892e-01 -5.250711e-01 -9.791549e-02 4.403521e-01 6.656865e-01 2.406708e-01 5.582047e-01 1.715861e-01 4.054168e-01 -4.630661e-01 2.709956e-01 2.372314e-02 -2.811392e-02 1.452995e-01 3.432864e-03 -5.921873e-03 -1.404362e-01 -3.334360e-01 1.590935e-01 1.067613e-04 -4.664475e-01 -3.972359e-01 -1.340373e-01 -5.234802e-03 1.584761e-01 3.672255e-02
<VARIANCE> 39
 1.121100e+01 4.893807e+00 1.322481e+01 9.392195e+00 1.737145e+01 2.275733e+01 2.421337e+01 2.017669e+01 3.594172e+01 2.202836e+01 2.116704e+01 2.393353e+01 4.653958e-01 2.821862e-01 2.692529e-01 8.031240e-01 9.312078e-01 1.412999e+00 1.587496e+00 1.604683e+00 1.888370e+00 1.863886e+00 1.780153e+00 1.225903e+00 1.405151e+00 4.438011e-02 6.471278e-02 6.727507e-02 1.098658e-01 2.039276e-01 2.051863e-01 2.154424e-01 3.312865e-01 2.807259e-01 4.752373e-01 4.298271e-01 2.753814e-01 2.021596e-01 7.538015e-03
<GCONST> 7.839546e+01
<MIXTURE> 6 3.814219e-02
<MEAN> 39
 -4.788893e+00 -4.064207e+00 -5.024354e+00 -5.114488e-01 1.135262e+01 -2.835588e+00 -5.618510e+00 1.659468e+00 2.620884e+00 -4.336249e+00 -1.116587e+00 -1.993988e-01 1.851611e+01 -1.652418e+00 -1.616826e+00 -4.777859e-01 2.230869e-01 1.647513e+00 -6.445689e-01 3.083230e-01 4.921371e-01 8.180870e-01 -6.243486e-01 1.297147e+00 8.417529e-01 -1.524946e-01 2.826670e-01 2.363047e-01 2.489976e-01 -3.058316e-01 -7.158731e-01 6.198325e-01 3.608972e-01 -1.028177e-01 -2.789547e-01 2.159900e-01 2.700205e-02 8.282681e-02 1.453199e-01
<VARIANCE> 39
 8.162543e+00 1.365707e+01 1.367344e+01 3.937887e+01 2.534224e+01 3.312397e+01 4.630125e+01 1.827488e+01 1.780462e+01 2.529458e+01 4.610436e+01 3.097878e+01 6.287237e-01 2.330737e-01 6.490088e-01 1.783030e+00 1.734670e+00 1.817003e+00 2.537170e+00 2.677174e+00 2.653001e+00 3.282324e+00 1.741912e+00 2.436547e+00 2.914591e+00 4.864568e-02 7.769448e-02 8.710609e-02 1.663232e-01 4.493102e-01 4.111308e-01 2.533038e-01 5.213895e-01 4.185666e-01 5.156000e-01 2.036562e-01 5.126972e-01 3.528761e-01 3.541826e-03
<GCONST> 9.149288e+01
<MIXTURE> 7 5.749404e-02
<MEAN> 39
 -6.352594e+00 -7.232601e+00 -2.184180e+00 2.715909e-01 4.148065e+00 7.576885e-01 6.347145e+00 1.305684e+00 -5.994577e+00 -5.148399e+00 2.918185e-01 3.403428e+00 1.884748e+01 -7.141477e-01 -1.397501e+00 -1.168983e+00 1.268853e+00 2.364435e+00 2.908404e-01 -1.164169e-01 5.761243e-01 5.752452e-01 -5.768595e-02 7.120681e-01 2.205977e-01 -6.173562e-02 2.572137e-01 4.788406e-01 1.253921e-01 -3.687454e-01 -7.175203e-01 1.738116e-02 -4.697903e-01 -4.549347e-01 3.027208e-01 2.768906e-01 -5.821852e-01 -3.901132e-01 1.040697e-01
<VARIANCE> 39
 7.324740e+00 2.319887e+01 1.602013e+01 1.754221e+01 2.120401e+01 2.352366e+01 3.335285e+01 1.701472e+01 1.348753e+01 2.221753e+01 2.799767e+01 2.141606e+01 1.143727e+00 2.880882e-01 6.719689e-01 1.090475e+00 1.218970e+00 2.667866e+00 1.749720e+00 2.016301e+00 2.304803e+00 2.718772e+00 2.000531e+00 2.587333e+00 2.073822e+00 3.179127e-02 4.140113e-02 1.210849e-01 1.908997e-01 1.835171e-01 4.175733e-01 3.212062e-01 3.620307e-01 2.341233e-01 2.989625e-01 3.938651e-01 5.100406e-01 3.948543e-01 6.843978e-03
<GCONST> 8.703215e+01
<MIXTURE> 8 6.036302e-02
<MEAN> 39
 -4.340812e+00 -5.121805e+00 9.372708e-02 2.175540e+00 5.762618e+00 4.180245e+00 -2.435853e-01 5.328419e+00 5.494778e+00 2.507913e-01 7.696058e-01 3.581990e+00 1.840047e+01 -1.755864e+00 -3.230769e+00 2.865600e-01 -7.715749e-01 1.609115e+00 3.658304e-01 -6.278630e-01 5.343924e-01 3.671311e-01 -7.808034e-01 -7.525929e-01 4.215049e-01 6.822510e-02 -1.077519e-01 1.575707e-01 -4.523854e-01 -2.826294e-02 -2.343664e-01 9.355184e-04 1.630417e-01 -4.486060e-01 -5.832370e-01 -1.189980e-02 -2.542317e-01 -1.803936e-01 9.468658e-03
<VARIANCE> 39
 6.543216e+00 1.547487e+01 5.987372e+00 2.372923e+01 1.145010e+01 2.585794e+01 1.577611e+01 2.007597e+01 1.638629e+01 1.396083e+01 1.890709e+01 7.888945e+00 1.536936e+00 5.780504e-01 1.168896e+00 8.471022e-01 1.325004e+00 1.854235e+00 1.378166e+00 2.711833e+00 2.275283e+00 1.549060e+00 1.956560e+00 1.900452e+00 1.545455e+00 6.984910e-02 1.235731e-01 2.277684e-01 1.279040e-01 3.091395e-01 2.546361e-01 3.928709e-01 3.342299e-01 4.859772e-01 2.757244e-01 2.024902e-01 3.533637e-01 1.874176e-01 1.375802e-02
<GCONST> 8.476686e+01
<MIXTURE> 9 4.236013e-02
<MEAN> 39
 -5.313277e+00 1.566647e-02 -5.401752e+00 2.448386e+00 1.241772e+01 -8.385803e-01 2.265551e+00 5.245601e+00 5.247799e+00 2.014265e+00 3.292161e+00 1.686773e+00 1.904790e+01 -1.672239e+00 -1.521879e+00 -1.131875e+00 -1.779803e-01 1.980932e+00 -8.467595e-01 7.474265e-02 8.444660e-02 4.582726e-01 -6.851552e-01 3.766325e-01 1.064795e-01 -8.677972e-03 3.154967e-02 -4.598883e-02 -1.813327e-02 3.835258e-02 -6.425132e-01 3.172708e-01 9.437693e-02 -5.563406e-01 -4.070016e-01 -2.586618e-01 -2.634830e-01 -2.970883e-02 -1.705824e-02
<VARIANCE> 39
 5.969789e+00 7.448503e+00 8.015659e+00 1.437969e+01 1.299722e+01 1.935857e+01 2.762030e+01 1.312639e+01 1.445919e+01 1.320866e+01 1.413634e+01 1.655568e+01 7.761155e-01 3.538357e-01 6.240148e-01 9.288279e-01 1.525939e+00 1.460503e+00 1.924210e+00 2.472357e+00 1.305603e+00 1.358106e+00 1.721977e+00 1.025841e+00 1.233254e+00 5.367473e-02 6.990749e-02 1.493894e-01 1.339168e-01 2.479969e-01 1.566816e-01 3.407462e-01 3.912025e-01 3.253321e-01 1.978908e-01 2.407915e-01 1.963109e-01 2.380217e-01 7.625288e-03
<GCONST> 7.735590e+01
<MIXTURE> 10 4.553500e-02
<MEAN> 39
 -5.426759e+00 -9.350307e+00 -7.153189e+00 2.212685e+00 7.952847e+00 2.599811e+00 3.163432e+00 6.234903e+00 2.519515e+00 -2.666997e+00 -2.692250e+00 7.893088e-01 1.943352e+01 -5.370207e-01 -1.058273e+00 -1.074542e+00 -1.384341e-01 2.617253e+00 9.503612e-01 -7.270363e-01 -1.196790e+00 3.461157e-01 1.045153e+00 9.532344e-01 -1.105420e+00 -5.883320e-02 3.047400e-02 6.901167e-01 6.439564e-01 -1.226904e-01 -9.397336e-01 -5.406148e-02 2.784213e-01 -4.897500e-01 -3.175595e-01 3.998080e-01 5.552846e-01 -2.396234e-01 6.120653e-02
<VARIANCE> 39
 1.281374e+01 2.780252e+01 2.472923e+01 9.585824e+00 2.848597e+01 3.145835e+01 3.621203e+01 1.703104e+01 2.803814e+01 1.685986e+01 1.754709e+01 2.912935e+01 7.809629e-01 3.886628e-01 9.008469e-01 1.259973e+00 1.306939e+00 2.269760e+00 1.844619e+00 2.976993e+00 2.323022e+00 2.444015e+00 2.400873e+00 2.154569e+00 1.437173e+00 2.432812e-02 8.491219e-02 1.706914e-01 1.335865e-01 1.738146e-01 3.803207e-01 4.105365e-01 8.212825e-01 4.679148e-01 4.367676e-01 4.492907e-01 3.381885e-01 3.465181e-01 3.143210e-03
<GCONST> 9.004506e+01
<MIXTURE> 11 6.059295e-02
<MEAN> 39
 -7.541764e+00 2.236502e+00 -9.903991e+00 -5.982583e+00 1.022750e+01 3.349812e+00 -2.953121e+00 8.803550e-01 4.267248e+00 4.247920e+00 4.041599e+00 -3.947917e+00 1.923046e+01 -1.575473e+00 -1.018454e+00 -1.223391e-01 1.222504e+00 1.658467e+00 4.253143e-01 -9.139077e-02 1.060788e-02 2.375615e-01 -2.196182e-02 4.163463e-01 -1.385139e-01 -1.510632e-01 7.913475e-01 -2.255646e-01 1.836186e-01 -2.604222e-01 -6.939701e-01 1.868955e-01 4.129516e-01 -3.036978e-01 -4.659215e-01 -4.684332e-01 -6.403511e-01 6.029003e-02 1.714963e-01
<VARIANCE> 39
 1.002518e+01 1.087770e+01 2.024675e+01 3.080446e+01 2.659334e+01 3.654659e+01 4.654741e+01 2.590870e+01 1.868694e+01 2.435900e+01 3.310681e+01 1.692354e+01 8.772480e-01 5.734290e-01 8.208542e-01 1.016751e+00 1.164131e+00 1.161974e+00 1.931380e+00 2.166202e+00 2.640905e+00 1.672765e+00 2.139646e+00 2.234133e+00 1.373651e+00 3.666128e-02 1.158255e-01 1.351841e-01 2.142112e-01 2.842608e-01 4.571628e-01 4.508866e-01 6.346793e-01 5.122666e-01 3.412780e-01 6.920236e-01 4.693803e-01 5.253183e-01 4.931754e-03
<GCONST> 9.234152e+01
<MIXTURE> 12 6.776305e-02
<MEAN> 39
 -7.423479e+00 -3.147679e+00 -5.831207e+00 -1.034557e+00 1.366871e+01 -2.912766e-02 -2.344426e+00 2.457363e+00 -1.853734e+00 -6.996795e+00 -2.784921e+00 -1.650170e+00 1.910840e+01 -1.356470e+00 -8.579236e-01 4.732945e-02 1.561414e-01 2.238289e-01 2.835357e-01 6.573493e-01 6.304966e-01 9.078636e-01 1.141937e+00 1.028709e+00 4.528135e-01 -2.105729e-01 3.523505e-01 1.593228e-01 -1.629523e-01 -1.724997e-01 -5.026373e-01 3.176183e-02 -8.182655e-02 -2.533846e-01 -1.242318e-01 -9.010211e-02 -2.581756e-01 8.815321e-04 9.106714e-02
<VARIANCE> 39
 8.001072e+00 1.936507e+01 2.408068e+01 1.666680e+01 2.038862e+01 3.509434e+01 2.205727e+01 4.577742e+01 1.760518e+01 2.466388e+01 1.781898e+01 3.312466e+01 1.006619e+00 4.188976e-01 4.320587e-01 5.246671e-01 1.146826e+00 1.310681e+00 1.646196e+00 2.248477e+00 1.872707e+00 1.729147e+00 1.026624e+00 1.734155e+00 2.002614e+00 3.228159e-02 6.132946e-02 7.071359e-02 1.862498e-01 2.372924e-01 2.150026e-01 2.440458e-01 2.329549e-01 3.868631e-01 3.055744e-01 2.185445e-01 2.973565e-01 2.624243e-01 3.515797e-03
<GCONST> 8.221989e+01
<MIXTURE> 13 6.914372e-02
<MEAN> 39
 -3.149376e+00 -5.155031e+00 -4.573601e+00 4.910846e-01 4.349340e+00 5.040974e+00 -2.255656e+00 7.175629e-01 3.619848e+00 3.595200e+00 1.612102e+00 -4.221253e-01 1.752406e+01 -8.582557e-01 -2.077103e+00 -1.343244e-01 -8.815842e-01 9.712324e-01 3.088782e-01 -1.556491e-01 -3.887229e-01 2.756857e-01 -4.196797e-02 -3.121500e-01 -3.176236e-01 -1.169406e-02 -6.050307e-02 1.612198e-01 -2.039252e-02 -8.924565e-02 -2.380992e-02 2.942824e-02 6.157690e-01 1.396562e-02 -4.055765e-01 -3.030179e-01 -2.547276e-01 1.444533e-01 8.118991e-02
<VARIANCE> 39
 2.095323e+00 1.080251e+01 1.559168e+01 1.647233e+01 1.220816e+01 1.796474e+01 1.623599e+01 1.477735e+01 1.401814e+01 1.539628e+01 1.592794e+01 1.923311e+01 8.428458e-01 4.325649e-01 7.872545e-01 7.093714e-01 1.680330e+00 9.608161e-01 1.581749e+00 2.172412e+00 1.448247e+00 2.261923e+00 2.600163e+00 2.362525e+00 2.120250e+00 5.398479e-02 6.415655e-02 9.231249e-02 1.640188e-01 1.844715e-01 1.941084e-01 2.000760e-01 2.804508e-01 2.441456e-01 1.861572e-01 2.567226e-01 3.696377e-01 3.698174e-01 1.033237e-02
<GCONST> 7.911116e+01
<MIXTURE> 14 3.538607e-02
<MEAN> 39
 -6.419946e+00 -3.053526e+00 -4.669447e+00 -5.373914e-01 4.796366e+00 1.369964e+00 2.309193e+00 -1.289580e+00 -9.670451e+00 -1.001396e+01 -5.502017e+00 -3.680757e+00 1.952880e+01 -5.051441e-01 -1.328399e+00 -1.285091e+00 2.086944e+00 2.605402e+00 2.088564e-01 -9.584295e-01 5.389995e-01 3.341762e-01 -8.641703e-01 3.785999e-01 6.247908e-01 -1.205077e-01 2.193382e-01 4.933588e-01 2.281895e-01 -6.939778e-01 -7.887676e-01 -3.654746e-01 -2.191439e-01 -1.398195e-01 6.856437e-01 4.322143e-01 -1.448554e-01 -3.908610e-02 7.609698e-02
<VARIANCE> 39
 3.766490e+00 1.428422e+01 1.727451e+01 2.701219e+01 2.247947e+01 4.388780e+01 4.709059e+01 4.459527e+01 2.160608e+01 3.940609e+01 2.349618e+01 3.061788e+01 5.454161e-01 4.097748e-01 4.893731e-01 1.207620e+00 1.184732e+00 1.195936e+00 2.764515e+00 1.812873e+00 2.130498e+00 1.632899e+00 2.291732e+00 2.103634e+00 1.210856e+00 1.501622e-02 6.583107e-02 7.893182e-02 8.489281e-02 1.708195e-01 2.359604e-01 5.232683e-01 4.804230e-01 5.346825e-01 2.707887e-01 3.799667e-01 2.074154e-01 4.619263e-01 4.526528e-03
<GCONST> 8.546404e+01
<MIXTURE> 15 3.126337e-02
<MEAN> 39
 -5.262256e+00 -3.412612e+00 -7.575806e+00 -3.257353e+00 9.255729e+00 5.245439e+00 4.554352e-01 2.094684e+00 1.309281e+00 3.708581e+00 4.663310e+00 -1.080316e+00 1.928075e+01 -2.019716e+00 -1.480239e+00 -4.754697e-01 -5.986053e-01 1.489359e+00 1.716635e-01 -5.112968e-01 2.599116e-02 2.111024e-01 -4.632378e-01 7.009091e-02 -7.158147e-01 -2.808782e-01 3.027645e-01 2.778459e-01 3.796203e-01 2.411994e-01 -6.513045e-01 -3.387487e-01 3.946954e-02 -1.857022e-01 -2.248046e-01 1.300969e-01 -3.923156e-01 -2.615261e-01 6.866032e-02
<VARIANCE> 39
 9.188993e+00 8.520946e+00 1.251133e+01 1.688718e+01 1.651538e+01 2.602161e+01 3.420755e+01 2.845491e+01 4.507654e+01 1.352943e+01 2.038108e+01 4.057288e+01 1.011450e+00 4.306338e-01 7.306935e-01 1.754073e+00 1.304263e+00 3.028881e+00 1.164424e+00 1.882721e+00 2.071920e+00 3.204355e+00 3.073231e+00 2.794481e+00 2.912718e+00 2.787310e-02 1.046031e-01 5.079697e-02 1.062125e-01 2.970096e-01 2.534223e-01 3.687322e-01 8.070996e-01 4.360894e-01 6.853738e-01 4.143652e-01 6.234416e-01 5.927148e-01 5.263354e-03
<GCONST> 9.096433e+01
<MIXTURE> 16 6.470772e-02
<MEAN> 39
 -3.824191e+00 -4.251493e+00 -3.884969e+00 -1.468792e+00 8.325885e+00 4.629873e+00 2.395957e+00 2.171649e+00 2.842433e+00 -3.609275e+00 -5.614674e+00 6.721849e-01 1.972703e+01 -9.301798e-01 -1.603878e+00 -1.064719e+00 2.082931e-01 2.167786e+00 9.640324e-01 -1.571520e-01 -8.573095e-01 1.009668e-01 -6.715529e-01 6.189165e-02 -4.230197e-01 -1.517414e-01 1.913510e-01 3.327112e-01 1.761767e-01 -2.046567e-01 -8.595790e-01 -4.213682e-01 -1.546380e-01 -2.794669e-01 -2.081163e-01 3.965494e-01 3.249913e-01 -4.052124e-01 5.434287e-02
<VARIANCE> 39
 7.138433e+00 2.469588e+01 2.333498e+01 2.515925e+01 3.098930e+01 4.932533e+01 3.367427e+01 3.174328e+01 3.076842e+01 2.738267e+01 2.028699e+01 1.069412e+01 6.354624e-01 8.332881e-01 9.667640e-01 1.528919e+00 1.563413e+00 2.822058e+00 2.115335e+00 3.228670e+00 2.085944e+00 2.302613e+00 1.734678e+00 2.571887e+00 1.818163e+00 2.520140e-02 6.242901e-02 1.733709e-01 2.483098e-01 2.800629e-01 3.493735e-01 2.963477e-01 3.409218e-01 4.249399e-01 3.972657e-01 4.092182e-01 3.385334e-01 2.702335e-01 3.733595e-03
<GCONST> 9.159914e+01
<MIXTURE> 17 6.068521e-02
<MEAN> 39
 -3.085677e+00 -1.069481e+00 -7.393399e+00 -2.777629e+00 1.068251e+01 3.689789e+00 -2.465236e-01 3.861690e-01 2.025652e+00 1.133933e+00 -1.518281e+00 -5.488029e+00 2.021571e+01 -9.767177e-01 -1.164212e+00 2.395103e-01 1.085131e+00 1.263191e+00 5.646245e-02 3.455949e-01 -2.416949e-02 8.119496e-02 -1.047388e+00 -3.454587e-01 -2.724183e-01 -9.519602e-02 5.026695e-01 2.749210e-02 -2.980193e-01 -4.565897e-01 -8.976480e-01 -1.353468e-01 -4.340218e-02 -1.999321e-01 -5.066974e-01 -2.892231e-01 -2.638743e-01 9.259436e-02 1.009180e-01
<VARIANCE> 39
 6.902991e+00 1.778219e+01 2.286292e+01 2.747026e+01 3.477893e+01 5.418122e+01 6.218518e+01 2.653711e+01 3.382707e+01 3.393568e+01 4.533392e+01 2.194332e+01 7.487715e-01 3.122035e-01 5.780491e-01 4.464414e-01 9.604448e-01 1.338216e+00 1.200047e+00 1.699992e+00 1.721558e+00 2.075539e+00 1.421429e+00 2.513051e+00 1.471793e+00 1.576784e-02 5.254110e-02 1.396141e-01 1.981290e-01 2.754475e-01 2.525432e-01 4.102090e-01 4.543736e-01 4.570268e-01 2.830172e-01 3.021223e-01 4.429340e-01 3.159885e-01 5.420635e-03
<GCONST> 8.746211e+01
<MIXTURE> 18 5.144952e-02
<MEAN> 39
 -3.942643e+00 -1.890692e+00 -6.096248e+00 -5.049255e+00 9.686062e+00 1.002284e+01 -1.188920e+00 -4.370768e+00 -1.952076e+00 -5.991629e-01 2.277319e-01 -2.493260e+00 1.927234e+01 -1.047276e+00 -7.994006e-01 5.289026e-01 5.559621e-01 9.633352e-01 2.617757e-01 -2.533799e-01 -6.095101e-01 6.339276e-03 1.494411e-01 -8.648241e-02 -5.185979e-01 -1.239932e-01 3.694651e-01 1.019358e-01 -1.785824e-01 -2.649574e-01 -6.257188e-01 -4.266899e-01 4.350481e-01 4.223054e-01 3.689975e-01 1.568983e-01 -2.391219e-01 -2.227936e-02 1.027314e-01
<VARIANCE> 39
 1.051621e+01 1.929716e+01 8.354474e+00 1.778154e+01 1.916727e+01 2.928304e+01 2.716400e+01 1.955885e+01 2.335660e+01 2.503145e+01 3.392954e+01 2.070091e+01 6.774626e-01 3.364217e-01 5.376646e-01 8.346127e-01 9.263058e-01 1.554593e+00 8.909962e-01 1.476247e+00 1.643475e+00 1.569459e+00 1.172494e+00 1.987369e+00 1.284631e+00 2.719892e-02 8.665800e-02 1.067592e-01 1.364612e-01 1.900574e-01 3.350377e-01 2.576205e-01 4.482090e-01 1.860666e-01 2.427858e-01 3.151427e-01 5.218513e-01 2.269807e-01 5.111515e-03
<GCONST> 8.107120e+01
<MIXTURE> 19 4.378931e-02
<MEAN> 39
 -7.737396e+00 -1.383088e+00 -6.675577e-01 -5.848587e-02 1.214735e+01 5.576393e+00 2.343746e+00 3.073117e+00 4.690995e+00 5.962887e+00 3.062292e+00 -2.387958e+00 1.975881e+01 -1.710640e+00 -1.240916e+00 -2.954119e-01 -7.116284e-01 7.117373e-01 1.351328e-01 1.933991e-01 -8.240572e-01 -4.838068e-01 3.454120e-01 -2.031830e-01 -1.017527e+00 -1.385676e-01 2.241376e-01 -1.157458e-01 -4.708278e-01 3.976622e-03 -6.388332e-01 -5.325307e-02 2.048454e-01 -2.633273e-01 -4.121136e-01 -4.021765e-01 -2.748442e-01 9.165159e-02 -7.685661e-02
<VARIANCE> 39
 7.796560e+00 8.034580e+00 1.112230e+01 8.524682e+00 1.766121e+01 1.916383e+01 2.196951e+01 2.347702e+01 1.612492e+01 1.944869e+01 1.062755e+01 1.500441e+01 1.138307e+00 8.382316e-01 1.056508e+00 8.682953e-01 1.012793e+00 2.191437e+00 1.766358e+00 1.883203e+00 2.248465e+00 2.390447e+00 1.790082e+00 1.770557e+00 2.216592e+00 3.804355e-02 1.179080e-01 9.008289e-02 9.588745e-02 1.116081e-01 3.797696e-01 2.681830e-01 3.387949e-01 4.801524e-01 3.273685e-01 2.465358e-01 1.801783e-01 2.464472e-01 6.164321e-03
<GCONST> 8.158199e+01
<MIXTURE> 20 4.472866e-02
<MEAN> 39
 -5.691135e+00 -2.877277e+00 -8.451045e-01 -4.757315e-01 1.053977e+01 2.509271e+00 3.225034e+00 4.779421e+00 1.260643e+00 1.098775e+00 1.484846e+00 -9.295844e-01 1.815254e+01 -1.790451e+00 -2.476172e+00 -2.116783e-01 -1.084793e+00 2.241623e+00 -4.471111e-01 4.436083e-01 3.051082e-02 -8.567633e-02 -5.472849e-01 4.557676e-02 -4.903514e-01 5.396442e-03 2.493726e-02 7.086817e-02 -3.842770e-01 2.930480e-01 -4.974172e-01 1.262437e-01 7.211665e-02 -3.855997e-01 1.367043e-01 -1.834980e-03 1.319920e-01 2.695970e-01 8.387304e-02
<VARIANCE> 39
 5.680081e+00 7.724122e+00 1.145853e+01 1.052206e+01 9.060635e+00 2.175342e+01 1.766665e+01 1.437409e+01 2.122146e+01 1.579948e+01 1.591777e+01 1.999251e+01 1.068495e+00 7.819566e-01 1.063054e+00 1.210363e+00 9.452782e-01 1.900027e+00 1.771718e+00 2.321995e+00 2.161237e+00 1.899100e+00 1.598745e+00 2.158098e+00 2.025182e+00 6.870929e-02 9.079889e-02 7.389130e-02 1.451583e-01 1.530520e-01 1.997229e-01 2.330017e-01 3.434586e-01 2.943366e-01 3.603040e-01 3.292975e-01 3.049794e-01 2.309043e-01 9.184883e-03
<GCONST> 8.175449e+01
<STATE> 4
<NUMMIXES> 20
<MIXTURE> 1 6.358475e-02
<MEAN> 39
 -7.620811e+00 -2.241951e+00 -4.781714e+00 -5.612164e+00 1.012879e+01 9.065958e+00 -1.634880e+00 -3.872219e+00 2.852701e+00 2.534146e+00 4.254295e+00 -8.177676e-01 1.946297e+01 2.847345e-01 -1.036275e+00 4.106712e-02 5.273337e-01 5.167040e-01 2.179432e-01 1.080668e+00 -1.256039e-01 -4.961385e-01 2.262437e-01 -1.513564e+00 -5.081136e-01 1.503353e-01 8.079807e-01 1.491450e-01 -3.197941e-01 -4.247054e-01 -6.995119e-01 -5.005300e-01 5.964604e-01 5.878789e-01 -2.088276e-01 -1.132509e-01 -8.884257e-01 -3.457351e-01 1.435700e-01
<VARIANCE> 39
 1.189410e+01 1.795550e+01 9.056378e+00 2.757414e+01 2.888320e+01 2.851569e+01 2.231159e+01 2.355604e+01 2.889062e+01 2.739207e+01 2.958436e+01 1.789334e+01 5.804217e-01 6.509199e-01 6.577866e-01 1.056474e+00 1.134156e+00 1.281635e+00 1.709008e+00 2.121984e+00 2.579372e+00 1.583007e+00 2.118492e+00 3.872427e+00 1.879042e+00 2.959711e-02 1.173023e-01 1.137609e-01 3.418173e-01 2.662262e-01 4.376797e-01 2.650959e-01 3.801628e-01 3.530774e-01 3.675594e-01 3.735750e-01 4.143618e-01 2.060865e-01 6.025671e-03
<GCONST> 8.899886e+01
<MIXTURE> 2 4.797967e-02
<MEAN> 39
 -7.331345e+00 -9.239698e+00 -5.982605e+00 -3.948221e+00 5.040649e+00 6.589977e+00 5.969099e-01 -2.251630e+00 2.078519e+00 1.169640e+00 -1.631226e+00 -1.077040e+00 1.797472e+01 -1.322456e-01 -5.385464e-01 -5.107636e-01 6.844325e-02 6.436144e-01 6.346506e-01 6.229146e-01 -4.474227e-01 -1.563974e-01 -1.731991e-01 -8.176878e-01 -3.652037e-01 1.243224e-01 7.470799e-01 8.404878e-01 6.673744e-02 7.191532e-02 -1.800928e-01 -2.720841e-01 2.993864e-01 3.195568e-01 -2.192850e-02 -2.381608e-02 -1.179140e-01 -1.832547e-01 1.982685e-01
<VARIANCE> 39
 1.013491e+01 1.252353e+01 1.587340e+01 3.532888e+01 2.169643e+01 2.002598e+01 2.048325e+01 2.029448e+01 2.726555e+01 2.509766e+01 2.066975e+01 1.262212e+01 1.170527e+00 2.293311e-01 6.704481e-01 1.655676e+00 1.482022e+00 1.385635e+00 1.018486e+00 2.352882e+00 1.796389e+00 2.227120e+00 1.943627e+00 1.646957e+00 1.853647e+00 4.659766e-02 1.145910e-01 1.136737e-01 2.657245e-01 3.476508e-01 4.748282e-01 3.580354e-01 4.140183e-01 3.962957e-01 4.803047e-01 3.045560e-01 4.247752e-01 2.120586e-01 7.285155e-03
<GCONST> 8.797726e+01
<MIXTURE> 3 4.431356e-02
<MEAN> 39
 -3.872290e+00 -5.268600e+00 -5.326710e+00 -1.741649e+00 5.865664e+00 9.804710e+00 2.739973e+00 -1.976159e+00 -1.318420e+00 4.093458e+00 2.375254e+00 -3.689494e+00 1.898748e+01 -7.265621e-03 -2.014902e-01 -1.785403e-01 1.698314e-01 5.074092e-01 5.935395e-01 8.786771e-01 7.676399e-02 -3.374933e-01 2.215695e-01 -1.031894e-01 -5.588923e-01 1.430566e-01 5.497344e-01 3.977861e-01 -4.202308e-01 -2.740379e-01 -3.066026e-01 -5.314093e-01 3.774845e-02 2.443192e-01 6.971665e-02 -1.246351e-01 -3.530838e-01 -2.202942e-01 1.507704e-01
<VARIANCE> 39
 1.039296e+01 7.001343e+00 1.413118e+01 1.786304e+01 1.674194e+01 1.519481e+01 9.888958e+00 2.322069e+01 1.781498e+01 1.357911e+01 1.240374e+01 2.281704e+01 7.280735e-01 2.035443e-01 4.088830e-01 5.914848e-01 7.608573e-01 1.029883e+00 1.208500e+00 1.232442e+00 1.232197e+00 1.624830e+00 1.867399e+00 1.806108e+00 1.530256e+00 1.881635e-02 8.484756e-02 1.264392e-01 3.389598e-01 2.860904e-01 3.347497e-01 2.882432e-01 2.171935e-01 2.577828e-01 2.580466e-01 4.939923e-01 2.478767e-01 3.242932e-01 5.688426e-03
<GCONST> 7.695391e+01
<MIXTURE> 4 4.402201e-02
<MEAN> 39
 -8.921237e+00 -3.012730e+00 -9.358442e+00 2.418837e+00 1.194733e+01 -9.268901e-01 3.945678e+00 3.678062e-01 2.754534e+00 -1.792552e+00 5.607167e+00 4.511390e+00 1.877001e+01 -9.603002e-01 -1.016656e+00 -4.163077e-01 5.691551e-01 4.384577e-01 3.760895e-01 8.050534e-01 -1.091237e-01 3.292360e-02 -4.674604e-01 8.180377e-02 6.780545e-01 3.715244e-02 5.827761e-01 3.141365e-01 2.656190e-01 -1.008155e-01 -6.788705e-01 1.620691e-01 -2.430002e-01 -3.028775e-01 -6.259979e-01 -4.440689e-01 -9.716534e-01 -4.191037e-01 6.729052e-02
<VARIANCE> 39
 6.425574e+00 8.227047e+00 8.235716e+00 1.958310e+01 1.852754e+01 3.044614e+01 3.970864e+01 2.716675e+01 1.698766e+01 2.343276e+01 1.913240e+01 2.189145e+01 1.160293e+00 3.629433e-01 3.792453e-01 7.078511e-01 7.085773e-01 8.902720e-01 1.474538e+00 1.212879e+00 1.365798e+00 1.504374e+00 1.673442e+00 1.408889e+00 1.229561e+00 3.518879e-02 7.603060e-02 6.174322e-02 1.333411e-01 2.147243e-01 2.566704e-01 3.378142e-01 3.744477e-01 3.846934e-01 2.340653e-01 2.394422e-01 2.843637e-01 2.821121e-01 1.106308e-02
<GCONST> 7.924293e+01
<MIXTURE> 5 4.340821e-02
<MEAN> 39
 -5.357632e+00 -6.076082e+00 -7.035248e+00 1.251507e+00 1.170308e+01 3.954473e+00 6.464916e+00 4.335870e+00 -1.063169e+00 -2.687053e+00 -1.935585e+00 -6.258034e+00 2.001157e+01 3.812281e-02 -2.472925e-01 -7.715237e-01 -8.658998e-02 6.442506e-01 4.719899e-01 5.503317e-01 -1.038285e+00 -5.404845e-01 -4.251676e-01 6.405183e-01 -1.281679e+00 6.676435e-02 4.914456e-01 5.636187e-01 3.394249e-02 -3.687149e-01 -1.162805e+00 -8.555446e-01 -2.001818e-01 -2.421853e-01 2.216671e-01 3.873007e-01 -2.486472e-02 1.935351e-01 8.901123e-02
<VARIANCE> 39
 9.380669e+00 2.487408e+01 1.688240e+01 1.197250e+01 2.243985e+01 2.121619e+01 1.749501e+01 1.845381e+01 2.425397e+01 2.570930e+01 2.510392e+01 1.846576e+01 5.019137e-01 4.507630e-01 5.477927e-01 7.965205e-01 1.198647e+00 1.618167e+00 3.068565e+00 1.894347e+00 1.316711e+00 2.207050e+00 2.550210e+00 1.634564e+00 1.616536e+00 2.282617e-02 6.614396e-02 1.635871e-01 2.873419e-01 2.066244e-01 3.363572e-01 3.466696e-01 3.597560e-01 2.611543e-01 3.585054e-01 2.553369e-01 2.795436e-01 3.255068e-01 3.742468e-03
<GCONST> 8.401741e+01
<MIXTURE> 6 5.922508e-02
<MEAN> 39
 -1.077012e+01 -3.472197e+00 -3.048452e+00 -2.512432e+00 8.538311e+00 4.417669e+00 1.694029e+00 -4.393688e-01 -1.612319e+00 6.448028e+00 4.391634e+00 -5.123053e+00 1.920964e+01 -5.833156e-01 -5.971140e-01 1.289744e-01 4.829809e-01 1.142286e-01 2.907424e-01 1.017695e+00 -2.335751e-01 -2.449223e-01 2.594848e-01 6.461208e-02 -6.592479e-02 1.769665e-02 4.888764e-01 4.007913e-02 -3.744043e-01 3.895859e-04 1.065971e-01 5.492418e-02 1.391649e-01 1.196947e-01 1.268874e-01 -3.708607e-01 -2.329206e-01 4.530124e-02 6.562833e-02
<VARIANCE> 39
 7.956275e+00 7.015225e+00 1.307899e+01 1.816086e+01 9.791848e+00 1.323769e+01 2.749518e+01 2.844270e+01 1.655049e+01 1.647305e+01 2.118483e+01 1.244163e+01 9.809229e-01 4.316779e-01 3.158582e-01 1.065611e+00 7.577193e-01 9.697958e-01 1.742729e+00 1.839051e+00 1.446514e+00 1.361730e+00 1.599660e+00 1.313473e+00 1.172649e+00 5.050658e-02 8.244988e-02 6.706084e-02 1.228948e-01 1.798512e-01 1.544964e-01 3.406144e-01 3.738354e-01 2.878698e-01 2.798563e-01 4.274414e-01 3.334512e-01 3.016732e-01 9.754828e-03
<GCONST> 7.814722e+01
<MIXTURE> 7 5.055903e-02
<MEAN> 39
 -6.271151e+00 -8.278656e+00 -5.524524e+00 2.419053e+00 8.707211e+00 1.317494e+00 4.587763e+00 5.705078e-01 4.346383e-01 1.306316e+00 -2.529365e+00 8.934045e-01 1.862453e+01 -6.007685e-01 -4.687893e-01 -3.690190e-01 2.769794e-01 3.409578e-01 3.990370e-01 4.368240e-01 -3.764220e-01 3.082878e-01 5.528101e-01 5.729970e-01 5.996094e-02 8.311305e-02 2.517261e-01 1.953718e-01 -5.300752e-03 1.982152e-02 -4.489864e-01 1.746340e-01 1.644476e-01 1.061567e-02 -1.819984e-01 -1.899997e-01 -9.365223e-03 1.595522e-01 5.588904e-02
<VARIANCE> 39
 7.683661e+00 1.423926e+01 1.110176e+01 1.249849e+01 1.422702e+01 2.018656e+01 2.195803e+01 1.563493e+01 2.455418e+01 1.624866e+01 3.151919e+01 1.357082e+01 3.979917e-01 2.831792e-01 2.953301e-01 7.336408e-01 4.422534e-01 1.158492e+00 1.150104e+00 1.370707e+00 1.115179e+00 1.383770e+00 1.173576e+00 9.620633e-01 1.612790e+00 3.483311e-02 2.983092e-02 7.037147e-02 9.880141e-02 7.230058e-02 1.755911e-01 1.559228e-01 2.743298e-01 3.094857e-01 1.710893e-01 3.522502e-01 2.641307e-01 2.119999e-01 6.321372e-03
<GCONST> 7.067397e+01
<MIXTURE> 8 8.376984e-02
<MEAN> 39
 -7.383838e+00 -1.081653e+01 7.179397e-01 3.388694e+00 1.044877e+01 5.404278e+00 2.686876e+00 4.382325e+00 2.288521e+00 1.952893e+00 1.496495e+00 2.037776e+00 1.940156e+01 -8.971214e-01 -1.798294e+00 -5.109652e-01 -1.371804e-01 5.364313e-01 5.079367e-01 1.815564e-02 -4.587674e-01 -7.065306e-01 -5.264946e-01 -2.670235e-01 -2.252796e-02 8.259423e-02 6.792299e-01 6.510232e-01 -6.658826e-01 -2.211529e-01 -8.758249e-01 -2.542835e-01 -2.959182e-01 -4.806620e-01 -5.329032e-01 -5.255714e-01 -4.831840e-01 -2.366486e-01 4.150261e-02
<VARIANCE> 39
 7.805686e+00 1.273895e+01 9.794369e+00 1.513186e+01 2.094024e+01 1.979195e+01 2.559497e+01 2.461745e+01 2.881975e+01 1.815867e+01 3.214008e+01 1.719175e+01 8.095233e-01 8.623388e-01 1.863397e+00 9.338492e-01 1.319088e+00 1.521825e+00 1.706990e+00 1.891897e+00 2.094594e+00 1.645230e+00 1.551618e+00 2.059184e+00 1.276456e+00 5.981177e-02 1.099344e-01 2.534196e-01 2.180359e-01 2.506669e-01 3.895115e-01 3.623133e-01 4.205702e-01 4.655040e-01 4.128174e-01 2.630254e-01 4.006584e-01 3.104318e-01 1.019450e-02
<GCONST> 8.924616e+01
<MIXTURE> 9 5.155478e-02
<MEAN> 39
 -7.257230e+00 1.028969e+00 -9.906580e+00 -2.440086e+00 1.442966e+01 3.893133e+00 -5.754256e-01 8.814661e-01 5.652000e+00 2.654458e+00 2.011771e+00 -3.849987e+00 1.969114e+01 1.213146e-01 -1.016617e+00 -5.625413e-02 5.274346e-01 5.669671e-02 -2.517245e-02 9.753960e-01 -2.056367e-01 -4.247685e-01 -1.105477e+00 -1.276086e+00 -6.502784e-01 1.493479e-01 6.801040e-01 -1.293378e-01 -1.535382e-01 -2.664828e-01 -8.698259e-01 -3.168380e-01 3.676431e-01 -4.807290e-01 -5.960057e-01 -3.904161e-01 -3.912071e-01 -1.148962e-01 1.101669e-01
<VARIANCE> 39
 1.462836e+01 6.528930e+00 1.518905e+01 1.416987e+01 1.373915e+01 1.524233e+01 3.502687e+01 1.627063e+01 1.847686e+01 1.513139e+01 2.484679e+01 1.527019e+01 8.224146e-01 5.059769e-01 6.557798e-01 9.510869e-01 1.189268e+00 1.389335e+00 2.061723e+00 3.200361e+00 2.607986e+00 2.137854e+00 2.059706e+00 2.087638e+00 1.875061e+00 2.963582e-02 1.944154e-01 2.322620e-01 2.121475e-01 2.927878e-01 4.870076e-01 3.296461e-01 3.906132e-01 3.755354e-01 5.701777e-01 4.332678e-01 4.261391e-01 4.309775e-01 9.990679e-03
<GCONST> 8.887270e+01
<MIXTURE> 10 4.863647e-02
<MEAN> 39
 -7.288389e+00 -8.469357e+00 -6.360213e-01 -4.510495e+00 7.572631e+00 6.304918e+00 -1.369095e+00 2.458219e+00 4.202358e+00 1.344513e+00 3.829140e+00 -1.358730e+00 1.802906e+01 -1.130046e+00 -1.699435e+00 -6.852206e-01 -7.254590e-01 8.636637e-01 5.812336e-01 9.852551e-01 -1.523173e-01 -3.666308e-01 -5.875894e-01 -3.838220e-01 -4.502618e-01 9.564739e-02 5.164205e-01 7.133104e-01 -4.689166e-01 4.148004e-01 -4.055719e-01 -2.484846e-01 5.047980e-01 -2.071693e-01 -4.420328e-01 -2.075000e-01 -6.922921e-01 4.574863e-02 9.630251e-02
<VARIANCE> 39
 6.314397e+00 1.174382e+01 1.130201e+01 2.288998e+01 1.531378e+01 1.560089e+01 1.662737e+01 1.687500e+01 2.111600e+01 2.292987e+01 1.304980e+01 2.802153e+01 9.060382e-01 4.685218e-01 7.529759e-01 1.099192e+00 1.351136e+00 1.240434e+00 1.574612e+00 1.784405e+00 1.626443e+00 1.491396e+00 1.787002e+00 1.703693e+00 1.380047e+00 5.975557e-02 9.705314e-02 1.224722e-01 1.278027e-01 2.669461e-01 2.082693e-01 3.858111e-01 1.985226e-01 3.673996e-01 3.799396e-01 4.507085e-01 2.815851e-01 3.402307e-01 1.237656e-02
<GCONST> 8.329191e+01
<MIXTURE> 11 4.382502e-02
<MEAN> 39
 -8.261847e+00 -4.164970e+00 -7.959611e+00 1.356128e+00 1.095454e+01 8.040429e-01 1.820457e+00 -2.336353e-01 -5.079580e+00 -7.762950e+00 -5.182971e+00 -1.691756e+00 1.913542e+01 -1.206303e-01 -5.462068e-01 2.257508e-01 8.318119e-01 1.277721e-01 1.068975e-01 -3.608012e-01 -1.829596e-01 1.278223e-01 -1.860572e-01 -2.008483e-01 -1.908531e-01 3.632591e-02 7.229016e-01 3.685441e-01 -1.941873e-02 -6.010914e-01 -1.072772e+00 -1.403509e-01 -3.536027e-01 -4.056789e-01 -6.032717e-02 -1.835139e-01 -3.962702e-01 4.484048e-02 1.411910e-01
<VARIANCE> 39
 3.625780e+00 1.296259e+01 1.862629e+01 2.103580e+01 2.644200e+01 1.936782e+01 4.607911e+01 4.694135e+01 2.651414e+01 3.194391e+01 2.240614e+01 2.529683e+01 5.759040e-01 4.179142e-01 3.153387e-01 6.265959e-01 6.925885e-01 1.315209e+00 1.009603e+00 1.411112e+00 1.865279e+00 1.787811e+00 1.069271e+00 1.503040e+00 1.818358e+00 1.742149e-02 4.137507e-02 5.601210e-02 1.282782e-01 2.018786e-01 2.429644e-01 2.033634e-01 3.794914e-01 3.511244e-01 2.883938e-01 2.767191e-01 3.780394e-01 2.788512e-01 3.564459e-03
<GCONST> 7.878037e+01
<MIXTURE> 12 3.654450e-02
<MEAN> 39
 -1.015087e+01 -5.983002e+00 -1.860991e+00 -2.727998e+00 1.396878e+01 -1.817792e+00 -3.470037e+00 1.503916e+00 8.599648e+00 -1.217402e+00 1.894903e+00 2.749176e+00 1.865074e+01 -8.106974e-01 -1.196532e+00 -2.386829e-01 5.636851e-01 -1.449814e-01 4.535130e-01 5.864681e-01 -5.869961e-01 -2.515186e-01 -6.373269e-01 -1.355921e-02 5.061083e-01 9.942547e-02 8.849335e-01 4.846906e-01 -4.223006e-01 7.820077e-02 -8.777263e-01 4.681592e-01 -5.981872e-02 -3.286749e-01 -1.460113e+00 -5.838926e-01 -5.483655e-01 -3.576086e-01 1.229754e-01
<VARIANCE> 39
 8.263455e+00 8.916393e+00 1.822226e+01 7.928168e+00 1.551229e+01 1.978537e+01 3.215530e+01 2.685996e+01 1.218340e+01 2.882647e+01 2.501518e+01 1.912353e+01 7.572842e-01 9.627196e-01 6.350378e-01 1.447221e+00 9.503686e-01 1.881282e+00 1.341386e+00 1.531511e+00 2.940701e+00 2.531238e+00 1.993437e+00 1.959987e+00 1.468118e+00 4.395466e-02 1.274717e-01 8.449797e-02 3.429153e-01 1.957327e-01 4.098750e-01 1.497202e-01 3.663944e-01 3.926493e-01 3.655650e-01 3.208387e-01 3.412170e-01 3.294545e-01 7.169861e-03
<GCONST> 8.577117e+01
<MIXTURE> 13 6.465384e-02
<MEAN> 39
 -4.907195e+00 -7.986772e+00 -6.224047e+00 -1.406238e+00 9.423517e+00 7.540801e+00 -2.080225e-01 -6.159356e-02 4.417234e+00 1.078184e+00 4.970946e-01 -4.468811e-01 1.882822e+01 -3.139642e-01 -6.604233e-01 -1.073159e-01 -2.127839e-01 -6.332774e-01 -1.885759e-01 6.178738e-01 -5.342832e-01 -3.205033e-01 -2.001680e-01 -2.936068e-01 -2.257840e-01 -8.384261e-02 3.242736e-01 2.634445e-01 -4.992522e-02 7.950633e-02 -1.730933e-01 6.135867e-02 1.543308e-01 -1.143837e-01 -4.091325e-01 -2.175769e-01 -4.952249e-01 -1.309787e-02 6.005814e-02
<VARIANCE> 39
 1.031861e+01 1.814714e+01 1.209850e+01 2.005810e+01 2.251695e+01 3.714023e+01 1.547406e+01 2.418509e+01 3.125376e+01 3.074151e+01 1.769659e+01 1.184116e+01 7.009918e-01 2.405774e-01 4.340973e-01 5.517340e-01 8.168198e-01 8.420367e-01 1.186281e+00 1.959756e+00 1.265312e+00 1.331646e+00 1.263147e+00 1.186682e+00 1.607429e+00 3.080673e-02 6.690800e-02 7.745355e-02 8.110454e-02 1.457095e-01 3.294726e-01 2.104121e-01 3.194371e-01 2.697157e-01 2.813677e-01 2.801237e-01 2.365356e-01 2.486811e-01 5.622772e-03
<GCONST> 7.707331e+01
<MIXTURE> 14 5.240148e-02
<MEAN> 39
 -1.207069e+01 -4.633912e+00 -3.475787e+00 2.822706e-01 1.135652e+01 5.092787e+00 4.212552e+00 3.034359e+00 2.229478e+00 6.718475e+00 3.359638e+00 -5.961194e+00 1.909103e+01 -5.697960e-01 -7.903306e-01 -7.189525e-01 -1.082153e-01 1.518911e-01 5.141276e-01 6.786864e-01 -9.186650e-01 -5.015562e-01 2.320311e-01 -4.180976e-01 -5.931371e-01 -6.181154e-03 9.910468e-01 3.366537e-01 -3.798427e-01 -2.493010e-01 -5.547026e-01 -3.601597e-01 -2.104809e-01 -3.818689e-01 -2.595103e-01 -5.937199e-01 -4.901435e-01 1.496768e-01 1.167846e-01
<VARIANCE> 39
 6.448671e+00 9.646260e+00 1.237418e+01 2.038840e+01 1.174372e+01 1.424448e+01 1.868755e+01 1.289188e+01 2.078810e+01 1.990746e+01 1.572760e+01 1.090069e+01 7.553624e-01 9.358803e-01 8.585151e-01 9.342012e-01 8.225865e-01 1.294585e+00 1.125936e+00 1.604818e+00 1.816857e+00 1.887644e+00 1.628789e+00 1.360228e+00 1.082089e+00 4.218545e-02 1.217293e-01 1.423339e-01 2.980971e-01 2.686401e-01 2.820565e-01 2.836438e-01 3.449791e-01 2.782744e-01 2.520298e-01 2.686950e-01 2.782314e-01 2.010373e-01 1.540652e-02
<GCONST> 8.094205e+01
<MIXTURE> 15 4.620428e-02
<MEAN> 39
