~o
<STREAMINFO> 1 39
<VECSIZE> 39<NULLD><MFCC_E_D_A><DIAGC>
~s "silst"
<NUMMIXES> 36
<MIXTURE> 1 2.200037e-02
<MEAN> 39
 3.756210e+00 4.943299e+00 -1.920112e+00 1.110110e+00 8.658307e-01 6.491772e+00 6.698685e+00 3.261985e+00 1.813193e+00 3.585374e+00 3.107912e+00 2.518750e+00 2.130108e+01 1.645073e-02 3.322062e-01 5.547925e-01 8.729810e-01 9.561945e-01 9.907347e-01 7.629776e-01 5.393324e-01 3.390404e-01 1.876094e-01 9.045326e-02 8.977388e-02 3.738225e-01 -1.341184e-01 -2.186780e-01 -1.857387e-01 6.320979e-04 8.392213e-02 -1.433493e-01 -3.063910e-01 -9.626458e-02 5.454866e-02 -8.078984e-02 -1.947246e-01 -1.717119e-01 -1.105381e-01
<VARIANCE> 39
 2.786073e+00 2.168146e+00 4.680858e+00 5.552173e+00 6.790008e+00 6.251755e+00 6.765414e+00 8.092985e+00 8.239374e+00 9.874929e+00 8.007309e+00 7.025010e+00 1.090360e+00 2.309544e-01 3.001797e-01 3.826934e-01 5.805075e-01 6.942922e-01 9.160502e-01 1.035500e+00 1.089348e+00 1.152960e+00 1.355242e+00 1.319428e+00 1.075940e+00 4.598203e-02 3.056158e-02 4.201082e-02 6.978847e-02 9.882024e-02 1.290807e-01 1.755749e-01 1.659767e-01 1.603531e-01 1.718707e-01 2.254321e-01 1.860556e-01 1.674641e-01 5.814076e-03
<GCONST> 5.529682e+01
<MIXTURE> 2 2.154602e-02
<MEAN> 39
 2.478012e+00 5.256534e+00 2.637376e-01 5.360943e+00 3.966393e+00 7.022783e+00 5.405007e+00 2.717219e+00 3.131390e+00 4.075237e+00 2.209620e+00 1.518028e+00 2.175071e+01 -1.036919e-02 3.782580e-02 1.424107e-01 1.598805e-01 1.477667e-01 8.686148e-03 -8.801100e-02 1.207174e-01 -8.959786e-02 1.391301e-01 1.393136e-01 2.148816e-01 8.387411e-02 2.028944e-02 -2.349999e-01 -4.366400e-01 -5.483571e-01 -3.175716e-01 -1.748403e-01 -9.535981e-02 1.630688e-02 -3.859825e-02 -1.310944e-01 -4.853472e-02 1.962848e-02 -1.477717e-01
<VARIANCE> 39
 4.767489e+00 4.060312e+00 6.705102e+00 8.341170e+00 7.156066e+00 9.766587e+00 1.074389e+01 1.117232e+01 1.214592e+01 1.188372e+01 9.625586e+00 8.952451e+00 1.154668e+00 4.857201e-01 3.115466e-01 7.834912e-01 9.411448e-01 6.932022e-01 9.980854e-01 1.168465e+00 1.188220e+00 1.534100e+00 1.486022e+00 1.204079e+00 1.027350e+00 4.924030e-02 9.450541e-02 6.328508e-02 1.118436e-01 1.236078e-01 1.491569e-01 1.693859e-01 2.482611e-01 2.336794e-01 2.856700e-01 3.308731e-01 1.952934e-01 1.728713e-01 1.377653e-02
<GCONST> 6.710581e+01
<MIXTURE> 3 2.215654e-02
<MEAN> 39
 2.859759e+00 2.379227e+00 -5.264567e+00 -4.701811e-01 1.563489e+00 7.040165e+00 5.547496e+00 2.962532e+00 4.618317e+00 8.104948e+00 7.116045e+00 4.979949e+00 2.061984e+01 -7.412374e-02 1.378166e-02 2.025709e-01 2.212493e-01 2.673059e-01 1.937143e-01 1.776483e-01 2.383059e-01 1.888492e-01 2.560590e-01 2.504191e-01 2.444606e-01 1.338103e-01 2.344767e-02 8.643862e-02 1.372955e-01 1.653889e-01 2.268269e-02 -1.706444e-01 -1.445817e-01 -9.635755e-02 -3.431678e-01 -8.207545e-01 -9.057470e-01 -5.505590e-01 -7.557666e-02
<VARIANCE> 39
 2.463802e+00 2.104218e+00 4.254612e+00 4.567304e+00 6.376920e+00 5.919708e+00 5.784375e+00 7.029642e+00 7.032857e+00 6.001096e+00 5.563630e+00 7.977200e+00 8.347831e-01 1.028936e-01 2.128646e-01 3.043233e-01 4.722026e-01 7.253966e-01 8.692192e-01 8.249516e-01 8.482875e-01 1.082366e+00 1.187080e+00 1.171116e+00 1.157057e+00 2.885558e-02 1.769370e-02 3.543864e-02 4.969073e-02 8.344709e-02 1.299241e-01 1.349178e-01 1.436989e-01 1.599806e-01 1.612456e-01 1.080176e-01 1.220185e-01 1.742455e-01 5.430998e-03
<GCONST> 4.761712e+01
<MIXTURE> 4 2.033058e-02
<MEAN> 39
 1.689264e+00 4.084516e+00 -3.220577e+00 -4.621353e+00 -4.418575e+00 -2.537333e+00 -2.491783e+00 -6.978297e-01 -8.141902e-01 1.994304e+00 -1.099203e+00 -5.142925e-01 2.098874e+01 -6.793571e-01 4.790698e-01 2.415620e-01 1.806059e+00 9.197929e-01 9.849298e-02 9.842626e-01 1.227324e-01 1.170619e-01 -4.347591e-01 5.004642e-02 1.270090e-01 -2.259567e-01 -2.883971e-01 -1.438667e-02 -1.528194e-01 -1.421573e-01 1.196130e-01 3.317622e-01 7.515382e-02 -1.903579e-02 3.573840e-02 -2.157471e-02 1.398994e-01 1.277733e-02 2.876164e-03
<VARIANCE> 39
 2.380904e+01 2.790624e+01 3.544913e+01 3.599808e+01 5.298913e+01 5.750600e+01 5.215067e+01 4.247560e+01 3.693853e+01 4.098098e+01 3.956876e+01 3.187328e+01 1.257234e+00 1.916197e+00 2.454735e+00 3.078307e+00 2.605742e+00 5.233264e+00 3.992969e+00 3.760696e+00 3.709533e+00 3.516162e+00 3.287252e+00 3.322965e+00 2.498868e+00 4.991391e-02 2.128094e-01 2.399810e-01 2.631749e-01 4.038802e-01 5.007246e-01 5.610356e-01 5.572907e-01 5.293999e-01 4.807931e-01 4.992082e-01 4.303624e-01 3.890235e-01 9.118301e-03
<GCONST> 1.109978e+02
<MIXTURE> 5 2.060011e-02
<MEAN> 39
 2.696802e+00 3.692214e+00 -9.244230e-01 3.997187e+00 4.281784e+00 8.958614e+00 7.543932e+00 5.117795e+00 3.814655e+00 5.170707e+00 4.047915e+00 3.098786e+00 2.199991e+01 -6.221900e-02 -2.502184e-01 -2.883868e-01 7.549954e-02 1.453771e-01 9.419039e-02 -1.481959e-01 -2.080054e-01 -1.392542e-01 -1.721846e-01 6.485933e-02 2.034299e-01 -6.874576e-02 7.620292e-02 6.567438e-02 -1.484845e-01 -2.107723e-01 -2.409223e-01 -3.041655e-01 -1.829529e-01 -1.578511e-01 -8.599715e-02 -1.479595e-01 -1.432318e-01 -1.053770e-02 -5.567222e-02
<VARIANCE> 39
 2.110063e+00 2.299873e+00 2.624632e+00 4.214222e+00 5.906653e+00 5.127314e+00 6.370242e+00 8.665063e+00 1.051259e+01 8.120008e+00 8.182239e+00 9.152506e+00 7.828770e-01 1.018950e-01 1.974642e-01 3.621736e-01 5.230811e-01 5.434812e-01 5.824194e-01 7.889040e-01 9.531337e-01 1.030608e+00 1.116879e+00 1.003544e+00 1.006868e+00 3.071119e-02 1.418402e-02 3.764292e-02 5.820569e-02 9.156320e-02 1.023436e-01 1.178677e-01 1.410351e-01 1.903478e-01 2.282763e-01 1.897427e-01 1.715759e-01 1.990212e-01 4.995961e-03
<GCONST> 4.864225e+01
<MIXTURE> 6 1.989477e-02
<MEAN> 39
 3.688786e+00 3.587824e+00 -2.438007e+00 1.492724e+00 5.902230e-01 5.461792e+00 6.138625e+00 3.112101e+00 3.525343e+00 4.630291e+00 2.865274e+00 3.287836e+00 2.143293e+01 -1.183479e-02 7.383662e-03 -2.534793e-02 -5.033490e-02 -1.470255e-03 -6.241204e-02 8.176316e-02 1.900013e-01 1.076806e-01 6.987644e-02 -1.432995e-01 -1.794577e-01 -1.591852e-02 -4.070170e-02 -1.121731e-02 -2.721440e-02 8.022621e-02 2.711148e-01 1.879063e-01 -1.570151e-02 6.683065e-02 -8.859140e-02 -1.075761e-01 -3.818101e-02 -1.522545e-01 -1.100043e-02
<VARIANCE> 39
 1.671792e+00 1.952862e+00 3.518917e+00 3.841679e+00 4.276174e+00 4.346364e+00 4.267710e+00 6.160310e+00 4.645840e+00 6.105734e+00 5.987692e+00 6.921012e+00 5.636734e-01 1.117136e-01 2.354826e-01 3.644381e-01 4.817103e-01 6.069205e-01 6.427464e-01 7.483902e-01 9.280979e-01 9.624101e-01 1.089943e+00 1.243570e+00 1.300542e+00 2.056275e-02 1.760245e-02 3.188110e-02 6.304138e-02 7.241601e-02 6.716974e-02 8.298221e-02 9.555111e-02 1.197647e-01 1.223771e-01 1.365996e-01 1.340216e-01 1.514715e-01 3.797238e-03
<GCONST> 4.201632e+01
<MIXTURE> 7 2.073000e-02
<MEAN> 39
 3.135114e+00 2.804731e+00 -4.444596e+00 1.304160e+00 4.309597e+00 9.297744e+00 7.663560e+00 4.459316e+00 3.555245e+00 3.701772e+00 1.626923e+00 8.872536e-01 2.072439e+01 1.087831e-01 1.552668e-01 3.007914e-01 4.336697e-01 6.516302e-01 8.285376e-01 8.418542e-01 6.739778e-01 5.197414e-01 6.308727e-01 4.944261e-01 3.227215e-01 3.754803e-01 -5.492910e-02 -3.489858e-02 -4.768024e-02 -2.076908e-01 -4.905030e-01 -6.772432e-01 -6.369371e-01 -4.505833e-01 -3.070682e-01 -2.074143e-01 -5.989659e-02 3.212483e-02 -1.519229e-01
<VARIANCE> 39
 2.632313e+00 2.052043e+00 3.880520e+00 4.537868e+00 4.603710e+00 5.076274e+00 7.375759e+00 8.448998e+00 9.809625e+00 9.069140e+00 6.818826e+00 7.375020e+00 8.761203e-01 1.535369e-01 2.431577e-01 3.318667e-01 5.198323e-01 5.833082e-01 7.359386e-01 8.673934e-01 8.603021e-01 1.218961e+00 9.904994e-01 9.098721e-01 1.052274e+00 2.388152e-02 1.998682e-02 3.366733e-02 5.768016e-02 7.039848e-02 8.095381e-02 1.049979e-01 1.423186e-01 1.956450e-01 1.968702e-01 1.861196e-01 1.714813e-01 1.770315e-01 6.248031e-03
<GCONST> 4.898064e+01
<MIXTURE> 8 3.206244e-02
<MEAN> 39
 3.864408e+00 3.394082e+00 -4.713725e+00 1.845676e-01 3.041434e+00 8.708315e+00 6.776998e+00 2.926435e+00 1.844376e+00 2.571562e+00 3.854939e+00 4.432300e+00 2.097496e+01 -5.098450e-02 -4.303977e-02 2.374664e-02 7.091363e-02 9.417763e-02 1.245030e-01 2.252333e-01 2.980640e-01 2.118635e-01 1.618865e-01 -3.757626e-02 -4.432251e-02 7.722948e-02 -7.761448e-02 -6.806730e-02 4.994759e-02 4.927045e-03 -2.413387e-01 -4.644927e-01 -3.502292e-01 -1.036072e-01 6.562018e-02 5.232832e-02 -3.530838e-01 -5.064744e-01 -1.125435e-01
<VARIANCE> 39
 1.857506e+00 1.676196e+00 2.814790e+00 3.705316e+00 4.225557e+00 4.358749e+00 5.855013e+00 6.694101e+00 5.886265e+00 5.579418e+00 5.717627e+00 5.403544e+00 5.522667e-01 9.872134e-02 1.903925e-01 3.925153e-01 5.746608e-01 7.072994e-01 8.316846e-01 9.309954e-01 1.008735e+00 1.066921e+00 1.018004e+00 9.462771e-01 1.092646e+00 3.191632e-02 1.968880e-02 3.299148e-02 5.623821e-02 7.516351e-02 9.206502e-02 1.006946e-01 1.368895e-01 1.402861e-01 1.433534e-01 1.279239e-01 1.233207e-01 1.262942e-01 5.517016e-03
<GCONST> 4.388292e+01
<MIXTURE> 9 3.388225e-02
<MEAN> 39
 3.609890e+00 3.060457e+00 -4.291440e+00 2.210198e+00 4.154408e+00 6.285071e+00 2.800920e+00 7.805479e-01 2.969866e+00 5.068000e+00 4.300254e+00 3.509783e+00 2.077299e+01 9.276547e-02 1.710878e-01 1.109374e-01 1.394317e-01 1.716420e-01 5.700297e-02 -1.100436e-01 -4.164286e-01 -5.548131e-01 -4.844900e-01 -2.436409e-01 -1.434594e-01 2.671101e-02 -3.872810e-02 -3.882840e-02 -6.321509e-02 -2.782355e-01 -3.680806e-01 -1.031851e-01 2.106106e-01 2.013876e-01 -1.184021e-01 -3.620484e-01 -4.848574e-01 -3.888091e-01 -9.813908e-02
<VARIANCE> 39
 1.656060e+00 1.679814e+00 3.757725e+00 4.457264e+00 4.352762e+00 5.178827e+00 5.340735e+00 6.585321e+00 5.689216e+00 6.181066e+00 6.692732e+00 5.766141e+00 6.522285e-01 8.653144e-02 1.620764e-01 3.049504e-01 4.691636e-01 6.755869e-01 9.014427e-01 8.722305e-01 1.009108e+00 9.623694e-01 9.279609e-01 1.046940e+00 1.158712e+00 2.521464e-02 1.406754e-02 2.696666e-02 5.002174e-02 6.748823e-02 8.788146e-02 1.126453e-01 1.182165e-01 1.488573e-01 1.377483e-01 1.236207e-01 1.386741e-01 1.440108e-01 5.145620e-03
<GCONST> 4.306541e+01
<MIXTURE> 10 2.866226e-02
<MEAN> 39
 4.003085e+00 4.142054e+00 -2.315310e+00 2.482239e+00 1.625332e+00 4.946081e+00 5.901829e+00 4.345139e+00 1.733206e+00 6.806891e-01 1.584864e-01 1.288408e+00 2.095104e+01 -3.021631e-02 -5.221146e-02 -1.100375e-01 -1.290508e-01 -1.504467e-01 -7.633689e-02 7.457671e-02 3.794566e-01 4.222905e-01 3.679050e-01 3.387308e-01 2.438195e-01 3.989538e-02 -1.034535e-01 -1.517225e-01 -1.942460e-01 -2.070352e-01 2.207546e-02 1.182281e-01 -1.782914e-01 -2.447926e-01 1.325977e-01 3.928377e-01 2.419611e-01 1.403873e-02 -5.355041e-02
<VARIANCE> 39
 1.875726e+00 2.099907e+00 4.452936e+00 4.856442e+00 4.505050e+00 6.316653e+00 7.658180e+00 5.600513e+00 5.401224e+00 6.709888e+00 6.161541e+00 6.066875e+00 6.463515e-01 1.098235e-01 2.080561e-01 3.714184e-01 5.453087e-01 6.656277e-01 8.094960e-01 8.442982e-01 1.025418e+00 9.991869e-01 9.963219e-01 9.871499e-01 9.194615e-01 3.158653e-02 2.432581e-02 4.161168e-02 6.284706e-02 7.625172e-02 9.031788e-02 1.019387e-01 1.622300e-01 1.318846e-01 1.301315e-01 1.424301e-01 1.285415e-01 1.287135e-01 4.665569e-03
<GCONST> 4.608329e+01
<MIXTURE> 11 3.496747e-02
<MEAN> 39
 2.690326e+00 3.474101e+00 -2.184649e+00 2.691063e+00 2.390762e+00 5.681207e+00 4.947087e+00 3.698117e+00 3.870807e+00 5.832633e+00 5.021512e+00 3.743682e+00 2.087913e+01 5.685969e-02 3.775575e-02 7.526109e-02 1.612509e-01 2.295398e-01 4.081765e-01 5.197248e-01 5.576209e-01 4.734465e-01 3.681725e-01 2.505501e-01 1.382840e-01 2.220678e-01 -4.066616e-02 -1.250415e-01 -3.080913e-01 -3.560454e-01 -2.370184e-01 -1.486852e-01 -1.863022e-01 -2.647560e-01 -3.557915e-01 -5.574550e-01 -5.881726e-01 -4.062618e-01 -1.898753e-01
<VARIANCE> 39
 2.587858e+00 2.202473e+00 4.266518e+00 4.838023e+00 5.864261e+00 6.445661e+00 7.252460e+00 7.172692e+00 7.635933e+00 6.976072e+00 6.222123e+00 7.971978e+00 9.974837e-01 1.053615e-01 1.942648e-01 3.454578e-01 5.186806e-01 7.027950e-01 8.343971e-01 9.014716e-01 1.003945e+00 1.150917e+00 9.454599e-01 1.067752e+00 1.071709e+00 3.628029e-02 1.832413e-02 3.298794e-02 4.919053e-02 7.433385e-02 9.526806e-02 1.312873e-01 1.436685e-01 1.504574e-01 1.779964e-01 1.446914e-01 1.307256e-01 1.963631e-01 4.755245e-03
<GCONST> 4.865851e+01
<MIXTURE> 12 1.466648e-02
<MEAN> 39
 2.634697e+00 3.474104e+00 -2.723020e+00 1.433265e+00 1.124452e+00 6.596247e+00 9.582091e+00 8.209152e+00 5.859766e+00 3.053958e+00 -8.521180e-01 -4.911747e-01 2.102108e+01 -2.784035e-02 1.495767e-02 3.779706e-02 -1.218434e-01 -1.575057e-02 7.798626e-02 8.817177e-02 9.658802e-02 4.879777e-02 -9.656452e-02 -6.785472e-02 -1.177621e-01 2.812148e-03 -4.087794e-04 -1.660654e-02 -6.985489e-02 -5.278133e-03 1.052393e-01 -9.670187e-02 -7.541142e-01 -8.235810e-01 -5.128076e-01 2.669271e-02 4.411851e-01 3.683949e-01 -7.026097e-02
<VARIANCE> 39
 4.038234e+00 3.641233e+00 7.414438e+00 1.071458e+01 1.182300e+01 1.141028e+01 8.202190e+00 9.528791e+00 9.610092e+00 9.658498e+00 7.907207e+00 1.028138e+01 1.072035e+00 2.333037e-01 3.289243e-01 4.161965e-01 7.348155e-01 9.468828e-01 7.748696e-01 1.363127e+00 1.658905e+00 1.438942e+00 1.221308e+00 1.441287e+00 1.400966e+00 4.235141e-02 4.995522e-02 5.398987e-02 1.202523e-01 1.738483e-01 2.243264e-01 2.306687e-01 1.950447e-01 2.590752e-01 2.328235e-01 2.340354e-01 1.845978e-01 2.462222e-01 7.055386e-03
<GCONST> 6.517624e+01
<MIXTURE> 13 3.129232e-02
<MEAN> 39
 2.423890e+00 2.332673e+00 -4.062618e+00 6.781583e-01 1.461540e+00 6.326869e+00 7.017934e+00 7.039587e+00 7.404573e+00 7.281340e+00 3.825811e+00 2.160622e+00 2.063270e+01 7.201045e-02 1.080491e-01 1.503197e-01 2.167231e-01 2.105493e-01 6.691077e-02 1.017807e-02 -7.449722e-02 -8.169910e-02 -1.375196e-01 -2.072560e-01 -7.734510e-02 8.345639e-02 2.774994e-02 5.749597e-02 -2.591438e-02 -2.004006e-02 -1.081020e-02 -1.600337e-01 -4.646555e-01 -7.723647e-01 -8.403789e-01 -7.250829e-01 -3.766451e-01 -1.542117e-01 -1.265267e-01
<VARIANCE> 39
 2.599884e+00 2.179558e+00 4.400982e+00 4.937611e+00 6.710700e+00 7.917708e+00 7.420424e+00 6.994321e+00 7.153438e+00 7.785629e+00 5.686055e+00 8.100195e+00 8.894769e-01 1.194566e-01 2.300432e-01 4.520150e-01 5.226429e-01 7.006025e-01 7.393646e-01 9.588854e-01 1.109164e+00 1.236483e+00 1.212144e+00 1.096405e+00 1.050491e+00 3.835822e-02 2.716096e-02 3.456193e-02 7.431027e-02 8.500941e-02 1.342163e-01 1.545350e-01 1.488428e-01 1.562859e-01 1.871148e-01 1.562268e-01 1.400920e-01 1.877003e-01 8.082903e-03
<GCONST> 5.213622e+01
<MIXTURE> 14 1.968748e-02
<MEAN> 39
 4.206824e+00 4.125408e+00 -4.837851e+00 -1.406277e-01 2.581526e+00 7.619941e+00 5.854371e+00 4.908537e+00 5.967059e+00 4.187859e+00 2.098062e+00 2.218649e+00 2.112880e+01 1.242334e-02 1.469834e-02 4.447285e-03 3.526193e-02 1.726065e-01 3.059101e-01 3.512501e-01 5.000724e-01 4.949415e-01 5.542353e-01 4.428645e-01 3.772618e-01 1.737419e-01 -1.249731e-01 -1.806976e-01 8.674327e-02 1.187702e-01 -8.410390e-02 -2.099206e-01 -1.496897e-01 -4.266007e-01 -6.167480e-01 -1.916959e-01 -6.245842e-02 -1.484504e-01 -1.055597e-01
<VARIANCE> 39
 1.526769e+00 1.525483e+00 3.265148e+00 3.655314e+00 4.065542e+00 5.388175e+00 6.592452e+00 7.075729e+00 5.849592e+00 7.730578e+00 6.032663e+00 6.525719e+00 6.704218e-01 1.328750e-01 2.152422e-01 3.603795e-01 4.859663e-01 6.514643e-01 7.910534e-01 9.471040e-01 1.078487e+00 1.245978e+00 9.859143e-01 1.088563e+00 1.284683e+00 2.537402e-02 1.345744e-02 2.309539e-02 4.752300e-02 6.150013e-02 8.946162e-02 9.492293e-02 1.603182e-01 2.000272e-01 1.332113e-01 1.588255e-01 1.301767e-01 1.330210e-01 4.039512e-03
<GCONST> 4.440133e+01
<MIXTURE> 15 2.797003e-02
<MEAN> 39
 3.937935e+00 3.946594e+00 -3.511144e+00 1.783238e+00 3.051566e+00 5.918949e+00 2.957184e+00 -3.978256e-01 3.146873e-01 3.086302e+00 4.619005e+00 5.256963e+00 2.089660e+01 -1.145088e-01 -1.925359e-01 -1.216145e-01 -1.628348e-01 -2.004459e-01 -1.639983e-01 -2.243066e-01 -2.773851e-01 -1.635269e-01 1.509362e-01 2.525809e-01 1.667925e-01 -7.358340e-02 -1.047539e-01 -1.648082e-01 -1.320312e-01 -1.562929e-01 -1.504940e-01 1.371918e-02 2.854532e-01 4.572757e-01 3.712240e-01 1.474013e-02 -4.636668e-01 -6.264763e-01 -7.665848e-02
<VARIANCE> 39
 1.765417e+00 1.886518e+00 4.620492e+00 5.920262e+00 5.307889e+00 6.458795e+00 5.402633e+00 7.412597e+00 6.706557e+00 7.019246e+00 7.432146e+00 6.253968e+00 6.827719e-01 1.271696e-01 2.073260e-01 3.785612e-01 5.968431e-01 7.933560e-01 7.931870e-01 9.899617e-01 1.189355e+00 1.230314e+00 1.108316e+00 9.604029e-01 1.115911e+00 2.971304e-02 2.052432e-02 3.767894e-02 6.595472e-02 1.069138e-01 1.186721e-01 1.353481e-01 1.291068e-01 1.509144e-01 1.537509e-01 1.566596e-01 1.623458e-01 1.569452e-01 6.026803e-03
<GCONST> 4.946698e+01
<MIXTURE> 16 3.471957e-02
<MEAN> 39
 3.322673e+00 3.212844e+00 -3.229844e+00 2.413979e+00 3.514920e+00 7.222984e+00 5.834657e+00 2.693591e+00 5.767176e-01 2.559671e-01 9.248622e-01 2.287928e+00 2.067506e+01 8.163977e-02 1.134340e-01 -3.742750e-02 -1.955680e-01 -3.026689e-01 -4.334143e-01 -4.861240e-01 -4.364938e-01 -3.409133e-01 -4.233820e-01 -4.031542e-01 -1.901780e-01 -1.021159e-01 -2.549415e-02 -5.991652e-02 -1.665632e-01 -3.017424e-01 -3.201590e-01 -2.417155e-01 -2.066644e-01 -7.167488e-02 2.501239e-01 4.123139e-01 1.051855e-01 -1.491097e-01 -8.094411e-02
<VARIANCE> 39
 1.770050e+00 1.527506e+00 3.045033e+00 3.495937e+00 4.378486e+00 5.352490e+00 6.308106e+00 6.763071e+00 6.439020e+00 4.759781e+00 5.167223e+00 5.835403e+00 6.752850e-01 8.216497e-02 1.736465e-01 3.047170e-01 5.022936e-01 6.364170e-01 7.625371e-01 8.820349e-01 8.836105e-01 9.818493e-01 8.765255e-01 1.030970e+00 1.092456e+00 2.661275e-02 1.501798e-02 2.397382e-02 4.606564e-02 6.443364e-02 8.787852e-02 9.909969e-02 1.336566e-01 1.296965e-01 1.378095e-01 1.095388e-01 1.336582e-01 1.433219e-01 4.999137e-03
<GCONST> 4.162970e+01
<MIXTURE> 17 3.352713e-02
<MEAN> 39
 3.145499e+00 2.465520e+00 -5.226650e+00 2.957994e-01 3.320164e+00 8.823241e+00 7.270954e+00 3.353037e+00 1.847567e+00 2.069897e+00 -2.409753e-01 -4.555366e-01 2.027822e+01 -1.607639e-01 -3.363611e-01 -4.896819e-01 -5.640654e-01 -6.021398e-01 -5.675063e-01 -4.603308e-01 -4.787121e-01 -4.776588e-01 -4.658551e-01 -3.545800e-01 -3.047441e-01 -3.388910e-01 -1.555644e-02 5.854959e-02 1.030824e-01 3.908680e-03 -2.591275e-01 -5.211535e-01 -4.935923e-01 -2.094278e-01 6.067388e-02 1.320810e-01 2.702794e-01 2.784291e-01 -3.989862e-02
<VARIANCE> 39
 2.235589e+00 2.269289e+00 3.898113e+00 4.284961e+00 5.522093e+00 6.237726e+00 6.885749e+00 6.582816e+00 7.118818e+00 8.398729e+00 5.580665e+00 8.946862e+00 9.091408e-01 1.140722e-01 2.362944e-01 3.473753e-01 4.688627e-01 6.227558e-01 8.330016e-01 1.018369e+00 1.252660e+00 1.298699e+00 1.092060e+00 1.139300e+00 1.036795e+00 3.099409e-02 1.870508e-02 3.455368e-02 5.723800e-02 7.878189e-02 1.126998e-01 1.247231e-01 1.496439e-01 1.428571e-01 1.525674e-01 2.001220e-01 1.348916e-01 1.724012e-01 6.689029e-03
<GCONST> 4.946362e+01
<MIXTURE> 18 1.962413e-02
<MEAN> 39
 2.896038e+00 3.721099e+00 -2.807553e+00 2.468501e+00 2.480497e+00 5.934614e+00 6.029541e+00 4.890027e+00 4.240556e+00 5.336992e+00 4.734712e+00 3.762351e+00 2.128188e+01 -1.685202e-01 -3.341417e-01 -4.528554e-01 -5.811955e-01 -6.436177e-01 -9.350611e-01 -9.840797e-01 -1.064114e+00 -1.070788e+00 -8.186672e-01 -4.770676e-01 -3.141607e-01 -4.059917e-01 -6.879161e-02 -1.341736e-01 -1.407333e-01 -2.129079e-01 -1.424191e-01 -6.838188e-02 -2.386618e-01 -3.924054e-01 -3.463135e-01 -3.414168e-01 -4.035364e-01 -3.040799e-01 -1.783765e-01
<VARIANCE> 39
 2.912199e+00 2.319478e+00 4.639609e+00 6.647983e+00 6.896526e+00 7.315718e+00 8.373567e+00 7.434511e+00 7.413665e+00 8.530406e+00 6.673314e+00 7.043813e+00 1.027347e+00 1.154541e-01 2.688996e-01 4.362642e-01 5.546111e-01 7.343490e-01 7.521682e-01 9.742334e-01 1.082582e+00 1.068439e+00 8.755628e-01 1.031561e+00 1.084276e+00 4.016438e-02 4.678692e-02 4.945096e-02 8.329335e-02 1.053091e-01 1.090049e-01 1.430345e-01 2.043219e-01 1.965041e-01 1.974595e-01 1.855747e-01 1.254315e-01 1.473740e-01 9.322310e-03
<GCONST> 5.433778e+01
<MIXTURE> 19 2.321279e-02
<MEAN> 39
 3.226934e+00 3.127929e+00 -3.641613e+00 1.677781e+00 1.817354e+00 5.509620e+00 5.507164e+00 4.901123e+00 5.096095e+00 3.821358e+00 -3.072408e-01 -5.620736e-01 2.042874e+01 2.125177e-01 3.431184e-01 3.649733e-01 3.995791e-01 5.171167e-01 6.198074e-01 5.957866e-01 5.871909e-01 4.955124e-01 3.926485e-01 2.035119e-01 1.150158e-01 3.481700e-01 -6.172081e-02 -7.555034e-02 -1.550203e-01 -2.463824e-01 -1.315171e-01 -1.159564e-01 -3.202177e-01 -5.238606e-01 -5.431802e-01 -2.266893e-01 2.702421e-01 2.832267e-01 -1.049122e-01
<VARIANCE> 39
 2.273090e+00 1.921266e+00 3.954543e+00 3.976749e+00 4.671865e+00 5.497723e+00 5.804576e+00 5.917104e+00 6.025503e+00 6.478479e+00 5.621776e+00 6.318758e+00 7.484349e-01 7.757513e-02 1.656731e-01 2.857944e-01 5.078589e-01 6.896306e-01 7.980244e-01 8.349845e-01 8.785900e-01 9.829020e-01 1.049956e+00 1.134307e+00 1.190418e+00 3.087123e-02 1.733115e-02 2.701285e-02 5.031222e-02 7.397623e-02 7.768077e-02 9.664143e-02 1.151983e-01 1.367144e-01 1.293501e-01 1.617472e-01 1.222111e-01 1.353046e-01 5.625258e-03
<GCONST> 4.384379e+01
<MIXTURE> 20 2.834964e-02
<MEAN> 39
 3.180869e+00 3.553839e+00 -3.447152e+00 2.227333e+00 4.179337e+00 8.613344e+00 6.347826e+00 3.142841e+00 2.581872e+00 4.007618e+00 3.853487e+00 3.726108e+00 2.110092e+01 2.294479e-02 -6.105540e-02 -2.673101e-01 -3.617600e-01 -4.167794e-01 -3.639596e-01 -3.155480e-01 -1.112210e-01 -2.861500e-02 -1.794975e-01 -2.608922e-01 -1.891025e-01 -8.956909e-02 -7.668022e-02 -1.287422e-01 -1.801792e-01 -3.518685e-01 -5.131319e-01 -5.923701e-01 -4.262034e-01 -2.496838e-01 -1.822530e-01 -2.757779e-01 -4.187185e-01 -4.289530e-01 -2.286425e-01
<VARIANCE> 39
 2.449455e+00 1.919521e+00 3.312217e+00 4.762390e+00 5.414035e+00 6.461629e+00 7.082866e+00 8.599823e+00 7.884343e+00 7.280159e+00 5.581050e+00 7.245588e+00 9.450514e-01 9.758566e-02 1.700110e-01 3.539321e-01 5.624330e-01 6.303186e-01 8.162383e-01 1.043475e+00 1.133384e+00 1.176741e+00 1.137313e+00 1.030202e+00 1.210316e+00 3.500681e-02 1.715532e-02 3.182650e-02 5.017370e-02 8.105965e-02 9.864382e-02 1.146061e-01 1.374448e-01 1.857545e-01 1.932239e-01 1.864428e-01 1.384550e-01 1.590514e-01 3.901707e-03
<GCONST> 4.843737e+01
<MIXTURE> 21 2.915762e-02
<MEAN> 39
 3.559226e+00 3.875303e+00 -3.531952e+00 7.131609e-01 3.949937e-01 3.032020e+00 3.336903e+00 5.336810e+00 7.015530e+00 4.860493e+00 1.264254e+00 7.680025e-01 2.056639e+01 -6.897172e-02 -7.978448e-02 -1.388694e-01 -7.296100e-02 -1.560590e-02 -7.093850e-02 -2.103390e-01 -1.969471e-01 1.482724e-02 3.303670e-03 -2.680301e-02 -4.626288e-02 -7.281820e-02 -8.461472e-02 -1.617662e-01 -1.395812e-01 -2.019517e-02 1.731537e-01 3.425328e-01 1.325320e-01 -4.785672e-01 -7.470595e-01 -3.203861e-01 2.155456e-02 5.146101e-02 -8.619320e-02
<VARIANCE> 39
 2.187824e+00 1.821967e+00 3.541714e+00 4.816481e+00 5.088341e+00 5.775516e+00 6.352624e+00 6.588924e+00 5.538081e+00 7.224518e+00 6.612876e+00 7.094635e+00 7.834445e-01 1.046870e-01 1.838976e-01 2.924843e-01 4.814708e-01 5.865362e-01 7.703725e-01 1.008382e+00 1.053184e+00 1.215750e+00 9.827182e-01 1.062386e+00 1.044808e+00 2.689989e-02 1.827485e-02 3.379597e-02 5.080044e-02 8.355150e-02 9.827246e-02 1.087311e-01 1.153177e-01 1.455168e-01 1.266120e-01 1.652068e-01 1.251133e-01 1.563642e-01 6.402564e-03
<GCONST> 4.599638e+01
<MIXTURE> 22 2.397555e-02
<MEAN> 39
 2.069782e+00 1.732425e+00 -5.327532e+00 -2.524073e-01 1.654951e+00 7.117219e+00 6.690911e+00 5.646041e+00 6.132989e+00 7.089869e+00 4.926670e+00 3.573639e+00 2.035009e+01 -1.349526e-01 -3.042378e-01 -4.269846e-01 -6.088295e-01 -6.612900e-01 -5.905119e-01 -2.787918e-01 -1.413168e-01 -5.014230e-02 -1.553123e-01 -3.007537e-01 -3.778159e-01 -2.256505e-01 3.569218e-02 1.225481e-01 1.307020e-01 9.709926e-02 -5.280331e-02 -2.956709e-01 -4.432067e-01 -6.007054e-01 -6.706119e-01 -7.040274e-01 -5.548634e-01 -3.568748e-01 -1.225057e-01
<VARIANCE> 39
 2.834331e+00 2.565580e+00 4.441545e+00 5.652121e+00 6.322134e+00 7.742212e+00 8.123696e+00 7.735718e+00 7.560013e+00 7.718977e+00 6.540492e+00 8.215469e+00 1.090571e+00 1.077300e-01 2.172460e-01 3.049239e-01 4.204917e-01 5.262676e-01 7.418299e-01 1.041044e+00 1.095143e+00 1.201982e+00 1.203847e+00 1.106552e+00 1.028179e+00 3.353220e-02 2.303953e-02 3.383008e-02 5.707007e-02 8.377858e-02 1.050153e-01 1.357284e-01 1.632625e-01 1.732257e-01 2.053596e-01 1.688978e-01 1.308076e-01 1.953844e-01 6.642193e-03
<GCONST> 5.117895e+01
<MIXTURE> 23 3.771408e-02
<MEAN> 39
 2.457838e+00 3.106377e+00 -3.145968e+00 1.551047e+00 7.853482e-01 3.155729e+00 1.654524e+00 1.258751e+00 4.254214e+00 7.630873e+00 5.132126e+00 2.467162e+00 2.021950e+01 -2.263768e-03 -9.174834e-02 -2.251482e-01 -2.113618e-01 -2.082701e-01 -2.285880e-01 -2.507178e-01 -2.538481e-01 -2.315854e-01 -2.257447e-01 -2.346404e-01 -2.484723e-01 -1.262964e-01 -3.985972e-03 -4.615945e-02 -1.531256e-01 -1.411338e-01 6.190595e-02 2.696146e-01 3.085440e-01 1.055836e-01 -3.740262e-01 -7.745446e-01 -5.527610e-01 -1.770051e-01 -8.138730e-02
<VARIANCE> 39
 2.360901e+00 2.219193e+00 4.461838e+00 5.084522e+00 5.076556e+00 6.316625e+00 6.800773e+00 7.505746e+00 9.075343e+00 5.914181e+00 6.181006e+00 8.396415e+00 9.167557e-01 1.128815e-01 2.048662e-01 3.584551e-01 5.110605e-01 7.071584e-01 8.617351e-01 9.543632e-01 1.010642e+00 1.181756e+00 1.199528e+00 1.135306e+00 1.171743e+00 3.705588e-02 2.347576e-02 3.719047e-02 6.872702e-02 9.214439e-02 1.064636e-01 1.327010e-01 1.404165e-01 1.577939e-01 1.883638e-01 1.245035e-01 1.392798e-01 1.988980e-01 6.101638e-03
<GCONST> 5.043154e+01
<MIXTURE> 24 3.916203e-02
<MEAN> 39
 4.659277e+00 4.079383e+00 -4.327405e+00 2.055126e-01 2.429692e+00 6.386893e+00 3.788188e+00 9.067612e-01 2.116625e+00 2.334043e+00 -5.300332e-01 -5.078740e-01 2.074455e+01 1.680803e-02 1.913011e-02 -8.229667e-02 -2.405440e-01 -3.694282e-01 -4.564203e-01 -5.299239e-01 -4.952468e-01 -3.662738e-01 -2.002443e-01 -5.752779e-03 1.198958e-01 -1.161475e-01 -1.536390e-01 -2.111748e-01 -7.855552e-02 -7.298929e-03 -1.359516e-01 -1.448404e-01 3.695281e-02 1.309837e-01 -1.458132e-02 3.830644e-02 2.482329e-01 2.128193e-01 -7.974971e-02
<VARIANCE> 39
 1.375467e+00 1.859921e+00 3.501460e+00 3.766243e+00 4.932726e+00 5.493337e+00 5.907016e+00 6.116476e+00 6.083259e+00 6.522949e+00 5.243646e+00 6.504504e+00 5.503191e-01 1.066986e-01 2.069454e-01 4.092822e-01 4.939648e-01 5.865098e-01 7.309564e-01 8.598241e-01 1.109368e+00 1.052071e+00 1.033129e+00 1.051730e+00 1.182458e+00 3.329919e-02 1.554329e-02 3.074908e-02 6.051363e-02 8.219805e-02 9.607754e-02 1.075572e-01 1.370717e-01 1.291239e-01 1.418975e-01 1.626216e-01 1.286558e-01 1.645847e-01 5.219699e-03
<GCONST> 4.485342e+01
<MIXTURE> 25 3.621557e-02
<MEAN> 39
 2.181118e+00 1.484961e+00 -3.953520e+00 3.156445e+00 3.941995e+00 6.942574e+00 5.586890e+00 3.349713e+00 2.521771e+00 3.843212e+00 2.579776e+00 1.697959e+00 2.028451e+01 1.489541e-02 -3.081753e-02 -1.762995e-01 -2.212359e-01 -2.081011e-01 -1.942680e-01 -2.032020e-01 -1.728840e-01 -7.075006e-02 -1.333322e-01 -1.023113e-01 -1.094283e-02 -7.273454e-02 7.662908e-02 1.636649e-01 -7.517444e-02 -3.834327e-01 -3.990330e-01 -2.892669e-01 -2.683250e-01 -2.129571e-01 -7.660371e-02 -2.003503e-01 -1.833699e-01 -6.987856e-02 -7.824678e-02
<VARIANCE> 39
 1.991228e+00 1.755735e+00 3.375819e+00 3.721514e+00 5.302872e+00 5.655286e+00 5.520369e+00 6.331961e+00 7.508847e+00 6.591310e+00 5.121927e+00 7.620623e+00 6.544694e-01 1.397791e-01 2.234403e-01 3.194824e-01 5.051505e-01 7.315913e-01 7.859631e-01 1.006040e+00 1.029616e+00 1.068798e+00 1.128361e+00 1.113213e+00 1.220088e+00 3.934014e-02 1.505303e-02 2.352748e-02 5.232304e-02 6.062611e-02 1.023977e-01 1.160565e-01 1.134066e-01 1.254430e-01 1.519177e-01 1.396480e-01 1.129487e-01 1.748838e-01 5.023007e-03
<GCONST> 4.555075e+01
<MIXTURE> 26 2.842180e-02
<MEAN> 39
 3.071432e+00 2.945097e+00 -3.731028e+00 2.697750e+00 5.410841e+00 9.614616e+00 7.512130e+00 4.165768e+00 3.000133e+00 2.829921e+00 -1.558559e-01 -5.513273e-01 2.074613e+01 7.238355e-02 1.213895e-01 1.468721e-01 1.374770e-01 1.951899e-02 -2.611470e-02 -1.150826e-01 -1.715102e-01 -1.756629e-01 -3.932659e-02 6.114561e-02 6.005517e-02 7.954078e-02 -1.611009e-02 -2.510348e-02 -1.477059e-01 -3.956417e-01 -6.283978e-01 -6.885167e-01 -5.646121e-01 -3.451602e-01 -1.640591e-01 -4.535387e-02 2.233236e-01 2.685587e-01 -1.438686e-01
<VARIANCE> 39
 2.667240e+00 2.480252e+00 4.395690e+00 4.612001e+00 4.506729e+00 5.653412e+00 7.186714e+00 6.739915e+00 8.915166e+00 7.568471e+00 6.723291e+00 6.976835e+00 9.154764e-01 8.694354e-02 1.806992e-01 2.609575e-01 4.141299e-01 5.804678e-01 7.021315e-01 8.685299e-01 8.817697e-01 9.298424e-01 1.045824e+00 1.144017e+00 1.148440e+00 2.705056e-02 2.037382e-02 3.882380e-02 5.903476e-02 8.200092e-02 8.629681e-02 1.162362e-01 1.528855e-01 1.462839e-01 2.113492e-01 1.866808e-01 1.660858e-01 1.547502e-01 7.014682e-03
<GCONST> 4.802909e+01
<MIXTURE> 27 3.665343e-02
<MEAN> 39
 3.005387e+00 2.901215e+00 -4.808374e+00 -8.938305e-01 -1.553340e-01 4.728466e+00 4.928311e+00 3.742181e+00 3.562279e+00 4.347505e+00 5.778968e+00 5.685423e+00 2.041276e+01 8.260498e-03 1.043923e-03 -5.931572e-02 -4.699522e-02 -4.920213e-02 -1.260065e-01 -1.463313e-01 -1.210608e-01 1.209686e-02 7.282307e-02 1.206517e-01 6.886683e-02 1.039291e-02 -4.589997e-02 -2.972648e-02 5.183095e-02 1.830433e-01 2.288094e-01 6.341206e-02 -1.497162e-01 -2.748450e-01 -2.664608e-01 -2.801962e-01 -6.936402e-01 -6.945702e-01 -9.799694e-02
<VARIANCE> 39
 2.422058e+00 1.880214e+00 3.694592e+00 4.291123e+00 4.440013e+00 5.236331e+00 7.398185e+00 7.152689e+00 7.116368e+00 5.711852e+00 5.299713e+00 5.847106e+00 8.281157e-01 1.118618e-01 2.106698e-01 3.062563e-01 4.857349e-01 7.353380e-01 8.668698e-01 9.876716e-01 1.113628e+00 1.289723e+00 1.060021e+00 1.284210e+00 1.315433e+00 3.645638e-02 1.741211e-02 2.986527e-02 4.530106e-02 8.808108e-02 1.112588e-01 1.046565e-01 1.558913e-01 1.536481e-01 1.808738e-01 1.132725e-01 1.127320e-01 1.390066e-01 6.347075e-03
<GCONST> 4.716462e+01
<MIXTURE> 28 3.451300e-02
<MEAN> 39
 3.232264e+00 3.241230e+00 -4.677268e+00 -4.890051e-01 1.843463e+00 7.821602e+00 6.853757e+00 2.778968e+00 1.554576e+00 4.028871e+00 3.671173e+00 2.077148e+00 2.041150e+01 -7.297384e-02 -1.357061e-01 -1.803371e-01 -2.911702e-01 -3.964399e-01 -4.002632e-01 -4.585461e-01 -6.297900e-01 -6.454124e-01 -6.075338e-01 -5.590692e-01 -4.069075e-01 -2.381262e-01 -5.851507e-02 -5.850591e-02 2.063156e-02 8.283782e-02 -9.271649e-02 -3.982305e-01 -4.383622e-01 -1.207375e-01 9.271462e-02 -2.018853e-01 -3.450981e-01 -1.230376e-01 -9.932489e-02
<VARIANCE> 39
 2.314949e+00 1.772812e+00 2.914226e+00 3.258149e+00 3.825621e+00 4.455340e+00 5.275900e+00 6.497595e+00 5.654775e+00 6.790083e+00 4.844044e+00 6.195666e+00 8.368220e-01 8.640972e-02 1.850862e-01 3.162507e-01 4.621608e-01 6.243440e-01 8.545639e-01 1.101351e+00 1.176531e+00 1.146251e+00 1.014756e+00 9.530976e-01 9.567993e-01 3.391849e-02 1.573166e-02 2.796815e-02 5.004262e-02 6.223019e-02 7.643085e-02 9.617100e-02 1.218607e-01 1.420856e-01 1.272782e-01 1.521018e-01 1.055464e-01 1.472657e-01 5.437039e-03
<GCONST> 4.303614e+01
<MIXTURE> 29 2.595663e-02
<MEAN> 39
 2.329739e+00 3.432019e+00 -2.108473e+00 2.705268e+00 1.716715e+00 4.958059e+00 4.009735e+00 1.872431e+00 1.440598e+00 2.198761e+00 -1.124783e-01 -1.698217e-01 2.004440e+01 -1.089404e-01 -1.360542e-01 -1.648185e-01 -2.403566e-01 -4.237418e-01 -5.889319e-01 -6.714538e-01 -8.043026e-01 -9.592897e-01 -9.416415e-01 -7.831417e-01 -6.276788e-01 -3.333981e-01 -5.663075e-02 -1.439038e-01 -3.162259e-01 -3.602833e-01 -1.535458e-01 -8.760620e-02 -1.110263e-01 -1.335626e-02 2.442503e-02 4.670595e-03 2.266903e-01 2.197121e-01 -1.134788e-01
<VARIANCE> 39
 2.403252e+00 2.749850e+00 3.330877e+00 5.102767e+00 7.196944e+00 7.715439e+00 8.712013e+00 8.113024e+00 7.225877e+00 7.069371e+00 5.345641e+00 6.614626e+00 1.030609e+00 9.951385e-02 2.191903e-01 4.171633e-01 4.965237e-01 6.653580e-01 7.689228e-01 9.811568e-01 1.075361e+00 1.075040e+00 1.031685e+00 1.052080e+00 1.181974e+00 3.525328e-02 1.901403e-02 3.770157e-02 4.460393e-02 8.495059e-02 1.401925e-01 1.276793e-01 1.659626e-01 1.772538e-01 1.641106e-01 1.556238e-01 1.300627e-01 1.514403e-01 5.548566e-03
<GCONST> 5.000845e+01
<MIXTURE> 30 2.866547e-02
<MEAN> 39
 3.050758e+00 4.194291e+00 -2.613549e+00 7.470739e-01 7.883821e-01 6.423075e+00 7.041800e+00 5.668785e+00 4.387382e+00 2.552184e+00 5.291842e-01 1.414719e+00 2.056897e+01 7.492671e-02 6.969997e-02 -1.323476e-01 -1.755912e-01 -5.982010e-02 2.161785e-02 1.240407e-02 6.086237e-02 5.595005e-02 8.607640e-03 1.438085e-01 1.656023e-01 4.959764e-02 -1.062090e-01 -2.336010e-01 -2.840190e-01 -1.525913e-01 -4.924565e-02 -2.525274e-01 -5.016533e-01 -6.129897e-01 -4.508339e-01 -5.638596e-02 1.334497e-01 -6.778205e-04 -1.727261e-01
<VARIANCE> 39
 2.549389e+00 1.904281e+00 3.301548e+00 4.044081e+00 4.672869e+00 6.184273e+00 6.925586e+00 6.334056e+00 6.087704e+00 6.625421e+00 5.764196e+00 6.847574e+00 1.049216e+00 8.398063e-02 1.824437e-01 3.469912e-01 4.517165e-01 6.342093e-01 7.472264e-01 9.526268e-01 1.076662e+00 1.101921e+00 1.031369e+00 1.126155e+00 1.031808e+00 3.453888e-02 1.433906e-02 2.668844e-02 4.627947e-02 7.326855e-02 9.042045e-02 1.015221e-01 1.233509e-01 1.379202e-01 1.301983e-01 1.416025e-01 1.194408e-01 1.563629e-01 4.950787e-03
<GCONST> 4.497218e+01
<MIXTURE> 31 3.297232e-02
<MEAN> 39
 3.576252e+00 4.152219e+00 -2.968227e+00 4.763772e-01 -3.598675e-01 3.754575e+00 3.773661e+00 2.337986e+00 2.035384e+00 3.355770e+00 2.997584e+00 2.058855e+00 2.040203e+01 5.483250e-03 -7.104712e-02 -2.722141e-01 -3.877285e-01 -4.195407e-01 -3.494456e-01 -1.941110e-01 1.566599e-02 2.908346e-01 3.256162e-01 3.454856e-01 2.195807e-01 -4.427838e-02 -1.189997e-01 -2.100159e-01 -2.022426e-01 -1.951305e-02 2.219989e-01 1.840330e-01 2.341367e-02 -6.388912e-02 -5.020368e-02 -1.598944e-01 -2.854162e-01 -1.672404e-01 -8.977475e-02
<VARIANCE> 39
 1.969458e+00 1.974406e+00 3.867182e+00 4.188470e+00 4.388976e+00 5.949324e+00 6.888769e+00 6.180767e+00 5.370270e+00 5.804815e+00 4.780157e+00 7.363907e+00 6.612429e-01 9.306037e-02 1.662732e-01 2.877508e-01 5.291001e-01 6.376112e-01 7.691427e-01 9.729428e-01 1.065258e+00 1.089905e+00 8.895476e-01 1.022086e+00 1.024707e+00 2.363181e-02 1.717839e-02 3.091691e-02 5.473959e-02 7.358188e-02 7.310589e-02 1.216142e-01 1.303467e-01 1.424723e-01 1.328647e-01 1.278843e-01 1.087552e-01 1.643051e-01 5.630695e-03
<GCONST> 4.392009e+01
<MIXTURE> 32 2.414022e-02
<MEAN> 39
 2.826121e+00 3.328620e+00 -3.551149e+00 2.074907e+00 2.886333e+00 5.250717e+00 2.225442e+00 1.444988e-01 8.707234e-01 2.458991e+00 3.648596e+00 4.046955e+00 2.023874e+01 -1.570778e-01 -3.281600e-01 -4.490392e-01 -5.470287e-01 -5.485630e-01 -4.714383e-01 -4.757606e-01 -4.322950e-01 -4.344751e-01 -5.049886e-01 -5.894445e-01 -5.673013e-01 -3.336152e-01 -8.372679e-02 -1.438998e-01 -1.833233e-01 -2.731700e-01 -2.882488e-01 -1.060762e-01 1.610385e-01 1.998617e-01 8.396552e-02 -3.899591e-02 -3.867223e-01 -4.669999e-01 -1.419862e-01
<VARIANCE> 39
 2.355426e+00 1.935231e+00 3.794201e+00 4.401950e+00 5.244000e+00 6.816944e+00 5.927636e+00 6.345099e+00 6.482049e+00 6.424715e+00 5.945842e+00 6.715363e+00 9.126500e-01 8.325243e-02 1.539828e-01 3.057996e-01 5.377090e-01 7.930707e-01 9.937207e-01 1.144176e+00 1.077582e+00 1.113898e+00 1.119387e+00 9.838107e-01 1.058765e+00 3.257462e-02 1.622795e-02 3.101517e-02 5.748681e-02 7.507444e-02 9.645499e-02 1.366452e-01 1.407261e-01 1.478615e-01 1.415464e-01 1.370348e-01 1.369704e-01 1.625517e-01 5.165551e-03
<GCONST> 4.693037e+01
<MIXTURE> 33 2.126956e-02
<MEAN> 39
 4.123065e+00 4.663122e+00 -8.538626e-01 -4.765059e+00 -7.064041e+00 -2.127446e+00 -3.122412e+00 -1.505903e+00 -2.283603e+00 6.522573e-01 -1.977407e+00 -9.904562e-01 2.113780e+01 3.409221e-01 2.982957e-01 2.290987e-01 6.370158e-01 1.538257e-01 3.258311e-01 4.122912e-01 -5.159296e-01 -1.362808e-01 -9.458849e-02 -8.546647e-02 -1.811359e-01 -6.208977e-02 -1.298687e-01 -8.856177e-02 -7.237820e-02 -1.113555e-01 3.539258e-02 8.626253e-02 3.278577e-03 -4.301937e-02 5.549876e-02 6.662726e-02 1.110676e-02 -8.751498e-03 1.684026e-02
<VARIANCE> 39
 1.386200e+01 1.999346e+01 3.166594e+01 3.365527e+01 3.749931e+01 3.701283e+01 3.402493e+01 3.810416e+01 3.030991e+01 2.886974e+01 3.033479e+01 2.513616e+01 8.418502e-01 7.371951e-01 7.701331e-01 1.872208e+00 1.544386e+00 2.502734e+00 1.951112e+00 2.222720e+00 2.408405e+00 2.236419e+00 1.791367e+00 1.841251e+00 1.437770e+00 2.195966e-02 7.348731e-02 1.193187e-01 1.642131e-01 1.979370e-01 2.729899e-01 2.791493e-01 2.731012e-01 3.261745e-01 2.910846e-01 2.693756e-01 2.428336e-01 2.384502e-01 3.731339e-03
<GCONST> 9.007555e+01
<MIXTURE> 34 3.465420e-02
<MEAN> 39
 4.141430e+00 2.932838e+00 -5.287634e+00 1.088477e+00 3.471143e+00 6.097343e+00 3.979828e+00 3.519988e+00 5.089779e+00 4.881753e+00 1.696772e+00 1.157130e+00 2.080663e+01 -1.489120e-01 -2.073034e-01 -2.257475e-01 -2.417038e-01 -1.920927e-01 -1.135845e-01 -4.245070e-02 -3.738685e-02 5.141535e-02 1.972856e-01 1.852812e-01 1.321307e-01 -5.869030e-02 -8.451600e-02 -4.971416e-02 2.245881e-02 -1.446296e-01 -2.914218e-01 -1.163089e-01 -3.589860e-03 -2.964849e-01 -4.677311e-01 -3.135376e-01 -5.944569e-02 -1.766791e-02 -1.060533e-01
<VARIANCE> 39
 1.383105e+00 1.318940e+00 2.885473e+00 2.907703e+00 3.522643e+00 4.596446e+00 4.474937e+00 5.130153e+00 5.269514e+00 6.068541e+00 4.429036e+00 6.413700e+00 5.144558e-01 1.321626e-01 2.351640e-01 3.663547e-01 4.851587e-01 6.427608e-01 7.689893e-01 9.494639e-01 1.010636e+00 1.146471e+00 1.079596e+00 9.392579e-01 1.085831e+00 3.233420e-02 1.909502e-02 2.563328e-02 5.551308e-02 6.129079e-02 8.140554e-02 9.601566e-02 1.043958e-01 1.211851e-01 1.217840e-01 1.589903e-01 1.052724e-01 1.457975e-01 5.493540e-03
<GCONST> 4.147496e+01
<MIXTURE> 35 2.890035e-02
<MEAN> 39
 2.968749e+00 2.603796e+00 -4.503671e+00 1.165602e+00 3.038153e+00 7.769934e+00 7.324632e+00 6.373666e+00 5.908284e+00 3.744047e+00 -2.611759e-01 -5.089337e-01 2.055606e+01 -3.205092e-02 -2.334472e-03 -1.406009e-01 -2.493491e-01 -3.788687e-01 -5.358818e-01 -5.856533e-01 -5.787122e-01 -5.614183e-01 -5.443354e-01 -3.258316e-01 -2.381664e-01 -2.129989e-01 1.580943e-03 3.168461e-02 9.627102e-03 -1.059517e-01 -2.198627e-01 -3.361891e-01 -5.121279e-01 -6.955184e-01 -5.847358e-01 -1.530605e-01 2.581705e-01 2.764592e-01 -9.533987e-02
<VARIANCE> 39
 2.250365e+00 1.936694e+00 3.790313e+00 4.882154e+00 4.780874e+00 6.142365e+00 6.845453e+00 5.859530e+00 5.709437e+00 8.067890e+00 6.864861e+00 7.242246e+00 8.550779e-01 8.946998e-02 2.058698e-01 3.311130e-01 4.474793e-01 6.602123e-01 8.638990e-01 1.056095e+00 9.474120e-01 1.068742e+00 1.025432e+00 1.033985e+00 1.140575e+00 3.103133e-02 1.927809e-02 3.013650e-02 4.672409e-02 7.406861e-02 8.582838e-02 1.090195e-01 1.450535e-01 1.118614e-01 1.208059e-01 1.612522e-01 1.198191e-01 1.577719e-01 6.229126e-03
<GCONST> 4.614258e+01
<MIXTURE> 36 2.771959e-02
<MEAN> 39
 2.490151e+00 3.383125e+00 -4.106914e+00 -2.635720e-02 8.829935e-01 4.971989e+00 4.355003e+00 3.974376e+00 4.810035e+00 4.438273e+00 2.175473e+00 1.793324e+00 2.004713e+01 -8.131421e-02 -9.907625e-02 -4.422223e-02 -3.040871e-02 -1.230001e-01 -1.637323e-01 -3.181375e-01 -6.951399e-01 -8.743002e-01 -8.952180e-01 -7.960570e-01 -5.905364e-01 -2.215355e-01 -6.801607e-02 -1.096787e-01 -3.986578e-02 4.469263e-02 1.251457e-03 -6.199678e-02 -1.682877e-01 -4.120038e-01 -5.654633e-01 -3.668802e-01 -1.361613e-01 -9.138160e-02 -1.268845e-01
<VARIANCE> 39
 2.330770e+00 2.036806e+00 3.487247e+00 3.979357e+00 4.848438e+00 5.346583e+00 5.288973e+00 5.370672e+00 4.846890e+00 6.467270e+00 4.617500e+00 5.379101e+00 9.388592e-01 1.004224e-01 1.892295e-01 3.232471e-01 4.433364e-01 6.376462e-01 8.455534e-01 8.772935e-01 8.946393e-01 1.026720e+00 8.494700e-01 8.541814e-01 9.129183e-01 3.060363e-02 1.645131e-02 2.924071e-02 4.746294e-02 6.786019e-02 9.492023e-02 1.011335e-01 1.104915e-01 1.155898e-01 1.052288e-01 1.419148e-01 1.001198e-01 1.325633e-01 4.922971e-03
<GCONST> 4.219877e+01
~h "eight"
<BEGINHMM>
<NUMSTATES> 18
<STATE> 2
<NUMMIXES> 20
<MIXTURE> 1 4.280722e-02
<MEAN> 39
 1.373804e+00 2.401723e+00 -4.104762e+00 1.373079e+00 7.800835e-01 4.956516e+00 5.526207e+00 2.896502e+00 2.292426e+00 4.043864e+00 2.635639e+00 2.670968e+00 1.934745e+01 8.942764e-03 -2.532998e-03 3.540908e-01 1.653260e-01 4.143133e-01 3.362857e-01 -1.333656e-01 1.135903e-01 2.485171e-01 6.101168e-01 4.898999e-01 7.836958e-02 1.801959e-01 -2.518172e-01 -1.686954e-01 1.493622e-01 -1.737269e-01 3.184537e-01 6.344597e-02 -3.685512e-01 2.749067e-02 -1.774842e-02 -2.861794e-01 -1.467307e-01 -2.420551e-01 6.387135e-03
<VARIANCE> 39
 3.696206e+00 3.114194e+00 4.543765e+00 5.536817e+00 6.766018e+00 6.808794e+00 7.868847e+00 8.638914e+00 1.100160e+01 6.578613e+00 1.146809e+01 9.179491e+00 1.070272e+00 1.560195e-01 3.507389e-01 2.696852e-01 5.324981e-01 6.711828e-01 5.737403e-01 8.826937e-01 1.513326e+00 1.221502e+00 1.428665e+00 1.205221e+00 1.018268e+00 2.948156e-02 8.645370e-02 1.488069e-01 1.619304e-01 1.616383e-01 1.880697e-01 1.269848e-01 1.610656e-01 2.579978e-01 2.265902e-01 1.247669e-01 2.149956e-01 2.091432e-01 7.484563e-03
<GCONST> 5.965365e+01
<MIXTURE> 2 3.185557e-02
<MEAN> 39
 8.372078e-01 2.600350e+00 -1.066420e+01 -7.141212e+00 6.726064e+00 -3.835684e+00 1.945963e-01 -6.372127e-01 -2.974028e+00 1.491004e+00 2.278389e+00 -7.158149e+00 2.162894e+01 -1.366860e+00 -3.326334e-01 1.522857e-01 1.062158e+00 2.780821e+00 1.689674e+00 8.378955e-01 9.589149e-01 1.206160e+00 -3.523988e-01 -8.237012e-02 3.899862e-01 -2.992869e-01 -3.874660e-01 -6.651862e-03 5.195407e-01 2.251912e-01 -4.288645e-01 9.665798e-02 -2.450953e-01 -1.499732e-01 6.472313e-02 2.676365e-02 1.047541e-01 4.740508e-01 -1.192175e-02
<VARIANCE> 39
 7.299467e+00 2.128519e+01 1.465221e+01 2.297818e+01 3.026813e+01 5.823302e+01 4.404906e+01 9.149429e+01 3.707964e+01 8.446279e+01 7.378820e+01 4.469886e+01 5.893925e-01 1.043665e+00 7.459108e-01 1.703293e+00 2.005534e+00 3.709882e+00 4.459648e+00 4.141242e+00 4.395956e+00 2.465460e+00 2.776774e+00 2.916573e+00 3.216997e+00 4.860295e-02 1.001664e-01 1.356404e-01 1.806517e-01 1.681310e-01 4.133013e-01 4.463302e-01 6.111231e-01 1.059575e+00 3.750775e-01 9.474623e-01 7.843725e-01 7.071052e-01 8.126295e-03
<GCONST> 1.054100e+02
<MIXTURE> 3 4.210028e-02
<MEAN> 39
 -3.687804e+00 -1.693170e+00 4.523071e-01 9.714982e-01 -5.699287e+00 2.445705e+00 7.353350e+00 3.909226e+00 -1.378354e+00 -1.470186e+00 1.563799e+00 4.687488e+00 1.967054e+01 -1.751444e-01 -1.634361e+00 -1.749840e+00 8.897717e-01 2.868173e+00 6.125558e-01 -2.152792e-01 1.144767e+00 8.769309e-01 -9.706551e-01 -4.512389e-01 9.457006e-01 -1.249149e-01 6.909505e-02 1.281157e-01 1.012000e-01 -3.878565e-01 4.334394e-01 -8.336459e-02 -7.421100e-01 -4.642705e-01 2.531674e-01 3.772356e-01 -2.609573e-01 -5.703933e-01 7.730889e-02
<VARIANCE> 39
 1.080611e+01 1.898082e+01 1.463379e+01 2.744311e+01 2.915387e+01 2.886151e+01 2.004499e+01 2.063597e+01 2.314768e+01 4.108899e+01 2.499209e+01 1.598375e+01 1.104969e+00 4.165126e-01 1.381107e+00 8.355442e-01 1.744609e+00 2.927661e+00 3.302361e+00 3.805923e+00 2.739602e+00 2.304543e+00 3.701484e+00 2.564240e+00 2.201242e+00 3.760302e-02 1.041227e-01 2.693201e-01 1.948944e-01 2.387027e-01 3.506961e-01 5.858143e-01 3.167895e-01 2.872727e-01 5.135871e-01 8.147718e-01 3.713287e-01 3.455154e-01 9.698687e-03
<GCONST> 9.555302e+01
<MIXTURE> 4 5.037577e-02
<MEAN> 39
 2.305206e+00 3.451025e+00 -3.651407e+00 3.253618e-01 2.810707e+00 6.415652e+00 5.875052e+00 4.513929e+00 3.342905e+00 4.586327e+00 3.982415e+00 2.233749e+00 2.062251e+01 -1.045820e+00 -1.055352e+00 7.901232e-01 -1.386239e-01 1.326679e+00 -1.736221e-01 -2.233395e-01 3.517084e-01 3.936532e-01 3.091193e-01 4.354696e-01 -4.707675e-01 1.144887e-01 -6.093979e-01 -5.465372e-01 1.473175e-01 9.139922e-02 3.621177e-01 -2.930815e-01 -4.368249e-01 -2.850145e-01 -8.311547e-02 -2.936127e-01 -3.363684e-01 -4.010817e-01 -9.230142e-02
<VARIANCE> 39
 3.014223e+00 3.613693e+00 5.834629e+00 1.427658e+01 1.121616e+01 8.452951e+00 9.587758e+00 8.074084e+00 1.700055e+01 1.098121e+01 7.849788e+00 1.015810e+01 1.818244e+00 9.879437e-01 9.225457e-01 9.544573e-01 1.543393e+00 1.991230e+00 1.003029e+00 1.940145e+00 1.710071e+00 2.042370e+00 1.061110e+00 1.043257e+00 1.675786e+00 5.458727e-02 8.075034e-02 1.170340e-01 1.451719e-01 1.937583e-01 1.929977e-01 1.963247e-01 1.886324e-01 2.518967e-01 5.127252e-01 3.670453e-01 2.112328e-01 1.748606e-01 8.980331e-03
<GCONST> 7.397060e+01
<MIXTURE> 5 6.921452e-02
<MEAN> 39
 -1.916653e+00 -2.279025e-01 -6.551729e+00 -2.568322e+00 9.680167e+00 1.934955e+00 -3.173658e+00 3.072663e+00 7.590646e-01 -3.449098e+00 -2.604972e+00 -4.623868e+00 2.034557e+01 -1.297200e+00 -3.532084e-01 1.048774e+00 1.247679e+00 9.370537e-01 -1.297093e-01 2.978727e-01 7.594339e-01 8.027438e-01 4.689028e-01 4.649389e-01 4.759169e-01 -1.854877e-01 1.322597e-01 -2.586123e-01 -2.482395e-01 -2.585335e-01 -1.881187e-01 -3.268293e-04 -2.355351e-02 -2.785941e-01 -8.151277e-02 1.424039e-01 7.042812e-02 1.583256e-01 7.354511e-02
<VARIANCE> 39
 9.114038e+00 2.738822e+01 1.781557e+01 2.138809e+01 1.607642e+01 4.756696e+01 4.392239e+01 3.912863e+01 4.282782e+01 4.000350e+01 2.829707e+01 2.658328e+01 4.968488e-01 6.244752e-01 7.159028e-01 1.355534e+00 1.814944e+00 1.460879e+00 1.878889e+00 2.108299e+00 2.927670e+00 2.074515e+00 1.287067e+00 1.571732e+00 1.350346e+00 2.345122e-02 4.854330e-02 9.045286e-02 1.202611e-01 1.968798e-01 2.840707e-01 3.004209e-01 3.386788e-01 3.942613e-01 3.544785e-01 2.543775e-01 2.829901e-01 2.891169e-01 5.899854e-03
<GCONST> 8.781719e+01
<MIXTURE> 6 3.620577e-02
<MEAN> 39
 2.245695e+00 1.822563e+00 -5.149826e+00 -7.176118e-01 1.985819e+00 3.976882e+00 2.912428e+00 1.227099e+00 2.746484e-01 2.649406e-01 -1.246031e+00 -4.713942e-01 1.896087e+01 -2.808400e-01 -5.039098e-01 3.389207e-01 2.450901e-01 6.022277e-01 2.948702e-01 -1.015865e-01 -5.766114e-02 7.015995e-01 5.451401e-01 5.702536e-01 -1.461661e-01 9.198041e-02 -2.651021e-01 -1.715994e-01 2.115510e-01 1.466275e-01 2.202305e-01 6.607417e-02 -4.052934e-02 1.477601e-01 2.910749e-01 4.604712e-01 5.115114e-01 1.497353e-01 1.356253e-01
<VARIANCE> 39
 2.583513e+00 5.555229e+00 5.565466e+00 4.660990e+00 7.087113e+00 1.050626e+01 8.312159e+00 1.328445e+01 9.161121e+00 4.157100e+00 6.111682e+00 9.997691e+00 7.469138e-01 3.893769e-01 6.240945e-01 9.351364e-01 1.006085e+00 1.480680e+00 1.487040e+00 9.800646e-01 1.521904e+00 1.334220e+00 1.258399e+00 1.001030e+00 1.145949e+00 4.320223e-02 5.575543e-02 1.342990e-01 1.753747e-01 1.237341e-01 2.149643e-01 1.494563e-01 3.524857e-01 2.388788e-01 1.768191e-01 1.745804e-01 1.649740e-01 2.818721e-01 7.318215e-03
<GCONST> 6.519791e+01
<MIXTURE> 7 4.306567e-02
<MEAN> 39
 -4.687715e+00 4.077086e-01 3.077407e+00 -2.684108e+00 -1.089080e+00 1.493875e+00 6.173509e+00 -3.264349e+00 -5.037166e+00 -1.848945e+00 -8.977549e-01 3.586541e-01 2.015965e+01 -6.982731e-01 -2.091289e+00 -1.434963e+00 2.547954e+00 2.928574e+00 7.165228e-03 3.964708e-01 1.894144e+00 -3.739339e-01 -1.170529e+00 1.419731e+00 8.153296e-01 -2.179704e-01 2.773988e-02 1.373871e-01 -3.881093e-01 -4.237928e-01 -2.071477e-02 -2.803921e-01 -6.429375e-01 1.812132e-01 6.242801e-01 1.144956e-01 -2.901513e-01 1.144618e-01 5.438819e-02
<VARIANCE> 39
 5.147124e+00 1.872626e+01 2.061934e+01 1.468152e+01 1.627359e+01 3.215251e+01 4.058604e+01 3.212819e+01 2.515082e+01 1.943773e+01 2.211762e+01 2.559745e+01 7.293186e-01 2.837664e-01 5.075041e-01 6.780090e-01 1.312365e+00 2.611534e+00 4.059003e+00 3.584139e+00 3.491862e+00 2.108164e+00 2.155386e+00 2.509765e+00 2.279362e+00 3.647271e-02 4.929115e-02 1.201472e-01 1.497365e-01 1.878826e-01 2.301874e-01 3.825427e-01 3.468620e-01 3.805093e-01 3.472597e-01 3.557317e-01 4.856178e-01 3.056263e-01 4.505506e-03
<GCONST> 8.783063e+01
<MIXTURE> 8 6.768087e-02
<MEAN> 39
 4.651583e-01 1.947004e+00 -7.789188e+00 -6.071468e+00 5.363184e+00 9.278863e+00 -1.490501e-01 -4.739203e+00 -2.440326e+00 6.453094e-01 1.743828e+00 -1.633576e-01 2.013613e+01 -1.858853e+00 -1.070237e+00 4.475442e-01 1.159476e+00 2.655136e+00 2.513327e-01 -1.029009e+00 5.833235e-02 1.001330e+00 4.157117e-01 4.970011e-01 -5.776364e-01 -1.972000e-01 5.724138e-02 -1.424212e-01 1.194979e-03 -3.022347e-01 -4.478432e-01 -4.006055e-01 1.045316e-01 4.748362e-01 3.260194e-01 4.586215e-02 -1.341686e-01 -1.082445e-01 8.548170e-02
<VARIANCE> 39
 6.340711e+00 1.238443e+01 1.034421e+01 2.385999e+01 2.575749e+01 3.376048e+01 4.069321e+01 1.950911e+01 2.263653e+01 2.722642e+01 4.014846e+01 2.694791e+01 7.368422e-01 6.186651e-01 1.154621e+00 1.944584e+00 1.271140e+00 2.227950e+00 2.640975e+00 3.210849e+00 2.812052e+00 2.442193e+00 2.485153e+00 1.923046e+00 1.576473e+00 2.844004e-02 6.997262e-02 8.556652e-02 1.890881e-01 2.170902e-01 2.989598e-01 4.651313e-01 4.231264e-01 3.301976e-01 3.588893e-01 3.592772e-01 4.699439e-01 2.925822e-01 7.946623e-03
<GCONST> 9.087299e+01
<MIXTURE> 9 5.177348e-02
<MEAN> 39
 1.794193e+00 2.725080e+00 -5.680268e+00 -1.997165e+00 -4.541895e-01 4.576926e+00 2.577745e+00 1.907404e-01 -5.050446e-01 1.807506e+00 2.400808e+00 2.991011e+00 1.920964e+01 -5.053258e-01 -7.674266e-01 3.023039e-01 -8.393452e-02 6.047520e-01 -1.786193e-01 -2.929879e-01 -9.590315e-02 -3.540641e-02 -4.732372e-01 2.469852e-01 3.286773e-02 -7.833894e-02 -3.242485e-01 -4.121582e-01 3.268061e-01 3.160662e-01 6.121619e-01 2.705578e-02 7.429181e-02 2.429176e-01 4.973900e-01 5.362260e-02 -1.390739e-01 -3.041843e-01 6.757220e-02
<VARIANCE> 39
 4.078868e+00 6.025743e+00 5.303458e+00 5.572020e+00 1.555680e+01 9.641932e+00 1.248112e+01 1.214686e+01 9.387877e+00 1.227033e+01 7.913981e+00 5.565703e+00 7.398624e-01 6.231659e-01 1.111184e+00 9.079999e-01 1.055283e+00 1.732688e+00 1.620774e+00 1.597410e+00 1.719874e+00 2.051258e+00 1.410043e+00 1.401113e+00 1.418689e+00 4.258021e-02 1.148723e-01 1.499242e-01 1.424405e-01 1.331979e-01 2.821608e-01 2.183601e-01 2.548603e-01 3.268427e-01 3.236086e-01 2.250035e-01 2.893727e-01 1.781541e-01 8.375987e-03
<GCONST> 7.308745e+01
<MIXTURE> 10 5.577296e-02
<MEAN> 39
 1.517149e+00 2.930076e+00 -2.891631e+00 1.365839e+00 3.142861e+00 7.626051e+00 3.591942e+00 2.866162e+00 3.431262e+00 2.525146e+00 3.508448e-01 -5.268190e-01 2.045237e+01 -6.805272e-01 -1.027350e+00 3.278059e-01 -2.590978e-01 8.668854e-01 1.499787e-02 -3.749831e-01 -8.885434e-02 8.931639e-02 -1.369673e-01 1.116106e-01 2.258385e-01 -2.171978e-03 -3.563788e-01 -4.784987e-01 -1.610157e-01 -2.564085e-01 1.539545e-01 -4.595441e-01 -1.519473e-01 -1.752540e-01 -1.450899e-01 -5.265828e-02 7.933052e-02 1.727049e-01 -8.397502e-02
<VARIANCE> 39
 7.427207e+00 6.858163e+00 6.022295e+00 1.059448e+01 8.322103e+00 8.375973e+00 1.653486e+01 1.684151e+01 1.001691e+01 1.893549e+01 1.199180e+01 9.341753e+00 6.388046e-01 4.693927e-01 8.666593e-01 9.770741e-01 1.244379e+00 1.889320e+00 1.684150e+00 2.444117e+00 1.695497e+00 1.675787e+00 1.966542e+00 1.765735e+00 1.105253e+00 3.506374e-02 1.169031e-01 2.166181e-01 2.297297e-01 2.186274e-01 3.014523e-01 2.768900e-01 4.080095e-01 3.433470e-01 3.048559e-01 4.079728e-01 3.319357e-01 2.258900e-01 5.253720e-03
<GCONST> 7.849902e+01
<MIXTURE> 11 6.246341e-02
<MEAN> 39
 1.376574e+00 -1.873674e-01 -5.623853e+00 -2.125373e+00 1.248741e+00 3.808178e+00 4.961149e-01 2.103650e+00 3.190546e+00 5.608471e+00 -2.117680e+00 -5.378080e+00 2.062859e+01 -1.258401e+00 -1.355535e+00 -2.866980e-01 4.998942e-01 2.596449e+00 1.739121e+00 1.454466e+00 -3.327236e-03 6.180163e-02 -1.593456e+00 -2.081296e-01 3.338179e-01 -1.859540e-01 -3.915971e-02 -1.522161e-01 4.723525e-02 -2.519863e-01 -6.716169e-02 -1.634171e-01 -3.350125e-01 -2.248937e-01 -4.947446e-01 -2.036922e-01 5.360360e-01 2.098827e-01 5.714791e-02
<VARIANCE> 39
 8.436882e+00 1.831949e+01 2.716584e+01 2.294705e+01 2.656708e+01 4.400470e+01 3.693961e+01 2.862765e+01 4.021625e+01 3.970942e+01 3.413596e+01 2.383299e+01 9.823387e-01 3.323031e-01 1.124006e+00 1.626732e+00 1.625713e+00 2.074725e+00 3.204951e+00 2.122745e+00 2.003792e+00 1.881727e+00 1.798360e+00 2.306193e+00 1.944401e+00 3.605562e-02 6.750032e-02 1.887815e-01 2.327614e-01 2.414651e-01 3.980496e-01 3.886032e-01 5.361826e-01 3.188815e-01 4.337060e-01 4.451599e-01 3.292273e-01 3.368545e-01 5.493815e-03
<GCONST> 9.404482e+01
<MIXTURE> 12 4.485814e-02
<MEAN> 39
 -2.691196e-01 2.650026e+00 -7.231933e+00 -6.937009e+00 5.547814e+00 -3.061562e+00 -3.272872e+00 4.138161e-01 8.491351e-01 -7.645369e+00 -1.017249e+01 1.109838e+00 2.048891e+01 -1.159554e+00 -1.166741e+00 3.384071e-01 2.101453e+00 2.696182e+00 1.478899e+00 2.139613e-01 -3.077002e-01 -2.403705e-01 -8.120288e-01 1.100250e+00 2.407007e-02 -2.426926e-01 -2.559488e-01 -3.006407e-01 -4.024467e-02 3.401606e-02 9.795874e-02 4.721747e-02 4.313983e-03 1.563959e-01 1.063279e-01 6.613233e-01 5.244680e-01 1.511530e-01 4.874356e-03
<VARIANCE> 39
 5.309643e+00 1.233582e+01 1.208715e+01 2.784845e+01 3.570678e+01 2.594806e+01 2.890495e+01 3.024985e+01 2.619331e+01 3.405901e+01 3.148600e+01 2.952627e+01 7.085781e-01 3.822334e-01 6.448187e-01 1.001002e+00 1.449249e+00 8.606197e-01 1.615129e+00 2.451762e+00 1.916060e+00 2.011229e+00 3.186892e+00 1.500586e+00 9.732251e-01 1.386259e-02 3.916479e-02 1.152792e-01 1.033502e-01 1.803189e-01 2.573485e-01 3.030455e-01 2.226934e-01 2.295093e-01 3.727304e-01 3.260316e-01 3.201125e-01 3.227825e-01 3.803757e-03
<GCONST> 8.251559e+01
<MIXTURE> 13 6.298092e-02
<MEAN> 39
 -7.896598e-01 3.456619e+00 -5.953787e+00 -6.408994e+00 5.098062e+00 5.953410e+00 3.319680e-01 8.940631e-01 3.189718e+00 4.539413e+00 1.953990e+00 -8.497017e-01 2.065248e+01 -2.184201e+00 -4.069685e-01 -1.529105e-01 1.211168e+00 2.659771e+00 -3.876607e-01 -4.772613e-01 -2.577494e-01 1.442135e+00 -2.478439e-01 7.899205e-01 -4.711749e-01 -2.991211e-01 6.090207e-02 -4.512036e-01 2.384317e-02 -3.974885e-01 -4.197874e-01 7.329266e-03 -4.113444e-01 -1.033541e-01 -4.076426e-01 -2.507040e-01 -1.137572e-02 -1.800399e-01 4.980121e-02
<VARIANCE> 39
 1.054901e+01 1.339050e+01 1.358180e+01 3.215411e+01 2.492452e+01 3.680446e+01 3.834987e+01 1.816519e+01 3.422164e+01 2.995175e+01 3.250409e+01 1.909052e+01 5.419242e-01 4.426947e-01 8.441226e-01 1.202597e+00 2.504311e+00 1.845498e+00 1.907133e+00 3.552063e+00 2.075621e+00 2.305232e+00 4.426534e+00 2.592879e+00 2.754320e+00 4.629655e-02 1.307723e-01 1.222987e-01 1.827090e-01 2.992556e-01 2.808410e-01 2.293792e-01 3.960037e-01 2.702398e-01 3.904643e-01 4.403375e-01 4.972992e-01 2.944098e-01 8.529750e-03
<GCONST> 9.295032e+01
<MIXTURE> 14 7.345323e-02
<MEAN> 39
 1.478754e+00 2.959336e+00 -3.364980e+00 2.048265e+00 8.957224e-01 3.642254e+00 1.633431e+00 1.133823e-01 1.783434e+00 3.276499e+00 2.135544e+00 1.537992e+00 1.897105e+01 -3.448585e-01 -5.559887e-01 1.965033e-01 -3.103566e-01 9.092914e-01 3.663578e-02 -4.116363e-01 4.889072e-01 1.928477e-01 -2.762876e-01 -8.040106e-02 -1.022234e-01 3.451686e-02 -4.005563e-01 -4.501485e-01 -1.237075e-02 -3.026659e-01 4.904767e-01 4.349863e-02 8.410277e-02 3.727607e-01 5.881835e-02 -3.110886e-01 -1.417937e-01 -7.810014e-02 2.030424e-03
<VARIANCE> 39
 2.926556e+00 3.951940e+00 5.219481e+00 4.901211e+00 6.310153e+00 8.256351e+00 7.183633e+00 7.194062e+00 1.176746e+01 9.179844e+00 5.396341e+00 9.478388e+00 6.738357e-01 1.877448e-01 5.752300e-01 6.370521e-01 8.927974e-01 1.090407e+00 1.206809e+00 1.900114e+00 1.512110e+00 1.013287e+00 1.253233e+00 8.528755e-01 1.171099e+00 6.059910e-02 6.302894e-02 1.323140e-01 1.426515e-01 1.808942e-01 2.596687e-01 2.382051e-01 3.483198e-01 2.193573e-01 3.419259e-01 2.048416e-01 1.413544e-01 3.011812e-01 1.008728e-02
<GCONST> 6.525163e+01
<MIXTURE> 15 5.235122e-02
<MEAN> 39
 1.950651e+00 3.181048e+00 -5.187883e+00 -6.149299e-01 9.367933e-01 3.968479e+00 2.702242e+00 1.044693e+00 2.399065e+00 2.876728e-01 -1.751671e+00 -9.346535e-01 1.897251e+01 -6.906521e-01 -6.996956e-01 3.953752e-01 -4.474203e-01 8.710516e-01 -3.474044e-01 -1.925366e-01 2.767322e-01 2.665645e-01 -3.429322e-01 -2.752656e-01 -2.379957e-01 -6.719585e-02 -5.341673e-01 -4.447427e-01 2.483089e-01 -5.682411e-02 5.506744e-01 1.573410e-02 6.365532e-02 1.562380e-01 1.128283e-02 1.714074e-01 4.620875e-01 2.674306e-01 5.374270e-02
<VARIANCE> 39
 3.416923e+00 2.848438e+00 3.533640e+00 5.516011e+00 7.483403e+00 1.007292e+01 9.194478e+00 3.681722e+00 6.363315e+00 8.596658e+00 5.424273e+00 6.022670e+00 5.386341e-01 1.057622e+00 8.877525e-01 9.111125e-01 7.976713e-01 1.196541e+00 1.270627e+00 1.143057e+00 1.485066e+00 1.957483e+00 1.578216e+00 1.036882e+00 1.391598e+00 4.247514e-02 8.493457e-02 1.411082e-01 1.209416e-01 1.952081e-01 1.513236e-01 2.887835e-01 2.474469e-01 1.504427e-01 2.596347e-01 2.253810e-01 1.849844e-01 1.825719e-01 5.724736e-03
<GCONST> 6.455767e+01
<MIXTURE> 16 5.985081e-02
<MEAN> 39
 -3.022257e+00 -1.780072e+00 -9.295825e-01 5.989618e-01 1.251476e+00 -8.929327e-01 5.001281e+00 8.609833e+00 1.310161e+00 -6.365795e-01 -4.064216e+00 9.292064e-01 2.076365e+01 -3.950736e-01 -1.748031e+00 -2.014259e+00 6.365569e-01 3.657596e+00 1.055457e+00 -1.017266e-01 2.223205e-02 1.050905e+00 -1.067483e+00 -8.018272e-01 -4.424745e-01 -1.793362e-01 -7.262228e-02 1.521608e-01 8.122371e-02 -3.713757e-01 -3.152882e-01 -3.032521e-02 -4.681913e-01 -8.791029e-01 -2.460331e-01 2.828604e-01 6.069605e-01 -3.624102e-01 2.145360e-02
<VARIANCE> 39
 8.645261e+00 1.554748e+01 1.667111e+01 1.685088e+01 3.035828e+01 3.647195e+01 2.244430e+01 2.496023e+01 2.088161e+01 2.751741e+01 1.604715e+01 1.737522e+01 5.949181e-01 7.416041e-01 1.550467e+00 6.439268e-01 1.905115e+00 2.494075e+00 2.567032e+00 2.286509e+00 3.281971e+00 2.215544e+00 2.106475e+00 2.355011e+00 2.484827e+00 3.572645e-02 6.580243e-02 2.155150e-01 1.528145e-01 1.847424e-01 2.726108e-01 4.490196e-01 4.965378e-01 4.488120e-01 3.743976e-01 4.088277e-01 2.704056e-01 2.803776e-01 5.491512e-03
<GCONST> 9.012489e+01
<MIXTURE> 17 4.853660e-02
<MEAN> 39
 -1.128184e+00 -7.498219e-01 -4.212680e+00 3.770359e-01 1.015469e+01 -6.806355e-01 -1.765691e+00 -1.250910e-01 -2.166951e+00 -6.219089e+00 -6.700244e+00 1.133457e+00 2.020883e+01 -1.674154e+00 -1.358174e+00 1.626675e-01 1.123756e+00 2.015381e+00 4.123430e-01 7.940443e-01 -8.041931e-02 7.775613e-01 1.836638e-01 1.192809e+00 2.757362e-01 -3.328383e-01 -1.804320e-02 -1.714381e-01 -3.192649e-01 -5.589187e-01 -6.673676e-01 -1.631135e-01 -1.006093e-01 4.094224e-01 2.536341e-01 4.184497e-01 2.693726e-01 -7.770414e-02 2.558818e-02
<VARIANCE> 39
 5.348239e+00 2.589918e+01 1.597387e+01 1.235217e+01 3.411866e+01 3.437436e+01 3.589403e+01 2.343306e+01 2.071736e+01 4.446432e+01 2.099052e+01 3.067072e+01 7.536400e-01 4.101436e-01 7.008495e-01 1.012134e+00 1.377589e+00 2.425090e+00 2.375555e+00 1.518014e+00 3.203860e+00 4.028730e+00 2.724376e+00 2.306079e+00 2.899212e+00 3.210435e-02 8.501127e-02 1.795152e-01 1.488883e-01 2.152119e-01 3.393531e-01 2.818109e-01 2.967245e-01 3.495225e-01 4.171238e-01 3.738201e-01 3.546259e-01 3.059041e-01 6.098710e-03
<GCONST> 9.056477e+01
<MIXTURE> 18 4.752996e-02
<MEAN> 39
 1.493959e+00 2.017846e+00 -3.457613e+00 6.684405e-01 3.260191e+00 4.559787e+00 3.212095e+00 3.704492e+00 2.617891e+00 3.599494e+00 2.649099e+00 9.401506e-01 1.990120e+01 -1.537909e+00 -1.316366e+00 5.019695e-01 -7.358670e-01 1.561799e+00 -1.181113e+00 -1.154324e+00 1.125447e-01 -4.398522e-01 -6.505359e-01 -4.633412e-01 -8.073173e-01 -2.236402e-01 -5.185111e-01 -3.240478e-01 4.153802e-03 -1.060566e-01 3.326702e-01 -1.379617e-01 -1.192109e-01 -2.387261e-01 -1.051688e-01 -2.679937e-01 -1.789333e-01 -2.091868e-01 -5.877191e-02
<VARIANCE> 39
 3.626708e+00 3.009420e+00 5.613813e+00 6.969132e+00 1.039248e+01 1.039259e+01 9.243032e+00 1.091675e+01 8.466412e+00 1.147898e+01 1.300178e+01 1.012908e+01 8.996707e-01 3.285368e-01 1.244857e+00 1.404361e+00 1.235923e+00 1.592291e+00 2.330324e+00 1.050278e+00 1.667236e+00 1.313106e+00 1.226483e+00 1.986157e+00 1.443407e+00 4.071976e-02 9.806640e-02 1.335811e-01 1.701648e-01 1.402229e-01 1.818715e-01 2.548176e-01 2.341773e-01 2.666865e-01 2.494170e-01 2.710573e-01 2.936348e-01 1.956069e-01 9.218684e-03
<GCONST> 7.208583e+01
<MIXTURE> 19 2.598503e-02
<MEAN> 39
 -1.842349e+00 9.400427e-02 -6.422034e+00 -2.941590e-01 -4.116910e-01 2.202798e+00 -7.900799e-01 -1.586000e+00 -8.503296e-01 6.891906e-01 1.731520e+00 2.464876e+00 1.644128e+01 -4.338436e-01 -1.020850e+00 1.772095e-01 -3.909218e-01 5.579158e-01 -3.139503e-01 -5.597899e-01 1.871337e-01 4.260283e-01 -4.213402e-01 -7.158039e-01 -7.717239e-01 -9.446960e-02 -1.871036e-01 -3.102598e-01 2.597014e-01 7.587228e-02 4.726457e-01 1.366661e-01 1.257316e-01 3.711922e-01 3.648841e-01 1.520020e-01 -8.419921e-02 3.629960e-02 1.801973e-01
<VARIANCE> 39
 2.066128e+00 9.284405e+00 6.312516e+00 7.715379e+00 9.271991e+00 1.271898e+01 5.972898e+00 1.405477e+01 1.300880e+01 1.034221e+01 1.146448e+01 1.118768e+01 8.154806e-01 3.640802e-01 9.144974e-01 6.984239e-01 8.230990e-01 1.237039e+00 2.235264e+00 7.741542e-01 1.344115e+00 1.860812e+00 1.312101e+00 1.455222e+00 1.577269e+00 1.083026e-01 4.111128e-02 9.282191e-02 1.026448e-01 2.467422e-01 1.251152e-01 3.366081e-01 1.305957e-01 2.616360e-01 3.408408e-01 1.793755e-01 3.031495e-01 3.994286e-01 1.063405e-02
<GCONST> 7.093553e+01
<MIXTURE> 20 3.113624e-02
<MEAN> 39
 -2.301243e+00 9.196436e-01 1.901965e+00 -9.121346e+00 -5.387174e+00 -7.049482e-01 7.299066e+00 -6.629978e-01 -6.098656e+00 -3.224746e+00 -6.336691e+00 -2.748687e+00 2.031535e+01 -7.992350e-01 -1.891974e+00 -9.402381e-01 2.750627e+00 3.670194e+00 7.014971e-01 5.991564e-01 8.626421e-01 -8.244551e-01 -2.075557e+00 8.856087e-01 5.874205e-01 -3.078446e-01 -1.358305e-01 -3.095992e-01 -3.485239e-01 2.072456e-01 2.452173e-01 -2.290543e-01 -8.144367e-01 -1.635052e-01 4.872956e-01 3.441047e-01 5.271191e-01 4.908931e-01 2.523004e-02
<VARIANCE> 39
 7.416975e+00 1.700215e+01 2.057200e+01 2.144202e+01 1.613892e+01 4.289994e+01 1.914790e+01 2.728398e+01 2.403989e+01 2.507233e+01 1.666928e+01 3.701657e+01 8.336109e-01 5.081011e-01 1.279284e+00 1.208928e+00 1.630739e+00 2.676647e+00 2.892107e+00 2.832098e+00 2.154623e+00 1.772369e+00 1.867669e+00 1.852816e+00 1.867891e+00 1.954802e-02 4.064615e-02 1.978041e-01 1.119473e-01 3.937094e-01 3.444610e-01 4.269647e-01 2.619775e-01 4.780437e-01 3.719029e-01 3.650458e-01 3.472886e-01 4.691833e-01 3.288659e-03
<GCONST> 8.918539e+01
<STATE> 3
<NUMMIXES> 20
<MIXTURE> 1 7.819176e-02
<MEAN> 39
 -1.992009e-01 -5.348746e-02 -3.812902e+00 3.360602e-02 3.920059e+00 2.269750e+00 1.761854e+00 4.444901e+00 2.829091e+00 1.690889e+00 1.452995e+00 7.562572e-02 1.919089e+01 -1.200022e+00 -1.534441e+00 4.434752e-01 4.571739e-03 1.797749e+00 -3.270189e-01 -3.560285e-02 7.768893e-01 6.799911e-01 -3.227988e-01 2.753084e-01 -6.758735e-02 1.163077e-01 -2.996293e-01 -1.835600e-01 -6.813668e-02 8.243930e-02 1.630350e-01 1.246247e-01 3.243485e-02 -3.563566e-01 -1.562476e-01 -8.559979e-02 4.561799e-02 1.572971e-01 1.575145e-02
<VARIANCE> 39
 2.723516e+00 1.096212e+01 8.460124e+00 1.025676e+01 1.054114e+01 1.717179e+01 1.307419e+01 1.367246e+01 1.554217e+01 1.554180e+01 8.249492e+00 1.580688e+01 1.057125e+00 5.266467e-01 9.069309e-01 1.434303e+00 1.486974e+00 1.470089e+00 1.842080e+00 1.942508e+00 2.008721e+00 2.619754e+00 1.666635e+00 1.593492e+00 2.392890e+00 5.494408e-02 7.374694e-02 9.877273e-02 1.373493e-01 1.697514e-01 1.517909e-01 2.152281e-01 2.151095e-01 2.093822e-01 2.286759e-01 2.007841e-01 1.562815e-01 2.989446e-01 9.200001e-03
<GCONST> 7.658645e+01
<MIXTURE> 2 2.083222e-02
<MEAN> 39
 -3.250915e+00 -3.863844e+00 -4.267817e+00 5.413027e+00 7.218394e+00 -2.406955e+00 -1.017021e-01 5.556071e+00 5.623381e+00 -1.609219e+00 -2.510846e+00 2.568854e+00 2.031879e+01 -4.780368e-01 -1.551032e+00 -1.004109e-01 4.880152e-01 1.820146e+00 2.743538e-01 -3.691327e-01 8.969603e-01 6.010171e-01 1.562191e-01 7.858781e-01 5.818775e-01 5.529255e-02 2.171775e-01 4.283196e-01 2.834550e-01 -7.922514e-01 -8.567527e-01 4.580463e-01 1.191433e-01 -6.086605e-01 -6.326419e-01 2.779105e-01 4.070159e-01 -3.976444e-01 3.122490e-02
<VARIANCE> 39
 1.823777e+01 2.606945e+01 1.683096e+01 4.322837e+01 1.866888e+01 3.224582e+01 5.107750e+01 3.961149e+01 1.987632e+01 3.185027e+01 1.858119e+01 2.375440e+01 1.208163e+00 6.115354e-01 1.226456e+00 2.040598e+00 2.377504e+00 3.776535e+00 2.625409e+00 3.808519e+00 4.115039e+00 3.382401e+00 1.949008e+00 1.983231e+00 2.042374e+00 4.121160e-02 2.392541e-01 2.962547e-01 4.470832e-01 4.458394e-01 4.204724e-01 4.350690e-01 8.059011e-01 8.180940e-01 2.916468e-01 4.382502e-01 3.338780e-01 6.607481e-01 6.914712e-03
<GCONST> 1.026894e+02
<MIXTURE> 3 3.809622e-02
<MEAN> 39
 -5.180675e+00 1.339354e+00 -6.539359e+00 -8.086875e-01 1.319775e+01 -3.654044e+00 1.193965e+00 3.951058e+00 4.161176e+00 8.419176e-01 2.960649e+00 -8.444324e-01 2.018394e+01 -1.947490e+00 -1.196351e+00 -1.022831e-01 9.256914e-01 2.219817e+00 -8.394879e-01 3.894718e-01 7.835605e-01 1.054072e+00 -1.782518e-01 7.970790e-01 3.083310e-01 1.880932e-02 3.343688e-01 -4.466479e-02 -8.622530e-02 -9.496407e-02 -9.594436e-01 6.591992e-01 -8.286846e-02 -4.867203e-01 -4.410912e-01 -1.444644e-01 -2.692479e-01 6.813046e-02 4.595712e-02
<VARIANCE> 39
 7.830108e+00 8.685016e+00 1.666813e+01 1.650443e+01 1.343559e+01 2.529381e+01 4.619200e+01 2.149703e+01 2.054002e+01 2.270600e+01 1.956620e+01 2.484147e+01 6.744948e-01 6.606035e-01 7.324148e-01 7.857093e-01 1.150109e+00 1.939681e+00 2.760014e+00 2.459084e+00 2.870287e+00 2.712332e+00 2.059101e+00 2.450717e+00 1.275826e+00 8.065057e-02 1.336358e-01 1.141274e-01 2.659633e-01 3.407737e-01 2.978687e-01 3.830779e-01 5.823536e-01 4.376119e-01 3.557124e-01 2.338598e-01 2.798774e-01 2.558821e-01 1.052155e-02
<GCONST> 8.952851e+01
<MIXTURE> 4 6.642019e-02
<MEAN> 39
 -4.475727e+00 2.770855e-01 -5.425764e-01 -2.945210e+00 2.426932e+00 3.584806e+00 -2.422543e+00 3.848232e+00 5.030743e-01 1.088403e+00 1.840240e+00 9.697586e-01 1.761294e+01 4.020022e-01 -8.629940e-02 -3.840878e-01 4.499682e-01 3.197630e-02 -2.202144e-01 2.971673e-01 -2.630155e-01 6.940796e-02 -4.063547e-02 -1.824708e-01 -2.389897e-02 2.089193e-02 -3.081396e-04 3.106986e-02 -1.714596e-02 2.020319e-01 -9.206600e-04 -1.614952e-02 2.306121e-01 -1.706965e-01 1.953753e-01 1.086219e-01 -4.402522e-02 -3.076866e-02 4.249068e-02
<VARIANCE> 39
 7.291215e+00 1.146027e+01 2.062164e+01 1.713514e+01 1.264299e+01 1.401303e+01 3.027048e+01 2.157792e+01 1.646132e+01 1.273933e+01 1.509529e+01 1.800070e+01 8.873073e-01 1.564664e+00 1.233183e+00 9.987983e-01 1.657778e+00 1.949893e+00 1.727832e+00 2.291805e+00 2.576766e+00 1.522004e+00 1.463615e+00 1.151254e+00 1.495273e+00 6.429172e-02 1.420567e-01 1.491945e-01 2.023620e-01 3.367232e-01 2.264234e-01 3.163757e-01 3.869957e-01 5.494355e-01 3.270350e-01 2.667748e-01 2.909296e-01 3.322175e-01 1.381153e-02
<GCONST> 8.742941e+01
<MIXTURE> 5 5.871361e-02
<MEAN> 39
 -2.214042e+00 -4.482901e+00 -4.200199e+00 6.732650e-01 6.962655e+00 1.112409e+00 8.395991e-01 1.927905e+00 1.199283e-01 -2.200609e+00 -3.656488e+00 1.729834e+00 1.914997e+01 -7.663896e-01 -7.456380e-01 -2.199421e-01 2.078791e-01 1.579207e+00 5.364329e-01 3.700922e-01 -2.099167e-01 2.276058e-01 3.344121e-01 7.167999e-01 -9.773681e-02 7.886973e-02 3.841780e-02 2.257883e-01 1.085337e-01 -7.729058e-02 -4.349862e-01 9.925555e-02 2.074901e-01 -1.194198e-02 8.526046e-02 4.700036e-01 3.542009e-01 -9.434524e-02 8.292481e-02
<VARIANCE> 39
 7.722334e+00 9.697332e+00 1.223006e+01 1.409577e+01 2.142722e+01 2.299155e+01 2.601678e+01 1.586222e+01 1.135593e+01 2.086428e+01 1.932254e+01 2.872408e+01 1.103333e+00 4.490594e-01 4.419560e-01 8.023254e-01 1.027110e+00 1.807901e+00 1.728601e+00 1.906559e+00 2.176913e+00 2.293561e+00 2.419103e+00 2.529435e+00 2.227896e+00 4.150915e-02 4.046546e-02 8.526418e-02 1.075453e-01 1.587039e-01 1.979288e-01 2.565289e-01 2.690418e-01 2.280553e-01 2.944762e-01 3.363477e-01 3.111292e-01 4.711305e-01 8.832607e-03
<GCONST> 8.179040e+01
<MIXTURE> 6 5.524343e-02
<MEAN> 39
 -6.529472e-01 -1.239455e+00 -4.023998e+00 -4.771345e-01 8.664098e+00 6.606395e+00 2.696337e+00 2.647146e-01 4.774787e-01 3.241012e+00 1.941564e+00 -9.058864e-02 2.008696e+01 -1.008030e+00 -9.749303e-01 -3.966925e-02 -1.270508e-01 1.063999e+00 9.375969e-02 -4.841129e-02 -3.056591e-01 2.060805e-01 2.816727e-01 4.593954e-01 -3.523651e-01 2.939396e-03 -4.080287e-02 -5.282305e-02 -1.318017e-01 -6.957676e-02 -5.842447e-01 -1.593231e-01 -3.421547e-03 1.786575e-01 2.453797e-01 -1.193068e-01 -1.357458e-01 -6.243330e-02 -2.470252e-02
<VARIANCE> 39
 5.793258e+00 9.230644e+00 1.187206e+01 2.063084e+01 1.213665e+01 2.078361e+01 2.306400e+01 1.685534e+01 1.505294e+01 9.851004e+00 9.266161e+00 1.446481e+01 1.182552e+00 8.025162e-01 1.013069e+00 1.036842e+00 9.177328e-01 1.872683e+00 1.872397e+00 1.741923e+00 1.825227e+00 1.721337e+00 2.002094e+00 1.420645e+00 1.734749e+00 5.167080e-02 6.986579e-02 7.057136e-02 1.350825e-01 1.985310e-01 1.340891e-01 1.535279e-01 3.894002e-01 2.534193e-01 1.872430e-01 2.240576e-01 1.511483e-01 2.299503e-01 4.674206e-03
<GCONST> 7.702043e+01
<MIXTURE> 7 5.524363e-02
<MEAN> 39
 -1.283029e+00 -3.660589e+00 -1.547026e-01 1.024136e-01 3.571424e+00 3.715110e+00 -9.392738e-01 3.001969e+00 3.259978e+00 9.009446e-01 6.074533e-01 1.560665e+00 1.943394e+01 -1.859842e+00 -2.429717e+00 1.277364e+00 -1.251259e-01 1.192032e+00 -1.337852e-01 -6.595801e-01 2.700828e-01 5.391918e-01 -2.038357e-01 -2.262037e-01 3.189243e-01 2.396371e-02 -1.121487e-01 5.837020e-02 -4.186919e-01 1.279922e-01 7.476379e-02 1.537335e-01 4.555263e-01 -1.018548e-01 -2.165383e-01 6.718188e-02 -1.475732e-01 -2.068454e-02 6.037373e-02
<VARIANCE> 39
 6.172675e+00 1.205966e+01 7.158441e+00 1.511633e+01 1.026214e+01 1.911384e+01 1.542081e+01 2.255477e+01 1.934842e+01 1.948599e+01 1.807769e+01 1.216332e+01 1.579107e+00 7.310671e-01 1.453920e+00 9.890995e-01 1.506379e+00 1.826778e+00 1.954390e+00 1.710291e+00 2.009588e+00 1.659887e+00 2.389168e+00 2.535669e+00 2.026141e+00 7.629457e-02 1.251991e-01 1.884778e-01 1.789882e-01 2.221375e-01 1.807794e-01 3.173436e-01 2.174544e-01 5.326455e-01 4.421192e-01 2.415575e-01 3.406682e-01 1.788815e-01 1.037745e-02
<GCONST> 8.540394e+01
<MIXTURE> 8 6.549992e-02
<MEAN> 39
 -5.852729e+00 3.605847e+00 -8.889994e+00 -6.623693e+00 1.080254e+01 5.900766e+00 -1.235109e+00 -1.655059e+00 4.118656e+00 3.324898e+00 4.600135e+00 -2.158496e+00 2.019586e+01 -1.246081e+00 -8.293145e-01 3.397470e-01 1.213870e+00 1.382515e+00 4.310290e-03 -3.036536e-01 -3.544942e-02 9.393831e-01 3.449182e-01 -6.867336e-02 -2.343038e-01 1.126973e-02 6.842487e-01 -2.293826e-01 1.023392e-01 -2.048332e-01 -6.120813e-01 -5.465402e-02 3.693886e-01 4.312083e-02 -4.806323e-01 -3.999972e-01 -6.361184e-01 1.749097e-02 1.106076e-01
<VARIANCE> 39
 1.121457e+01 1.036994e+01 1.812069e+01 2.141012e+01 2.636816e+01 3.399932e+01 3.447331e+01 2.615871e+01 2.513896e+01 2.476517e+01 3.180854e+01 1.552270e+01 1.022215e+00 7.361225e-01 6.351821e-01 9.354535e-01 8.721398e-01 1.259863e+00 1.637289e+00 1.474119e+00 2.445062e+00 2.426091e+00 1.991204e+00 2.186497e+00 1.816345e+00 3.492786e-02 1.073857e-01 9.074116e-02 1.933294e-01 3.066171e-01 2.761754e-01 3.963290e-01 4.672075e-01 5.670483e-01 3.395669e-01 6.017004e-01 3.674668e-01 4.171644e-01 9.247096e-03
<GCONST> 9.015308e+01
<MIXTURE> 9 4.334645e-02
<MEAN> 39
 -4.379828e+00 -7.072962e+00 -2.017125e+00 -1.755612e-01 6.474528e+00 2.721289e-01 3.905083e+00 2.589538e+00 -4.515287e+00 -4.592085e+00 -1.603841e+00 3.546153e+00 1.982852e+01 -7.206088e-01 -1.273790e+00 -8.341358e-01 9.692779e-01 2.197073e+00 2.612528e-01 -1.137765e-01 2.713074e-02 6.831980e-01 7.823482e-02 9.580070e-01 -2.115673e-03 -9.000717e-02 2.882713e-01 5.594575e-01 2.435000e-02 -2.367711e-01 -8.507570e-01 1.044253e-01 -2.191351e-01 -2.260780e-01 3.555737e-01 3.685484e-01 -3.464833e-01 -4.042194e-01 9.861013e-02
<VARIANCE> 39
 6.909956e+00 1.556127e+01 1.362905e+01 2.168447e+01 2.156989e+01 2.128659e+01 3.397695e+01 2.817681e+01 1.282468e+01 2.008122e+01 1.820486e+01 1.902795e+01 6.537183e-01 5.634080e-01 8.691150e-01 1.282694e+00 1.028288e+00 2.155029e+00 1.983826e+00 1.680525e+00 1.706205e+00 2.250568e+00 2.321538e+00 1.580039e+00 1.452720e+00 4.949619e-02 3.666084e-02 9.771651e-02 1.633302e-01 1.451166e-01 3.017972e-01 3.444025e-01 2.388813e-01 4.661174e-01 2.832751e-01 4.157443e-01 2.570216e-01 2.414948e-01 5.273493e-03
<GCONST> 8.356189e+01
<MIXTURE> 10 2.929607e-02
<MEAN> 39
 -4.157951e+00 1.002419e+00 -3.183314e+00 1.646667e-01 1.099977e+01 3.627203e+00 1.212207e+00 3.549784e+00 3.245302e+00 4.261551e+00 4.461037e+00 -1.428021e+00 2.100471e+01 -1.762805e+00 -9.926485e-01 -4.783230e-01 -3.138833e-01 9.227818e-01 -5.948961e-01 -7.113842e-01 -8.008529e-01 -9.807134e-02 -1.747326e-01 -3.191452e-01 -1.120699e+00 -2.736693e-01 2.590172e-01 -1.569124e-01 -2.819486e-01 -4.463572e-02 -8.288810e-01 1.435072e-02 3.166164e-01 -3.400174e-01 -6.845010e-02 -2.735153e-01 -4.521581e-01 -9.891833e-03 -5.434901e-02
<VARIANCE> 39
 9.672028e+00 1.730491e+01 1.133897e+01 1.212883e+01 1.402670e+01 1.948481e+01 1.358517e+01 1.687430e+01 2.147950e+01 1.423222e+01 1.951719e+01 1.389627e+01 1.571711e+00 1.076977e+00 1.015486e+00 9.849382e-01 1.128247e+00 2.031881e+00 1.727693e+00 1.733988e+00 2.229147e+00 2.275502e+00 1.608387e+00 1.290967e+00 1.749176e+00 9.546642e-02 1.308706e-01 2.382744e-01 1.436562e-01 1.717906e-01 3.312103e-01 3.701716e-01 2.094415e-01 6.263544e-01 4.035196e-01 2.070111e-01 2.551020e-01 3.064473e-01 1.097542e-02
<GCONST> 8.626707e+01
<MIXTURE> 11 3.287882e-02
<MEAN> 39
 -1.925687e+00 4.292676e+00 -5.766747e+00 6.226843e-01 9.127195e-01 3.261101e+00 3.098551e+00 2.618751e+00 1.903552e+00 1.818087e+00 2.620579e+00 -4.543422e-02 1.846749e+01 -6.810375e-01 -7.813746e-01 6.264216e-01 -5.621829e-02 8.262849e-01 -3.513736e-01 8.101474e-02 4.803311e-01 4.900292e-01 7.992088e-02 2.596858e-01 3.430184e-01 1.123118e-01 -4.568538e-01 -4.380117e-01 4.368204e-01 -2.742514e-01 4.480039e-01 -5.332550e-02 -2.088048e-01 2.351040e-01 1.245493e-01 -9.391963e-02 -3.480814e-02 2.527393e-01 3.758990e-02
<VARIANCE> 39
 4.891538e+00 9.038879e+00 6.086586e+00 1.108530e+01 1.198509e+01 1.110661e+01 1.170353e+01 9.140344e+00 1.566894e+01 1.127558e+01 1.307791e+01 1.434755e+01 7.241246e-01 2.787817e+00 2.218275e+00 1.641925e+00 2.822215e+00 2.922013e+00 2.357914e+00 2.372748e+00 1.803595e+00 3.386649e+00 1.420857e+00 1.663675e+00 1.439055e+00 4.155662e-02 2.813379e-01 2.864066e-01 1.732702e-01 2.540577e-01 3.573826e-01 4.297757e-01 2.531437e-01 2.507431e-01 3.683951e-01 1.731934e-01 3.054082e-01 4.243223e-01 1.160828e-02
<GCONST> 8.580692e+01
<MIXTURE> 12 3.836709e-02
<MEAN> 39
 -1.033586e+01 5.418828e+00 -2.487620e+00 -2.740565e+00 1.439917e+00 4.092780e+00 9.920163e-01 2.281750e+00 2.446946e+00 6.103527e-01 2.249682e+00 2.239539e+00 1.811250e+01 -4.976529e-01 -3.135657e-01 1.728440e-01 -2.721485e-01 3.616529e-01 -5.811729e-02 -5.929506e-01 4.593529e-01 -3.848149e-01 -2.348241e-01 -2.043701e-01 -2.247144e-01 -1.011472e-01 9.556856e-01 -3.739787e-01 -1.719536e-01 2.554328e-01 5.809719e-02 -2.142229e-01 8.082220e-02 5.186306e-02 -9.005381e-02 1.364431e-01 -9.849974e-02 -1.539775e-01 -1.939156e-04
<VARIANCE> 39
 1.731875e+01 2.306032e+01 2.685110e+01 1.748954e+01 2.567945e+01 3.294449e+01 2.053335e+01 2.725643e+01 2.697551e+01 2.333767e+01 1.548035e+01 1.800039e+01 1.086128e+00 3.487637e+00 1.654634e+00 1.109929e+00 1.384430e+00 2.318398e+00 2.568456e+00 1.328095e+00 2.104493e+00 2.509158e+00 1.852604e+00 2.073115e+00 1.612998e+00 5.145407e-02 2.763191e-01 3.584379e-01 3.268516e-01 4.213511e-01 5.567647e-01 5.468745e-01 5.036982e-01 6.424313e-01 5.038606e-01 4.666869e-01 3.784570e-01 3.471840e-01 1.315458e-02
<GCONST> 9.939521e+01
<MIXTURE> 13 6.330319e-02
<MEAN> 39
 -3.074435e+00 -1.296654e+00 -4.128069e-01 -4.070236e+00 6.747456e+00 3.062972e+00 -1.304164e+00 4.379946e+00 3.231642e+00 1.188892e+00 1.892629e+00 -1.373115e+00 1.879068e+01 -1.812121e+00 -1.907563e+00 5.054318e-01 -9.619765e-01 1.887309e+00 -3.103441e-01 -8.100275e-01 -1.806274e-01 -4.804031e-02 -6.129648e-01 -1.481970e-01 -5.224578e-01 -1.221677e-01 1.938948e-02 -3.724815e-02 -4.118888e-01 3.969609e-01 -1.994051e-01 1.790682e-01 4.731636e-01 -4.562054e-01 -2.895713e-01 -1.007620e-02 -8.874737e-02 1.424763e-01 5.280706e-02
<VARIANCE> 39
 4.777458e+00 8.390920e+00 1.148732e+01 1.111390e+01 1.270133e+01 1.747069e+01 2.008994e+01 1.516117e+01 1.643375e+01 2.265350e+01 1.175092e+01 1.903482e+01 1.310867e+00 7.347494e-01 8.182796e-01 1.080286e+00 1.510263e+00 1.422344e+00 2.203260e+00 2.632643e+00 2.595002e+00 2.027997e+00 2.519901e+00 1.346826e+00 1.724848e+00 4.340757e-02 1.080421e-01 8.808054e-02 1.885536e-01 1.896641e-01 2.788204e-01 2.596523e-01 3.370728e-01 3.010909e-01 4.039880e-01 3.402856e-01 2.299794e-01 2.738783e-01 9.131349e-03
<GCONST> 8.297680e+01
<MIXTURE> 14 4.660899e-02
<MEAN> 39
 -2.606886e+00 -2.753247e+00 -4.703275e+00 -3.011977e+00 7.943419e+00 8.281211e+00 3.821607e+00 2.700847e+00 6.573738e+00 2.131907e+00 1.623065e+00 2.365904e+00 2.017630e+01 -1.314006e+00 -9.479127e-01 -1.391009e-01 1.438910e-01 1.349311e+00 1.102615e-01 -2.044038e-01 -9.096431e-01 4.008854e-01 -3.386239e-01 2.587427e-01 2.821784e-02 -6.299826e-02 1.179113e-01 9.244394e-02 8.234891e-04 5.638769e-02 -5.501441e-01 -4.506764e-01 -3.200200e-01 -3.424965e-01 -5.220330e-01 -2.115384e-01 -3.261891e-01 -2.595398e-01 -7.702111e-02
<VARIANCE> 39
 7.229651e+00 1.419558e+01 1.243475e+01 1.456108e+01 1.872605e+01 4.022761e+01 2.155163e+01 1.853509e+01 1.402165e+01 1.547840e+01 2.378510e+01 1.667332e+01 1.000074e+00 5.303796e-01 8.103894e-01 6.634960e-01 1.274101e+00 2.256959e+00 1.813480e+00 1.714543e+00 1.202383e+00 1.969396e+00 1.606654e+00 1.971926e+00 2.407830e+00 4.437710e-02 8.347882e-02 8.196887e-02 1.749289e-01 1.729752e-01 2.279976e-01 2.675052e-01 2.687539e-01 2.258498e-01 2.847939e-01 1.897475e-01 3.175801e-01 2.576369e-01 8.558379e-03
<GCONST> 8.193609e+01
<MIXTURE> 15 6.421359e-02
<MEAN> 39
 -2.312473e+00 -5.891640e-01 -6.636737e+00 -4.304540e+00 6.610555e+00 8.802149e+00 -3.279073e-01 -1.168629e+00 -2.142258e-01 2.114844e+00 2.980613e+00 -3.919467e+00 2.001518e+01 -1.098763e+00 -1.099437e+00 3.078687e-01 2.831540e-01 1.110739e+00 1.509682e-01 -1.819328e-01 -3.239494e-01 6.631537e-02 -4.404733e-01 -2.737011e-01 -5.408008e-01 -1.514160e-01 4.255244e-01 -9.001352e-03 -1.250448e-01 -1.862101e-01 -4.528112e-01 -2.714306e-01 3.041154e-01 1.827798e-01 -7.819352e-02 -2.612758e-02 -3.668992e-01 -3.784028e-02 9.696656e-02
<VARIANCE> 39
 5.937208e+00 1.373400e+01 1.702425e+01 2.480702e+01 2.391615e+01 3.136902e+01 3.047429e+01 1.894765e+01 2.689851e+01 1.750577e+01 2.081048e+01 2.639981e+01 7.943068e-01 4.155101e-01 4.724147e-01 1.018065e+00 1.366726e+00 1.246632e+00 1.219408e+00 1.946261e+00 1.212100e+00 1.511784e+00 2.240773e+00 2.069333e+00 1.206392e+00 3.079857e-02 5.662809e-02 1.250076e-01 2.580454e-01 2.873601e-01 3.317535e-01 3.585829e-01 4.007250e-01 2.361781e-01 2.979903e-01 3.286281e-01 4.757091e-01 3.502363e-01 5.527487e-03
<GCONST> 8.461757e+01
<MIXTURE> 16 5.768488e-02
<MEAN> 39
 -4.193326e+00 -7.495636e-01 -8.287568e+00 -5.053002e-01 1.174980e+01 8.417687e-01 2.058693e+00 4.197819e-01 -3.963166e-01 -5.281463e+00 -4.196615e+00 -2.863462e+00 2.014167e+01 -1.004199e+00 -6.078424e-01 -1.229762e-01 4.980969e-01 1.167408e+00 8.052924e-01 2.567250e-01 -4.532111e-01 -6.067924e-01 2.642052e-02 9.878802e-01 -1.280400e-01 -9.830809e-02 3.089751e-01 1.657022e-01 9.413908e-02 -3.134504e-01 -8.716068e-01 -4.037988e-01 -2.221254e-01 -1.056466e-01 3.863017e-02 4.419979e-01 1.311843e-01 7.898948e-02 6.630513e-02
<VARIANCE> 39
 9.154916e+00 1.150515e+01 1.422971e+01 1.243891e+01 1.704700e+01 4.625880e+01 2.632421e+01 4.428737e+01 1.968211e+01 3.026476e+01 3.642193e+01 3.056085e+01 9.401982e-01 4.930923e-01 3.982920e-01 7.932437e-01 1.156738e+00 1.647193e+00 1.458620e+00 1.759914e+00 1.388130e+00 1.424324e+00 1.899604e+00 1.874073e+00 2.271551e+00 2.479625e-02 6.280320e-02 1.006644e-01 1.794562e-01 1.537540e-01 2.308192e-01 3.219451e-01 3.787133e-01 3.272564e-01 2.851054e-01 4.025863e-01 5.048586e-01 3.664082e-01 3.762242e-03
<GCONST> 8.461141e+01
<MIXTURE> 17 6.571236e-02
<MEAN> 39
 -4.779320e+00 -1.658237e+00 -4.296667e+00 -2.694309e+00 1.356837e+01 -1.438146e+00 -5.520909e+00 4.932671e+00 4.232725e+00 -7.582865e-01 -1.015318e+00 -2.466458e+00 1.966578e+01 -1.296776e+00 -9.079753e-01 1.585394e-01 4.514308e-01 8.941776e-01 -1.357620e-01 2.128114e-01 1.048876e-01 9.609421e-01 -5.551181e-01 2.577881e-01 3.848152e-01 -1.099838e-01 3.915617e-01 1.244961e-01 -7.527889e-02 -7.777788e-02 -7.931724e-01 3.621331e-01 3.485294e-01 -5.266428e-01 -6.183606e-01 -1.591857e-01 -1.495894e-01 9.927237e-02 8.736318e-02
<VARIANCE> 39
 6.219921e+00 1.447646e+01 1.336963e+01 1.108020e+01 1.418006e+01 3.197815e+01 2.392291e+01 2.416631e+01 2.908407e+01 2.758146e+01 1.777708e+01 2.124085e+01 8.182406e-01 4.881260e-01 7.216869e-01 1.404966e+00 1.498497e+00 2.095555e+00 1.658431e+00 2.065291e+00 2.135942e+00 2.185622e+00 1.938091e+00 2.541542e+00 1.810248e+00 4.166484e-02 6.502604e-02 1.145733e-01 3.693267e-01 2.307052e-01 3.847129e-01 1.970193e-01 5.154846e-01 3.705810e-01 4.415426e-01 3.070801e-01 2.925355e-01 3.263354e-01 7.699920e-03
<GCONST> 8.748470e+01
<MIXTURE> 18 4.313132e-02
<MEAN> 39
 -4.027564e+00 -6.669736e+00 -4.500577e+00 6.184739e-02 6.633162e+00 4.519967e+00 1.761578e+00 4.448234e+00 5.950706e+00 -2.962999e+00 -5.023441e+00 6.921437e-01 1.990896e+01 -4.996541e-01 -8.768435e-01 -1.257185e+00 -2.076304e-01 2.331437e+00 2.714758e-01 -8.280342e-01 -1.052022e+00 3.819547e-01 -6.695069e-02 2.715556e-01 -8.196244e-01 -9.645445e-02 1.061628e-01 5.799487e-01 3.948622e-01 -1.088594e-01 -6.477167e-01 -2.125096e-01 2.615443e-01 -4.813614e-01 -5.019874e-01 3.859033e-01 6.162925e-01 -2.428425e-01 5.972420e-02
<VARIANCE> 39
 9.261185e+00 3.053181e+01 2.703646e+01 2.491458e+01 3.750491e+01 3.407002e+01 3.311340e+01 1.954933e+01 2.858496e+01 2.415498e+01 2.240019e+01 1.696920e+01 5.834749e-01 8.018533e-01 1.374152e+00 1.190628e+00 1.119022e+00 3.296883e+00 1.439116e+00 2.524862e+00 3.048594e+00 3.403553e+00 2.272447e+00 2.068460e+00 1.351405e+00 3.583905e-02 8.234926e-02 1.869020e-01 2.904249e-01 2.464350e-01 6.206453e-01 3.080110e-01 6.559911e-01 4.002996e-01 4.670497e-01 3.746762e-01 4.143226e-01 2.523851e-01 8.311251e-03
<GCONST> 9.453217e+01
<MIXTURE> 19 4.443944e-02
<MEAN> 39
 -1.357040e+00 2.083823e+00 -2.079790e+00 -6.927356e-01 -2.916427e-01 3.133373e+00 2.553435e+00 1.383837e+00 1.620835e+00 2.745195e+00 2.286607e+00 1.596921e+00 1.793176e+01 -3.549083e-01 -3.024876e-01 8.503170e-02 -5.009869e-01 1.594325e-01 2.725261e-01 -1.598057e-01 5.407522e-02 1.376764e-01 1.017818e-01 2.551859e-01 -4.222270e-01 -3.988902e-02 -4.267436e-01 -1.841744e-01 5.999075e-02 -1.538326e-01 3.734112e-01 6.155823e-02 -3.932737e-01 9.747577e-02 3.565271e-03 -2.267763e-01 -6.640764e-02 -3.278179e-02 3.453061e-04
<VARIANCE> 39
 3.741447e+00 2.502619e+00 8.270249e+00 4.839218e+00 6.286135e+00 1.163329e+01 1.244267e+01 1.229386e+01 1.225255e+01 1.081649e+01 1.127030e+01 6.168342e+00 7.429907e-01 1.719613e+00 8.174880e-01 9.804744e-01 1.176407e+00 1.671150e+00 1.666145e+00 2.076250e+00 2.544291e+00 1.545071e+00 1.689409e+00 1.254434e+00 1.170226e+00 6.356931e-02 1.450402e-01 1.554185e-01 1.694060e-01 1.328384e-01 2.245374e-01 3.229885e-01 2.454948e-01 5.321267e-01 3.830291e-01 2.819870e-01 2.909220e-01 1.505179e-01 1.270059e-02
<GCONST> 7.555099e+01
<MIXTURE> 20 3.277626e-02
<MEAN> 39
 -5.935588e+00 -2.330268e+00 -2.560796e+00 -8.236144e-02 5.391662e+00 6.771288e-01 3.924342e+00 2.323078e+00 -7.101318e+00 -7.709038e+00 -1.724691e+00 -1.439426e+00 1.998893e+01 -4.466933e-01 -1.259356e+00 -1.358015e+00 1.838652e+00 2.284137e+00 -4.227285e-01 -1.143716e+00 7.151170e-01 2.622969e-01 -9.313501e-01 1.143611e-01 3.461215e-01 -1.014148e-01 2.004291e-01 3.602517e-01 1.753792e-01 -7.449000e-01 -7.382506e-01 -1.414286e-01 -3.590174e-01 -5.741277e-01 3.952054e-01 3.399952e-01 -4.100842e-01 -7.954072e-02 5.173936e-02
<VARIANCE> 39
 3.979206e+00 1.873492e+01 1.489758e+01 1.927690e+01 1.619375e+01 4.436076e+01 4.193435e+01 5.168571e+01 1.736015e+01 3.856091e+01 3.531758e+01 2.496755e+01 6.611484e-01 2.666125e-01 3.842980e-01 7.971281e-01 1.368915e+00 1.472116e+00 2.488105e+00 2.087427e+00 2.184221e+00 1.354345e+00 1.670074e+00 2.518079e+00 1.843636e+00 1.914839e-02 5.335494e-02 7.327023e-02 1.372193e-01 1.364151e-01 2.381403e-01 5.260996e-01 6.075032e-01 3.600820e-01 2.432125e-01 3.783132e-01 4.410357e-01 3.524553e-01 5.059567e-03
<GCONST> 8.514857e+01
<STATE> 4
<NUMMIXES> 20
<MIXTURE> 1 4.437311e-02
<MEAN> 39
 -5.184154e+00 -3.466656e+00 -3.330734e+00 -1.088941e+00 9.750400e+00 1.258784e+00 -1.005167e+00 5.643059e+00 3.980483e+00 3.141060e+00 3.589463e+00 -1.125465e+00 2.050660e+01 -4.942662e-01 -3.778191e-01 5.773801e-01 7.165293e-01 2.356966e-01 3.591653e-01 7.259999e-01 2.450849e-01 2.098783e-01 8.010882e-01 6.740753e-01 4.436887e-02 2.312364e-01 2.171619e-01 3.313131e-02 -1.631978e-01 1.302761e-01 -8.203698e-02 2.542236e-01 3.171472e-01 -4.336916e-01 -3.839943e-01 -4.060294e-01 -4.505328e-01 -9.992888e-02 -4.924872e-03
<VARIANCE> 39
 9.049077e+00 1.961882e+01 1.430359e+01 1.934719e+01 1.406456e+01 1.536783e+01 1.922514e+01 2.902699e+01 2.151595e+01 2.397673e+01 1.772616e+01 2.009420e+01 5.900871e-01 5.128269e-01 4.371231e-01 6.505373e-01 5.959690e-01 8.193132e-01 1.078509e+00 1.909750e+00 1.504367e+00 1.489268e+00 1.662738e+00 1.921124e+00 2.242381e+00 3.263677e-02 5.130706e-02 8.995780e-02 9.412052e-02 1.114609e-01 2.150219e-01 2.767680e-01 2.775399e-01 2.930093e-01 3.441385e-01 3.709092e-01 1.957456e-01 3.124438e-01 6.298145e-03
<GCONST> 7.802047e+01
<MIXTURE> 2 4.221525e-02
<MEAN> 39
 -3.812979e+00 -3.782295e+00 -3.054006e+00 -5.488198e+00 5.652804e+00 1.037840e+01 1.807086e+00 -3.819438e+00 3.405881e+00 -2.828375e-01 8.181090e-01 1.223787e+00 1.944827e+01 -4.523820e-01 -1.180001e+00 -1.188476e-01 9.809794e-02 9.431915e-01 6.271979e-01 1.049434e+00 2.987038e-01 5.489278e-01 1.809481e-01 -7.001389e-01 5.500186e-02 1.562247e-01 5.773519e-01 3.691521e-01 -3.939877e-01 -7.116940e-02 -3.095109e-01 -3.969089e-01 2.496737e-01 5.285847e-01 -1.678131e-01 3.808364e-01 -3.394482e-01 -3.492380e-01 1.416881e-01
<VARIANCE> 39
 8.657134e+00 8.371039e+00 8.325258e+00 1.237318e+01 1.582001e+01 1.097142e+01 1.328962e+01 1.783512e+01 2.078111e+01 1.915409e+01 2.468419e+01 1.574731e+01 7.801480e-01 5.694609e-01 8.410693e-01 8.735189e-01 1.376746e+00 8.662730e-01 1.072978e+00 2.084401e+00 1.806398e+00 1.279868e+00 1.770810e+00 2.623341e+00 1.936062e+00 4.441668e-02 6.379846e-02 1.353954e-01 2.721875e-01 1.571120e-01 3.429578e-01 2.035424e-01 3.093268e-01 1.812180e-01 3.670662e-01 3.748884e-01 5.389781e-01 3.842591e-01 8.417464e-03
<GCONST> 8.116885e+01
<MIXTURE> 3 4.296219e-02
<MEAN> 39
 -5.586756e+00 -7.323452e+00 -7.200245e+00 3.779711e+00 9.652189e+00 2.320390e+00 4.887110e+00 6.436052e-01 -2.848542e+00 -2.755943e+00 -2.689697e+00 -3.214339e+00 2.010714e+01 1.234321e-02 -4.332920e-02 -4.099762e-01 5.683742e-01 4.397635e-01 5.168785e-01 4.011102e-01 -5.865054e-01 -3.427197e-01 2.780365e-01 7.198800e-01 -4.224474e-01 1.025466e-01 4.600176e-01 5.369162e-01 1.320899e-01 -5.933065e-01 -1.002950e+00 -2.600843e-01 1.191844e-01 1.994165e-01 2.859782e-01 1.657927e-01 -2.751662e-01 1.458750e-01 9.281896e-02
<VARIANCE> 39
 9.096725e+00 2.521843e+01 2.082744e+01 1.295933e+01 2.410919e+01 2.343375e+01 3.953536e+01 2.685088e+01 2.896917e+01 4.380318e+01 2.463310e+01 3.544276e+01 5.252692e-01 3.967477e-01 3.449811e-01 1.080037e+00 1.365082e+00 1.603872e+00 1.533198e+00 2.362741e+00 1.686888e+00 2.008706e+00 2.167023e+00 2.520289e+00 1.690886e+00 2.835317e-02 7.087240e-02 8.123228e-02 2.611528e-01 1.522684e-01 3.207255e-01 3.530679e-01 8.199665e-01 3.279242e-01 2.855500e-01 3.925525e-01 3.961043e-01 3.334730e-01 4.072106e-03
<GCONST> 8.773849e+01
<MIXTURE> 4 4.535831e-02
<MEAN> 39
 -3.990262e+00 -7.686887e+00 2.441354e+00 2.555437e+00 8.239317e+00 3.217121e+00 1.622505e+00 6.189266e+00 3.989193e+00 1.176225e+00 3.246798e+00 1.917886e+00 2.041554e+01 -1.201989e+00 -1.825393e+00 1.662128e-01 2.521323e-01 1.207919e+00 4.148325e-01 -7.374641e-02 -3.017168e-01 -6.438249e-02 1.664031e-01 2.043501e-01 -1.413858e-01 1.410147e-01 4.146578e-01 3.075258e-01 -9.005534e-01 -3.021365e-01 -5.075846e-01 6.868031e-02 2.602319e-02 -5.910437e-01 -5.273217e-01 -3.666892e-01 -5.356159e-01 -6.031160e-02 -3.489520e-02
<VARIANCE> 39
 5.333337e+00 8.928378e+00 5.624839e+00 1.300103e+01 1.437039e+01 2.595772e+01 1.661577e+01 1.654364e+01 1.578174e+01 2.096309e+01 2.144095e+01 1.743177e+01 6.315987e-01 1.006481e+00 1.624414e+00 1.125661e+00 1.191077e+00 1.241528e+00 1.619323e+00 1.859055e+00 1.336694e+00 1.876821e+00 1.813518e+00 1.250578e+00 1.397886e+00 6.653763e-02 9.525608e-02 2.272274e-01 1.847995e-01 2.113993e-01 2.375246e-01 4.063039e-01 3.361026e-01 3.296730e-01 3.448249e-01 3.390970e-01 3.998517e-01 3.857256e-01 7.942467e-03
<GCONST> 8.363859e+01
<MIXTURE> 5 5.503947e-02
<MEAN> 39
 -6.573641e+00 -7.761599e-01 -5.847303e+00 -2.470273e+00 1.600851e+01 5.941850e+00 -2.621484e+00 2.035683e+00 7.554737e+00 1.969886e+00 1.167010e-01 -1.401193e+00 2.064946e+01 1.898926e-01 -7.920367e-01 2.726142e-01 6.479869e-01 -9.261995e-02 3.426369e-01 6.882505e-01 -4.407526e-01 -5.443130e-01 -4.583189e-01 -1.419296e+00 -2.404832e-01 1.313683e-01 6.521126e-01 4.703897e-02 -2.244986e-01 -3.729483e-01 -1.116555e+00 -4.048212e-01 2.578167e-01 -4.127023e-01 -9.657971e-01 -4.943047e-01 -4.911681e-01 -9.336851e-02 3.718566e-02
<VARIANCE> 39
 1.339061e+01 9.239806e+00 1.366178e+01 1.481763e+01 1.147559e+01 1.554510e+01 2.010304e+01 2.038129e+01 1.054414e+01 2.201715e+01 2.738465e+01 1.758643e+01 1.043542e+00 6.760831e-01 6.067956e-01 7.715935e-01 1.039003e+00 2.148713e+00 1.838332e+00 2.377786e+00 1.919762e+00 2.244582e+00 2.059318e+00 3.825373e+00 1.999385e+00 3.616657e-02 9.944040e-02 1.262830e-01 2.093498e-01 2.078559e-01 3.565264e-01 2.749180e-01 3.619213e-01 5.221577e-01 3.191762e-01 3.584065e-01 5.070542e-01 2.764635e-01 5.860236e-03
<GCONST> 8.592478e+01
<MIXTURE> 6 3.529790e-02
<MEAN> 39
 -2.473548e-01 -7.558775e+00 -7.227169e+00 1.748806e+00 6.665413e+00 9.893057e+00 5.807256e-01 1.022598e-01 4.850900e+00 5.305074e+00 2.519331e+00 -1.252511e+00 1.978380e+01 -2.021462e-01 -7.134929e-01 -1.411319e-01 -2.600840e-01 3.633836e-01 3.303886e-01 9.849196e-01 7.903928e-02 3.285479e-01 7.701355e-01 3.513910e-01 1.664783e-01 1.278435e-01 2.345494e-01 2.975984e-01 -7.350018e-02 -1.909718e-01 -3.273803e-01 -1.878205e-01 3.011859e-01 -7.579201e-02 -4.230509e-01 -2.121313e-01 -5.798948e-01 -7.255828e-03 4.370952e-03
<VARIANCE> 39
 3.342609e+00 8.439137e+00 1.339294e+01 8.848545e+00 1.039248e+01 1.374000e+01 1.847300e+01 2.374313e+01 2.320386e+01 1.402947e+01 2.518588e+01 1.834317e+01 1.341396e+00 1.714024e-01 7.293056e-01 8.460602e-01 5.539901e-01 7.986916e-01 9.313492e-01 1.478184e+00 8.771980e-01 2.009645e+00 1.290528e+00 1.494193e+00 1.168993e+00 4.147195e-02 6.373771e-02 7.926816e-02 1.805526e-01 1.519604e-01 2.112810e-01 2.506578e-01 3.805319e-01 2.497425e-01 3.018379e-01 2.261121e-01 3.037325e-01 2.291806e-01 7.067927e-03
<GCONST> 7.402912e+01
<MIXTURE> 7 4.344576e-02
<MEAN> 39
 -7.142228e+00 -2.925797e+00 -4.793951e+00 -2.995615e+00 8.199844e+00 1.011427e+00 -9.678078e-02 -1.610757e+00 2.007683e-01 1.472040e+00 -2.570207e-01 -4.441649e+00 1.866705e+01 -5.826700e-01 -2.473595e-01 -1.979977e-03 5.084810e-01 8.045067e-02 3.912565e-01 8.606518e-01 -3.419938e-01 -1.723447e-01 5.597309e-01 4.669513e-01 -5.784637e-02 1.024799e-01 4.842837e-01 1.958798e-01 -9.223251e-03 2.283085e-01 -6.645271e-02 3.903380e-01 2.559258e-01 3.331775e-01 1.114170e-01 8.097637e-02 -3.459663e-02 4.300917e-01 1.815478e-01
<VARIANCE> 39
 1.021471e+01 1.256722e+01 7.480557e+00 1.224933e+01 2.058484e+01 2.195710e+01 1.709472e+01 1.584608e+01 2.796192e+01 2.365964e+01 1.460925e+01 1.322227e+01 5.410993e-01 6.677409e-01 4.301901e-01 9.762681e-01 6.387535e-01 1.284733e+00 1.435135e+00 1.421889e+00 1.914225e+00 1.891651e+00 1.693918e+00 1.711787e+00 1.492294e+00 4.221378e-02 8.566160e-02 8.229195e-02 1.375991e-01 1.823630e-01 2.636866e-01 1.533718e-01 2.595286e-01 3.137883e-01 5.214251e-01 2.414126e-01 2.349740e-01 2.128671e-01 6.206844e-03
<GCONST> 7.823435e+01
<MIXTURE> 8 5.197490e-02
<MEAN> 39
 -6.034965e+00 -2.505849e+00 -7.173775e+00 1.746005e+00 8.825576e+00 2.923343e-01 1.515811e+00 2.866727e+00 3.005617e+00 -3.797670e+00 2.942594e+00 3.385640e+00 1.896908e+01 -6.864452e-01 -7.632676e-01 -4.449981e-01 8.900446e-01 3.416814e-01 4.151934e-01 3.411325e-01 -1.022110e-01 2.840948e-01 -4.960813e-01 1.306997e-01 8.071479e-01 9.178830e-02 4.432788e-01 1.712998e-01 1.014202e-01 -1.914354e-01 -4.090182e-01 2.903435e-01 6.163519e-02 -3.135983e-01 -6.836254e-01 -6.708176e-02 -7.049030e-01 -3.055542e-01 5.637043e-02
<VARIANCE> 39
 7.773417e+00 8.440999e+00 1.249426e+01 2.166933e+01 2.135991e+01 1.846073e+01 3.287474e+01 3.052213e+01 1.698219e+01 2.020676e+01 1.309291e+01 1.763903e+01 7.409892e-01 5.240627e-01 4.841429e-01 7.142932e-01 5.159088e-01 8.486744e-01 1.301955e+00 1.576885e+00 2.066214e+00 1.661325e+00 1.628679e+00 1.677449e+00 1.432208e+00 2.962480e-02 7.129937e-02 7.436444e-02 8.036237e-02 3.150618e-01 2.556391e-01 2.490004e-01 3.651547e-01 3.116853e-01 1.953326e-01 3.259728e-01 3.045813e-01 2.626480e-01 9.776656e-03
<GCONST> 7.884416e+01
<MIXTURE> 9 4.449530e-02
<MEAN> 39
 -4.503512e+00 -4.549685e+00 -5.365553e+00 -2.027989e+00 6.345449e+00 3.673245e+00 5.886794e+00 7.913008e-01 -8.722343e-01 2.331120e+00 3.864413e+00 -3.892596e+00 2.000246e+01 -2.710299e-01 -7.747304e-01 -3.305205e-01 3.823161e-01 1.605330e-01 3.111270e-01 1.452810e+00 -4.388590e-01 -9.056863e-01 -5.810513e-01 -9.647914e-02 -6.499698e-01 -2.167569e-02 4.484966e-01 3.704987e-01 -3.952295e-01 -5.765752e-02 2.473170e-02 -1.225794e-01 -6.545671e-02 5.815629e-03 2.390300e-01 -1.889798e-01 -2.777745e-01 -2.660118e-01 1.114004e-01
<VARIANCE> 39
 1.176976e+01 9.308133e+00 1.364826e+01 2.267187e+01 1.519488e+01 2.046984e+01 1.679448e+01 1.510325e+01 2.013648e+01 1.650446e+01 2.213567e+01 1.217375e+01 4.560377e-01 3.337752e-01 6.574831e-01 8.893890e-01 6.267009e-01 1.569473e+00 7.912861e-01 1.603513e+00 1.367751e+00 1.758137e+00 1.597822e+00 1.126192e+00 1.623908e+00 2.519023e-02 9.587967e-02 1.238471e-01 1.819112e-01 1.945061e-01 2.581506e-01 2.467093e-01 2.380311e-01 2.955506e-01 2.780490e-01 2.643727e-01 2.860459e-01 2.878767e-01 6.036204e-03
<GCONST> 7.745776e+01
<MIXTURE> 10 6.683569e-02
<MEAN> 39
 -8.193423e+00 -5.928486e+00 -1.052297e+00 -7.243783e-02 1.161452e+01 4.500000e-01 1.036914e+00 4.754574e+00 7.001697e+00 8.396807e-01 2.733293e+00 2.511014e+00 1.977608e+01 -5.979913e-01 -1.021890e+00 -3.928437e-01 6.704444e-01 -8.858567e-02 4.691303e-01 -1.312179e-01 -1.098293e+00 -8.095459e-01 -7.356901e-01 -3.743999e-01 2.409824e-01 6.487872e-02 9.531282e-01 4.881608e-01 -7.445413e-01 -2.544574e-01 -1.098154e+00 2.070255e-01 -2.569734e-01 -5.282262e-01 -1.233037e+00 -6.680626e-01 -6.767139e-01 -3.360993e-01 5.525414e-02
<VARIANCE> 39
 9.370514e+00 1.451771e+01 1.096091e+01 1.084382e+01 2.388159e+01 2.359142e+01 2.894102e+01 3.291987e+01 2.442226e+01 2.390685e+01 2.328993e+01 1.612231e+01 1.219072e+00 9.188203e-01 1.090282e+00 1.116756e+00 1.069125e+00 1.544523e+00 1.610923e+00 1.971633e+00 2.053228e+00 1.909629e+00 1.563276e+00 1.661551e+00 1.384387e+00 5.406534e-02 1.374688e-01 1.449430e-01 2.721655e-01 2.697957e-01 4.327876e-01 4.126954e-01 4.480644e-01 4.453913e-01 4.663225e-01 3.058164e-01 3.194468e-01 2.601551e-01 1.322370e-02
<GCONST> 8.993295e+01
<MIXTURE> 11 8.802155e-02
<MEAN> 39
 -5.193233e+00 -3.416891e+00 -4.531544e+00 2.058360e+00 1.214246e+01 -1.394595e-02 -2.721424e+00 1.876286e+00 -2.248897e-01 -5.496587e+00 -2.844785e+00 -1.527243e+00 2.011445e+01 9.764097e-02 -2.275067e-01 -2.647394e-01 3.366594e-01 -4.698601e-01 7.445520e-02 -6.106886e-01 -1.408951e+00 -6.339855e-01 -9.452806e-01 -5.227167e-01 -4.862211e-01 3.339462e-02 4.795868e-01 1.191033e-01 -4.543573e-01 -5.417271e-01 -7.927735e-01 -7.369883e-03 5.633803e-02 -2.058549e-01 -3.082244e-01 -2.011919e-01 -2.427511e-01 2.486397e-02 6.343566e-02
<VARIANCE> 39
 7.188580e+00 2.186515e+01 1.972852e+01 1.452019e+01 1.940121e+01 2.901499e+01 2.219240e+01 4.391315e+01 2.307413e+01 2.870512e+01 1.894361e+01 2.543898e+01 6.835545e-01 3.020234e-01 4.583195e-01 5.327468e-01 7.804720e-01 1.075768e+00 1.212463e+00 1.474776e+00 1.907070e+00 2.018789e+00 1.245951e+00 1.634081e+00 1.248968e+00 2.423476e-02 3.859146e-02 9.252070e-02 1.883941e-01 2.176608e-01 2.361460e-01 2.464819e-01 3.525597e-01 4.766611e-01 3.230073e-01 2.981575e-01 2.472641e-01 2.752427e-01 5.324103e-03
<GCONST> 8.054151e+01
<MIXTURE> 12 7.263181e-02
<MEAN> 39
 -8.639462e+00 -3.467180e-01 -6.817111e-01 -2.322243e+00 8.443778e+00 5.583410e+00 2.144858e+00 -4.626601e-01 3.891965e-01 8.010389e+00 4.561211e+00 -5.227521e+00 2.053685e+01 -6.074262e-01 -8.649179e-01 -1.937734e-01 3.699252e-01 3.173335e-01 1.634454e-01 6.112912e-01 -3.847641e-01 -1.178024e-01 5.079057e-01 -3.014787e-01 -2.716672e-01 1.487068e-02 6.805263e-01 -1.479153e-01 -7.332639e-01 -2.827583e-01 -2.044508e-01 -1.424723e-01 1.424398e-01 5.008660e-02 -1.372154e-01 -4.957650e-01 -3.866486e-01 9.940410e-02 6.663920e-03
<VARIANCE> 39
 5.156585e+00 1.076792e+01 1.052265e+01 1.667144e+01 1.328567e+01 1.495344e+01 1.638661e+01 1.773134e+01 1.962327e+01 1.662592e+01 1.485656e+01 1.347042e+01 8.310916e-01 1.025440e+00 5.753418e-01 1.167517e+00 1.153646e+00 8.545896e-01 1.330022e+00 1.405967e+00 1.249092e+00 1.696320e+00 1.371196e+00 1.296200e+00 9.923016e-01 5.833952e-02 1.347408e-01 9.572370e-02 1.470981e-01 2.419771e-01 1.903582e-01 2.544637e-01 2.371248e-01 2.246139e-01 3.776054e-01 3.663118e-01 2.799089e-01 2.669860e-01 1.333693e-02
<GCONST> 7.890654e+01
<MIXTURE> 13 4.583127e-02
<MEAN> 39
 -8.953017e+00 -3.640935e+00 -9.220678e+00 2.211581e+00 9.775974e+00 -2.310121e+00 7.142164e+00 5.872127e-01 5.075511e-01 -2.460662e+00 3.772038e+00 5.075303e+00 1.949246e+01 -4.221161e-01 -6.605360e-01 1.208378e-01 3.169934e-01 -4.093258e-01 1.158728e-01 2.036169e-01 -2.786366e-01 -3.814914e-01 -4.933566e-01 -5.716693e-01 1.784762e-01 1.759156e-02 7.692584e-01 3.747637e-01 1.300342e-01 -2.676899e-01 -6.821905e-01 8.353869e-02 -4.663200e-01 -4.020029e-01 -5.959605e-01 -5.793808e-01 -9.593843e-01 -4.022173e-01 8.703744e-02
<VARIANCE> 39
 4.506059e+00 1.260444e+01 9.125874e+00 1.447180e+01 1.968843e+01 2.956494e+01 3.279842e+01 2.362455e+01 2.186307e+01 1.526024e+01 1.774731e+01 2.230106e+01 1.152874e+00 4.255412e-01 3.961918e-01 5.690504e-01 7.316430e-01 1.112568e+00 9.963024e-01 1.788617e+00 1.250389e+00 1.756056e+00 1.618637e+00 1.964716e+00 1.669281e+00 4.171569e-02 5.783959e-02 1.173301e-01 1.117880e-01 2.211829e-01 2.776333e-01 3.478421e-01 2.868930e-01 3.264185e-01 2.452004e-01 2.075016e-01 1.982693e-01 3.843943e-01 1.216290e-02
<GCONST> 7.949902e+01
<MIXTURE> 14 5.090124e-02
<MEAN> 39
 -8.307315e+00 1.197165e+00 -7.084854e+00 -5.070587e-01 1.473914e+01 -2.299139e+00 -2.966647e+00 7.793850e+00 3.424334e+00 -1.181445e+00 3.035379e+00 -1.570905e+00 2.053850e+01 -6.155939e-01 -4.474067e-01 1.219475e-01 1.662056e-01 -6.630471e-02 5.820346e-02 3.985352e-01 -4.661104e-02 5.849373e-02 -2.243885e-01 4.141205e-01 2.857050e-01 -2.492616e-03 2.033742e-01 -1.720494e-02 -1.020215e-02 -4.903858e-02 -2.748367e-01 7.128982e-02 -1.525004e-01 -3.815047e-01 -2.455088e-01 -1.450173e-01 -4.783559e-02 -2.667109e-02 2.593942e-02
<VARIANCE> 39
 1.305018e+01 4.768678e+00 8.230573e+00 1.002033e+01 1.268811e+01 2.064465e+01 1.937692e+01 3.551908e+01 2.414327e+01 1.056528e+01 2.202110e+01 1.815624e+01 4.920858e-01 2.583126e-01 2.920754e-01 5.315173e-01 7.997147e-01 8.960760e-01 1.141312e+00 1.707937e+00 2.397366e+00 1.409272e+00 1.484954e+00 1.390249e+00 7.211513e-01 3.165561e-02 7.784652e-02 6.092979e-02 1.090887e-01 1.811057e-01 1.779537e-01 1.609847e-01 3.307452e-01 4.226798e-01 3.526908e-01 2.920454e-01 2.260034e-01 1.294460e-01 7.868215e-03
<GCONST> 7.298161e+01
<MIXTURE> 15 5.793753e-02
<MEAN> 39
