~o
<STREAMINFO> 1 39
<VECSIZE> 39<NULLD><MFCC_E_D_A><DIAGC>
~s "silst"
<NUMMIXES> 36
<MIXTURE> 1 2.308903e-02
<MEAN> 39
 -2.062998e+00 1.892854e+00 -3.393128e+00 1.751569e+00 5.023712e-02 2.651966e+00 2.784216e+00 3.444702e+00 3.471155e+00 3.845800e+00 3.107904e+00 3.282501e+00 1.717889e+01 2.300725e-01 4.097606e-01 5.417394e-01 7.230262e-01 8.333452e-01 9.213890e-01 9.032298e-01 8.451152e-01 7.813237e-01 6.744242e-01 5.469478e-01 4.489394e-01 4.879480e-01 -7.557743e-02 -1.030432e-01 -6.882771e-02 9.452946e-03 1.025382e-01 2.940867e-02 -1.586482e-01 -2.703422e-01 -2.526636e-01 -1.445286e-01 -2.475207e-02 1.496825e-02 -3.731126e-02
<VARIANCE> 39
 1.957632e+00 3.685253e+00 4.650939e+00 6.143978e+00 5.638551e+00 7.377953e+00 8.185989e+00 8.869982e+00 8.134634e+00 7.235330e+00 7.592517e+00 8.146144e+00 5.311325e-01 9.320772e-02 1.880585e-01 3.140251e-01 4.532208e-01 5.861171e-01 7.596958e-01 8.900210e-01 1.001688e+00 9.836361e-01 1.093494e+00 1.023169e+00 9.686867e-01 2.430673e-02 1.879461e-02 3.582193e-02 5.923323e-02 8.657385e-02 1.030235e-01 1.271505e-01 1.472987e-01 1.612555e-01 1.551517e-01 1.583112e-01 1.523590e-01 1.613470e-01 5.654482e-03
<GCONST> 4.877639e+01
<MIXTURE> 2 1.926983e-02
<MEAN> 39
 2.781711e-01 5.022518e+00 -2.120079e+00 -3.111122e+00 -5.175471e+00 -2.059247e+00 -2.356269e+00 -2.863226e+00 -2.326887e+00 1.378979e+00 -7.955216e-01 -2.692870e+00 1.938687e+01 -6.424978e-01 2.206403e-01 -9.932380e-02 1.413527e+00 1.251239e+00 9.205500e-02 5.227020e-01 2.939312e-01 4.379120e-01 -1.562074e-01 -3.529873e-02 3.588990e-01 -3.045973e-01 -2.645428e-01 -1.869206e-01 -9.456591e-02 -2.105796e-01 -9.630366e-02 4.489696e-02 -1.098590e-01 2.902414e-04 -9.777446e-03 -1.315162e-01 -9.912276e-03 7.521708e-02 2.039212e-02
<VARIANCE> 39
 3.470679e+01 2.569647e+01 4.318555e+01 3.607626e+01 4.989468e+01 4.210432e+01 3.891822e+01 3.630348e+01 3.243023e+01 3.334836e+01 2.882358e+01 2.590296e+01 2.521406e+00 2.328506e+00 2.070556e+00 2.016838e+00 2.606432e+00 3.401304e+00 2.846052e+00 3.265032e+00 2.845278e+00 2.631734e+00 2.411772e+00 2.633010e+00 2.116201e+00 9.494301e-02 2.101862e-01 2.338669e-01 2.606034e-01 3.004784e-01 4.870835e-01 3.452618e-01 3.817759e-01 3.868348e-01 3.835305e-01 3.818075e-01 3.438057e-01 3.005927e-01 1.398193e-02
<GCONST> 1.064782e+02
<MIXTURE> 3 3.415066e-02
<MEAN> 39
 -1.117482e+00 2.977610e+00 -3.241507e+00 2.232842e+00 2.207555e+00 5.153069e+00 3.055928e+00 1.221367e+00 2.901135e+00 6.331516e+00 4.219865e+00 2.183019e+00 1.771483e+01 8.645669e-04 1.604475e-02 1.502213e-02 4.596854e-02 2.195749e-02 5.263096e-02 1.088987e-01 1.898093e-01 2.325024e-01 2.119542e-01 1.855181e-01 1.136329e-01 6.599323e-02 -9.483708e-02 -1.172625e-01 -1.778984e-02 7.112179e-02 -4.644425e-02 -2.253255e-01 -8.534800e-02 1.378095e-01 -9.681962e-02 -4.637224e-01 -1.793435e-01 1.564354e-01 -5.928951e-02
<VARIANCE> 39
 1.286534e+00 2.742824e+00 3.615812e+00 3.993038e+00 4.810299e+00 5.704254e+00 6.259541e+00 6.888682e+00 7.041175e+00 5.363097e+00 6.885385e+00 6.991370e+00 4.359725e-01 8.215187e-02 1.724463e-01 3.025659e-01 4.647952e-01 6.152887e-01 7.690337e-01 8.554642e-01 9.514393e-01 1.022305e+00 1.033819e+00 9.888812e-01 9.442384e-01 3.127559e-02 1.475784e-02 3.045109e-02 4.972908e-02 6.246001e-02 9.843706e-02 1.219125e-01 1.294375e-01 1.356435e-01 1.463650e-01 1.191023e-01 1.422454e-01 1.278756e-01 4.544105e-03
<GCONST> 4.331105e+01
<MIXTURE> 4 2.239451e-02
<MEAN> 39
 -1.472831e+00 1.531005e+00 -4.199137e+00 3.111255e+00 2.796621e+00 5.776506e+00 5.274343e+00 3.829735e+00 1.649981e+00 1.414214e+00 6.776606e-01 1.387732e+00 1.726918e+01 6.001791e-02 1.349292e-01 2.160036e-01 2.499485e-01 2.569047e-01 2.909440e-01 2.883046e-01 2.654964e-01 1.523897e-01 9.222926e-02 1.059089e-01 6.483236e-02 1.392148e-01 -3.184944e-02 3.749847e-02 1.125993e-01 2.924545e-02 -1.225791e-01 -2.857537e-01 -3.417056e-01 -1.939000e-01 9.320143e-02 2.555915e-01 2.945350e-01 2.114469e-01 1.202607e-02
<VARIANCE> 39
 1.101761e+00 2.390791e+00 3.348969e+00 3.351841e+00 3.889921e+00 5.562772e+00 5.883445e+00 5.684710e+00 6.270944e+00 5.502837e+00 6.070274e+00 6.892656e+00 4.001432e-01 7.329354e-02 1.626376e-01 2.684548e-01 4.257868e-01 6.084360e-01 7.307923e-01 8.418401e-01 9.470285e-01 1.058045e+00 1.150940e+00 1.016241e+00 9.465499e-01 3.182300e-02 1.369936e-02 2.616748e-02 4.367034e-02 6.326057e-02 8.577225e-02 9.715150e-02 1.150741e-01 1.248364e-01 1.374952e-01 1.265110e-01 1.389226e-01 1.415026e-01 3.661384e-03
<GCONST> 4.063610e+01
<MIXTURE> 5 1.908464e-02
<MEAN> 39
 -2.030026e+00 1.874562e+00 -2.898328e+00 3.915716e+00 3.838420e+00 6.475194e+00 5.900231e+00 5.739048e+00 4.698233e+00 3.933448e+00 2.219513e+00 2.040459e+00 1.785497e+01 1.139884e-01 2.261457e-01 3.281884e-01 4.208404e-01 4.814082e-01 5.609151e-01 5.919876e-01 5.964220e-01 5.766781e-01 5.085898e-01 4.276192e-01 3.365054e-01 3.295209e-01 -4.925278e-02 -7.001360e-02 -1.097736e-01 -2.440413e-01 -3.550981e-01 -4.206794e-01 -5.093653e-01 -5.159198e-01 -3.533428e-01 -1.250504e-01 6.911791e-02 1.146257e-01 -1.174577e-01
<VARIANCE> 39
 2.279329e+00 3.835517e+00 4.590276e+00 5.325444e+00 5.371874e+00 6.454131e+00 7.290023e+00 7.701268e+00 8.716038e+00 8.262872e+00 7.128414e+00 7.909129e+00 5.945169e-01 1.127955e-01 2.067267e-01 3.447816e-01 5.412802e-01 6.986539e-01 8.414222e-01 9.064937e-01 1.037262e+00 1.145656e+00 1.132522e+00 1.062266e+00 9.631836e-01 3.040081e-02 2.264879e-02 3.880430e-02 6.135936e-02 8.172964e-02 1.048014e-01 1.264791e-01 1.527927e-01 1.612966e-01 1.924798e-01 1.875201e-01 1.497826e-01 1.662690e-01 6.888722e-03
<GCONST> 5.081366e+01
<MIXTURE> 6 2.561215e-02
<MEAN> 39
 -1.638859e+00 2.261252e+00 -2.934309e+00 3.730805e+00 3.152786e+00 4.807157e+00 2.373589e+00 1.270791e-01 -6.879891e-01 1.387219e+00 2.762200e+00 3.913028e+00 1.744245e+01 1.282591e-01 2.627848e-01 3.957138e-01 5.072591e-01 5.616144e-01 6.160887e-01 5.768692e-01 4.555072e-01 4.127291e-01 3.623234e-01 3.285332e-01 2.976132e-01 3.173614e-01 -9.677894e-02 -1.327681e-01 -1.397551e-01 -2.616135e-01 -3.484344e-01 -3.007800e-01 -1.101023e-01 1.730230e-01 3.119983e-01 1.759272e-01 -2.712746e-02 -1.186552e-01 -7.187666e-02
<VARIANCE> 39
 1.567748e+00 3.333503e+00 4.917111e+00 5.016203e+00 4.725841e+00 6.029138e+00 6.790319e+00 6.027519e+00 6.793220e+00 6.134206e+00 5.641623e+00 7.215048e+00 5.401083e-01 9.777220e-02 1.899487e-01 3.374301e-01 4.793479e-01 6.477666e-01 8.081087e-01 9.138607e-01 1.020819e+00 1.071324e+00 1.070779e+00 1.020389e+00 9.477126e-01 3.015509e-02 1.606289e-02 3.188905e-02 5.874372e-02 7.923811e-02 9.180007e-02 1.141366e-01 1.335570e-01 1.286336e-01 1.418699e-01 1.372840e-01 1.218844e-01 1.439903e-01 5.121283e-03
<GCONST> 4.567094e+01
<MIXTURE> 7 3.165912e-02
<MEAN> 39
 -2.402876e+00 1.009473e+00 -4.577988e+00 1.148313e+00 5.134985e-01 4.455246e+00 5.736113e+00 7.032138e+00 6.477337e+00 5.619134e+00 3.720381e+00 3.267264e+00 1.743435e+01 1.300478e-02 3.723325e-02 3.594228e-02 2.960465e-02 1.219549e-02 -2.607904e-03 1.475887e-02 2.571352e-02 1.399493e-02 3.191521e-02 4.050094e-02 2.815805e-02 3.533560e-02 -1.967500e-02 2.197517e-02 9.939563e-02 1.471878e-01 1.143412e-01 -1.612781e-01 -5.215372e-01 -6.984025e-01 -6.075962e-01 -3.385192e-01 -9.868766e-02 -3.110422e-02 -7.059231e-02
<VARIANCE> 39
 1.805331e+00 3.555584e+00 4.348930e+00 5.350737e+00 5.952545e+00 7.848568e+00 6.591641e+00 6.796087e+00 7.769219e+00 7.540773e+00 7.856099e+00 8.647530e+00 5.461118e-01 9.687100e-02 1.975970e-01 3.441288e-01 5.073366e-01 6.493129e-01 8.229000e-01 9.637952e-01 1.046995e+00 1.143405e+00 1.167652e+00 1.028174e+00 9.215599e-01 3.592832e-02 1.841714e-02 3.247583e-02 5.413787e-02 8.086913e-02 1.113446e-01 1.403631e-01 1.331905e-01 1.427191e-01 1.691742e-01 1.723140e-01 1.618278e-01 1.808235e-01 5.415011e-03
<GCONST> 4.934430e+01
<MIXTURE> 8 3.139003e-02
<MEAN> 39
 -5.869842e-01 3.503440e+00 -3.179719e+00 2.195944e+00 9.706637e-01 2.613415e+00 1.889932e+00 1.165672e+00 7.047246e-02 1.109954e+00 2.579648e+00 3.570387e+00 1.749506e+01 3.218372e-02 4.561502e-02 3.752925e-02 3.719091e-02 6.565762e-02 1.179587e-01 1.603361e-01 2.028542e-01 2.447004e-01 2.745756e-01 2.634852e-01 2.049612e-01 9.414386e-02 -1.273815e-01 -1.643207e-01 -1.931652e-02 8.313625e-02 1.029031e-01 8.085553e-02 4.200980e-02 9.097648e-02 2.517158e-01 2.634896e-01 4.955741e-02 -6.201723e-02 -1.258119e-02
<VARIANCE> 39
 9.685608e-01 2.456999e+00 3.690777e+00 3.804700e+00 4.524962e+00 5.696393e+00 8.063218e+00 8.148767e+00 6.988863e+00 5.939764e+00 6.936622e+00 7.338444e+00 3.844021e-01 7.665930e-02 1.616306e-01 3.108806e-01 4.474630e-01 6.337336e-01 7.395390e-01 8.853630e-01 9.839267e-01 1.032433e+00 1.023563e+00 9.325454e-01 9.331355e-01 3.162985e-02 1.418172e-02 3.082917e-02 5.434651e-02 6.484628e-02 9.735813e-02 1.161058e-01 1.537830e-01 1.602506e-01 1.541816e-01 1.385082e-01 1.445266e-01 1.489965e-01 4.007807e-03
<GCONST> 4.375102e+01
<MIXTURE> 9 2.786641e-02
<MEAN> 39
 -6.008245e-01 3.341562e+00 -2.705483e+00 3.602617e+00 2.662358e+00 4.820015e+00 4.604943e+00 3.517105e+00 2.130077e+00 3.025371e+00 3.799735e+00 4.393962e+00 1.825489e+01 -7.732917e-02 -9.601282e-02 -1.273520e-01 -1.935986e-01 -2.531908e-01 -2.822203e-01 -3.596103e-01 -3.967230e-01 -3.717009e-01 -3.702756e-01 -3.298551e-01 -2.285691e-01 -1.414226e-01 -1.179261e-01 -1.431613e-01 -7.507676e-02 -6.025842e-02 -9.161468e-02 -1.650877e-01 -2.794126e-01 -1.950142e-01 6.705309e-03 2.509696e-02 -1.285367e-01 -1.917956e-01 -1.157397e-01
<VARIANCE> 39
 9.659439e-01 2.325480e+00 3.212962e+00 3.653055e+00 4.566803e+00 5.346524e+00 6.188559e+00 6.322710e+00 6.577262e+00 6.564430e+00 7.410300e+00 8.046448e+00 4.153871e-01 8.947255e-02 1.792527e-01 3.101227e-01 4.395368e-01 6.295153e-01 8.028538e-01 8.982580e-01 1.023473e+00 1.045247e+00 1.025657e+00 9.927480e-01 9.645454e-01 2.906930e-02 1.446335e-02 3.034394e-02 4.998907e-02 7.120729e-02 9.935244e-02 1.104900e-01 1.220595e-01 1.412736e-01 1.444538e-01 1.417216e-01 1.539829e-01 1.567403e-01 5.299558e-03
<GCONST> 4.358772e+01
<MIXTURE> 10 2.271337e-02
<MEAN> 39
 -2.435316e+00 1.431525e+00 -3.760208e+00 2.185871e+00 1.872764e+00 4.260457e+00 3.093171e+00 3.939877e+00 5.973424e+00 8.209207e+00 7.008883e+00 5.134773e+00 1.774582e+01 9.439889e-02 1.831120e-01 2.847869e-01 3.545107e-01 4.328383e-01 4.964404e-01 5.013729e-01 4.972688e-01 5.139704e-01 4.867517e-01 4.199198e-01 3.251920e-01 2.906244e-01 -3.347731e-02 -3.873615e-02 -3.207070e-02 -8.428651e-02 -1.715956e-01 -2.007480e-01 -1.849549e-01 -2.876371e-01 -5.553117e-01 -7.335408e-01 -5.789743e-01 -2.729712e-01 -1.255013e-01
<VARIANCE> 39
 1.886584e+00 3.595940e+00 4.766912e+00 5.764908e+00 6.226305e+00 8.741217e+00 8.472785e+00 9.050089e+00 8.176074e+00 6.427004e+00 6.535993e+00 7.964677e+00 6.611825e-01 9.736744e-02 1.885301e-01 3.463934e-01 5.084571e-01 6.372062e-01 7.771460e-01 8.961514e-01 9.488370e-01 1.019292e+00 1.021587e+00 9.532809e-01 9.014879e-01 2.765821e-02 2.086178e-02 3.786083e-02 6.670775e-02 9.160671e-02 1.232486e-01 1.599208e-01 1.657597e-01 1.784758e-01 1.709384e-01 1.461465e-01 1.396039e-01 1.604788e-01 6.933707e-03
<GCONST> 5.029589e+01
<MIXTURE> 11 3.357861e-02
<MEAN> 39
 -1.584343e+00 2.565839e+00 -2.239737e+00 3.366727e+00 7.180715e-02 9.492192e-01 1.968694e+00 4.829411e+00 5.698037e+00 5.192055e+00 3.563224e+00 3.227091e+00 1.768407e+01 -1.182272e-02 -2.963058e-02 -5.641111e-02 -1.835164e-02 2.150184e-02 7.548001e-02 1.112187e-01 1.562947e-01 1.402399e-01 1.133132e-01 1.385095e-01 1.262512e-01 4.557937e-02 -6.272776e-02 -1.387339e-01 -1.947201e-01 -1.211088e-01 1.770187e-01 3.318390e-01 3.367426e-02 -4.154272e-01 -5.427867e-01 -3.170905e-01 -8.381038e-02 4.374786e-03 -7.666206e-02
<VARIANCE> 39
 1.517670e+00 2.921024e+00 4.070881e+00 4.182950e+00 4.985645e+00 5.953136e+00 7.293571e+00 6.859242e+00 6.275452e+00 6.631999e+00 6.757301e+00 8.126601e+00 5.027881e-01 9.200082e-02 1.815880e-01 3.304013e-01 4.779320e-01 6.445640e-01 8.152367e-01 9.466639e-01 9.800310e-01 1.084334e+00 1.057586e+00 9.957297e-01 9.483407e-01 3.114054e-02 1.708094e-02 3.054562e-02 5.207157e-02 7.441503e-02 8.924650e-02 9.885409e-02 1.409382e-01 1.464142e-01 1.287531e-01 1.492673e-01 1.444674e-01 1.545547e-01 5.353046e-03
<GCONST> 4.559861e+01
<MIXTURE> 12 2.773435e-02
<MEAN> 39
 -2.565243e+00 8.591000e-01 -3.324827e+00 4.242053e+00 2.947005e+00 3.031852e+00 2.885304e-01 4.137830e-01 1.569334e+00 4.356942e+00 5.507402e+00 5.347530e+00 1.731346e+01 1.219503e-01 2.092767e-01 2.604212e-01 3.229391e-01 3.942675e-01 4.629035e-01 4.942859e-01 4.538126e-01 4.027529e-01 3.904177e-01 3.307021e-01 2.270541e-01 2.532779e-01 3.471084e-02 4.650513e-02 -6.751824e-02 -2.908554e-01 -2.887850e-01 9.554951e-03 2.611917e-01 2.208373e-01 6.242140e-02 -1.731649e-01 -3.439757e-01 -2.402459e-01 -1.905848e-02
<VARIANCE> 39
 1.536049e+00 3.296923e+00 4.217350e+00 3.869246e+00 4.409822e+00 6.676845e+00 7.097430e+00 7.465035e+00 7.408046e+00 6.606622e+00 6.921266e+00 7.762860e+00 4.846225e-01 8.218895e-02 1.714628e-01 3.171035e-01 4.840696e-01 6.235343e-01 7.529256e-01 9.021043e-01 9.985988e-01 1.121959e+00 1.007223e+00 1.005369e+00 9.326203e-01 3.447048e-02 1.392310e-02 2.626159e-02 4.697123e-02 6.462380e-02 8.558462e-02 1.145577e-01 1.264568e-01 1.413878e-01 1.514598e-01 1.487342e-01 1.396053e-01 1.513219e-01 4.037480e-03
<GCONST> 4.476506e+01
<MIXTURE> 13 2.398584e-02
<MEAN> 39
 -1.429840e+00 2.635694e+00 -1.828862e+00 4.554827e+00 2.546114e+00 3.352927e+00 2.380167e+00 3.296356e+00 3.327364e+00 1.691411e+00 -8.381917e-01 2.096276e-01 1.753818e+01 8.471189e-02 1.430920e-01 1.723336e-01 2.098115e-01 2.072871e-01 2.283582e-01 2.789747e-01 3.202512e-01 3.264896e-01 2.819173e-01 2.161317e-01 1.580835e-01 1.663271e-01 -6.663255e-02 -1.418928e-01 -2.211068e-01 -2.664443e-01 -1.526344e-01 3.190065e-02 2.365396e-02 -1.678211e-01 -1.839510e-01 1.757593e-01 5.029730e-01 3.943756e-01 -3.687963e-02
<VARIANCE> 39
 1.759663e+00 3.338113e+00 4.312516e+00 4.182892e+00 5.406301e+00 7.179107e+00 7.408309e+00 8.342146e+00 6.897095e+00 7.211865e+00 6.429823e+00 7.523538e+00 5.479254e-01 8.972275e-02 1.888833e-01 3.320176e-01 5.065913e-01 6.220367e-01 7.708565e-01 9.137484e-01 1.022803e+00 1.078134e+00 1.046268e+00 1.005854e+00 9.420320e-01 2.965612e-02 1.944628e-02 3.385776e-02 5.839267e-02 7.411861e-02 1.000367e-01 1.169418e-01 1.353275e-01 1.605088e-01 1.501884e-01 1.505466e-01 1.168005e-01 1.500811e-01 5.167833e-03
<GCONST> 4.704805e+01
<MIXTURE> 14 2.779244e-02
<MEAN> 39
 -2.314314e+00 2.568572e+00 -1.797547e+00 1.733990e+00 -7.498370e-01 2.686619e+00 3.036458e+00 2.640278e+00 9.355980e-01 7.831082e-01 1.816402e+00 3.663260e+00 1.723271e+01 -6.205653e-02 -9.575597e-02 -1.248007e-01 -1.595651e-01 -1.884366e-01 -1.979182e-01 -1.246712e-01 2.784839e-02 2.085771e-01 3.013127e-01 2.464354e-01 1.413045e-01 2.832381e-03 -1.190252e-01 -2.652640e-01 -3.460780e-01 -1.832965e-01 4.616009e-03 -1.433387e-01 -3.647837e-01 -3.388619e-01 -4.568811e-02 1.904225e-01 7.537895e-02 -9.568643e-02 -1.335251e-01
<VARIANCE> 39
 1.807772e+00 3.317468e+00 4.553863e+00 6.451817e+00 5.993729e+00 8.797512e+00 7.559747e+00 7.665576e+00 7.642822e+00 5.887230e+00 6.080864e+00 7.263526e+00 6.122037e-01 9.504101e-02 1.863190e-01 3.272993e-01 4.475465e-01 6.297498e-01 7.693719e-01 9.655490e-01 1.056699e+00 1.040177e+00 1.016908e+00 9.522350e-01 9.008331e-01 3.022315e-02 1.814017e-02 2.779016e-02 4.583174e-02 9.367847e-02 1.082270e-01 1.301591e-01 1.373725e-01 1.449417e-01 1.577408e-01 1.293800e-01 1.244872e-01 1.426358e-01 3.969282e-03
<GCONST> 4.704762e+01
<MIXTURE> 15 2.989603e-02
<MEAN> 39
 -2.288939e+00 6.855658e-01 -3.777187e+00 4.073836e+00 3.946136e+00 6.411880e+00 5.365986e+00 4.978029e+00 4.430895e+00 4.590158e+00 3.578703e+00 3.248557e+00 1.775520e+01 -3.125888e-02 -6.821495e-02 -1.009005e-01 -1.053536e-01 -1.035089e-01 -8.079815e-02 -6.615263e-02 -5.661329e-02 -2.230697e-02 -2.578205e-02 -2.120917e-02 -2.800745e-02 -2.935988e-02 2.481477e-02 8.006661e-02 2.057348e-02 -1.893493e-01 -3.448517e-01 -3.649305e-01 -3.689683e-01 -3.405045e-01 -2.859018e-01 -1.938299e-01 -1.128478e-01 -4.112580e-02 -8.274606e-02
<VARIANCE> 39
 1.314081e+00 2.722348e+00 3.802964e+00 3.511811e+00 4.178707e+00 5.756559e+00 6.353051e+00 5.859401e+00 6.160753e+00 7.055137e+00 6.573690e+00 7.140447e+00 4.855073e-01 7.908030e-02 1.645561e-01 2.959847e-01 4.657632e-01 6.192567e-01 8.243081e-01 8.989266e-01 9.258907e-01 1.020607e+00 1.056850e+00 9.611909e-01 9.434495e-01 2.502204e-02 1.322541e-02 2.496998e-02 4.604780e-02 6.693774e-02 7.821643e-02 1.074959e-01 1.296018e-01 1.233126e-01 1.367125e-01 1.457984e-01 1.346975e-01 1.405798e-01 4.451237e-03
<GCONST> 4.234056e+01
<MIXTURE> 16 3.663447e-02
<MEAN> 39
 -2.249797e+00 1.312750e+00 -3.796510e+00 2.222910e+00 1.623536e+00 4.815705e+00 4.359099e+00 3.113539e+00 1.442917e+00 2.949220e+00 5.658279e+00 6.868842e+00 1.760890e+01 7.262634e-02 1.269280e-01 1.682088e-01 2.117875e-01 2.323536e-01 2.933401e-01 3.295116e-01 4.119675e-01 4.781802e-01 4.238254e-01 3.432522e-01 2.453210e-01 2.149525e-01 -5.718242e-02 -5.285293e-02 -3.680531e-02 -6.778841e-02 -1.614460e-01 -3.262641e-01 -4.280191e-01 -2.672154e-01 1.399442e-02 -6.366650e-03 -3.995459e-01 -5.021091e-01 -1.111652e-01
<VARIANCE> 39
 1.647420e+00 3.727773e+00 4.788007e+00 4.827158e+00 5.394252e+00 7.137496e+00 6.913668e+00 7.228121e+00 6.602314e+00 6.094843e+00 6.187547e+00 6.142908e+00 6.234207e-01 8.186699e-02 1.766700e-01 3.310870e-01 4.679637e-01 6.062710e-01 7.376040e-01 8.182115e-01 8.631315e-01 9.266279e-01 9.847435e-01 9.259000e-01 8.723348e-01 2.650053e-02 1.815296e-02 3.448967e-02 5.725477e-02 7.746179e-02 1.119748e-01 1.239728e-01 1.243468e-01 1.354171e-01 1.416308e-01 1.294537e-01 1.250617e-01 1.202162e-01 5.698077e-03
<GCONST> 4.534625e+01
<MIXTURE> 17 3.612169e-02
<MEAN> 39
 -2.398713e+00 1.250886e+00 -2.904109e+00 4.447460e+00 3.784870e+00 4.892762e+00 1.677918e+00 -2.437398e-01 -4.883328e-01 2.028790e+00 4.577765e+00 5.852207e+00 1.753289e+01 -8.110959e-02 -1.118765e-01 -1.282957e-01 -1.474091e-01 -1.927933e-01 -1.926748e-01 -2.130900e-01 -2.598813e-01 -3.128985e-01 -3.569437e-01 -3.446492e-01 -2.212148e-01 -1.274108e-01 -1.900056e-03 -1.554730e-02 -1.293968e-01 -3.508493e-01 -4.395543e-01 -2.830026e-01 1.884102e-02 2.590945e-01 3.036180e-01 1.105383e-01 -2.632940e-01 -3.663413e-01 -8.190730e-02
<VARIANCE> 39
 1.777223e+00 3.648834e+00 4.629964e+00 4.549663e+00 4.880426e+00 6.587214e+00 7.446610e+00 7.202472e+00 7.628041e+00 7.010609e+00 6.536836e+00 7.107951e+00 5.879277e-01 8.396535e-02 1.806846e-01 3.273438e-01 4.901937e-01 6.279457e-01 7.704986e-01 9.241472e-01 9.845936e-01 1.080710e+00 1.032662e+00 9.892307e-01 9.331312e-01 3.200463e-02 1.671706e-02 3.089109e-02 5.675878e-02 7.654087e-02 9.448052e-02 1.189376e-01 1.437021e-01 1.445085e-01 1.612576e-01 1.445056e-01 1.369057e-01 1.331506e-01 5.544849e-03
<GCONST> 4.675373e+01
<MIXTURE> 18 3.459545e-02
<MEAN> 39
 -1.718851e+00 1.379382e+00 -4.612749e+00 2.106698e+00 1.042854e+00 2.439562e+00 1.746155e+00 2.877639e+00 3.383190e+00 3.868195e+00 4.398298e+00 5.341066e+00 1.747680e+01 3.131521e-02 1.008158e-01 1.782067e-01 2.968049e-01 3.389699e-01 2.029232e-01 -3.148347e-02 -2.744522e-01 -3.522515e-01 -3.065352e-01 -1.846974e-01 -5.171060e-02 3.902154e-02 -2.242169e-02 3.915004e-02 1.351385e-01 1.051417e-01 4.664794e-02 8.937429e-02 5.321475e-02 -1.531821e-01 -2.284187e-01 -1.126183e-01 -1.928216e-01 -2.758690e-01 -2.309817e-02
<VARIANCE> 39
 1.141697e+00 2.393866e+00 3.411972e+00 3.285593e+00 4.789125e+00 5.565794e+00 6.877207e+00 6.775840e+00 5.954342e+00 6.047568e+00 6.464070e+00 6.803795e+00 3.788360e-01 7.223715e-02 1.551947e-01 2.943735e-01 4.148328e-01 5.571541e-01 7.058542e-01 8.540031e-01 8.417552e-01 9.124761e-01 9.341047e-01 9.275504e-01 8.650026e-01 2.402586e-02 1.276773e-02 2.404736e-02 3.978062e-02 5.754530e-02 9.329589e-02 1.015039e-01 1.235837e-01 1.226410e-01 1.205818e-01 1.370403e-01 1.345187e-01 1.333702e-01 3.073751e-03
<GCONST> 3.972974e+01
<MIXTURE> 19 2.658465e-02
<MEAN> 39
 -1.620589e+00 2.611522e+00 -1.446416e+00 5.521087e+00 3.958664e+00 3.971139e+00 1.484775e+00 1.784719e+00 3.485715e+00 5.180167e+00 4.549240e+00 3.907257e+00 1.810708e+01 4.009127e-02 7.876924e-02 1.132113e-01 1.459221e-01 1.714019e-01 1.746992e-01 1.208424e-01 7.313456e-02 9.613887e-02 1.471767e-01 1.729107e-01 1.542922e-01 1.305128e-01 -7.653625e-02 -1.535222e-01 -2.989165e-01 -4.744769e-01 -4.042009e-01 -9.809330e-02 1.025102e-01 2.134974e-02 -2.090785e-01 -3.125477e-01 -2.420694e-01 -9.089237e-02 -1.384975e-01
<VARIANCE> 39
 1.883356e+00 3.531832e+00 3.971320e+00 3.981908e+00 4.747269e+00 6.573407e+00 7.102854e+00 7.019170e+00 7.328482e+00 7.075076e+00 7.144048e+00 8.206633e+00 6.203212e-01 1.001738e-01 2.043822e-01 3.521853e-01 5.303130e-01 7.173873e-01 8.354572e-01 9.708181e-01 9.989508e-01 1.002102e+00 1.108675e+00 9.847261e-01 9.872766e-01 3.421716e-02 1.942176e-02 3.319611e-02 5.618506e-02 6.790193e-02 9.117454e-02 1.254907e-01 1.390945e-01 1.472611e-01 1.548929e-01 1.511644e-01 1.418413e-01 1.665025e-01 6.607901e-03
<GCONST> 4.802389e+01
<MIXTURE> 20 3.179088e-02
<MEAN> 39
 -1.799735e+00 1.834892e+00 -4.047642e+00 1.402857e+00 6.306765e-01 3.054566e+00 1.827047e+00 2.623350e+00 3.321981e+00 2.220865e+00 -3.607745e-01 1.194048e+00 1.707071e+01 -8.202097e-02 -1.476313e-01 -1.567785e-01 -7.592066e-02 2.790668e-02 5.843205e-02 6.018870e-02 1.805301e-04 -8.506459e-02 -1.910940e-01 -2.122051e-01 -1.363389e-01 -7.271098e-02 -1.034002e-01 -1.213545e-01 -3.273868e-02 2.777356e-02 -4.155641e-02 -1.020258e-01 -9.773005e-02 -2.285937e-01 -3.209519e-01 2.652956e-02 4.236122e-01 2.626996e-01 -5.740992e-02
<VARIANCE> 39
 1.482178e+00 3.402397e+00 4.163129e+00 4.526335e+00 5.220668e+00 7.089775e+00 6.393078e+00 7.282785e+00 6.217257e+00 5.389147e+00 4.480216e+00 6.469647e+00 4.183083e-01 7.242540e-02 1.514389e-01 2.890029e-01 4.354812e-01 5.733122e-01 7.503137e-01 8.590043e-01 9.238513e-01 1.040540e+00 1.053798e+00 9.778300e-01 8.775443e-01 2.737048e-02 1.345564e-02 2.697630e-02 4.591504e-02 6.484398e-02 9.744599e-02 1.152335e-01 1.187429e-01 1.428194e-01 1.263079e-01 1.119265e-01 9.946927e-02 1.286628e-01 3.981817e-03
<GCONST> 4.192345e+01
<MIXTURE> 21 3.369711e-02
<MEAN> 39
 -1.866094e+00 1.796882e+00 -2.753232e+00 3.536405e+00 -1.369825e-02 7.927425e-01 1.291903e+00 1.472300e+00 3.474991e-01 2.416908e+00 3.864614e+00 4.370831e+00 1.731403e+01 -1.662167e-03 1.390072e-02 4.622149e-02 1.186757e-01 1.477768e-01 9.158124e-02 -6.601691e-03 -1.091557e-01 -2.546050e-01 -3.595532e-01 -3.782907e-01 -2.521288e-01 -2.641648e-02 -4.285035e-02 -9.435629e-02 -1.858256e-01 -2.056835e-01 8.268787e-02 2.485357e-01 2.755364e-02 -3.387502e-02 1.544973e-01 5.529018e-02 -1.229139e-01 -1.084097e-01 -4.184911e-02
<VARIANCE> 39
 1.210518e+00 2.588775e+00 3.917296e+00 3.221331e+00 4.173196e+00 5.303153e+00 6.135841e+00 6.192920e+00 5.705009e+00 5.984351e+00 5.961609e+00 7.103160e+00 4.221543e-01 7.003464e-02 1.487049e-01 2.621220e-01 4.077520e-01 5.471905e-01 6.874079e-01 7.799169e-01 8.820617e-01 9.332877e-01 9.029654e-01 8.556546e-01 8.179168e-01 2.534594e-02 1.342867e-02 2.601951e-02 4.261231e-02 5.363451e-02 7.576425e-02 9.668835e-02 1.238128e-01 1.233217e-01 1.152175e-01 1.337679e-01 1.230334e-01 1.357099e-01 3.574817e-03
<GCONST> 3.910986e+01
<MIXTURE> 22 2.491686e-02
<MEAN> 39
 -3.320595e+00 4.670341e-01 -3.627739e+00 1.878692e+00 6.328952e-01 2.419742e+00 4.571121e-01 2.737445e+00 6.088779e+00 6.368653e+00 3.397537e+00 2.575685e+00 1.690050e+01 -7.785121e-02 -1.304914e-01 -1.373865e-01 -1.087239e-01 -8.071421e-02 -9.274983e-02 -6.479274e-02 -1.013029e-02 -6.341184e-02 -1.424377e-01 -1.846366e-01 -1.602785e-01 -6.158136e-02 1.804864e-03 -4.383028e-02 -1.509278e-01 -2.058754e-01 -1.692431e-01 -4.136317e-02 3.952445e-02 -2.647829e-01 -7.192851e-01 -5.811801e-01 -1.068126e-01 1.096212e-01 -9.379564e-02
<VARIANCE> 39
 1.378118e+00 4.101838e+00 4.872793e+00 5.734339e+00 5.875598e+00 8.081430e+00 6.182442e+00 6.679831e+00 6.770384e+00 7.133965e+00 6.037334e+00 7.026825e+00 5.623153e-01 8.248048e-02 1.651624e-01 3.011491e-01 4.628873e-01 6.262068e-01 7.428738e-01 8.692672e-01 9.637406e-01 1.046780e+00 1.108157e+00 1.008793e+00 9.632462e-01 2.425964e-02 1.468157e-02 2.940264e-02 4.903208e-02 7.375827e-02 9.475861e-02 1.222985e-01 1.232846e-01 1.365120e-01 1.216590e-01 1.417062e-01 1.294589e-01 1.417184e-01 3.991537e-03
<GCONST> 4.506731e+01
<MIXTURE> 23 2.413636e-02
<MEAN> 39
 -2.120104e+00 1.451643e+00 -2.799004e+00 4.748195e+00 4.235327e+00 5.450443e+00 2.293920e+00 3.716359e-02 -1.244671e+00 -6.138014e-01 -4.910756e-02 1.797707e+00 1.715479e+01 3.313284e-02 5.455907e-02 9.464708e-02 1.408865e-01 1.923575e-01 2.449057e-01 2.260009e-01 1.828699e-01 1.434081e-01 7.426221e-02 2.832798e-03 3.142702e-02 8.878630e-02 1.797515e-02 5.569007e-03 -1.053050e-01 -3.110007e-01 -4.144641e-01 -2.660816e-01 3.180737e-02 2.934288e-01 4.728728e-01 5.060005e-01 3.743237e-01 1.632648e-01 1.245383e-02
<VARIANCE> 39
 1.527990e+00 3.292677e+00 4.569530e+00 4.397175e+00 5.003569e+00 7.161825e+00 7.546169e+00 7.095604e+00 8.079306e+00 8.200852e+00 7.722219e+00 8.130658e+00 4.958593e-01 7.715883e-02 1.552561e-01 2.977155e-01 4.567423e-01 6.329545e-01 7.590373e-01 8.850107e-01 9.939680e-01 1.030511e+00 1.119867e+00 1.009259e+00 9.369154e-01 3.045106e-02 1.468950e-02 2.883735e-02 5.735413e-02 7.643868e-02 9.726281e-02 1.296321e-01 1.477338e-01 1.445723e-01 1.546306e-01 1.624196e-01 1.495145e-01 1.647048e-01 4.419966e-03
<GCONST> 4.657302e+01
<MIXTURE> 24 2.389504e-02
<MEAN> 39
 -1.759922e+00 1.968555e+00 -3.209604e+00 3.265520e+00 2.285564e+00 3.841713e+00 2.483130e+00 2.905548e+00 4.109739e+00 5.420209e+00 4.419342e+00 3.852829e+00 1.789434e+01 -2.378542e-01 -4.106265e-01 -5.189103e-01 -6.200765e-01 -7.269645e-01 -7.671253e-01 -7.531487e-01 -7.313836e-01 -6.901541e-01 -6.394280e-01 -5.876498e-01 -4.365279e-01 -4.056191e-01 -5.508478e-02 -5.990477e-02 -6.373799e-02 -1.265533e-01 -1.378347e-01 -6.272563e-02 -2.228379e-02 -1.079791e-01 -2.889555e-01 -3.266593e-01 -1.989783e-01 -8.305987e-02 -1.200954e-01
<VARIANCE> 39
 1.448086e+00 3.191756e+00 4.371601e+00 4.693759e+00 5.233829e+00 7.330050e+00 7.534847e+00 8.131054e+00 7.812015e+00 7.588276e+00 7.394347e+00 8.538721e+00 5.166188e-01 9.076057e-02 1.696604e-01 3.113217e-01 4.623172e-01 6.205244e-01 6.989893e-01 8.286448e-01 9.373499e-01 1.100156e+00 1.085157e+00 1.056246e+00 9.304892e-01 2.198914e-02 1.552102e-02 3.059931e-02 5.780226e-02 7.778943e-02 9.893183e-02 1.374512e-01 1.448549e-01 1.560677e-01 1.544480e-01 1.632267e-01 1.504177e-01 1.583871e-01 5.189103e-03
<GCONST> 4.687877e+01
<MIXTURE> 25 3.510189e-02
<MEAN> 39
 -2.610166e+00 1.534250e+00 -2.930937e+00 2.330965e+00 5.126318e-01 1.945891e+00 -1.177920e+00 -2.057956e+00 1.338665e-01 4.191216e+00 5.789813e+00 5.716615e+00 1.710689e+01 3.644004e-02 6.911197e-02 1.197294e-01 1.761909e-01 1.841035e-01 1.773386e-01 1.948674e-01 2.375700e-01 2.511368e-01 1.696330e-01 1.198575e-01 1.283372e-01 1.237675e-01 -5.705369e-02 -1.372869e-01 -2.146454e-01 -2.339978e-01 -1.746648e-01 -5.071710e-02 2.185274e-01 3.337758e-01 6.743777e-02 -2.927527e-01 -4.547094e-01 -3.144882e-01 -8.787419e-02
<VARIANCE> 39
 1.362723e+00 3.311069e+00 5.256046e+00 4.949903e+00 5.077613e+00 7.141760e+00 7.351200e+00 6.182769e+00 8.402970e+00 7.108405e+00 6.890283e+00 7.587796e+00 5.093381e-01 7.714487e-02 1.631484e-01 3.018001e-01 4.643078e-01 5.841145e-01 7.409874e-01 8.453434e-01 8.823100e-01 9.482455e-01 9.897771e-01 1.003450e+00 9.271542e-01 2.667256e-02 1.551843e-02 2.772450e-02 5.654587e-02 8.584838e-02 1.091214e-01 1.265771e-01 1.433576e-01 1.391387e-01 1.633295e-01 1.561956e-01 1.440019e-01 1.560027e-01 3.836969e-03
<GCONST> 4.568782e+01
<MIXTURE> 26 3.350249e-02
<MEAN> 39
 -2.752261e+00 8.627600e-01 -3.640664e+00 1.743758e+00 4.935509e-02 2.438920e+00 1.810594e+00 2.873471e+00 3.312140e+00 3.553478e+00 2.747357e+00 3.481148e+00 1.691680e+01 1.165547e-01 2.174062e-01 2.788741e-01 3.436784e-01 3.564356e-01 3.517421e-01 3.328931e-01 3.118983e-01 3.092259e-01 2.751847e-01 2.812931e-01 2.515229e-01 2.379370e-01 -8.699072e-02 -1.280189e-01 -1.879107e-01 -2.161690e-01 -1.674836e-01 -1.695310e-01 -2.551941e-01 -3.961564e-01 -4.226865e-01 -2.242659e-01 -3.577667e-02 -2.613579e-02 -1.209088e-01
<VARIANCE> 39
 1.363994e+00 3.719114e+00 4.993964e+00 5.167563e+00 5.714400e+00 7.014646e+00 6.208232e+00 6.431990e+00 6.026085e+00 6.068078e+00 5.422098e+00 7.047989e+00 4.918907e-01 7.788762e-02 1.495908e-01 2.790493e-01 4.319918e-01 5.672415e-01 7.179483e-01 8.218833e-01 1.006063e+00 1.065781e+00 1.008296e+00 9.580873e-01 8.561574e-01 1.753174e-02 1.517509e-02 2.964126e-02 5.033705e-02 7.128628e-02 9.433728e-02 1.066902e-01 1.207620e-01 1.232193e-01 1.189474e-01 1.285361e-01 1.204174e-01 1.361631e-01 3.681380e-03
<GCONST> 4.259740e+01
<MIXTURE> 27 2.724217e-02
<MEAN> 39
 -2.958531e+00 1.037306e+00 -3.835993e+00 5.803495e-01 -1.388878e-01 4.099949e+00 3.369531e+00 1.724303e+00 1.075398e+00 3.964464e+00 6.400396e+00 6.754461e+00 1.718668e+01 -7.131609e-02 -1.241239e-01 -1.704891e-01 -2.154642e-01 -2.711809e-01 -2.407098e-01 -2.382451e-01 -2.002536e-01 -1.258319e-01 -8.808735e-02 -1.142203e-01 -7.652576e-02 -7.285591e-02 -6.100273e-02 -1.029924e-01 -1.153691e-01 -4.264700e-02 -1.073756e-01 -3.696454e-01 -4.502411e-01 -2.136922e-01 -5.632571e-02 -2.388767e-01 -5.358221e-01 -4.769999e-01 -1.503419e-01
<VARIANCE> 39
 1.330144e+00 3.528437e+00 4.852281e+00 4.814493e+00 5.238848e+00 8.069259e+00 6.881931e+00 7.828944e+00 7.117184e+00 6.543431e+00 6.140018e+00 7.171688e+00 6.194758e-01 8.355187e-02 1.714198e-01 2.995653e-01 4.671167e-01 6.212041e-01 8.062710e-01 8.852061e-01 9.938422e-01 1.052925e+00 1.045030e+00 1.004721e+00 9.381654e-01 2.766907e-02 1.414418e-02 2.935864e-02 5.199308e-02 7.791685e-02 1.054263e-01 1.216656e-01 1.118762e-01 1.476842e-01 1.433870e-01 1.338915e-01 1.203832e-01 1.384471e-01 3.782180e-03
<GCONST> 4.529001e+01
<MIXTURE> 28 2.360849e-02
<MEAN> 39
 -2.281564e+00 7.507801e-01 -5.310384e+00 2.108945e-01 -9.007070e-01 2.588475e+00 2.168064e+00 2.073164e+00 2.468473e+00 3.646644e+00 3.707853e+00 4.609492e+00 1.707659e+01 -2.549078e-02 -3.070706e-02 -2.097784e-02 1.081524e-02 1.181349e-02 -1.519244e-02 -1.162879e-01 -2.713377e-01 -4.360841e-01 -5.807609e-01 -5.658704e-01 -3.397212e-01 -8.248723e-02 -1.036891e-01 -6.888165e-02 6.602833e-02 1.193277e-01 5.817440e-02 -1.601976e-01 -2.820013e-01 -2.788852e-01 -3.003868e-01 -2.351746e-01 -1.720072e-01 -1.876623e-01 -1.052320e-01
<VARIANCE> 39
 1.090999e+00 3.212672e+00 3.999116e+00 4.359534e+00 5.117538e+00 6.251242e+00 6.598216e+00 6.245432e+00 5.726313e+00 5.849433e+00 4.664617e+00 6.467500e+00 4.579446e-01 7.222369e-02 1.541183e-01 2.958995e-01 4.282065e-01 5.265531e-01 6.633727e-01 8.031214e-01 9.488972e-01 9.723442e-01 1.054818e+00 9.750882e-01 8.678863e-01 2.262386e-02 1.248077e-02 2.587212e-02 4.192044e-02 7.171676e-02 9.476669e-02 1.002749e-01 1.155061e-01 1.267853e-01 1.167434e-01 1.314981e-01 1.063231e-01 1.260475e-01 3.085622e-03
<GCONST> 4.029843e+01
<MIXTURE> 29 2.274045e-02
<MEAN> 39
 -2.028486e+00 2.319417e+00 -2.650229e+00 2.873114e+00 1.245427e+00 2.288467e+00 1.582574e-01 4.269657e-01 2.004343e+00 5.198792e+00 5.122108e+00 4.233033e+00 1.747495e+01 -7.514822e-02 -1.162800e-01 -1.616282e-01 -1.835863e-01 -2.244933e-01 -2.627343e-01 -2.825805e-01 -3.152379e-01 -2.892354e-01 -2.450476e-01 -1.896183e-01 -1.169260e-01 -9.025066e-02 -1.320861e-01 -2.342064e-01 -2.908824e-01 -3.324151e-01 -2.700803e-01 -1.007430e-01 2.692075e-02 -9.007638e-03 -1.881425e-01 -4.316440e-01 -3.554122e-01 -1.145509e-01 -1.690518e-01
<VARIANCE> 39
 1.500064e+00 3.362286e+00 4.953348e+00 5.044788e+00 5.538578e+00 7.643785e+00 6.477083e+00 6.041809e+00 6.342233e+00 6.247200e+00 6.118231e+00 7.002373e+00 5.683535e-01 7.285120e-02 1.499939e-01 3.042120e-01 4.531816e-01 5.212593e-01 7.167789e-01 8.285944e-01 9.203406e-01 9.741005e-01 1.017026e+00 9.027930e-01 8.787758e-01 2.624631e-02 1.422966e-02 2.838975e-02 5.121221e-02 6.817423e-02 9.751976e-02 1.387931e-01 1.309684e-01 1.347148e-01 1.365206e-01 1.283162e-01 1.257044e-01 1.352519e-01 3.646850e-03
<GCONST> 4.361929e+01
<MIXTURE> 30 2.795845e-02
<MEAN> 39
 -2.458676e+00 1.572076e+00 -2.666106e+00 4.159249e+00 4.950277e+00 8.126440e+00 5.183506e+00 2.614764e+00 1.294020e+00 1.575369e+00 1.174418e+00 1.925698e+00 1.763139e+01 1.902274e-03 1.482615e-02 5.005137e-02 1.171828e-02 1.397739e-02 2.111746e-02 1.028542e-02 2.745063e-02 3.804338e-02 5.369374e-02 5.614427e-02 4.557525e-02 4.952920e-02 -2.734640e-02 -6.351703e-02 -1.647548e-01 -3.643579e-01 -6.176319e-01 -7.244061e-01 -4.853363e-01 -1.552907e-01 6.444514e-02 1.508371e-01 1.656559e-01 1.152105e-01 -1.249403e-01
<VARIANCE> 39
 2.360765e+00 4.383861e+00 5.180437e+00 7.175851e+00 6.128477e+00 6.612764e+00 7.960577e+00 7.254153e+00 7.841039e+00 7.948658e+00 8.254620e+00 8.258501e+00 7.181318e-01 1.012841e-01 2.008347e-01 3.379341e-01 5.203544e-01 6.664113e-01 8.061632e-01 9.211763e-01 9.860365e-01 1.081762e+00 1.077187e+00 1.037035e+00 9.815266e-01 3.558300e-02 2.131870e-02 3.643444e-02 6.753692e-02 9.736621e-02 1.036477e-01 1.076725e-01 1.516429e-01 1.513215e-01 1.593333e-01 1.671224e-01 1.742519e-01 1.686505e-01 5.632598e-03
<GCONST> 5.110819e+01
<MIXTURE> 31 2.850268e-02
<MEAN> 39
 -2.018591e+00 1.824216e+00 -1.996990e+00 4.869430e+00 2.388129e+00 2.791384e+00 8.221378e-01 1.359125e+00 2.576292e+00 3.079486e+00 9.328397e-01 8.682400e-01 1.734183e+01 -6.615648e-02 -9.504675e-02 -1.225784e-01 -1.503705e-01 -1.956969e-01 -2.662174e-01 -3.235690e-01 -3.511956e-01 -3.665030e-01 -3.564078e-01 -2.981150e-01 -1.670465e-01 -1.381443e-01 -3.206495e-02 -9.455734e-02 -2.592661e-01 -4.007616e-01 -2.324465e-01 4.914723e-02 1.823865e-01 5.490239e-02 -1.272828e-01 -5.921372e-02 2.502331e-01 3.283084e-01 -5.417925e-02
<VARIANCE> 39
 1.649333e+00 3.473816e+00 4.034737e+00 4.012932e+00 4.832290e+00 6.426300e+00 7.965361e+00 7.943862e+00 6.559155e+00 6.036496e+00 5.217159e+00 6.687816e+00 5.140320e-01 8.213051e-02 1.704548e-01 3.317200e-01 5.007912e-01 6.530746e-01 7.886717e-01 8.548217e-01 9.838909e-01 1.015166e+00 1.031920e+00 1.012420e+00 9.342155e-01 3.165070e-02 1.498920e-02 3.088376e-02 4.725960e-02 6.516002e-02 9.317192e-02 1.137510e-01 1.458602e-01 1.582406e-01 1.334339e-01 1.338426e-01 1.069227e-01 1.307786e-01 4.806065e-03
<GCONST> 4.458365e+01
<MIXTURE> 32 2.620380e-02
<MEAN> 39
 2.853326e+00 3.295442e+00 -2.204266e+00 -7.654750e+00 -1.056299e+01 -7.170644e+00 -6.785466e+00 -2.703397e+00 -4.358109e+00 -2.221386e+00 -5.569553e+00 -2.446536e+00 2.090167e+01 5.882404e-03 6.822929e-01 7.387699e-01 1.201239e+00 -8.115486e-04 2.459015e-01 7.523582e-01 -5.383915e-01 -1.820541e-01 -2.380827e-01 9.329659e-02 -2.553854e-01 -1.959442e-01 -1.914560e-01 -3.521070e-02 -2.041895e-01 -1.383770e-01 1.766134e-01 2.991853e-01 2.725130e-02 -1.398280e-01 7.579955e-02 1.286783e-01 1.116308e-01 -4.239934e-02 -3.606243e-03
<VARIANCE> 39
 1.749078e+01 3.173026e+01 4.568032e+01 4.357862e+01 5.013971e+01 5.089857e+01 4.271830e+01 4.950106e+01 4.175816e+01 4.334536e+01 4.572999e+01 2.883986e+01 8.625755e-01 1.336691e+00 1.523829e+00 2.701514e+00 2.579478e+00 3.993436e+00 2.827888e+00 2.954422e+00 2.948754e+00 2.915561e+00 2.858396e+00 2.432595e+00 1.783010e+00 5.544384e-02 1.456737e-01 1.972773e-01 1.988183e-01 3.316950e-01 3.415002e-01 4.549246e-01 3.718371e-01 4.406337e-01 3.668572e-01 3.608843e-01 3.752394e-01 3.021497e-01 6.245465e-03
<GCONST> 1.043541e+02
<MIXTURE> 33 3.099500e-02
<MEAN> 39
 -2.507564e+00 1.044825e+00 -3.622408e+00 2.173192e+00 8.597006e-01 4.428785e+00 5.249789e+00 4.368317e+00 7.175754e-01 -1.010912e+00 4.011424e-01 3.284338e+00 1.706815e+01 3.503235e-04 1.287839e-02 5.334181e-02 1.385447e-01 1.659018e-01 1.278823e-01 8.226397e-02 -3.826700e-02 -1.444975e-01 -1.455801e-01 -1.112548e-01 -5.335942e-02 2.681274e-02 -2.960426e-02 -5.007702e-02 -6.421985e-02 -5.987336e-02 -6.417530e-02 -2.658103e-01 -5.625565e-01 -4.643140e-01 9.376837e-02 5.327208e-01 3.176579e-01 -4.148704e-02 -5.031992e-02
<VARIANCE> 39
 1.482829e+00 3.244663e+00 4.387626e+00 5.448365e+00 5.242836e+00 7.224447e+00 6.651047e+00 7.619959e+00 7.815579e+00 6.049871e+00 6.930357e+00 8.024556e+00 5.310814e-01 8.750328e-02 1.856381e-01 3.124082e-01 4.664613e-01 6.221277e-01 8.052913e-01 9.438928e-01 9.382361e-01 9.911902e-01 1.016032e+00 9.490877e-01 9.123976e-01 3.029522e-02 1.612119e-02 2.850359e-02 4.849083e-02 7.894024e-02 9.856249e-02 1.272098e-01 1.190539e-01 1.386829e-01 1.539440e-01 1.247017e-01 1.514001e-01 1.542844e-01 4.204267e-03
<GCONST> 4.581657e+01
<MIXTURE> 34 2.715448e-02
<MEAN> 39
 -2.700838e+00 1.068655e+00 -3.821746e+00 2.161421e+00 1.205591e+00 3.508622e+00 2.542919e+00 3.614037e+00 5.501770e+00 8.136337e+00 8.025938e+00 6.402735e+00 1.773663e+01 -3.492391e-02 -4.102258e-02 -5.445667e-02 -7.434337e-02 -1.091319e-01 -1.544075e-01 -2.399992e-01 -2.541825e-01 -2.583831e-01 -2.678535e-01 -2.314912e-01 -1.623955e-01 -4.299229e-02 -1.268744e-02 -1.826614e-02 -5.008462e-02 -1.072906e-01 -1.241130e-01 -1.327089e-01 -1.499005e-01 -2.920067e-01 -5.431771e-01 -7.519893e-01 -7.276789e-01 -4.370088e-01 -1.507469e-01
<VARIANCE> 39
 1.817340e+00 3.946249e+00 5.123167e+00 6.056209e+00 6.923764e+00 9.170792e+00 8.955247e+00 9.121299e+00 8.012120e+00 6.742476e+00 6.152262e+00 7.724306e+00 7.237104e-01 9.219579e-02 1.857857e-01 3.579240e-01 5.044888e-01 6.565992e-01 7.568464e-01 8.893677e-01 9.602733e-01 1.072286e+00 1.052998e+00 1.019123e+00 9.813699e-01 2.777689e-02 1.702563e-02 3.400370e-02 6.294951e-02 9.543497e-02 1.257944e-01 1.577919e-01 1.683995e-01 1.710607e-01 1.578391e-01 1.412240e-01 1.294921e-01 1.458913e-01 5.762110e-03
<GCONST> 5.010070e+01
<MIXTURE> 35 2.200055e-02
<MEAN> 39
 -2.205237e+00 1.824779e+00 -2.668471e+00 3.213601e+00 2.593129e+00 5.564828e+00 5.346186e+00 5.847523e+00 4.980131e+00 4.244890e+00 2.934987e+00 3.219999e+00 1.797201e+01 -8.967794e-02 -1.368709e-01 -1.686586e-01 -1.920832e-01 -2.296278e-01 -2.558826e-01 -3.218550e-01 -3.775529e-01 -3.732809e-01 -3.163373e-01 -2.570347e-01 -1.476157e-01 -9.263372e-02 -9.337799e-02 -1.584315e-01 -2.278019e-01 -2.761139e-01 -3.293217e-01 -4.398315e-01 -5.830693e-01 -6.574341e-01 -5.028343e-01 -2.422763e-01 -6.314699e-02 -5.895215e-02 -2.133301e-01
<VARIANCE> 39
 2.042296e+00 3.980452e+00 5.036283e+00 6.155405e+00 6.392289e+00 7.895859e+00 8.047053e+00 8.474008e+00 8.717025e+00 8.934742e+00 7.840529e+00 9.068768e+00 6.591820e-01 1.009196e-01 1.867769e-01 3.604017e-01 5.087723e-01 6.683143e-01 7.962785e-01 9.040082e-01 9.595903e-01 1.151927e+00 1.114439e+00 1.034268e+00 9.902498e-01 3.399589e-02 1.861232e-02 3.319288e-02 5.707419e-02 8.529570e-02 1.120065e-01 1.267107e-01 1.434762e-01 1.546727e-01 1.619831e-01 1.765191e-01 1.643535e-01 1.854220e-01 4.072128e-03
<GCONST> 5.067813e+01
<MIXTURE> 36 2.235349e-02
<MEAN> 39
 -2.583762e+00 1.199998e+00 -3.128133e+00 2.518536e+00 1.374445e+00 3.388133e+00 5.544705e-01 -1.639585e+00 -2.058523e+00 -3.998181e-01 8.585313e-01 2.957784e+00 1.667936e+01 4.450695e-03 1.341444e-02 1.493087e-04 3.748557e-02 9.968771e-03 -3.434524e-02 -2.807178e-02 2.862450e-02 8.726723e-02 6.251030e-02 2.472134e-02 -5.471352e-03 3.256520e-02 -8.125726e-02 -1.415537e-01 -2.351990e-01 -3.394358e-01 -3.907394e-01 -3.352268e-01 -7.677230e-02 1.911284e-01 2.782125e-01 2.767633e-01 1.548370e-01 -1.965186e-02 -8.550220e-02
<VARIANCE> 39
 1.293023e+00 3.933931e+00 5.719386e+00 4.586997e+00 5.269890e+00 7.118135e+00 6.906066e+00 6.739558e+00 7.337402e+00 6.409861e+00 5.780299e+00 7.939425e+00 4.064887e-01 8.635963e-02 1.701178e-01 3.212040e-01 4.557706e-01 5.654457e-01 7.641078e-01 8.685050e-01 9.516889e-01 1.003994e+00 1.031714e+00 9.450712e-01 9.387323e-01 2.372019e-02 1.580077e-02 3.016764e-02 5.270828e-02 6.745124e-02 8.042017e-02 1.161346e-01 1.368072e-01 1.522794e-01 1.519038e-01 1.454953e-01 1.233622e-01 1.510849e-01 3.405079e-03
<GCONST> 4.450541e+01
~h "eight"
<BEGINHMM>
<NUMSTATES> 18
<STATE> 2
<NUMMIXES> 20
<MIXTURE> 1 2.684434e-02
<MEAN> 39
 -5.618809e+00 9.591686e-01 -4.225493e+00 -1.995187e-01 5.895090e-01 2.782473e+00 3.905933e+00 1.086548e+00 4.176307e+00 5.483529e+00 3.977183e+00 4.480068e+00 1.666296e+01 2.630607e-01 -1.082179e+00 -1.595148e-01 -1.138264e-01 1.146492e+00 6.937132e-01 -8.786078e-01 4.605234e-01 5.196747e-01 -7.381698e-01 5.067198e-01 4.039781e-01 1.382213e-01 -1.531287e-01 -6.845481e-01 -1.237125e-01 6.441119e-03 4.405609e-01 -2.131500e-01 -5.575649e-01 1.879837e-01 -1.425191e-01 -6.635381e-01 -2.819327e-01 -1.336230e-01 7.476311e-03
<VARIANCE> 39
 8.449101e+00 1.168205e+01 9.517863e+00 1.394008e+01 1.556028e+01 1.615237e+01 1.819349e+01 1.344754e+01 1.513879e+01 1.769013e+01 2.120499e+01 1.437771e+01 1.184850e+00 7.167561e-01 1.345254e+00 8.950292e-01 1.233091e+00 1.917436e+00 1.574888e+00 1.760359e+00 1.738522e+00 2.105606e+00 1.671188e+00 1.030007e+00 1.583977e+00 4.408152e-02 1.520533e-01 1.967137e-01 1.040441e-01 3.590627e-01 4.311725e-01 3.758196e-01 3.599233e-01 4.178098e-01 3.295781e-01 2.859571e-01 4.423700e-01 3.079143e-01 4.954749e-03
<GCONST> 8.440154e+01
<MIXTURE> 2 4.325425e-02
<MEAN> 39
 1.720154e+00 1.236708e+00 -6.751770e+00 -6.012138e+00 2.811706e+00 3.469889e+00 3.300594e-01 -4.903637e-01 8.756444e-01 4.947699e+00 -1.787912e+00 -6.043796e+00 2.030312e+01 -1.443130e+00 -7.357804e-01 -4.958850e-01 1.058952e+00 3.270773e+00 1.016580e+00 5.594929e-01 1.744653e-01 1.340768e+00 -5.206398e-01 -1.669875e-01 2.302889e-01 -3.250914e-01 -3.281316e-01 -2.617861e-01 2.170674e-01 -4.065221e-02 -3.075914e-01 -2.475112e-01 -6.139337e-01 -1.347951e-01 -2.464578e-01 -3.038330e-01 3.554568e-01 3.338698e-01 -1.965837e-02
<VARIANCE> 39
 7.291702e+00 2.198894e+01 3.393471e+01 1.829912e+01 3.710308e+01 4.570186e+01 4.408086e+01 6.885305e+01 5.212460e+01 6.278790e+01 5.113879e+01 3.587472e+01 1.018172e+00 9.464907e-01 1.649973e+00 2.233783e+00 1.744391e+00 4.154169e+00 4.097511e+00 3.172229e+00 3.508324e+00 2.182769e+00 3.052434e+00 2.425590e+00 2.803664e+00 5.061063e-02 1.203943e-01 1.836016e-01 3.821374e-01 3.241158e-01 5.020834e-01 4.887775e-01 6.517946e-01 7.565809e-01 4.543274e-01 6.221275e-01 5.575072e-01 3.835561e-01 3.487505e-03
<GCONST> 1.056684e+02
<MIXTURE> 3 4.932358e-02
<MEAN> 39
 -4.486565e+00 4.006219e-01 2.480927e-01 6.289487e-01 6.138620e-01 -5.726633e+00 2.035930e+00 5.143786e+00 1.706368e+00 -3.998955e-01 -3.291849e+00 8.823025e-01 2.003601e+01 -4.821927e-01 -1.656228e+00 -2.270887e+00 1.130309e+00 4.059351e+00 1.168256e+00 -7.203073e-02 3.538951e-01 1.163790e+00 -9.045757e-01 -5.912763e-01 -3.878569e-01 -3.011518e-01 -6.510483e-02 -8.481031e-02 -1.091352e-01 -6.314777e-01 -2.817917e-01 4.184361e-01 -1.960122e-01 -6.613804e-01 -4.197477e-01 2.091421e-02 2.515938e-01 -5.917175e-01 1.555538e-02
<VARIANCE> 39
 8.167726e+00 1.687887e+01 1.748909e+01 2.841838e+01 4.453471e+01 3.552520e+01 2.598547e+01 3.570477e+01 1.976367e+01 3.960199e+01 2.502494e+01 1.760346e+01 1.335651e+00 5.921267e-01 1.265534e+00 9.785915e-01 1.876956e+00 3.077565e+00 2.952932e+00 3.120836e+00 4.443230e+00 2.680600e+00 2.094925e+00 2.095260e+00 2.556673e+00 2.852931e-02 6.287944e-02 2.586097e-01 2.172998e-01 3.709486e-01 4.002885e-01 3.753460e-01 4.934118e-01 5.746328e-01 3.939482e-01 4.766272e-01 3.942217e-01 3.332631e-01 4.169352e-03
<GCONST> 9.607928e+01
<MIXTURE> 4 6.228312e-02
<MEAN> 39
 -3.142434e+00 1.727875e-01 -5.293232e+00 -9.475844e-02 -1.014849e+00 1.934314e+00 -2.926518e-01 2.907514e-01 1.435375e+00 3.302507e+00 3.127194e+00 3.653787e+00 1.587859e+01 -1.464056e-01 -6.406876e-01 1.644448e-01 4.821127e-02 7.761863e-01 3.569723e-01 1.017051e-02 3.072783e-01 2.354031e-01 -7.858978e-02 -4.823529e-02 -8.078928e-02 1.151902e-01 -3.429198e-01 -6.276481e-01 1.019777e-01 -9.830302e-02 6.163633e-01 -4.085345e-02 -5.794230e-02 2.821101e-01 1.482614e-01 -1.909390e-01 -1.498219e-01 -2.120720e-01 6.312951e-02
<VARIANCE> 39
 1.317645e+00 3.563187e+00 4.217371e+00 6.356849e+00 7.145229e+00 9.532140e+00 8.012287e+00 1.019551e+01 6.640171e+00 9.584065e+00 7.276424e+00 9.312618e+00 6.859620e-01 1.478629e-01 6.019441e-01 2.589136e-01 8.158228e-01 1.183174e+00 1.036832e+00 7.956207e-01 1.014197e+00 8.909749e-01 1.191040e+00 9.335762e-01 9.327539e-01 3.970708e-02 5.855727e-02 1.244063e-01 1.017073e-01 2.479117e-01 2.117465e-01 1.978612e-01 1.975605e-01 3.402957e-01 1.647065e-01 2.245433e-01 2.467387e-01 2.778350e-01 7.653421e-03
<GCONST> 6.051505e+01
<MIXTURE> 5 7.367909e-02
<MEAN> 39
 -3.003960e+00 -2.806050e+00 -6.643489e+00 -3.350714e+00 7.421627e+00 1.028295e+00 -2.658956e+00 -4.707491e-01 6.304598e-01 -2.052663e+00 -3.006540e+00 -4.392894e+00 1.942617e+01 -1.487402e+00 -6.582575e-01 7.331057e-01 6.830404e-01 1.012972e+00 3.826317e-01 5.335779e-01 4.431798e-01 4.637292e-01 3.345081e-01 5.519571e-01 1.872893e-02 -3.319659e-01 2.058809e-01 -2.284521e-01 -3.853321e-01 -3.084000e-01 -1.830621e-01 -1.119416e-01 -2.450052e-02 -1.969840e-01 -2.717343e-01 -1.284661e-01 -1.172261e-01 -8.461834e-02 1.041727e-01
<VARIANCE> 39
 9.355011e+00 2.498988e+01 1.084104e+01 2.915643e+01 1.766648e+01 5.941109e+01 5.251337e+01 3.103255e+01 4.350071e+01 4.297964e+01 3.985516e+01 2.308874e+01 8.014095e-01 3.817765e-01 7.922994e-01 1.470347e+00 1.097630e+00 2.761572e+00 1.549588e+00 2.134389e+00 2.665596e+00 1.797333e+00 1.968663e+00 2.000116e+00 1.211791e+00 2.263957e-02 5.402674e-02 1.023156e-01 1.420886e-01 1.866481e-01 2.363930e-01 3.735836e-01 3.736042e-01 4.104699e-01 2.219369e-01 2.929748e-01 2.552106e-01 1.727239e-01 3.910517e-03
<GCONST> 8.768426e+01
<MIXTURE> 6 3.599718e-02
<MEAN> 39
 -4.167920e+00 6.462179e-01 4.982537e+00 -4.901839e+00 -6.227872e+00 -1.010298e+00 1.783061e+00 -3.065389e+00 -5.760855e+00 -2.052288e+00 -4.414068e+00 5.737433e-01 1.940210e+01 -1.011213e+00 -2.551363e+00 -1.303401e+00 2.594422e+00 3.493107e+00 1.692595e-02 9.868150e-01 1.935131e+00 -3.682580e-03 -1.071535e+00 1.254860e+00 1.034643e+00 -4.514529e-01 -1.138509e-02 -2.528039e-01 -6.549641e-01 -4.098234e-01 1.518063e-01 -1.629034e-01 -5.826320e-01 -1.681894e-02 3.019321e-01 -2.026603e-01 -1.041779e-01 -5.075618e-02 3.646909e-02
<VARIANCE> 39
 1.128191e+01 2.468828e+01 2.242858e+01 2.170978e+01 1.857847e+01 2.890034e+01 6.832171e+01 4.805328e+01 2.137802e+01 2.447694e+01 3.032491e+01 2.431201e+01 8.912530e-01 3.928694e-01 5.664144e-01 1.391960e+00 1.828463e+00 2.565481e+00 2.776218e+00 4.506404e+00 3.307857e+00 3.653536e+00 1.556955e+00 3.409678e+00 2.771875e+00 2.405027e-02 6.394015e-02 2.072612e-01 1.218522e-01 2.909555e-01 2.380692e-01 4.404409e-01 6.081791e-01 4.295444e-01 5.221555e-01 4.008975e-01 5.600576e-01 3.568051e-01 4.402228e-03
<GCONST> 9.511826e+01
<MIXTURE> 7 5.573673e-02
<MEAN> 39
 -4.817234e+00 -4.584906e-01 -5.478434e+00 -2.941029e+00 -3.440265e-01 1.477214e+00 -1.978162e+00 -3.714843e-01 -1.401681e+00 8.632457e-01 1.964818e+00 1.448069e+00 1.568104e+01 -5.770577e-01 -1.536282e+00 -1.563574e-01 -1.066241e+00 1.411313e+00 2.768326e-01 1.576104e-01 -1.472195e-01 3.981026e-01 -2.959546e-01 4.382097e-02 -3.949669e-01 1.022385e-01 -3.361926e-01 -3.795170e-01 -1.223176e-01 3.245509e-02 5.071480e-01 1.830644e-01 3.890264e-01 5.042443e-03 4.822511e-01 8.928288e-02 1.537307e-02 4.273396e-02 1.281354e-01
<VARIANCE> 39
 6.241027e+00 6.133180e+00 1.045714e+01 1.003656e+01 1.725128e+01 1.774139e+01 1.164265e+01 1.573225e+01 1.544938e+01 1.347018e+01 7.494848e+00 1.240867e+01 7.276807e-01 1.190843e+00 1.434311e+00 1.766958e+00 1.533172e+00 2.317805e+00 2.631810e+00 1.698015e+00 2.313571e+00 2.774215e+00 1.588118e+00 1.577843e+00 1.304121e+00 4.534214e-02 1.571139e-01 1.392220e-01 1.368949e-01 1.806651e-01 2.303479e-01 2.927416e-01 2.672694e-01 2.752064e-01 2.899317e-01 2.509352e-01 2.429582e-01 3.068293e-01 4.539457e-03
<GCONST> 8.084156e+01
<MIXTURE> 8 7.221729e-02
<MEAN> 39
 -2.117252e+00 1.809260e+00 -3.460829e+00 2.773284e+00 1.847844e+00 3.111594e+00 1.660251e+00 1.405449e+00 1.265067e+00 2.402443e+00 2.473382e+00 3.424453e+00 1.716491e+01 -5.833118e-01 -1.529274e+00 1.899209e-02 -5.322981e-01 1.144535e+00 6.150231e-02 -3.869118e-01 1.580981e-01 1.921894e-01 1.176890e-01 -2.141576e-01 -3.477899e-01 4.393586e-02 -6.246167e-01 -8.621411e-01 -1.107174e-01 -4.308362e-01 4.264806e-01 -1.525879e-01 -1.594176e-01 5.412912e-02 1.742007e-01 4.006992e-02 -8.480318e-02 -2.290715e-01 -1.223484e-02
<VARIANCE> 39
 1.797168e+00 5.993292e+00 4.918678e+00 5.662815e+00 9.626081e+00 1.020760e+01 9.220623e+00 1.003251e+01 1.248988e+01 1.188042e+01 9.477989e+00 9.922575e+00 7.907200e-01 5.107141e-01 1.383246e+00 8.889732e-01 1.072575e+00 1.931641e+00 1.322953e+00 1.568369e+00 1.581046e+00 1.934151e+00 1.831056e+00 1.424492e+00 1.731939e+00 4.862908e-02 6.107026e-02 1.413106e-01 1.787863e-01 1.350612e-01 3.678240e-01 2.352282e-01 2.802511e-01 3.024673e-01 3.593272e-01 2.922490e-01 3.468218e-01 2.960412e-01 9.855360e-03
<GCONST> 7.385905e+01
<MIXTURE> 9 5.739951e-02
<MEAN> 39
 -4.007304e+00 -7.216861e-01 -9.312440e+00 -5.809019e+00 1.193500e+01 -8.918801e-01 -7.303287e+00 -3.112565e+00 -3.139536e+00 -6.707979e+00 -4.909713e+00 -4.587796e+00 1.898772e+01 -2.340372e+00 -1.444126e+00 1.620539e-01 1.695963e+00 1.948108e+00 -4.007697e-01 2.935827e-01 1.027180e+00 1.608505e+00 5.315627e-01 1.190950e+00 5.429870e-01 -4.732737e-01 1.075161e-01 -1.208417e-01 -1.726694e-01 -5.359857e-01 -8.674707e-01 -6.165067e-02 8.397450e-02 1.603939e-02 5.523164e-02 1.234979e-01 -4.786884e-03 2.296767e-01 8.366115e-02
<VARIANCE> 39
 6.663430e+00 1.978505e+01 1.906734e+01 2.319639e+01 1.529384e+01 3.841820e+01 3.488494e+01 3.708391e+01 1.878852e+01 5.232891e+01 3.040742e+01 2.849320e+01 8.694023e-01 4.612052e-01 6.670193e-01 1.772420e+00 2.840956e+00 2.744792e+00 2.852709e+00 3.102718e+00 2.334264e+00 3.416245e+00 2.667480e+00 2.371760e+00 2.637310e+00 3.025528e-02 7.355707e-02 1.314870e-01 1.843013e-01 2.802346e-01 2.890346e-01 3.400173e-01 4.122269e-01 4.656727e-01 3.959288e-01 4.657100e-01 4.599337e-01 3.746725e-01 5.373091e-03
<GCONST> 9.448000e+01
<MIXTURE> 10 7.423610e-02
<MEAN> 39
 3.798398e-03 5.094006e-01 -8.143905e+00 -5.517744e+00 2.366997e+00 1.060668e+01 2.340736e+00 -2.717384e+00 -1.618407e+00 1.328599e+00 2.770349e+00 -1.033765e+00 1.917645e+01 -1.814518e+00 -1.618318e+00 -1.135011e-01 4.305752e-01 2.569013e+00 5.583501e-01 -8.950374e-01 -2.551680e-01 7.762172e-01 -1.237656e-01 1.677926e-01 -3.021639e-01 -3.553706e-01 2.762327e-02 -2.782184e-01 2.469458e-02 -3.977318e-01 -4.355591e-01 -4.654773e-01 -2.424718e-01 6.659222e-02 -3.225986e-02 -5.709673e-02 -2.053859e-01 -3.697608e-01 7.036000e-02
<VARIANCE> 39
 5.516312e+00 1.955921e+01 2.117761e+01 4.143648e+01 1.938140e+01 3.102263e+01 3.464831e+01 2.674923e+01 3.099640e+01 3.179712e+01 2.674469e+01 3.393427e+01 7.711430e-01 5.040339e-01 1.584767e+00 1.810499e+00 2.145269e+00 1.644890e+00 2.345478e+00 3.014667e+00 2.937716e+00 3.356960e+00 2.960655e+00 3.158841e+00 1.828986e+00 2.736435e-02 8.095816e-02 1.706836e-01 2.358081e-01 2.421054e-01 2.810704e-01 3.812298e-01 4.350300e-01 4.434726e-01 4.487336e-01 3.756706e-01 4.659095e-01 2.870187e-01 8.961624e-03
<GCONST> 9.539477e+01
<MIXTURE> 11 4.130206e-02
<MEAN> 39
 -3.713675e+00 -3.052586e+00 -3.799768e+00 7.908735e-01 3.102820e+00 2.289695e+00 -1.271140e+00 2.984017e+00 2.955235e+00 1.833774e+00 2.312866e+00 2.452142e+00 1.664675e+01 -1.492568e+00 -2.575254e+00 6.027169e-01 -9.735204e-01 1.950013e+00 4.486556e-02 -4.487770e-01 5.176785e-01 6.457092e-01 3.282836e-02 1.553287e-01 -6.171031e-01 1.181546e-01 -5.129304e-01 -4.487817e-01 -4.125093e-02 -2.086062e-01 1.210112e-01 1.111709e-01 2.472609e-01 -1.887627e-01 -1.140329e-01 -1.906814e-02 -5.802308e-02 -7.426435e-02 4.134101e-02
<VARIANCE> 39
 2.063044e+00 7.922286e+00 5.604168e+00 8.773626e+00 8.400689e+00 9.989794e+00 1.053023e+01 1.164645e+01 1.153620e+01 1.126981e+01 8.884255e+00 1.358729e+01 7.329100e-01 5.593266e-01 1.151291e+00 6.919729e-01 1.129274e+00 1.352726e+00 1.530952e+00 1.783979e+00 1.690447e+00 2.316016e+00 1.884088e+00 1.795241e+00 2.069052e+00 4.937362e-02 4.199874e-02 1.190860e-01 6.642669e-02 1.991307e-01 1.633722e-01 1.876380e-01 2.728220e-01 2.556818e-01 1.379266e-01 3.402750e-01 2.273988e-01 1.528121e-01 8.883400e-03
<GCONST> 7.096464e+01
<MIXTURE> 12 5.066235e-02
<MEAN> 39
 -7.911492e-01 -2.587856e+00 -5.810744e+00 -6.022750e+00 1.610903e+00 -4.382935e+00 -2.177380e+00 -1.265833e+00 -4.660086e+00 -8.460096e+00 -1.158777e+01 -3.495270e-02 1.977189e+01 -1.702204e+00 -1.159577e+00 1.702540e-01 1.806258e+00 3.456111e+00 1.248559e+00 1.094198e+00 -7.804217e-01 -1.315261e-01 -4.044784e-01 1.282691e+00 3.056967e-01 -4.396724e-01 -1.601468e-01 -2.624368e-01 -2.951120e-01 -2.698259e-01 -2.792034e-01 -1.619098e-01 -3.003166e-01 1.161823e-01 2.781819e-01 7.030124e-01 5.015514e-01 1.214465e-02 1.595296e-02
<VARIANCE> 39
 5.692589e+00 2.818999e+01 1.752011e+01 2.802717e+01 4.037197e+01 3.056712e+01 6.446116e+01 2.849090e+01 2.874368e+01 4.048274e+01 2.389441e+01 2.705886e+01 6.618297e-01 4.845890e-01 6.344709e-01 1.095334e+00 1.400462e+00 1.509253e+00 2.088459e+00 1.999072e+00 1.677928e+00 3.034278e+00 4.073228e+00 2.097651e+00 2.025715e+00 2.895253e-02 6.795716e-02 1.493311e-01 1.745869e-01 2.204432e-01 4.278204e-01 2.966246e-01 3.539452e-01 2.142097e-01 5.216045e-01 4.400677e-01 2.871512e-01 4.035289e-01 4.779324e-03
<GCONST> 9.126749e+01
<MIXTURE> 13 5.651972e-02
<MEAN> 39
 -2.350567e+00 1.451056e+00 -6.569993e+00 -7.793514e+00 4.177357e+00 4.782115e+00 -5.318712e-01 1.512972e+00 1.456298e+00 4.485915e+00 1.634089e+00 -3.053499e+00 1.963574e+01 -2.589504e+00 -1.230737e+00 -3.898703e-01 7.399585e-01 2.458827e+00 1.535975e-01 1.037063e-01 -7.490629e-01 8.151200e-01 -9.009272e-01 8.975988e-01 3.298514e-01 -5.576994e-01 2.558626e-02 -4.238329e-01 2.633132e-02 -4.118568e-01 -6.877397e-01 -1.118932e-01 -5.951380e-01 -2.320719e-01 -4.425331e-01 -9.993238e-02 1.395395e-01 -2.607675e-01 7.197433e-02
<VARIANCE> 39
 1.054360e+01 1.953495e+01 1.594826e+01 3.238453e+01 3.040356e+01 4.062770e+01 4.281182e+01 2.237221e+01 4.140779e+01 2.865175e+01 3.557844e+01 1.963055e+01 6.955239e-01 6.364402e-01 8.615553e-01 1.372753e+00 2.664647e+00 2.239338e+00 2.760412e+00 4.721977e+00 1.927005e+00 2.002044e+00 4.177749e+00 3.360059e+00 3.378146e+00 1.786169e-02 1.470845e-01 1.778606e-01 1.407287e-01 1.519090e-01 3.713295e-01 2.808609e-01 5.153863e-01 2.563491e-01 4.187787e-01 4.434443e-01 5.331160e-01 3.624457e-01 5.953502e-03
<GCONST> 9.552914e+01
<MIXTURE> 14 4.174803e-02
<MEAN> 39
 -4.058409e+00 -3.765189e+00 -1.059507e+00 4.568254e-01 -6.712398e+00 2.250302e+00 6.306664e+00 6.212205e+00 -4.779856e-01 -3.417659e+00 -2.749753e+00 1.251121e+00 1.899733e+01 -3.152670e-01 -2.923702e+00 -2.830766e+00 1.179847e-02 3.353253e+00 1.474409e+00 1.314946e-01 4.938884e-01 3.034360e-01 -1.575041e+00 -1.402118e+00 3.599189e-01 -2.807508e-01 -1.513807e-01 1.501310e-02 -1.372669e-02 -3.915835e-01 3.678642e-01 -4.419726e-01 -8.750417e-01 -8.618729e-01 -2.752544e-02 4.184507e-01 1.810230e-01 -3.260382e-01 4.799959e-02
<VARIANCE> 39
 1.380190e+01 1.887647e+01 2.571894e+01 2.261278e+01 4.342219e+01 2.451822e+01 2.604688e+01 3.133739e+01 2.838500e+01 3.102305e+01 2.229770e+01 2.310711e+01 1.351213e+00 8.289723e-01 1.788470e+00 1.069048e+00 2.133435e+00 3.028023e+00 2.764817e+00 2.465868e+00 2.497546e+00 2.160869e+00 2.954665e+00 1.798025e+00 2.232621e+00 5.060784e-02 1.278735e-01 2.437600e-01 1.973502e-01 1.870704e-01 5.170699e-01 2.708112e-01 3.599565e-01 4.059494e-01 5.050526e-01 6.165912e-01 4.393453e-01 3.651268e-01 5.264607e-03
<GCONST> 9.712822e+01
<MIXTURE> 15 5.270097e-02
<MEAN> 39
 -3.892269e+00 -1.830225e+00 -7.867304e+00 -8.319311e-01 -2.720055e-01 1.263337e+00 -6.379601e-01 1.259125e-01 9.912189e-01 1.565016e+00 6.798558e-01 1.383822e+00 1.534012e+01 -1.700439e-01 -1.507637e+00 -4.630671e-01 -5.034926e-01 5.157114e-01 -2.120370e-01 -5.459726e-01 2.563218e-02 2.965406e-01 1.443304e-01 -2.406341e-01 -3.913307e-01 -1.549871e-02 -2.626010e-01 -3.926727e-01 1.195461e-01 2.338339e-02 3.249474e-01 1.426298e-01 1.412465e-01 5.408513e-02 1.013607e-01 5.032526e-02 3.370345e-01 9.689485e-02 1.164352e-01
<VARIANCE> 39
 1.114871e+00 5.793394e+00 4.763179e+00 4.819343e+00 5.352678e+00 1.581532e+01 1.062259e+01 9.942540e+00 8.356990e+00 1.061684e+01 9.046878e+00 9.885018e+00 3.923446e-01 3.279906e-01 8.165344e-01 6.041192e-01 9.529434e-01 1.179816e+00 1.308125e+00 1.631668e+00 1.037946e+00 1.767685e+00 1.567291e+00 1.354236e+00 1.030243e+00 4.547898e-02 4.224423e-02 9.853081e-02 1.313095e-01 1.661180e-01 1.788772e-01 2.496713e-01 2.625465e-01 2.075429e-01 2.362371e-01 3.073728e-01 2.273472e-01 2.696456e-01 5.784856e-03
<GCONST> 6.527831e+01
<MIXTURE> 16 4.014730e-02
<MEAN> 39
 -6.720845e+00 1.529897e+00 -3.952924e+00 2.383838e+00 4.776460e-01 5.058261e+00 1.033279e+00 2.002208e-01 5.025370e+00 1.680748e+00 3.848361e+00 1.735083e+00 1.639246e+01 1.278269e-01 -6.678592e-01 -2.809348e-01 -3.416615e-01 3.460644e-01 7.465863e-02 1.745227e-01 -5.564184e-02 -5.124332e-01 -3.594169e-02 -2.695606e-01 -3.300706e-02 7.773187e-03 -2.953473e-02 -6.243573e-01 -8.143055e-02 -4.019946e-01 4.075330e-01 -2.307866e-01 -7.698840e-03 1.869100e-01 -4.236586e-01 -1.312410e-01 -5.256816e-02 5.354113e-02 4.599441e-03
<VARIANCE> 39
 7.480318e+00 7.747702e+00 1.061396e+01 9.198792e+00 9.402566e+00 8.577026e+00 1.355834e+01 9.567493e+00 2.058555e+01 1.124720e+01 8.736428e+00 4.824164e+00 6.889852e-01 1.432787e-01 1.559751e+00 6.261520e-01 9.129547e-01 1.647900e+00 1.122438e+00 1.342188e+00 1.134800e+00 2.394313e+00 7.322453e-01 1.155503e+00 7.005032e-01 4.630266e-02 6.582081e-02 1.897871e-01 1.662791e-01 1.696280e-01 3.772354e-01 1.479003e-01 3.289922e-01 2.365216e-01 5.548317e-01 1.506875e-01 1.928477e-01 1.413197e-01 7.036359e-03
<GCONST> 7.021112e+01
<MIXTURE> 17 2.953734e-02
<MEAN> 39
 -6.130086e+00 3.205549e-01 -5.479796e+00 -5.344516e-02 -3.417216e+00 -2.325670e+00 -2.865455e+00 3.960133e-02 7.231169e-01 1.243776e+00 4.090484e+00 2.426183e+00 1.541786e+01 -4.557995e-01 -1.739205e+00 -4.683756e-02 -9.270731e-01 1.177886e+00 -4.257967e-01 -9.767055e-01 7.275683e-01 2.459070e-01 -7.808158e-01 -4.340262e-01 -5.196970e-01 -5.685795e-03 -4.022643e-01 -5.958311e-01 1.977257e-01 -4.245916e-01 7.360712e-01 2.369061e-01 1.596974e-01 1.501302e-01 -3.046622e-02 -1.072112e-01 -3.586766e-01 1.536489e-01 1.002351e-01
<VARIANCE> 39
 7.821951e+00 1.013050e+01 1.548984e+01 1.566841e+01 1.044882e+01 1.208488e+01 1.228311e+01 1.637127e+01 1.893717e+01 1.406142e+01 2.070486e+01 1.376168e+01 6.632094e-01 9.953347e-01 8.803775e-01 1.208382e+00 1.891585e+00 2.296211e+00 1.931178e+00 3.313237e+00 3.472871e+00 1.372061e+00 2.142492e+00 1.946416e+00 1.849668e+00 3.830966e-02 2.593726e-01 1.243962e-01 3.384359e-01 3.093315e-01 2.011676e-01 3.428822e-01 4.771014e-01 4.348249e-01 3.700229e-01 2.424261e-01 2.994483e-01 3.195868e-01 6.048301e-03
<GCONST> 8.643089e+01
<MIXTURE> 18 5.176673e-02
<MEAN> 39
 -3.323405e+00 1.160716e+00 -8.030265e+00 -5.617242e+00 7.072505e+00 -4.096977e+00 -8.549983e+00 -3.235466e+00 -7.106143e+00 -1.052569e+01 -9.982707e+00 -6.210464e+00 1.991755e+01 -1.125844e+00 -1.116212e+00 6.157498e-02 1.407050e+00 2.070864e+00 1.388872e+00 3.220682e-01 4.431221e-01 3.120820e-01 -2.910877e-01 5.381790e-01 -4.211762e-01 -3.234803e-01 -1.760591e-01 -1.692092e-01 -1.298658e-01 -3.219324e-01 -3.749716e-01 -1.399643e-01 2.414080e-01 4.092185e-01 3.263085e-01 3.312922e-01 2.495753e-01 1.800643e-01 -2.789997e-02
<VARIANCE> 39
 1.073241e+01 1.130389e+01 1.858994e+01 2.308151e+01 4.093233e+01 4.889320e+01 1.960952e+01 4.779781e+01 2.477061e+01 4.797361e+01 4.265769e+01 4.659856e+01 8.387782e-01 2.700579e-01 8.069173e-01 9.743048e-01 2.120767e+00 2.064486e+00 2.866460e+00 2.212438e+00 3.432477e+00 2.974994e+00 1.359027e+00 2.474968e+00 1.485832e+00 3.041399e-02 5.645406e-02 1.225246e-01 1.352413e-01 1.635883e-01 2.067472e-01 2.522997e-01 2.127253e-01 4.149600e-01 4.211816e-01 2.923045e-01 4.442079e-01 3.960814e-01 6.137747e-03
<GCONST> 9.060378e+01
<MIXTURE> 19 3.627545e-02
<MEAN> 39
 -5.983118e+00 -8.977888e-01 -1.325915e+00 -1.029569e+01 -5.431524e+00 -1.474841e+00 2.571788e+00 -5.547172e+00 -1.261479e+01 -9.597157e+00 -7.462192e+00 -7.536037e+00 1.964259e+01 -6.855098e-01 -2.517717e+00 -1.408653e+00 3.106092e+00 3.931006e+00 7.571076e-01 3.435932e-01 1.234435e+00 -9.260311e-01 -1.918018e+00 1.157924e+00 6.699117e-01 -3.750074e-01 -1.488638e-01 4.942813e-02 -2.786324e-01 -6.740322e-02 1.666167e-01 -4.073881e-01 -7.166497e-01 8.255413e-02 7.943552e-01 4.518284e-01 1.334463e-01 4.795486e-01 1.652084e-02
<VARIANCE> 39
 4.825491e+00 1.425056e+01 1.299507e+01 3.183217e+01 2.869497e+01 4.895533e+01 1.719371e+01 3.227353e+01 2.209971e+01 2.513997e+01 1.634943e+01 3.592968e+01 6.233661e-01 2.369623e-01 9.223117e-01 7.464107e-01 1.523738e+00 2.875857e+00 2.851136e+00 3.316513e+00 3.207365e+00 2.446446e+00 3.238863e+00 1.987927e+00 1.830639e+00 4.355481e-02 4.852497e-02 2.471409e-01 2.235567e-01 3.801414e-01 4.211018e-01 4.302880e-01 3.070173e-01 4.277888e-01 3.938677e-01 4.781589e-01 4.453187e-01 4.295733e-01 4.870167e-03
<GCONST> 9.175177e+01
<MIXTURE> 20 4.836721e-02
<MEAN> 39
 -3.805146e+00 -2.644314e-01 -5.741479e+00 8.006923e-01 4.000515e+00 1.732578e+00 6.333961e-01 2.814750e+00 1.729151e+00 2.453556e+00 3.057805e+00 2.715059e+00 1.690001e+01 -1.125066e+00 -1.522681e+00 -7.528297e-01 -6.190466e-01 2.089291e+00 -1.197471e+00 -2.486779e-01 5.140594e-01 3.480985e-01 -5.876598e-01 5.615007e-02 -6.375679e-01 1.106122e-02 -4.128771e-01 -3.610281e-01 -2.236591e-01 -1.673086e-01 1.365356e-01 -2.593608e-01 -1.039748e-03 -1.957831e-01 -4.403722e-02 -3.154924e-01 -5.385565e-02 -1.182157e-01 -8.121283e-03
<VARIANCE> 39
 2.864936e+00 4.378808e+00 7.711976e+00 7.602866e+00 1.014845e+01 2.146364e+01 1.441166e+01 1.156289e+01 1.201371e+01 1.590210e+01 1.246232e+01 1.001185e+01 6.229749e-01 3.650149e-01 7.047780e-01 4.978265e-01 2.107391e+00 1.371528e+00 2.353388e+00 2.085026e+00 1.993538e+00 1.551811e+00 2.039194e+00 2.120822e+00 2.072046e+00 4.367363e-02 4.096385e-02 6.588907e-02 8.589298e-02 1.524274e-01 2.157887e-01 3.875274e-01 2.614442e-01 2.699642e-01 2.669131e-01 2.114296e-01 3.410474e-01 2.118202e-01 5.868595e-03
<GCONST> 7.314754e+01
<STATE> 3
<NUMMIXES> 20
<MIXTURE> 1 3.423184e-02
<MEAN> 39
 -2.097292e+00 -4.455898e+00 -1.070027e+01 -2.240741e+00 3.856505e+00 9.583948e+00 4.302893e-01 -2.537220e+00 -3.423812e+00 1.600350e+00 1.027874e+00 -3.902197e-01 1.710051e+01 -1.730800e-01 -1.212107e+00 -4.825938e-01 -3.896230e-01 1.391176e+00 8.290231e-01 5.869867e-02 2.049218e-01 1.055508e-02 3.684125e-01 3.116667e-01 -3.187306e-01 1.086776e-01 -1.826517e-02 2.854005e-02 3.479905e-01 3.705503e-02 -3.079368e-01 -3.874762e-01 1.833991e-02 9.016715e-02 3.867233e-01 1.773223e-01 -1.024987e-01 -5.833782e-02 4.303996e-02
<VARIANCE> 39
 6.771069e+00 8.971868e+00 8.778574e+00 2.365706e+01 2.503838e+01 3.338650e+01 2.209510e+01 2.139047e+01 1.218865e+01 1.702688e+01 1.369592e+01 9.774140e+00 4.269163e-01 3.748074e-01 9.527797e-01 1.179398e+00 1.621428e+00 1.755514e+00 2.213100e+00 1.509112e+00 1.883469e+00 1.939096e+00 1.583263e+00 1.004607e+00 1.926183e+00 3.273522e-02 7.789004e-02 1.035284e-01 1.381495e-01 3.311800e-01 2.464791e-01 1.854606e-01 2.884901e-01 3.914341e-01 3.142174e-01 1.963986e-01 2.819719e-01 1.508643e-01 9.385392e-03
<GCONST> 7.998819e+01
<MIXTURE> 2 5.448477e-02
<MEAN> 39
 -5.430167e+00 -2.592279e+00 -4.870706e+00 1.969827e-01 1.161474e+01 -3.086415e+00 -6.313876e+00 5.230682e+00 2.261789e+00 -4.322481e-01 -1.889215e+00 -2.167410e+00 1.887156e+01 -9.486220e-01 -1.309243e+00 -6.284491e-01 -3.794942e-01 1.489029e+00 1.021202e+00 3.048402e-01 -7.460529e-02 5.290807e-01 -5.066411e-01 5.292200e-01 -2.161791e-02 -1.874841e-01 1.210343e-01 1.978846e-01 1.670671e-01 -3.050439e-01 -9.599521e-01 1.910626e-01 4.493667e-01 -5.131098e-01 -4.911387e-01 -5.369574e-02 1.089829e-01 -3.438261e-02 5.573354e-02
<VARIANCE> 39
 1.286611e+01 1.730740e+01 1.610818e+01 1.286488e+01 1.165741e+01 4.794414e+01 4.755934e+01 2.968583e+01 2.818500e+01 2.574424e+01 1.317215e+01 2.189528e+01 1.219941e+00 4.142574e-01 1.229908e+00 1.874951e+00 1.672861e+00 2.211754e+00 2.620080e+00 2.976147e+00 3.657197e+00 1.885057e+00 2.613535e+00 1.381957e+00 3.307559e+00 3.091496e-02 1.156544e-01 1.819288e-01 2.340362e-01 1.715924e-01 2.952318e-01 4.241846e-01 7.011793e-01 5.071324e-01 3.845916e-01 4.830595e-01 2.359070e-01 3.212667e-01 7.816873e-03
<GCONST> 9.339431e+01
<MIXTURE> 3 4.882519e-02
<MEAN> 39
 -3.561791e+00 -5.460980e-01 -7.442667e+00 -3.259081e+00 8.618717e+00 4.413025e+00 2.797207e+00 -3.179252e-02 1.734081e+00 2.715982e+00 9.706801e-01 -4.808650e+00 1.987617e+01 -8.195518e-01 -8.953477e-01 8.790233e-02 5.196236e-01 1.342513e+00 6.537704e-01 8.702319e-01 -1.011678e-01 -4.854105e-01 -5.009528e-01 1.180978e-01 -1.874315e-01 -8.617859e-02 5.449373e-01 -5.327955e-02 -3.243548e-01 -4.344431e-01 -4.974277e-01 -3.591608e-01 7.399594e-02 -1.548738e-01 -3.036505e-01 -2.090753e-01 -2.651554e-01 -2.995406e-01 1.525741e-01
<VARIANCE> 39
 1.028921e+01 2.420776e+01 1.197099e+01 3.003666e+01 3.340943e+01 4.578392e+01 2.610320e+01 2.163885e+01 4.542361e+01 2.519782e+01 3.574500e+01 2.234529e+01 8.089631e-01 2.703301e-01 7.897449e-01 5.293791e-01 8.804339e-01 1.453038e+00 1.625971e+00 1.199509e+00 2.633947e+00 1.381273e+00 1.840845e+00 1.086438e+00 1.268366e+00 1.185599e-02 8.822131e-02 2.556980e-01 1.935290e-01 2.447050e-01 4.099958e-01 2.727693e-01 4.291347e-01 6.649820e-01 3.209800e-01 4.299860e-01 2.815618e-01 2.923495e-01 3.624241e-03
<GCONST> 8.640045e+01
<MIXTURE> 4 4.465288e-02
<MEAN> 39
 -7.907602e+00 -4.571723e+00 -1.770264e+00 -1.140148e+00 7.226081e+00 3.398984e+00 9.542239e-01 2.295783e+00 2.768573e+00 4.766478e+00 5.093629e+00 7.405451e-01 1.714944e+01 -1.899443e+00 -1.776382e+00 3.158298e-01 -7.844489e-01 1.708315e+00 5.227522e-01 4.787455e-01 5.837543e-02 6.365053e-01 7.414528e-01 2.498850e-01 -1.032527e+00 1.882872e-01 -7.467657e-02 -1.055259e-01 -4.649110e-01 -8.209728e-02 -4.756795e-01 -5.944505e-02 9.251159e-02 -2.780597e-01 -2.636060e-01 -2.297544e-01 -3.831164e-01 -9.160022e-02 -1.884551e-02
<VARIANCE> 39
 5.597579e+00 1.265722e+01 1.100890e+01 1.595208e+01 9.048285e+00 1.144145e+01 1.635685e+01 2.018958e+01 2.085033e+01 2.290222e+01 1.279090e+01 2.309879e+01 7.278306e-01 8.190827e-01 1.797743e+00 9.967633e-01 8.657153e-01 1.015172e+00 1.815104e+00 1.709870e+00 1.789997e+00 1.648044e+00 2.047192e+00 1.810116e+00 1.604054e+00 5.206482e-02 8.936782e-02 1.311838e-01 1.017808e-01 1.728973e-01 2.202105e-01 2.241140e-01 3.156376e-01 2.753531e-01 3.385352e-01 2.467808e-01 2.081053e-01 3.340193e-01 5.697296e-03
<GCONST> 8.012701e+01
<MIXTURE> 5 7.219736e-02
<MEAN> 39
 -8.706038e+00 -3.894471e+00 -8.191250e+00 -3.287204e+00 1.216946e+01 -4.798589e-01 -2.110105e+00 1.354993e+00 4.459433e-01 -2.594007e+00 -3.077974e-01 -2.573387e+00 1.808249e+01 -9.338953e-01 -7.851674e-01 -1.762053e-01 -2.333209e-02 -6.666146e-02 4.076586e-01 7.815951e-01 -2.775111e-01 4.278844e-01 5.719441e-01 7.057377e-01 1.563778e-01 -8.353109e-02 2.306352e-01 8.004393e-02 -1.751810e-02 4.044871e-02 -3.581303e-01 -3.674880e-02 1.881869e-02 -6.435422e-02 6.311967e-02 -1.313020e-02 -9.292904e-02 4.692369e-02 7.930229e-02
<VARIANCE> 39
 1.551315e+01 8.697722e+00 9.607108e+00 1.350619e+01 1.944416e+01 3.113686e+01 3.352584e+01 2.766243e+01 2.771145e+01 2.697416e+01 2.686361e+01 1.727855e+01 8.087727e-01 3.261407e-01 2.349281e-01 5.716387e-01 7.658170e-01 1.177899e+00 1.283423e+00 1.746451e+00 1.824077e+00 9.608142e-01 1.737638e+00 1.465547e+00 1.481185e+00 3.564658e-02 4.695666e-02 3.772548e-02 8.230396e-02 1.951372e-01 2.871228e-01 1.774991e-01 3.350942e-01 3.336417e-01 2.196024e-01 3.730798e-01 3.067611e-01 2.340348e-01 6.094275e-03
<GCONST> 7.748986e+01
<MIXTURE> 6 4.424627e-02
<MEAN> 39
 -4.417680e+00 -8.498648e+00 -4.363787e+00 1.117690e+00 4.187353e+00 -2.151901e-02 -1.633537e-01 1.220058e+00 -4.204605e+00 -5.968951e+00 -3.570103e+00 4.279740e+00 1.759563e+01 -1.194735e+00 -1.315219e+00 -5.104307e-01 4.216853e-02 2.235771e+00 2.874216e-01 7.052156e-02 -1.757914e-01 5.841419e-02 1.006758e+00 1.232069e+00 -5.171988e-01 -1.253071e-01 3.484590e-02 3.097753e-01 3.287708e-01 -2.473843e-01 -5.526949e-01 8.690426e-02 4.012341e-02 -2.282594e-01 1.591742e-01 5.376695e-01 1.357007e-01 -5.554767e-01 1.232703e-01
<VARIANCE> 39
 9.406526e+00 8.843746e+00 1.254043e+01 2.320222e+01 3.329326e+01 1.741382e+01 2.921078e+01 1.390913e+01 2.118074e+01 2.799218e+01 2.274064e+01 1.892781e+01 5.146493e-01 4.359838e-01 9.556955e-01 1.707182e+00 1.182618e+00 1.971703e+00 1.383530e+00 2.861079e+00 2.699531e+00 3.104221e+00 2.683892e+00 2.168964e+00 3.390867e+00 3.285297e-02 7.728440e-02 7.160513e-02 2.298149e-01 2.734715e-01 3.399940e-01 3.809803e-01 3.666233e-01 2.429679e-01 4.731790e-01 5.253615e-01 5.011347e-01 3.098461e-01 4.171041e-03
<GCONST> 8.834127e+01
<MIXTURE> 7 4.825509e-02
<MEAN> 39
 -8.625256e+00 -2.786445e+00 -1.059909e+01 -1.800005e-01 9.080045e+00 -4.775805e+00 -1.124277e+00 1.456823e+00 3.099523e+00 -1.324038e+00 5.164907e+00 1.527388e+00 1.692535e+01 -1.340955e+00 -1.252463e+00 -7.975739e-01 4.293751e-01 9.621196e-01 -5.792796e-01 4.901259e-01 -3.751335e-01 3.666487e-01 -1.064041e+00 6.443794e-01 7.669804e-01 1.089707e-01 1.857012e-01 1.830847e-02 2.681948e-01 -2.962670e-02 -4.847043e-01 5.529732e-01 6.167969e-02 -2.888729e-01 -5.443462e-01 -1.438261e-01 -4.339441e-01 -1.031786e-02 7.081325e-02
<VARIANCE> 39
 7.009658e+00 9.009645e+00 1.325843e+01 1.899958e+01 1.949010e+01 2.188441e+01 5.376158e+01 3.670872e+01 1.865458e+01 3.040434e+01 1.439851e+01 2.941818e+01 5.289242e-01 4.060395e-01 4.020899e-01 1.514042e+00 1.157397e+00 1.236624e+00 1.790302e+00 1.635077e+00 1.760354e+00 1.956270e+00 1.243035e+00 1.278304e+00 1.348338e+00 3.934244e-02 1.085535e-01 1.114850e-01 1.141394e-01 2.071819e-01 2.428858e-01 2.384596e-01 3.742661e-01 3.832844e-01 2.523192e-01 3.637770e-01 2.398819e-01 3.215145e-01 8.955560e-03
<GCONST> 8.293028e+01
<MIXTURE> 8 3.717836e-02
<MEAN> 39
 -7.142114e+00 -6.729450e+00 -2.616854e+00 -4.609058e+00 3.133621e+00 1.261512e+00 -4.574626e+00 -8.038211e-01 1.646834e+00 3.843473e-01 1.523181e+00 9.847743e-01 1.564399e+01 -1.631673e+00 -2.638639e+00 3.813284e-01 -1.491204e+00 1.901575e+00 6.646612e-01 2.391316e-01 8.667878e-02 8.073678e-01 -4.975804e-01 -3.735807e-01 1.245776e-01 2.874527e-01 -2.345640e-02 1.167076e-01 -3.237933e-01 2.745552e-01 -2.373175e-02 2.050352e-01 6.709126e-01 6.879988e-02 -2.190160e-01 -8.212159e-02 -1.032925e-01 1.848955e-01 1.465820e-01
<VARIANCE> 39
 4.230258e+00 8.791650e+00 1.128993e+01 2.099712e+01 1.743436e+01 2.932888e+01 2.175458e+01 2.987124e+01 1.748922e+01 1.507252e+01 1.666606e+01 1.853767e+01 5.416262e-01 5.277212e-01 9.023118e-01 9.786502e-01 1.574259e+00 1.690450e+00 1.408778e+00 2.068161e+00 1.799558e+00 1.572153e+00 2.933320e+00 1.504585e+00 2.019025e+00 3.152968e-02 6.243379e-02 1.113877e-01 1.718287e-01 1.611706e-01 2.220603e-01 3.344059e-01 2.958860e-01 5.402103e-01 2.690954e-01 3.192464e-01 4.503345e-01 2.540019e-01 3.945197e-03
<GCONST> 8.207813e+01
<MIXTURE> 9 6.343104e-02
<MEAN> 39
 -7.287039e+00 -1.179855e+00 -8.755427e+00 -1.118485e+01 5.513477e+00 1.097289e+01 -1.190442e+00 -5.277086e+00 2.448833e+00 2.198730e+00 3.596326e+00 -1.518842e+00 1.816721e+01 -1.558924e+00 -1.477556e+00 -3.669987e-02 6.770840e-01 1.078055e+00 -3.413437e-01 -1.249752e+00 -8.895630e-01 4.828437e-01 6.847692e-01 7.792617e-02 -4.984218e-01 -2.338980e-01 6.562072e-01 1.490314e-02 1.090587e-01 5.919563e-02 -4.127616e-01 -2.710689e-01 5.099638e-01 4.182487e-01 -3.356434e-01 -1.386852e-01 -5.057663e-01 1.053504e-02 1.506296e-01
<VARIANCE> 39
 1.548149e+01 2.478113e+01 1.470820e+01 2.161625e+01 1.603756e+01 2.662143e+01 3.014081e+01 2.304296e+01 1.791397e+01 3.247461e+01 3.521362e+01 1.915204e+01 8.581874e-01 8.140195e-01 4.744602e-01 9.266137e-01 1.201419e+00 1.525370e+00 1.345915e+00 1.453048e+00 1.341327e+00 2.192518e+00 1.880158e+00 1.858175e+00 1.338524e+00 2.752152e-02 1.315781e-01 9.158886e-02 1.832985e-01 2.019045e-01 3.250814e-01 3.288005e-01 5.655435e-01 3.352751e-01 3.555261e-01 4.239514e-01 6.040957e-01 2.930233e-01 5.191650e-03
<GCONST> 8.749451e+01
<MIXTURE> 10 3.787463e-02
<MEAN> 39
 -7.700618e+00 -4.845382e+00 -6.605523e+00 -1.655278e+00 2.277622e+00 1.751038e+00 6.355369e+00 -5.486302e+00 -9.588793e+00 -9.085327e+00 -5.603857e+00 -1.525631e+00 1.870558e+01 -6.831849e-01 -1.361115e+00 -1.352877e+00 1.427042e+00 2.195189e+00 3.870710e-01 3.849413e-01 5.115077e-01 -4.126065e-01 -2.941492e-01 4.866914e-01 3.673894e-01 -1.781521e-01 3.543149e-01 3.657599e-01 1.958331e-01 -4.234335e-01 -6.548085e-01 -5.344332e-01 -7.096621e-01 -3.210571e-02 4.718202e-01 2.157345e-01 -2.057139e-01 -1.330292e-02 1.121408e-01
<VARIANCE> 39
 7.361959e+00 2.614422e+01 2.988078e+01 1.968785e+01 2.156234e+01 2.700690e+01 4.016208e+01 1.950113e+01 1.422980e+01 2.620875e+01 2.904808e+01 1.881808e+01 7.334995e-01 4.995065e-01 3.285339e-01 1.049339e+00 1.016962e+00 1.371756e+00 2.547973e+00 2.175386e+00 1.626133e+00 2.248328e+00 2.267306e+00 2.355062e+00 1.765201e+00 2.326855e-02 7.058191e-02 9.624535e-02 2.208609e-01 1.961998e-01 2.975037e-01 2.979697e-01 2.797195e-01 2.703956e-01 2.738016e-01 3.319393e-01 3.554375e-01 2.963605e-01 2.155866e-03
<GCONST> 8.440166e+01
<MIXTURE> 11 8.380280e-02
<MEAN> 39
 -7.576560e+00 -4.240962e+00 -6.506208e+00 -2.145213e+00 1.090022e+01 -3.227869e+00 -5.550022e+00 2.500092e+00 -2.539137e+00 -8.112198e+00 -5.936077e+00 -4.673337e+00 1.868619e+01 -1.142694e+00 -8.679944e-01 -6.333499e-02 4.429680e-01 5.171203e-01 1.477594e-01 5.051585e-01 3.951162e-01 8.189273e-01 4.453359e-01 6.774451e-01 2.719939e-01 -2.393087e-01 3.887636e-01 1.230225e-01 -1.715473e-01 -2.434766e-01 -5.569788e-01 2.819227e-02 -2.456737e-01 -5.319934e-01 -4.658444e-01 -1.227230e-01 -1.201294e-01 1.749863e-02 1.302389e-01
<VARIANCE> 39
 9.572673e+00 2.242673e+01 2.306433e+01 1.655109e+01 1.921522e+01 3.988172e+01 2.714910e+01 4.929491e+01 3.864925e+01 3.434872e+01 2.353374e+01 3.100989e+01 8.805002e-01 4.468797e-01 4.962139e-01 6.482323e-01 1.129801e+00 1.269642e+00 1.375111e+00 2.021880e+00 1.829697e+00 1.903488e+00 1.500019e+00 1.847737e+00 2.102675e+00 2.728344e-02 5.423952e-02 8.362705e-02 1.955309e-01 2.116129e-01 2.832114e-01 2.545900e-01 2.677343e-01 3.725423e-01 4.325420e-01 2.216755e-01 3.490431e-01 2.994681e-01 2.742971e-03
<GCONST> 8.532386e+01
<MIXTURE> 12 6.595853e-02
<MEAN> 39
 -5.203294e+00 -9.282439e+00 -7.459612e+00 -2.162052e+00 5.497783e+00 3.874271e+00 2.902252e+00 3.619604e+00 2.231265e+00 -3.912880e+00 -5.990017e+00 -8.596749e-01 1.907684e+01 -8.640953e-01 -1.842142e+00 -1.486232e+00 -2.843863e-01 2.423276e+00 7.240730e-01 -7.923046e-01 -1.237648e+00 2.554439e-02 -4.200003e-01 1.339314e-01 -4.638283e-01 -1.380403e-01 1.069427e-01 6.789197e-01 5.272915e-01 -3.199213e-02 -7.413859e-01 -3.238299e-01 -6.478047e-02 -4.020146e-01 -1.635958e-01 4.787120e-01 6.569243e-01 -3.184562e-01 6.960374e-02
<VARIANCE> 39
 1.173252e+01 3.128040e+01 3.520178e+01 2.650824e+01 3.505679e+01 4.665679e+01 3.769540e+01 3.892453e+01 2.873682e+01 2.667306e+01 2.050557e+01 2.389526e+01 1.092904e+00 9.802978e-01 1.072927e+00 1.493731e+00 1.056781e+00 3.338738e+00 1.703745e+00 3.267875e+00 2.249095e+00 2.931003e+00 2.372282e+00 2.584401e+00 1.752251e+00 4.225003e-02 9.674434e-02 1.974759e-01 2.121837e-01 2.249148e-01 4.472994e-01 4.470689e-01 6.412738e-01 5.179673e-01 4.064038e-01 3.602948e-01 2.882514e-01 3.562162e-01 4.787466e-03
<GCONST> 9.731165e+01
<MIXTURE> 13 6.102508e-02
<MEAN> 39
 -7.006058e+00 -1.032979e+00 -1.055954e+01 -5.195132e+00 9.890677e+00 9.909080e-01 -5.487020e+00 -7.869723e-01 1.832007e+00 9.747210e-01 2.720163e+00 -3.627234e+00 1.854698e+01 -2.142621e+00 -1.296126e+00 -4.016173e-01 5.719760e-01 1.317351e+00 -2.935808e-01 -5.740203e-01 2.235546e-01 6.262827e-01 -2.552196e-01 5.583032e-01 -1.395378e-01 -3.743917e-01 6.100376e-01 1.050560e-02 2.305835e-01 -2.729614e-01 -8.468078e-01 1.370229e-01 3.912805e-01 -1.997448e-01 -4.509508e-01 -1.363637e-01 -5.706363e-01 -7.016983e-02 1.714794e-01
<VARIANCE> 39
 8.721255e+00 1.629322e+01 2.591027e+01 1.865972e+01 2.318863e+01 2.787692e+01 3.443992e+01 2.819389e+01 2.876366e+01 2.955200e+01 2.678673e+01 2.757571e+01 6.541305e-01 3.208311e-01 9.027949e-01 1.134786e+00 2.036779e+00 1.945417e+00 1.627014e+00 2.223757e+00 2.868637e+00 2.788430e+00 2.505991e+00 2.658863e+00 1.960844e+00 2.169964e-02 9.974656e-02 1.269595e-01 1.834072e-01 3.388167e-01 3.319691e-01 4.954607e-01 6.055159e-01 4.461675e-01 3.948887e-01 6.064031e-01 4.630492e-01 5.239761e-01 4.900268e-03
<GCONST> 9.303399e+01
<MIXTURE> 14 5.202866e-02
<MEAN> 39
 -7.535685e+00 -5.078505e+00 -4.964681e+00 -3.572236e+00 1.051064e+01 9.390492e-01 4.323981e-01 3.881358e+00 1.328619e+00 2.569156e+00 3.752410e+00 -6.986359e-01 1.692109e+01 -1.977976e+00 -2.505262e+00 -7.393720e-01 -1.285057e+00 2.265970e+00 -7.134925e-01 1.251302e-01 -8.127326e-02 -3.281519e-02 -4.143750e-01 7.744198e-02 -8.985932e-01 9.636173e-02 1.342885e-01 2.193900e-01 -1.520782e-01 4.226981e-01 -6.925652e-01 8.309498e-02 1.594824e-01 -5.558670e-01 -8.799973e-03 -2.891724e-01 -2.620467e-01 1.513574e-01 1.150072e-01
<VARIANCE> 39
 6.928321e+00 9.167019e+00 1.001411e+01 1.451169e+01 9.274212e+00 3.339903e+01 2.176255e+01 1.005652e+01 2.494506e+01 1.922008e+01 1.536908e+01 1.683220e+01 8.149074e-01 8.405145e-01 1.088353e+00 1.227765e+00 1.039851e+00 1.929472e+00 2.357726e+00 2.156478e+00 2.730585e+00 2.655392e+00 1.990620e+00 1.705114e+00 1.549730e+00 4.852614e-02 1.016575e-01 1.032155e-01 1.500784e-01 1.918328e-01 2.593008e-01 4.507714e-01 4.578692e-01 3.023458e-01 4.913624e-01 3.523144e-01 3.194044e-01 2.472953e-01 7.919335e-03
<GCONST> 8.514996e+01
<MIXTURE> 15 4.693785e-02
<MEAN> 39
 -7.565141e+00 -7.662159e+00 -5.681329e+00 -1.423005e+00 5.742910e+00 -3.757919e+00 -1.846138e+00 2.016008e+00 1.958297e+00 -1.041885e+00 -6.443638e-01 4.198730e+00 1.635959e+01 -1.455075e+00 -1.765442e+00 -8.485328e-02 -2.859489e-01 1.299918e+00 -4.146383e-01 1.018716e-01 1.304064e-01 2.905347e-01 -6.892262e-01 -4.715134e-01 2.494944e-01 1.593542e-01 -1.466685e-02 3.403592e-01 -1.585677e-01 1.767522e-01 -4.692318e-01 4.556179e-01 2.306777e-01 -3.417671e-01 -3.088561e-01 6.389128e-02 8.977479e-02 -1.257275e-01 6.045597e-02
<VARIANCE> 39
 4.718617e+00 1.363538e+01 8.906299e+00 1.881811e+01 1.023594e+01 1.262205e+01 1.241989e+01 3.148786e+01 2.020152e+01 1.181794e+01 1.616325e+01 1.216778e+01 3.128490e-01 5.052959e-01 9.555201e-01 7.762721e-01 1.267294e+00 1.226907e+00 1.671024e+00 2.022517e+00 1.308316e+00 1.077282e+00 1.579821e+00 1.492231e+00 1.615116e+00 5.927215e-02 9.823139e-02 9.914509e-02 1.219803e-01 2.950225e-01 1.792268e-01 2.112164e-01 2.147135e-01 3.764214e-01 2.918660e-01 2.091728e-01 2.303856e-01 2.218251e-01 6.536625e-03
<GCONST> 7.637453e+01
<MIXTURE> 16 5.971111e-02
<MEAN> 39
 -3.874265e+00 -7.567163e+00 -8.128933e+00 -5.098600e-02 2.008805e+00 3.912706e+00 -1.461360e+00 8.671626e-01 3.102156e+00 4.476486e+00 2.207062e+00 -1.122496e+00 1.643692e+01 -5.721433e-01 -1.967947e+00 -4.073431e-01 -5.242264e-01 7.285894e-01 3.445514e-01 2.467445e-01 -4.860641e-01 1.359790e-02 7.784300e-02 -6.903823e-02 -6.747639e-01 1.402381e-01 -1.062549e-01 2.104575e-01 4.998146e-02 -8.772656e-02 -3.965711e-02 -5.462347e-02 4.039181e-01 -1.042594e-01 -4.390581e-01 -3.668538e-01 -3.427479e-01 1.019637e-01 7.685179e-02
<VARIANCE> 39
 1.764843e+00 1.034670e+01 9.788780e+00 1.073920e+01 1.098183e+01 1.546394e+01 2.495273e+01 1.494506e+01 1.351658e+01 1.370464e+01 1.142286e+01 1.509660e+01 6.362020e-01 3.958376e-01 9.992481e-01 6.931738e-01 1.160633e+00 1.241430e+00 1.532081e+00 1.973179e+00 1.520516e+00 2.107055e+00 1.931022e+00 1.922984e+00 1.641954e+00 5.135449e-02 6.435060e-02 1.092498e-01 1.276720e-01 1.947643e-01 2.178912e-01 1.747637e-01 3.789690e-01 2.240962e-01 2.242775e-01 2.251050e-01 2.376257e-01 3.196228e-01 9.745416e-03
<GCONST> 7.581284e+01
<MIXTURE> 17 3.722662e-02
<MEAN> 39
 -5.034704e+00 -6.700811e+00 -4.190735e+00 -2.120679e+00 2.253336e+00 4.816730e+00 -4.594582e-01 2.536828e+00 4.230428e+00 7.631128e-01 1.645263e+00 3.071859e+00 1.653236e+01 -1.315028e+00 -3.380138e+00 -1.666057e-01 -1.235291e+00 1.168950e+00 4.442634e-01 -5.539995e-01 -1.004550e-02 1.425823e-01 -1.093055e+00 -1.318498e+00 -2.733492e-01 1.532724e-01 -7.278035e-02 1.870348e-01 -3.137876e-01 1.110081e-01 4.950929e-02 -1.215415e-01 7.123007e-02 -3.004917e-01 -5.621147e-01 -1.527704e-01 -4.720142e-01 -3.203090e-01 1.151011e-01
<VARIANCE> 39
 3.769421e+00 1.639829e+01 5.755390e+00 2.774925e+01 1.173238e+01 1.423991e+01 2.093328e+01 2.084097e+01 2.248617e+01 1.506318e+01 1.950466e+01 9.640296e+00 7.109954e-01 8.571208e-01 1.567995e+00 1.154179e+00 1.831951e+00 1.849553e+00 1.679839e+00 3.234303e+00 2.291848e+00 2.165019e+00 2.330225e+00 1.941764e+00 2.991784e+00 3.916355e-02 1.097427e-01 2.358790e-01 1.596629e-01 1.995747e-01 2.670659e-01 2.031181e-01 3.021134e-01 3.100375e-01 4.438762e-01 2.217979e-01 3.248862e-01 2.167187e-01 1.472898e-02
<GCONST> 8.553893e+01
<MIXTURE> 18 3.857879e-02
<MEAN> 39
 -3.629950e+00 -2.453625e+00 -8.107726e+00 -7.779185e+00 6.477999e+00 4.617066e+00 -2.991105e+00 -2.488633e+00 -1.667520e+00 1.202154e+00 1.649628e-02 -5.728294e+00 1.921722e+01 -1.020332e+00 -1.341652e+00 5.095305e-01 1.376729e+00 1.093982e+00 -5.528966e-02 -1.951846e-02 -2.100251e-01 1.737400e-01 -7.727857e-01 -7.697166e-01 -8.565016e-01 -8.218688e-02 5.393909e-01 1.681977e-01 -2.661172e-01 -2.216993e-01 -7.084381e-01 -2.948338e-02 6.352831e-02 -1.145437e-01 -3.111412e-01 -5.955506e-01 -4.712093e-01 -1.533975e-02 1.819913e-01
<VARIANCE> 39
 5.964482e+00 1.905736e+01 2.616891e+01 1.701232e+01 3.647575e+01 5.998440e+01 7.122346e+01 3.879931e+01 2.693159e+01 2.743563e+01 6.010355e+01 1.474885e+01 6.388258e-01 1.708111e-01 6.004140e-01 7.890105e-01 7.416497e-01 1.346712e+00 1.206859e+00 9.978382e-01 1.733913e+00 2.179444e+00 2.315971e+00 1.775654e+00 1.149680e+00 1.632764e-02 4.981990e-02 1.589066e-01 2.842734e-01 2.607939e-01 4.537530e-01 5.737989e-01 5.307948e-01 5.743029e-01 3.676770e-01 3.536106e-01 5.393713e-01 3.915578e-01 4.963372e-03
<GCONST> 8.863153e+01
<MIXTURE> 19 4.149479e-02
<MEAN> 39
 -6.852872e+00 -7.748298e+00 -1.988975e+00 -2.499985e+00 1.290313e+00 -3.162008e+00 3.202478e+00 -3.263079e-01 -7.561271e+00 -5.687219e+00 -4.762549e-01 2.533945e+00 1.822536e+01 -7.420457e-01 -1.786724e+00 -1.677281e+00 1.582679e+00 2.947246e+00 -1.227102e-01 -6.989397e-01 7.410649e-01 9.206212e-01 -5.130337e-01 6.173823e-01 2.260472e-01 -2.245091e-01 2.506170e-01 5.322115e-01 6.933548e-02 -4.582758e-01 -7.471551e-01 1.974162e-01 -3.950182e-01 -6.260480e-01 2.257973e-01 1.326552e-01 -7.398635e-01 -6.025376e-01 1.511993e-01
<VARIANCE> 39
 7.601063e+00 1.516214e+01 2.136838e+01 1.386076e+01 2.660302e+01 1.886523e+01 3.375031e+01 1.853245e+01 1.739042e+01 1.692345e+01 3.266883e+01 1.943027e+01 1.546316e+00 2.899322e-01 7.285521e-01 9.447325e-01 1.252272e+00 2.305138e+00 1.613318e+00 2.955743e+00 1.990966e+00 2.354010e+00 3.133554e+00 2.575544e+00 2.455088e+00 5.690803e-02 4.277679e-02 9.917675e-02 1.584888e-01 1.630343e-01 4.580741e-01 3.143800e-01 3.686122e-01 2.522219e-01 3.721974e-01 4.638354e-01 5.116711e-01 2.948027e-01 5.539440e-03
<GCONST> 8.774543e+01
<MIXTURE> 20 2.785485e-02
<MEAN> 39
 -5.347961e+00 -4.151016e+00 -6.285961e+00 -1.418705e+00 5.173470e+00 -2.655367e+00 -4.270933e+00 -5.381453e+00 -8.796810e+00 -1.326517e+01 -9.020700e+00 -4.784376e+00 1.967949e+01 -6.350656e-01 -9.578650e-01 -7.504818e-01 1.953392e+00 2.081217e+00 4.854403e-01 -1.384688e+00 -1.446911e-01 2.864931e-01 -8.156267e-01 -3.425589e-02 1.405251e-01 -8.283895e-02 2.083171e-01 2.764171e-01 9.503280e-02 -9.025159e-01 -8.633146e-01 -2.869805e-01 1.786939e-01 -6.170237e-02 3.987525e-01 3.530867e-01 -1.944823e-01 -1.589511e-01 5.695847e-02
<VARIANCE> 39
 7.681376e+00 2.121919e+01 2.598944e+01 2.082056e+01 2.839514e+01 2.936222e+01 2.583562e+01 3.555497e+01 4.409492e+01 3.335593e+01 1.374428e+01 3.607352e+01 5.554333e-01 2.933885e-01 3.274695e-01 1.653761e+00 1.219378e+00 1.382786e+00 2.032064e+00 1.625360e+00 2.485884e+00 1.374813e+00 1.450992e+00 1.510019e+00 2.168153e+00 1.296357e-02 5.082554e-02 1.261892e-01 1.495194e-01 1.143542e-01 2.255912e-01 3.019249e-01 3.149249e-01 3.290315e-01 3.870127e-01 3.415035e-01 2.365603e-01 4.464496e-01 3.866185e-03
<GCONST> 8.394540e+01
<STATE> 4
<NUMMIXES> 20
<MIXTURE> 1 7.394423e-02
<MEAN> 39
 -8.623529e+00 -5.272622e+00 -6.407777e+00 -6.945129e+00 6.929767e+00 7.086710e+00 -3.965237e+00 -4.897398e+00 1.605418e+00 3.906417e-01 3.227673e+00 -1.850839e+00 1.821953e+01 3.496573e-04 -1.181223e+00 1.499310e-01 6.615762e-01 6.491293e-01 6.070315e-01 1.204257e+00 5.054278e-02 -3.668489e-01 -1.489224e-01 -9.771920e-01 -4.902698e-01 1.360610e-01 9.221305e-01 3.674852e-01 -9.616325e-02 -1.607871e-01 -4.304972e-01 -2.184461e-01 7.533681e-01 5.761366e-01 -5.095531e-02 1.229311e-01 -7.663185e-01 -2.704121e-01 2.368289e-01
<VARIANCE> 39
 1.364702e+01 2.608440e+01 1.774619e+01 3.009205e+01 2.997753e+01 2.935857e+01 2.864113e+01 2.581988e+01 2.579718e+01 3.022582e+01 2.932097e+01 2.038558e+01 5.863599e-01 7.304934e-01 6.853375e-01 9.592275e-01 1.070401e+00 1.197879e+00 1.754641e+00 2.498923e+00 2.680589e+00 1.449986e+00 2.201843e+00 3.099288e+00 1.957748e+00 4.067576e-02 1.114675e-01 1.900014e-01 3.358981e-01 3.507645e-01 3.783647e-01 3.030338e-01 4.385110e-01 4.395287e-01 3.538697e-01 4.148062e-01 4.128079e-01 2.445315e-01 5.518456e-03
<GCONST> 9.226054e+01
<MIXTURE> 2 4.317627e-02
<MEAN> 39
 -4.043834e+00 -5.298589e+00 -1.030862e+01 -1.859715e+00 1.002111e+01 2.997305e+00 6.598052e+00 1.891320e+00 -7.310612e-01 -2.797884e+00 -1.186182e+00 -8.525657e+00 2.006230e+01 -2.194002e-02 -5.877841e-01 -6.062060e-01 -2.411574e-01 7.775551e-01 7.196205e-01 4.869120e-01 -1.029703e+00 -3.686534e-01 -5.774745e-02 4.737448e-01 -1.111268e+00 6.601604e-02 3.549534e-01 4.211950e-01 2.246578e-01 -2.526748e-01 -1.131615e+00 -7.567755e-01 -1.675447e-01 -5.542525e-02 1.003933e-01 3.041654e-01 -1.018227e-01 2.099377e-01 1.017226e-01
<VARIANCE> 39
 1.100229e+01 3.128592e+01 3.100285e+01 2.092424e+01 2.422897e+01 6.392746e+01 1.565912e+01 3.556459e+01 2.220368e+01 1.920067e+01 2.739336e+01 2.465962e+01 1.200090e+00 3.578507e-01 7.127318e-01 1.178871e+00 9.609469e-01 1.213673e+00 2.554087e+00 1.954128e+00 1.902973e+00 1.785829e+00 2.214384e+00 2.193471e+00 1.583497e+00 2.841435e-02 8.034849e-02 2.440765e-01 2.387361e-01 1.709251e-01 3.476528e-01 5.038527e-01 2.463067e-01 3.935449e-01 2.915682e-01 2.603104e-01 3.369028e-01 2.589625e-01 3.957515e-03
<GCONST> 8.892061e+01
<MIXTURE> 3 4.396713e-02
<MEAN> 39
 -6.969521e+00 -8.676694e+00 -7.595163e+00 -6.806352e+00 6.665062e+00 5.953246e+00 2.239027e+00 3.138246e-01 1.632026e+00 -1.484479e+00 -2.687530e+00 -1.354248e+00 1.688206e+01 -5.211545e-01 -1.433373e+00 -1.185599e+00 -4.451627e-01 1.166998e+00 1.885712e-01 1.124095e+00 -3.301407e-01 5.102655e-02 -8.011167e-01 -1.387583e+00 -7.551898e-01 3.370461e-01 7.672554e-01 8.868540e-01 2.029750e-01 4.816384e-01 -4.910602e-01 -4.333573e-01 -5.061822e-02 6.220093e-02 -8.179090e-03 2.974941e-01 4.347894e-02 -6.262456e-03 2.249849e-01
<VARIANCE> 39
 6.645806e+00 6.817571e+00 9.685839e+00 2.633188e+01 1.334711e+01 3.060264e+01 1.527337e+01 2.027922e+01 3.598053e+01 2.219087e+01 2.225180e+01 2.821871e+01 6.511806e-01 5.187749e-01 1.030778e+00 9.318274e-01 1.116262e+00 1.228616e+00 1.947169e+00 2.632789e+00 1.760151e+00 2.640528e+00 1.939859e+00 1.900860e+00 2.171402e+00 4.372456e-02 1.300647e-01 1.158374e-01 1.915078e-01 2.826629e-01 2.223591e-01 2.273285e-01 3.408444e-01 3.995848e-01 6.422486e-01 2.851445e-01 4.494012e-01 3.590049e-01 1.316452e-02
<GCONST> 8.727473e+01
<MIXTURE> 4 6.540665e-02
<MEAN> 39
 -9.712455e+00 -2.228733e+00 -1.105238e+01 -3.992493e+00 1.323568e+01 1.138672e+00 -3.810215e+00 1.221553e+00 5.938316e+00 2.300330e-01 5.506381e-01 -3.049991e+00 1.830261e+01 -3.548332e-01 -1.033771e+00 -1.247438e-01 5.288900e-01 2.685717e-01 1.536435e-01 6.102368e-01 -3.846152e-01 -2.316402e-01 -7.637489e-01 -1.080668e+00 -5.455827e-01 1.076566e-01 7.765138e-01 1.648515e-01 1.755658e-01 -8.193353e-02 -7.361894e-01 -1.126863e-01 3.204976e-01 -5.245308e-01 -1.017581e+00 -4.637160e-01 -6.005171e-01 -1.524108e-01 1.908595e-01
<VARIANCE> 39
 1.147647e+01 1.097701e+01 2.119356e+01 9.734056e+00 1.324444e+01 1.767656e+01 3.428536e+01 1.905841e+01 1.362916e+01 2.223273e+01 1.824456e+01 2.141145e+01 7.974904e-01 6.101101e-01 5.918756e-01 8.696899e-01 9.848336e-01 1.416601e+00 1.517533e+00 2.412409e+00 2.437401e+00 2.015818e+00 2.211627e+00 3.356728e+00 1.926266e+00 5.303618e-02 1.699617e-01 1.485779e-01 2.333489e-01 3.213095e-01 5.435604e-01 3.195099e-01 4.678238e-01 4.209490e-01 3.856933e-01 5.461481e-01 2.719626e-01 3.446702e-01 9.837249e-03
<GCONST> 8.883260e+01
<MIXTURE> 5 6.767571e-02
<MEAN> 39
 -1.045188e+01 -1.219238e+01 -3.376123e+00 -6.055059e-01 1.019084e+01 4.948515e+00 2.242291e+00 2.688106e+00 2.913701e+00 1.681477e+00 3.705163e+00 3.021597e-01 1.778460e+01 -1.021254e+00 -1.689198e+00 -4.724328e-01 -1.203877e-01 5.937589e-01 4.945070e-01 4.046286e-01 -5.381211e-01 -3.281429e-01 -3.924646e-01 -3.533162e-02 -3.808199e-01 2.339395e-01 8.488812e-01 7.056420e-01 -3.858284e-01 -1.526117e-01 -8.777131e-01 -4.599196e-01 -3.732401e-01 -5.093294e-01 -7.210677e-01 -6.494895e-01 -7.336249e-01 -1.776343e-01 1.026031e-01
<VARIANCE> 39
 8.990720e+00 1.459577e+01 1.543307e+01 1.301004e+01 1.629301e+01 1.633314e+01 1.907411e+01 2.268377e+01 2.111156e+01 2.408378e+01 1.356314e+01 2.411480e+01 5.805527e-01 9.733506e-01 1.287687e+00 1.123329e+00 1.290677e+00 1.471088e+00 1.525601e+00 2.171028e+00 2.403379e+00 1.708276e+00 2.113559e+00 1.991083e+00 1.662259e+00 5.260816e-02 1.581705e-01 2.051537e-01 2.143726e-01 2.077480e-01 4.334795e-01 2.361210e-01 3.903621e-01 5.374210e-01 3.245461e-01 2.469857e-01 2.630092e-01 3.539385e-01 1.255144e-02
<GCONST> 8.792523e+01
<MIXTURE> 6 5.479545e-02
<MEAN> 39
 -6.797939e+00 -1.039416e+01 -9.381067e+00 -4.517333e+00 3.325855e+00 5.151253e+00 -8.794988e-01 -5.180668e+00 6.293514e-01 1.541615e+00 -4.566138e-01 -2.124539e+00 1.743630e+01 -5.514663e-02 -4.350996e-01 -3.105136e-01 -1.579717e-01 2.612399e-02 3.993337e-01 1.161748e+00 -7.113179e-02 -3.960049e-01 2.208355e-01 -3.659740e-01 2.096104e-01 1.117435e-01 6.615824e-01 6.098875e-01 3.170743e-02 1.762647e-01 1.940849e-01 2.113191e-02 3.962306e-01 2.912107e-01 -9.377465e-02 -6.872187e-02 -4.723120e-01 1.014551e-02 1.853765e-01
<VARIANCE> 39
 1.365579e+01 1.509890e+01 1.463910e+01 1.359117e+01 1.506682e+01 2.545792e+01 2.128073e+01 2.069287e+01 2.877086e+01 2.998966e+01 2.092345e+01 9.674239e+00 6.260199e-01 1.912782e-01 4.230599e-01 8.164012e-01 5.849971e-01 1.052770e+00 9.394109e-01 1.357564e+00 9.150943e-01 1.409822e+00 1.274557e+00 2.091593e+00 1.342025e+00 2.204974e-02 8.037524e-02 9.914958e-02 1.625305e-01 1.028127e-01 2.775108e-01 2.910614e-01 3.731939e-01 2.848662e-01 3.509790e-01 3.279086e-01 3.045467e-01 2.234763e-01 7.861608e-03
<GCONST> 7.731811e+01
<MIXTURE> 7 1.994522e-02
<MEAN> 39
 -6.910580e+00 -1.520127e+01 -3.214652e+00 4.537621e+00 7.994613e+00 -4.704145e-01 3.267844e+00 3.459450e+00 -7.286215e+00 -4.447788e+00 -1.050019e+00 1.770354e+00 1.841155e+01 -6.334240e-01 -8.583778e-01 6.933301e-02 1.941657e-01 -1.870701e-01 9.020264e-01 -1.902757e-01 1.219565e-01 -4.963237e-01 6.105040e-01 5.916574e-01 -1.731975e-01 7.959223e-02 3.629359e-01 2.177700e-01 -5.372698e-02 9.881341e-02 -5.318576e-01 3.945068e-01 -4.754730e-01 -5.209168e-01 -4.393315e-03 -4.903345e-01 -5.676699e-01 3.094725e-02 8.708423e-02
<VARIANCE> 39
 3.370258e+00 2.399343e+00 8.222773e+00 1.628549e+01 9.648104e+00 1.739801e+01 1.752979e+01 1.454042e+01 1.267781e+01 2.102401e+01 1.367925e+01 1.975523e+01 6.607786e-02 2.948375e-01 3.379575e-01 3.456956e-01 6.380239e-01 5.906160e-01 1.718382e+00 1.842555e+00 8.903669e-01 1.092957e+00 1.295106e+00 1.366819e+00 1.266958e+00 2.458951e-02 2.550673e-02 1.079862e-01 9.359743e-02 1.300492e-01 2.114011e-01 2.518209e-01 2.078726e-01 1.935187e-01 2.270452e-01 2.689092e-01 2.620380e-01 2.267823e-01 2.122354e-03
<GCONST> 6.345601e+01
<MIXTURE> 8 3.613065e-02
<MEAN> 39
 -4.292115e+00 -4.123659e+00 -6.221160e+00 -4.012045e-01 9.680994e+00 1.399152e+00 -2.447044e+00 -5.105855e+00 -4.470275e-01 -3.688074e+00 -8.263830e+00 -3.471408e+00 1.974531e+01 -6.898937e-02 -1.290404e-01 -9.453683e-02 1.146511e-01 -3.967278e-02 -2.457016e-01 -1.198268e-01 -4.679224e-01 -3.617037e-01 -7.073116e-01 -4.367095e-01 -3.617599e-01 1.000935e-01 4.844171e-01 1.559099e-01 -4.372631e-01 -7.405444e-01 -8.136623e-01 -5.729264e-01 1.838362e-01 1.503299e-01 -1.054804e-01 -1.363851e-01 -7.807580e-02 8.675789e-03 1.079362e-01
<VARIANCE> 39
 8.565830e+00 2.201974e+01 1.808215e+01 1.683780e+01 3.071968e+01 2.775656e+01 6.425529e+01 4.370089e+01 6.774955e+01 4.582659e+01 2.794843e+01 2.819554e+01 6.429919e-01 1.916187e-01 4.507056e-01 5.575870e-01 9.459912e-01 4.863063e-01 1.013861e+00 2.089294e+00 1.359210e+00 1.372067e+00 1.348559e+00 1.142812e+00 8.541530e-01 7.637905e-03 4.216263e-02 1.339998e-01 3.310002e-01 1.602150e-01 2.695255e-01 2.033408e-01 5.825922e-01 4.035372e-01 4.972860e-01 3.266780e-01 3.775724e-01 1.864159e-01 3.727153e-03
<GCONST> 8.202898e+01
<MIXTURE> 9 5.358966e-02
<MEAN> 39
 -5.255173e+00 -1.190022e+01 -1.006979e+01 -5.449926e+00 7.196887e+00 9.240015e+00 -1.984391e+00 -4.143633e+00 5.078627e+00 5.158942e-01 -2.277598e+00 -2.233906e-03 1.791501e+01 -7.017505e-01 -8.860801e-01 -2.520398e-01 -3.287449e-01 -4.099109e-01 -8.807783e-01 4.660787e-02 -3.855132e-01 2.522734e-01 1.169573e-01 -1.449840e-01 -3.191990e-01 -3.517718e-02 3.619163e-01 3.259583e-01 1.626888e-01 1.628287e-01 -2.391376e-01 8.649573e-02 5.448246e-01 9.055104e-02 -2.697974e-01 -9.075771e-04 -1.993558e-01 3.954453e-02 7.450882e-02
<VARIANCE> 39
 8.498950e+00 1.146973e+01 1.224829e+01 1.450062e+01 2.627576e+01 2.834494e+01 1.479200e+01 2.045555e+01 2.120563e+01 2.137446e+01 3.024810e+01 2.107204e+01 2.539176e-01 3.767149e-01 4.116363e-01 4.905026e-01 8.744507e-01 1.328946e+00 8.900783e-01 1.720333e+00 1.978585e+00 1.499752e+00 1.075804e+00 1.505563e+00 1.619847e+00 1.892897e-02 7.031265e-02 8.842840e-02 1.113452e-01 1.178435e-01 3.428230e-01 2.580829e-01 2.991971e-01 3.338222e-01 3.357740e-01 3.037362e-01 3.904951e-01 2.812023e-01 4.163141e-03
<GCONST> 7.693414e+01
<MIXTURE> 10 3.425094e-02
<MEAN> 39
 -1.323495e+01 -8.748520e+00 -4.708527e+00 -9.701672e-01 5.823967e+00 3.609584e-01 2.696549e+00 1.947966e+00 -6.532020e-03 5.718063e+00 2.894330e+00 -5.190635e+00 1.725533e+01 -1.029696e+00 -1.102177e+00 -7.419010e-01 -1.638574e-02 5.488082e-01 6.688952e-01 9.799454e-01 -5.611417e-01 -8.263943e-01 9.116501e-02 -3.546416e-01 -5.293843e-01 2.645196e-01 6.640204e-01 2.756999e-01 -2.205905e-01 -7.884271e-03 -1.834304e-01 3.052971e-01 -3.056404e-02 -2.197853e-01 -1.775601e-01 -3.794366e-01 -2.028261e-01 3.412672e-01 7.881498e-02
<VARIANCE> 39
 9.515180e+00 2.663698e+01 7.891093e+00 1.965331e+01 1.375232e+01 1.014013e+01 1.042759e+01 1.682942e+01 2.201251e+01 2.167845e+01 1.597830e+01 1.257857e+01 3.963950e-01 4.913194e-01 6.386093e-01 5.674932e-01 6.880561e-01 1.261974e+00 8.312075e-01 1.235667e+00 2.287303e+00 1.525447e+00 1.207780e+00 1.065145e+00 9.057859e-01 5.778246e-02 1.829541e-01 1.572946e-01 1.314567e-01 1.723698e-01 1.785083e-01 1.756112e-01 2.490341e-01 3.130887e-01 2.464093e-01 2.858306e-01 3.449895e-01 1.015383e-01 9.268459e-03
<GCONST> 7.558370e+01
<MIXTURE> 11 2.845293e-02
<MEAN> 39
 -7.849370e+00 -1.449045e+01 -1.954461e+00 7.937839e-02 4.090285e+00 3.775675e+00 -2.481576e+00 3.203985e+00 2.919747e+00 2.275786e+00 -1.758328e+00 3.946588e+00 1.713423e+01 -1.639727e+00 -2.688838e+00 -2.357608e-01 -4.729350e-01 6.897063e-01 4.206058e-01 -2.573877e-01 -2.426230e-02 -1.228835e+00 -6.504496e-01 -1.699878e+00 -2.454787e-01 4.230487e-01 6.773120e-01 1.378677e+00 -7.175897e-01 8.036965e-02 -5.656726e-01 -4.990861e-02 1.425840e-01 -5.015922e-01 -8.438199e-01 -6.726385e-01 -4.830013e-01 -6.742668e-01 2.146772e-01
<VARIANCE> 39
 4.873513e+00 7.451818e+00 5.748807e+00 1.033572e+01 1.842029e+01 2.196951e+01 2.806301e+01 1.805851e+01 2.189547e+01 1.702675e+01 2.199821e+01 1.696165e+01 5.040466e-01 6.837527e-01 2.000807e+00 7.550852e-01 1.571013e+00 1.106759e+00 1.648209e+00 1.718588e+00 1.543905e+00 1.227645e+00 1.046960e+00 1.933651e+00 1.777434e+00 6.789348e-02 1.536372e-01 2.139614e-01 2.268023e-01 1.894477e-01 4.412793e-01 3.631750e-01 5.238962e-01 3.658963e-01 4.690289e-01 3.137709e-01 4.487430e-01 2.482376e-01 8.261859e-03
<GCONST> 8.464781e+01
<MIXTURE> 12 6.413898e-02
<MEAN> 39
 -6.137802e+00 -3.776041e+00 -6.733362e+00 -4.763917e+00 7.825385e+00 6.311869e+00 3.848399e+00 -2.769160e-01 -1.537255e+00 2.872891e+00 3.435232e+00 -6.231453e+00 1.933288e+01 1.556249e-01 -4.692789e-01 -2.751312e-01 3.667598e-01 5.839997e-01 -4.634284e-02 1.123920e+00 -3.885329e-01 -5.460191e-01 -5.755996e-01 -5.798524e-01 -9.160404e-01 1.533756e-01 7.149124e-01 3.275295e-01 -4.555407e-01 -2.492509e-01 -3.529886e-01 -6.631246e-01 -6.128981e-02 -8.503193e-02 1.726232e-01 -3.886217e-01 -3.411726e-01 -3.073955e-01 1.853514e-01
<VARIANCE> 39
 1.628528e+01 1.408089e+01 1.947859e+01 2.269889e+01 2.239445e+01 2.483015e+01 2.403403e+01 1.664476e+01 2.399783e+01 2.133310e+01 2.274826e+01 1.566158e+01 7.006414e-01 3.473653e-01 5.816640e-01 8.476511e-01 1.459056e+00 1.226881e+00 1.432522e+00 1.691971e+00 1.867557e+00 2.074322e+00 2.245123e+00 1.347192e+00 1.428876e+00 1.971606e-02 1.453104e-01 2.820655e-01 2.587871e-01 3.115025e-01 4.574122e-01 2.135927e-01 3.720250e-01 3.927084e-01 3.524943e-01 4.033986e-01 3.936925e-01 3.139439e-01 4.148418e-03
<GCONST> 8.638096e+01
<MIXTURE> 13 8.315864e-02
<MEAN> 39
 -1.003447e+01 -5.130580e+00 -9.385680e+00 -1.123440e+00 1.089072e+01 -2.792784e+00 -2.551802e+00 1.334186e+00 -2.188942e+00 -7.645589e+00 -2.380310e+00 -1.846372e+00 1.803049e+01 -1.066388e-01 -4.745059e-01 5.390693e-02 5.953407e-01 -3.057880e-01 1.313042e-01 -2.296042e-01 -7.801954e-01 -2.806784e-01 -5.497240e-01 -2.106387e-01 2.017416e-01 9.472764e-02 7.222238e-01 3.705755e-01 -1.389984e-02 -3.324379e-01 -7.582698e-01 -3.198657e-02 -3.767377e-01 -6.291853e-01 -6.813753e-01 -4.740171e-01 -7.056499e-01 -1.993952e-01 2.166354e-01
<VARIANCE> 39
 8.966539e+00 9.541460e+00 1.376609e+01 2.251457e+01 2.025763e+01 3.360208e+01 4.132893e+01 3.889301e+01 2.147015e+01 2.080931e+01 3.049137e+01 3.068112e+01 9.742044e-01 4.378768e-01 3.764536e-01 6.240076e-01 7.944773e-01 1.373103e+00 9.349859e-01 1.307399e+00 1.721944e+00 1.949466e+00 1.619564e+00 1.398371e+00 1.488289e+00 4.126156e-02 6.680292e-02 9.008402e-02 1.254030e-01 3.066544e-01 2.772719e-01 2.425624e-01 3.620446e-01 3.117398e-01 2.472962e-01 2.469112e-01 3.204905e-01 3.135688e-01 4.402383e-03
<GCONST> 8.216570e+01
<MIXTURE> 14 5.933424e-02
<MEAN> 39
 -5.676589e+00 -6.401614e+00 -7.329352e+00 -2.489510e+00 8.293940e+00 -2.705299e+00 -6.320732e+00 -3.817523e+00 -7.530095e+00 -1.106978e+01 -7.843394e+00 -7.290335e+00 1.956516e+01 -3.296599e-02 -5.921891e-01 -5.395503e-01 8.234570e-01 -1.091596e-01 2.522899e-01 -4.607694e-01 -9.369869e-01 -4.363794e-01 -1.013299e+00 -3.091262e-01 -4.669738e-01 9.869397e-02 4.727157e-01 2.728305e-01 -3.388930e-01 -4.099397e-01 -1.085728e+00 3.031542e-02 1.062829e-01 -6.037974e-03 -1.669318e-01 1.641717e-01 -1.794801e-02 3.272498e-01 1.099736e-01
<VARIANCE> 39
 8.299304e+00 3.160015e+01 2.002726e+01 2.837061e+01 2.643101e+01 4.769875e+01 3.527457e+01 4.601902e+01 2.305185e+01 3.238974e+01 2.890002e+01 1.352252e+01 3.859225e-01 2.288228e-01 5.476704e-01 9.190845e-01 9.116752e-01 1.679851e+00 1.965482e+00 1.807016e+00 2.270152e+00 2.238965e+00 1.970654e+00 1.815070e+00 1.875742e+00 1.256388e-02 5.857709e-02 1.099714e-01 2.296928e-01 3.357436e-01 2.883773e-01 4.521167e-01 4.286207e-01 4.911144e-01 3.560119e-01 2.992540e-01 3.235025e-01 3.346884e-01 4.475745e-03
<GCONST> 8.736278e+01
<MIXTURE> 15 5.733684e-02
<MEAN> 39
