~o
<STREAMINFO> 1 39
<VECSIZE> 39<NULLD><MFCC_E_D_A><DIAGC>
~s "silst"
<SID> 1
<NUMMIXES> 36
<MIXTURE> 1 2.479507e-02
<MEAN> 39
 2.989369e+00 5.556935e+00 6.722175e+00 5.523239e+00 -8.188072e-01 6.047250e-01 -1.211817e+00 1.419004e+00 -2.592028e+00 -4.768859e-01 1.493642e+00 2.519662e-01 2.087030e+01 8.340863e-02 7.272212e-02 1.020823e-01 5.627581e-01 -1.684641e-01 -4.999083e-01 5.529784e-01 2.274243e-01 -6.355125e-02 -3.049494e-02 2.435379e-01 2.637919e-01 -6.235577e-02 -3.973709e-02 2.523772e-02 -6.567571e-02 -2.284836e-01 -1.028871e-01 5.989122e-02 8.875998e-02 -6.093157e-02 -3.211356e-02 4.801489e-03 -4.833487e-02 -5.639153e-02 2.227554e-02
<VARIANCE> 39
 1.955473e+01 2.842955e+01 3.678712e+01 3.988919e+01 4.610161e+01 4.343044e+01 4.952076e+01 4.308123e+01 4.094200e+01 5.091082e+01 3.418756e+01 2.427893e+01 7.916690e-01 7.655162e-01 9.479891e-01 1.817693e+00 2.237540e+00 2.154889e+00 2.458240e+00 2.625887e+00 2.395842e+00 2.217966e+00 1.838596e+00 1.884508e+00 1.540874e+00 1.553174e-02 7.434597e-02 1.344007e-01 1.761399e-01 2.748084e-01 2.633785e-01 3.091420e-01 3.481123e-01 3.257400e-01 3.040457e-01 3.043682e-01 2.862088e-01 2.190378e-01 2.525905e-03
<GCONST> 9.413218e+01
<MIXTURE> 2 2.754171e-02
<MEAN> 39
 -3.961119e+00 6.801882e-01 -2.792365e+00 -5.841920e-01 -1.636674e+00 1.915182e+00 1.737357e+00 1.618222e+00 3.005664e+00 4.344989e+00 3.897644e+00 2.070735e+00 1.477318e+01 -2.324852e-02 -2.065732e-02 -2.253181e-02 3.666238e-04 2.989951e-03 9.106499e-02 1.748642e-01 2.637807e-01 2.008503e-01 1.057402e-01 6.933623e-02 1.756176e-02 -1.651689e-03 7.307962e-02 1.634961e-01 1.904323e-01 7.510366e-02 -1.375391e-01 -2.367088e-01 -1.077338e-01 -4.546567e-02 -3.232378e-01 -4.618616e-01 -3.786949e-01 -2.538761e-01 5.748150e-04
<VARIANCE> 39
 1.265961e+00 3.159572e+00 3.444879e+00 4.428244e+00 4.658115e+00 5.576999e+00 6.378748e+00 6.609548e+00 6.655226e+00 6.953839e+00 7.115909e+00 6.816976e+00 1.087309e+00 8.658356e-02 1.782602e-01 3.270343e-01 4.622182e-01 5.734571e-01 7.071613e-01 8.779387e-01 9.151909e-01 9.703021e-01 1.029373e+00 9.709322e-01 9.055140e-01 3.150202e-02 1.611936e-02 2.720092e-02 4.986226e-02 7.485539e-02 8.655259e-02 1.016638e-01 1.371633e-01 1.485478e-01 1.465707e-01 1.390450e-01 1.462803e-01 1.447605e-01 6.067457e-03
<GCONST> 4.501530e+01
<MIXTURE> 3 2.633560e-02
<MEAN> 39
 -3.624876e+00 1.307768e+00 -9.114365e-01 2.002297e+00 -2.299394e-01 1.628479e+00 1.897012e+00 1.410111e+00 -4.643875e-01 2.310098e-03 1.317676e+00 7.974247e-01 1.474658e+01 -2.185259e-02 -5.470376e-02 -1.050337e-01 -1.066296e-01 -2.761498e-02 1.154184e-01 3.507714e-01 5.362728e-01 5.859383e-01 5.658700e-01 4.608822e-01 2.423847e-01 1.713020e-02 3.388364e-02 7.097575e-02 -2.723229e-02 -2.128099e-01 -2.661913e-01 -1.940697e-01 -1.442415e-01 -4.537467e-03 1.968341e-01 1.884364e-01 1.397842e-02 -5.843635e-02 -1.910281e-04
<VARIANCE> 39
 9.622536e-01 2.710873e+00 3.157193e+00 4.062535e+00 4.693334e+00 5.606802e+00 4.771923e+00 5.265604e+00 4.928950e+00 6.173358e+00 5.936800e+00 5.100793e+00 8.025525e-01 8.414712e-02 1.656622e-01 3.045751e-01 4.692498e-01 6.125774e-01 7.354016e-01 8.820168e-01 8.756377e-01 8.505653e-01 8.235575e-01 8.609782e-01 8.975822e-01 2.153841e-02 1.386726e-02 2.422990e-02 4.786086e-02 6.945921e-02 9.148231e-02 9.590284e-02 1.007135e-01 1.190811e-01 1.136476e-01 1.281745e-01 1.149920e-01 1.183730e-01 4.504209e-03
<GCONST> 3.976880e+01
<MIXTURE> 4 2.473548e-02
<MEAN> 39
 -2.467268e+00 2.678886e+00 -1.571985e-01 2.851653e+00 -4.901875e-01 1.106816e-01 -1.364172e-01 1.466939e+00 1.749468e+00 2.179862e+00 4.528127e+00 1.484333e+00 1.552351e+01 3.423656e-04 1.184983e-02 1.263103e-02 3.416513e-02 2.724214e-02 -1.886223e-02 -2.528923e-02 1.640148e-02 -1.141408e-02 -1.258691e-02 -3.468468e-02 -3.837863e-02 8.933053e-04 -7.443253e-02 -5.730110e-02 -4.687220e-02 -1.008989e-01 -4.006255e-02 6.930849e-02 9.698079e-02 -2.069755e-02 -9.890585e-02 -1.322077e-01 -2.804480e-01 -1.369120e-01 -1.645837e-02
<VARIANCE> 39
 6.342843e-01 8.654736e-01 2.063922e+00 3.323940e+00 4.005094e+00 7.086110e+00 7.167422e+00 6.499272e+00 6.147557e+00 7.555189e+00 5.486061e+00 6.291326e+00 9.842773e-02 7.678240e-02 1.745748e-01 3.264250e-01 4.558737e-01 6.182557e-01 8.242994e-01 9.097331e-01 1.023406e+00 1.009806e+00 1.010696e+00 1.059382e+00 9.769176e-01 1.373187e-02 1.177365e-02 2.434661e-02 4.936671e-02 7.036553e-02 9.569737e-02 1.435521e-01 1.551104e-01 1.630240e-01 1.444464e-01 1.816575e-01 1.299141e-01 1.375277e-01 2.210444e-03
<GCONST> 3.849054e+01
<MIXTURE> 5 2.625710e-02
<MEAN> 39
 -3.668947e+00 1.600530e+00 -1.577572e+00 1.013754e+00 -6.720436e-01 3.397466e+00 4.388381e+00 4.854741e+00 3.893620e+00 2.381921e+00 2.673563e+00 1.203468e+00 1.508106e+01 -2.557990e-02 -4.089406e-02 -6.261147e-02 -4.486012e-02 -2.375021e-02 1.916516e-03 5.257237e-02 9.010240e-02 7.098623e-02 8.452231e-02 1.010485e-01 5.035277e-02 -1.096179e-02 4.349131e-02 8.464652e-02 6.540105e-02 -7.475571e-02 -2.044531e-01 -3.179621e-01 -3.976176e-01 -4.371685e-01 -3.686165e-01 -1.047975e-01 -5.955752e-02 -5.671402e-02 -1.374090e-02
<VARIANCE> 39
 7.502472e-01 1.839550e+00 2.441056e+00 4.042200e+00 4.835889e+00 6.214427e+00 6.267510e+00 6.541553e+00 5.603752e+00 6.638673e+00 6.953909e+00 6.977238e+00 5.571607e-01 6.814770e-02 1.462606e-01 3.024716e-01 4.197717e-01 6.095558e-01 7.022862e-01 8.705003e-01 9.755100e-01 9.707482e-01 9.953030e-01 9.755047e-01 8.957109e-01 1.904195e-02 1.267697e-02 2.267343e-02 4.744960e-02 6.924819e-02 9.749679e-02 1.236565e-01 1.341611e-01 1.579818e-01 1.401176e-01 1.450266e-01 1.431821e-01 1.549454e-01 3.911527e-03
<GCONST> 4.111076e+01
<MIXTURE> 6 2.027100e-02
<MEAN> 39
 -3.081702e+00 2.889268e+00 -1.071723e+00 -6.988389e-01 -3.856786e+00 2.767082e-01 1.457234e+00 7.649320e-01 -5.056365e-01 -2.360355e-01 -5.393673e-01 -1.537865e+00 1.453133e+01 3.059474e-02 1.284957e-01 2.753430e-01 4.526035e-01 5.670621e-01 5.771369e-01 5.710492e-01 4.517401e-01 2.370272e-01 -3.715295e-03 -1.925353e-01 -2.315340e-01 4.213772e-02 -5.549710e-02 -7.797525e-02 -6.773836e-02 1.057208e-02 8.808175e-02 -1.592910e-02 -7.231163e-02 6.927467e-02 1.598826e-01 2.213149e-01 2.972870e-01 2.776354e-01 5.282957e-04
<VARIANCE> 39
 7.625453e-01 2.527036e+00 3.442491e+00 4.083217e+00 4.841043e+00 5.938001e+00 5.000741e+00 5.441350e+00 5.790623e+00 4.892651e+00 5.676527e+00 5.434799e+00 7.906724e-01 9.335755e-02 1.776600e-01 3.289443e-01 4.578852e-01 5.528830e-01 6.105688e-01 7.812431e-01 8.368703e-01 1.006414e+00 1.030457e+00 1.021891e+00 9.357235e-01 2.409091e-02 1.165445e-02 2.667464e-02 5.574070e-02 7.400451e-02 8.840605e-02 1.104442e-01 1.074562e-01 1.101694e-01 1.199874e-01 1.067973e-01 1.206703e-01 1.159714e-01 5.683739e-03
<GCONST> 4.051051e+01
<MIXTURE> 7 2.724773e-02
<MEAN> 39
 -3.346552e+00 2.159698e+00 -6.454636e-01 1.062380e+00 -2.043378e+00 -1.487245e+00 -2.788440e+00 -2.581581e+00 -1.768329e+00 7.192280e-02 9.823422e-01 1.681539e-01 1.463658e+01 -5.215124e-02 -6.688230e-02 -6.950428e-02 4.282352e-02 1.909367e-01 3.236853e-01 3.918663e-01 3.419267e-01 2.491539e-01 1.383278e-01 5.131045e-02 -5.265998e-02 3.989961e-03 -9.089618e-03 -2.832594e-02 -9.330664e-02 -1.421097e-01 -4.422334e-02 2.330512e-01 5.343099e-01 5.683530e-01 3.497248e-01 1.559377e-01 4.604482e-02 1.845629e-03 5.439339e-03
<VARIANCE> 39
 1.098908e+00 3.287581e+00 3.519383e+00 5.309615e+00 5.205600e+00 5.209731e+00 5.146554e+00 5.662770e+00 6.490922e+00 6.714506e+00 5.690088e+00 6.274290e+00 8.891994e-01 8.299565e-02 1.613861e-01 3.118538e-01 4.340334e-01 5.689591e-01 6.778312e-01 8.332085e-01 9.665885e-01 9.996737e-01 1.038606e+00 1.026552e+00 8.719860e-01 2.315933e-02 1.648704e-02 3.323779e-02 5.839156e-02 7.786382e-02 9.800844e-02 9.752572e-02 1.108887e-01 1.248815e-01 1.428783e-01 1.465495e-01 1.166002e-01 1.407886e-01 5.171632e-03
<GCONST> 4.340099e+01
<MIXTURE> 8 3.804318e-02
<MEAN> 39
 -3.690446e+00 2.313017e+00 -1.960480e+00 -1.698379e+00 -4.594304e+00 -2.388031e-01 2.772855e+00 4.989059e+00 4.533339e+00 3.632255e+00 1.991166e+00 9.720822e-02 1.441159e+01 -3.954852e-03 2.743188e-02 8.445434e-02 1.196399e-01 1.276067e-01 1.289990e-01 1.026581e-01 5.119269e-02 -3.650417e-02 -1.578913e-01 -1.908863e-01 -1.283088e-01 -2.906554e-03 2.324731e-02 3.530771e-02 7.337595e-02 1.524759e-01 1.839704e-01 3.951426e-02 -2.455421e-01 -5.133691e-01 -5.615811e-01 -3.443500e-01 -6.812567e-02 6.601064e-02 2.935693e-03
<VARIANCE> 39
 7.866226e-01 2.678813e+00 3.407137e+00 4.590448e+00 5.220618e+00 7.529525e+00 6.503119e+00 6.141410e+00 6.169896e+00 7.220233e+00 6.473526e+00 6.727391e+00 8.294813e-01 8.254011e-02 1.778664e-01 3.089486e-01 4.682508e-01 6.172840e-01 7.407438e-01 8.808553e-01 9.524846e-01 9.866537e-01 1.009872e+00 1.011438e+00 9.098618e-01 2.491195e-02 1.423430e-02 2.895992e-02 5.441013e-02 7.563301e-02 9.997895e-02 1.234325e-01 1.369315e-01 1.283542e-01 1.279466e-01 1.548765e-01 1.355144e-01 1.448498e-01 4.903817e-03
<GCONST> 4.413020e+01
<MIXTURE> 9 3.183649e-02
<MEAN> 39
 -3.599131e+00 2.107024e+00 -1.368874e+00 -5.418853e-01 -3.984072e+00 -2.558969e+00 -2.426892e+00 1.570275e-01 2.574975e+00 3.692680e+00 3.083299e+00 1.216576e+00 1.457370e+01 8.688818e-03 4.960467e-02 9.994527e-02 1.805349e-01 2.329564e-01 2.409888e-01 1.835910e-01 1.229222e-01 4.858660e-02 -5.836281e-02 -1.190608e-01 -1.014801e-01 1.765759e-02 4.743476e-03 1.577974e-02 -4.039500e-03 2.430690e-02 1.691158e-01 3.808424e-01 4.970427e-01 1.682324e-01 -2.867956e-01 -3.840505e-01 -2.732543e-01 -1.500381e-01 1.343823e-03
<VARIANCE> 39
 1.010573e+00 2.883371e+00 4.019516e+00 5.456629e+00 4.847690e+00 5.277819e+00 5.235482e+00 6.515620e+00 6.085168e+00 6.969030e+00 6.213678e+00 5.927330e+00 9.254909e-01 9.439955e-02 1.772376e-01 3.206712e-01 4.684801e-01 6.189046e-01 7.609954e-01 8.395683e-01 9.206992e-01 9.594604e-01 1.098309e+00 1.039063e+00 9.429782e-01 2.454680e-02 1.648239e-02 3.099672e-02 6.261853e-02 8.437484e-02 9.072328e-02 9.988902e-02 1.009648e-01 1.365698e-01 1.296550e-01 1.482133e-01 1.313295e-01 1.306609e-01 5.820238e-03
<GCONST> 4.423724e+01
<MIXTURE> 10 1.665348e-02
<MEAN> 39
 -4.211106e+00 3.616631e-01 -3.856068e+00 -2.108254e+00 -4.406512e+00 -1.349204e+00 5.599951e-01 6.795747e-01 -6.896356e-01 4.392089e-01 1.100380e+00 1.178849e-01 1.476800e+01 2.567434e-02 8.549886e-02 1.709316e-01 2.829315e-01 3.732744e-01 3.932185e-01 3.966768e-01 3.465582e-01 2.921459e-01 1.474783e-01 8.733340e-02 -4.919142e-03 2.857962e-02 1.113771e-01 2.304930e-01 2.912668e-01 2.619045e-01 2.094532e-01 1.556369e-01 1.186484e-02 3.483532e-02 1.503412e-01 7.602403e-02 1.896250e-02 2.329296e-02 1.382561e-02
<VARIANCE> 39
 1.249559e+00 3.182696e+00 4.671188e+00 5.001952e+00 6.058284e+00 6.147498e+00 6.627931e+00 8.337649e+00 6.835321e+00 7.616526e+00 6.592901e+00 8.837261e+00 1.607298e+00 7.196905e-02 1.691272e-01 3.100701e-01 4.255994e-01 5.877801e-01 6.284425e-01 7.597641e-01 9.617219e-01 1.026570e+00 1.038654e+00 9.771823e-01 9.373464e-01 2.732651e-02 1.536539e-02 2.765115e-02 5.426819e-02 7.460719e-02 9.945233e-02 1.201061e-01 1.349185e-01 1.687002e-01 1.446939e-01 1.568253e-01 1.377606e-01 1.792626e-01 7.491876e-03
<GCONST> 4.709933e+01
<MIXTURE> 11 2.955275e-02
<MEAN> 39
 -3.410569e+00 1.646755e+00 -6.883556e-01 1.070957e+00 -2.569182e+00 -2.058560e+00 -7.689409e-01 1.187104e+00 2.976695e-01 -6.122766e-01 -7.988638e-01 -1.299092e-01 1.427661e+01 6.511802e-02 1.323024e-01 1.059962e-01 4.582804e-02 -6.053313e-02 -1.795582e-01 -2.526024e-01 -1.813489e-01 1.693915e-02 2.888206e-01 3.768379e-01 2.511870e-01 2.011698e-02 5.931330e-03 9.055655e-03 -7.240845e-02 -1.311460e-01 1.565302e-02 2.678241e-01 2.356420e-01 5.526390e-02 7.619569e-02 2.639457e-01 2.908401e-01 9.023308e-02 2.403923e-02
<VARIANCE> 39
 8.474325e-01 3.564547e+00 3.157765e+00 3.871740e+00 4.824006e+00 5.005877e+00 4.835617e+00 4.493825e+00 5.617357e+00 5.698111e+00 6.228579e+00 5.563493e+00 6.760300e-01 7.782357e-02 1.630553e-01 2.889976e-01 4.148430e-01 5.809102e-01 6.694763e-01 7.995760e-01 9.166958e-01 9.644220e-01 1.000594e+00 8.937484e-01 8.494260e-01 2.044484e-02 1.283634e-02 2.750170e-02 5.211508e-02 6.588572e-02 9.065614e-02 9.557511e-02 1.039871e-01 9.761124e-02 1.201887e-01 1.199173e-01 1.277418e-01 1.256140e-01 3.944336e-03
<GCONST> 3.935533e+01
<MIXTURE> 12 1.876012e-02
<MEAN> 39
 -3.661633e+00 1.945518e+00 -9.750673e-01 1.120004e+00 -3.787670e-01 2.471645e+00 2.791262e+00 2.826690e+00 1.677978e+00 4.833788e-01 -1.552703e+00 -3.031202e+00 1.464621e+01 -3.118259e-02 -4.429550e-02 -2.043968e-02 1.223792e-01 2.812109e-01 4.288558e-01 4.895290e-01 4.185975e-01 2.797565e-01 1.675175e-01 -7.319573e-03 -3.961840e-02 5.785563e-03 2.242608e-02 1.813368e-02 -4.922635e-02 -1.667263e-01 -3.170820e-01 -3.252784e-01 -2.875723e-01 -2.489725e-01 -1.544321e-01 1.048774e-01 4.525878e-01 5.121869e-01 -2.758130e-03
<VARIANCE> 39
 1.171823e+00 3.007620e+00 3.106600e+00 5.260163e+00 5.708742e+00 5.535478e+00 6.062178e+00 7.523544e+00 6.659373e+00 6.382883e+00 5.332221e+00 5.334899e+00 8.638839e-01 8.847876e-02 1.711618e-01 2.947270e-01 4.246795e-01 5.925647e-01 7.271860e-01 8.613123e-01 9.740912e-01 9.074404e-01 9.969037e-01 9.729010e-01 1.010264e+00 2.607437e-02 1.598395e-02 2.964630e-02 5.326505e-02 7.572012e-02 9.499055e-02 1.030341e-01 1.246899e-01 1.609380e-01 1.461161e-01 1.390312e-01 1.142477e-01 1.162477e-01 4.470888e-03
<GCONST> 4.357419e+01
<MIXTURE> 13 2.522484e-02
<MEAN> 39
 -3.867279e+00 2.250628e+00 -9.397301e-01 6.917830e-01 -1.479800e+00 -1.265248e-01 1.380392e+00 2.132576e-01 -1.807032e-01 1.265075e+00 5.872006e-01 -1.144073e-01 1.694590e+01 1.216825e-02 -3.085188e-02 -1.000314e-01 -2.030330e-02 -4.902354e-02 -3.651221e-02 6.346007e-03 -2.302697e-02 9.099976e-03 4.469161e-02 3.405859e-02 3.705768e-02 -3.572570e-03 1.808135e-02 -2.125211e-02 3.576390e-02 1.238487e-02 -4.713547e-02 4.761857e-03 -4.391909e-02 -7.783464e-04 -1.235457e-02 -4.271241e-02 1.012595e-02 5.304980e-03 3.765690e-03
<VARIANCE> 39
 1.094126e+01 7.912582e+00 1.265034e+01 1.176911e+01 1.281310e+01 1.357113e+01 1.243320e+01 1.404290e+01 1.278351e+01 1.335835e+01 1.107055e+01 1.094793e+01 3.494633e+00 2.600730e-01 3.022529e-01 4.968577e-01 6.316430e-01 8.040143e-01 9.421660e-01 1.003983e+00 1.118079e+00 1.158025e+00 1.154545e+00 1.153139e+00 1.011414e+00 1.287325e-01 6.602365e-02 7.165282e-02 1.444219e-01 1.515999e-01 1.868030e-01 2.075854e-01 2.123421e-01 2.461390e-01 2.384624e-01 2.532897e-01 2.368164e-01 2.078824e-01 2.492642e-02
<GCONST> 7.229482e+01
<MIXTURE> 14 2.603609e-02
<MEAN> 39
 -3.550598e+00 2.330943e+00 -9.237635e-01 2.110797e-01 -2.226727e+00 1.158479e+00 3.375179e-01 -2.154915e+00 -1.929757e+00 2.333943e+00 4.563140e+00 2.205511e+00 1.467341e+01 4.726571e-03 3.473550e-02 7.093372e-02 1.130558e-01 1.470785e-01 1.391744e-01 1.246046e-01 1.531431e-01 1.166303e-01 9.552752e-02 7.500659e-02 1.474453e-02 1.389375e-02 6.801043e-03 -1.918953e-02 -7.020456e-02 -6.600520e-02 -7.325417e-02 -1.253879e-01 1.055200e-01 5.184679e-01 3.965536e-01 -1.502796e-01 -4.713945e-01 -2.900232e-01 7.986910e-04
<VARIANCE> 39
 1.109728e+00 2.892693e+00 3.444914e+00 5.310931e+00 5.300702e+00 6.037692e+00 5.809533e+00 5.014387e+00 6.024132e+00 6.612978e+00 5.942626e+00 6.168734e+00 8.311375e-01 8.192677e-02 1.835234e-01 3.443615e-01 5.119274e-01 5.950723e-01 6.948392e-01 8.276154e-01 9.229086e-01 9.808152e-01 1.009380e+00 1.037209e+00 9.492517e-01 2.457817e-02 1.669432e-02 3.081331e-02 5.551342e-02 7.857058e-02 9.127107e-02 1.091951e-01 1.238046e-01 9.826196e-02 1.290676e-01 1.397956e-01 1.322952e-01 1.364668e-01 5.656159e-03
<GCONST> 4.364284e+01
<MIXTURE> 15 2.539945e-02
<MEAN> 39
 -2.905400e+00 3.308505e+00 -1.477573e+00 -1.284698e+00 -4.002954e+00 8.307011e-01 2.041687e+00 1.560201e+00 1.284580e+00 3.347268e+00 3.632339e+00 8.400447e-01 1.460647e+01 9.380966e-03 5.470187e-02 6.602636e-02 1.113931e-01 9.033701e-02 4.785176e-02 7.779716e-02 1.622251e-01 2.500025e-01 2.895111e-01 1.534267e-01 7.837070e-02 1.935048e-02 -8.902878e-02 -1.009326e-01 6.892011e-04 1.025159e-01 1.208517e-01 -4.250783e-02 -7.616052e-02 2.981783e-02 -3.881126e-02 -2.819459e-01 -2.919232e-01 -4.693019e-02 -7.750433e-03
<VARIANCE> 39
 5.334967e-01 1.554341e+00 2.361032e+00 3.639320e+00 4.324034e+00 6.297213e+00 4.834190e+00 5.062993e+00 5.385165e+00 4.768812e+00 5.141397e+00 4.967640e+00 7.612280e-01 6.416276e-02 1.314918e-01 2.487633e-01 4.080455e-01 5.826111e-01 7.111910e-01 8.715667e-01 9.344099e-01 9.093772e-01 8.912095e-01 8.627414e-01 8.486238e-01 2.184994e-02 1.018426e-02 1.890456e-02 4.399025e-02 6.976165e-02 9.619515e-02 1.119788e-01 1.097480e-01 1.125493e-01 1.153411e-01 1.097114e-01 1.121180e-01 1.150863e-01 4.224888e-03
<GCONST> 3.640810e+01
<MIXTURE> 16 3.221493e-02
<MEAN> 39
 -3.184030e+00 3.382094e+00 -1.153531e+00 -1.131395e+00 -4.436781e+00 1.468098e-01 2.901541e+00 2.680218e+00 -8.191634e-01 -1.103778e+00 2.511428e+00 2.928434e+00 1.460875e+01 1.050390e-02 1.748297e-02 4.715511e-02 8.245897e-02 1.047162e-01 1.164387e-01 1.056246e-01 8.318935e-02 3.129983e-02 -4.281347e-02 -8.717290e-02 -7.122202e-02 3.091141e-04 -5.001656e-02 -1.110979e-01 -7.190886e-02 6.766330e-02 1.574051e-01 -1.155834e-02 -2.553733e-01 -1.556772e-01 2.471675e-01 3.670933e-01 -1.387782e-01 -3.848893e-01 -8.989945e-03
<VARIANCE> 39
 8.038086e-01 2.021675e+00 3.348951e+00 4.739087e+00 5.808257e+00 8.333323e+00 6.135669e+00 6.944518e+00 6.406446e+00 5.048225e+00 5.286117e+00 5.509865e+00 9.205568e-01 8.256622e-02 1.714568e-01 3.132484e-01 4.531320e-01 6.079637e-01 7.609824e-01 9.191871e-01 1.014238e+00 9.717945e-01 9.873666e-01 9.531984e-01 9.248734e-01 2.143922e-02 1.402026e-02 2.466046e-02 5.412548e-02 7.744595e-02 1.069684e-01 1.304441e-01 1.334259e-01 1.519074e-01 1.371243e-01 1.035817e-01 1.191600e-01 1.275260e-01 4.633690e-03
<GCONST> 4.283278e+01
<MIXTURE> 17 3.581925e-02
<MEAN> 39
 -3.576518e+00 2.328138e+00 -7.062872e-01 2.432060e-01 -1.881133e+00 8.820735e-01 -6.865653e-02 1.671911e-01 2.460956e+00 4.564954e+00 1.337267e+00 -1.957961e+00 1.458786e+01 -2.127166e-02 -1.878577e-02 -2.282245e-02 -1.161005e-03 6.979722e-02 7.546780e-02 9.221391e-02 1.317540e-01 1.927573e-01 1.902299e-01 1.319090e-01 8.718290e-02 7.950928e-03 9.628627e-03 -1.905613e-02 -7.952631e-02 -6.982718e-02 -1.059004e-01 -9.047219e-02 1.423120e-01 1.575630e-01 -2.588377e-01 -4.751591e-01 1.866152e-02 3.449035e-01 2.267532e-03
<VARIANCE> 39
 9.875368e-01 2.924243e+00 3.186786e+00 5.334771e+00 5.362158e+00 6.053556e+00 5.905152e+00 6.562019e+00 6.789735e+00 5.324765e+00 6.032766e+00 5.035600e+00 8.046868e-01 8.738057e-02 1.793875e-01 3.440742e-01 4.771325e-01 6.240593e-01 8.070598e-01 8.718110e-01 9.631433e-01 9.507312e-01 9.854527e-01 1.048297e+00 9.436004e-01 2.343395e-02 1.535117e-02 3.063179e-02 5.526701e-02 7.947429e-02 9.796035e-02 1.115855e-01 1.232028e-01 1.390323e-01 1.410355e-01 1.176284e-01 1.273874e-01 1.124046e-01 5.046679e-03
<GCONST> 4.353206e+01
<MIXTURE> 18 3.321220e-02
<MEAN> 39
 -3.869540e+00 1.663652e+00 -2.127186e+00 -5.972252e-01 -1.844749e+00 2.921099e+00 3.846944e+00 2.431562e+00 4.804695e-02 -1.252546e+00 -1.467849e+00 -1.189350e+00 1.452652e+01 1.700223e-02 2.282155e-02 -2.193371e-03 -3.667057e-02 -1.075002e-01 -1.344808e-01 -1.487192e-01 -1.858612e-01 -2.082068e-01 -1.225894e-01 -2.342946e-02 3.083850e-02 -9.109015e-03 5.230612e-02 9.276539e-02 9.502818e-02 1.342844e-02 -1.923404e-01 -4.186216e-01 -4.399736e-01 -2.053418e-01 7.969119e-02 3.534356e-01 4.088768e-01 2.138066e-01 8.226961e-03
<VARIANCE> 39
 1.045962e+00 3.273965e+00 3.645970e+00 4.803081e+00 5.733279e+00 5.923221e+00 5.928078e+00 8.491055e+00 7.256860e+00 7.404806e+00 5.590967e+00 5.773774e+00 8.951024e-01 8.617477e-02 1.772384e-01 3.396879e-01 4.454133e-01 6.206345e-01 7.766125e-01 8.636511e-01 9.552285e-01 9.360990e-01 1.068255e+00 9.771352e-01 9.305947e-01 2.801084e-02 1.587969e-02 3.030256e-02 5.471256e-02 7.543787e-02 1.008673e-01 1.060605e-01 1.229633e-01 1.736161e-01 1.507278e-01 1.477641e-01 1.199459e-01 1.261001e-01 6.000383e-03
<GCONST> 4.527452e+01
<MIXTURE> 19 3.982203e-02
<MEAN> 39
 -3.202064e+00 2.651839e+00 -6.984005e-01 5.284272e-02 -3.542524e+00 -1.096066e+00 1.838156e+00 4.757710e+00 2.967947e+00 7.514726e-01 -1.299537e-01 -8.958349e-02 1.445552e+01 -5.173636e-04 -1.205715e-02 -5.000746e-02 -8.048562e-02 -1.047485e-01 -1.328672e-01 -1.463255e-01 -8.092802e-02 5.804238e-02 1.792380e-01 2.025213e-01 1.282907e-01 -5.230975e-03 -3.979353e-02 -7.405920e-02 -9.856151e-02 -4.258920e-02 9.496876e-02 1.490700e-01 -1.356440e-01 -4.809842e-01 -3.239095e-01 7.581425e-02 2.159805e-01 8.157877e-02 -6.008820e-03
<VARIANCE> 39
 7.894466e-01 3.505119e+00 3.110698e+00 4.423105e+00 5.484707e+00 5.828577e+00 5.220898e+00 4.439071e+00 5.086307e+00 5.573591e+00 5.701598e+00 6.172790e+00 7.852005e-01 8.552790e-02 1.734603e-01 3.202790e-01 4.780205e-01 6.337465e-01 7.486567e-01 8.738157e-01 9.641989e-01 1.040059e+00 1.025913e+00 9.801660e-01 9.260312e-01 2.274508e-02 1.424376e-02 2.946770e-02 5.252443e-02 7.072351e-02 1.030415e-01 9.876113e-02 1.087994e-01 1.018221e-01 1.075995e-01 1.281961e-01 1.198979e-01 1.375910e-01 4.397636e-03
<GCONST> 4.149186e+01
<MIXTURE> 20 3.809296e-02
<MEAN> 39
 -3.445071e+00 2.212186e+00 -3.111937e+00 -2.876401e+00 -4.669957e+00 5.476640e-01 1.130019e+00 1.375775e-01 -5.940795e-01 6.374627e-01 1.565811e+00 7.802852e-01 1.436576e+01 1.133223e-02 1.828158e-02 -3.058985e-03 -4.957666e-02 -1.133583e-01 -1.472970e-01 -1.889610e-01 -1.316437e-01 -1.996693e-02 5.327332e-02 1.184311e-01 1.106870e-01 -2.785644e-03 4.999215e-04 7.389318e-02 2.112631e-01 2.801854e-01 1.414308e-01 -8.903015e-02 -2.355996e-02 1.641092e-01 1.661009e-01 5.878480e-02 -6.653264e-02 -9.458326e-02 1.846012e-02
<VARIANCE> 39
 6.395636e-01 2.023916e+00 2.357616e+00 3.178389e+00 4.526796e+00 6.213205e+00 5.528572e+00 6.153668e+00 6.602564e+00 5.605224e+00 4.922956e+00 5.740106e+00 8.118747e-01 7.859882e-02 1.657144e-01 3.290917e-01 4.813925e-01 5.925309e-01 6.741220e-01 8.807402e-01 9.792678e-01 9.794472e-01 9.995985e-01 9.395784e-01 8.967071e-01 2.710397e-02 1.151820e-02 2.214909e-02 3.816022e-02 6.058754e-02 9.031650e-02 1.144802e-01 1.172089e-01 1.268206e-01 1.438445e-01 1.287873e-01 1.130272e-01 1.297511e-01 5.517683e-03
<GCONST> 3.997282e+01
<MIXTURE> 21 3.296582e-02
<MEAN> 39
 -3.672459e+00 2.239413e+00 -1.366898e+00 -3.921088e-01 -2.711844e+00 2.555256e+00 5.006568e+00 2.937995e+00 3.357651e-01 2.041368e+00 2.387771e+00 7.198671e-03 1.459905e+01 2.029403e-02 4.118890e-02 3.690184e-02 -8.917994e-04 -5.374967e-02 -1.415700e-01 -2.109655e-01 -2.333350e-01 -1.944682e-01 -1.015706e-01 -3.088319e-02 1.829485e-02 1.647546e-04 1.952468e-02 5.954428e-03 -1.496680e-02 -1.049702e-02 -5.742877e-02 -3.622606e-01 -6.123483e-01 -2.651729e-01 4.311964e-02 -1.317421e-01 -1.741280e-01 3.706975e-02 -1.854947e-05
<VARIANCE> 39
 1.086571e+00 2.962041e+00 3.789436e+00 4.822290e+00 5.605456e+00 5.962636e+00 4.566926e+00 6.258129e+00 5.460270e+00 5.765453e+00 5.536551e+00 6.166086e+00 8.355464e-01 9.497453e-02 1.863191e-01 3.279258e-01 4.875546e-01 6.607435e-01 7.813883e-01 9.096302e-01 1.006456e+00 9.808245e-01 1.010202e+00 1.030177e+00 9.198985e-01 2.742771e-02 1.759207e-02 3.300399e-02 5.974028e-02 8.594689e-02 1.124583e-01 1.074521e-01 8.878814e-02 1.303747e-01 1.258690e-01 1.281590e-01 1.239217e-01 1.388329e-01 5.577966e-03
<GCONST> 4.416095e+01
<MIXTURE> 22 3.782121e-02
<MEAN> 39
 -3.361374e+00 2.561268e+00 1.047801e-02 2.115493e+00 -1.437735e-04 2.154546e+00 7.405177e-01 -8.743286e-01 -2.147240e+00 -1.287598e+00 4.125264e-01 2.142797e-01 1.484604e+01 1.445712e-02 2.596364e-02 -3.452643e-03 -1.171991e-02 -2.912324e-02 -8.008703e-02 -1.179015e-01 -1.250810e-01 -9.186209e-02 -7.484321e-02 -3.667723e-02 6.370665e-03 -4.355689e-03 -1.126015e-02 -6.681103e-02 -1.723686e-01 -2.747795e-01 -3.499330e-01 -2.797589e-01 6.918141e-03 3.232705e-01 4.372015e-01 3.805275e-01 1.734553e-01 1.124817e-02 -8.580395e-03
<VARIANCE> 39
 1.073625e+00 2.381692e+00 3.023809e+00 5.428722e+00 5.636593e+00 6.826806e+00 7.262526e+00 7.054901e+00 7.373338e+00 7.556812e+00 7.542035e+00 7.407800e+00 8.470886e-01 8.195900e-02 1.648760e-01 3.032086e-01 4.800399e-01 6.488513e-01 7.728811e-01 8.911150e-01 9.632437e-01 1.010129e+00 9.619333e-01 9.955631e-01 9.188237e-01 2.162385e-02 1.562558e-02 2.822779e-02 5.181224e-02 7.969383e-02 9.472339e-02 1.207592e-01 1.447400e-01 1.464748e-01 1.576511e-01 1.615476e-01 1.538223e-01 1.603105e-01 4.511843e-03
<GCONST> 4.553782e+01
<MIXTURE> 23 3.318167e-02
<MEAN> 39
 -6.887569e-02 6.254502e+00 2.322410e+00 2.604974e+00 1.029146e+00 6.138303e-01 -2.911325e-01 7.975637e-01 -1.846751e+00 -5.984205e-02 7.620468e-01 -6.944404e-01 1.982325e+01 -1.205624e+00 -1.872048e-01 -1.107174e+00 2.350102e-02 5.507404e-01 -2.385603e-01 3.416396e-01 -1.043806e-01 5.047270e-01 1.452040e-01 3.231442e-02 8.176993e-02 -4.346327e-01 -1.179545e-01 -3.565865e-02 -2.073753e-02 -2.529618e-01 -3.666876e-01 6.603561e-02 5.072282e-02 2.123248e-02 3.832892e-03 -7.964046e-02 -3.167305e-02 -2.022191e-02 2.827858e-03
<VARIANCE> 39
 3.212973e+01 3.217755e+01 3.598826e+01 6.020305e+01 4.810592e+01 4.209419e+01 4.427362e+01 4.145089e+01 3.786857e+01 4.387023e+01 3.212699e+01 2.618468e+01 2.421943e+00 2.833471e+00 2.449590e+00 3.250506e+00 4.423584e+00 3.942006e+00 4.011474e+00 3.571501e+00 3.723033e+00 3.772954e+00 3.682533e+00 2.902544e+00 2.199299e+00 1.001159e-01 2.148113e-01 2.515237e-01 3.316554e-01 4.203638e-01 5.178277e-01 4.604358e-01 5.438699e-01 5.023602e-01 4.920445e-01 4.838309e-01 4.286913e-01 3.870601e-01 1.552208e-02
<GCONST> 1.135809e+02
<MIXTURE> 24 3.206417e-02
<MEAN> 39
 -3.904412e+00 1.887520e+00 -2.546913e+00 -1.890370e+00 -4.904282e+00 -1.377247e+00 1.228447e+00 2.496478e+00 2.253382e+00 4.002522e+00 5.402890e+00 3.473317e+00 1.435757e+01 -8.009728e-03 -2.423765e-02 -2.342705e-02 -6.283335e-02 -1.426598e-01 -1.662094e-01 -1.977713e-01 -1.325736e-01 -6.542733e-02 8.807311e-03 5.078557e-02 4.897963e-02 -8.776096e-03 5.127956e-02 8.871086e-02 1.460024e-01 1.898828e-01 2.226505e-01 1.642314e-01 -2.857760e-02 -1.287100e-01 -2.092104e-01 -3.853616e-01 -5.732605e-01 -4.488947e-01 8.895690e-03
<VARIANCE> 39
 7.918858e-01 2.570645e+00 3.366358e+00 5.302803e+00 5.710895e+00 7.323448e+00 6.649061e+00 7.204446e+00 7.335433e+00 7.680020e+00 6.142010e+00 6.018408e+00 8.666255e-01 8.292544e-02 1.682132e-01 3.141927e-01 4.584134e-01 5.978697e-01 7.406890e-01 8.992592e-01 1.041769e+00 1.036808e+00 9.934906e-01 1.026772e+00 9.359137e-01 2.112922e-02 1.369163e-02 2.863997e-02 5.398804e-02 8.350196e-02 9.922035e-02 1.151237e-01 1.357715e-01 1.442638e-01 1.546618e-01 1.509847e-01 1.309215e-01 1.305870e-01 4.720435e-03
<GCONST> 4.458104e+01
<MIXTURE> 25 3.245835e-02
<MEAN> 39
 -3.846145e+00 9.499903e-01 -1.915951e+00 6.593708e-01 -1.559047e+00 4.031325e-02 5.930971e-01 7.868325e-01 -5.041337e-01 1.482324e-02 1.154348e+00 1.073893e+00 1.435015e+01 -2.825843e-02 -4.378732e-02 -3.604486e-02 -1.179229e-02 2.742735e-03 -1.509384e-02 -9.032206e-02 -1.961556e-01 -3.569250e-01 -4.440702e-01 -3.951554e-01 -2.462912e-01 -3.103193e-02 6.265281e-02 1.357679e-01 8.884111e-02 -8.320838e-02 -1.472010e-01 -1.755753e-02 4.898877e-02 9.723951e-02 1.904753e-01 1.831491e-01 1.118552e-02 -1.097302e-01 2.745344e-02
<VARIANCE> 39
 9.557431e-01 3.139441e+00 2.775779e+00 3.332965e+00 4.217710e+00 5.640425e+00 4.919784e+00 5.648165e+00 6.531060e+00 5.696876e+00 5.556483e+00 6.066231e+00 7.752340e-01 8.489413e-02 1.738485e-01 3.084841e-01 4.804793e-01 6.141116e-01 7.640042e-01 8.652427e-01 9.466995e-01 9.367679e-01 8.998445e-01 9.034401e-01 8.695768e-01 2.208167e-02 1.314213e-02 2.355396e-02 4.512253e-02 5.913000e-02 7.785059e-02 8.903032e-02 1.019620e-01 1.214619e-01 1.368825e-01 1.221363e-01 1.076157e-01 1.293143e-01 4.554698e-03
<GCONST> 3.994045e+01
<MIXTURE> 26 2.051066e-02
<MEAN> 39
 -2.832848e+00 2.847198e+00 -1.321648e+00 -3.220872e-01 -2.916013e+00 -4.621052e-01 -9.521011e-01 -1.036752e-01 -2.632832e-01 -6.598843e-01 -1.221303e+00 -2.111551e+00 1.497728e+01 -6.120004e-03 -2.189032e-02 -9.922875e-02 -2.069425e-01 -3.543968e-01 -4.880008e-01 -4.856968e-01 -4.073500e-01 -2.330842e-01 -4.557513e-02 8.580861e-02 8.157846e-02 -2.847160e-02 -8.469255e-02 -1.098810e-01 -5.100197e-02 -7.629526e-03 2.820045e-02 1.039601e-01 2.729155e-01 1.835089e-01 1.298459e-01 2.639685e-01 3.776681e-01 3.554830e-01 -1.828843e-02
<VARIANCE> 39
 9.824331e-01 3.380623e+00 4.339813e+00 4.459879e+00 5.270698e+00 4.870895e+00 4.786745e+00 5.183863e+00 6.023396e+00 6.595500e+00 6.278682e+00 5.694812e+00 1.380284e+00 8.724270e-02 1.786051e-01 3.131966e-01 4.438545e-01 6.072562e-01 6.459767e-01 8.212893e-01 9.638497e-01 9.688470e-01 9.935926e-01 9.532042e-01 8.531520e-01 3.559377e-02 1.458506e-02 3.090880e-02 6.473716e-02 7.051094e-02 9.506494e-02 9.035313e-02 9.995038e-02 1.080170e-01 1.328026e-01 1.466379e-01 1.311490e-01 1.312584e-01 6.428648e-03
<GCONST> 4.356634e+01
<MIXTURE> 27 2.946999e-02
<MEAN> 39
 -3.353624e+00 3.418677e+00 -1.296846e+00 -1.154337e+00 -6.171815e+00 -4.323934e+00 -9.842787e-01 1.814066e+00 1.196405e+00 1.948741e+00 1.455662e+00 -5.952171e-02 1.403969e+01 -2.848192e-02 -3.091743e-02 -4.601826e-02 -3.204015e-02 6.678276e-04 2.106271e-02 6.384969e-02 4.730658e-02 1.575144e-02 -2.632748e-02 -3.103204e-02 4.102579e-04 -1.150378e-02 -3.418801e-02 -8.639318e-02 -7.117504e-02 2.988770e-02 3.153749e-01 5.001962e-01 2.906456e-01 -1.398868e-02 -7.312624e-02 -8.057225e-02 9.112670e-03 7.980777e-02 9.506849e-03
<VARIANCE> 39
 6.741843e-01 1.653871e+00 3.237400e+00 4.285975e+00 4.817832e+00 5.446679e+00 5.500503e+00 5.374166e+00 7.017504e+00 6.990926e+00 5.972440e+00 6.937035e+00 6.571565e-01 7.525370e-02 1.613865e-01 3.130853e-01 4.713304e-01 6.008361e-01 7.520446e-01 8.925746e-01 1.016427e+00 1.037038e+00 1.023123e+00 9.614168e-01 9.231383e-01 2.170569e-02 1.342702e-02 2.570769e-02 5.193002e-02 7.747325e-02 1.034445e-01 1.010303e-01 1.190250e-01 1.215967e-01 1.579345e-01 1.371808e-01 1.299010e-01 1.513480e-01 4.348269e-03
<GCONST> 4.167806e+01
<MIXTURE> 28 2.714245e-02
<MEAN> 39
 -3.555516e+00 2.190474e+00 2.435602e-01 2.475321e+00 -4.713184e-01 1.796343e-01 -8.488365e-02 1.573849e+00 2.807218e+00 2.921484e+00 1.633928e+00 1.817591e-04 1.488209e+01 2.963342e-02 8.385242e-02 6.531125e-02 1.424005e-02 -9.847314e-02 -1.822040e-01 -2.919665e-01 -3.662367e-01 -4.381904e-01 -3.934005e-01 -2.751555e-01 -1.297009e-01 -1.778649e-02 2.060513e-03 -4.326859e-02 -1.923902e-01 -3.110169e-01 -2.453499e-01 -3.692450e-02 1.068914e-01 -4.889564e-02 -3.037255e-01 -2.537835e-01 -2.742351e-02 3.069669e-02 -1.855772e-02
<VARIANCE> 39
 1.364548e+00 2.819449e+00 3.275499e+00 4.898014e+00 5.562560e+00 6.158311e+00 6.318447e+00 6.364001e+00 6.282788e+00 5.591962e+00 5.781411e+00 4.284050e+00 8.809128e-01 7.973303e-02 1.479712e-01 3.337612e-01 4.931026e-01 6.184456e-01 7.421730e-01 8.507599e-01 9.685577e-01 9.554368e-01 8.654059e-01 8.819674e-01 8.979895e-01 2.376089e-02 1.814691e-02 3.182662e-02 5.437035e-02 7.569788e-02 9.924228e-02 1.271065e-01 1.419791e-01 1.369757e-01 1.369205e-01 1.207369e-01 1.233917e-01 9.318354e-02 4.996135e-03
<GCONST> 4.316050e+01
<MIXTURE> 29 2.559482e-02
<MEAN> 39
 -3.364355e+00 3.089311e+00 -1.216760e+00 -1.440421e+00 -5.124420e+00 -3.517977e-01 2.516826e+00 1.581954e+00 -2.319024e+00 -3.077633e+00 -1.537341e+00 -7.309957e-01 1.445493e+01 -1.820939e-02 -2.015408e-03 -2.756525e-02 -5.934684e-02 -1.050955e-01 -1.547213e-01 -7.644061e-02 -6.584065e-02 2.468491e-02 1.534945e-01 1.414620e-01 4.214231e-02 -1.118043e-02 -2.294158e-02 -8.419929e-02 -7.582967e-02 7.403355e-02 2.199179e-01 4.686544e-02 -2.276420e-01 -5.636368e-02 4.032448e-01 6.031864e-01 3.946414e-01 1.333286e-01 3.729212e-03
<VARIANCE> 39
 9.019722e-01 2.761328e+00 3.635126e+00 4.443256e+00 5.288253e+00 6.964528e+00 5.435363e+00 8.160060e+00 6.539678e+00 6.684377e+00 6.906372e+00 6.090952e+00 8.140936e-01 7.541598e-02 1.648473e-01 3.198198e-01 4.666919e-01 6.194360e-01 7.520466e-01 9.396025e-01 1.100861e+00 1.027393e+00 9.996855e-01 1.016262e+00 8.804737e-01 2.776872e-02 1.513373e-02 3.076212e-02 5.579037e-02 7.976302e-02 9.692980e-02 1.136802e-01 1.241256e-01 1.725133e-01 1.437689e-01 1.419937e-01 1.342302e-01 1.322839e-01 5.840748e-03
<GCONST> 4.488908e+01
<MIXTURE> 30 2.395593e-02
<MEAN> 39
 -3.835057e+00 1.686782e+00 -1.945945e+00 -2.240317e+00 -4.839298e+00 -1.719741e+00 -2.307726e+00 -2.816339e+00 -2.546698e+00 -1.457933e+00 -1.268240e+00 -9.698970e-01 1.458095e+01 -5.209134e-03 -5.036011e-03 -1.745327e-02 -1.302140e-02 -7.672561e-04 -1.226544e-02 -2.325490e-02 -4.653659e-02 -4.251391e-02 -1.245485e-03 -3.110725e-02 -5.720879e-02 -4.314942e-03 4.702789e-02 5.435147e-02 4.757860e-02 2.097768e-01 2.587206e-01 2.534469e-01 4.367232e-01 5.636926e-01 4.275615e-01 3.515545e-01 3.207863e-01 1.444336e-01 1.098922e-02
<VARIANCE> 39
 1.388561e+00 3.408478e+00 4.488678e+00 5.832749e+00 7.084530e+00 8.264513e+00 6.990673e+00 6.726573e+00 8.168303e+00 9.620625e+00 8.151695e+00 8.737281e+00 9.908845e-01 9.360104e-02 1.903676e-01 3.402664e-01 5.180048e-01 6.793322e-01 8.482386e-01 9.151648e-01 1.007718e+00 1.073492e+00 1.100513e+00 1.094158e+00 9.610661e-01 2.779445e-02 1.889457e-02 3.616714e-02 6.972225e-02 8.964380e-02 1.217747e-01 1.641435e-01 1.352871e-01 1.424037e-01 1.659036e-01 1.985869e-01 1.611539e-01 1.842940e-01 6.543615e-03
<GCONST> 5.109227e+01
<MIXTURE> 31 2.098097e-02
<MEAN> 39
 -2.981236e+00 4.058119e+00 -9.090717e-01 -1.619436e+00 -4.383684e+00 -1.719253e-01 9.822766e-01 1.081522e+00 4.475002e-01 2.144531e+00 2.843482e+00 7.705535e-01 1.448854e+01 -9.297925e-02 -2.195182e-01 -3.461446e-01 -4.347489e-01 -4.622675e-01 -3.816199e-01 -2.082508e-01 -7.993612e-02 5.764113e-02 1.375880e-01 2.124716e-01 1.826824e-01 -3.974131e-02 -7.862335e-02 -1.707396e-01 -1.008967e-01 6.273455e-02 9.849897e-02 2.095472e-02 1.137462e-03 4.042080e-02 1.582605e-02 -1.607753e-01 -2.493207e-01 -1.027013e-01 -1.149402e-02
<VARIANCE> 39
 6.469720e-01 1.593894e+00 3.274504e+00 4.579663e+00 5.140596e+00 5.253255e+00 4.478011e+00 5.772506e+00 5.724457e+00 5.258148e+00 4.422801e+00 5.379396e+00 8.566602e-01 8.950013e-02 1.883221e-01 3.092076e-01 4.059388e-01 5.689914e-01 7.290521e-01 8.542244e-01 9.945045e-01 1.014748e+00 1.040466e+00 9.574724e-01 9.122297e-01 2.757960e-02 1.215571e-02 2.520232e-02 5.929472e-02 8.595476e-02 1.103418e-01 1.010926e-01 1.017911e-01 1.265045e-01 1.368518e-01 1.234830e-01 1.039543e-01 1.224244e-01 5.858391e-03
<GCONST> 4.070752e+01
<MIXTURE> 32 2.658777e-02
<MEAN> 39
 -2.825948e+00 3.340862e+00 -1.757808e+00 -1.718709e+00 -3.804575e+00 9.921414e-01 1.032302e+00 4.873318e-01 7.673885e-01 1.202900e+00 -3.942919e-01 -1.310160e+00 1.449577e+01 -4.554063e-02 -8.969691e-02 -9.022424e-02 -2.083389e-02 1.145947e-01 2.575394e-01 2.561400e-01 6.311525e-02 -1.923543e-01 -4.155531e-01 -4.269925e-01 -2.361455e-01 -2.431661e-02 -9.246236e-02 -1.002549e-01 1.374043e-02 1.156757e-01 4.218645e-02 -1.137295e-01 9.762482e-03 1.126764e-01 -3.610722e-02 -1.433597e-02 2.442488e-01 2.324634e-01 -5.596127e-03
<VARIANCE> 39
 6.344885e-01 2.078657e+00 2.509558e+00 3.584722e+00 4.416979e+00 5.354743e+00 5.296449e+00 6.440530e+00 6.288906e+00 5.134542e+00 4.537857e+00 4.820625e+00 8.219905e-01 7.710214e-02 1.605400e-01 2.826475e-01 4.209838e-01 5.590480e-01 6.401452e-01 7.920756e-01 9.247487e-01 9.418051e-01 8.764991e-01 9.301535e-01 9.120530e-01 2.759860e-02 1.159649e-02 2.386853e-02 4.160469e-02 6.359160e-02 8.812676e-02 1.006453e-01 1.157184e-01 1.400447e-01 1.281610e-01 1.131839e-01 9.807059e-02 1.151892e-01 5.739114e-03
<GCONST> 3.855080e+01
<MIXTURE> 33 2.021896e-02
<MEAN> 39
 -3.680219e+00 2.364121e+00 -2.894884e-01 7.657819e-01 -2.406422e+00 -1.843614e-01 1.290929e+00 2.785526e+00 1.774273e+00 2.818783e-01 -3.067091e+00 -4.094937e+00 1.456491e+01 -5.463090e-03 -2.452786e-02 -2.093467e-02 -5.715536e-02 -1.151068e-01 -1.104184e-01 -9.708011e-02 -1.368571e-01 -1.880030e-01 -1.900992e-01 -1.703758e-01 -1.991537e-02 -2.067198e-02 2.585211e-02 -3.258845e-02 -1.574951e-01 -1.453821e-01 -4.870281e-02 1.705884e-02 -8.200582e-02 -2.418989e-01 -1.842939e-01 1.446737e-01 6.711794e-01 6.670654e-01 2.766227e-03
<VARIANCE> 39
 1.270287e+00 3.300690e+00 4.223526e+00 6.332566e+00 7.389049e+00 7.571209e+00 7.706197e+00 7.718941e+00 8.999439e+00 8.591825e+00 6.546741e+00 4.671541e+00 9.329914e-01 8.834427e-02 1.783455e-01 3.497525e-01 4.633556e-01 6.202811e-01 7.844285e-01 8.447366e-01 9.812202e-01 9.485860e-01 1.039371e+00 9.962589e-01 8.940648e-01 2.325721e-02 1.626479e-02 3.103618e-02 6.591097e-02 9.741773e-02 1.134770e-01 1.303896e-01 1.567273e-01 1.592183e-01 1.800716e-01 1.765962e-01 1.274160e-01 1.062741e-01 5.121470e-03
<GCONST> 4.786833e+01
<MIXTURE> 34 2.293910e-02
<MEAN> 39
 -3.589709e+00 2.427238e+00 -1.125437e+00 -7.173235e-01 -4.212384e+00 -1.758105e+00 -1.757333e+00 -1.932876e+00 -1.743007e+00 1.364984e+00 3.873170e+00 2.843398e+00 1.457394e+01 -6.885017e-03 -9.044630e-03 -3.381319e-02 -1.248053e-01 -2.379982e-01 -3.392983e-01 -3.931234e-01 -3.358833e-01 -2.202319e-01 -9.472148e-02 -8.566729e-03 3.043040e-02 -1.484816e-02 3.021653e-03 -2.064374e-02 -4.932387e-02 3.321942e-02 1.696349e-01 2.624947e-01 4.129386e-01 4.898562e-01 3.393207e-01 -2.845178e-02 -4.023896e-01 -4.123269e-01 5.171877e-03
<VARIANCE> 39
 1.127233e+00 3.054754e+00 4.208234e+00 5.423672e+00 6.384758e+00 6.253766e+00 6.152488e+00 6.037417e+00 6.411277e+00 7.352312e+00 5.506734e+00 6.398489e+00 9.753968e-01 9.027328e-02 1.801375e-01 3.324427e-01 4.847939e-01 6.464710e-01 7.314559e-01 7.834968e-01 1.009541e+00 1.008750e+00 1.162800e+00 1.009259e+00 9.316781e-01 2.846706e-02 1.760342e-02 3.427619e-02 6.396015e-02 7.569475e-02 1.147281e-01 1.109038e-01 1.256933e-01 1.220650e-01 1.331554e-01 1.574712e-01 1.174473e-01 1.359267e-01 5.272387e-03
<GCONST> 4.581255e+01
<MIXTURE> 35 2.382220e-02
<MEAN> 39
 -3.535916e+00 2.186677e+00 -5.285945e-01 1.495084e+00 -1.265372e+00 -1.759549e-01 4.352633e-01 2.104943e+00 1.346242e+00 2.071141e+00 4.443819e+00 3.763711e+00 1.462128e+01 -1.721926e-02 -4.166081e-03 1.175839e-02 3.177584e-02 8.155004e-02 1.240933e-01 9.577776e-02 1.502065e-02 -8.024004e-02 -1.076994e-01 -1.252094e-01 -5.101071e-02 -5.302302e-03 7.587959e-03 -3.766793e-02 -1.231807e-01 -2.220507e-01 -1.963013e-01 1.641400e-02 5.381061e-02 -1.055192e-01 -8.357550e-02 -1.323680e-01 -4.754446e-01 -5.232657e-01 -1.702612e-02
<VARIANCE> 39
 8.911394e-01 3.332898e+00 3.382470e+00 4.487177e+00 4.919826e+00 6.617693e+00 5.461228e+00 5.866336e+00 6.354236e+00 6.427136e+00 6.092308e+00 4.323761e+00 8.775957e-01 8.259988e-02 1.703283e-01 3.131696e-01 4.768873e-01 6.578613e-01 8.013930e-01 9.136098e-01 9.024696e-01 1.042251e+00 9.789382e-01 9.767680e-01 9.213784e-01 2.246019e-02 1.565582e-02 3.082718e-02 5.288366e-02 6.972001e-02 8.914415e-02 1.122705e-01 1.190185e-01 1.129568e-01 1.397346e-01 1.424820e-01 1.250578e-01 9.541117e-02 4.615452e-03
<GCONST> 4.252986e+01
<MIXTURE> 36 2.244785e-02
<MEAN> 39
 -4.208785e+00 1.190908e+00 -3.039326e+00 -2.905535e+00 -5.862584e+00 -2.348142e+00 -8.664110e-02 1.916460e+00 1.648386e+00 9.549459e-01 -1.727768e-01 -5.903734e-01 1.422291e+01 -5.384526e-02 -7.494716e-02 -8.078934e-02 -1.353423e-01 -1.581925e-01 -1.021677e-01 -7.938324e-02 -1.074094e-01 -6.720877e-02 -6.656665e-02 -4.862784e-02 4.471688e-03 -1.911398e-02 9.418479e-02 1.754072e-01 2.106280e-01 3.207203e-01 3.643055e-01 2.891910e-01 1.106758e-01 -1.089147e-01 -1.748682e-01 2.141522e-02 2.123625e-01 1.392174e-01 2.879389e-02
<VARIANCE> 39
 9.853507e-01 3.130022e+00 4.118248e+00 5.297381e+00 6.273821e+00 6.595585e+00 6.380546e+00 6.561154e+00 6.544134e+00 7.944748e+00 7.147211e+00 7.178776e+00 8.259312e-01 1.036087e-01 1.934978e-01 3.302090e-01 4.743913e-01 6.265413e-01 7.190858e-01 8.953860e-01 1.025583e+00 1.045593e+00 9.782761e-01 9.900610e-01 8.899525e-01 2.559544e-02 1.556123e-02 2.788794e-02 5.518737e-02 7.763762e-02 1.092373e-01 1.180459e-01 1.333540e-01 1.354460e-01 1.353402e-01 1.646730e-01 1.501624e-01 1.572162e-01 5.790510e-03
<GCONST> 4.636424e+01
~h "eight"
<BEGINHMM>
<NUMSTATES> 18
<STATE> 2
<SID> 51
<NUMMIXES> 20
<MIXTURE> 1 2.779073e-02
<MEAN> 39
 -6.300834e+00 7.294313e+00 -1.386547e+00 -1.311301e+01 -6.794353e+00 -1.144903e+00 3.654788e+00 2.523802e+00 -1.579301e-01 -4.993064e+00 2.188565e-01 -5.922818e-01 1.865913e+01 -1.143922e+00 -1.604849e+00 -1.081588e+00 -5.300915e-01 5.842940e-01 9.974427e-01 1.257103e+00 3.275307e-01 6.102724e-02 -6.588537e-01 5.412750e-02 8.564997e-01 -3.056407e-01 8.432618e-01 -5.374867e-02 3.299735e-01 2.642822e-01 -1.105913e-01 -4.715283e-01 -4.110911e-01 -2.872143e-01 4.420787e-02 2.156353e-01 4.755353e-01 7.351895e-03 1.868670e-01
<VARIANCE> 39
 1.425304e+01 1.463996e+01 3.060907e+01 1.426800e+01 3.474239e+01 2.170324e+01 3.943382e+01 3.036918e+01 5.351211e+01 2.526442e+01 2.191499e+01 3.588477e+01 1.025954e+00 3.824815e-01 8.227044e-01 7.460471e-01 1.479129e+00 1.140108e+00 1.272608e+00 1.254852e+00 9.685683e-01 2.126858e+00 1.433531e+00 1.252735e+00 8.470789e-01 3.576303e-02 1.377352e-01 1.158428e-01 1.691319e-01 2.897912e-01 4.537552e-01 5.014564e-01 5.286660e-01 3.238611e-01 6.193733e-01 3.927101e-01 3.712610e-01 5.938134e-01 8.085988e-03
<GCONST> 8.992367e+01
<MIXTURE> 2 6.901713e-02
<MEAN> 39
 -3.831394e+00 1.309783e+00 -3.725142e+00 -1.460640e+00 -1.655404e+00 2.247646e-02 1.736575e-01 1.314408e+00 2.086179e-01 -5.326228e-02 9.050687e-01 2.651994e-01 1.571706e+01 1.336468e-01 -5.487937e-01 -8.983238e-01 -9.433646e-01 -4.043175e-01 1.841858e-01 1.523912e-01 -1.021191e-01 3.589483e-02 -7.679340e-01 1.970461e-01 4.199118e-01 6.003251e-02 -6.490403e-02 -2.775270e-01 -6.249774e-02 -4.631969e-01 2.948155e-02 9.006005e-02 7.009192e-02 -1.043725e-01 -9.625396e-02 -7.461836e-02 1.305917e-01 -4.130117e-02 7.411888e-02
<VARIANCE> 39
 1.324550e+01 2.013000e+01 1.427396e+01 2.821937e+01 3.180363e+01 2.632763e+01 2.489240e+01 2.125507e+01 2.335084e+01 2.528902e+01 1.581336e+01 1.447554e+01 1.306728e+00 1.184822e+00 1.792572e+00 1.567837e+00 3.008002e+00 3.089206e+00 3.170943e+00 2.617799e+00 2.743510e+00 2.264881e+00 2.288173e+00 2.121575e+00 1.424557e+00 5.600411e-02 2.593386e-01 3.670464e-01 2.133296e-01 4.291173e-01 6.828316e-01 6.407128e-01 5.221160e-01 4.012726e-01 4.672671e-01 5.052323e-01 3.632838e-01 2.842800e-01 1.440302e-02
<GCONST> 9.968465e+01
<MIXTURE> 3 5.096161e-02
<MEAN> 39
 -1.825703e+00 1.861879e+00 -4.437700e+00 -4.203025e-01 -1.036787e+00 1.289027e+00 5.981811e-01 2.513262e+00 2.399437e+00 3.738689e+00 5.024425e+00 3.125889e+00 1.466905e+01 4.131531e-02 -1.256693e+00 -2.898788e-01 -7.128525e-01 2.095652e-01 3.442829e-01 3.921006e-02 -6.568919e-01 -3.777471e-01 -7.515314e-02 -1.225609e-01 -1.053311e-01 1.052661e-01 -1.897088e-01 -7.643647e-01 -3.666724e-02 -4.634213e-01 8.582997e-02 4.654505e-02 1.974899e-02 -3.772563e-01 -2.280909e-01 -9.513493e-02 -3.809388e-01 -3.555929e-01 9.821140e-02
<VARIANCE> 39
 1.353470e+00 3.434111e+00 4.512842e+00 4.797462e+00 4.906765e+00 8.255688e+00 8.286842e+00 1.006964e+01 7.067066e+00 6.021657e+00 5.045806e+00 8.002622e+00 3.397910e-01 1.909106e-01 1.224736e+00 4.124231e-01 8.946269e-01 6.246987e-01 1.252575e+00 9.343140e-01 1.249144e+00 1.227728e+00 9.704931e-01 1.359821e+00 1.261587e+00 1.853031e-02 4.802217e-02 1.592496e-01 1.641119e-01 2.022544e-01 2.091830e-01 2.765654e-01 2.468748e-01 2.225321e-01 1.928594e-01 2.838224e-01 2.467837e-01 2.207254e-01 4.565002e-03
<GCONST> 5.973477e+01
<MIXTURE> 4 5.055985e-02
<MEAN> 39
 -3.339080e+00 -3.742713e+00 -5.170117e-02 -2.465775e+00 2.148484e+00 -1.240410e+00 -5.804533e+00 1.590158e+00 3.381447e+00 4.941341e+00 -2.118532e+00 -4.433713e+00 1.912992e+01 -1.257451e-01 -1.568621e+00 -3.071560e+00 -2.422799e+00 1.697440e+00 1.386922e+00 -3.231527e-01 -1.013547e+00 1.108940e+00 1.626245e-01 5.692856e-01 -4.169903e-01 -3.255334e-01 3.953842e-02 4.619079e-01 4.881386e-01 1.547696e-01 -5.680990e-01 1.048612e-01 5.499572e-01 -3.438208e-01 -6.781879e-01 -3.410552e-01 4.897256e-01 3.720697e-01 8.868194e-02
<VARIANCE> 39
 1.002376e+01 2.219693e+01 1.128412e+01 2.430862e+01 2.998718e+01 5.921591e+01 3.452355e+01 2.870396e+01 3.322765e+01 3.583390e+01 2.836791e+01 1.670041e+01 1.346261e+00 3.610125e-01 8.072149e-01 1.112947e+00 1.793696e+00 2.451444e+00 2.898079e+00 2.939274e+00 2.386785e+00 2.699823e+00 3.451620e+00 2.496735e+00 2.445778e+00 4.977030e-02 5.719261e-02 1.059722e-01 1.749454e-01 2.925028e-01 3.092140e-01 5.457206e-01 3.471408e-01 4.072302e-01 3.977364e-01 5.469145e-01 4.158388e-01 3.067170e-01 6.695705e-03
<GCONST> 9.462022e+01
<MIXTURE> 5 2.983784e-02
<MEAN> 39
 -1.729870e+00 -4.538006e+00 -3.251892e+00 -1.753058e+00 -2.796656e+00 -2.652286e+00 -6.192711e+00 -3.516653e+00 5.927745e-01 6.576043e+00 7.346561e+00 1.152234e+00 1.775471e+01 3.339459e-01 -6.978707e-01 -1.993305e+00 -3.212605e+00 -2.958065e-01 9.514158e-01 1.081503e+00 -8.949272e-02 -9.852367e-02 -5.216429e-01 7.171620e-01 1.152252e+00 -2.208820e-01 -2.020489e-01 1.683280e-01 4.887098e-01 2.768505e-01 -1.025433e-02 -7.143994e-02 7.564242e-01 6.925879e-01 -2.278318e-01 -1.054978e+00 -5.654500e-01 9.264463e-03 1.083651e-01
<VARIANCE> 39
 6.242815e+00 9.187845e+00 2.095897e+01 4.069745e+01 2.886599e+01 1.549157e+01 1.079995e+01 2.670718e+01 1.863290e+01 1.776135e+01 3.151203e+01 2.062714e+01 2.007576e+00 5.347859e-01 4.117353e-01 6.976405e-01 1.906600e+00 1.065966e+00 2.024351e+00 1.986787e+00 4.030683e+00 7.274532e-01 4.405870e+00 2.610505e+00 1.893153e+00 7.139134e-02 5.740400e-02 8.988830e-02 1.019484e-01 3.346753e-01 3.673591e-01 2.509513e-01 1.845598e-01 6.758726e-01 2.516496e-01 4.129376e-01 3.835928e-01 2.969632e-01 5.802698e-03
<GCONST> 8.626696e+01
<MIXTURE> 6 6.912176e-02
<MEAN> 39
 -1.400993e+00 -1.399612e+00 -4.142576e+00 -1.039372e+01 -1.568380e+00 1.685854e+00 -1.013684e+00 -2.910683e+00 -1.595654e+00 -2.510599e+00 7.397659e-01 1.529709e-01 1.910149e+01 -1.124327e+00 -1.203249e+00 -2.264591e-01 -4.003977e-01 2.165367e-01 -4.068005e-02 9.986886e-02 1.903770e-01 2.313366e-02 -1.156185e-01 -1.002225e-02 -1.634656e-01 -3.003179e-01 3.673414e-01 1.908426e-01 -1.568898e-01 -5.275097e-02 -8.643407e-02 -2.006488e-01 5.828466e-02 1.229120e-01 9.065275e-02 1.023510e-01 2.560591e-01 -2.982614e-02 1.286590e-01
<VARIANCE> 39
 1.051182e+01 2.508941e+01 1.406939e+01 2.108729e+01 5.161650e+01 3.945447e+01 3.965441e+01 3.803639e+01 4.168241e+01 3.502398e+01 2.484465e+01 2.411751e+01 9.181162e-01 3.276779e-01 7.214763e-01 8.945096e-01 1.994756e+00 1.314613e+00 1.662540e+00 2.860782e+00 1.736332e+00 1.917495e+00 1.457611e+00 1.653451e+00 1.212162e+00 3.095655e-02 6.097544e-02 1.172163e-01 1.596826e-01 2.110498e-01 2.878886e-01 3.587417e-01 3.622435e-01 2.347191e-01 3.150195e-01 2.943780e-01 3.450227e-01 2.196249e-01 3.558692e-03
<GCONST> 8.758559e+01
<MIXTURE> 7 3.934049e-02
<MEAN> 39
 -2.508351e+00 3.438657e+00 -2.868045e+00 -1.260054e+00 -2.503884e+00 1.485926e-01 1.974556e+00 2.510806e+00 2.563121e+00 3.206368e+00 1.802809e+00 -5.292974e-01 1.437791e+01 4.295496e-01 -8.799850e-01 -2.906219e-01 -1.286643e+00 -9.186834e-01 -7.151979e-01 -6.748680e-01 -3.569946e-01 -4.238317e-01 -4.466633e-01 8.201843e-01 1.958943e-01 1.547533e-01 -2.578049e-02 -4.150957e-01 -2.311341e-01 -7.355748e-01 1.897168e-02 -1.459537e-01 -2.327799e-01 -2.593803e-01 -4.632195e-01 -5.836067e-01 4.568310e-01 1.245287e-01 1.186234e-01
<VARIANCE> 39
 1.886239e+00 2.961843e+00 8.648187e+00 3.689595e+00 1.201854e+01 6.679600e+00 7.044888e+00 8.344013e+00 1.336139e+01 7.177797e+00 8.850734e+00 9.099474e+00 5.114266e-01 4.267993e-01 2.960218e-01 8.065727e-01 1.376723e+00 1.266250e+00 1.215286e+00 1.289969e+00 1.715084e+00 2.112971e+00 2.115205e+00 3.009826e+00 1.151061e+00 2.951369e-02 9.877370e-02 6.680790e-02 1.093658e-01 1.330388e-01 2.870961e-01 1.915997e-01 2.497593e-01 3.542075e-01 2.677436e-01 2.419964e-01 4.504952e-01 2.586749e-01 4.596875e-03
<GCONST> 6.723438e+01
<MIXTURE> 8 5.745806e-02
<MEAN> 39
 -5.228222e+00 -1.279249e+00 8.716801e-01 -2.121642e+00 -5.608036e+00 -1.032955e+01 -2.224361e+00 2.207625e+00 3.878070e+00 2.928057e+00 -1.674755e+00 5.246972e-01 1.870935e+01 2.908030e-02 -1.661075e+00 -3.489505e+00 -2.232190e+00 3.316598e-01 2.334916e-01 -9.250320e-01 -1.111136e-01 1.682538e+00 9.368055e-01 1.217634e-01 -6.321087e-01 -3.511237e-01 3.251611e-02 2.913170e-01 2.360151e-01 -1.102203e-02 5.040722e-01 7.047271e-01 2.610553e-01 -2.964829e-01 -5.949141e-01 -7.846487e-02 6.706639e-02 -2.452965e-01 6.623366e-02
<VARIANCE> 39
 4.328023e+00 1.571820e+01 2.803682e+01 3.193072e+01 2.243984e+01 2.624272e+01 3.418412e+01 2.085501e+01 2.793631e+01 3.195850e+01 3.094039e+01 2.304923e+01 1.076661e+00 4.520208e-01 9.061114e-01 1.332579e+00 2.081899e+00 2.693624e+00 3.292316e+00 2.496497e+00 2.644538e+00 3.472425e+00 1.858679e+00 1.965662e+00 2.589214e+00 5.250987e-02 8.421154e-02 1.499155e-01 3.277834e-01 2.843679e-01 3.488624e-01 2.783099e-01 3.733929e-01 3.708415e-01 5.313466e-01 4.414931e-01 2.994260e-01 5.067620e-01 5.089763e-03
<GCONST> 9.415227e+01
<MIXTURE> 9 5.343692e-02
<MEAN> 39
 -8.163039e-02 -9.286435e-01 -5.189967e+00 -8.645595e+00 1.094231e+00 -2.539006e+00 -3.286407e-01 -3.060071e+00 -1.101716e+00 9.724945e+00 3.121707e-01 -7.360631e+00 1.940677e+01 -1.317075e+00 -1.663887e+00 -1.630904e+00 -1.532635e+00 -3.061367e-01 -2.186495e-02 1.103540e+00 9.322434e-01 1.376729e+00 -6.835040e-01 1.901039e-01 -4.347817e-01 -3.440298e-01 1.606802e-01 1.617103e-01 3.180183e-01 3.040879e-01 -1.066258e-01 6.567577e-02 -3.270056e-01 -7.460257e-02 -3.494930e-01 -5.342796e-01 -1.363113e-01 3.869917e-01 6.625827e-02
<VARIANCE> 39
 6.941244e+00 2.610315e+01 1.733240e+01 2.886788e+01 3.044183e+01 4.087132e+01 2.347672e+01 3.014274e+01 5.074352e+01 2.875857e+01 4.392349e+01 1.545834e+01 5.427523e-01 3.312201e-01 7.181919e-01 1.309264e+00 2.037703e+00 2.174705e+00 2.899582e+00 2.162121e+00 2.442447e+00 1.910284e+00 3.128496e+00 2.121027e+00 2.070238e+00 4.807099e-02 7.618305e-02 1.215407e-01 1.789726e-01 2.799114e-01 2.675255e-01 3.543277e-01 1.738371e-01 5.705228e-01 5.165963e-01 4.121703e-01 3.174581e-01 2.149247e-01 3.458559e-03
<GCONST> 9.101715e+01
<MIXTURE> 10 6.353640e-02
<MEAN> 39
 -8.548614e-01 3.645782e+00 -1.807918e+00 -8.856492e+00 -2.534613e+00 2.684797e+00 1.705965e+00 3.469359e-01 -1.530202e+00 -4.354399e+00 2.928797e+00 3.019970e+00 1.948455e+01 -1.461414e+00 -1.271995e+00 -1.383052e+00 -2.102716e+00 2.797119e-01 9.339117e-02 6.424242e-01 -9.135036e-01 1.197872e+00 1.240560e-01 1.321535e-01 9.744218e-01 -4.473317e-01 2.745695e-01 -2.012728e-01 2.915975e-01 3.869691e-01 -3.226143e-01 -4.897654e-02 -1.925524e-01 1.912433e-01 2.400066e-03 -3.133907e-01 7.596049e-02 -3.723671e-01 9.395093e-02
<VARIANCE> 39
 1.037860e+01 1.468727e+01 1.982554e+01 2.114712e+01 3.691838e+01 4.918613e+01 2.401233e+01 6.005221e+01 2.033794e+01 3.672303e+01 3.964710e+01 2.059338e+01 8.426545e-01 8.863317e-01 1.011773e+00 1.392856e+00 1.654832e+00 3.680722e+00 2.754056e+00 2.712496e+00 2.497420e+00 4.542427e+00 3.879028e+00 3.776997e+00 2.378307e+00 3.670795e-02 1.006608e-01 1.491429e-01 1.770144e-01 3.458014e-01 2.695443e-01 4.848571e-01 3.627871e-01 5.323234e-01 4.641930e-01 4.495462e-01 4.304186e-01 2.946937e-01 9.727695e-03
<GCONST> 9.844902e+01
<MIXTURE> 11 5.014006e-02
<MEAN> 39
 -1.037439e+00 -1.585333e+00 -5.330890e+00 -5.448240e+00 1.203483e+00 -3.767400e+00 -6.520238e+00 -7.153657e+00 -2.645787e+00 1.610470e+00 6.670751e+00 -8.352638e-02 1.976405e+01 -3.813964e-02 -1.225175e+00 -2.846887e+00 -3.860194e+00 -8.281966e-01 2.749386e-01 1.527292e-01 -8.076520e-01 3.433773e-01 1.331208e-01 -7.587776e-02 1.028802e+00 -2.661268e-01 -2.154501e-01 2.053681e-01 6.172277e-01 3.673391e-01 -7.244388e-02 2.077257e-01 7.701330e-01 9.450977e-01 2.704738e-01 -6.027716e-01 -5.016791e-01 1.555283e-01 1.822496e-02
<VARIANCE> 39
 2.278348e+01 1.288319e+01 2.815943e+01 3.078313e+01 7.770378e+01 4.057390e+01 4.297344e+01 2.565135e+01 3.632022e+01 3.799411e+01 2.686267e+01 1.924707e+01 1.221341e+00 1.001736e+00 1.155312e+00 1.617497e+00 2.570493e+00 4.507661e+00 3.336650e+00 3.947846e+00 1.911771e+00 2.971521e+00 2.892254e+00 2.627799e+00 2.033695e+00 3.711119e-02 1.339518e-01 1.622861e-01 2.647167e-01 4.086328e-01 8.142852e-01 8.399327e-01 7.173764e-01 3.001946e-01 6.852641e-01 6.302084e-01 2.929728e-01 2.807418e-01 5.763302e-03
<GCONST> 1.032374e+02
<MIXTURE> 12 7.031561e-02
<MEAN> 39
 -2.001030e+00 8.971752e-01 -3.610952e+00 -1.555707e+00 -1.481608e+00 1.317822e+00 -1.197847e-01 2.975613e-01 -7.157046e-01 -9.524448e-01 9.282066e-01 6.785290e-01 1.437558e+01 -4.597533e-01 -1.994315e+00 2.941550e-01 -2.153492e+00 -2.157801e-01 3.089842e-01 3.508929e-02 -4.973704e-01 -4.520828e-01 -6.779920e-01 -6.681576e-02 -2.684253e-01 3.011795e-01 -3.556658e-01 -6.041456e-01 -1.106242e-01 -5.663803e-01 -1.752445e-01 -2.069108e-01 4.868729e-02 -1.267174e-01 2.245187e-02 7.752403e-02 1.415702e-01 -1.589666e-01 1.705914e-01
<VARIANCE> 39
 1.487324e+00 5.116306e+00 5.358000e+00 7.885230e+00 1.027825e+01 9.469189e+00 7.528565e+00 8.698088e+00 1.052749e+01 1.517070e+01 8.486560e+00 9.716174e+00 3.490430e-01 7.029210e-01 1.081797e+00 9.197192e-01 1.441089e+00 2.080452e+00 1.920702e+00 2.056596e+00 2.127224e+00 2.002976e+00 2.303038e+00 1.574148e+00 1.225386e+00 3.555773e-02 6.950356e-02 1.369580e-01 1.315905e-01 1.610787e-01 2.340283e-01 3.229224e-01 2.652349e-01 2.824102e-01 2.658065e-01 4.116802e-01 2.251486e-01 2.285466e-01 6.700044e-03
<GCONST> 7.249364e+01
<MIXTURE> 13 5.307249e-02
<MEAN> 39
 -2.404394e+00 1.432674e+00 -3.407628e+00 5.694456e-01 -2.205589e+00 -1.656945e-03 1.039877e+00 1.150348e+00 1.517569e-01 6.750540e-01 1.134425e+00 6.862457e-01 1.476416e+01 -6.412994e-02 -8.571733e-01 1.068825e-01 -1.280546e+00 3.064668e-01 8.564468e-01 -6.065369e-01 -3.766026e-01 -4.576039e-01 -1.040134e+00 -4.038669e-02 7.744546e-02 6.098992e-02 -2.807474e-01 -6.523950e-01 -4.279940e-03 -7.990340e-01 1.199489e-01 2.428816e-01 -1.338377e-01 -1.525210e-01 2.349801e-02 -2.308365e-01 3.575929e-02 -2.040541e-02 6.143278e-02
<VARIANCE> 39
 1.991445e+00 3.394120e+00 5.733657e+00 4.328157e+00 7.291540e+00 9.539432e+00 8.725647e+00 8.260011e+00 8.983739e+00 4.184077e+00 4.180766e+00 8.639692e+00 8.196466e-01 1.851322e-01 4.627651e-01 7.108326e-01 9.850802e-01 1.133375e+00 1.253159e+00 1.639036e+00 1.432505e+00 1.233633e+00 1.199928e+00 9.546930e-01 6.873373e-01 1.605655e-02 4.589739e-02 9.247610e-02 1.163397e-01 1.564197e-01 2.164594e-01 2.067502e-01 4.147472e-01 3.033527e-01 3.108124e-01 2.486442e-01 1.493928e-01 2.440371e-01 3.229897e-03
<GCONST> 6.030891e+01
<MIXTURE> 14 5.933680e-02
<MEAN> 39
 -5.318682e+00 2.635782e+00 -2.873131e+00 -6.729115e-01 -1.631271e+00 4.843582e-01 1.625176e+00 -7.667890e-01 1.492144e+00 -5.166960e-01 9.095778e-01 6.192185e-01 1.410645e+01 3.783283e-01 -1.279141e+00 -2.414403e-01 -1.686370e+00 -1.349283e-03 4.602173e-01 -7.566537e-01 -4.082616e-01 6.800738e-01 4.807264e-01 -5.113646e-01 -4.647798e-01 1.869660e-01 7.427221e-02 -7.520679e-01 -1.393000e-01 -5.682287e-01 6.002506e-02 -1.372156e-02 -4.155113e-01 -1.073092e-01 -2.685330e-02 2.439152e-01 -4.555814e-02 -2.174146e-01 1.438428e-01
<VARIANCE> 39
 8.314563e+00 8.361522e+00 7.296259e+00 1.328574e+01 1.269320e+01 1.374758e+01 1.387359e+01 1.806653e+01 2.344192e+01 1.117285e+01 1.641624e+01 1.125736e+01 3.303760e-01 6.525576e-01 1.325327e+00 7.096649e-01 1.720304e+00 1.275025e+00 2.343475e+00 2.115780e+00 2.526537e+00 1.463490e+00 1.413140e+00 1.101424e+00 1.179261e+00 3.307806e-02 1.197005e-01 9.806023e-02 1.817056e-01 3.753684e-01 2.951162e-01 3.053776e-01 3.300637e-01 4.685800e-01 3.664472e-01 2.896953e-01 3.271635e-01 2.027083e-01 3.275651e-03
<GCONST> 7.918254e+01
<MIXTURE> 15 4.337198e-02
<MEAN> 39
 -2.272545e+00 2.731716e+00 -3.484134e+00 -1.400080e+01 -4.416777e+00 4.783205e+00 2.895381e+00 -1.872321e+00 1.756064e+00 -2.713417e+00 7.655540e-01 -2.948267e+00 1.830187e+01 -1.726465e+00 -1.787563e+00 -1.140641e+00 -5.417457e-01 1.422193e+00 1.238710e+00 2.196365e-01 -5.756447e-01 8.440603e-02 -9.010556e-01 6.209348e-01 -5.887190e-01 -3.956043e-01 4.514011e-01 1.163538e-01 1.756601e-01 1.916857e-01 -4.499946e-01 -6.346982e-01 -3.044419e-01 1.820819e-01 -3.558534e-01 3.361115e-01 -2.109917e-01 8.130565e-02 1.499901e-01
<VARIANCE> 39
 6.933961e+00 2.074732e+01 1.625612e+01 2.597006e+01 4.029542e+01 2.886665e+01 2.375427e+01 2.466210e+01 2.861524e+01 3.834613e+01 3.046321e+01 2.769387e+01 7.519842e-01 4.654069e-01 7.647181e-01 1.166225e+00 2.207075e+00 1.482516e+00 2.661994e+00 1.747155e+00 2.640459e+00 1.824368e+00 2.252813e+00 1.902775e+00 1.833058e+00 2.681640e-02 6.725323e-02 1.214823e-01 1.970271e-01 3.307996e-01 4.804727e-01 4.263405e-01 2.729638e-01 4.088350e-01 4.355131e-01 7.238780e-01 4.379686e-01 3.220812e-01 3.072098e-03
<GCONST> 9.122017e+01
<MIXTURE> 16 4.876944e-02
<MEAN> 39
 -3.138213e+00 3.710601e+00 -5.143377e+00 -1.229175e+01 2.383948e+00 4.853004e+00 -3.972632e+00 -3.748226e+00 4.376503e+00 5.153096e+00 2.336185e+00 -1.545800e+00 1.959228e+01 -1.131959e+00 -1.611526e+00 -1.430781e+00 -1.114645e+00 4.352944e-02 -2.155237e-01 -2.862775e-01 -6.362838e-03 4.364108e-01 -1.399566e-01 -1.193392e-02 -9.666162e-01 -4.351377e-01 -9.427841e-03 2.468908e-02 1.758105e-01 1.967948e-01 -1.023137e-01 -2.422222e-01 -9.250087e-02 -1.491255e-01 -5.324762e-01 -3.100750e-01 -4.078980e-01 1.087004e-01 -9.450950e-03
<VARIANCE> 39
 5.853853e+00 1.330333e+01 1.703522e+01 3.144005e+01 4.309486e+01 2.289600e+01 5.039437e+01 2.015920e+01 2.757667e+01 3.450084e+01 2.055804e+01 2.515969e+01 1.957996e+00 6.736000e-01 7.188841e-01 1.042679e+00 1.436005e+00 1.807404e+00 1.227848e+00 2.513974e+00 2.142875e+00 2.458952e+00 3.085866e+00 1.972734e+00 1.579508e+00 3.102754e-02 9.898273e-02 1.278743e-01 1.387513e-01 2.138665e-01 3.018431e-01 2.364826e-01 3.495350e-01 3.568873e-01 3.277220e-01 3.161567e-01 2.960222e-01 2.108364e-01 8.963783e-03
<GCONST> 8.939794e+01
<MIXTURE> 17 4.251544e-02
<MEAN> 39
 -2.322256e+00 3.366636e+00 -4.707016e+00 -4.268906e+00 -1.670801e+00 3.616182e-01 8.406913e-01 1.348191e+00 -7.389646e-02 -2.731305e-01 2.123223e-01 -3.247964e-01 1.476734e+01 -2.189354e-01 -7.496399e-01 -7.116310e-01 -1.993988e+00 7.178913e-01 1.562814e-01 -1.180611e-01 -8.187499e-01 1.341502e-01 -3.059819e-01 1.406174e-01 -4.070618e-01 1.229434e-01 -3.051566e-01 -2.411486e-01 -2.598096e-01 -2.936682e-01 2.837740e-01 -1.018245e-01 -5.979195e-02 -3.060873e-01 2.776998e-01 7.938246e-02 1.816725e-01 -1.694167e-01 7.843941e-02
<VARIANCE> 39
 2.089713e+00 1.924261e+00 8.465432e+00 4.519666e+00 1.612206e+01 9.651366e+00 1.267076e+01 1.027233e+01 8.389895e+00 1.029058e+01 1.121871e+01 6.627408e+00 8.321881e-01 3.894582e-01 3.269325e-01 9.983027e-01 1.159857e+00 2.952465e+00 1.676474e+00 1.336018e+00 1.917523e+00 1.881777e+00 1.799156e+00 1.977201e+00 1.682699e+00 1.772705e-02 4.388688e-02 5.090745e-02 1.548618e-01 1.161271e-01 2.743410e-01 2.013433e-01 2.064427e-01 2.615416e-01 3.260893e-01 2.486087e-01 4.118413e-01 2.015518e-01 5.575634e-03
<GCONST> 6.809939e+01
<MIXTURE> 18 3.709574e-02
<MEAN> 39
 -2.374648e+00 3.122428e+00 -3.215971e+00 -1.092576e+01 1.025646e+00 6.901913e+00 -1.226263e+00 1.303942e+00 -3.476018e+00 -5.841798e+00 1.656957e+00 1.922605e+00 1.895027e+01 -1.329077e+00 -1.450698e+00 -1.615802e+00 -2.232226e+00 9.950459e-01 1.826254e+00 -6.177310e-01 -1.727392e+00 -3.892141e-01 -1.254057e-01 -2.107203e-01 2.672860e-01 -4.489660e-01 5.498708e-02 -1.050178e-02 4.037496e-01 5.486076e-01 -3.280279e-01 -5.527092e-01 2.686564e-02 -6.136235e-02 3.518611e-01 4.222393e-01 7.272223e-02 -2.687367e-01 1.963709e-02
<VARIANCE> 39
 8.242161e+00 1.586686e+01 1.633862e+01 2.588433e+01 2.536064e+01 2.564557e+01 5.494242e+01 2.866990e+01 6.414203e+01 1.732984e+01 4.112987e+01 1.960057e+01 1.390293e+00 9.692526e-01 1.723603e+00 1.393487e+00 3.213038e+00 3.446373e+00 3.058168e+00 4.986240e+00 2.284789e+00 2.492594e+00 3.720055e+00 3.528724e+00 2.841680e+00 3.136327e-02 7.676567e-02 1.043285e-01 1.611253e-01 3.705510e-01 5.508141e-01 5.642185e-01 8.491925e-01 6.181433e-01 6.662640e-01 6.419377e-01 5.457637e-01 3.460181e-01 9.906777e-03
<GCONST> 1.017541e+02
<MIXTURE> 19 3.627988e-02
<MEAN> 39
 -3.134941e-01 5.616880e+00 -1.440365e+00 -1.043106e+01 -1.070565e+01 -1.619934e+00 1.641569e+00 3.560845e+00 8.910550e-01 -1.842956e+00 -5.531188e-01 -2.110297e+00 1.870945e+01 -1.297398e+00 -1.362380e+00 -1.293875e+00 -1.843859e+00 7.023283e-02 1.088770e+00 1.713862e+00 -9.109504e-01 -2.421298e-02 -1.196041e+00 2.990922e-01 5.629764e-01 -2.726457e-01 2.056015e-01 -1.021864e-01 1.416826e-01 3.083353e-01 2.516038e-01 1.151239e-01 -3.824329e-01 -2.751275e-01 -4.014240e-01 5.216542e-02 3.242013e-01 1.653188e-01 9.687419e-02
<VARIANCE> 39
 7.448740e+00 1.299173e+01 1.670051e+01 1.907389e+01 4.508913e+01 3.170037e+01 2.516824e+01 1.998980e+01 5.043156e+01 2.894451e+01 2.464950e+01 2.455604e+01 2.181241e+00 5.449702e-01 5.144130e-01 5.179064e-01 8.180200e-01 1.483891e+00 1.679181e+00 2.352809e+00 2.973984e+00 3.723940e+00 2.054813e+00 1.962880e+00 1.635668e+00 3.205918e-02 8.635823e-02 1.022546e-01 9.074665e-02 2.658578e-01 3.093148e-01 4.498336e-01 5.128463e-01 4.035823e-01 4.855646e-01 3.595192e-01 3.841840e-01 1.997554e-01 4.998283e-03
<GCONST> 8.884706e+01
<MIXTURE> 20 4.804000e-02
<MEAN> 39
 -8.843855e-01 -9.908375e-01 -1.843771e+00 -2.473316e+00 -2.226353e+00 2.840517e-01 -4.427255e+00 -3.757740e-01 -4.312178e+00 2.588784e-01 9.750685e+00 2.075141e+00 1.892703e+01 -5.723890e-01 -1.361024e+00 -1.681273e+00 -2.440639e+00 -9.151998e-01 -5.496346e-01 5.219374e-01 -3.980810e-01 6.071028e-01 4.693018e-01 7.022040e-01 1.438530e-01 -3.484953e-01 2.800117e-02 1.156457e-01 2.684526e-01 1.735818e-01 8.629993e-02 1.372053e-01 1.885315e-01 2.454717e-01 2.141561e-01 -5.525219e-01 -6.313307e-01 -2.594118e-01 5.610471e-02
<VARIANCE> 39
 1.085184e+01 1.228263e+01 2.837392e+01 2.704647e+01 2.869077e+01 2.367549e+01 1.957339e+01 2.289894e+01 3.215115e+01 4.921137e+01 2.160356e+01 2.604824e+01 1.918532e+00 2.916338e-01 1.008637e+00 2.737932e+00 1.977140e+00 1.612539e+00 1.325375e+00 2.231147e+00 2.065291e+00 2.635849e+00 3.365532e+00 4.613246e+00 1.904690e+00 2.655746e-02 4.144794e-02 1.640523e-01 1.700670e-01 2.747821e-01 2.167605e-01 2.672078e-01 3.651114e-01 1.943475e-01 3.678492e-01 3.509625e-01 2.946003e-01 2.815285e-01 6.004153e-03
<GCONST> 9.046936e+01
<STATE> 3
<SID> 52
<NUMMIXES> 20
<MIXTURE> 1 4.244726e-02
<MEAN> 39
 -3.826512e+00 4.762713e+00 -3.008300e+00 -1.219058e+01 -2.190853e+00 5.024820e-02 4.519366e+00 -1.156188e+00 -3.285033e+00 -4.855364e+00 1.090194e+00 2.595568e+00 1.932018e+01 -8.913499e-03 -1.110575e+00 -8.732133e-01 -8.722501e-01 2.649713e-01 -3.790893e-01 -2.565636e-01 -6.323201e-01 3.418179e-01 -2.512566e-01 1.095520e+00 9.377598e-01 2.643720e-02 7.998629e-01 1.604245e-01 1.949411e-01 4.050483e-01 -1.371972e-01 -6.443658e-01 -3.891016e-01 -8.107253e-02 3.462438e-02 2.771884e-02 4.330685e-01 -2.013874e-01 2.029453e-01
<VARIANCE> 39
 2.053523e+01 1.456277e+01 2.599026e+01 2.640314e+01 4.469318e+01 6.396408e+01 4.139099e+01 4.110335e+01 2.870891e+01 3.703266e+01 3.119000e+01 2.215619e+01 2.295192e+00 5.787590e-01 9.537536e-01 6.073928e-01 1.347293e+00 1.214966e+00 1.767494e+00 2.752987e+00 2.060535e+00 3.089310e+00 1.761834e+00 1.900490e+00 1.626492e+00 2.416203e-02 2.476028e-01 2.329122e-01 1.520252e-01 4.992851e-01 4.274200e-01 5.424339e-01 7.642891e-01 6.368657e-01 3.856777e-01 6.264166e-01 4.624548e-01 3.708379e-01 1.406197e-02
<GCONST> 9.938849e+01
<MIXTURE> 2 4.743234e-02
<MEAN> 39
 -5.750713e-02 -3.484636e+00 -8.044202e+00 -3.789222e+00 -2.489600e+00 2.720263e+00 -1.569110e-01 2.064625e+00 -2.590052e+00 -2.729389e+00 2.605350e+00 3.800837e+00 1.607937e+01 1.706285e-01 -9.466071e-01 -3.607591e-01 -1.197457e+00 -3.941606e-01 -5.710526e-01 -3.231726e-01 3.362235e-01 -8.183892e-01 -2.857835e-01 -6.467663e-02 7.319756e-01 1.304426e-01 -3.625320e-02 2.852643e-01 1.601453e-01 7.764494e-02 -1.043997e-01 -4.447794e-01 -1.909929e-01 9.848890e-02 -2.366209e-02 3.820835e-01 -7.637781e-02 -2.334982e-01 1.282850e-01
<VARIANCE> 39
 2.260357e+00 9.453441e+00 4.765308e+00 1.247937e+01 1.494234e+01 1.065106e+01 1.951706e+01 1.160089e+01 1.687521e+01 2.173783e+01 2.685366e+01 1.186189e+01 4.057319e-01 3.389989e-01 1.098012e+00 7.755096e-01 1.307737e+00 1.082463e+00 1.529719e+00 1.695858e+00 1.319981e+00 1.785342e+00 2.751442e+00 2.744497e+00 1.326985e+00 2.942677e-02 4.969959e-02 1.270641e-01 2.154973e-01 2.509325e-01 2.168664e-01 3.251862e-01 2.661106e-01 2.534618e-01 3.222746e-01 3.589623e-01 3.401962e-01 2.035750e-01 1.900839e-02
<GCONST> 7.765755e+01
<MIXTURE> 3 3.773823e-02
<MEAN> 39
 -2.265799e+00 -6.590780e+00 -4.550824e+00 -7.532152e+00 -1.772987e+00 3.063005e-02 -5.576527e+00 -5.979411e+00 1.065653e+00 6.454112e+00 2.703807e+00 -1.710143e+00 1.939456e+01 1.214299e-01 -3.581347e-01 -1.065003e+00 -1.636461e+00 -1.261226e-02 7.712682e-01 1.264773e+00 -5.520275e-01 -3.143925e-01 -3.789044e-01 2.848890e-01 3.754501e-02 1.101531e-02 1.689449e-01 5.677564e-01 4.483629e-01 5.569468e-01 -2.515568e-01 -2.435343e-01 2.457946e-01 4.292138e-01 -8.628964e-02 -3.796529e-01 3.602133e-03 1.851155e-01 9.308478e-02
<VARIANCE> 39
 1.004566e+01 3.075170e+01 2.393231e+01 1.009743e+01 4.543927e+01 5.607973e+01 7.174107e+01 3.710854e+01 3.208578e+01 2.356643e+01 1.710737e+01 2.111875e+01 6.593768e-01 2.559973e-01 6.379622e-01 7.172793e-01 2.133463e+00 1.063448e+00 1.627628e+00 2.097810e+00 1.319398e+00 2.506360e+00 1.091918e+00 1.451410e+00 1.642312e+00 1.991002e-02 8.843583e-02 1.115884e-01 2.032050e-01 1.719749e-01 3.645546e-01 6.742454e-01 4.740931e-01 4.809479e-01 5.163075e-01 4.113807e-01 2.125910e-01 2.360349e-01 7.560621e-03
<GCONST> 8.858807e+01
<MIXTURE> 4 5.696728e-02
<MEAN> 39
 -2.353189e+00 -4.315690e+00 -4.704467e+00 -1.384846e+01 3.959020e+00 7.502463e+00 -3.222309e+00 -5.579728e+00 -1.066087e+00 1.881912e+00 1.891554e+00 -1.483933e+00 1.783726e+01 -6.947557e-01 -1.467861e+00 -2.209751e-01 -3.827501e-02 -1.735354e-01 -3.568815e-01 3.619982e-01 -4.300023e-01 9.935954e-01 6.428236e-01 1.662534e-01 -6.857936e-01 -1.210774e-01 3.135004e-01 3.885980e-01 1.081247e-01 4.044648e-01 -6.348022e-01 -4.536352e-01 1.287471e-01 3.636099e-01 1.280863e-01 2.841037e-02 -1.119554e-01 2.368485e-02 1.975622e-01
<VARIANCE> 39
 5.590690e+00 1.158692e+01 9.142389e+00 1.356326e+01 4.176101e+01 2.524417e+01 2.442028e+01 1.962309e+01 3.431570e+01 4.553538e+01 2.743735e+01 2.994091e+01 1.459722e+00 2.947071e-01 8.069755e-01 1.257161e+00 1.329099e+00 1.940239e+00 1.957209e+00 2.049639e+00 2.147996e+00 1.800046e+00 1.937370e+00 1.856005e+00 1.165185e+00 5.880725e-02 1.090655e-01 1.305681e-01 2.749701e-01 2.838757e-01 3.995086e-01 3.205766e-01 3.861257e-01 2.179411e-01 3.432024e-01 4.950512e-01 3.287651e-01 2.500092e-01 6.926428e-03
<GCONST> 8.874936e+01
<MIXTURE> 5 2.683280e-02
<MEAN> 39
 -2.445842e+00 -1.277804e+00 -1.004652e+00 -9.020665e+00 -6.360251e+00 4.294650e+00 -1.453191e+00 -4.954884e+00 1.386458e+00 2.492664e+00 7.318103e-01 -2.732072e+00 1.491107e+01 5.899542e-02 -2.144100e+00 -3.245667e-01 -2.859250e+00 -7.509992e-01 -5.013184e-01 -5.110233e-01 -1.932461e+00 2.711811e-01 1.583071e+00 1.008999e+00 -3.651539e-01 4.436642e-01 3.127463e-02 1.519013e-01 -2.790784e-01 2.774475e-01 2.198728e-01 -5.942193e-01 1.677401e-01 4.026615e-01 -3.693178e-01 2.322339e-01 1.454457e-01 1.861885e-01 1.645512e-01
<VARIANCE> 39
 2.629937e+00 6.676914e+00 7.174369e+00 1.205672e+01 3.322284e+01 4.438408e+01 1.295306e+01 1.265820e+01 1.307400e+01 1.010533e+01 1.594470e+01 6.496755e+00 2.505920e-01 6.138763e-01 8.870397e-01 1.688175e+00 1.150133e+00 1.133780e+00 4.510132e+00 1.723136e+00 2.236337e+00 2.073408e+00 1.767166e+00 1.793656e+00 1.565838e+00 3.392256e-02 5.831410e-02 1.740518e-01 2.120972e-01 2.789832e-01 3.862817e-01 4.386079e-01 2.260237e-01 3.256506e-01 2.340931e-01 3.272923e-01 3.041276e-01 1.669604e-01 6.724962e-03
<GCONST> 7.916985e+01
<MIXTURE> 6 6.869471e-02
<MEAN> 39
 -2.831650e+00 1.378785e+00 -4.382470e+00 -1.345039e+01 -8.953841e+00 3.601347e+00 5.520117e+00 -5.836804e-01 1.687588e+00 -2.523932e+00 -1.406671e+00 -1.722288e+00 1.811962e+01 -5.845059e-01 -1.304998e+00 -8.800022e-01 -4.815359e-01 7.550606e-01 5.929833e-01 2.902870e-01 -8.921349e-01 -8.618533e-01 -9.666837e-02 7.893359e-01 1.077722e-01 -6.535851e-02 4.852363e-01 1.055757e-01 2.175050e-01 4.898386e-01 4.672644e-02 -7.076988e-01 -5.619277e-01 -1.148245e-01 -3.854474e-01 4.509251e-01 3.917318e-01 6.420612e-02 1.626067e-01
<VARIANCE> 39
 1.408095e+01 1.276355e+01 1.975379e+01 2.455687e+01 3.689550e+01 1.998308e+01 1.885237e+01 1.754085e+01 1.921460e+01 3.587201e+01 3.763089e+01 2.631472e+01 1.511879e+00 3.674697e-01 4.500345e-01 7.921558e-01 1.018954e+00 9.914956e-01 7.588676e-01 1.269560e+00 1.327427e+00 2.010518e+00 1.837563e+00 2.110401e+00 1.621187e+00 3.567161e-02 7.029805e-02 9.002927e-02 2.144420e-01 1.757170e-01 2.619258e-01 3.236273e-01 2.554106e-01 3.938550e-01 4.799978e-01 4.601735e-01 5.270036e-01 3.466184e-01 5.939930e-03
<GCONST> 8.528919e+01
<MIXTURE> 7 5.747723e-02
<MEAN> 39
 -2.686492e+00 -1.746963e+00 -8.426427e+00 -1.151182e+01 -3.163315e-01 -3.843665e+00 -4.345456e+00 -4.155926e+00 1.710452e-01 -1.632688e+00 6.105065e+00 2.040256e+00 1.947105e+01 -3.845545e-01 -7.453575e-01 -9.249927e-01 -1.315545e+00 -1.060642e+00 -7.309778e-01 5.860539e-01 9.186609e-01 8.952554e-01 -1.219054e+00 -6.076927e-01 7.973107e-01 -1.319360e-01 1.671378e-01 3.925461e-01 6.671916e-01 9.494444e-01 2.086203e-01 -4.693046e-02 3.282142e-01 3.998518e-01 -2.895131e-02 -2.307561e-01 -2.252439e-02 -3.232835e-01 9.821869e-02
<VARIANCE> 39
 1.539981e+01 2.049608e+01 2.901918e+01 1.523058e+01 4.424389e+01 2.323875e+01 2.886878e+01 1.396447e+01 1.737064e+01 4.504295e+01 2.998430e+01 1.849397e+01 1.166834e+00 4.027798e-01 6.810208e-01 8.206826e-01 1.258866e+00 1.906069e+00 1.818039e+00 2.013858e+00 1.874282e+00 2.285353e+00 2.903811e+00 1.847495e+00 1.229966e+00 2.252690e-02 8.372226e-02 1.406031e-01 2.950312e-01 2.624494e-01 4.758041e-01 4.208584e-01 2.741759e-01 4.376942e-01 3.113212e-01 5.750178e-01 4.434464e-01 2.531792e-01 3.724357e-03
<GCONST> 8.959430e+01
<MIXTURE> 8 4.978594e-02
<MEAN> 39
 -7.378049e+00 8.385983e-01 -6.269103e+00 -1.300509e+01 7.428166e+00 6.686319e+00 -7.831891e+00 -4.022867e+00 5.700386e-02 -5.133626e+00 1.610239e+00 -3.957577e+00 1.816533e+01 -5.100676e-01 -5.704085e-01 -5.724587e-01 -4.465083e-02 4.892736e-02 -4.189471e-01 -1.121056e-01 -3.580922e-01 6.829422e-01 2.026259e-01 2.352811e-01 1.570072e-01 -1.585401e-01 1.329268e-01 6.453512e-02 3.473454e-02 9.754330e-02 -2.617462e-01 -5.505842e-02 2.697698e-01 2.973896e-01 2.417465e-01 1.331010e-01 -1.571532e-01 -1.766687e-01 1.002522e-01
<VARIANCE> 39
 8.328274e+00 4.782500e+00 1.386520e+01 9.903341e+00 2.725464e+01 2.389375e+01 4.099035e+01 2.249971e+01 2.852070e+01 2.718316e+01 2.797351e+01 2.869291e+01 1.563125e+00 1.522033e-01 3.799814e-01 5.869876e-01 9.512501e-01 1.308047e+00 1.215028e+00 1.220752e+00 1.378921e+00 2.016014e+00 1.295365e+00 2.060201e+00 1.061659e+00 7.960656e-02 4.136084e-02 4.654738e-02 1.708739e-01 1.453130e-01 1.279590e-01 2.303550e-01 4.001897e-01 2.607856e-01 3.204621e-01 2.043448e-01 3.789229e-01 1.659936e-01 6.789677e-03
<GCONST> 7.792366e+01
<MIXTURE> 9 6.438482e-02
<MEAN> 39
 -4.551798e+00 -3.459708e+00 -1.495514e+00 -8.434244e+00 -5.707729e-01 3.472657e+00 -3.472360e-03 -1.413847e+00 -1.616504e+00 -2.699433e+00 1.459200e+00 2.221401e+00 1.521408e+01 -8.276780e-01 -2.180759e+00 1.621667e-01 -2.565169e+00 -1.354036e-01 1.413815e-01 2.678387e-01 -4.254110e-01 -3.494675e-01 -4.250792e-01 1.457920e-01 -2.972873e-01 4.200892e-01 -2.143429e-02 1.542495e-01 -3.645424e-01 3.302523e-01 -2.559509e-01 -5.901508e-01 1.373656e-01 2.511604e-01 2.720850e-01 3.227976e-01 1.455128e-01 -2.513551e-01 1.125302e-01
<VARIANCE> 39
 2.719295e+00 1.449015e+01 1.488735e+01 1.329305e+01 2.340666e+01 1.513798e+01 2.749334e+01 2.057369e+01 1.556499e+01 1.595212e+01 1.274372e+01 1.019097e+01 5.158828e-01 7.154490e-01 1.059671e+00 9.258265e-01 1.225047e+00 2.172152e+00 1.865382e+00 2.266907e+00 2.055323e+00 1.966750e+00 1.714568e+00 1.866045e+00 2.085847e+00 5.927072e-02 5.526779e-02 1.493633e-01 1.614785e-01 2.201290e-01 2.735907e-01 3.107806e-01 4.405298e-01 3.997483e-01 3.273107e-01 2.221729e-01 3.676534e-01 3.280326e-01 3.309760e-03
<GCONST> 8.231960e+01
<MIXTURE> 10 2.775272e-02
<MEAN> 39
 -2.758294e+00 5.303330e-01 -7.868551e+00 -5.760308e+00 2.907845e+00 -6.364434e-01 5.951785e-01 6.895736e-01 2.907100e+00 2.783195e+00 1.440729e+00 -1.499348e+00 1.530210e+01 -6.820056e-01 -9.065751e-01 -1.137243e+00 -9.910307e-01 1.338554e+00 -7.682850e-01 2.586472e-01 -8.359365e-01 9.603822e-01 6.927322e-01 -4.659626e-01 -1.276832e+00 2.050152e-01 -1.312484e-01 -1.544224e-02 -6.530620e-02 2.218053e-01 -1.831315e-01 -1.920587e-01 5.328183e-02 -5.914317e-02 4.848339e-02 1.100973e-02 -1.394290e-02 2.753393e-02 4.700493e-02
<VARIANCE> 39
 1.279554e+00 6.149228e+00 4.601927e+00 6.561514e+00 1.872646e+01 1.408844e+01 1.518165e+01 1.098649e+01 1.086856e+01 1.361297e+01 2.495751e+01 1.908261e+01 5.929119e-01 2.759348e-01 4.120373e-01 1.216718e+00 8.229208e-01 1.617181e+00 1.509873e+00 2.445513e+00 1.234833e+00 1.483246e+00 1.861720e+00 4.279285e+00 1.243851e+00 1.521071e-02 1.780322e-02 9.042498e-02 1.211858e-01 1.391500e-01 2.526703e-01 2.220316e-01 1.862422e-01 1.735377e-01 2.254525e-01 2.426500e-01 4.579181e-01 3.559467e-01 3.489739e-03
<GCONST> 6.960217e+01
<MIXTURE> 11 5.352252e-02
<MEAN> 39
 1.104084e+00 -1.661028e+00 -8.162416e+00 -1.109654e+01 -1.197318e+01 1.257605e+00 3.772980e+00 8.801945e-01 -9.532012e-01 -8.153233e-02 1.751012e+00 4.108582e+00 1.760173e+01 -3.771120e-01 -8.910986e-01 -4.081787e-01 -1.555577e+00 1.069540e-01 3.992117e-01 5.017312e-01 -1.782207e-01 2.250099e-01 -3.289283e-01 -4.990591e-02 3.626124e-01 -8.273075e-02 9.961774e-02 8.927530e-02 3.658987e-01 6.531238e-01 3.645543e-01 -2.177356e-01 -1.750568e-01 -2.998186e-02 -3.285531e-01 -1.571163e-01 -5.930463e-02 -2.650597e-01 3.500402e-02
<VARIANCE> 39
 5.089398e+00 1.787893e+01 1.738823e+01 2.731145e+01 1.341048e+01 2.606479e+01 1.501755e+01 4.045727e+01 1.754011e+01 1.744468e+01 3.428759e+01 1.247902e+01 9.680578e-01 4.796084e-01 8.003403e-01 1.051477e+00 2.325452e+00 1.404566e+00 1.281983e+00 1.720420e+00 3.410010e+00 1.857651e+00 1.835846e+00 2.671622e+00 1.457337e+00 4.897665e-02 5.241967e-02 1.079809e-01 1.266049e-01 2.831042e-01 1.661568e-01 3.513830e-01 2.722382e-01 4.625424e-01 3.286887e-01 2.146569e-01 5.124763e-01 2.192979e-01 6.471050e-03
<GCONST> 8.493753e+01
<MIXTURE> 12 6.667537e-02
<MEAN> 39
 -3.139388e+00 -6.420882e+00 -7.272319e+00 -9.132720e+00 6.690156e-01 -1.888737e+00 -3.395673e+00 1.078063e+00 1.961354e+00 5.364773e+00 -3.898021e-01 -3.602839e+00 1.768157e+01 -9.757980e-01 -9.057944e-01 -2.720305e-01 -5.846571e-01 7.574628e-02 2.357125e-01 5.925476e-01 7.287073e-01 -2.446009e-02 -1.645741e+00 -4.115292e-01 2.064749e-01 -1.588218e-01 2.081213e-01 3.001075e-01 2.112292e-01 4.195695e-01 -2.354106e-01 8.350334e-03 -3.581750e-03 -3.142529e-01 -2.763050e-01 -9.769389e-02 2.405453e-01 1.046144e-01 1.259710e-01
<VARIANCE> 39
 7.279509e+00 2.076902e+01 1.696693e+01 2.008371e+01 1.509592e+01 2.770417e+01 2.102914e+01 2.078948e+01 3.059602e+01 2.440882e+01 4.118254e+01 2.281092e+01 1.431870e+00 2.589953e-01 4.922838e-01 5.438859e-01 1.412252e+00 1.363886e+00 1.258603e+00 2.296982e+00 1.729990e+00 1.742823e+00 2.448321e+00 2.455139e+00 1.332096e+00 4.179659e-02 7.416339e-02 9.314857e-02 1.686530e-01 1.091315e-01 2.522284e-01 2.561427e-01 3.607796e-01 2.194973e-01 2.635069e-01 4.437893e-01 3.452683e-01 2.473756e-01 2.375860e-03
<GCONST> 8.262653e+01
<MIXTURE> 13 5.267881e-02
<MEAN> 39
 -5.538285e+00 2.413316e+00 -9.405163e+00 -1.040469e+01 4.440209e+00 3.038959e+00 -3.155977e+00 -4.381673e+00 3.924718e-01 -3.510510e+00 1.202131e+00 -3.218309e+00 1.756855e+01 -6.533641e-01 -9.632768e-01 -9.626749e-01 -8.736863e-01 1.096623e-01 -4.093303e-01 -3.512683e-01 -9.174013e-01 -1.177810e-01 -6.862977e-01 4.145821e-01 -3.660633e-01 -1.958393e-01 1.980136e-01 3.247832e-02 3.360178e-01 1.425368e-01 -3.793279e-01 -2.793267e-01 3.905142e-01 3.390011e-01 2.287658e-01 4.490875e-01 -1.266266e-02 1.467352e-01 1.150883e-01
<VARIANCE> 39
 4.224860e+00 1.470421e+01 1.374650e+01 1.541114e+01 3.674064e+01 6.444601e+01 2.052220e+01 2.090990e+01 2.266495e+01 2.936011e+01 1.876526e+01 3.392591e+01 1.673209e+00 4.141870e-01 4.908626e-01 1.001662e+00 9.905316e-01 1.408559e+00 1.676126e+00 1.976610e+00 2.037289e+00 1.480351e+00 1.733666e+00 3.147798e+00 2.032755e+00 9.197178e-02 9.652209e-02 1.030425e-01 1.379622e-01 2.569831e-01 2.286491e-01 3.857940e-01 3.062300e-01 4.705751e-01 2.038899e-01 2.585556e-01 2.879272e-01 4.489750e-01 6.132034e-03
<GCONST> 8.713029e+01
<MIXTURE> 14 5.645765e-02
<MEAN> 39
 -4.686349e+00 -4.445909e+00 -7.173802e+00 -7.519632e+00 -5.948925e-01 -4.811481e+00 -3.486904e+00 9.342720e-01 3.465987e+00 3.320664e+00 1.548828e+00 -2.793263e+00 1.838542e+01 -1.178272e-01 -6.478510e-01 -2.287903e+00 -1.513015e+00 4.493178e-01 1.032466e+00 1.942154e-01 -8.546970e-01 9.020950e-03 -2.595333e-01 8.419531e-01 -3.761455e-01 -1.110156e-01 1.534211e-01 5.108971e-01 8.021937e-01 6.896531e-01 -2.467006e-01 -1.359020e-01 1.552048e-01 -1.622533e-01 -4.754596e-01 -1.545543e-01 -9.714448e-02 2.599923e-04 1.368826e-01
<VARIANCE> 39
 4.428153e+00 1.603547e+01 1.821738e+01 2.006025e+01 2.874704e+01 2.972907e+01 1.906818e+01 2.274481e+01 4.114034e+01 2.762929e+01 4.774322e+01 1.971475e+01 1.163933e+00 3.457425e-01 3.546800e-01 1.335575e+00 1.302696e+00 1.928412e+00 1.877443e+00 1.444760e+00 1.697246e+00 2.449531e+00 2.190875e+00 1.820166e+00 2.039471e+00 2.835906e-02 6.277000e-02 1.154583e-01 1.745676e-01 2.464761e-01 5.108727e-01 3.077361e-01 2.991554e-01 4.672795e-01 3.974595e-01 3.521391e-01 3.807237e-01 4.528600e-01 7.696705e-03
<GCONST> 8.828474e+01
<MIXTURE> 15 5.816861e-02
<MEAN> 39
 -6.600814e+00 3.926718e-01 -5.815249e+00 -1.403844e+01 8.493755e-01 7.246767e+00 3.140380e+00 -2.768437e+00 2.159750e-01 -3.083253e+00 2.061713e+00 -1.326990e+00 1.836940e+01 -1.027129e+00 -1.184064e+00 -7.159911e-01 -4.981237e-01 -3.388738e-01 -7.093464e-01 8.637352e-02 -1.597730e-01 7.968805e-02 -4.788626e-01 2.826966e-01 -9.083174e-02 -2.614075e-01 6.236430e-01 2.083105e-01 3.697819e-01 5.357273e-01 -6.047588e-01 -7.600630e-01 -3.132893e-01 2.899974e-01 -4.053230e-01 3.284551e-01 2.604534e-01 -9.809418e-03 1.692519e-01
<VARIANCE> 39
 8.046447e+00 1.925703e+01 1.696694e+01 2.221531e+01 1.675696e+01 2.117237e+01 1.554450e+01 2.816413e+01 2.424749e+01 3.802988e+01 2.238480e+01 2.438362e+01 7.273687e-01 3.986487e-01 6.748835e-01 9.036108e-01 1.429919e+00 1.472565e+00 2.315026e+00 2.354017e+00 2.849507e+00 2.122529e+00 2.894253e+00 2.428645e+00 1.832242e+00 2.524193e-02 6.921186e-02 1.515231e-01 1.924535e-01 2.844837e-01 2.282472e-01 5.640877e-01 4.308922e-01 5.611205e-01 4.665110e-01 4.725999e-01 4.628881e-01 3.722863e-01 6.902960e-03
<GCONST> 8.994003e+01
<MIXTURE> 16 6.129514e-02
<MEAN> 39
 -3.230070e+00 -1.328403e+00 -3.129981e+00 -9.476516e+00 -5.780233e+00 -1.879557e+00 6.040034e-01 3.024744e+00 1.287993e-01 -6.710184e+00 2.729284e+00 1.370497e+00 1.889395e+01 -5.512248e-01 -9.549392e-01 -3.337339e-01 -4.087773e-01 -4.326357e-01 -5.221510e-01 5.127658e-01 5.964786e-01 2.147470e-02 -2.236511e-01 1.837356e-01 6.505545e-02 -8.489509e-02 5.927585e-01 5.629903e-01 -3.898966e-02 -1.076192e-01 1.167996e-01 -3.410515e-01 -2.043285e-01 -2.913638e-01 -1.237042e-01 -8.575595e-02 3.389850e-01 -4.311539e-03 1.962518e-01
<VARIANCE> 39
 1.289472e+01 1.003392e+01 1.822787e+01 2.106532e+01 3.129229e+01 2.535760e+01 3.146631e+01 2.835847e+01 2.784644e+01 2.078456e+01 3.382433e+01 2.021574e+01 8.332145e-01 3.375686e-01 6.354499e-01 6.756507e-01 1.111967e+00 9.871430e-01 1.214098e+00 1.392134e+00 1.350416e+00 1.689017e+00 1.638343e+00 1.176263e+00 1.340599e+00 1.971593e-02 1.167314e-01 1.202598e-01 1.124997e-01 3.018601e-01 3.184872e-01 3.557076e-01 3.267915e-01 1.906028e-01 5.465355e-01 3.491337e-01 4.532859e-01 2.401294e-01 4.637145e-03
<GCONST> 8.335058e+01
<MIXTURE> 17 5.304972e-02
<MEAN> 39
 -5.328023e+00 -9.147956e-01 -2.328165e+00 -8.689123e+00 9.575347e-01 5.962737e-01 -1.530071e+00 1.499272e+00 1.281813e+00 -3.265539e+00 9.687578e-01 -9.615551e-01 1.491444e+01 -1.331712e+00 -1.493837e+00 -5.652382e-01 -2.797069e+00 6.192198e-01 -4.281297e-01 -2.694147e-01 -6.179252e-01 -2.790310e-01 -1.479846e+00 2.996401e-01 -2.971107e-01 4.133168e-01 -9.538355e-02 5.912215e-02 -3.988031e-01 2.441225e-01 -2.581601e-01 -2.315331e-01 2.494797e-01 -2.289836e-01 -2.011382e-01 2.184573e-01 1.777317e-01 2.973984e-03 1.345462e-01
<VARIANCE> 39
 6.040117e+00 1.249924e+01 8.519419e+00 1.073049e+01 2.030165e+01 1.483427e+01 1.753321e+01 2.098119e+01 2.228965e+01 1.379491e+01 1.987136e+01 1.598584e+01 7.088848e-01 4.795159e-01 1.034391e+00 1.020008e+00 1.171098e+00 2.073152e+00 1.513620e+00 2.126916e+00 2.963958e+00 2.622027e+00 1.455843e+00 2.250922e+00 1.484064e+00 5.542668e-02 9.020010e-02 7.794515e-02 1.004667e-01 2.026476e-01 2.953592e-01 2.480689e-01 2.905142e-01 3.168904e-01 4.251230e-01 2.616351e-01 2.924337e-01 3.003737e-01 6.103249e-03
<GCONST> 8.181383e+01
<MIXTURE> 18 4.055849e-02
<MEAN> 39
 -8.891385e-02 -3.855540e+00 -6.644677e+00 -4.695429e+00 -6.409956e+00 -5.982785e-01 9.006747e-01 -2.629485e+00 -3.107569e+00 -4.398301e+00 9.143251e-01 1.187204e+00 1.557771e+01 3.137313e-01 -1.923786e+00 -5.305778e-01 -1.173359e+00 -5.486330e-01 -9.840736e-01 2.454678e-01 -3.734885e-01 -4.588697e-01 -1.339674e+00 6.139741e-01 3.546282e-01 4.981148e-01 -1.833394e-01 2.109651e-01 -5.212546e-02 -1.227516e-01 9.691200e-02 -3.458163e-01 -2.335287e-02 2.860018e-01 2.317982e-01 2.645876e-01 4.644047e-01 1.673822e-01 7.153866e-02
<VARIANCE> 39
 1.451010e+00 9.438100e+00 6.729280e+00 5.501774e+00 6.885086e+00 2.104102e+01 1.574185e+01 1.544041e+01 1.331479e+01 1.511180e+01 2.538464e+01 1.074694e+01 5.041493e-01 3.796793e-01 5.743116e-01 8.015721e-01 1.156782e+00 1.053998e+00 1.577259e+00 1.699848e+00 1.856708e+00 2.201882e+00 2.357265e+00 2.923049e+00 1.578722e+00 3.129346e-02 5.354903e-02 1.870162e-01 1.035705e-01 1.147716e-01 1.479473e-01 2.556332e-01 3.137225e-01 2.273592e-01 2.518984e-01 4.226226e-01 2.959102e-01 1.656014e-01 5.523037e-03
<GCONST> 7.296782e+01
<MIXTURE> 19 4.025060e-02
<MEAN> 39
 -2.527883e+00 -2.577163e+00 -6.226021e+00 -4.916606e+00 1.612391e+00 2.560437e+00 -7.483764e-01 -2.168530e+00 2.239824e-01 2.462698e+00 2.645112e+00 1.425106e+00 1.502043e+01 -6.726067e-01 -2.142683e+00 -4.959189e-01 -1.932953e+00 9.810964e-01 2.015455e-01 -5.311459e-01 -1.355835e+00 -7.801223e-02 -2.716159e-01 -2.097179e-01 -3.373220e-01 3.560594e-01 -2.977259e-01 -2.714975e-02 4.118518e-02 -1.475171e-02 -2.420935e-01 -2.618472e-01 5.960948e-02 2.091172e-01 1.128283e-01 -1.450245e-01 -6.813099e-02 -2.758604e-01 1.131921e-01
<VARIANCE> 39
 2.188213e+00 1.239145e+01 5.323266e+00 1.286131e+01 1.228962e+01 1.280165e+01 9.667442e+00 2.000761e+01 1.113431e+01 1.959006e+01 1.402484e+01 1.021829e+01 4.731833e-01 2.532729e-01 8.595834e-01 1.299451e+00 8.392887e-01 2.313996e+00 1.394111e+00 1.251054e+00 1.416811e+00 1.824423e+00 3.269834e+00 2.057357e+00 1.105785e+00 2.351562e-02 6.702963e-02 1.241288e-01 8.086292e-02 1.123435e-01 1.450982e-01 1.796233e-01 1.862242e-01 3.739366e-01 1.757134e-01 3.058233e-01 2.050501e-01 1.942791e-01 5.537589e-03
<GCONST> 7.114751e+01
<MIXTURE> 20 3.782744e-02
<MEAN> 39
 -2.692697e+00 -6.186742e+00 -4.935335e+00 -3.780152e+00 -1.894476e+00 1.565511e+00 -9.095688e-01 -6.766267e-01 2.683754e+00 2.638394e+00 -1.172254e-01 -1.978599e+00 1.498619e+01 -2.424695e-01 -3.403459e+00 -5.238552e-01 -1.817299e+00 -4.716083e-01 4.743899e-01 -7.503088e-01 -6.195550e-01 -2.093251e-01 6.015024e-01 -3.115156e-01 -8.184202e-01 5.613913e-01 -8.568954e-02 1.228371e-01 -1.406976e-01 -7.939692e-02 -2.345741e-01 -2.982596e-01 -7.592190e-02 7.279874e-02 -3.525552e-01 3.262680e-02 2.303619e-01 4.682828e-02 1.988541e-01
<VARIANCE> 39
 5.435108e+00 9.629504e+00 5.644908e+00 1.241716e+01 1.050415e+01 1.983718e+01 1.245689e+01 1.534291e+01 2.825053e+01 1.238426e+01 9.333324e+00 1.614411e+01 2.366217e-01 7.298274e-01 1.006063e+00 9.296709e-01 1.599736e+00 1.651561e+00 2.281807e+00 1.932846e+00 1.936557e+00 2.358458e+00 2.492038e+00 1.038286e+00 1.781969e+00 5.721215e-02 1.338755e-01 1.905604e-01 1.263336e-01 2.509993e-01 1.827889e-01 2.727659e-01 2.712582e-01 3.052730e-01 3.351997e-01 2.435845e-01 2.071064e-01 3.361666e-01 7.209326e-03
<GCONST> 7.945647e+01
<STATE> 4
<SID> 53
<NUMMIXES> 20
<MIXTURE> 1 3.996254e-02
<MEAN> 39
 -5.206580e+00 -3.284041e+00 -3.660781e+00 -1.268361e+01 -4.756186e+00 1.353243e+00 2.794289e+00 -1.967878e+00 -1.850382e+00 -4.215402e+00 3.341728e-01 2.301050e+00 1.890446e+01 1.031970e+00 3.770444e-01 -9.815554e-02 1.206829e-01 -2.253362e-01 -8.756684e-01 1.670788e-01 -3.829781e-03 -2.311485e-01 -1.956795e-01 1.499089e+00 7.571864e-01 3.779166e-01 8.994380e-01 7.414438e-01 1.146174e-01 2.278163e-01 7.070336e-02 -5.014674e-01 -4.791783e-01 -1.045350e-01 -1.810940e-01 3.440559e-02 6.069847e-01 -1.817472e-01 2.314745e-01
<VARIANCE> 39
 6.303502e+00 1.762061e+01 1.183103e+01 2.195617e+01 2.374540e+01 2.444823e+01 2.408476e+01 3.703963e+01 1.806349e+01 2.366986e+01 1.750162e+01 1.794946e+01 1.038146e+00 8.956594e-01 1.127872e+00 5.322849e-01 1.237539e+00 1.819460e+00 2.192661e+00 2.509505e+00 2.784116e+00 2.361616e+00 2.184986e+00 2.466127e+00 1.336992e+00 4.345678e-02 6.750627e-02 2.656086e-01 1.810773e-01 5.102131e-01 1.917684e-01 3.144852e-01 4.109649e-01 5.203964e-01 4.690609e-01 5.139331e-01 2.933437e-01 3.569301e-01 5.265242e-03
<GCONST> 8.988880e+01
<MIXTURE> 2 6.251712e-02
<MEAN> 39
 -3.025457e+00 -4.254001e+00 -6.137455e+00 -9.866003e+00 -3.950835e+00 -2.549839e+00 -1.078944e+00 -3.963189e-01 -3.163429e+00 -2.354703e+00 6.388766e+00 3.110520e+00 1.645666e+01 1.195266e-01 -3.901345e-01 -7.548108e-01 -1.357187e+00 -4.272657e-01 -1.396191e+00 -4.751008e-01 -2.851906e-02 -8.031650e-01 -2.288263e-01 1.379447e+00 3.204779e-01 6.301008e-01 5.700143e-01 8.480312e-01 2.976558e-01 5.967518e-01 2.481202e-01 4.925498e-02 4.538829e-02 -1.114430e-02 -1.832867e-02 4.430775e-03 -3.967822e-01 -3.299443e-01 2.466073e-01
<VARIANCE> 39
 8.558884e+00 1.344909e+01 1.274567e+01 2.522062e+01 3.203024e+01 1.529501e+01 1.989633e+01 3.510197e+01 2.024067e+01 3.542119e+01 3.815041e+01 2.151895e+01 5.999585e-01 4.606225e-01 8.776431e-01 7.871256e-01 2.120814e+00 1.601770e+00 2.018457e+00 2.244891e+00 2.542683e+00 1.552001e+00 3.053217e+00 2.750220e+00 1.938320e+00 8.208668e-02 1.385277e-01 2.405553e-01 2.528997e-01 4.846160e-01 3.274324e-01 4.186599e-01 5.027153e-01 6.247773e-01 5.180692e-01 6.051497e-01 4.919504e-01 4.407066e-01 1.220581e-02
<GCONST> 9.522441e+01
<MIXTURE> 3 5.490110e-02
<MEAN> 39
 -7.914279e+00 -1.004761e+00 -1.019304e+01 -1.385645e+01 4.376547e+00 1.261351e+00 -2.557893e+00 -4.893353e+00 2.277151e+00 1.671878e+00 1.616043e+00 -4.043132e+00 1.840577e+01 3.763814e-01 -4.118239e-01 -4.547795e-02 6.330627e-01 -6.112602e-01 -2.978328e-01 4.988076e-01 3.148306e-01 9.160023e-01 6.499505e-01 2.869608e-01 -3.925488e-01 2.657449e-01 7.439809e-01 5.542490e-01 3.583527e-01 5.294480e-01 -4.358709e-01 -1.129429e-01 1.101985e-02 3.525895e-01 4.817068e-02 3.054652e-01 -6.011944e-02 2.461957e-03 2.088792e-01
<VARIANCE> 39
 8.327887e+00 6.612266e+00 1.351210e+01 1.215227e+01 3.072629e+01 2.767469e+01 3.019990e+01 1.829870e+01 3.039701e+01 2.803056e+01 3.252114e+01 2.546668e+01 9.138055e-01 7.022365e-01 6.118852e-01 6.422184e-01 1.047974e+00 7.030331e-01 1.264277e+00 1.460661e+00 1.721603e+00 2.053183e+00 1.125266e+00 1.216024e+00 1.620386e+00 9.105051e-02 6.358331e-02 1.009167e-01 1.409768e-01 2.650458e-01 2.283546e-01 3.389803e-01 2.907694e-01 3.249603e-01 3.019422e-01 2.775695e-01 2.473833e-01 3.770113e-01 9.858792e-03
<GCONST> 8.318216e+01
<MIXTURE> 4 7.067367e-02
<MEAN> 39
 -2.937136e+00 -4.562541e+00 -7.058267e+00 -1.139568e+01 -7.120038e+00 1.392679e+00 2.842996e+00 -3.458877e+00 -3.626243e+00 -3.852402e+00 1.513767e+00 -1.054685e+00 1.751591e+01 3.638004e-02 -5.580788e-01 -7.513744e-02 1.748673e-01 -6.981055e-02 -1.056053e+00 8.526092e-02 3.324129e-02 -2.104338e-01 1.356917e-01 5.759584e-01 -2.471047e-02 6.727025e-02 3.023746e-01 2.731166e-01 -1.498489e-02 4.694159e-02 4.280920e-02 -2.687406e-01 7.514447e-02 2.088017e-01 1.272575e-01 4.610964e-01 2.677277e-01 3.532993e-01 1.261265e-01
<VARIANCE> 39
 2.329709e+01 1.750073e+01 1.376115e+01 1.334382e+01 2.154981e+01 1.983506e+01 2.644079e+01 2.434454e+01 1.803677e+01 3.188156e+01 2.604565e+01 3.509402e+01 4.665938e-01 2.070046e-01 3.702585e-01 5.514549e-01 7.450593e-01 1.156361e+00 1.963609e+00 1.344994e+00 1.646354e+00 1.179051e+00 2.124875e+00 1.449382e+00 1.142616e+00 2.449645e-02 8.323681e-02 9.933341e-02 1.146019e-01 1.720793e-01 1.909361e-01 4.147087e-01 3.324160e-01 2.393331e-01 3.016160e-01 3.346877e-01 2.844353e-01 1.882155e-01 8.927869e-03
<GCONST> 7.997852e+01
<MIXTURE> 5 5.655815e-02
<MEAN> 39
 -7.321458e+00 -1.345508e+00 -8.069092e+00 -1.050064e+01 6.655828e+00 1.321586e+00 -6.140781e-01 -3.164046e+00 5.626310e+00 7.449154e-01 1.273698e+00 -3.696712e+00 1.619073e+01 -7.438691e-01 -1.020126e+00 -1.488886e+00 -8.444487e-01 -1.702871e-01 -5.808353e-01 3.734250e-01 -4.398437e-01 8.386946e-01 4.857059e-01 -1.203889e-01 -1.115232e+00 4.646765e-01 5.280575e-01 4.211896e-01 2.561637e-01 6.208965e-01 -1.034587e+00 -3.017968e-01 -1.079172e-01 3.482186e-01 -3.061088e-01 1.910798e-01 -5.195917e-04 1.676851e-01 1.496093e-01
<VARIANCE> 39
 6.785779e+00 1.364353e+01 2.502359e+01 1.968347e+01 1.996402e+01 3.453987e+01 3.406277e+01 2.798419e+01 2.630956e+01 3.046375e+01 2.242928e+01 1.334803e+01 1.086593e+00 5.381047e-01 5.358527e-01 7.544236e-01 1.412690e+00 1.981264e+00 1.412103e+00 1.549533e+00 1.878874e+00 1.569919e+00 1.203524e+00 2.011184e+00 1.575215e+00 5.052676e-02 1.203443e-01 2.498045e-01 3.250749e-01 3.743758e-01 2.530582e-01 4.311846e-01 4.028034e-01 4.611717e-01 3.649242e-01 3.152210e-01 2.840174e-01 2.484556e-01 1.240474e-02
<GCONST> 8.928097e+01
<MIXTURE> 6 4.269360e-02
<MEAN> 39
 -1.340378e+00 1.354955e+00 -6.120187e+00 -1.195862e+01 -1.212357e+00 -1.945645e+00 1.434605e+00 -1.303088e+00 -3.180245e+00 -2.410379e+00 5.376746e+00 2.670577e+00 2.035936e+01 6.281839e-01 -1.209439e-01 -4.131564e-01 -4.267389e-01 4.331101e-01 -9.904572e-01 -2.846581e-01 -3.584327e-01 -1.184364e-01 -3.193263e-01 5.538274e-01 4.839528e-01 1.633686e-01 4.792049e-01 2.520988e-01 3.749522e-01 5.993650e-01 1.298744e-02 -3.844673e-01 -3.929090e-01 -1.949729e-01 -1.503115e-01 -5.368845e-02 -1.480252e-01 -2.443664e-01 1.064091e-01
<VARIANCE> 39
 1.086443e+01 2.457734e+01 1.921223e+01 2.813035e+01 5.562955e+01 5.512259e+01 3.321021e+01 4.611851e+01 4.349448e+01 6.771588e+01 3.645810e+01 3.639859e+01 8.291703e-01 3.433193e-01 1.025957e+00 9.927341e-01 1.283125e+00 1.136432e+00 2.305723e+00 2.461852e+00 2.451556e+00 2.396371e+00 2.212231e+00 2.127247e+00 1.648071e+00 1.206702e-02 1.343418e-01 1.740243e-01 1.940865e-01 3.979230e-01 3.384885e-01 4.329390e-01 2.783265e-01 4.580837e-01 4.138126e-01 6.030233e-01 2.574980e-01 3.078952e-01 5.765052e-03
<GCONST> 9.499936e+01
<MIXTURE> 7 5.743460e-02
<MEAN> 39
 -2.763401e+00 -8.486026e+00 -9.748007e+00 -9.069227e+00 -1.713504e+00 -4.051642e+00 -3.253378e+00 2.550643e+00 2.145681e+00 3.876381e+00 2.264406e+00 -5.068224e+00 1.891853e+01 1.008901e-01 -2.000294e-01 -8.051642e-01 3.172940e-01 -1.183074e+00 6.460942e-02 2.002328e-01 1.170300e-01 4.422273e-01 7.882644e-02 5.106407e-01 -1.785110e-01 1.729726e-01 4.397997e-01 5.706632e-01 3.669536e-01 6.001925e-01 -1.990398e-01 6.771279e-02 -1.189942e-01 -2.711716e-01 -2.184461e-01 8.400945e-02 -1.107358e-01 6.251074e-02 1.117140e-01
<VARIANCE> 39
 5.639922e+00 3.062882e+01 1.502258e+01 1.536996e+01 1.981341e+01 3.632746e+01 2.215512e+01 1.605600e+01 2.586943e+01 2.693305e+01 6.015414e+01 1.583665e+01 7.065107e-01 2.640028e-01 6.533400e-01 9.332641e-01 9.932857e-01 1.389098e+00 2.363663e+00 1.107553e+00 2.085873e+00 2.034758e+00 1.254962e+00 1.686002e+00 1.721234e+00 2.065529e-02 3.909699e-02 1.098258e-01 2.926503e-01 2.286600e-01 3.477925e-01 3.624099e-01 2.564751e-01 2.100984e-01 3.676616e-01 3.558942e-01 2.341736e-01 2.691117e-01 4.703326e-03
<GCONST> 8.279394e+01
<MIXTURE> 8 4.970190e-02
<MEAN> 39
 -9.958136e+00 -4.452083e+00 -2.670846e+00 -9.678105e+00 -1.888364e+00 6.108602e-02 2.489038e+00 3.951528e+00 -3.994892e+00 -7.879390e+00 1.872195e+00 -9.690719e-01 1.615115e+01 -7.574884e-01 -7.051886e-01 -7.119250e-01 -8.241478e-01 -6.242182e-01 -9.273176e-01 1.481132e-01 1.909169e-01 -6.874535e-01 -4.722863e-01 3.867556e-01 -3.895955e-01 3.268146e-01 5.214150e-01 3.037784e-01 -1.610593e-01 1.364148e-01 -1.660553e-01 -1.293067e-01 -1.919108e-01 -2.162936e-01 2.643900e-01 5.478899e-01 9.478021e-02 8.328961e-02 8.703855e-02
<VARIANCE> 39
 5.300175e+00 7.025270e+00 8.024722e+00 1.213361e+01 8.609369e+00 1.125049e+01 1.669869e+01 2.487180e+01 1.909063e+01 1.822064e+01 2.396742e+01 1.664627e+01 1.013313e+00 3.991785e-01 3.991585e-01 4.194082e-01 9.493738e-01 9.468014e-01 1.107188e+00 1.217066e+00 1.349361e+00 1.657971e+00 1.461611e+00 1.361191e+00 1.189237e+00 7.607792e-02 8.359514e-02 1.190696e-01 1.027289e-01 1.727947e-01 1.450476e-01 1.811475e-01 1.892367e-01 2.417137e-01 3.273522e-01 2.017520e-01 2.848672e-01 2.263683e-01 6.522034e-03
<GCONST> 7.304921e+01
<MIXTURE> 9 5.325009e-02
<MEAN> 39
 -5.302424e+00 -1.088517e+01 -6.211442e+00 -1.069687e+01 -1.968239e+00 1.800854e+00 -1.915601e+00 -1.116009e+00 3.581584e+00 6.934941e-01 2.028723e+00 -2.018157e-01 1.652646e+01 1.753839e-01 -1.232703e+00 -7.977226e-01 -9.777361e-01 -6.581342e-01 -3.334317e-01 3.170602e-01 1.957932e-01 1.161510e-01 3.019601e-01 -2.120011e-01 -7.477128e-01 6.865197e-01 6.880524e-01 9.921643e-01 8.188608e-02 6.985223e-01 -1.350074e-01 -2.423690e-01 -1.002788e-04 4.463657e-02 -2.612561e-01 1.663273e-01 -2.244639e-01 -3.337089e-01 1.790082e-01
<VARIANCE> 39
 4.606343e+00 1.607276e+01 7.535828e+00 1.499518e+01 1.496758e+01 2.967630e+01 1.507809e+01 1.452356e+01 2.250869e+01 3.179313e+01 2.091239e+01 1.746469e+01 7.215191e-01 1.143983e+00 1.924508e+00 1.087130e+00 1.503512e+00 1.200174e+00 1.365149e+00 1.990412e+00 2.021621e+00 1.595489e+00 1.805882e+00 1.837609e+00 1.965032e+00 7.025206e-02 8.627455e-02 2.207344e-01 2.242959e-01 3.631187e-01 3.089558e-01 5.982344e-01 4.119076e-01 3.055232e-01 3.297257e-01 2.833470e-01 2.832495e-01 3.727414e-01 1.172214e-02
<GCONST> 8.789974e+01
<MIXTURE> 10 4.344314e-02
<MEAN> 39
 -3.026481e+00 -3.374408e+00 -9.044676e+00 -1.229226e+01 -2.901139e+00 -5.767091e+00 -1.332805e+00 -1.520724e+00 2.160719e+00 -7.416429e+00 4.192083e+00 2.557905e+00 1.887914e+01 2.359451e-01 2.538267e-01 -7.479948e-01 -3.079156e-01 2.279300e-01 -1.151042e+00 7.054132e-01 5.196377e-01 6.019900e-01 -7.558342e-01 1.034858e+00 1.254832e-01 3.302474e-01 3.752462e-01 9.200094e-01 4.127996e-01 4.269848e-01 5.855941e-01 -1.154433e-01 1.001963e-01 -3.362345e-01 -4.284734e-01 1.625990e-01 1.637505e-01 -1.289226e-01 1.597653e-01
<VARIANCE> 39
 1.416497e+01 9.730161e+00 2.483892e+01 9.990048e+00 2.834786e+01 2.059142e+01 2.792131e+01 1.669806e+01 1.832146e+01 3.213470e+01 2.134051e+01 1.679242e+01 7.463900e-01 2.240966e-01 6.826095e-01 1.089478e+00 1.113682e+00 1.562153e+00 1.818034e+00 1.282958e+00 1.946421e+00 1.098721e+00 1.919978e+00 2.227407e+00 1.250614e+00 7.423759e-02 1.030751e-01 8.578920e-02 1.509793e-01 2.989771e-01 2.725464e-01 4.256183e-01 4.506254e-01 2.811658e-01 2.750667e-01 4.903708e-01 4.122716e-01 2.979523e-01 4.551352e-03
<GCONST> 8.450482e+01
<MIXTURE> 11 5.615122e-02
<MEAN> 39
 -3.238976e+00 -8.062821e+00 -7.601933e+00 -8.902736e+00 -8.990033e-02 2.933983e+00 -4.507075e+00 -4.641753e+00 3.794311e+00 4.880924e+00 -4.484823e-01 -2.020443e+00 1.871556e+01 5.320057e-01 3.746782e-01 -3.711881e-01 2.055946e-01 -7.537481e-01 2.428633e-02 6.429488e-01 -2.418592e-02 -2.473656e-01 3.624680e-01 -1.082910e-01 -9.075998e-02 2.874429e-01 4.047047e-01 5.818750e-01 3.292269e-01 2.083695e-01 -4.246616e-01 -4.859774e-01 -1.263522e-01 3.322099e-01 -8.157521e-02 1.685529e-01 -9.625812e-02 -8.639096e-02 1.217139e-01
<VARIANCE> 39
 6.249816e+00 3.570282e+01 1.693883e+01 2.687517e+01 1.935212e+01 1.721057e+01 4.424541e+01 1.409880e+01 2.226790e+01 2.245425e+01 2.349866e+01 1.402223e+01 1.296920e+00 3.676284e-01 7.827575e-01 7.886744e-01 9.334378e-01 1.609541e+00 1.424153e+00 1.457341e+00 1.747389e+00 1.399672e+00 1.477102e+00 1.449468e+00 1.544063e+00 3.418117e-02 5.440314e-02 1.025951e-01 1.650009e-01 1.876123e-01 2.344339e-01 3.220026e-01 2.371479e-01 1.898987e-01 2.159791e-01 3.206811e-01 2.211981e-01 2.004241e-01 3.243922e-03
<GCONST> 8.022592e+01
<MIXTURE> 12 5.295368e-02
<MEAN> 39
 -6.411810e+00 -7.272791e+00 -6.440906e+00 -1.012672e+01 1.288645e+00 -1.117433e-01 -3.461509e+00 -3.349474e+00 1.830195e-01 1.650681e-01 1.278742e-01 -3.092779e-01 1.631797e+01 -7.141063e-01 -1.016874e+00 -8.035027e-01 -8.154401e-01 -4.828879e-01 -9.359895e-01 -3.521197e-01 -3.117938e-02 3.830715e-02 1.832254e-01 -6.040297e-02 -6.697783e-01 4.885444e-01 2.479999e-01 5.480069e-01 5.315838e-02 6.444420e-01 -3.757852e-01 -2.922504e-01 1.995725e-01 4.357665e-01 7.342058e-03 1.480669e-01 8.072049e-02 -7.696446e-02 -4.725907e-03
<VARIANCE> 39
 4.881747e+00 1.157947e+01 9.373027e+00 2.599466e+01 1.694469e+01 2.090479e+01 1.735542e+01 2.960501e+01 1.268473e+01 5.756390e+01 3.601986e+01 1.217222e+01 5.600070e-01 6.856218e-01 5.328169e-01 6.510679e-01 1.128529e+00 8.950780e-01 1.563650e+00 1.598516e+00 1.756050e+00 1.431231e+00 3.341796e+00 1.940673e+00 1.544390e+00 2.480259e-02 8.463017e-02 7.028849e-02 1.345550e-01 2.425590e-01 2.374765e-01 2.982350e-01 3.911763e-01 3.886797e-01 2.588147e-01 4.267273e-01 3.510861e-01 2.653477e-01 3.536418e-03
<GCONST> 8.113577e+01
<MIXTURE> 13 5.343451e-02
<MEAN> 39
 -5.292699e+00 -3.380546e+00 -1.019825e+01 -9.034771e+00 -1.676939e-01 -6.169097e+00 1.496565e+00 -8.642257e-01 8.586490e-01 1.856809e+00 4.021286e+00 -2.543059e+00 1.699907e+01 -8.328465e-02 -2.745744e-01 -8.518320e-01 3.198329e-01 -5.272622e-01 -9.959908e-01 5.885683e-02 -2.550101e-02 2.763940e-01 8.129849e-01 5.834677e-01 -5.838168e-01 1.280776e-01 3.282771e-01 2.887834e-01 2.488647e-01 4.778999e-01 -1.478432e-01 8.876122e-02 -2.731430e-01 3.337451e-02 -9.371687e-02 2.395395e-01 -1.360919e-01 -7.619154e-02 9.718434e-02
<VARIANCE> 39
 7.338818e+00 7.188552e+00 7.729437e+00 1.998031e+01 7.963020e+00 3.007133e+01 1.315310e+01 2.054160e+01 2.024342e+01 2.539223e+01 4.952261e+01 1.254919e+01 6.333815e-01 1.422651e-01 4.860926e-01 6.846004e-01 1.014649e+00 9.250645e-01 9.724318e-01 1.224645e+00 1.672001e+00 1.452667e+00 1.418396e+00 1.778824e+00 1.359773e+00 2.780867e-02 7.035822e-02 7.983128e-02 1.316440e-01 2.259041e-01 1.441055e-01 2.225704e-01 2.124051e-01 2.319816e-01 2.765751e-01 3.177872e-01 2.784685e-01 2.068145e-01 9.850506e-03
<GCONST> 7.452301e+01
<MIXTURE> 14 4.565622e-02
<MEAN> 39
 -6.444701e+00 -2.977085e+00 -6.098802e+00 -1.470576e+01 9.290507e-01 2.184660e+00 -4.824855e+00 -5.605235e+00 2.379378e+00 6.401443e-01 -8.814510e-01 1.223487e+00 1.726165e+01 -3.621160e-01 -4.445689e-01 -3.657924e-02 1.882618e-01 -3.391175e-01 -2.497401e-01 3.407075e-01 -2.001092e-01 -7.879854e-02 2.808346e-01 -2.236263e-01 -3.483506e-01 2.236127e-02 2.737776e-01 1.092667e-01 -4.494220e-02 2.768568e-01 -1.189566e-01 -2.785587e-02 2.261626e-01 2.265947e-01 -1.116615e-02 1.412848e-01 1.140481e-01 -2.522242e-01 1.352178e-01
<VARIANCE> 39
 9.601159e+00 1.710041e+01 8.855808e+00 1.413526e+01 1.933306e+01 1.073984e+01 4.077753e+01 2.583892e+01 1.626349e+01 1.631941e+01 1.645717e+01 1.677326e+01 1.131260e+00 2.682950e-01 2.707796e-01 4.638972e-01 5.666789e-01 1.260534e+00 1.904665e+00 1.086767e+00 1.266440e+00 2.572751e+00 1.488020e+00 1.165497e+00 7.434266e-01 3.605209e-02 5.715691e-02 6.593809e-02 1.354637e-01 1.346216e-01 2.226074e-01 3.156227e-01 2.044555e-01 2.426198e-01 3.875729e-01 2.028680e-01 2.190175e-01 1.830542e-01 8.357191e-03
<GCONST> 7.455347e+01
<MIXTURE> 15 4.669874e-02
<MEAN> 39
