~o
<STREAMINFO> 1 40
<VECSIZE> 40<NULLD><USER><DIAGC>
~s "silst"
<NUMMIXES> 36
<MIXTURE> 1 2.693513e-02
<MEAN> 40
 6.892418e+00 7.839491e+00 -1.012288e+01 2.236158e+00 4.286983e+00 7.581397e+00 4.366370e+00 9.254528e+00 9.277555e+00 3.867379e+00 -2.855737e-01 4.580678e+00 1.960918e+01 6.946180e+00 8.201797e+00 6.046424e+00 7.049772e+00 4.037733e+00 1.865635e+00 3.530912e+01 5.482460e+00 5.358022e+00 1.688660e-01 1.386312e+00 7.360019e+00 6.031104e-01 3.011964e+00 8.069742e+00 5.269911e+00 6.336020e+00 1.061652e+01 3.636623e+00 1.968836e+01 1.221347e+01 4.829347e+00 1.530638e+01 6.176171e+00 -3.425691e-01 1.582982e+01 3.279228e+00
<VARIANCE> 40
 3.120122e+00 1.324393e+00 1.393787e-01 3.055531e+00 2.892613e+00 2.029650e+00 4.808698e+00 2.231895e+00 2.963921e+00 2.337231e+00 2.587507e+00 1.826377e+00 1.750435e+00 3.225344e+00 1.358636e+00 2.791795e+00 3.266591e+00 2.085504e+00 2.728576e+00 9.161013e+00 4.573949e+00 2.169248e+00 2.992151e+00 2.491831e+00 2.177456e+00 2.807093e+00 4.722108e-01 2.155694e+00 2.576073e+00 2.705890e+00 3.173688e+00 1.191283e+00 7.847820e+00 2.427787e+00 1.322219e+00 5.978284e-01 1.918151e+00 2.399743e+00 5.410696e+00 1.498141e+00
<GCONST> 1.056486e+02
<MIXTURE> 2 2.327538e-02
<MEAN> 40
 6.224518e+00 7.012981e+00 -1.018356e+01 2.142800e-01 5.324815e+00 6.591862e+00 6.188780e+00 9.383747e+00 9.089471e+00 5.322490e+00 2.660949e+00 4.445411e+00 1.746868e+01 6.299977e+00 8.321874e+00 6.732491e+00 6.927536e+00 7.583019e-01 4.075926e+00 3.348063e+01 5.129570e+00 4.788898e+00 -1.067490e+00 3.254500e-01 6.880768e+00 -2.156910e+00 2.733924e+00 7.792143e+00 6.112546e+00 6.282819e+00 1.084202e+01 2.503851e+00 2.113889e+01 1.164170e+01 5.119111e+00 1.530499e+01 5.882928e+00 -2.658323e+00 1.651399e+01 2.870823e+00
<VARIANCE> 40
 2.702800e+00 1.237758e+00 1.178132e-01 2.863401e+00 2.948431e+00 1.946335e+00 5.197124e+00 2.304422e+00 2.889467e+00 2.064347e+00 2.267690e+00 1.549278e+00 1.662243e+00 3.008674e+00 1.226694e+00 2.959370e+00 3.329760e+00 2.225487e+00 2.889419e+00 8.424012e+00 3.972397e+00 1.880815e+00 3.207910e+00 2.899949e+00 2.181940e+00 2.431940e+00 4.147959e-01 2.103626e+00 2.543155e+00 2.548284e+00 2.934482e+00 8.993934e-01 8.243615e+00 2.276896e+00 1.291309e+00 4.973398e-01 1.664418e+00 2.331370e+00 5.208804e+00 1.472108e+00
<GCONST> 1.034983e+02
<MIXTURE> 3 2.253683e-02
<MEAN> 40
 -6.968504e+00 5.848815e+00 -1.017698e+01 7.557881e+00 3.972683e+00 -2.308716e+00 5.652961e+00 8.064468e+00 -3.598076e+00 2.448673e+00 -3.244220e+00 1.014131e-01 1.182435e+01 -1.195216e+00 3.170671e+00 -1.207640e-01 -2.436095e-01 -7.894849e+00 -2.850474e+00 4.860740e+01 -2.970386e+00 2.787913e+00 -8.666992e+00 -1.039590e+00 1.422598e+00 -4.605934e+00 -1.623467e+00 2.399138e+00 2.181170e+00 -5.759107e+00 -6.663422e+00 -3.967780e-01 -4.655124e+00 -5.529917e+00 7.554072e+00 -1.792147e+00 4.447964e-01 -2.121223e+00 1.111967e+01 7.366077e-01
<VARIANCE> 40
 3.144407e+01 5.339955e+00 5.717312e-01 2.020453e+01 3.660373e+01 2.387850e+01 4.116579e+01 1.624074e+01 2.342074e+01 3.011467e+01 2.955245e+01 1.701089e+01 2.067980e+01 4.464059e+01 9.895898e+00 9.351911e+01 3.046554e+01 1.109317e+01 2.302089e+01 6.181145e+01 2.855005e+01 2.442772e+01 2.494758e+01 3.763459e+01 1.905581e+01 8.682568e+01 2.838249e+00 1.881007e+01 4.587793e+01 2.325506e+01 2.788353e+01 5.172403e+00 6.339062e+01 2.671808e+01 6.367179e+00 5.588691e+00 2.425081e+01 3.031383e+01 2.559124e+01 1.296603e+01
<GCONST> 1.940198e+02
<MIXTURE> 4 1.009028e-02
<MEAN> 40
 -5.088786e-01 6.713657e+00 -9.940941e+00 3.216454e+00 2.635594e+00 7.989836e-01 6.520094e+00 7.531762e+00 5.225946e+00 2.530232e+00 5.412213e+00 2.641122e+00 1.106546e+01 5.635786e-01 7.514796e+00 4.840559e+00 4.200395e+00 -2.769155e+00 3.156238e+00 3.402633e+01 -7.410830e-01 3.044227e+00 -1.753031e-01 3.070214e+00 -1.388060e+00 -6.378532e-02 9.805859e-01 5.413999e+00 7.575656e+00 4.633638e+00 1.215564e+01 5.474218e-01 1.464954e+01 5.970973e+00 5.798688e+00 1.114630e+01 2.689499e+00 -3.346796e+00 1.390098e+01 2.646027e+00
<VARIANCE> 40
 1.315850e+01 2.079463e+00 2.896731e-01 6.438637e+00 5.291810e+00 4.651127e+00 9.228724e+00 5.162688e+00 6.350339e+00 3.680374e+00 5.967499e+00 3.454226e+00 4.242212e+00 1.799174e+01 2.388984e+00 6.063595e+00 5.733005e+00 4.458576e+00 4.718054e+00 1.594378e+01 9.235620e+00 4.471090e+00 5.770711e+00 5.889235e+00 9.797346e+00 8.783618e+00 9.592138e-01 6.738700e+00 5.111829e+00 4.311270e+00 7.628480e+00 2.453940e+00 1.832415e+01 6.047420e+00 1.815343e+00 2.093342e+00 3.668662e+00 5.441876e+00 1.035703e+01 2.524855e+00
<GCONST> 1.371527e+02
<MIXTURE> 5 2.329132e-02
<MEAN> 40
 6.763557e+00 7.859837e+00 -1.048325e+01 4.049485e+00 2.726400e+00 6.788305e+00 5.666615e+00 1.019040e+01 9.142205e+00 1.093908e+00 -7.146793e-01 4.312397e+00 2.069350e+01 6.590795e+00 8.372858e+00 4.793445e+00 6.380871e+00 3.452360e+00 2.327681e+00 3.670100e+01 5.790336e+00 2.722050e+00 3.513384e+00 -6.975363e-01 7.867241e+00 1.735816e+00 3.129502e+00 9.368542e+00 4.766422e+00 6.095418e+00 1.169169e+01 4.900790e+00 2.044096e+01 1.206717e+01 4.163356e+00 1.529902e+01 4.529762e+00 1.630037e+00 1.619451e+01 2.832061e+00
<VARIANCE> 40
 2.489184e+00 1.006402e+00 1.326080e-01 2.423910e+00 2.832366e+00 1.731335e+00 3.954480e+00 2.029735e+00 2.269825e+00 2.455787e+00 2.190024e+00 1.850286e+00 1.483497e+00 2.492099e+00 1.277546e+00 2.552927e+00 3.309848e+00 1.985167e+00 2.253708e+00 7.093929e+00 3.670177e+00 1.880963e+00 2.132115e+00 2.169852e+00 1.992913e+00 2.579461e+00 3.245487e-01 1.792779e+00 2.438996e+00 2.373803e+00 2.242549e+00 1.095399e+00 5.466016e+00 2.143055e+00 9.964694e-01 4.040211e-01 1.733517e+00 2.067365e+00 4.789679e+00 1.176936e+00
<GCONST> 9.900371e+01
<MIXTURE> 6 2.560706e-02
<MEAN> 40
 5.825090e+00 7.873831e+00 -1.022414e+01 3.042882e+00 4.067526e+00 5.844948e+00 6.779436e+00 9.677044e+00 8.798758e+00 2.412483e+00 1.642667e+00 4.276199e+00 1.921181e+01 5.878565e+00 8.725325e+00 5.757717e+00 6.582062e+00 1.140948e+00 3.989764e+00 3.486899e+01 4.926877e+00 3.244062e+00 2.105315e+00 -1.290003e+00 6.648152e+00 -5.706275e-01 3.425629e+00 8.343771e+00 5.318896e+00 6.055368e+00 1.149453e+01 3.843808e+00 2.081179e+01 1.162343e+01 5.410094e+00 1.562391e+01 4.652717e+00 1.593300e-01 1.634861e+01 3.328202e+00
<VARIANCE> 40
 2.306279e+00 1.030246e+00 1.392377e-01 3.053744e+00 2.876056e+00 1.827422e+00 4.125188e+00 2.046622e+00 2.583013e+00 2.523602e+00 2.266281e+00 1.835042e+00 1.378546e+00 2.708291e+00 1.163562e+00 2.599142e+00 3.222583e+00 1.679818e+00 2.087617e+00 8.600380e+00 3.291605e+00 1.481679e+00 2.013731e+00 2.231949e+00 2.345955e+00 2.573542e+00 3.651924e-01 1.998565e+00 2.349383e+00 2.288525e+00 2.604425e+00 9.505088e-01 6.211794e+00 2.019816e+00 9.737323e-01 4.144559e-01 1.519834e+00 2.538144e+00 5.364746e+00 1.237991e+00
<GCONST> 9.964294e+01
<MIXTURE> 7 2.814155e-02
<MEAN> 40
 7.190258e+00 6.140709e+00 -1.043749e+01 1.770474e+00 3.587895e+00 5.293250e+00 7.173044e+00 1.022284e+01 9.979577e+00 2.395620e+00 8.656526e-01 4.525144e+00 1.852223e+01 4.907626e+00 7.376622e+00 5.344353e+00 6.538222e+00 2.200349e+00 3.860075e+00 3.374623e+01 6.713166e+00 2.881861e+00 1.465848e+00 -4.700829e-01 7.179287e+00 -2.487080e-01 2.258982e+00 8.428762e+00 6.211666e+00 6.508870e+00 1.170213e+01 3.206148e+00 2.131014e+01 9.844809e+00 4.007651e+00 1.422746e+01 4.202178e+00 2.941457e-01 1.819212e+01 2.643685e+00
<VARIANCE> 40
 2.943422e+00 1.341674e+00 1.520294e-01 3.193224e+00 3.424002e+00 2.397270e+00 5.073684e+00 2.960701e+00 2.511020e+00 2.574716e+00 2.578015e+00 1.853680e+00 1.782986e+00 4.038178e+00 1.475379e+00 3.267984e+00 4.568616e+00 1.996963e+00 3.034573e+00 9.485710e+00 4.784854e+00 1.712086e+00 2.897082e+00 2.794160e+00 2.383808e+00 3.070340e+00 3.789464e-01 2.744412e+00 3.450633e+00 2.959290e+00 2.896850e+00 1.009962e+00 7.713042e+00 2.608852e+00 1.336882e+00 5.546476e-01 2.011693e+00 2.619386e+00 5.379274e+00 1.551927e+00
<GCONST> 1.076369e+02
<MIXTURE> 8 2.702985e-02
<MEAN> 40
 4.492815e+00 6.832222e+00 -1.082688e+01 -2.085136e-01 3.591022e+00 3.106133e+00 8.546941e+00 1.040134e+01 7.681848e+00 2.341523e+00 4.744673e+00 3.641908e+00 1.592087e+01 5.480950e+00 8.096298e+00 4.742390e+00 6.043777e+00 -3.504262e+00 7.129538e+00 3.216636e+01 5.182359e+00 4.221532e-02 2.187266e+00 -3.637169e+00 6.472878e+00 -3.545111e+00 2.038548e+00 9.151274e+00 6.749764e+00 6.121071e+00 1.139696e+01 2.321795e+00 2.308434e+01 8.781550e+00 4.002212e+00 1.435859e+01 3.088734e+00 -2.745367e+00 1.673249e+01 1.415944e+00
<VARIANCE> 40
 3.554261e+00 1.543724e+00 1.429300e-01 2.986855e+00 3.453675e+00 1.870687e+00 5.077937e+00 2.999749e+00 3.664905e+00 2.358323e+00 2.381857e+00 1.893971e+00 1.947436e+00 3.679624e+00 1.287118e+00 2.986432e+00 4.356472e+00 2.314286e+00 2.932323e+00 7.793406e+00 4.614231e+00 1.388283e+00 2.456442e+00 2.599228e+00 2.690233e+00 2.667809e+00 3.977074e-01 2.153870e+00 3.450974e+00 2.792070e+00 3.297602e+00 1.067851e+00 7.159679e+00 2.678226e+00 1.260503e+00 4.651953e-01 1.845317e+00 2.534168e+00 5.384933e+00 1.510538e+00
<GCONST> 1.064844e+02
<MIXTURE> 9 2.750001e-02
<MEAN> 40
 3.957939e+00 7.625086e+00 -9.896152e+00 1.284944e+00 3.251282e+00 4.914270e+00 6.139871e+00 8.937221e+00 6.760094e+00 3.950322e+00 3.157893e+00 3.624295e+00 1.611667e+01 4.768335e+00 8.668932e+00 5.245677e+00 6.074128e+00 -1.535370e-01 3.167828e+00 3.458911e+01 3.841753e+00 3.547741e+00 -4.374242e-02 1.243252e+00 4.846315e+00 -1.576483e+00 2.978397e+00 7.220881e+00 5.554744e+00 5.482507e+00 1.155542e+01 3.035495e+00 1.832784e+01 1.008998e+01 6.104300e+00 1.462510e+01 4.014815e+00 -2.352912e+00 1.538019e+01 2.400724e+00
<VARIANCE> 40
 4.281264e+00 1.303967e+00 1.569583e-01 4.359723e+00 3.575546e+00 2.028502e+00 5.645408e+00 2.933656e+00 3.821550e+00 2.672960e+00 3.206374e+00 2.068290e+00 2.306435e+00 4.073487e+00 1.332406e+00 3.854097e+00 2.906749e+00 2.805399e+00 3.480188e+00 1.013290e+01 5.080077e+00 2.342290e+00 3.073042e+00 3.147901e+00 3.720262e+00 4.413007e+00 4.500498e-01 2.811312e+00 3.328890e+00 2.999928e+00 3.850638e+00 9.621321e-01 9.691601e+00 2.695563e+00 1.089933e+00 6.662630e-01 2.244588e+00 3.245634e+00 5.369482e+00 1.549593e+00
<GCONST> 1.118352e+02
<MIXTURE> 10 2.664763e-02
<MEAN> 40
 4.815355e+00 6.466008e+00 -1.038727e+01 -1.222829e+00 5.126966e+00 4.509787e+00 6.823111e+00 9.763779e+00 7.974174e+00 4.863242e+00 4.494007e+00 3.542026e+00 1.514140e+01 5.674226e+00 7.831185e+00 6.302601e+00 6.769830e+00 -2.469364e+00 5.714540e+00 3.219240e+01 4.749122e+00 2.944717e+00 -1.114677e+00 -5.823833e-01 6.160416e+00 -3.799999e+00 2.059329e+00 8.063121e+00 6.509916e+00 6.382854e+00 1.071599e+01 1.573148e+00 2.144753e+01 9.929395e+00 4.645399e+00 1.448572e+01 4.594464e+00 -3.757516e+00 1.666495e+01 1.738803e+00
<VARIANCE> 40
 3.530823e+00 1.398978e+00 1.341857e-01 3.037389e+00 3.545962e+00 2.105853e+00 5.871566e+00 2.884625e+00 3.729198e+00 2.330389e+00 2.752308e+00 1.733441e+00 1.844810e+00 3.681350e+00 1.261446e+00 3.228743e+00 3.696038e+00 2.381007e+00 3.671711e+00 7.923701e+00 4.735637e+00 1.841501e+00 3.211922e+00 3.705574e+00 2.771148e+00 2.856977e+00 4.616233e-01 2.649201e+00 3.380795e+00 2.740511e+00 3.418909e+00 9.099199e-01 9.770717e+00 2.726334e+00 1.478106e+00 5.731735e-01 1.864718e+00 2.632880e+00 5.032686e+00 1.598297e+00
<GCONST> 1.087114e+02
<MIXTURE> 11 2.522364e-02
<MEAN> 40
 5.386826e+00 7.525414e+00 -1.073380e+01 3.544113e+00 2.838373e+00 4.269898e+00 7.219536e+00 1.063635e+01 8.831434e+00 -3.244767e-01 1.211117e+00 3.805161e+00 1.944013e+01 5.436399e+00 8.390190e+00 4.398959e+00 5.893907e+00 4.129262e-02 4.284878e+00 3.409970e+01 5.346321e+00 4.915674e-01 4.210569e+00 -3.334622e+00 6.840308e+00 -4.410325e-01 2.904006e+00 9.451841e+00 5.282524e+00 6.443620e+00 1.182973e+01 4.142758e+00 2.220914e+01 1.018467e+01 3.927203e+00 1.497307e+01 2.941353e+00 1.133178e+00 1.653381e+01 2.491891e+00
<VARIANCE> 40
 2.616697e+00 1.147699e+00 1.411759e-01 2.786137e+00 3.098652e+00 1.819633e+00 3.817412e+00 2.453043e+00 2.504772e+00 2.390892e+00 2.328296e+00 1.984733e+00 1.525041e+00 3.097410e+00 1.300218e+00 2.459199e+00 3.935108e+00 1.864268e+00 2.004498e+00 8.570725e+00 3.999781e+00 1.611182e+00 2.041971e+00 1.864494e+00 2.427265e+00 2.787478e+00 3.215573e-01 1.984669e+00 2.847237e+00 2.572387e+00 2.442930e+00 1.150237e+00 5.563895e+00 2.309028e+00 1.052752e+00 3.861172e-01 1.865322e+00 2.331059e+00 5.732826e+00 1.269377e+00
<GCONST> 1.013148e+02
<MIXTURE> 12 1.928818e-02
<MEAN> 40
 8.176946e-01 5.924954e+00 -1.046454e+01 2.170638e+00 3.230740e+00 3.419678e+00 5.435606e+00 1.276534e+01 3.274727e+00 1.918968e+00 2.316441e+00 1.583948e+00 1.506124e+01 3.294171e+00 7.233983e+00 4.214749e+00 6.384170e+00 -3.998229e+00 1.623342e+00 3.456503e+01 1.830014e+00 1.202949e-01 4.913893e-01 -1.469032e+00 6.694536e+00 -2.924620e+00 1.007312e+00 8.636744e+00 2.192833e+00 6.602737e+00 8.924951e+00 3.186578e+00 1.538454e+01 7.980216e+00 1.988639e+00 1.262927e+01 2.435610e-01 -5.875930e-01 1.563757e+01 5.309501e-01
<VARIANCE> 40
 6.477470e+00 1.505528e+00 2.298225e-01 4.867335e+00 4.559450e+00 2.553577e+00 8.370602e+00 3.595851e+00 3.933420e+00 3.735577e+00 4.123649e+00 2.604285e+00 3.403964e+00 5.842201e+00 1.794515e+00 4.495694e+00 4.128974e+00 3.257230e+00 4.157216e+00 1.076185e+01 5.423888e+00 3.556645e+00 4.120813e+00 3.827165e+00 5.852341e+00 6.976502e+00 5.283176e-01 3.471305e+00 5.125470e+00 3.533972e+00 5.437899e+00 1.389048e+00 9.202682e+00 3.478173e+00 2.276096e+00 7.831309e-01 3.341788e+00 3.519493e+00 5.812705e+00 2.022238e+00
<GCONST> 1.222282e+02
<MIXTURE> 13 3.181110e-02
<MEAN> 40
 4.496927e+00 7.487787e+00 -1.016640e+01 2.198603e+00 5.127350e+00 6.334697e+00 3.782914e+00 1.061167e+01 7.908151e+00 2.924241e+00 9.655809e-01 3.430073e+00 1.879354e+01 6.733913e+00 8.039602e+00 6.321159e+00 7.129050e+00 7.093356e-01 2.296743e+00 3.410787e+01 3.676508e+00 3.821167e+00 2.237329e-02 -5.130190e-01 7.160017e+00 -7.282073e-01 2.511162e+00 8.924487e+00 4.608876e+00 6.841532e+00 9.096851e+00 3.240683e+00 1.889705e+01 1.174528e+01 3.693401e+00 1.495649e+01 4.281528e+00 -2.367043e-01 1.512197e+01 2.759691e+00
<VARIANCE> 40
 2.587663e+00 9.892983e-01 1.326725e-01 2.751609e+00 2.454027e+00 1.846644e+00 4.574403e+00 2.192538e+00 3.096239e+00 2.017888e+00 2.339259e+00 1.689931e+00 1.596013e+00 3.126217e+00 1.216625e+00 2.523292e+00 3.255827e+00 1.945521e+00 2.645447e+00 9.700088e+00 4.047685e+00 2.045115e+00 2.262371e+00 2.462500e+00 2.362448e+00 2.770037e+00 3.477856e-01 2.356215e+00 2.681842e+00 2.678387e+00 2.393493e+00 1.034478e+00 7.869249e+00 2.095420e+00 1.104546e+00 4.002105e-01 1.792691e+00 2.141533e+00 3.926663e+00 1.390637e+00
<GCONST> 1.017089e+02
<MIXTURE> 14 3.461687e-02
<MEAN> 40
 4.196354e+00 7.606819e+00 -1.099645e+01 2.467982e+00 2.457425e+00 3.618126e+00 7.073118e+00 1.111011e+01 7.433841e+00 -7.708103e-02 2.367802e+00 2.957855e+00 1.766205e+01 6.245164e+00 7.969081e+00 3.978105e+00 6.428629e+00 -2.514521e+00 5.097929e+00 3.312154e+01 4.616131e+00 -9.073603e-01 4.034495e+00 -4.246090e+00 7.116493e+00 -1.210499e+00 1.975259e+00 9.818947e+00 5.441975e+00 6.722879e+00 1.076598e+01 3.355258e+00 2.221709e+01 9.777673e+00 2.749205e+00 1.426889e+01 2.064605e+00 6.461633e-03 1.609948e+01 1.142655e+00
<VARIANCE> 40
 2.957039e+00 1.205612e+00 1.368631e-01 2.767504e+00 3.078917e+00 1.789361e+00 4.768744e+00 2.917257e+00 2.793055e+00 2.377942e+00 2.371661e+00 1.862535e+00 1.827048e+00 2.988451e+00 1.342102e+00 2.520908e+00 3.976105e+00 1.672425e+00 2.447096e+00 7.798894e+00 4.512858e+00 1.740923e+00 2.061200e+00 2.201436e+00 2.660160e+00 2.613481e+00 3.370508e-01 2.290512e+00 3.025433e+00 2.511797e+00 2.688848e+00 1.253111e+00 6.916870e+00 2.225907e+00 1.142043e+00 4.230048e-01 1.870165e+00 2.247233e+00 5.159996e+00 1.314363e+00
<GCONST> 1.031467e+02
<MIXTURE> 15 1.865108e-02
<MEAN> 40
 2.505921e+00 5.945107e+00 -1.109717e+01 -3.979155e-01 2.728204e+00 3.622080e-01 7.678599e+00 1.135729e+01 5.996544e+00 3.603897e-01 4.667710e+00 1.834105e+00 1.375344e+01 4.927359e+00 6.131703e+00 4.333258e+00 6.687932e+00 -6.243636e+00 6.817569e+00 3.039935e+01 4.574804e+00 -2.255931e+00 1.655972e+00 -3.943602e+00 6.712821e+00 -4.184039e+00 3.627391e-01 8.839504e+00 6.006960e+00 6.680039e+00 9.420706e+00 1.131646e+00 2.264630e+01 5.907599e+00 1.743315e+00 1.208186e+01 4.413970e-01 -2.226794e+00 1.651357e+01 -6.610311e-01
<VARIANCE> 40
 5.229765e+00 2.211696e+00 2.117322e-01 4.281745e+00 5.384183e+00 2.778008e+00 7.416144e+00 4.847102e+00 4.400903e+00 3.541272e+00 4.096945e+00 2.227119e+00 3.068276e+00 6.651062e+00 1.940415e+00 4.826794e+00 6.824881e+00 3.241948e+00 5.741745e+00 1.061366e+01 6.643250e+00 2.792010e+00 4.227611e+00 4.693321e+00 4.237219e+00 4.448406e+00 5.372137e-01 3.729492e+00 5.162412e+00 4.016667e+00 4.927217e+00 1.602131e+00 1.315416e+01 4.022829e+00 2.292648e+00 8.376187e-01 2.698821e+00 3.874996e+00 8.048573e+00 2.276407e+00
<GCONST> 1.240834e+02
<MIXTURE> 16 2.634069e-02
<MEAN> 40
 3.279979e+00 8.056945e+00 -1.013148e+01 3.511929e+00 3.317354e+00 4.438041e+00 6.135945e+00 1.014163e+01 7.285640e+00 1.828773e+00 2.638168e+00 3.239113e+00 1.765202e+01 4.905979e+00 9.079685e+00 4.709140e+00 5.683035e+00 -6.385935e-01 3.438721e+00 3.648514e+01 4.164629e+00 1.601640e+00 2.688018e+00 -1.426602e+00 5.765854e+00 -5.209742e-01 3.062657e+00 8.831169e+00 4.790287e+00 5.412206e+00 1.165545e+01 3.768408e+00 1.877148e+01 1.053522e+01 5.004133e+00 1.492901e+01 2.977671e+00 -7.852672e-02 1.472320e+01 2.618127e+00
<VARIANCE> 40
 2.170157e+00 1.180055e+00 1.461907e-01 3.464988e+00 3.177268e+00 1.794261e+00 4.530341e+00 2.391650e+00 2.738755e+00 2.469989e+00 2.409183e+00 1.747048e+00 1.910215e+00 3.669469e+00 1.104967e+00 2.811284e+00 2.730642e+00 1.767143e+00 2.442308e+00 9.012924e+00 3.509784e+00 2.267085e+00 2.297786e+00 2.125382e+00 2.735645e+00 3.342809e+00 3.513043e-01 1.920274e+00 2.839650e+00 2.732440e+00 3.349446e+00 1.045155e+00 7.027088e+00 2.678902e+00 1.028636e+00 4.428344e-01 1.776608e+00 2.753683e+00 4.699058e+00 1.386248e+00
<GCONST> 1.033857e+02
<MIXTURE> 17 2.974848e-02
<MEAN> 40
 3.842634e+00 6.444612e+00 -1.047140e+01 1.204360e+00 4.788315e+00 3.447196e+00 5.288973e+00 1.120311e+01 8.973095e+00 1.184589e+00 2.007521e+00 3.309513e+00 1.803436e+01 5.687814e+00 7.190246e+00 6.206849e+00 6.727348e+00 -1.356297e+00 4.061369e+00 3.054166e+01 4.619786e+00 1.836609e+00 7.329882e-01 -2.681514e+00 6.637654e+00 -2.033524e+00 2.121934e+00 8.889288e+00 5.543466e+00 7.349637e+00 9.344118e+00 2.395174e+00 2.116026e+01 8.985240e+00 2.862423e+00 1.419124e+01 2.733768e+00 2.424374e-01 1.561520e+01 2.610162e+00
<VARIANCE> 40
 2.774743e+00 1.432530e+00 1.487684e-01 3.660034e+00 3.205761e+00 2.158071e+00 5.692372e+00 2.912729e+00 3.521576e+00 2.807790e+00 2.937866e+00 2.008569e+00 1.958995e+00 5.180500e+00 1.421243e+00 2.912720e+00 4.535586e+00 2.413760e+00 3.193900e+00 9.268999e+00 5.555275e+00 1.933660e+00 2.797472e+00 2.761360e+00 2.770989e+00 2.987454e+00 3.816338e-01 2.947464e+00 3.706117e+00 3.033229e+00 3.219555e+00 1.136660e+00 9.121724e+00 2.662196e+00 1.518996e+00 5.612516e-01 2.038708e+00 2.609650e+00 5.563195e+00 1.549321e+00
<GCONST> 1.098376e+02
<MIXTURE> 18 2.763456e-02
<MEAN> 40
 4.444007e+00 7.692560e+00 -1.060924e+01 4.120299e+00 2.726214e+00 5.664057e+00 5.314876e+00 1.142799e+01 7.767795e+00 1.650739e-01 1.900925e-01 3.048796e+00 1.953095e+01 6.510105e+00 8.210052e+00 4.285973e+00 6.508470e+00 4.430515e-01 2.468672e+00 3.585770e+01 4.109113e+00 9.157262e-01 3.753203e+00 -2.345267e+00 7.475740e+00 6.328383e-01 2.552784e+00 1.019552e+01 4.290899e+00 6.610906e+00 1.047129e+01 4.661775e+00 1.955451e+01 1.147676e+01 3.004227e+00 1.480464e+01 2.481481e+00 1.576486e+00 1.578972e+01 2.078673e+00
<VARIANCE> 40
 2.222636e+00 9.271911e-01 1.285618e-01 2.714643e+00 2.808973e+00 1.434599e+00 4.350483e+00 2.046661e+00 2.666462e+00 2.436364e+00 2.089133e+00 1.848407e+00 1.676203e+00 2.803408e+00 1.265206e+00 2.320076e+00 3.144285e+00 1.645727e+00 2.023627e+00 7.264043e+00 3.727945e+00 1.825949e+00 1.886516e+00 1.826326e+00 2.302613e+00 2.741692e+00 3.174307e-01 1.880484e+00 2.484400e+00 2.289798e+00 2.273120e+00 1.181056e+00 5.444770e+00 2.095077e+00 1.002078e+00 4.085324e-01 1.675525e+00 2.067217e+00 4.074125e+00 1.164451e+00
<GCONST> 9.849192e+01
<MIXTURE> 19 3.760525e-02
<MEAN> 40
 5.594091e+00 7.027576e+00 -1.057203e+01 9.120743e-01 4.164757e+00 5.068209e+00 7.591737e+00 1.012794e+01 8.323899e+00 2.999319e+00 3.150801e+00 4.035454e+00 1.738421e+01 5.748627e+00 8.359957e+00 5.381881e+00 6.420706e+00 -1.016346e+00 5.390361e+00 3.364457e+01 5.077033e+00 1.852334e+00 1.712766e+00 -2.151814e+00 6.862058e+00 -2.114012e+00 2.466865e+00 8.939459e+00 6.040864e+00 6.116738e+00 1.150139e+01 3.004295e+00 2.196097e+01 1.065435e+01 4.481656e+00 1.495563e+01 4.183287e+00 -1.636582e+00 1.688442e+01 2.138754e+00
<VARIANCE> 40
 2.412854e+00 1.187174e+00 1.165423e-01 2.467307e+00 2.960028e+00 1.816017e+00 5.045461e+00 2.485200e+00 2.643580e+00 1.976711e+00 1.932800e+00 1.724215e+00 1.391575e+00 2.957156e+00 1.179937e+00 2.839322e+00 3.718811e+00 1.568632e+00 2.519270e+00 7.294697e+00 3.933974e+00 1.425775e+00 2.321344e+00 2.259407e+00 2.380225e+00 2.283262e+00 3.213141e-01 2.028218e+00 2.928845e+00 2.485856e+00 2.789206e+00 8.397329e-01 7.033529e+00 2.110307e+00 1.115089e+00 3.919595e-01 1.584580e+00 1.921351e+00 5.093786e+00 1.227027e+00
<GCONST> 9.998589e+01
<MIXTURE> 20 2.533988e-02
<MEAN> 40
 3.959191e+00 5.942748e+00 -1.068663e+01 -1.161668e+00 4.763175e+00 2.530644e+00 6.918831e+00 1.054521e+01 7.346117e+00 2.855482e+00 4.571589e+00 2.600484e+00 1.421819e+01 5.446545e+00 6.526606e+00 5.808528e+00 7.211904e+00 -4.422939e+00 6.319243e+00 3.084244e+01 4.547763e+00 8.703969e-01 -6.025077e-01 -1.970480e+00 6.408669e+00 -4.022777e+00 9.486865e-01 8.293406e+00 6.105238e+00 6.614450e+00 9.482506e+00 8.613879e-01 2.214714e+01 8.048755e+00 2.986238e+00 1.313632e+01 2.877800e+00 -2.935775e+00 1.691442e+01 5.807716e-01
<VARIANCE> 40
 4.178337e+00 1.839031e+00 1.579315e-01 3.806165e+00 4.062072e+00 2.365424e+00 7.361101e+00 4.178930e+00 4.345038e+00 2.685236e+00 3.254390e+00 1.956390e+00 2.380828e+00 5.209880e+00 1.491715e+00 4.071218e+00 5.159662e+00 3.248151e+00 4.562310e+00 9.242300e+00 6.074459e+00 2.268414e+00 3.879972e+00 4.252647e+00 3.377583e+00 3.780558e+00 4.229079e-01 3.438598e+00 4.209673e+00 3.754667e+00 4.074818e+00 1.043213e+00 1.249547e+01 3.105059e+00 1.741491e+00 6.061935e-01 2.047190e+00 3.462561e+00 6.178142e+00 1.973173e+00
<GCONST> 1.166518e+02
<MIXTURE> 21 3.427920e-02
<MEAN> 40
 3.949441e+00 6.911651e+00 -1.025419e+01 1.480053e+00 2.373919e+00 2.792658e+00 7.871618e+00 9.206466e+00 7.284814e+00 2.314898e+00 3.618754e+00 3.556585e+00 1.539606e+01 3.580673e+00 8.344606e+00 4.485997e+00 5.298979e+00 -1.570457e+00 4.840717e+00 3.487901e+01 4.403919e+00 8.748521e-01 1.888452e+00 -3.786481e-01 5.110800e+00 -1.561156e+00 2.326403e+00 7.697560e+00 6.028210e+00 5.206443e+00 1.237366e+01 2.721545e+00 2.020621e+01 8.078513e+00 5.499370e+00 1.371842e+01 2.835696e+00 -2.018172e+00 1.603711e+01 1.994849e+00
<VARIANCE> 40
 4.551523e+00 1.823317e+00 1.869139e-01 4.591235e+00 3.891485e+00 1.941425e+00 5.844952e+00 3.152297e+00 3.749387e+00 2.996005e+00 3.371807e+00 2.129214e+00 2.561409e+00 4.705824e+00 1.501722e+00 4.231252e+00 4.194483e+00 2.241219e+00 3.375322e+00 9.827189e+00 5.074511e+00 2.144724e+00 3.388791e+00 3.178115e+00 4.228882e+00 3.920221e+00 4.528239e-01 3.027295e+00 3.893959e+00 3.549496e+00 4.092068e+00 1.135433e+00 1.002251e+01 2.808583e+00 1.164000e+00 5.834800e-01 2.181753e+00 3.754665e+00 6.695391e+00 1.737790e+00
<GCONST> 1.144427e+02
<MIXTURE> 22 3.329186e-02
<MEAN> 40
 5.867154e+00 6.452133e+00 -1.077071e+01 2.393269e+00 1.172671e+00 4.592062e+00 8.049916e+00 1.073820e+01 8.111898e+00 1.109275e+00 1.500586e+00 4.465071e+00 1.841712e+01 4.278952e+00 8.109027e+00 3.643899e+00 5.340560e+00 7.292541e-01 3.722951e+00 3.645641e+01 5.854002e+00 -1.277976e-01 4.290576e+00 -1.748919e+00 7.987165e+00 -5.236269e-03 2.198940e+00 9.285731e+00 5.500883e+00 5.430231e+00 1.233849e+01 4.626954e+00 2.103392e+01 9.184860e+00 3.409566e+00 1.389003e+01 2.463074e+00 1.743301e-01 1.673764e+01 1.567569e+00
<VARIANCE> 40
 3.123789e+00 1.374850e+00 1.553905e-01 3.226176e+00 3.264743e+00 1.731208e+00 4.489551e+00 3.006156e+00 2.726634e+00 2.824460e+00 2.694914e+00 1.829437e+00 2.145098e+00 3.625921e+00 1.477008e+00 3.227323e+00 4.090944e+00 2.149690e+00 3.129903e+00 7.926443e+00 4.197222e+00 1.542884e+00 2.377079e+00 2.242277e+00 2.908043e+00 3.047108e+00 3.614103e-01 2.285599e+00 3.741977e+00 2.605190e+00 3.112234e+00 1.121653e+00 7.558673e+00 2.618351e+00 1.253125e+00 4.570859e-01 1.900952e+00 2.610829e+00 5.762840e+00 1.423761e+00
<GCONST> 1.064454e+02
<MIXTURE> 23 2.727466e-02
<MEAN> 40
 3.672370e+00 6.768283e+00 -1.108177e+01 3.698597e-01 1.622410e+00 1.703206e+00 8.926164e+00 1.053867e+01 6.523087e+00 8.142961e-01 4.483065e+00 3.212319e+00 1.530675e+01 4.400769e+00 7.639159e+00 3.631268e+00 5.743365e+00 -4.293444e+00 7.003108e+00 3.258869e+01 5.262149e+00 -2.045240e+00 3.486282e+00 -4.047874e+00 6.812997e+00 -3.058880e+00 1.424915e+00 9.059319e+00 6.472059e+00 6.021905e+00 1.128185e+01 2.476883e+00 2.306954e+01 7.134265e+00 3.086929e+00 1.319285e+01 1.585060e+00 -2.423999e+00 1.660286e+01 3.238325e-01
<VARIANCE> 40
 4.246533e+00 1.885080e+00 1.928987e-01 3.560656e+00 3.641150e+00 2.101040e+00 5.559630e+00 3.793232e+00 3.662964e+00 2.915572e+00 2.805038e+00 1.905190e+00 2.392432e+00 4.651356e+00 1.456847e+00 3.491524e+00 5.275572e+00 2.425562e+00 3.647341e+00 8.700762e+00 4.924061e+00 1.927888e+00 2.764045e+00 3.542063e+00 3.492590e+00 3.098550e+00 4.382435e-01 2.904831e+00 4.155309e+00 3.260066e+00 3.692747e+00 1.221473e+00 9.232612e+00 3.381353e+00 1.462925e+00 6.292721e-01 2.251388e+00 2.623788e+00 6.894029e+00 1.671113e+00
<GCONST> 1.132360e+02
<MIXTURE> 24 2.938455e-02
<MEAN> 40
 5.946947e+00 6.373698e+00 -1.022655e+01 1.017247e+00 4.381648e+00 5.348470e+00 4.961294e+00 1.005218e+01 8.667045e+00 3.660877e+00 1.192065e+00 3.449625e+00 1.703364e+01 5.469231e+00 7.143234e+00 5.892088e+00 6.974077e+00 1.002313e+00 2.700463e+00 3.390918e+01 4.817033e+00 3.999970e+00 -1.103487e+00 9.902616e-01 6.616758e+00 -1.039945e+00 1.619097e+00 8.123070e+00 5.480244e+00 6.649601e+00 9.717669e+00 2.168579e+00 1.937425e+01 9.751222e+00 3.734117e+00 1.363105e+01 4.171304e+00 -1.121856e+00 1.682295e+01 2.043027e+00
<VARIANCE> 40
 3.367099e+00 1.538477e+00 1.433588e-01 3.456860e+00 3.537756e+00 2.445787e+00 5.349265e+00 3.299420e+00 3.349453e+00 2.399632e+00 3.076487e+00 1.890683e+00 1.825917e+00 4.692691e+00 1.517703e+00 3.785847e+00 4.273393e+00 2.388268e+00 3.474704e+00 1.195242e+01 5.510071e+00 1.995275e+00 3.003475e+00 2.820407e+00 2.952223e+00 3.366753e+00 3.755341e-01 3.163998e+00 3.847085e+00 3.373744e+00 3.313672e+00 1.134444e+00 1.126777e+01 2.879864e+00 1.325616e+00 4.902006e-01 2.178251e+00 2.754681e+00 4.923728e+00 1.874851e+00
<GCONST> 1.112308e+02
<MIXTURE> 25 3.769270e-02
<MEAN> 40
 6.034090e+00 6.891196e+00 -1.061292e+01 2.650029e+00 3.428260e+00 4.527942e+00 5.990498e+00 1.034297e+01 8.346114e+00 7.618886e-01 4.294156e-01 2.581894e+00 1.794446e+01 5.650857e+00 7.213256e+00 4.900250e+00 6.641527e+00 1.524776e-01 3.182692e+00 3.443432e+01 4.336639e+00 1.577706e+00 1.990088e+00 -1.187693e+00 6.954278e+00 2.388172e-01 1.579374e+00 8.977947e+00 4.580374e+00 6.560382e+00 1.039288e+01 2.738528e+00 2.127057e+01 9.989024e+00 3.243690e+00 1.370391e+01 3.201326e+00 7.894954e-01 1.703397e+01 1.616030e+00
<VARIANCE> 40
 2.423634e+00 1.290091e+00 1.374300e-01 2.636589e+00 3.092202e+00 1.965334e+00 4.371915e+00 3.441587e+00 2.544825e+00 2.064788e+00 2.482008e+00 1.715223e+00 1.607648e+00 3.923490e+00 1.594588e+00 3.064691e+00 4.347527e+00 1.788016e+00 2.756764e+00 9.528961e+00 4.977258e+00 1.548636e+00 2.045463e+00 2.478905e+00 2.656327e+00 2.967062e+00 3.064905e-01 2.638371e+00 3.248600e+00 2.801209e+00 2.675409e+00 9.854710e-01 7.882583e+00 2.209958e+00 1.215328e+00 4.633608e-01 1.997890e+00 2.326738e+00 5.655665e+00 1.524351e+00
<GCONST> 1.046804e+02
<MIXTURE> 26 3.246253e-02
<MEAN> 40
 3.561884e+00 6.568154e+00 -1.056367e+01 2.974457e+00 2.789536e+00 4.858331e+00 4.556389e+00 1.229894e+01 6.497209e+00 3.962437e-01 3.361916e-01 2.830449e+00 1.841553e+01 5.139811e+00 7.325930e+00 4.386312e+00 6.480387e+00 -5.286439e-01 1.658181e+00 3.494496e+01 3.425952e+00 5.274756e-01 2.401474e+00 -1.565979e+00 7.797737e+00 -2.423256e-01 1.651860e+00 9.752206e+00 3.812201e+00 6.943953e+00 9.269068e+00 4.200532e+00 1.812935e+01 9.864989e+00 1.780528e+00 1.347264e+01 1.445163e+00 1.199997e+00 1.560946e+01 1.296320e+00
<VARIANCE> 40
 3.087624e+00 1.249261e+00 1.628523e-01 3.373783e+00 3.487632e+00 1.995426e+00 5.865961e+00 2.655815e+00 3.590709e+00 3.071470e+00 2.742133e+00 2.201989e+00 2.336324e+00 4.815440e+00 1.508259e+00 3.016700e+00 4.038695e+00 2.335741e+00 2.885359e+00 1.082856e+01 4.787932e+00 2.338203e+00 2.552093e+00 2.854706e+00 3.239862e+00 3.633362e+00 3.600411e-01 2.727923e+00 3.889997e+00 3.165127e+00 3.133434e+00 1.071567e+00 7.523339e+00 2.670171e+00 1.220796e+00 5.059017e-01 2.080757e+00 2.525685e+00 4.564128e+00 1.645473e+00
<GCONST> 1.095370e+02
<MIXTURE> 27 3.472723e-02
<MEAN> 40
 5.699545e+00 7.236127e+00 -1.033853e+01 2.032472e+00 2.369142e+00 5.797414e+00 6.030987e+00 9.731682e+00 7.456249e+00 2.599751e+00 1.348717e+00 4.356559e+00 1.812593e+01 4.593676e+00 8.412952e+00 4.313412e+00 5.535225e+00 1.538145e+00 2.505968e+00 3.664576e+01 4.961094e+00 2.028848e+00 2.220398e+00 1.570109e-01 7.201257e+00 -1.035760e-01 2.635064e+00 8.453043e+00 4.791414e+00 5.304854e+00 1.184324e+01 4.261920e+00 1.924759e+01 1.038595e+01 4.595286e+00 1.435388e+01 3.732066e+00 -6.700054e-01 1.572329e+01 2.061912e+00
<VARIANCE> 40
 3.030925e+00 1.237349e+00 1.547980e-01 3.015445e+00 2.881657e+00 1.933535e+00 5.179214e+00 2.800219e+00 2.746728e+00 2.438180e+00 2.326343e+00 1.848613e+00 1.950992e+00 3.475045e+00 1.403119e+00 3.548019e+00 3.323484e+00 1.973032e+00 2.681567e+00 8.998474e+00 3.847665e+00 1.626258e+00 2.684911e+00 1.984632e+00 3.205760e+00 3.358357e+00 3.471044e-01 2.098444e+00 2.907890e+00 2.757822e+00 3.394462e+00 9.690717e-01 7.979001e+00 2.676775e+00 1.163008e+00 4.636793e-01 2.150433e+00 2.276204e+00 5.268203e+00 1.300889e+00
<GCONST> 1.052063e+02
<MIXTURE> 28 3.157470e-02
<MEAN> 40
 3.917287e+00 5.828593e+00 -1.066687e+01 1.207472e+00 3.702716e+00 2.735694e+00 5.558132e+00 1.158884e+01 7.485851e+00 6.130854e-01 1.866494e+00 2.296941e+00 1.617233e+01 5.153327e+00 6.285186e+00 5.034969e+00 6.853179e+00 -2.368130e+00 3.865518e+00 3.212146e+01 4.308382e+00 3.397211e-01 1.064586e+00 -1.971847e+00 6.811191e+00 -1.710506e+00 7.369871e-01 9.286574e+00 5.284997e+00 7.145827e+00 9.205347e+00 1.929524e+00 2.031895e+01 7.911130e+00 1.846836e+00 1.264206e+01 1.495078e+00 4.044437e-02 1.664391e+01 7.933618e-01
<VARIANCE> 40
 4.141345e+00 1.721774e+00 1.585259e-01 3.659212e+00 3.711544e+00 2.269534e+00 6.474465e+00 4.189027e+00 4.007073e+00 2.786914e+00 3.310594e+00 2.303095e+00 2.264321e+00 5.954956e+00 1.688797e+00 3.635548e+00 5.680102e+00 2.745995e+00 3.493165e+00 1.252736e+01 6.622683e+00 2.026922e+00 2.866374e+00 3.132935e+00 3.474104e+00 3.878202e+00 3.606981e-01 3.523455e+00 4.648137e+00 3.686274e+00 4.125069e+00 1.149976e+00 1.125216e+01 2.754931e+00 1.504145e+00 5.116657e-01 2.139210e+00 2.886286e+00 6.629170e+00 1.975193e+00
<GCONST> 1.153478e+02
<MIXTURE> 29 3.765027e-02
<MEAN> 40
 5.247066e+00 6.346146e+00 -1.066802e+01 3.569912e-01 3.500683e+00 4.356200e+00 7.087093e+00 1.029331e+01 6.970376e+00 2.560714e+00 2.698053e+00 3.184725e+00 1.594764e+01 4.679477e+00 7.349518e+00 4.958484e+00 6.604088e+00 -1.961421e+00 4.530616e+00 3.367938e+01 4.109179e+00 1.064399e+00 1.165985e+00 -1.225102e+00 7.127614e+00 -2.321365e+00 1.425414e+00 8.660967e+00 5.221821e+00 6.207082e+00 1.055982e+01 2.548700e+00 2.071890e+01 9.628517e+00 3.418184e+00 1.360811e+01 3.222486e+00 -1.698096e+00 1.730160e+01 8.476412e-01
<VARIANCE> 40
 3.193642e+00 1.379458e+00 1.338172e-01 2.897929e+00 3.298557e+00 1.822961e+00 5.185625e+00 3.327957e+00 2.845060e+00 2.286009e+00 2.288760e+00 1.845174e+00 1.576877e+00 4.167037e+00 1.308684e+00 3.410189e+00 4.052015e+00 2.123543e+00 2.871106e+00 8.826922e+00 4.876874e+00 1.527651e+00 2.471070e+00 2.376155e+00 3.124555e+00 3.138947e+00 2.867796e-01 2.687332e+00 3.646390e+00 2.835565e+00 2.980022e+00 8.877967e-01 9.255216e+00 2.302127e+00 1.152052e+00 4.079300e-01 1.760057e+00 2.152473e+00 5.158050e+00 1.371815e+00
<GCONST> 1.054716e+02
<MIXTURE> 30 2.163407e-02
<MEAN> 40
 2.958828e+00 6.900665e+00 -1.119963e+01 2.125037e+00 1.815635e+00 2.246357e+00 6.843091e+00 1.229373e+01 6.390664e+00 -8.878514e-01 2.400875e+00 2.093296e+00 1.662096e+01 5.850993e+00 6.920427e+00 3.746680e+00 7.087136e+00 -4.259319e+00 5.066131e+00 3.184952e+01 4.357502e+00 -2.171879e+00 3.764486e+00 -4.721025e+00 7.506447e+00 -1.625652e+00 1.088287e+00 9.971785e+00 5.330065e+00 7.293994e+00 9.667602e+00 2.908329e+00 2.190795e+01 8.266539e+00 1.195385e+00 1.307462e+01 3.856972e-01 1.800105e-01 1.608639e+01 -2.873615e-02
<VARIANCE> 40
 3.881742e+00 1.502701e+00 1.634355e-01 3.462207e+00 3.907651e+00 2.013313e+00 5.948959e+00 3.790142e+00 3.622284e+00 2.951697e+00 2.853121e+00 1.951627e+00 2.623858e+00 4.454580e+00 1.597278e+00 3.067504e+00 4.910824e+00 2.311237e+00 3.743705e+00 9.579043e+00 5.761698e+00 2.415372e+00 2.656709e+00 2.967241e+00 3.313805e+00 3.352641e+00 3.888326e-01 2.897681e+00 3.979284e+00 2.739871e+00 3.401204e+00 1.440423e+00 9.937943e+00 2.974508e+00 1.313374e+00 5.661814e-01 2.103854e+00 2.485433e+00 5.531641e+00 1.784148e+00
<GCONST> 1.122676e+02
<MIXTURE> 31 1.940384e-02
<MEAN> 40
 -8.843446e+00 4.503073e+00 -1.071150e+01 6.966286e+00 7.560009e+00 -8.976196e+00 5.250569e+00 1.577744e+01 -2.207903e-01 -4.770744e-01 4.328498e-01 -4.628772e+00 6.714470e+00 -4.731424e+00 2.280818e+00 2.375100e+00 -6.841500e+00 -1.196474e+01 -5.367355e+00 4.384526e+01 -6.408332e-01 -1.846074e+00 -1.167979e+01 -7.931903e-01 -1.451550e+00 -6.452179e+00 -4.302928e+00 7.826695e+00 -8.401313e-01 -1.152707e+00 -1.015465e+01 -2.912028e+00 -1.038076e+01 -1.282841e+01 7.130934e+00 -5.769508e+00 -8.028358e+00 -6.704662e-01 1.310481e+01 -4.147535e+00
<VARIANCE> 40
 3.125713e+01 1.058411e+01 5.269915e-01 1.982155e+01 5.243972e+01 2.202627e+01 5.481475e+01 2.208045e+01 3.290596e+01 4.250596e+01 4.136117e+01 2.352088e+01 1.670632e+01 4.423466e+01 2.334513e+01 1.275478e+02 4.209849e+01 1.397388e+01 3.483159e+01 6.504425e+01 5.902541e+01 2.801571e+01 3.058051e+01 3.994560e+01 2.868521e+01 9.185529e+01 3.163394e+00 1.663127e+01 8.164005e+01 6.009190e+01 2.998610e+01 7.542799e+00 7.669678e+01 2.150819e+01 8.596964e+00 4.305293e+00 1.899648e+01 4.799936e+01 2.120493e+01 2.079156e+01
<GCONST> 2.028454e+02
<MIXTURE> 32 3.454753e-02
<MEAN> 40
 4.571413e+00 6.055976e+00 -1.085192e+01 1.997369e+00 1.142080e+00 2.633161e+00 8.313888e+00 1.108385e+01 7.349645e+00 2.610075e-01 2.152410e+00 3.485363e+00 1.729559e+01 3.177716e+00 7.642681e+00 3.395783e+00 5.007204e+00 -1.312917e+00 4.183408e+00 3.520491e+01 5.005846e+00 -1.332357e+00 3.823698e+00 -2.553022e+00 7.487724e+00 -1.178036e+00 1.610181e+00 9.152965e+00 5.151779e+00 5.501258e+00 1.157634e+01 3.885508e+00 2.159514e+01 7.228082e+00 2.916715e+00 1.296996e+01 1.135698e+00 -4.350908e-01 1.654718e+01 9.879007e-01
<VARIANCE> 40
 3.944555e+00 1.595953e+00 1.683923e-01 3.887609e+00 4.178462e+00 1.960743e+00 5.326809e+00 3.603858e+00 3.537061e+00 3.448972e+00 3.046791e+00 2.231953e+00 2.536665e+00 4.367603e+00 1.533746e+00 4.224000e+00 5.000396e+00 1.912867e+00 3.212886e+00 9.920019e+00 4.926386e+00 2.110932e+00 3.172745e+00 2.954231e+00 3.898165e+00 3.586564e+00 4.679064e-01 2.673860e+00 4.659704e+00 3.184432e+00 3.782212e+00 1.272142e+00 9.412111e+00 2.835567e+00 1.473316e+00 5.632053e-01 2.409266e+00 2.816860e+00 6.860455e+00 1.703877e+00
<GCONST> 1.135818e+02
<MIXTURE> 33 3.135563e-02
<MEAN> 40
 1.877298e+00 7.100103e+00 -1.035629e+01 2.460020e+00 3.108936e+00 4.320407e+00 5.910089e+00 1.164344e+01 5.162766e+00 2.324168e+00 2.752824e+00 2.584467e+00 1.645528e+01 4.374557e+00 8.585610e+00 4.206260e+00 6.103047e+00 -2.158854e+00 2.870846e+00 3.517297e+01 2.908839e+00 1.183966e+00 1.957157e+00 -1.871925e+00 5.889709e+00 -1.764073e+00 2.312735e+00 9.115284e+00 3.787814e+00 6.074067e+00 1.103938e+01 3.740771e+00 1.771785e+01 9.358059e+00 3.889767e+00 1.425844e+01 1.486975e+00 -9.690017e-01 1.508868e+01 1.741974e+00
<VARIANCE> 40
 3.202610e+00 1.175543e+00 1.796694e-01 3.734848e+00 3.312314e+00 1.998740e+00 5.229268e+00 2.512210e+00 3.142211e+00 3.009569e+00 3.107640e+00 1.920089e+00 2.165656e+00 4.230330e+00 1.198277e+00 2.783681e+00 3.069964e+00 2.163154e+00 3.041579e+00 8.281165e+00 3.661017e+00 2.596699e+00 2.931464e+00 2.797296e+00 3.361619e+00 4.277768e+00 3.204216e-01 2.062117e+00 3.523302e+00 2.779198e+00 3.770020e+00 1.074358e+00 7.174132e+00 3.119226e+00 1.195868e+00 4.673018e-01 2.207941e+00 3.062090e+00 4.145074e+00 1.301148e+00
<GCONST> 1.078901e+02
<MIXTURE> 34 2.206454e-02
<MEAN> 40
 1.191898e+00 6.590500e+00 -1.031682e+01 4.480778e-01 3.014566e+00 2.173086e+00 6.767579e+00 1.051138e+01 4.917704e+00 2.963862e+00 4.578912e+00 1.989301e+00 1.332441e+01 3.947846e+00 8.091640e+00 4.479743e+00 5.929856e+00 -4.245454e+00 4.471623e+00 3.311833e+01 2.457966e+00 1.049443e+00 2.631682e-01 -5.852627e-01 4.071870e+00 -3.239740e+00 1.634426e+00 8.110138e+00 5.016270e+00 5.982300e+00 1.102899e+01 2.046936e+00 1.815964e+01 7.223463e+00 4.699623e+00 1.326608e+01 1.395557e+00 -2.982543e+00 1.560154e+01 1.094298e+00
<VARIANCE> 40
 4.336289e+00 1.605155e+00 2.189095e-01 5.381120e+00 4.139781e+00 2.435069e+00 6.382242e+00 3.942630e+00 4.308621e+00 3.760571e+00 4.026912e+00 2.057336e+00 2.956574e+00 5.548366e+00 1.460863e+00 3.845934e+00 3.488613e+00 2.579204e+00 4.162958e+00 9.838266e+00 5.538278e+00 3.159183e+00 4.616430e+00 4.779300e+00 4.549883e+00 6.127726e+00 5.032402e-01 3.540779e+00 4.654415e+00 3.243935e+00 4.421467e+00 1.061651e+00 1.175165e+01 3.516843e+00 1.600043e+00 7.653322e-01 2.547635e+00 4.121647e+00 5.083508e+00 1.723091e+00
<GCONST> 1.190558e+02
<MIXTURE> 35 3.086636e-02
<MEAN> 40
 5.939280e+00 7.174641e+00 -1.044770e+01 3.386475e+00 3.408240e+00 6.196492e+00 4.240608e+00 1.091209e+01 8.546131e+00 8.484505e-01 -1.181691e+00 3.279804e+00 1.989927e+01 6.283869e+00 7.552310e+00 5.099859e+00 6.750215e+00 2.485353e+00 1.470939e+00 3.544302e+01 4.370707e+00 2.815366e+00 2.033869e+00 -2.145547e-01 7.625702e+00 1.266850e+00 2.233235e+00 9.393244e+00 4.314645e+00 6.843314e+00 9.980583e+00 4.076941e+00 1.954459e+01 1.118738e+01 3.084098e+00 1.434324e+01 3.575717e+00 1.660050e+00 1.617305e+01 2.427456e+00
<VARIANCE> 40
 2.626820e+00 1.048703e+00 1.355748e-01 2.476401e+00 2.820855e+00 1.885868e+00 4.215502e+00 2.390143e+00 2.820800e+00 2.185109e+00 2.109826e+00 1.894290e+00 1.478761e+00 3.331027e+00 1.406648e+00 2.582294e+00 3.726811e+00 1.619951e+00 2.585534e+00 1.040669e+01 4.551264e+00 1.871788e+00 2.055017e+00 2.245182e+00 2.085516e+00 2.892880e+00 2.926618e-01 2.292497e+00 2.795318e+00 2.547157e+00 2.427943e+00 1.149750e+00 6.963266e+00 2.446663e+00 1.041170e+00 4.300988e-01 1.790651e+00 2.027194e+00 4.152219e+00 1.432734e+00
<GCONST> 1.017609e+02
<MIXTURE> 36 2.440823e-02
<MEAN> 40
 2.836044e+00 6.469722e+00 -1.012832e+01 8.847402e-01 4.963479e+00 4.769636e+00 3.628959e+00 1.116469e+01 5.992038e+00 3.312399e+00 2.229257e+00 2.646085e+00 1.620022e+01 5.378847e+00 7.316130e+00 6.120393e+00 6.807109e+00 -1.700860e+00 2.056077e+00 3.303481e+01 2.414639e+00 2.958781e+00 -1.695617e+00 2.711950e-01 6.405074e+00 -2.676164e+00 1.618665e+00 8.351322e+00 4.259800e+00 6.666229e+00 8.128960e+00 2.417292e+00 1.648880e+01 9.669567e+00 3.053293e+00 1.350986e+01 2.858855e+00 -1.279875e+00 1.500955e+01 1.529582e+00
<VARIANCE> 40
 4.390622e+00 1.220102e+00 1.697312e-01 4.350999e+00 3.933367e+00 2.392278e+00 6.570835e+00 3.273176e+00 4.148171e+00 3.111393e+00 3.619709e+00 2.091335e+00 2.566643e+00 5.023949e+00 1.584291e+00 4.018689e+00 4.078687e+00 2.589360e+00 3.679893e+00 1.135958e+01 5.153042e+00 2.616052e+00 3.183637e+00 3.200459e+00 4.838114e+00 4.667968e+00 5.080377e-01 3.490418e+00 4.859274e+00 3.577688e+00 3.659594e+00 1.139787e+00 1.091304e+01 3.002143e+00 1.771626e+00 6.749574e-01 2.339032e+00 3.250424e+00 4.630229e+00 1.923497e+00
<GCONST> 1.160603e+02
~h "eight"
<BEGINHMM>
<NUMSTATES> 18
<STATE> 2
<NUMMIXES> 20
<MIXTURE> 1 3.797215e-02
<MEAN> 40
 6.553849e+00 6.364288e+00 -1.098311e+01 1.969568e+00 -2.463053e+00 4.712755e+00 3.790424e+00 1.237533e+01 8.025437e+00 4.333299e+00 -5.683293e-01 5.486584e+00 1.562745e+01 4.189871e+00 5.015892e+00 -4.662961e+00 4.152856e+00 8.295062e-01 2.806828e+00 3.592820e+01 2.010472e+00 2.329041e+00 9.779325e-01 8.276846e-01 8.763872e+00 5.561309e-01 1.093029e+00 8.380839e+00 2.689626e+00 5.884665e+00 7.141711e+00 4.735023e+00 1.498184e+01 7.790885e+00 4.180683e+00 1.117945e+01 1.563573e+00 2.377519e+00 1.997005e+01 1.507786e+00
<VARIANCE> 40
 5.520754e+00 2.245619e+00 3.269315e-01 4.367839e+00 4.621392e+00 3.018579e+00 5.729593e+00 3.545523e+00 4.252789e+00 6.365153e+00 4.689936e+00 3.386174e+00 4.501824e+00 4.443600e+00 1.516788e+00 7.163341e+00 6.609921e+00 2.988692e+00 4.635211e+00 1.232091e+01 5.560541e+00 3.943908e+00 4.709083e+00 3.905270e+00 3.015672e+00 6.172074e+00 4.177493e-01 4.724816e+00 5.332958e+00 5.266890e+00 2.956061e+00 1.113323e+00 9.349189e+00 3.862689e+00 2.033497e+00 1.113441e+00 3.652194e+00 2.619414e+00 5.575781e+00 3.291294e+00
<GCONST> 1.242110e+02
<MIXTURE> 2 5.037730e-02
<MEAN> 40
 -4.839818e+00 4.383385e+00 -1.059684e+01 -1.590261e+00 5.273449e-01 -3.455423e+00 -1.422549e+00 8.188759e+00 2.460571e+00 4.974793e+00 2.540342e+00 9.916020e-01 8.627287e+00 3.496371e+00 -3.777182e+00 -1.531636e+01 5.840549e-02 -7.703864e+00 -2.440284e+00 3.718843e+01 1.026645e+00 7.289177e-01 -3.289524e+00 6.015851e+00 3.682930e+00 -9.267097e+00 -1.002766e+00 4.173688e+00 -3.373429e+00 9.039922e+00 -9.359052e-01 2.581304e+00 -4.773083e+00 -3.897922e+00 6.214036e+00 3.089566e-01 -2.712236e+00 5.522235e+00 1.271468e+01 -2.480071e+00
<VARIANCE> 40
 1.183225e+01 3.072141e+00 4.486804e-01 1.984608e+01 2.864183e+01 1.573643e+01 2.750058e+01 1.140702e+01 1.010386e+01 7.254815e+00 1.463002e+01 6.894588e+00 9.600018e+00 2.596514e+01 8.325510e+00 2.376887e+01 1.954130e+01 1.040213e+01 1.113536e+01 3.790834e+01 2.520319e+01 9.487024e+00 7.646943e+00 1.260608e+01 1.205475e+01 3.292103e+01 2.329662e+00 1.201944e+01 2.517238e+01 9.434293e+00 3.196871e+01 4.529159e+00 5.325826e+01 7.714193e+00 5.541928e+00 2.305676e+00 6.134459e+00 9.915229e+00 1.766088e+01 8.250860e+00
<GCONST> 1.696908e+02
<MIXTURE> 3 4.748369e-02
<MEAN> 40
 -1.118961e+01 2.197913e+00 -1.058946e+01 -5.249529e+00 2.732443e+00 -3.761316e+00 1.952074e+00 8.239631e+00 3.962642e+00 7.485125e+00 6.293694e+00 -8.477194e-01 9.051089e+00 -2.788652e+00 -5.609914e+00 -1.864401e+01 -2.002006e+00 -7.758320e+00 -1.551206e+00 3.639795e+01 -7.819306e+00 5.651428e+00 -3.890517e+00 4.406610e+00 -3.211221e+00 2.962444e+00 -3.151486e+00 5.114746e+00 1.615116e+00 6.971025e+00 -4.397957e+00 -4.452601e-01 -8.447200e+00 -2.903995e+00 5.424829e+00 -3.068352e+00 -3.365801e+00 5.303040e+00 1.282967e+01 -2.554569e+00
<VARIANCE> 40
 1.629837e+01 5.616504e+00 4.224051e-01 2.788356e+01 3.189198e+01 1.140491e+01 2.744347e+01 1.433489e+01 1.049386e+01 1.255115e+01 2.129885e+01 7.805424e+00 8.177471e+00 3.390955e+01 1.051070e+01 3.838175e+01 2.551614e+01 7.080833e+00 2.431632e+01 4.473903e+01 1.188778e+01 1.145720e+01 6.406948e+00 1.466733e+01 1.266819e+01 3.924454e+01 1.836587e+00 1.645356e+01 1.644787e+01 1.380467e+01 1.868317e+01 3.196987e+00 3.731270e+01 1.339223e+01 5.622382e+00 1.779719e+00 7.806280e+00 1.466692e+01 1.665976e+01 5.354750e+00
<GCONST> 1.725154e+02
<MIXTURE> 4 6.340575e-02
<MEAN> 40
 2.936443e+00 3.422934e+00 -1.109315e+01 5.267789e-01 -3.136079e+00 -3.468796e+00 5.390337e+00 1.340243e+01 7.504705e+00 1.696216e+00 3.387528e+00 3.389116e+00 1.103010e+01 1.320390e+00 2.793271e+00 -6.668879e+00 8.113911e-01 -4.196949e+00 6.118703e+00 3.391766e+01 2.429444e+00 -2.301929e+00 3.707300e-01 -1.059432e+00 6.975107e+00 -1.761615e+00 -1.714494e+00 7.894098e+00 3.895267e+00 4.747356e+00 6.897267e+00 1.716563e+00 1.678522e+01 -7.440203e-01 2.648053e+00 6.347643e+00 -3.208575e+00 1.061172e+00 1.978932e+01 -6.463444e-01
<VARIANCE> 40
 1.207932e+01 2.848123e+00 3.567272e-01 7.298800e+00 8.987277e+00 4.462136e+00 8.190384e+00 7.114692e+00 1.011146e+01 6.779200e+00 6.049668e+00 5.835654e+00 4.407248e+00 1.027827e+01 2.651331e+00 1.377967e+01 9.838605e+00 3.817775e+00 6.924401e+00 2.389265e+01 9.743165e+00 5.603690e+00 6.046715e+00 7.275156e+00 6.698646e+00 7.657454e+00 8.607106e-01 7.806392e+00 9.656041e+00 5.337715e+00 6.769789e+00 2.813756e+00 2.127358e+01 6.896292e+00 2.577914e+00 3.003176e+00 5.681482e+00 7.553461e+00 1.237455e+01 3.729580e+00
<GCONST> 1.448465e+02
<MIXTURE> 5 5.078360e-02
<MEAN> 40
 -9.088638e+00 4.157885e+00 -1.067413e+01 1.505044e+00 1.138978e+01 -5.482004e+00 -3.130447e-01 1.202242e+01 5.982584e+00 7.596781e+00 4.732344e+00 3.829308e-01 5.666838e+00 -2.992940e+00 -4.331841e+00 -1.457149e+01 -7.569632e+00 -9.704638e+00 -2.448110e+00 3.624105e+01 1.938424e+00 1.608548e+00 -8.038028e+00 5.491127e+00 2.009860e+00 -6.930664e+00 -2.170969e+00 7.677148e+00 -5.180332e+00 7.405920e+00 -3.119192e+00 -1.710985e-01 -1.529807e+01 -8.081775e+00 8.460838e+00 -3.424783e+00 -5.906909e+00 5.972560e+00 1.269437e+01 -4.443073e+00
<VARIANCE> 40
 1.487007e+01 3.533858e+00 2.350752e-01 1.420020e+01 2.452194e+01 8.943958e+00 2.683266e+01 1.452263e+01 9.559865e+00 9.934111e+00 1.448879e+01 7.951521e+00 9.235040e+00 1.825416e+01 8.300665e+00 1.427595e+01 1.221973e+01 7.659569e+00 1.463352e+01 1.887337e+01 3.297206e+01 1.249170e+01 8.678321e+00 1.571170e+01 1.399888e+01 3.007356e+01 1.334714e+00 1.748405e+01 4.021283e+01 1.071062e+01 1.422917e+01 2.282826e+00 2.177066e+01 7.436006e+00 2.207438e+00 1.273115e+00 7.396976e+00 1.113072e+01 1.419454e+01 6.646329e+00
<GCONST> 1.641534e+02
<MIXTURE> 6 4.334460e-02
<MEAN> 40
 -9.928410e+00 2.903138e+00 -1.095664e+01 1.018085e+00 8.556367e+00 -1.047622e+01 5.481191e+00 1.555176e+01 8.619311e+00 7.675854e+00 6.880889e+00 -3.824167e+00 4.879515e+00 -3.790379e+00 -6.817719e+00 -1.529921e+01 -8.967718e+00 -1.151619e+01 -3.264539e+00 3.304936e+01 9.078125e+00 -1.581216e+00 -7.816963e+00 6.349153e+00 6.294118e-01 -2.417628e+00 -3.238179e+00 1.191091e+01 -1.219080e+01 1.045399e+01 -4.574045e+00 -1.611824e+00 -2.026263e+01 -1.108237e+01 7.594569e+00 -4.746558e+00 -9.158394e+00 4.760098e+00 1.334929e+01 -6.975287e+00
<VARIANCE> 40
 1.191485e+01 3.756980e+00 2.214572e-01 1.084958e+01 1.732726e+01 6.303950e+00 1.549569e+01 5.903040e+00 9.356833e+00 1.267261e+01 1.129311e+01 5.871406e+00 7.540261e+00 1.379614e+01 1.007098e+01 1.386869e+01 1.452770e+01 5.431200e+00 9.501053e+00 1.644655e+01 1.667674e+01 1.492686e+01 8.225560e+00 9.417862e+00 9.586875e+00 2.074251e+01 1.349049e+00 1.342982e+01 2.682812e+01 1.002228e+01 1.472619e+01 2.926441e+00 2.316551e+01 4.277276e+00 4.261246e+00 1.671625e+00 5.966204e+00 9.551515e+00 1.303748e+01 8.849093e+00
<GCONST> 1.581405e+02
<MIXTURE> 7 7.559266e-02
<MEAN> 40
 4.996067e+00 5.396842e+00 -1.097723e+01 8.765188e-01 -1.901838e+00 1.346871e+00 4.968864e+00 1.230256e+01 7.746692e+00 4.799389e+00 2.055304e+00 4.955745e+00 1.310185e+01 3.376624e+00 3.969783e+00 -6.254664e+00 2.116682e+00 -2.047204e+00 5.026340e+00 3.405907e+01 1.430600e+00 1.046479e+00 -7.113523e-01 -1.393092e-01 8.072509e+00 -1.384196e+00 5.352403e-02 8.432859e+00 2.877352e+00 5.367637e+00 6.469686e+00 3.302171e+00 1.704428e+01 5.356180e+00 4.417978e+00 9.650032e+00 4.306708e-01 1.946740e+00 2.033524e+01 3.350274e-01
<VARIANCE> 40
 4.930502e+00 2.442708e+00 2.497499e-01 5.661208e+00 7.262010e+00 3.146658e+00 8.231373e+00 5.467027e+00 8.159484e+00 6.597481e+00 4.779883e+00 3.458962e+00 3.544034e+00 5.537943e+00 2.406872e+00 1.115104e+01 6.796114e+00 2.932721e+00 5.175888e+00 1.164055e+01 6.042735e+00 3.982254e+00 6.290059e+00 7.303009e+00 4.342083e+00 6.184046e+00 7.266735e-01 4.432374e+00 5.765102e+00 4.999500e+00 5.823184e+00 2.561369e+00 1.158451e+01 3.533978e+00 3.041219e+00 1.934770e+00 5.067255e+00 4.272920e+00 6.249990e+00 2.798036e+00
<GCONST> 1.323869e+02
<MIXTURE> 8 4.340402e-02
<MEAN> 40
 -2.744593e+00 2.457741e+00 -1.123046e+01 1.495364e+00 3.947754e-01 -6.524428e+00 5.527186e+00 1.151371e+01 7.085154e+00 1.051644e+00 6.642973e+00 2.990855e+00 1.229134e+01 -1.270202e+00 7.003243e-01 -4.481442e+00 -2.792878e+00 -5.091578e+00 6.709593e+00 2.745396e+01 3.314805e+00 -4.021972e+00 1.742473e+00 -2.855772e+00 5.699937e+00 -4.832554e+00 -1.640321e+00 9.086878e+00 1.803993e+00 5.491231e+00 3.514965e+00 2.361169e+00 1.791976e+01 -3.955745e+00 2.191675e+00 3.839070e+00 -4.844461e+00 -1.070918e+00 1.517474e+01 4.196816e-02
<VARIANCE> 40
 1.331186e+01 4.533775e+00 6.316203e-01 1.993359e+01 1.617980e+01 6.501449e+00 8.028172e+00 1.328266e+01 8.942012e+00 7.618449e+00 8.511786e+00 5.285746e+00 5.639959e+00 1.137305e+01 6.859223e+00 2.757293e+01 1.092014e+01 7.571821e+00 8.163368e+00 1.311929e+01 1.241523e+01 8.166093e+00 1.149579e+01 1.430762e+01 6.301490e+00 1.179034e+01 7.551013e-01 9.661174e+00 1.119795e+01 7.323629e+00 8.508446e+00 3.419539e+00 2.005286e+01 9.670312e+00 4.717566e+00 2.515785e+00 7.638016e+00 1.078195e+01 8.590981e+00 4.834586e+00
<GCONST> 1.556667e+02
<MIXTURE> 9 3.917409e-02
<MEAN> 40
 -9.701366e+00 -5.661955e-01 -1.096918e+01 -9.403812e-01 1.089288e+01 -6.638269e+00 -1.084193e+00 1.200431e+01 7.701266e+00 6.056398e+00 4.845764e+00 -4.053550e-01 2.623118e+00 -6.277792e+00 -9.044839e+00 -1.769010e+01 -8.701733e+00 -1.351678e+01 -1.432307e-01 3.402224e+01 -2.180100e-01 -4.179960e+00 -4.495584e+00 5.777964e+00 2.965717e+00 -1.470189e+01 -3.733932e+00 6.837130e+00 -1.058527e+01 1.033859e+01 -2.572711e-01 -3.106889e-01 -1.794527e+01 -1.069957e+01 5.382538e+00 -5.490314e+00 -7.707839e+00 5.504477e+00 1.431991e+01 -5.291263e+00
<VARIANCE> 40
 2.168478e+01 4.538676e+00 2.644000e-01 1.767202e+01 1.517536e+01 8.715725e+00 2.793873e+01 9.266195e+00 1.011892e+01 8.723469e+00 1.861718e+01 3.823526e+00 7.735527e+00 2.436864e+01 8.423728e+00 1.303754e+01 1.182155e+01 5.025677e+00 1.612408e+01 1.585569e+01 1.801012e+01 1.364637e+01 1.066394e+01 1.467759e+01 1.244380e+01 2.226811e+01 1.645729e+00 1.695738e+01 3.234463e+01 9.973796e+00 2.738688e+01 3.706638e+00 2.046236e+01 5.947969e+00 4.873913e+00 1.512873e+00 7.943586e+00 1.513153e+01 1.221512e+01 4.967462e+00
<GCONST> 1.640009e+02
<MIXTURE> 10 4.955566e-02
<MEAN> 40
 -1.506587e+01 -6.085787e-02 -1.099267e+01 -7.025676e+00 8.048760e+00 -6.275382e+00 1.207464e+00 1.136392e+01 8.032747e+00 8.048385e+00 8.618863e+00 -2.526932e+00 7.243284e+00 -1.875849e+00 -8.501596e+00 -2.326443e+01 -3.181406e+00 -1.156194e+01 -3.081622e+00 3.880640e+01 -8.377112e+00 4.241271e+00 -3.883241e+00 6.607926e+00 -4.547339e+00 -7.281749e-01 -4.681297e+00 6.412718e+00 9.744916e-01 7.600267e+00 -6.586788e+00 -2.563904e+00 -1.550773e+01 -5.715181e+00 5.355181e+00 -5.679934e+00 -6.711547e+00 8.202394e+00 1.372578e+01 -6.770610e+00
<VARIANCE> 40
 9.602646e+00 6.269148e+00 2.397044e-01 2.839801e+01 2.463204e+01 9.488060e+00 1.998295e+01 1.495729e+01 9.154029e+00 9.385075e+00 9.821177e+00 5.892403e+00 7.233650e+00 1.994420e+01 7.081792e+00 2.099867e+01 1.751827e+01 8.086269e+00 1.739690e+01 1.613916e+01 1.705970e+01 1.113035e+01 1.272805e+01 8.506796e+00 1.052660e+01 3.132939e+01 1.060559e+00 1.163303e+01 1.836587e+01 7.628971e+00 1.411594e+01 2.455707e+00 2.599572e+01 8.837097e+00 4.850395e+00 1.307684e+00 8.113453e+00 8.029919e+00 1.227187e+01 6.319092e+00
<GCONST> 1.623032e+02
<MIXTURE> 11 5.557287e-02
<MEAN> 40
 -1.017880e+01 3.352220e+00 -1.085742e+01 -4.963692e+00 6.665988e+00 -3.655522e+00 -1.800223e+00 1.196379e+01 6.708061e+00 6.614574e+00 2.888729e+00 2.622680e+00 5.488064e+00 -1.973898e+00 -7.107662e+00 -1.699287e+01 -3.731563e+00 -1.034610e+01 -4.724253e+00 3.607752e+01 4.326164e-01 -1.252322e+00 -4.317581e+00 1.021264e+01 4.352363e+00 -1.272165e+01 -1.733684e+00 5.930331e+00 -2.804565e+00 1.050412e+01 -4.247036e+00 1.468615e+00 -1.560386e+01 -8.793132e+00 8.197534e+00 -2.462497e+00 -5.980154e+00 6.723715e+00 1.232599e+01 -5.158998e+00
<VARIANCE> 40
 1.194245e+01 4.435937e+00 3.067215e-01 1.273909e+01 2.377777e+01 7.129434e+00 3.616176e+01 1.157590e+01 9.544518e+00 9.506663e+00 1.001042e+01 3.713697e+00 7.852582e+00 2.325687e+01 8.986747e+00 1.973892e+01 1.346150e+01 8.608359e+00 7.563277e+00 2.023420e+01 1.482705e+01 1.411303e+01 1.037770e+01 1.169225e+01 7.679165e+00 1.357313e+01 1.156005e+00 1.160314e+01 1.348719e+01 7.293905e+00 1.606844e+01 2.220428e+00 2.792648e+01 8.434891e+00 4.342697e+00 1.445899e+00 9.990487e+00 7.843641e+00 1.010398e+01 7.194198e+00
<GCONST> 1.598054e+02
<MIXTURE> 12 4.485301e-02
<MEAN> 40
 7.771708e-01 3.502977e+00 -1.103146e+01 3.622634e+00 -1.506914e+00 -2.752212e+00 2.624540e+00 1.460214e+01 1.741188e+00 2.895966e+00 -1.554271e-01 1.154908e+00 8.166576e+00 -1.193178e+00 2.610575e+00 -8.492998e+00 2.444870e+00 -7.240638e+00 1.648450e+00 3.720220e+01 -6.833821e-01 -9.699275e-01 -2.289294e+00 -1.030684e-01 5.425677e+00 -1.767650e+00 -3.282785e+00 8.572843e+00 1.983622e+00 5.320107e+00 3.788632e+00 1.756064e+00 9.262997e+00 -1.056709e+00 1.459416e+00 4.247942e+00 -4.010895e+00 6.980740e-01 2.068489e+01 -3.557545e-01
<VARIANCE> 40
 1.116590e+01 4.662921e+00 3.068393e-01 7.079806e+00 9.339206e+00 5.224383e+00 1.017611e+01 6.888287e+00 7.987494e+00 1.030985e+01 1.064402e+01 4.494906e+00 5.701772e+00 2.707282e+01 3.438048e+00 2.507379e+01 9.609674e+00 7.371258e+00 8.979146e+00 3.499551e+01 1.390538e+01 9.028407e+00 8.650318e+00 9.418554e+00 7.671048e+00 1.458974e+01 6.403736e-01 8.826717e+00 1.598559e+01 9.233419e+00 9.458244e+00 2.516110e+00 2.439320e+01 8.507713e+00 4.204331e+00 2.633171e+00 7.826075e+00 1.244212e+01 7.931659e+00 4.576912e+00
<GCONST> 1.539232e+02
<MIXTURE> 13 5.643086e-02
<MEAN> 40
 3.670340e+00 4.691154e+00 -1.097628e+01 2.267924e+00 -1.704396e+00 1.003002e+00 2.318972e+00 1.465254e+01 3.817941e+00 3.374745e+00 -8.542615e-01 2.585423e+00 1.072579e+01 2.190420e+00 3.361592e+00 -7.185963e+00 2.979340e+00 -3.642247e+00 1.728011e+00 3.760334e+01 4.017114e-01 -2.336922e-01 -1.041947e+00 1.307802e+00 7.270494e+00 -7.724998e-01 -1.261475e+00 8.026978e+00 2.112608e+00 5.856781e+00 6.112355e+00 3.146250e+00 1.184900e+01 3.829304e+00 3.050187e+00 7.758736e+00 -1.190270e+00 2.236237e+00 2.163098e+01 -3.136101e-01
<VARIANCE> 40
 1.066020e+01 2.791006e+00 2.308543e-01 5.685077e+00 5.815306e+00 6.267551e+00 5.779044e+00 4.503792e+00 7.824513e+00 6.574378e+00 5.375300e+00 5.277748e+00 4.557533e+00 6.754214e+00 2.237489e+00 1.746931e+01 9.005644e+00 5.590998e+00 5.933248e+00 2.069617e+01 6.342814e+00 6.065243e+00 5.412736e+00 5.767129e+00 5.314698e+00 7.708529e+00 7.558638e-01 5.821495e+00 6.585243e+00 5.094021e+00 7.351748e+00 1.537533e+00 1.027823e+01 5.203342e+00 2.511303e+00 1.855495e+00 6.133878e+00 6.574678e+00 8.885529e+00 4.686269e+00
<GCONST> 1.383107e+02
<MIXTURE> 14 5.207709e-02
<MEAN> 40
 7.233506e+00 6.436616e+00 -1.128965e+01 8.980325e-01 -3.179533e+00 2.700493e+00 3.237460e+00 1.410762e+01 7.454704e+00 4.634705e+00 -1.913989e+00 5.218911e+00 1.260729e+01 4.407120e+00 4.488673e+00 -7.218176e+00 3.624192e+00 6.682078e-01 2.436349e+00 3.834626e+01 2.755671e+00 2.121789e+00 -1.899197e-02 3.561604e+00 8.993220e+00 1.922324e+00 -3.679928e-01 7.926343e+00 3.040030e+00 6.173000e+00 7.796879e+00 3.933879e+00 1.387492e+01 4.907259e+00 4.254129e+00 9.287498e+00 9.339008e-01 2.851451e+00 2.279430e+01 2.436348e-01
<VARIANCE> 40
 4.301213e+00 1.597624e+00 2.040209e-01 5.434311e+00 5.145025e+00 3.865030e+00 6.268374e+00 6.944303e+00 4.205011e+00 6.418149e+00 5.768486e+00 4.008654e+00 3.061200e+00 4.018582e+00 2.183725e+00 1.048891e+01 9.809594e+00 4.858912e+00 5.543102e+00 1.091280e+01 4.142482e+00 4.088432e+00 6.585279e+00 4.952876e+00 2.336345e+00 2.736128e+00 5.524265e-01 4.068976e+00 7.226497e+00 4.605933e+00 4.357745e+00 1.766449e+00 5.955919e+00 3.420193e+00 2.484962e+00 7.860082e-01 3.736331e+00 4.726469e+00 6.697996e+00 2.382203e+00
<GCONST> 1.262032e+02
<MIXTURE> 15 5.343227e-02
<MEAN> 40
 1.118245e+00 1.901649e+00 -1.082275e+01 1.294537e+00 -3.616012e+00 -7.425923e+00 3.955625e+00 1.058801e+01 7.274798e+00 3.349637e+00 4.329794e+00 2.644625e+00 9.397021e+00 -2.931170e+00 -7.389922e-01 -1.077064e+01 -3.842843e-01 -7.474025e+00 7.213026e+00 3.075057e+01 -6.271279e-01 -3.922940e+00 -2.240413e+00 -1.942131e+00 4.248634e+00 -8.645985e-01 -3.886890e+00 8.396582e+00 1.958871e-02 6.115376e+00 1.650069e+00 6.031539e-01 1.423158e+01 -8.051061e+00 1.521151e+00 2.782506e-01 -6.086673e+00 -1.705272e+00 1.899801e+01 -1.899742e+00
<VARIANCE> 40
 1.373545e+01 7.378208e+00 4.427594e-01 1.426915e+01 2.387280e+01 5.608575e+00 1.081285e+01 1.223884e+01 9.571155e+00 1.295784e+01 1.037877e+01 5.995350e+00 9.500790e+00 2.664814e+01 5.866382e+00 1.957506e+01 1.191496e+01 7.092717e+00 1.374045e+01 2.807039e+01 1.748553e+01 1.043963e+01 1.045867e+01 1.557339e+01 7.032768e+00 2.083243e+01 1.234360e+00 9.462614e+00 1.594783e+01 1.153772e+01 1.629210e+01 3.571253e+00 3.006315e+01 8.906000e+00 5.818824e+00 2.876069e+00 6.421649e+00 1.267384e+01 1.667857e+01 7.222662e+00
<GCONST> 1.640017e+02
<MIXTURE> 16 5.712623e-02
<MEAN> 40
 -3.107700e+00 1.983917e+00 -1.082436e+01 7.376333e-01 6.348200e+00 -5.158738e+00 -7.058835e-01 1.044405e+01 4.227688e+00 5.814290e+00 -2.219742e-01 -1.564903e-01 2.879290e+00 -7.554280e+00 -4.792921e+00 -1.472742e+01 -5.943075e+00 -1.073342e+01 1.923191e+00 3.184455e+01 -1.436515e+00 -3.436143e+00 -2.763740e+00 4.687870e+00 5.501516e+00 -1.202858e+01 -2.779850e+00 6.071646e+00 -1.008803e+01 9.603465e+00 5.374493e+00 1.912416e+00 -9.799045e+00 -7.648765e+00 4.880725e+00 -2.382866e+00 -5.286030e+00 1.960770e+00 1.770526e+01 -2.907884e+00
<VARIANCE> 40
 1.481507e+01 5.488063e+00 4.296924e-01 1.269913e+01 3.189890e+01 9.358324e+00 1.697477e+01 1.147745e+01 9.557044e+00 7.517273e+00 1.688295e+01 6.022492e+00 9.200715e+00 4.239999e+01 5.829850e+00 1.190739e+01 1.920057e+01 9.313002e+00 1.342530e+01 3.960869e+01 2.221766e+01 1.013126e+01 1.303253e+01 1.150154e+01 9.326286e+00 3.453376e+01 2.193779e+00 1.241820e+01 3.045575e+01 1.329491e+01 2.687171e+01 3.127712e+00 4.580904e+01 8.498679e+00 4.371757e+00 1.979926e+00 6.834850e+00 1.169112e+01 1.111199e+01 5.311203e+00
<GCONST> 1.676689e+02
<MIXTURE> 17 6.058688e-02
<MEAN> 40
 -9.228136e+00 3.613896e+00 -1.070444e+01 -6.130481e-01 6.569170e+00 -6.370070e+00 -1.706467e+00 1.433732e+01 6.372160e+00 5.589416e+00 2.266225e+00 3.266527e-01 4.596559e+00 -3.731796e+00 -5.753176e+00 -1.754112e+01 -5.091043e+00 -1.407503e+01 -4.604567e+00 3.914951e+01 -3.312677e-01 -3.264776e+00 -8.441192e+00 7.408648e+00 2.389596e+00 -1.217859e+01 -3.144907e+00 8.658559e+00 -1.685327e+00 9.924501e+00 -6.885676e+00 -9.221135e-01 -1.716861e+01 -1.186477e+01 7.625666e+00 -3.973854e+00 -8.879693e+00 5.974898e+00 1.455804e+01 -7.320176e+00
<VARIANCE> 40
 1.214449e+01 3.842806e+00 2.537509e-01 1.233960e+01 2.074268e+01 6.804082e+00 3.444725e+01 9.763022e+00 1.230259e+01 9.700443e+00 1.201407e+01 4.637663e+00 8.760609e+00 2.017436e+01 9.468956e+00 1.978480e+01 1.212223e+01 8.313225e+00 9.722123e+00 2.155971e+01 2.261791e+01 1.416579e+01 1.187597e+01 1.327736e+01 1.134336e+01 1.945765e+01 1.103128e+00 1.053788e+01 1.632985e+01 1.066022e+01 1.794600e+01 2.035837e+00 3.575980e+01 1.021643e+01 3.965221e+00 1.645039e+00 5.369365e+00 8.867420e+00 1.183099e+01 7.074093e+00
<GCONST> 1.619397e+02
<MIXTURE> 18 3.143819e-02
<MEAN> 40
 -1.708730e+01 1.235204e-01 -1.139081e+01 -4.772534e+00 4.438373e+00 -8.555573e+00 4.020942e+00 1.411305e+01 6.383964e+00 8.574047e+00 1.032981e+01 -5.399923e+00 4.587782e+00 -4.220975e+00 -7.654294e+00 -2.354988e+01 -5.024973e+00 -1.530868e+01 -5.370305e+00 3.992198e+01 -1.014278e+01 4.248538e+00 -7.259980e+00 5.017905e+00 -8.161463e+00 4.073021e+00 -6.831290e+00 9.999753e+00 4.966484e+00 9.112158e+00 -1.048385e+01 -4.888065e+00 -1.883114e+01 -8.429622e+00 4.218806e+00 -7.758584e+00 -9.767143e+00 6.511176e+00 1.664938e+01 -8.292312e+00
<VARIANCE> 40
 1.251765e+01 5.559945e+00 2.291350e-01 1.420729e+01 3.723412e+01 8.683822e+00 1.752666e+01 1.413266e+01 1.379000e+01 8.806595e+00 1.393247e+01 7.421678e+00 9.406896e+00 2.209024e+01 1.069995e+01 2.781576e+01 1.879641e+01 7.892037e+00 1.626234e+01 1.075937e+01 1.761635e+01 1.263289e+01 7.877429e+00 1.001457e+01 1.030153e+01 1.523890e+01 1.495737e+00 1.194171e+01 1.725258e+01 7.535193e+00 3.455980e+01 2.217227e+00 2.006274e+01 1.286174e+01 4.666146e+00 2.142764e+00 8.478604e+00 1.090389e+01 8.409677e+00 6.150608e+00
<GCONST> 1.641103e+02
<MIXTURE> 19 3.907656e-02
<MEAN> 40
 -1.140571e+01 2.013952e+00 -1.101380e+01 1.241068e+00 1.211131e+01 -9.819864e+00 -2.212715e+00 1.832230e+01 5.742798e+00 4.845327e+00 4.136949e+00 -1.932882e+00 9.436358e-01 -5.567544e+00 -6.309055e+00 -1.514763e+01 -9.807832e+00 -1.530736e+01 -6.630965e+00 3.766416e+01 3.756200e-03 -2.691258e+00 -1.167961e+01 6.823595e+00 4.308135e-01 -1.133847e+01 -4.965401e+00 9.533162e+00 -7.022943e-01 9.559830e+00 -7.466799e+00 -3.569402e+00 -1.965118e+01 -1.465822e+01 6.816456e+00 -6.142694e+00 -1.218702e+01 6.564809e+00 1.431788e+01 -8.976076e+00
<VARIANCE> 40
 9.886045e+00 5.870509e+00 3.116234e-01 1.894142e+01 2.546630e+01 9.901411e+00 3.314236e+01 1.080915e+01 1.002505e+01 1.201971e+01 1.548871e+01 5.484171e+00 6.778760e+00 2.315730e+01 9.847986e+00 2.049345e+01 1.816386e+01 8.560721e+00 1.687393e+01 1.840214e+01 2.476891e+01 1.866220e+01 1.420679e+01 1.348207e+01 1.328519e+01 3.133790e+01 1.982323e+00 1.129936e+01 1.901033e+01 1.059746e+01 1.351385e+01 2.242414e+00 2.085327e+01 6.885634e+00 4.191875e+00 1.766194e+00 7.955066e+00 9.803359e+00 1.503361e+01 4.425108e+00
<GCONST> 1.659163e+02
<MIXTURE> 20 4.830861e-02
<MEAN> 40
 -1.122345e+01 1.620512e+00 -1.062695e+01 -4.062729e+00 2.263771e+00 -4.061096e+00 4.589717e+00 1.155356e+01 4.845493e+00 7.073215e+00 2.192111e+00 -1.303959e+00 6.868466e+00 -6.079482e+00 -5.244048e+00 -1.903234e+01 -6.232553e+00 -1.166419e+01 -3.732634e+00 4.106244e+01 -8.982342e+00 2.245920e+00 -7.829825e+00 2.759917e+00 -2.722501e+00 5.150807e+00 -4.797182e+00 8.208076e+00 6.310625e+00 7.216214e+00 -1.053826e+01 -3.024760e+00 -9.734697e+00 -5.979517e+00 5.148533e+00 -4.936574e+00 -7.030260e+00 5.536358e+00 1.632777e+01 -6.378583e+00
<VARIANCE> 40
 1.044341e+01 4.593781e+00 4.450139e-01 1.739153e+01 4.032484e+01 7.951149e+00 1.212184e+01 2.163840e+01 9.974591e+00 8.983893e+00 1.975973e+01 6.260509e+00 9.284174e+00 1.555964e+01 7.966227e+00 2.928124e+01 2.136873e+01 6.664005e+00 2.063864e+01 2.526887e+01 1.112217e+01 7.285514e+00 1.319419e+01 1.085248e+01 1.711477e+01 2.011515e+01 1.115202e+00 1.327470e+01 1.345412e+01 9.570099e+00 1.868923e+01 2.749696e+00 4.097271e+01 8.973377e+00 3.356623e+00 1.838051e+00 1.166858e+01 8.492091e+00 9.171762e+00 7.581915e+00
<GCONST> 1.649832e+02
<STATE> 3
<NUMMIXES> 20
<MIXTURE> 1 6.153985e-02
<MEAN> 40
 6.561063e+00 7.275430e+00 -1.098885e+01 -1.783280e-01 -4.376970e+00 2.064456e-02 4.705268e+00 1.014039e+01 8.566652e+00 8.935580e+00 1.476799e+00 6.210618e+00 1.058919e+01 3.933030e+00 2.921711e+00 -1.214564e+01 3.058338e+00 -2.523711e+00 6.468706e+00 3.556414e+01 5.174410e-02 1.652092e+00 -4.888311e+00 3.578174e+00 8.900922e+00 -3.485084e-01 -5.811039e-01 8.530445e+00 -1.228507e+00 7.074124e+00 5.634441e+00 3.225318e+00 1.588923e+01 2.100905e+00 6.189154e+00 7.618252e+00 1.421866e+00 1.457301e+00 2.416845e+01 -1.123000e-01
<VARIANCE> 40
 3.613725e+00 2.358241e+00 1.855491e-01 4.241770e+00 6.857287e+00 3.587665e+00 5.252165e+00 6.564485e+00 5.111667e+00 3.023964e+00 4.292401e+00 2.505154e+00 2.413445e+00 4.368433e+00 2.068906e+00 7.287039e+00 7.293543e+00 3.461640e+00 5.764651e+00 1.006745e+01 4.376717e+00 3.493332e+00 5.375557e+00 5.580461e+00 2.254934e+00 5.005442e+00 7.416970e-01 3.944625e+00 5.843011e+00 5.639521e+00 5.285260e+00 1.557278e+00 1.062871e+01 5.054288e+00 2.432345e+00 1.252121e+00 4.121895e+00 4.296338e+00 4.838960e+00 2.248387e+00
<GCONST> 1.252199e+02
<MIXTURE> 2 6.618942e-02
<MEAN> 40
 -9.983452e+00 1.115720e+00 -1.087300e+01 -6.781788e+00 1.068438e+01 -5.238252e+00 -7.435385e+00 9.593948e+00 7.256613e+00 6.823660e+00 6.634619e+00 4.934342e-01 7.052686e+00 2.901310e+00 -6.761088e+00 -1.705461e+01 -4.424782e+00 -7.866961e+00 1.582146e+00 2.950634e+01 -4.995484e-01 1.615036e+00 -1.442061e+00 4.821692e+00 7.341138e-01 -1.274285e+01 -1.906503e+00 4.409616e+00 -8.816429e+00 8.487749e+00 4.124482e+00 2.163424e+00 -6.233440e+00 -7.141395e+00 5.451455e+00 -2.301701e+00 -6.603934e+00 4.427775e+00 1.075815e+01 -1.024240e+00
<VARIANCE> 40
 1.480236e+01 4.237104e+00 3.783378e-01 2.129203e+01 2.799667e+01 1.141383e+01 2.200642e+01 1.110309e+01 1.100996e+01 6.469878e+00 8.415504e+00 6.092695e+00 9.592619e+00 2.368757e+01 8.088027e+00 2.457171e+01 1.846029e+01 9.695105e+00 1.332939e+01 2.882721e+01 2.787002e+01 1.720019e+01 1.185433e+01 1.246506e+01 1.175420e+01 3.377494e+01 1.453981e+00 1.754689e+01 1.611689e+01 1.180109e+01 1.954888e+01 3.030724e+00 5.080762e+01 8.955478e+00 3.979018e+00 1.842084e+00 7.409373e+00 1.019787e+01 1.108674e+01 6.407460e+00
<GCONST> 1.674865e+02
<MIXTURE> 3 4.531780e-02
<MEAN> 40
 5.461888e+00 7.152344e+00 -1.074479e+01 -1.550940e+00 -6.562065e+00 -2.914762e+00 5.199449e+00 6.527009e+00 8.041447e+00 9.501029e+00 3.879938e+00 5.796025e+00 9.130864e+00 3.147183e+00 -4.297800e-01 -1.467823e+01 2.470794e+00 -5.440283e+00 8.470649e+00 3.424433e+01 -2.580498e+00 -9.049375e-01 -6.955700e+00 4.961999e+00 8.481957e+00 -2.807748e+00 -1.696995e+00 7.970715e+00 -5.162611e+00 8.633014e+00 2.033085e+00 2.505931e+00 1.820855e+01 -2.286818e+00 6.312106e+00 5.016974e+00 8.617518e-03 3.036463e-01 2.197583e+01 -1.445711e+00
<VARIANCE> 40
 5.007705e+00 2.264692e+00 1.934014e-01 5.991103e+00 8.919419e+00 4.043324e+00 3.981339e+00 4.287544e+00 4.880311e+00 3.596268e+00 3.990616e+00 3.012244e+00 2.666571e+00 4.793263e+00 2.587449e+00 5.978436e+00 5.951665e+00 2.726869e+00 3.949946e+00 1.140661e+01 4.045598e+00 3.602672e+00 3.934164e+00 5.566373e+00 2.678574e+00 7.034000e+00 4.428893e-01 6.193368e+00 5.321548e+00 5.740591e+00 6.978745e+00 1.315378e+00 7.432328e+00 4.666406e+00 2.296275e+00 7.578483e-01 4.139196e+00 3.792862e+00 5.646219e+00 3.308445e+00
<GCONST> 1.248752e+02
<MIXTURE> 4 5.657607e-02
<MEAN> 40
 -1.137423e+01 -1.656011e-01 -1.102866e+01 -3.247082e+00 1.122514e+01 -9.465419e+00 -1.403361e+00 1.260735e+01 9.536392e+00 8.046328e+00 8.715457e+00 -3.375506e+00 4.916344e+00 2.278438e+00 -9.183202e+00 -1.570418e+01 -7.957480e+00 -1.126995e+01 3.162254e+00 2.821872e+01 3.055308e+00 -1.350945e+00 -3.730114e+00 2.602310e+00 -1.849562e+00 -8.140413e+00 -3.987776e+00 9.408035e+00 -1.449039e+01 9.522592e+00 4.221842e+00 -3.219531e-01 -1.244118e+01 -9.464916e+00 4.453425e+00 -5.076573e+00 -8.755362e+00 3.652892e+00 1.315065e+01 -1.918431e+00
<VARIANCE> 40
 1.167447e+01 5.932925e+00 4.005519e-01 1.763357e+01 1.918794e+01 8.521037e+00 2.315795e+01 1.274638e+01 9.664034e+00 7.996523e+00 1.298882e+01 8.720634e+00 7.420631e+00 1.926466e+01 6.542120e+00 1.603578e+01 1.327926e+01 4.408291e+00 1.409741e+01 1.965640e+01 3.568315e+01 1.279706e+01 6.685301e+00 1.338040e+01 1.153290e+01 2.666737e+01 1.158115e+00 2.047905e+01 3.726857e+01 1.041949e+01 1.604596e+01 3.138931e+00 1.661303e+01 7.622367e+00 3.501942e+00 1.479253e+00 8.241157e+00 1.207958e+01 1.497165e+01 5.862372e+00
<GCONST> 1.638343e+02
<MIXTURE> 5 5.607326e-02
<MEAN> 40
 -2.541237e+00 2.181174e+00 -1.051061e+01 -5.331310e+00 -3.329154e+00 -7.222255e+00 3.033571e+00 7.124083e+00 6.684195e+00 8.343967e+00 6.449595e+00 1.841656e+00 7.674114e+00 3.693663e+00 -6.266339e+00 -2.041419e+01 4.508706e+00 -1.080772e+01 8.520205e+00 3.525467e+01 -6.482498e+00 -3.201391e+00 -3.774472e+00 7.793640e+00 5.194421e+00 -9.436017e+00 -3.342576e+00 9.421091e+00 -9.015869e+00 1.039186e+01 1.862469e+00 2.225868e+00 1.883968e+01 -7.187882e+00 5.894413e+00 2.903686e-01 -4.812657e+00 1.431557e+00 1.612079e+01 -5.645083e+00
<VARIANCE> 40
 8.631775e+00 3.222873e+00 2.723269e-01 8.596341e+00 1.285598e+01 4.566120e+00 6.681575e+00 5.045297e+00 5.324889e+00 3.138000e+00 5.733992e+00 3.267000e+00 3.403898e+00 1.097191e+01 3.181138e+00 8.618494e+00 1.117327e+01 4.000362e+00 7.166281e+00 1.197514e+01 6.625171e+00 3.705822e+00 6.612374e+00 7.925545e+00 6.170364e+00 5.667623e+00 8.411914e-01 7.158116e+00 7.633942e+00 5.053146e+00 1.161906e+01 2.377967e+00 1.316624e+01 6.345957e+00 2.048167e+00 1.410334e+00 3.564755e+00 6.894106e+00 1.031880e+01 2.647328e+00
<GCONST> 1.376882e+02
<MIXTURE> 6 6.031000e-02
<MEAN> 40
 -1.338561e+01 -2.062778e+00 -1.121183e+01 -7.418697e+00 9.107994e+00 -8.665658e+00 -5.184790e+00 1.224725e+01 7.885086e+00 6.531889e+00 8.975737e+00 -3.460309e+00 5.410200e+00 1.352750e+00 -1.027965e+01 -2.106771e+01 4.074821e-01 -1.085768e+01 4.461345e+00 2.881335e+01 -9.662408e+00 3.153689e+00 -1.271513e+00 3.076259e+00 -4.778488e+00 -1.043584e+00 -5.309172e+00 6.261267e+00 -6.184730e+00 9.643867e+00 3.103630e+00 -1.214799e+00 -8.994396e+00 -7.623250e+00 2.178655e+00 -5.108191e+00 -8.774838e+00 5.651137e+00 1.398354e+01 -3.339076e+00
<VARIANCE> 40
 1.246261e+01 4.758567e+00 3.093405e-01 1.916569e+01 3.146079e+01 7.067159e+00 1.612153e+01 8.206563e+00 9.117097e+00 9.318144e+00 1.058919e+01 3.762873e+00 6.573431e+00 3.843005e+01 5.587886e+00 1.782115e+01 2.072858e+01 9.394811e+00 1.319817e+01 3.706855e+01 1.434592e+01 9.427270e+00 6.806182e+00 1.521945e+01 8.730682e+00 2.698889e+01 9.330236e-01 1.301183e+01 9.654594e+00 1.166296e+01 1.586974e+01 2.113584e+00 4.200124e+01 6.956722e+00 4.537340e+00 1.581786e+00 4.819933e+00 1.178448e+01 1.434108e+01 7.361359e+00
<GCONST> 1.614816e+02
<MIXTURE> 7 3.911725e-02
<MEAN> 40
 -7.277648e+00 -1.953136e+00 -1.088937e+01 -1.644393e+00 8.767971e+00 -6.397127e+00 -2.748242e+00 8.172127e+00 7.409701e+00 4.434943e+00 4.305894e+00 -1.709249e+00 4.464471e+00 -2.461313e+00 -6.764923e+00 -1.682873e+01 -7.191591e+00 -1.160410e+01 6.569029e+00 2.908967e+01 -3.772067e+00 -3.931909e+00 -7.806236e-01 -3.196857e-01 2.810071e+00 -1.442563e+01 -2.979486e+00 6.937142e+00 -1.455532e+01 9.303846e+00 1.001948e+01 2.493501e+00 -3.046464e+00 -7.947562e+00 2.923541e+00 -3.058673e+00 -6.063162e+00 1.452752e+00 1.455576e+01 -6.376069e-01
<VARIANCE> 40
 7.025674e+00 3.852957e+00 4.220779e-01 1.157275e+01 1.649873e+01 7.322395e+00 1.886161e+01 5.337295e+00 6.434608e+00 7.628610e+00 1.001381e+01 3.813618e+00 1.102946e+01 3.319881e+01 5.952270e+00 1.626731e+01 1.894626e+01 6.627189e+00 9.856761e+00 3.457253e+01 9.731641e+00 6.526822e+00 8.508990e+00 1.075571e+01 5.884719e+00 2.740870e+01 8.316194e-01 1.102454e+01 1.793883e+01 8.465598e+00 1.718317e+01 2.775773e+00 6.062845e+01 6.413026e+00 2.269633e+00 1.881341e+00 7.180179e+00 1.492599e+01 9.434296e+00 3.894268e+00
<GCONST> 1.570295e+02
<MIXTURE> 8 4.908332e-02
<MEAN> 40
 6.612918e-01 5.356689e+00 -1.049811e+01 -2.844669e-01 -5.875971e+00 -4.301510e+00 2.620721e+00 6.266983e+00 5.301565e+00 6.139760e+00 3.505910e+00 3.223459e+00 1.108558e+01 2.408218e+00 -1.410548e+00 -1.573021e+01 3.503442e+00 -6.888616e+00 6.259372e+00 3.487421e+01 -3.980486e+00 -1.192646e+00 -3.728677e+00 4.419472e+00 6.006336e+00 -4.463315e+00 -1.812065e+00 7.907653e+00 -6.567260e+00 7.501448e+00 9.501382e-01 3.278399e+00 1.708365e+01 -3.772743e+00 5.780371e+00 2.929892e+00 -2.685195e+00 9.130632e-01 1.716905e+01 -1.782002e+00
<VARIANCE> 40
 8.342142e+00 5.474459e+00 3.683760e-01 1.419614e+01 1.519703e+01 7.721996e+00 1.059280e+01 7.166858e+00 7.832436e+00 5.666746e+00 8.404418e+00 4.242685e+00 5.952024e+00 1.247954e+01 5.492096e+00 1.669941e+01 1.639256e+01 5.572773e+00 7.691765e+00 2.759201e+01 8.778306e+00 8.046750e+00 8.489789e+00 1.024701e+01 6.234462e+00 9.044001e+00 1.497986e+00 6.926198e+00 8.079773e+00 8.014883e+00 1.214337e+01 1.761353e+00 1.725183e+01 6.776102e+00 3.219871e+00 1.015010e+00 4.595663e+00 6.399108e+00 1.064001e+01 3.454848e+00
<GCONST> 1.494112e+02
<MIXTURE> 9 5.360912e-02
<MEAN> 40
 -1.490119e+01 -1.978287e+00 -1.120997e+01 -9.879697e+00 1.160147e+01 -3.858332e+00 -5.707645e+00 7.235121e+00 9.372128e+00 7.373004e+00 1.006310e+01 -2.702340e+00 9.803069e+00 -2.135420e-01 -7.923492e+00 -2.288726e+01 -1.823912e+00 -8.952402e+00 4.524859e+00 3.035491e+01 -1.113459e+01 5.457235e+00 6.634222e-01 7.581330e-01 -4.728605e+00 -8.304706e+00 -3.556063e+00 1.321927e+00 -7.636985e+00 4.468902e+00 1.775349e+00 1.560622e-01 -7.152804e+00 -3.920349e+00 3.956642e+00 -4.977411e+00 -5.713997e+00 5.320478e+00 1.059693e+01 -1.804214e+00
<VARIANCE> 40
 1.358609e+01 8.013368e+00 3.678641e-01 3.934175e+01 4.856739e+01 1.271435e+01 3.911919e+01 1.718917e+01 1.373983e+01 1.063491e+01 1.491815e+01 5.740795e+00 6.180228e+00 3.853831e+01 9.824395e+00 2.586381e+01 2.430392e+01 9.660600e+00 1.882504e+01 3.068274e+01 2.744141e+01 1.328138e+01 1.271369e+01 2.138625e+01 1.264475e+01 4.485739e+01 1.513392e+00 2.019497e+01 3.696661e+01 9.103824e+00 2.224709e+01 3.603371e+00 4.601471e+01 1.026769e+01 4.177537e+00 1.413310e+00 8.740532e+00 1.466917e+01 1.808030e+01 7.439953e+00
<GCONST> 1.752331e+02
<MIXTURE> 10 5.148940e-02
<MEAN> 40
 3.780314e+00 6.291319e+00 -1.077598e+01 4.332413e-01 -3.923302e+00 -1.948438e+00 3.408108e+00 8.185349e+00 6.045723e+00 6.466096e+00 1.994282e+00 4.137427e+00 1.132073e+01 4.560205e+00 1.324061e+00 -1.212883e+01 2.512338e+00 -4.031961e+00 5.981786e+00 3.587900e+01 -1.489656e+00 5.403084e-02 -3.493448e+00 3.866729e+00 7.339378e+00 -2.261557e+00 -6.819075e-01 8.259737e+00 -3.477245e+00 6.602918e+00 4.349231e+00 3.265918e+00 1.669061e+01 1.083640e+00 5.927726e+00 5.861996e+00 7.478738e-01 1.885479e+00 1.941272e+01 -8.337517e-01
<VARIANCE> 40
 5.562882e+00 3.333622e+00 3.217496e-01 9.551614e+00 1.380832e+01 4.085958e+00 6.272213e+00 8.248680e+00 6.513553e+00 3.891677e+00 6.039636e+00 4.168179e+00 5.209272e+00 6.495897e+00 3.509387e+00 1.695567e+01 1.347752e+01 4.732938e+00 6.985468e+00 2.424643e+01 7.236228e+00 5.575661e+00 8.785244e+00 1.016207e+01 4.254303e+00 1.148606e+01 1.058156e+00 5.960693e+00 9.266788e+00 9.119906e+00 8.937140e+00 1.634008e+00 1.689245e+01 3.988781e+00 3.706617e+00 1.404799e+00 4.483388e+00 7.220407e+00 9.727340e+00 5.318102e+00
<GCONST> 1.432128e+02
<MIXTURE> 11 4.484839e-02
<MEAN> 40
 -1.034241e+01 -2.256630e+00 -1.126933e+01 -4.634084e+00 9.753698e+00 -1.223630e+01 -5.197057e+00 1.233410e+01 8.498520e+00 4.311878e+00 7.095416e+00 -3.629116e+00 3.784549e-01 3.811636e+00 -1.091446e+01 -1.626323e+01 -6.199321e+00 -1.456880e+01 4.192521e+00 2.812650e+01 -1.426962e-01 -5.351999e+00 -1.756129e+00 3.601952e+00 9.451108e-02 -1.362951e+01 -5.425999e+00 7.192096e+00 -1.230722e+01 1.139812e+01 7.296043e+00 -7.585066e-01 -8.037395e+00 -1.237899e+01 2.521889e+00 -5.219729e+00 -1.053552e+01 3.141799e+00 1.421800e+01 -3.732486e+00
<VARIANCE> 40
 1.551005e+01 4.208219e+00 3.570402e-01 1.630285e+01 2.143319e+01 6.383494e+00 1.235518e+01 5.285270e+00 8.262177e+00 6.815596e+00 5.952674e+00 5.441314e+00 7.905924e+00 4.510583e+01 5.018341e+00 1.221880e+01 1.939984e+01 4.665753e+00 7.197858e+00 1.045739e+01 2.730776e+01 1.007706e+01 6.303925e+00 1.140896e+01 8.869048e+00 2.171463e+01 1.301462e+00 1.034385e+01 1.891534e+01 9.020423e+00 1.087065e+01 2.435033e+00 3.099403e+01 4.852983e+00 1.953603e+00 1.698017e+00 5.646029e+00 1.187935e+01 8.585163e+00 4.617605e+00
<GCONST> 1.551479e+02
<MIXTURE> 12 5.408059e-02
<MEAN> 40
 1.928571e+00 5.466027e+00 -1.051794e+01 -5.050012e-01 -7.889249e+00 -7.231115e+00 5.300123e+00 5.922551e+00 6.842685e+00 7.322039e+00 5.532099e+00 3.732550e+00 7.754929e+00 -1.220978e-01 -4.517955e+00 -1.700003e+01 3.024059e+00 -1.011449e+01 9.353749e+00 3.493401e+01 -4.658987e+00 -4.419785e+00 -6.453399e+00 5.174564e+00 6.756650e+00 -4.173176e+00 -3.980541e+00 8.549366e+00 -7.496766e+00 9.675159e+00 -2.137949e+00 1.249220e+00 1.760833e+01 -8.863433e+00 4.931727e+00 8.364552e-01 -5.361311e+00 -1.129658e+00 1.975083e+01 -3.750609e+00
<VARIANCE> 40
 9.984961e+00 4.205079e+00 2.345123e-01 1.108782e+01 1.478919e+01 5.458900e+00 7.447507e+00 6.098372e+00 7.493644e+00 3.657714e+00 5.820497e+00 4.528010e+00 4.073608e+00 1.349456e+01 2.640331e+00 1.238648e+01 9.713601e+00 5.295701e+00 7.521510e+00 1.809180e+01 7.776274e+00 6.993516e+00 6.529882e+00 1.175589e+01 6.257816e+00 9.349260e+00 9.069921e-01 5.891963e+00 7.933331e+00 6.197282e+00 7.668683e+00 2.299661e+00 1.163779e+01 5.378654e+00 4.297427e+00 1.156973e+00 4.155200e+00 7.690147e+00 7.442673e+00 4.262445e+00
<GCONST> 1.428545e+02
<MIXTURE> 13 3.951544e-02
<MEAN> 40
 -1.798657e+01 -4.707351e+00 -1.159617e+01 -8.251724e+00 1.232332e+01 -1.112788e+01 -7.949409e+00 1.214809e+01 1.059015e+01 5.347988e+00 1.218939e+01 -6.664007e+00 4.009283e+00 1.834285e+00 -1.265429e+01 -2.470192e+01 -6.341370e-03 -1.443148e+01 5.225967e+00 2.887423e+01 -1.341106e+01 3.387102e+00 -1.022048e+00 2.137495e+00 -8.820348e+00 -3.177562e+00 -7.165670e+00 4.397882e+00 -7.630235e+00 9.781785e+00 2.383773e+00 -2.839007e+00 -1.056094e+01 -1.033137e+01 6.633860e-01 -7.641456e+00 -1.104952e+01 6.264125e+00 1.208350e+01 -4.381658e+00
<VARIANCE> 40
 6.594979e+00 3.237662e+00 3.183053e-01 1.459461e+01 2.154134e+01 6.422907e+00 2.499270e+01 1.177181e+01 1.220024e+01 1.089220e+01 1.263547e+01 5.048024e+00 7.179305e+00 3.452594e+01 6.625448e+00 1.738732e+01 2.034464e+01 8.726213e+00 1.621748e+01 3.155626e+01 1.497063e+01 6.893664e+00 1.094625e+01 1.650441e+01 9.516905e+00 2.468921e+01 1.287408e+00 2.018748e+01 1.943778e+01 1.468767e+01 2.752104e+01 2.517747e+00 2.909850e+01 6.033828e+00 3.708185e+00 1.970438e+00 6.332234e+00 1.452823e+01 1.488973e+01 9.605819e+00
<GCONST> 1.645325e+02
<MIXTURE> 14 3.791013e-02
<MEAN> 40
 -3.574668e+00 1.365712e+00 -1.051021e+01 -2.809618e+00 -5.319000e+00 -9.642652e+00 2.200819e+00 5.922815e+00 6.331841e+00 5.281462e+00 6.584819e+00 7.697091e-03 7.222762e+00 3.567174e-01 -7.051497e+00 -1.827922e+01 4.124317e+00 -1.326515e+01 8.792424e+00 3.406570e+01 -6.474807e+00 -5.217298e+00 -3.794776e+00 4.775367e+00 2.444501e+00 -7.520830e+00 -4.792624e+00 7.690908e+00 -9.215590e+00 1.037761e+01 -8.249142e-01 1.213206e+00 1.602739e+01 -1.152092e+01 4.409482e+00 -2.389623e+00 -7.930231e+00 -1.150860e-01 1.534347e+01 -5.779619e+00
<VARIANCE> 40
 1.456574e+01 5.857714e+00 2.547386e-01 1.440881e+01 2.084144e+01 8.169127e+00 1.394922e+01 1.178799e+01 6.399572e+00 5.052841e+00 1.319338e+01 4.990474e+00 8.840569e+00 3.064013e+01 5.157818e+00 2.598989e+01 1.643477e+01 8.214462e+00 1.190725e+01 3.526450e+01 1.252726e+01 5.937252e+00 6.966288e+00 1.528748e+01 1.125485e+01 2.019742e+01 1.460250e+00 8.479104e+00 1.919042e+01 8.625929e+00 1.186467e+01 4.342415e+00 2.567601e+01 5.978317e+00 3.846541e+00 2.064931e+00 4.290847e+00 8.677052e+00 9.025694e+00 6.818861e+00
<GCONST> 1.594242e+02
<MIXTURE> 15 5.670513e-02
<MEAN> 40
 4.327626e+00 4.977790e+00 -1.095428e+01 1.227404e+00 -4.532276e+00 -4.256575e+00 3.779399e+00 1.090150e+01 6.847357e+00 5.802735e+00 2.325407e+00 3.887110e+00 8.529551e+00 1.929660e+00 5.787501e-01 -1.307786e+01 1.329803e+00 -6.027438e+00 6.649192e+00 3.608487e+01 -1.294458e+00 -2.356809e+00 -4.241006e+00 2.100936e+00 6.619399e+00 -9.722364e-01 -2.882058e+00 9.580399e+00 -1.638616e+00 6.792229e+00 4.332981e+00 1.529576e+00 1.568567e+01 -2.822490e+00 4.146544e+00 3.989764e+00 -2.402718e+00 3.433970e-01 2.229866e+01 -1.844886e+00
<VARIANCE> 40
 7.248537e+00 3.954903e+00 3.986932e-01 7.389432e+00 7.146712e+00 3.939224e+00 8.596480e+00 5.203349e+00 7.805086e+00 6.196073e+00 5.499109e+00 3.319213e+00 3.966261e+00 9.911877e+00 3.906418e+00 1.199821e+01 9.732855e+00 3.711738e+00 4.153579e+00 2.090292e+01 8.818367e+00 6.441071e+00 5.588162e+00 6.118059e+00 4.101130e+00 6.854300e+00 1.003772e+00 6.787331e+00 8.189492e+00 6.625968e+00 5.511702e+00 1.524889e+00 1.655364e+01 5.458139e+00 2.996791e+00 1.657056e+00 4.273192e+00 7.264793e+00 9.156391e+00 3.339147e+00
<GCONST> 1.393533e+02
<MIXTURE> 16 5.404346e-02
<MEAN> 40
 -1.377583e+01 -2.052155e+00 -1.118920e+01 -8.535701e+00 9.398169e+00 -8.142589e+00 -7.870845e+00 1.040256e+01 1.071268e+01 5.610316e+00 9.356755e+00 -1.336463e+00 4.367111e+00 3.506365e+00 -1.175528e+01 -1.827912e+01 -4.449836e+00 -1.332937e+01 1.990876e+00 3.103925e+01 -1.633881e+00 -4.289137e+00 -8.521810e-01 4.769780e+00 -3.890458e-01 -1.742293e+01 -3.995537e+00 5.178339e+00 -1.083933e+01 1.025168e+01 2.069964e+00 5.903866e-01 -1.061198e+01 -1.169876e+01 3.502035e+00 -5.500779e+00 -9.391850e+00 6.533969e+00 1.068652e+01 -3.401419e+00
<VARIANCE> 40
 1.190653e+01 4.673250e+00 3.623638e-01 2.054554e+01 2.367899e+01 7.775757e+00 2.418833e+01 1.329561e+01 7.859078e+00 7.749886e+00 1.288928e+01 4.061007e+00 8.572634e+00 3.328401e+01 5.404428e+00 1.970984e+01 1.314816e+01 8.423183e+00 9.879025e+00 2.253452e+01 2.696421e+01 1.297779e+01 1.235575e+01 1.713529e+01 1.361635e+01 1.801141e+01 1.202583e+00 2.012582e+01 2.558614e+01 9.326246e+00 1.661295e+01 3.308253e+00 3.350407e+01 5.104397e+00 3.627852e+00 1.351667e+00 4.458830e+00 9.197202e+00 1.259192e+01 6.300673e+00
<GCONST> 1.632348e+02
<MIXTURE> 17 6.217536e-02
<MEAN> 40
 -1.914531e+00 3.472783e+00 -1.035962e+01 -1.034272e+00 -6.143415e+00 -5.258386e+00 1.760816e+00 4.931190e+00 3.826420e+00 4.614960e+00 3.138002e+00 8.373956e-02 1.059500e+01 4.250223e+00 -3.786033e+00 -1.819667e+01 5.939080e+00 -9.848160e+00 6.232065e+00 3.682397e+01 -5.697751e+00 -1.638729e+00 -3.283430e+00 5.263677e+00 2.581243e+00 -6.846046e+00 -2.900731e+00 6.484546e+00 -7.970093e+00 8.353626e+00 5.126292e-01 2.552440e+00 1.694821e+01 -5.271177e+00 6.113141e+00 4.357297e-01 -3.610721e+00 1.633620e+00 1.418979e+01 -4.020541e+00
<VARIANCE> 40
 1.023147e+01 3.972483e+00 2.600271e-01 1.342953e+01 1.741534e+01 7.604798e+00 1.074847e+01 7.755368e+00 4.817648e+00 5.701992e+00 9.817936e+00 3.648420e+00 5.134734e+00 1.453143e+01 4.640948e+00 1.978428e+01 9.971163e+00 6.734523e+00 1.335747e+01 2.554038e+01 8.865015e+00 8.843715e+00 8.343252e+00 9.404826e+00 9.666541e+00 1.419064e+01 1.168919e+00 1.061160e+01 1.006189e+01 9.904244e+00 1.155073e+01 2.763566e+00 2.765433e+01 9.705845e+00 2.287978e+00 1.252835e+00 4.553504e+00 8.309667e+00 1.429009e+01 5.091347e+00
<GCONST> 1.523376e+02
<MIXTURE> 18 3.466250e-02
<MEAN> 40
 -6.939034e+00 -2.428613e+00 -1.105906e+01 -6.499457e-02 7.170010e+00 -8.048995e+00 -3.449816e+00 7.154856e+00 7.056776e+00 3.151802e+00 6.070607e+00 -4.610418e+00 2.867318e+00 -2.995016e+00 -7.649104e+00 -1.728684e+01 -6.444135e+00 -1.513982e+01 6.487476e+00 3.022138e+01 -4.799037e+00 -5.733386e+00 -9.010817e-01 -2.825052e-01 2.469372e+00 -1.754083e+01 -4.592536e+00 4.896104e+00 -1.678675e+01 9.986492e+00 8.517628e+00 1.894717e+00 -4.900921e+00 -1.090250e+01 1.552519e+00 -5.193834e+00 -8.608530e+00 1.342479e+00 1.468299e+01 -1.694119e+00
<VARIANCE> 40
 2.245629e+01 5.746819e+00 5.057958e-01 1.447136e+01 2.293491e+01 7.091432e+00 1.497413e+01 1.414378e+01 1.068121e+01 1.222908e+01 1.322030e+01 5.353267e+00 1.030168e+01 3.861547e+01 6.424204e+00 1.134792e+01 1.049474e+01 6.766334e+00 8.934245e+00 2.371414e+01 1.239420e+01 1.335054e+01 2.132697e+01 9.652563e+00 1.260710e+01 2.905077e+01 1.705924e+00 3.325290e+01 1.488666e+01 1.371367e+01 2.506292e+01 3.121684e+00 4.080301e+01 6.156518e+00 3.908329e+00 1.583785e+00 6.157909e+00 1.421694e+01 1.736742e+01 5.387797e+00
<GCONST> 1.662549e+02
<MIXTURE> 19 4.862690e-02
<MEAN> 40
 3.053936e+00 6.492536e+00 -1.071011e+01 -1.165584e+00 -6.799529e+00 -5.135944e+00 4.056600e+00 6.182784e+00 6.428805e+00 8.503223e+00 4.078405e+00 4.225132e+00 8.101370e+00 2.690162e+00 -2.715726e+00 -1.713730e+01 3.160836e+00 -8.382283e+00 8.562836e+00 3.589747e+01 -4.997185e+00 -2.371457e+00 -6.067698e+00 5.746031e+00 7.250481e+00 -4.416971e+00 -2.968119e+00 8.849345e+00 -6.518822e+00 8.789967e+00 4.051614e-01 1.925794e+00 1.753012e+01 -5.374817e+00 6.217052e+00 2.710271e+00 -2.487068e+00 -3.732699e-01 1.997407e+01 -2.729553e+00
<VARIANCE> 40
 6.227159e+00 2.992936e+00 1.495849e-01 8.052106e+00 9.912701e+00 3.008995e+00 4.694494e+00 5.023033e+00 4.984846e+00 2.868493e+00 6.374064e+00 2.335721e+00 2.559363e+00 5.634446e+00 3.424929e+00 8.618162e+00 6.514121e+00 2.792771e+00 4.792435e+00 1.747817e+01 3.899947e+00 4.078482e+00 5.052407e+00 6.380244e+00 4.747605e+00 7.745037e+00 5.289342e-01 4.816633e+00 5.546381e+00 4.554061e+00 6.955849e+00 1.399423e+00 1.063426e+01 3.710989e+00 2.323513e+00 8.708394e-01 2.790063e+00 3.625566e+00 7.387362e+00 2.206783e+00
<GCONST> 1.276955e+02
<MIXTURE> 20 2.812247e-02
<MEAN> 40
 -1.360027e+01 -4.129457e+00 -1.129674e+01 -4.322083e+00 1.010259e+01 -1.154702e+01 -7.773932e+00 1.070300e+01 9.502303e+00 3.374061e+00 1.042619e+01 -5.353006e+00 8.247255e-01 3.771980e+00 -1.284052e+01 -1.905260e+01 -6.205178e+00 -1.777987e+01 5.738733e+00 3.083674e+01 -3.593631e+00 -5.371871e+00 -3.551692e+00 8.455166e-01 -3.408293e+00 -1.778541e+01 -7.018239e+00 5.213708e+00 -1.326820e+01 1.079511e+01 6.110743e+00 -1.366481e+00 -1.016180e+01 -1.520825e+01 7.657846e-01 -8.429918e+00 -1.361477e+01 3.562493e+00 1.212512e+01 -3.736911e+00
<VARIANCE> 40
 1.741739e+01 5.139349e+00 3.574577e-01 1.860043e+01 2.336676e+01 9.053435e+00 2.184991e+01 2.029336e+01 1.193462e+01 7.138496e+00 2.092111e+01 4.766834e+00 8.663612e+00 3.553217e+01 6.639706e+00 1.867195e+01 1.786730e+01 9.479589e+00 1.569879e+01 2.682514e+01 3.339459e+01 2.222928e+01 1.195668e+01 1.881317e+01 1.237917e+01 4.597794e+01 1.862909e+00 3.023803e+01 3.230792e+01 1.225998e+01 3.409883e+01 3.948309e+00 5.418871e+01 9.667187e+00 5.300919e+00 1.970785e+00 8.628849e+00 1.040648e+01 1.552148e+01 8.663018e+00
<GCONST> 1.734166e+02
<STATE> 4
<NUMMIXES> 20
<MIXTURE> 1 4.500178e-02
<MEAN> 40
 -4.497876e+00 -1.984099e-01 -1.080683e+01 -4.115738e+00 4.126930e+00 -7.772985e+00 -1.458500e+00 6.705255e+00 6.920384e+00 3.310366e+00 7.081481e+00 2.192309e-01 1.036193e+01 2.120258e+00 -3.313214e+00 -1.480072e+01 -2.061299e+00 -7.768557e+00 8.555974e+00 3.048524e+01 -4.975196e+00 -2.305164e+00 -1.040217e+00 9.368126e-01 2.360195e+00 -1.080400e+01 -2.058494e+00 8.094724e+00 -8.178191e+00 7.201561e+00 8.735303e+00 1.754104e+00 1.899427e+01 -4.525792e+00 4.404548e+00 1.131493e+00 -3.472217e+00 1.263914e+00 1.592779e+01 -2.724363e+00
<VARIANCE> 40
 9.544246e+00 4.152185e+00 5.278450e-01 1.972459e+01 1.447366e+01 7.292809e+00 1.687040e+01 8.305479e+00 8.948103e+00 8.225454e+00 5.900946e+00 5.020355e+00 9.569619e+00 1.996284e+01 5.285808e+00 2.213166e+01 1.705963e+01 7.291454e+00 1.485378e+01 3.326817e+01 1.338453e+01 6.854440e+00 7.243118e+00 1.169844e+01 7.135105e+00 1.113761e+01 1.316228e+00 7.184376e+00 1.322205e+01 1.274245e+01 1.265570e+01 2.445203e+00 1.792907e+01 1.147035e+01 3.852273e+00 2.585126e+00 5.372343e+00 8.351843e+00 9.024018e+00 4.544276e+00
<GCONST> 1.571490e+02
<MIXTURE> 2 3.735417e-02
<MEAN> 40
 -7.818513e+00 1.653475e-01 -1.099744e+01 -3.797189e+00 9.731427e+00 -5.520743e+00 -7.748771e+00 7.889246e+00 6.392645e+00 4.597095e+00 8.190944e+00 -1.687274e+00 7.011178e+00 1.400536e+00 -4.145910e+00 -1.481327e+01 -6.800066e+00 -8.149740e+00 5.620905e+00 2.510512e+01 -2.424435e+00 6.324238e-01 -4.137626e-02 -5.721977e-01 -1.694346e+00 -1.090680e+01 -2.515418e+00 5.069113e+00 -1.162592e+01 8.654020e+00 1.060585e+01 2.308656e+00 -2.290125e-01 -6.483541e+00 3.361454e+00 -1.954382e+00 -6.423681e+00 5.220808e-01 1.202120e+01 1.804941e+00
<VARIANCE> 40
 8.297757e+00 5.248957e+00 5.136399e-01 1.769313e+01 1.875081e+01 1.181077e+01 2.937906e+01 1.098839e+01 8.985218e+00 9.381028e+00 9.789230e+00 5.879834e+00 6.099658e+00 3.990833e+01 6.380062e+00 2.825511e+01 1.706734e+01 4.835673e+00 9.739985e+00 3.368034e+01 1.923759e+01 7.774550e+00 1.081287e+01 1.174076e+01 1.168888e+01 5.959368e+01 1.174026e+00 1.651514e+01 2.519058e+01 1.101260e+01 2.047638e+01 4.438848e+00 5.612582e+01 7.701165e+00 3.015594e+00 1.614125e+00 5.342996e+00 1.015255e+01 1.551009e+01 4.142216e+00
<GCONST> 1.653615e+02
<MIXTURE> 3 6.352650e-02
<MEAN> 40
 -8.602713e+00 -5.205143e-01 -1.137168e+01 -3.922608e+00 1.211319e+01 -9.590446e+00 -1.065194e+01 8.902764e+00 6.834429e+00 4.368915e+00 9.672715e+00 -2.452302e+00 4.207978e+00 4.726511e+00 -6.354355e+00 -1.559128e+01 -7.147850e+00 -1.192960e+01 5.748460e+00 2.467349e+01 -5.001942e+00 -1.046470e+00 -1.781423e+00 4.660358e-01 -4.280098e+00 -1.416681e+01 -4.671679e+00 5.435756e+00 -1.112221e+01 8.498684e+00 1.036291e+01 4.066211e-01 -4.276539e-01 -9.581244e+00 2.087247e+00 -3.954935e+00 -9.486506e+00 5.729758e-01 1.260544e+01 -8.879388e-02
<VARIANCE> 40
 1.280228e+01 3.959515e+00 3.238530e-01 1.794971e+01 1.736382e+01 7.820202e+00 1.344415e+01 9.574265e+00 1.225015e+01 9.060858e+00 9.934887e+00 4.022814e+00 9.056211e+00 2.619798e+01 6.244501e+00 1.491868e+01 1.153753e+01 4.404348e+00 1.023375e+01 3.315167e+01 1.958996e+01 9.487674e+00 1.040183e+01 1.145244e+01 1.117961e+01 1.811515e+01 1.008957e+00 1.400922e+01 1.660168e+01 7.603022e+00 1.510473e+01 2.299739e+00 4.563264e+01 6.770771e+00 3.116749e+00 1.559910e+00 3.061758e+00 1.452322e+01 1.142853e+01 5.687135e+00
<GCONST> 1.587598e+02
<MIXTURE> 4 3.454394e-02
<MEAN> 40
 -8.626193e+00 -2.801952e+00 -1.026019e+01 -8.232094e+00 5.397735e+00 -9.708608e+00 -2.499660e+00 8.633468e+00 8.886311e+00 5.055009e+00 6.660245e+00 -1.200994e+00 8.974661e+00 6.026079e+00 -7.436087e+00 -1.821451e+01 3.040719e+00 -1.056314e+01 9.269666e+00 3.148932e+01 -5.574345e+00 -1.394204e+00 -2.210914e+00 2.645345e+00 2.887956e+00 -1.326295e+01 -3.120025e+00 8.040683e+00 -1.079135e+01 9.086134e+00 8.171371e+00 6.184877e-01 2.198900e+01 -8.452625e+00 3.783426e+00 -1.196163e+00 -6.338425e+00 3.943902e+00 1.499442e+01 -5.663557e+00
<VARIANCE> 40
 8.845709e+00 5.293767e+00 2.488498e-01 1.432816e+01 1.702517e+01 6.012559e+00 1.322638e+01 7.117499e+00 6.770459e+00 6.240960e+00 5.478175e+00 3.890779e+00 5.564917e+00 8.743601e+00 2.190544e+00 1.541591e+01 7.409775e+00 3.624215e+00 6.894617e+00 1.455854e+01 5.466865e+00 4.642243e+00 8.891797e+00 1.049787e+01 5.876734e+00 9.933205e+00 1.107282e+00 7.344571e+00 8.850813e+00 1.000371e+01 1.071108e+01 2.683013e+00 1.811609e+01 9.118005e+00 3.667854e+00 1.407205e+00 5.968009e+00 1.133044e+01 1.021073e+01 4.115665e+00
<GCONST> 1.463880e+02
<MIXTURE> 5 5.857026e-02
<MEAN> 40
 -1.261859e+01 -1.886822e+00 -1.124588e+01 -3.883418e+00 1.081143e+01 -9.983989e+00 -1.100105e+01 8.074371e+00 7.849526e+00 2.326191e+00 1.151462e+01 -5.930266e+00 4.546208e+00 4.396460e+00 -7.241037e+00 -1.893042e+01 -1.842233e+00 -1.395663e+01 8.396332e+00 2.486832e+01 -1.024971e+01 1.762263e+00 -7.221680e-01 -3.406197e+00 -9.248118e+00 -6.810753e+00 -6.469049e+00 3.125569e+00 -1.088293e+01 8.691309e+00 9.243187e+00 -1.127394e+00 -8.861221e-02 -9.122141e+00 6.470671e-02 -5.578476e+00 -1.108133e+01 6.931899e-01 1.147375e+01 -4.881379e-01
<VARIANCE> 40
 1.288880e+01 4.753232e+00 3.284385e-01 1.858596e+01 2.281287e+01 6.679864e+00 2.398494e+01 1.480565e+01 1.005052e+01 1.364358e+01 8.996800e+00 4.549241e+00 8.905136e+00 2.851202e+01 5.519111e+00 2.051467e+01 1.811044e+01 6.188155e+00 1.713421e+01 2.415763e+01 1.803366e+01 7.392083e+00 8.228085e+00 1.033685e+01 1.018121e+01 2.121766e+01 1.101598e+00 2.209445e+01 1.781758e+01 1.526668e+01 1.533745e+01 2.166468e+00 4.737113e+01 6.568547e+00 4.773525e+00 2.060441e+00 7.516631e+00 1.249697e+01 2.067264e+01 5.182441e+00
<GCONST> 1.642376e+02
<MIXTURE> 6 5.411168e-02
<MEAN> 40
 -9.497068e+00 2.934154e+00 -1.072637e+01 -4.765875e-01 8.518047e+00 -5.286580e+00 -1.116263e+01 5.555958e-01 6.230021e+00 4.767860e+00 1.040202e+01 -4.785614e+00 8.026101e+00 3.063660e+00 -3.021095e+00 -1.667918e+01 -7.560854e+00 -1.163138e+01 9.089316e+00 2.725919e+01 -4.416355e+00 3.964607e+00 -1.902080e+00 -4.184494e+00 -5.567275e+00 -1.696320e+01 -3.249758e+00 -4.637698e+00 -1.572177e+01 4.904046e+00 9.127780e+00 1.068179e+00 2.866893e+00 -7.538438e+00 4.582906e+00 -4.835547e+00 -8.110689e+00 -9.218743e-01 9.380208e+00 2.352053e+00
<VARIANCE> 40
 1.751533e+01 4.922786e+00 4.652062e-01 2.999804e+01 2.735156e+01 1.053276e+01 2.820786e+01 1.345314e+01 1.195684e+01 1.440710e+01 1.531133e+01 7.994074e+00 7.847055e+00 4.670288e+01 8.697476e+00 2.375836e+01 3.339166e+01 1.040191e+01 1.819218e+01 2.814320e+01 4.175604e+01 1.123845e+01 1.508283e+01 1.085017e+01 1.773231e+01 4.826079e+01 2.027290e+00 2.266716e+01 3.201987e+01 1.059887e+01 2.570404e+01 4.175803e+00 3.603543e+01 1.073220e+01 4.297185e+00 2.587314e+00 1.288800e+01 1.637688e+01 1.969602e+01 6.647163e+00
<GCONST> 1.764145e+02
<MIXTURE> 7 6.349348e-02
<MEAN> 40
 -1.416190e+01 -6.354064e+00 -1.081163e+01 -1.247248e+01 4.482859e+00 -1.290811e+01 -4.721817e+00 9.935975e+00 9.289741e+00 4.000812e+00 6.085413e+00 -4.831956e+00 8.177734e+00 7.698338e+00 -9.230245e+00 -2.047344e+01 1.200215e+00 -1.465528e+01 7.156214e+00 3.269341e+01 -7.204764e+00 -3.860960e+00 1.015420e+00 2.245159e+00 8.631372e-01 -1.793641e+01 -4.060079e+00 7.504078e+00 -1.208430e+01 9.139890e+00 7.290533e+00 1.116363e+00 2.382953e+01 -1.276664e+01 3.469431e+00 -4.030368e+00 -7.527038e+00 2.818500e+00 1.099382e+01 -6.797431e+00
<VARIANCE> 40
 8.858424e+00 3.610111e+00 2.461102e-01 1.368628e+01 1.542755e+01 5.732042e+00 1.620652e+01 6.672465e+00 6.648100e+00 6.540855e+00 8.924638e+00 3.746216e+00 6.336400e+00 1.392435e+01 4.127345e+00 1.507182e+01 1.112260e+01 4.559634e+00 9.794801e+00 1.656480e+01 7.731677e+00 4.857410e+00 1.098948e+01 7.647888e+00 6.184351e+00 1.149915e+01 1.258205e+00 1.565083e+01 6.824551e+00 1.336350e+01 1.204445e+01 2.343987e+00 2.240624e+01 7.149838e+00 1.822979e+00 1.052494e+00 5.236342e+00 6.869885e+00 1.148317e+01 4.158854e+00
<GCONST> 1.486002e+02
<MIXTURE> 8 4.513725e-02
<MEAN> 40
 -9.509578e+00 -2.824531e+00 -1.103561e+01 1.521671e+00 7.524508e+00 -1.030965e+01 -5.956705e+00 5.005084e+00 7.452929e+00 -1.770537e-01 8.966573e+00 -7.119099e+00 2.922115e+00 2.318520e+00 -6.576227e+00 -1.629349e+01 -7.537107e+00 -1.690315e+01 8.658269e+00 2.737665e+01 -5.705136e+00 -5.632670e+00 -1.998485e+00 -4.858266e+00 -1.832840e+00 -1.716228e+01 -5.229860e+00 3.631596e+00 -1.850482e+01 1.012119e+01 1.436034e+01 2.172041e+00 5.752614e+00 -1.097439e+01 2.530155e-01 -5.271801e+00 -1.037326e+01 -1.438231e+00 1.193007e+01 -8.405307e-01
<VARIANCE> 40
 1.222767e+01 3.151911e+00 2.718695e-01 8.807355e+00 7.059649e+00 6.606250e+00 1.246431e+01 6.242787e+00 6.738471e+00 1.101665e+01 8.540870e+00 4.517209e+00 4.449352e+00 1.993303e+01 6.012839e+00 1.990028e+01 9.918507e+00 3.229439e+00 9.951540e+00 2.921149e+01 1.649066e+01 7.887590e+00 8.239450e+00 8.422094e+00 1.086519e+01 1.623108e+01 7.697477e-01 1.724868e+01 1.202693e+01 7.058477e+00 1.274578e+01 1.376114e+00 3.966065e+01 8.400381e+00 1.783633e+00 1.178818e+00 4.089741e+00 1.065137e+01 7.869756e+00 2.886220e+00
<GCONST> 1.502266e+02
<MIXTURE> 9 4.054814e-02
<MEAN> 40
 -7.770200e+00 -1.958249e+00 -1.036931e+01 -3.220617e+00 -1.188462e-01 -7.331201e+00 -2.093260e+00 4.583885e+00 5.545278e+00 2.960905e+00 5.815666e+00 -4.306336e+00 8.921131e+00 7.069807e+00 -5.279969e+00 -2.055201e+01 3.255828e+00 -1.433838e+01 8.802046e+00 3.523233e+01 -9.169457e+00 -1.026335e+00 -2.319431e+00 8.641586e-01 -2.147745e+00 -1.171493e+01 -4.202610e+00 6.140196e+00 -1.176733e+01 8.425538e+00 6.542395e+00 1.759969e+00 2.108343e+01 -6.908241e+00 3.787947e+00 -2.672888e+00 -6.438388e+00 1.092087e+00 1.150740e+01 -4.907578e+00
<VARIANCE> 40
 9.550365e+00 4.288677e+00 4.347592e-01 9.338912e+00 1.495246e+01 7.988324e+00 1.012771e+01 9.013059e+00 6.738342e+00 7.986793e+00 5.320609e+00 4.002905e+00 5.702027e+00 1.294582e+01 3.824085e+00 2.149288e+01 1.250593e+01 4.199612e+00 1.063647e+01 1.707114e+01 9.166847e+00 7.469910e+00 7.485879e+00 9.111923e+00 8.242987e+00 1.216436e+01 8.599796e-01 2.207734e+01 1.322744e+01 1.177345e+01 1.219717e+01 2.577160e+00 2.447726e+01 9.340450e+00 2.565913e+00 1.156177e+00 4.692426e+00 8.186398e+00 1.388295e+01 3.664297e+00
<GCONST> 1.514373e+02
<MIXTURE> 10 2.835578e-02
<MEAN> 40
 -1.365954e+01 -3.838552e+00 -1.154180e+01 2.950630e-01 1.140605e+01 -1.646264e+01 -1.304890e+01 5.993391e+00 9.877014e+00 2.491390e-01 1.494484e+01 -1.070422e+01 9.790421e-02 7.034128e+00 -9.965116e+00 -1.667567e+01 -8.934070e+00 -2.113851e+01 1.133409e+01 2.663671e+01 -4.961545e+00 -6.693188e+00 -4.755784e+00 -6.476338e+00 -8.790057e+00 -2.159104e+01 -8.473461e+00 4.473335e-01 -1.823868e+01 9.024459e+00 1.360305e+01 -1.693238e+00 4.117234e+00 -1.865920e+01 -2.189849e+00 -9.864705e+00 -1.753804e+01 -1.485656e+00 1.017483e+01 -1.851281e+00
<VARIANCE> 40
 1.827829e+01 6.871823e+00 3.709632e-01 2.244158e+01 1.302271e+01 1.017363e+01 2.115633e+01 1.323760e+01 9.262519e+00 1.020375e+01 1.686139e+01 3.849016e+00 9.059164e+00 3.339510e+01 1.194558e+01 1.260201e+01 1.419207e+01 6.596644e+00 1.881083e+01 1.882108e+01 2.776344e+01 1.324077e+01 1.326456e+01 2.189504e+01 1.993207e+01 4.876826e+01 1.418219e+00 2.352424e+01 1.724537e+01 1.348421e+01 2.058426e+01 4.271176e+00 3.906763e+01 6.685120e+00 2.559552e+00 1.189113e+00 5.184113e+00 1.275127e+01 1.217414e+01 8.184965e+00
<GCONST> 1.682074e+02
<MIXTURE> 11 5.258571e-02
<MEAN> 40
 -1.209058e+01 -3.014934e+00 -1.138200e+01 -1.981583e+00 1.102078e+01 -1.430685e+01 -9.742791e+00 6.799531e+00 1.047978e+01 2.857728e+00 1.240859e+01 -7.698483e+00 2.348733e+00 7.377487e+00 -8.676198e+00 -1.578949e+01 -1.007079e+01 -1.686099e+01 8.948494e+00 2.596253e+01 -8.017130e-01 -6.224876e+00 -2.419677e+00 -5.291170e+00 -4.647473e+00 -1.809912e+01 -6.610395e+00 4.468043e+00 -1.958139e+01 8.795848e+00 1.180187e+01 -2.378162e-01 1.754364e+00 -1.389268e+01 -4.398512e-01 -7.308043e+00 -1.362296e+01 -2.919928e-01 1.109003e+01 -1.091718e+00
<VARIANCE> 40
 1.381001e+01 4.912183e+00 3.419284e-01 1.694317e+01 1.943568e+01 5.319022e+00 2.621300e+01 1.102918e+01 8.380403e+00 1.233074e+01 1.245960e+01 3.530659e+00 3.384684e+00 1.591164e+01 6.124321e+00 1.154035e+01 1.129814e+01 6.378022e+00 8.214256e+00 1.946911e+01 2.277063e+01 9.536961e+00 8.747595e+00 1.015340e+01 1.257712e+01 2.413519e+01 6.634771e-01 2.430691e+01 2.037352e+01 1.015171e+01 1.143341e+01 3.031105e+00 4.261174e+01 5.013883e+00 2.430187e+00 1.270839e+00 4.694435e+00 1.268113e+01 9.431195e+00 5.404488e+00
<GCONST> 1.575630e+02
<MIXTURE> 12 6.164460e-02
<MEAN> 40
 -1.336530e+01 -2.103855e+00 -1.129466e+01 -3.781104e+00 1.096140e+01 -1.184679e+01 -7.968018e+00 7.339608e+00 1.107241e+01 4.685549e+00 1.346051e+01 -6.498453e+00 5.175601e+00 7.767785e+00 -9.028022e+00 -1.641960e+01 -7.935254e+00 -1.413617e+01 6.413863e+00 2.639632e+01 -1.067690e+00 -3.517548e+00 -1.658631e+00 -3.617502e+00 -4.795960e+00 -1.497069e+01 -5.288887e+00 4.245897e+00 -1.769512e+01 9.291740e+00 8.325150e+00 8.694894e-01 -1.159952e+00 -1.183445e+01 7.087932e-01 -6.280014e+00 -1.122208e+01 1.933905e+00 9.842297e+00 3.342322e-01
<VARIANCE> 40
 1.389101e+01 4.476316e+00 3.012192e-01 2.346647e+01 9.942438e+00 8.967575e+00 3.080303e+01 8.684995e+00 1.136243e+01 1.112264e+01 1.087086e+01 1.118905e+01 4.756091e+00 2.011210e+01 6.582460e+00 2.068890e+01 1.165513e+01 5.683466e+00 1.460506e+01 2.104533e+01 4.519585e+01 1.061701e+01 1.156531e+01 1.453156e+01 8.159384e+00 5.608623e+01 8.094750e-01 2.281667e+01 3.071358e+01 1.055439e+01 1.203080e+01 3.156133e+00 3.697961e+01 6.997938e+00 4.160961e+00 1.494433e+00 4.567294e+00 1.155013e+01 1.257455e+01 5.682761e+00
<GCONST> 1.640931e+02
<MIXTURE> 13 5.034519e-02
<MEAN> 40
 -1.666035e+01 -7.902939e+00 -1.103726e+01 -1.038419e+01 8.017622e+00 -1.450112e+01 -8.933554e+00 8.919521e+00 1.038159e+01 -3.856319e-02 7.401739e+00 -7.683203e+00 6.820281e+00 5.954307e+00 -9.229220e+00 -2.208732e+01 -2.520260e+00 -1.757810e+01 8.143551e+00 3.049044e+01 -8.889330e+00 -4.092470e+00 2.747383e-01 -3.361233e+00 -4.090993e+00 -2.109177e+01 -5.794591e+00 6.643435e+00 -1.433428e+01 8.591384e+00 1.196016e+01 -2.033057e-01 2.552896e+01 -1.480930e+01 6.140611e-01 -6.753412e+00 -1.116668e+01 -4.197454e-01 1.145541e+01 -5.804637e+00
<VARIANCE> 40
