~o
<STREAMINFO> 1 39
<VECSIZE> 39<NULLD><MFCC_E_D_A><DIAGC>
~s "silst"
<SID> 1
<NUMMIXES> 36
<MIXTURE> 1 3.161303e-02
<MEAN> 39
 1.624439e+00 4.856743e+00 2.044110e-01 6.761638e+00 6.268250e+00 7.192195e+00 6.621105e+00 4.042199e+00 3.448265e+00 2.982709e+00 2.178287e+00 2.059093e+00 2.400295e+01 5.314500e-02 2.373485e-01 5.078234e-01 4.259548e-01 3.586827e-01 6.599393e-01 5.080369e-01 8.278689e-01 9.404685e-01 1.085915e+00 9.332981e-01 6.135214e-01 4.400563e-01 -1.859300e-01 -1.833790e-01 1.467656e-02 -3.054282e-01 -4.171791e-01 -7.708052e-02 -1.824858e-01 -7.032242e-02 1.241974e-01 1.628652e-01 2.537097e-02 -1.048617e-01 -5.991771e-02
<VARIANCE> 39
 3.621994e+00 2.025316e+00 3.952668e+00 5.267112e+00 6.510770e+00 6.801061e+00 6.227542e+00 7.193302e+00 7.009650e+00 8.195996e+00 8.090898e+00 7.862929e+00 7.415380e-01 2.964650e-01 3.818211e-01 6.668167e-01 7.050151e-01 7.110389e-01 9.103056e-01 1.283160e+00 9.049352e-01 1.003338e+00 9.763748e-01 8.180007e-01 8.755737e-01 6.099126e-02 3.173818e-02 5.344543e-02 1.243846e-01 1.175618e-01 1.215591e-01 1.763192e-01 1.513923e-01 2.171876e-01 2.017246e-01 2.202875e-01 1.891723e-01 1.853726e-01 1.050785e-02
<GCONST> 5.695099e+01
<MIXTURE> 2 2.477744e-02
<MEAN> 39
 9.120404e-01 2.636510e+00 -1.842352e+00 3.783671e+00 2.445453e+00 3.187488e+00 2.915233e+00 8.258091e-01 1.048137e+00 9.018591e-01 -5.246158e-01 -3.791893e-01 2.222664e+01 4.562760e-01 4.820333e-01 1.632112e-01 6.044723e-01 8.011969e-01 3.853944e-01 5.971195e-01 7.648842e-01 3.483577e-01 1.854995e-01 4.279702e-01 2.977246e-01 2.837121e-01 3.985869e-02 1.913380e-01 2.418112e-01 1.635674e-01 1.762345e-01 4.276043e-01 3.402384e-01 4.241547e-01 4.828621e-01 4.881952e-01 4.234428e-01 2.490089e-01 2.256063e-01
<VARIANCE> 39
 4.602395e+00 2.792015e+00 5.591210e+00 6.132065e+00 6.695018e+00 9.970402e+00 8.652395e+00 8.373694e+00 7.319282e+00 6.030977e+00 7.471226e+00 8.180621e+00 8.389086e-01 2.859034e-01 3.183849e-01 5.921894e-01 5.321938e-01 7.662799e-01 8.783876e-01 8.215492e-01 1.055945e+00 1.296689e+00 1.322043e+00 1.002020e+00 8.033321e-01 7.293811e-02 8.250077e-02 7.050046e-02 1.476539e-01 1.030030e-01 1.257562e-01 2.023383e-01 2.017806e-01 2.255833e-01 2.091825e-01 1.648547e-01 1.654063e-01 2.134170e-01 1.064040e-02
<GCONST> 6.024037e+01
<MIXTURE> 3 1.665496e-02
<MEAN> 39
 -6.883669e-01 3.649916e+00 2.747888e+00 9.721839e+00 5.662105e+00 8.687819e+00 8.018074e+00 3.367122e+00 2.901262e+00 5.170451e+00 -2.155647e-01 1.591064e-02 2.428959e+01 1.031996e-02 -2.896014e-02 6.292689e-01 5.046809e-01 3.819354e-01 2.781934e-01 2.346960e-01 4.576616e-01 6.508684e-01 5.510170e-01 1.211198e-01 -2.075696e-01 2.174817e-01 2.733714e-01 1.041550e-01 -2.740216e-01 -5.221080e-01 -6.681918e-02 -1.601699e-01 -1.881704e-01 1.979714e-01 2.844230e-01 -4.910054e-02 4.297629e-01 3.205356e-01 3.578235e-03
<VARIANCE> 39
 2.570837e+00 3.678242e+00 4.229431e+00 3.390165e+00 5.794934e+00 5.431972e+00 9.092830e+00 8.479935e+00 9.096575e+00 1.223165e+01 1.325778e+01 6.090950e+00 6.219375e-01 2.873060e-01 3.229299e-01 4.795529e-01 6.434804e-01 6.906624e-01 9.535561e-01 7.878977e-01 8.607379e-01 1.136434e+00 9.987849e-01 1.313900e+00 8.532025e-01 2.474319e-02 7.099447e-02 7.907375e-02 1.031799e-01 7.874261e-02 1.373455e-01 1.309871e-01 1.406178e-01 1.600569e-01 2.045050e-01 3.138823e-01 2.738210e-01 1.046270e-01 7.637922e-03
<GCONST> 5.621172e+01
<MIXTURE> 4 2.007970e-02
<MEAN> 39
 -5.661140e-02 3.182781e+00 1.882531e+00 3.370331e+00 4.294166e-01 7.095294e+00 3.430373e+00 1.765969e+00 5.120129e+00 2.101985e+00 7.328982e-01 1.934503e+00 2.355403e+01 1.207643e+00 7.721129e-01 -1.818429e+00 6.756351e-01 1.392199e+00 -2.075466e+00 8.759283e-01 4.858666e-01 -1.005522e+00 5.539025e-01 -3.616409e-01 2.852476e-01 -6.083073e-02 1.961533e-01 1.994894e-01 -3.015716e-01 1.455140e-01 5.309891e-01 -3.083213e-01 1.581092e-01 2.393825e-01 -2.184669e-01 1.439159e-01 1.471217e-01 -9.920749e-02 3.217325e-02
<VARIANCE> 39
 2.981815e+00 3.149045e+00 5.837223e+00 6.462028e+00 1.274400e+01 1.302488e+01 1.117508e+01 1.011942e+01 1.137177e+01 1.183204e+01 7.080505e+00 8.981446e+00 8.169470e-01 9.362900e-02 5.109820e-01 6.199746e-01 5.075380e-01 9.062219e-01 9.740971e-01 9.521713e-01 1.012638e+00 1.736949e+00 1.095933e+00 1.184657e+00 1.246518e+00 4.600735e-02 4.843133e-02 7.614740e-02 1.737747e-01 1.270385e-01 2.661702e-01 3.009530e-01 2.363309e-01 1.725210e-01 2.652920e-01 2.933375e-01 1.766005e-01 2.294107e-01 1.324833e-02
<GCONST> 6.461324e+01
<MIXTURE> 5 1.635460e-02
<MEAN> 39
 2.342621e+00 4.173550e+00 -1.057009e+00 1.780221e+00 2.654896e-01 3.934373e+00 4.983428e+00 3.177680e+00 4.466592e+00 7.136250e+00 5.019440e+00 2.691113e+00 2.379054e+01 1.607649e-01 2.913459e-01 3.788143e-01 6.940712e-01 9.409590e-01 7.617626e-01 8.566358e-01 8.169649e-01 5.391136e-01 6.209162e-01 6.685646e-01 3.693998e-01 3.893420e-01 -3.795982e-02 -3.973207e-02 6.634136e-02 2.275344e-01 3.666289e-01 3.759873e-01 3.744521e-02 5.303227e-02 -2.742841e-02 -5.180656e-01 -4.320282e-01 -1.953860e-01 1.640422e-02
<VARIANCE> 39
 7.988210e+00 3.668154e+00 5.656209e+00 7.119831e+00 9.169443e+00 1.000169e+01 5.328487e+00 9.421043e+00 1.237177e+01 7.765690e+00 8.170319e+00 7.038545e+00 1.129488e+00 5.171462e-01 4.806641e-01 5.192198e-01 6.426914e-01 6.419745e-01 1.299513e+00 1.103069e+00 9.525781e-01 1.162196e+00 1.496576e+00 1.227329e+00 9.086280e-01 4.196822e-02 9.148395e-02 6.696094e-02 1.488082e-01 1.332625e-01 1.742617e-01 2.909660e-01 1.552098e-01 2.589323e-01 2.700141e-01 2.151641e-01 2.997917e-01 1.647515e-01 1.242196e-02
<GCONST> 6.534079e+01
<MIXTURE> 6 3.028194e-02
<MEAN> 39
 4.248020e-01 3.631767e+00 4.791019e-01 4.303539e+00 2.686228e+00 7.122014e+00 6.439700e+00 3.732408e+00 6.462542e+00 8.142657e+00 3.911797e+00 2.916038e+00 2.420825e+01 1.198644e-01 2.931686e-02 -1.991319e-01 -1.942511e-01 -2.946812e-02 -4.133560e-01 -6.562192e-02 -8.356951e-03 -3.572772e-01 -9.586012e-03 1.245405e-01 1.875688e-01 -4.506967e-02 1.309998e-01 1.154463e-01 -1.388464e-02 1.525536e-01 2.308789e-01 -2.060670e-01 -1.305480e-01 2.519092e-02 -3.448604e-01 -6.005918e-01 -2.687606e-01 -2.169094e-01 -2.500412e-02
<VARIANCE> 39
 3.311136e+00 2.256914e+00 3.894562e+00 4.169317e+00 5.595138e+00 7.868835e+00 7.190998e+00 1.038747e+01 8.809810e+00 5.926022e+00 6.248342e+00 6.772737e+00 5.852107e-01 3.561217e-01 4.415546e-01 7.689847e-01 5.504364e-01 8.320342e-01 8.730992e-01 1.085017e+00 1.487704e+00 1.039633e+00 1.136649e+00 9.142715e-01 8.545493e-01 3.272919e-02 4.171428e-02 4.185702e-02 8.635703e-02 1.122201e-01 1.019233e-01 1.107087e-01 1.976134e-01 2.727892e-01 1.873832e-01 1.541305e-01 1.453663e-01 1.650307e-01 3.546248e-03
<GCONST> 5.438055e+01
<MIXTURE> 7 2.659216e-02
<MEAN> 39
 1.171332e+00 4.683665e+00 2.650972e+00 7.749687e+00 4.715250e+00 5.941373e+00 4.144382e+00 3.117937e+00 6.232208e+00 5.901660e+00 1.455376e+00 3.692937e-01 2.432227e+01 1.599530e-01 1.644169e-02 -1.263880e-01 -3.728246e-01 -1.060234e-01 -1.017705e-01 -1.137973e-01 9.055851e-02 3.128962e-01 5.185799e-01 6.006828e-01 2.137384e-01 7.929618e-02 3.704834e-02 -4.849191e-02 -4.048406e-01 -3.423548e-01 -3.526697e-02 2.090823e-02 2.492806e-01 6.343202e-02 -3.843677e-01 -3.265508e-01 7.301183e-02 2.147455e-01 -7.229643e-02
<VARIANCE> 39
 3.218801e+00 3.015296e+00 2.751531e+00 3.541121e+00 7.283623e+00 1.103618e+01 8.238339e+00 6.770998e+00 7.906542e+00 1.001360e+01 5.817935e+00 5.310348e+00 5.075673e-01 2.063561e-01 2.394347e-01 4.498551e-01 5.655954e-01 6.880909e-01 8.129070e-01 8.291374e-01 1.316240e+00 1.430236e+00 1.402340e+00 1.058802e+00 1.064238e+00 4.066155e-02 4.852057e-02 5.620879e-02 6.045013e-02 8.234961e-02 1.505336e-01 2.334066e-01 1.914291e-01 1.352283e-01 1.710866e-01 2.912901e-01 1.927244e-01 1.364633e-01 4.294187e-03
<GCONST> 5.420443e+01
<MIXTURE> 8 1.839618e-02
<MEAN> 39
 -4.991026e+00 4.745306e+00 2.344358e-01 6.673868e+00 6.295218e+00 4.821939e+00 6.026045e+00 4.235932e+00 2.109236e+00 3.151349e+00 2.391014e+00 4.330792e+00 2.369906e+01 -6.911924e-01 4.180453e-02 -2.234176e-01 1.335321e-01 -8.741239e-03 -8.892471e-02 -8.566364e-02 3.593866e-01 6.098576e-01 3.997291e-01 2.472003e-02 1.661695e-01 2.558152e-02 3.131915e-01 -1.278196e-01 -1.869472e-01 -1.705013e-01 -2.207391e-01 1.581860e-01 -8.949972e-02 -5.915004e-03 2.787906e-01 3.470535e-02 -1.231872e-01 -2.531357e-01 -1.362037e-02
<VARIANCE> 39
 3.076575e+01 1.465228e+01 4.800861e+00 9.849545e+00 2.072270e+01 8.594802e+00 1.165989e+01 9.572152e+00 2.115490e+01 1.620306e+01 9.996813e+00 8.307833e+00 6.380557e-01 4.871671e+00 1.461308e+00 1.128430e+00 1.156642e+00 2.601683e+00 7.807306e-01 1.448713e+00 7.028232e-01 1.497200e+00 1.645781e+00 8.241599e-01 1.143876e+00 3.792049e-02 8.581490e-01 3.328922e-01 1.891317e-01 1.921687e-01 4.792242e-01 9.782927e-02 1.584757e-01 1.366636e-01 5.094514e-01 4.551720e-01 2.030224e-01 1.469215e-01 8.488247e-03
<GCONST> 8.067239e+01
<MIXTURE> 9 2.795285e-02
<MEAN> 39
 8.892048e-01 4.532004e+00 -3.720387e-01 4.802267e+00 3.412344e+00 5.700557e+00 7.166555e+00 6.895067e+00 6.400444e+00 3.319160e+00 1.033224e+00 7.651817e-01 2.371145e+01 5.537289e-02 1.456739e-01 2.142524e-01 2.760143e-01 3.528638e-01 3.999377e-01 6.612748e-01 5.202309e-01 1.614269e-01 3.155634e-02 6.468479e-03 6.760557e-03 1.932470e-01 -1.236465e-01 -9.152938e-02 1.300125e-01 3.232276e-02 5.056843e-02 9.479287e-02 -3.196030e-01 -5.191973e-01 -4.244062e-01 1.315513e-01 1.975117e-01 7.048588e-02 -2.906874e-03
<VARIANCE> 39
 3.231418e+00 1.947590e+00 3.100624e+00 3.945165e+00 5.324606e+00 8.743099e+00 7.742764e+00 5.786067e+00 6.969785e+00 7.213116e+00 5.156638e+00 5.797106e+00 7.550512e-01 3.710876e-01 4.943493e-01 6.641279e-01 7.230630e-01 8.977472e-01 8.594655e-01 1.011538e+00 1.265145e+00 1.372534e+00 1.052150e+00 8.251968e-01 8.961979e-01 6.145876e-02 1.112285e-01 6.832278e-02 8.070128e-02 9.053483e-02 1.129454e-01 2.253716e-01 1.502217e-01 1.047871e-01 2.045050e-01 2.010546e-01 1.335147e-01 1.298754e-01 6.538433e-03
<GCONST> 5.563502e+01
<MIXTURE> 10 3.695544e-02
<MEAN> 39
 1.636695e+00 3.048500e+00 -1.212248e+00 4.623148e+00 5.440685e+00 8.945001e+00 9.016715e+00 6.437371e+00 5.193281e+00 3.618872e+00 -1.362341e-01 -1.148791e-01 2.398388e+01 -4.759150e-02 -1.370781e-01 -3.176059e-01 -3.984876e-01 -4.210823e-01 -2.557013e-01 -1.933746e-01 -2.405656e-01 2.935567e-02 -6.763266e-02 -3.464330e-01 -2.358781e-01 -1.478575e-01 7.479940e-03 9.932878e-02 2.670125e-02 -1.371686e-01 -3.385728e-01 -4.815499e-01 -6.072437e-01 -5.275163e-01 -2.333403e-01 4.109906e-02 3.603387e-01 2.414044e-01 -5.316450e-02
<VARIANCE> 39
 6.690499e+00 3.672645e+00 4.971733e+00 6.407773e+00 5.370671e+00 6.888836e+00 7.934813e+00 8.224412e+00 8.261514e+00 9.533693e+00 7.320212e+00 1.077191e+01 9.330968e-01 2.156968e-01 3.206504e-01 5.052003e-01 6.280994e-01 7.458524e-01 9.652542e-01 1.297009e+00 1.246946e+00 8.854167e-01 1.229910e+00 1.175125e+00 1.141442e+00 3.860197e-02 5.431741e-02 6.134040e-02 1.130890e-01 1.394565e-01 8.812701e-02 1.606516e-01 1.663416e-01 1.655698e-01 1.755541e-01 2.212222e-01 2.173801e-01 2.837787e-01 9.669891e-03
<GCONST> 5.987539e+01
<MIXTURE> 11 3.287368e-02
<MEAN> 39
 9.731605e-01 1.860352e+00 -1.860176e+00 1.834940e+00 6.332141e-01 3.174620e+00 2.637214e+00 -7.654547e-01 -4.782676e-01 2.790512e+00 1.505920e+00 4.042194e-01 2.238315e+01 -1.341487e-01 -3.659911e-01 -1.158857e-01 -1.106100e-01 -9.537993e-02 -1.676826e-01 -2.498636e-01 -2.674921e-01 -5.744168e-01 -6.910999e-01 -4.173334e-01 -3.539554e-01 -2.586320e-01 2.301208e-01 2.975857e-01 1.064806e-01 2.436058e-01 3.709914e-01 3.759208e-01 4.038634e-01 6.398176e-01 6.096300e-01 1.190237e-01 5.901719e-02 1.316853e-01 2.053107e-01
<VARIANCE> 39
 5.612603e+00 4.450811e+00 7.559921e+00 1.074232e+01 1.052048e+01 9.295656e+00 8.079334e+00 8.583710e+00 1.027030e+01 1.140464e+01 1.169560e+01 1.160990e+01 1.095115e+00 5.235491e-01 4.751435e-01 6.266723e-01 7.224315e-01 9.504788e-01 1.221632e+00 1.103995e+00 1.198655e+00 1.150948e+00 1.148790e+00 9.557857e-01 1.088575e+00 8.747482e-02 7.401285e-02 9.424770e-02 1.495473e-01 1.596255e-01 1.877339e-01 1.577604e-01 1.692461e-01 1.768693e-01 2.090090e-01 2.382500e-01 2.128744e-01 2.171090e-01 1.134285e-02
<GCONST> 6.772601e+01
<MIXTURE> 12 3.193736e-02
<MEAN> 39
 2.987255e+00 4.936279e+00 -1.747999e-01 4.696855e+00 2.785879e+00 4.747793e+00 5.614636e+00 3.855985e+00 3.139234e+00 3.053605e+00 2.770498e+00 2.406533e+00 2.430610e+01 -2.243794e-01 -6.333297e-02 1.974388e-01 4.014136e-01 2.692547e-01 3.999076e-01 2.732058e-01 2.059242e-01 2.956285e-01 1.533509e-01 5.559054e-02 -2.636979e-02 6.963646e-02 -1.328235e-01 -1.081264e-01 3.172496e-02 2.253690e-02 1.016728e-01 2.095159e-01 -3.889820e-02 -4.705938e-02 2.333846e-01 2.398425e-01 -9.353633e-02 -1.455519e-01 -1.299144e-02
<VARIANCE> 39
 3.742121e+00 2.542133e+00 2.621151e+00 3.758725e+00 4.095574e+00 6.207952e+00 5.179970e+00 4.299228e+00 5.781359e+00 4.756108e+00 4.635266e+00 7.072131e+00 4.455641e-01 3.532381e-01 4.561265e-01 5.264987e-01 7.243978e-01 8.543607e-01 8.085167e-01 9.830008e-01 1.112560e+00 1.167235e+00 1.150529e+00 6.777685e-01 1.011474e+00 3.365203e-02 3.749680e-02 6.651951e-02 6.789105e-02 1.019167e-01 9.949068e-02 1.340179e-01 1.728896e-01 1.142740e-01 1.318607e-01 9.088337e-02 9.011739e-02 1.353815e-01 5.265580e-03
<GCONST> 4.872172e+01
<MIXTURE> 13 2.812873e-02
<MEAN> 39
 1.221586e+00 3.728263e+00 8.579096e-01 7.103064e+00 5.688341e+00 8.097836e+00 8.167519e+00 6.712081e+00 6.831646e+00 6.912598e+00 4.710204e+00 2.471319e+00 2.476062e+01 7.469973e-02 -1.593986e-02 -1.814000e-02 -9.097618e-03 3.383808e-01 4.959728e-01 2.301620e-01 4.658639e-01 5.338818e-01 3.651236e-01 5.813113e-01 3.592680e-01 2.075116e-01 4.833254e-02 5.412482e-02 -1.854607e-01 -3.438895e-01 -3.098098e-01 -3.494867e-01 -3.829123e-01 -5.508547e-01 -4.691713e-01 -4.327361e-01 -4.567476e-01 -1.365282e-01 -1.521525e-01
<VARIANCE> 39
 5.309874e+00 2.313047e+00 5.273342e+00 7.525146e+00 8.585859e+00 5.353247e+00 9.347713e+00 7.588691e+00 7.919405e+00 9.196116e+00 5.964684e+00 7.013254e+00 5.950090e-01 3.486753e-01 2.949240e-01 7.470747e-01 7.481725e-01 8.716584e-01 1.053754e+00 1.138252e+00 1.403847e+00 1.089914e+00 1.357861e+00 1.259231e+00 8.973570e-01 3.633764e-02 5.021940e-02 6.309228e-02 1.130502e-01 1.103688e-01 1.676302e-01 2.013068e-01 2.113423e-01 1.667364e-01 2.163631e-01 2.992340e-01 1.491861e-01 1.944069e-01 8.763727e-03
<GCONST> 6.029736e+01
<MIXTURE> 14 3.911370e-02
<MEAN> 39
 -2.678491e+00 4.746787e+00 -2.786113e+00 -2.461802e+00 1.026296e+00 -8.225208e-01 -6.417192e-01 -4.958019e-01 2.074916e+00 -8.612827e-01 -2.496950e+00 -1.818703e+00 2.210225e+01 -1.128732e-01 6.509824e-02 7.887050e-02 3.865242e-01 3.405449e-01 3.236987e-01 1.713931e-01 -2.119266e-02 -3.171705e-02 -2.100190e-01 -2.015773e-01 -1.517000e-01 -2.793013e-02 -3.506814e-02 -2.249458e-02 -5.257737e-02 7.708417e-03 5.197247e-02 1.235121e-01 1.064367e-01 6.414631e-02 5.560801e-02 6.856417e-02 8.804838e-02 4.800477e-02 2.745527e-02
<VARIANCE> 39
 2.191800e+01 1.424034e+01 1.955676e+01 2.076082e+01 3.443919e+01 2.890951e+01 2.436667e+01 2.635329e+01 2.460798e+01 2.539198e+01 2.485590e+01 2.035549e+01 1.549571e+00 4.532394e-01 6.470378e-01 1.100967e+00 1.214007e+00 1.787578e+00 1.555671e+00 1.837094e+00 1.897011e+00 1.804915e+00 1.724263e+00 1.660935e+00 1.448166e+00 3.360509e-02 6.568576e-02 8.642916e-02 1.456505e-01 1.894805e-01 2.428314e-01 2.558367e-01 2.688331e-01 2.963642e-01 2.650422e-01 2.655019e-01 2.741284e-01 2.509986e-01 4.756212e-03
<GCONST> 8.510316e+01
<MIXTURE> 15 3.293626e-02
<MEAN> 39
 1.433876e+00 4.985893e+00 1.156965e+00 6.889428e+00 4.624195e+00 3.781100e+00 1.902948e+00 5.931101e-01 1.843455e+00 1.817882e+00 1.957506e+00 1.842133e+00 2.370469e+01 -4.668561e-02 -3.332516e-02 -1.075766e-03 1.649557e-01 1.647886e-01 1.897127e-01 1.717665e-01 -1.665707e-02 -1.145837e-01 -1.024070e-01 -3.026485e-01 -3.082898e-01 -6.469094e-03 -1.633775e-02 -1.050996e-01 -1.976444e-01 -3.868957e-01 -2.104557e-01 2.051711e-01 4.504527e-01 3.970881e-01 3.641704e-01 2.927601e-01 -4.325248e-02 -1.249234e-01 4.079667e-03
<VARIANCE> 39
 2.883049e+00 3.062438e+00 2.600455e+00 4.667894e+00 7.202870e+00 7.222674e+00 5.530427e+00 4.780858e+00 7.037038e+00 7.369842e+00 7.226942e+00 7.076939e+00 6.469100e-01 2.067982e-01 3.528747e-01 4.534087e-01 8.289691e-01 8.341237e-01 9.370483e-01 1.079991e+00 1.179476e+00 1.252656e+00 1.217695e+00 1.272109e+00 1.001965e+00 4.457964e-02 5.062389e-02 6.415710e-02 9.818108e-02 1.117398e-01 1.256018e-01 1.811589e-01 1.523264e-01 1.314559e-01 1.557993e-01 1.637344e-01 1.953659e-01 1.659458e-01 8.324522e-03
<GCONST> 5.515745e+01
<MIXTURE> 16 2.961914e-02
<MEAN> 39
 -3.390293e-01 3.101655e+00 -1.012910e+00 5.077250e+00 6.119123e+00 8.524688e+00 7.737345e+00 2.934071e+00 8.649905e-01 2.924290e+00 2.781281e+00 1.670031e+00 2.324427e+01 -6.358732e-02 -1.251272e-02 -9.089194e-03 1.333701e-01 1.726274e-02 1.019316e-01 2.499383e-01 -1.825373e-01 -3.635351e-01 -2.032849e-01 -4.643698e-01 -9.441459e-02 -7.051343e-02 -1.999580e-02 1.347752e-01 2.187936e-01 1.133378e-01 -1.922095e-01 -2.704794e-01 -2.968688e-01 1.622293e-01 5.658271e-01 1.658216e-01 -1.877975e-01 -9.680101e-02 5.927855e-02
<VARIANCE> 39
 3.141303e+00 2.687988e+00 3.444550e+00 3.840727e+00 4.389630e+00 8.187354e+00 7.810738e+00 8.122219e+00 7.605916e+00 8.702668e+00 7.813631e+00 8.152573e+00 6.123357e-01 1.880050e-01 3.669408e-01 5.780210e-01 4.683605e-01 6.898508e-01 6.176832e-01 6.728368e-01 8.737000e-01 1.247512e+00 1.429234e+00 1.391285e+00 1.134271e+00 6.260777e-02 6.491919e-02 6.652699e-02 1.103370e-01 1.058402e-01 1.290243e-01 1.370311e-01 1.491572e-01 1.581529e-01 1.940568e-01 1.867542e-01 2.003552e-01 1.543098e-01 8.023853e-03
<GCONST> 5.558374e+01
<MIXTURE> 17 2.034531e-02
<MEAN> 39
 3.216260e+00 4.457570e+00 -8.553159e-01 4.321613e+00 4.143309e+00 5.948403e+00 4.911667e+00 4.197103e+00 5.257299e+00 5.941330e+00 4.271815e+00 3.258722e+00 2.451167e+01 -3.248974e-01 -4.670235e-01 -3.142396e-01 -4.165447e-01 -9.503056e-01 -8.747035e-01 -9.231949e-01 -1.271005e+00 -1.050775e+00 -5.654994e-01 -5.688542e-01 -2.413368e-01 -4.055072e-01 -1.573727e-01 -1.422504e-01 -5.309140e-02 -1.137613e-01 -1.913488e-01 -6.213814e-02 2.054769e-02 -1.607155e-01 -3.257369e-01 -2.833025e-01 -3.017168e-01 -2.596149e-01 -1.420224e-01
<VARIANCE> 39
 3.107763e+00 2.834538e+00 7.609349e+00 1.014434e+01 1.020147e+01 8.217366e+00 5.755920e+00 5.357385e+00 5.751245e+00 9.489981e+00 5.758826e+00 1.053569e+01 6.816118e-01 2.467716e-01 3.183689e-01 6.188426e-01 7.969090e-01 7.482699e-01 7.219824e-01 8.067279e-01 1.153194e+00 1.216252e+00 9.576613e-01 1.006875e+00 1.030740e+00 4.494916e-02 5.784206e-02 6.422854e-02 7.714128e-02 1.005360e-01 1.499928e-01 1.771770e-01 1.735402e-01 1.510596e-01 1.414133e-01 2.289276e-01 1.263505e-01 2.116631e-01 7.715351e-03
<GCONST> 5.728698e+01
<MIXTURE> 18 2.835137e-02
<MEAN> 39
 1.718253e+00 4.038352e+00 -1.867332e+00 2.670975e+00 1.581291e+00 2.453540e+00 1.700415e+00 2.147147e+00 3.948301e+00 4.301495e+00 3.829968e+00 3.269767e+00 2.315897e+01 -5.871401e-02 2.561147e-02 1.038462e-01 1.691825e-01 -1.891892e-02 -9.714247e-02 1.506561e-02 -5.475956e-02 -4.508057e-01 -2.875029e-01 -5.621146e-02 -2.998987e-03 -1.977261e-02 -4.366670e-02 6.282515e-02 2.663432e-01 3.236101e-01 2.511880e-01 3.959701e-01 3.758665e-01 1.277683e-01 -4.864088e-02 -1.080979e-01 -3.313661e-01 -3.922820e-01 7.183395e-02
<VARIANCE> 39
 2.937724e+00 2.607054e+00 3.546009e+00 4.688695e+00 5.329212e+00 5.197757e+00 6.261936e+00 6.825922e+00 6.504715e+00 7.457267e+00 5.950374e+00 6.966362e+00 8.032782e-01 4.636802e-01 4.367902e-01 6.219386e-01 7.879677e-01 9.476080e-01 1.100112e+00 1.070668e+00 1.168625e+00 1.035866e+00 1.111654e+00 1.321738e+00 1.108625e+00 3.554726e-02 5.128013e-02 5.527276e-02 7.499760e-02 8.178656e-02 9.427692e-02 1.469560e-01 1.560892e-01 1.918005e-01 1.514553e-01 1.761777e-01 1.579079e-01 1.423994e-01 8.053369e-03
<GCONST> 5.514189e+01
<MIXTURE> 19 2.410320e-02
<MEAN> 39
 3.805241e+00 3.696682e+00 -3.109890e+00 2.566729e-01 -4.841792e-01 3.946234e+00 6.458788e+00 6.684474e+00 6.531802e+00 4.335091e+00 1.458888e+00 1.348811e+00 2.373594e+01 8.147395e-02 1.689154e-01 6.535112e-02 -2.007414e-01 -2.574106e-01 -6.643832e-02 -1.434383e-02 2.023833e-01 1.287320e-01 1.692918e-01 1.954916e-01 -4.696497e-02 2.614717e-02 -1.318860e-01 5.719334e-02 2.028504e-01 3.036338e-01 3.708027e-01 2.403843e-01 -3.109395e-01 -6.536981e-01 -5.291294e-01 -1.661965e-01 1.250152e-02 -4.229444e-02 -1.989181e-02
<VARIANCE> 39
 6.208926e+00 3.882296e+00 5.416994e+00 5.351212e+00 5.594949e+00 9.549831e+00 1.144462e+01 9.431473e+00 9.070068e+00 8.924117e+00 9.710637e+00 1.387520e+01 8.082284e-01 2.286540e-01 2.798765e-01 5.882982e-01 6.454034e-01 9.197462e-01 9.664822e-01 1.625703e+00 1.630820e+00 1.433266e+00 1.299031e+00 1.475153e+00 1.044712e+00 4.828031e-02 7.244598e-02 6.620880e-02 1.380725e-01 1.296549e-01 1.744906e-01 1.773268e-01 3.184441e-01 2.431578e-01 2.354422e-01 2.071308e-01 2.152325e-01 2.803414e-01 1.030847e-02
<GCONST> 6.533389e+01
<MIXTURE> 20 3.161111e-02
<MEAN> 39
 -3.504371e+00 1.870982e+00 6.015460e+00 2.398004e+00 -1.505725e+00 1.202691e+01 1.398311e+00 2.010293e+00 7.212313e+00 1.433013e+00 3.322300e+00 -4.902094e-02 2.379967e+01 -1.276517e-01 -2.367140e-01 2.171454e-01 -2.077781e-01 -6.988700e-01 1.662326e-01 -2.255350e-01 -3.878243e-01 2.458933e-01 -1.127306e-01 -7.011470e-02 3.459753e-01 -7.322253e-02 5.868175e-01 3.683726e-01 -9.323475e-01 3.090504e-01 7.558376e-01 -9.891641e-01 4.920717e-01 2.455867e-01 -5.075775e-01 2.297628e-01 -1.946182e-01 1.590165e-01 -2.678922e-02
<VARIANCE> 39
 2.925753e+00 6.322871e+00 6.689519e+00 6.886427e+00 1.298830e+01 1.222996e+01 1.195793e+01 1.029053e+01 1.351050e+01 1.362515e+01 1.076803e+01 1.608886e+01 8.332735e-01 3.239683e-01 3.733329e-01 1.097639e+00 7.746779e-01 1.431209e+00 1.453631e+00 1.249831e+00 9.102517e-01 1.366858e+00 1.485226e+00 1.004264e+00 1.027242e+00 5.395567e-02 2.863921e-02 1.234620e-01 1.214759e-01 1.005573e-01 2.481340e-01 2.123941e-01 1.849453e-01 1.886105e-01 3.302823e-01 2.917845e-01 3.036473e-01 2.707168e-01 1.316750e-02
<GCONST> 6.938308e+01
<MIXTURE> 21 1.099291e-02
<MEAN> 39
 -5.584055e+00 1.346386e+00 -4.204395e+00 5.286622e+00 3.491672e+00 6.783119e+00 4.123745e+00 5.124869e+00 7.320999e+00 5.325151e+00 3.576697e-01 1.881580e+00 2.356177e+01 8.896931e-01 -4.145738e-01 -4.879774e-01 -4.805724e-01 -1.602300e-01 2.160239e-01 -1.231208e-01 -4.830837e-01 -5.581926e-01 -7.038291e-01 -2.361840e-01 -8.298972e-01 -1.489592e-01 5.029646e-01 3.724400e-01 4.814737e-01 -8.012187e-02 1.389863e-01 -9.381540e-02 1.658036e-01 -2.521984e-01 -5.167468e-01 -1.767752e-01 2.066594e-01 7.115690e-02 9.340256e-03
<VARIANCE> 39
 1.572810e+01 1.044120e+01 1.318110e+01 1.321608e+01 2.694578e+01 6.813736e+00 1.289494e+01 1.259547e+01 1.144946e+01 9.782513e+00 1.334232e+01 1.251894e+01 1.365517e+00 1.371097e+00 1.052736e+00 1.531401e+00 1.125217e+00 1.310019e+00 8.085600e-01 7.811919e-01 8.106644e-01 1.932546e+00 5.878983e-01 1.551875e+00 1.548787e+00 2.837230e-02 1.595793e-01 2.660004e-01 2.026062e-01 2.399932e-01 4.508008e-01 9.938002e-02 2.684951e-01 1.872427e-01 2.350044e-01 2.039977e-01 2.321452e-01 3.723752e-01 7.664407e-03
<GCONST> 7.770778e+01
<MIXTURE> 22 1.960998e-02
<MEAN> 39
 6.610761e-01 4.395550e+00 8.763201e-01 4.960875e+00 3.623296e+00 6.321657e+00 5.005861e+00 4.020594e+00 4.022262e+00 3.018651e+00 1.979380e+00 1.025913e+00 2.400042e+01 -1.135497e+00 -8.225968e-01 1.902763e+00 -6.335147e-01 -1.802435e+00 1.728374e+00 -9.256046e-01 -5.269048e-01 8.993484e-01 -4.918592e-01 2.806240e-01 -3.222792e-01 9.075066e-03 1.165532e-02 -4.440040e-02 -1.309175e-01 -8.690467e-02 -1.563080e-01 -1.615316e-01 -1.074268e-01 -1.793480e-01 -1.740356e-02 -4.630444e-02 -1.073449e-01 8.928426e-02 -5.657704e-02
<VARIANCE> 39
 3.056093e+00 1.937443e+00 4.247276e+00 6.420240e+00 6.487137e+00 8.573310e+00 1.194064e+01 8.929675e+00 1.056582e+01 1.186299e+01 9.044127e+00 1.020237e+01 6.972252e-01 1.158046e-01 4.241214e-01 4.680169e-01 4.506734e-01 1.096033e+00 1.026597e+00 6.413879e-01 7.540271e-01 1.576061e+00 1.729818e+00 1.412731e+00 1.343051e+00 6.138771e-02 5.640440e-02 4.815489e-02 1.234419e-01 1.410355e-01 2.334483e-01 2.247385e-01 2.594206e-01 1.315493e-01 2.396324e-01 2.516553e-01 2.353679e-01 2.297706e-01 1.375342e-02
<GCONST> 6.182226e+01
<MIXTURE> 23 2.252061e-02
<MEAN> 39
 2.431370e+00 5.340428e+00 1.824820e+00 6.159114e+00 4.204534e+00 6.528634e+00 8.123256e+00 5.174614e+00 2.725792e+00 4.747714e+00 2.924579e+00 7.640485e-01 2.478008e+01 -3.375458e-01 -3.323826e-01 -7.748373e-02 -1.531741e-01 -9.244740e-02 3.890134e-02 1.780685e-02 -2.095962e-01 -6.179358e-01 9.342648e-02 -2.707332e-02 -2.981882e-01 -1.009505e-01 -1.001325e-01 -2.962661e-01 -4.070817e-01 -3.866404e-01 -1.657021e-01 -1.310881e-01 -5.227265e-01 -4.647046e-01 -2.426128e-02 -2.796916e-01 -2.462713e-01 6.529648e-02 -2.257324e-01
<VARIANCE> 39
 5.572786e+00 3.652131e+00 5.348722e+00 8.402555e+00 7.460457e+00 6.548982e+00 5.777448e+00 1.069425e+01 1.408443e+01 9.552891e+00 9.658007e+00 8.912105e+00 5.591205e-01 4.231875e-01 3.766562e-01 4.665895e-01 8.415011e-01 8.509789e-01 8.489572e-01 1.074737e+00 1.226196e+00 1.769353e+00 1.662688e+00 1.779453e+00 9.723684e-01 7.691754e-02 7.893797e-02 7.751169e-02 7.317999e-02 1.517467e-01 1.184395e-01 1.331166e-01 1.297800e-01 2.340627e-01 3.002829e-01 1.889143e-01 1.995600e-01 1.477924e-01 8.693108e-03
<GCONST> 6.314700e+01
<MIXTURE> 24 3.566685e-02
<MEAN> 39
 -7.362710e+00 -1.201559e+00 -5.696959e+00 -3.541979e+00 -2.853714e+00 -2.158273e+00 -2.051919e+00 -4.823328e-01 -5.736358e-01 1.244401e+00 2.109492e+00 2.745805e+00 1.467369e+01 -5.386173e-03 -4.344717e-02 2.595468e-02 -1.687124e-02 2.695054e-03 -9.201093e-03 -8.425214e-03 1.903565e-02 -8.023148e-03 -2.971928e-02 2.128640e-02 3.811142e-02 -1.223292e-02 6.690182e-02 7.837037e-04 -1.678124e-02 3.725876e-02 -1.129428e-02 2.382208e-02 -8.350197e-03 -1.777051e-02 -1.055275e-02 -1.203629e-02 -2.231043e-04 -5.990945e-04 4.961908e-04
<VARIANCE> 39
 1.156108e+01 1.435380e+01 1.641023e+01 1.811015e+01 1.742842e+01 2.379099e+01 2.218364e+01 2.047643e+01 1.957364e+01 1.908249e+01 1.595515e+01 1.413867e+01 6.978266e-01 1.240769e+00 8.883958e-01 1.035678e+00 1.370089e+00 1.425230e+00 1.725608e+00 1.710417e+00 1.725890e+00 1.668764e+00 1.557846e+00 1.361398e+00 1.236478e+00 3.668641e-02 2.233686e-01 1.719766e-01 2.065000e-01 2.723580e-01 2.903984e-01 3.492973e-01 3.517451e-01 3.554669e-01 3.468683e-01 3.211426e-01 2.800926e-01 2.569167e-01 7.345882e-03
<GCONST> 8.596680e+01
<MIXTURE> 25 3.716068e-02
<MEAN> 39
 3.283150e+00 4.692912e+00 -1.180542e-01 4.078529e+00 4.213590e+00 7.180046e+00 4.827888e+00 5.194287e-01 1.114547e+00 3.073424e+00 2.459693e+00 2.342151e+00 2.427921e+01 1.063259e-01 -1.424659e-02 -3.991851e-01 -4.790414e-01 -3.447799e-01 -3.316611e-01 -4.449314e-01 -3.256427e-01 -1.848636e-01 -4.060545e-01 -3.952294e-01 -1.179201e-01 -1.780403e-01 -1.065695e-01 -1.271316e-01 -1.347908e-01 -9.899748e-02 -2.098499e-01 -2.563101e-01 1.276853e-02 3.964162e-01 3.869981e-01 6.298569e-02 -1.107809e-01 -1.430341e-01 -7.511175e-02
<VARIANCE> 39
 4.087542e+00 2.601101e+00 4.911598e+00 5.893151e+00 7.815039e+00 7.277301e+00 9.915249e+00 5.565662e+00 6.668821e+00 7.298642e+00 9.483780e+00 9.017050e+00 4.515852e-01 1.824093e-01 2.260090e-01 4.993009e-01 5.793567e-01 6.023278e-01 8.347352e-01 1.119375e+00 1.332447e+00 1.276198e+00 1.207620e+00 1.170527e+00 1.030790e+00 4.019849e-02 4.109295e-02 5.097084e-02 8.519746e-02 1.266803e-01 1.446463e-01 1.237555e-01 1.712363e-01 1.352312e-01 1.524756e-01 1.477265e-01 1.972452e-01 1.933539e-01 6.248523e-03
<GCONST> 5.506556e+01
<MIXTURE> 26 3.438244e-02
<MEAN> 39
 2.614101e+00 5.535028e+00 5.986982e-01 5.688450e+00 4.749996e+00 4.930260e+00 3.331455e+00 3.272876e+00 6.421257e+00 6.078801e+00 3.023045e+00 1.611961e+00 2.465071e+01 9.902522e-03 3.251085e-02 -1.578276e-01 -2.193947e-01 -1.137390e-01 -1.480738e-01 7.951865e-02 7.530036e-02 -3.764569e-02 -2.916571e-01 -8.628040e-02 -4.423652e-02 -2.688885e-02 -2.088609e-01 -1.927052e-01 -1.169928e-01 -1.989652e-01 -3.159532e-01 8.434098e-03 1.410625e-01 -8.320703e-02 -4.075498e-01 -3.889200e-01 -2.025357e-01 -7.891930e-02 -1.456414e-01
<VARIANCE> 39
 2.360391e+00 1.809402e+00 3.024023e+00 4.221889e+00 4.795551e+00 6.475026e+00 5.489121e+00 6.567110e+00 7.658193e+00 6.528581e+00 7.425086e+00 6.991501e+00 5.697855e-01 3.876317e-01 2.348815e-01 5.016500e-01 6.782995e-01 8.662030e-01 1.132961e+00 1.075799e+00 9.796314e-01 8.670918e-01 1.348045e+00 1.044260e+00 1.180376e+00 3.806546e-02 3.238848e-02 3.533845e-02 9.200612e-02 1.152323e-01 1.188139e-01 1.364038e-01 1.287792e-01 1.582379e-01 1.427409e-01 1.475915e-01 1.567170e-01 1.514970e-01 6.776885e-03
<GCONST> 5.172158e+01
<MIXTURE> 27 2.885964e-02
<MEAN> 39
 1.817239e+00 4.267399e+00 -1.024631e+00 4.697020e+00 5.313505e+00 7.813266e+00 8.131848e+00 7.458718e+00 7.134411e+00 6.597420e+00 5.334097e+00 3.956810e+00 2.472968e+01 -5.771013e-03 -7.835118e-02 -2.680228e-01 -4.328544e-01 -1.906940e-01 -1.827707e-01 -2.316067e-01 -4.766262e-01 -5.574123e-01 -4.836759e-01 -5.177199e-01 -2.656738e-01 -1.587185e-01 -5.262602e-02 -2.126817e-02 1.477004e-01 6.073513e-02 -2.267568e-01 -2.516287e-01 -3.793535e-01 -5.928708e-01 -4.954137e-01 -3.794231e-01 -5.262074e-01 -3.921237e-01 -1.359613e-01
<VARIANCE> 39
 3.919047e+00 1.919500e+00 4.000283e+00 7.626782e+00 6.849129e+00 1.098309e+01 7.384361e+00 6.592046e+00 6.657334e+00 7.890285e+00 9.208807e+00 6.880849e+00 4.648334e-01 1.347014e-01 2.677104e-01 4.598210e-01 5.634508e-01 8.471556e-01 8.549583e-01 1.033665e+00 1.037012e+00 9.585986e-01 1.334850e+00 9.244969e-01 1.209403e+00 4.193677e-02 2.386324e-02 4.994701e-02 6.561591e-02 1.011181e-01 1.272590e-01 1.421976e-01 1.357549e-01 1.664404e-01 1.526698e-01 1.552232e-01 1.638952e-01 1.490558e-01 5.433762e-03
<GCONST> 5.270420e+01
<MIXTURE> 28 4.654077e-02
<MEAN> 39
 2.336234e+00 4.441860e+00 -1.129514e+00 4.213101e+00 3.546487e+00 4.164235e+00 3.157678e+00 1.395008e+00 1.636554e+00 -1.593199e-01 -1.773450e+00 -1.281750e+00 2.308574e+01 -1.000732e-01 -5.804779e-02 7.547148e-02 1.173950e-01 9.055363e-02 1.281887e-01 2.370535e-03 4.269883e-02 -2.354410e-02 -6.236803e-02 1.489629e-03 -4.194405e-02 -2.801856e-02 -1.544004e-01 -1.278263e-01 1.678637e-01 -5.138006e-02 -1.521360e-01 1.879087e-01 1.534903e-01 2.139833e-01 3.098287e-01 5.891833e-01 5.766856e-01 3.377037e-01 7.698905e-02
<VARIANCE> 39
 3.890778e+00 2.224319e+00 3.267416e+00 4.923460e+00 5.586092e+00 8.122236e+00 9.670691e+00 6.510990e+00 7.687949e+00 7.345788e+00 6.955546e+00 8.582540e+00 7.119634e-01 4.167525e-01 5.393708e-01 7.213782e-01 7.072020e-01 8.248454e-01 1.261471e+00 1.650344e+00 1.177964e+00 1.914273e+00 1.715415e+00 1.530559e+00 1.192909e+00 5.911995e-02 4.235896e-02 6.167519e-02 1.086054e-01 1.183732e-01 1.420589e-01 2.303918e-01 2.519782e-01 1.695615e-01 2.487541e-01 2.215968e-01 1.810502e-01 2.274817e-01 7.861299e-03
<GCONST> 6.204828e+01
<MIXTURE> 29 3.192969e-02
<MEAN> 39
 7.237181e-01 3.124469e+00 -1.490276e+00 3.669038e+00 2.715757e+00 5.582864e+00 5.662358e+00 3.551250e+00 4.242626e+00 3.817167e+00 2.740838e-01 -2.012085e-01 2.308104e+01 1.067010e-01 7.786577e-02 -4.334136e-03 -3.445382e-01 -3.625904e-01 -2.717753e-01 -4.764906e-01 -4.255278e-01 -9.961409e-02 7.099517e-02 3.644306e-01 3.655878e-01 -9.269165e-02 4.854162e-02 1.475955e-01 2.140807e-01 1.697145e-01 1.022190e-01 -3.193000e-02 -1.431241e-01 -6.010890e-02 -1.019161e-01 -5.484785e-03 2.747137e-01 2.571835e-01 8.799879e-02
<VARIANCE> 39
 3.126102e+00 2.701879e+00 3.792206e+00 4.340361e+00 3.104564e+00 4.402962e+00 5.654812e+00 5.757260e+00 4.894619e+00 5.283696e+00 7.649160e+00 7.338038e+00 9.014221e-01 7.801168e-01 5.300181e-01 7.155786e-01 7.494681e-01 9.094037e-01 1.249008e+00 1.575969e+00 1.112936e+00 1.257351e+00 1.332972e+00 1.378052e+00 1.202068e+00 7.206816e-02 4.901212e-02 7.725613e-02 6.675445e-02 1.196465e-01 1.015921e-01 1.179440e-01 1.180275e-01 1.179210e-01 1.288045e-01 1.812819e-01 1.417109e-01 1.367521e-01 7.947760e-03
<GCONST> 5.581990e+01
<MIXTURE> 30 3.002132e-02
<MEAN> 39
 -5.854160e-01 3.184714e+00 1.524706e+00 4.978340e+00 -3.798958e-01 5.023493e+00 7.652166e+00 2.847010e+00 2.048692e+00 4.248320e+00 -6.194981e-01 -1.003539e+00 2.346191e+01 -2.239909e-01 -1.906333e-01 1.185671e-01 5.652375e-03 -4.534074e-02 3.083989e-02 -2.275184e-01 -1.924830e-02 -8.740519e-02 -1.496791e-01 -1.573461e-01 -2.138978e-01 -8.043790e-02 3.399765e-01 1.713363e-01 -3.349048e-01 -1.354851e-01 5.275326e-01 -3.971057e-02 -4.467692e-01 8.378975e-02 2.949460e-01 -4.270054e-02 3.611935e-01 3.313616e-01 4.481494e-02
<VARIANCE> 39
 6.888289e+00 3.978885e+00 4.055288e+00 8.293705e+00 8.889032e+00 8.743775e+00 1.008430e+01 1.035084e+01 9.515543e+00 1.022672e+01 8.594468e+00 8.991346e+00 6.896784e-01 3.664117e-01 3.613087e-01 4.536321e-01 6.099628e-01 9.333423e-01 8.869107e-01 1.422770e+00 1.304330e+00 1.439473e+00 1.343654e+00 1.188785e+00 1.343302e+00 8.662279e-02 1.499473e-01 7.452192e-02 6.552732e-02 1.337089e-01 1.501963e-01 1.774815e-01 2.662796e-01 2.166950e-01 2.192324e-01 2.603496e-01 1.770761e-01 2.241351e-01 1.053568e-02
<GCONST> 6.551083e+01
<MIXTURE> 31 3.214650e-02
<MEAN> 39
 1.345404e+00 4.771073e+00 -2.364250e-01 5.163195e+00 4.843211e+00 5.242367e+00 5.277641e+00 4.852315e+00 3.049788e+00 1.435930e+00 1.750139e+00 1.025784e+00 2.397572e+01 1.643462e-01 8.349013e-02 -4.650984e-01 -1.559783e-01 2.101995e-01 -4.957016e-01 -2.208955e-01 -1.896122e-01 -3.698267e-01 -1.248051e-01 -1.698540e-02 -2.813435e-01 -1.373027e-01 -1.997919e-01 -1.839671e-01 2.476952e-01 -1.199595e-01 -3.856887e-01 1.621788e-01 -2.411683e-01 -3.646384e-01 1.972013e-01 2.174537e-01 4.446130e-02 -6.824082e-02 -4.641227e-02
<VARIANCE> 39
 1.766981e+00 1.833208e+00 2.246057e+00 4.524971e+00 6.165164e+00 5.222113e+00 4.630473e+00 4.905886e+00 5.783979e+00 5.824876e+00 7.590545e+00 5.169536e+00 5.175615e-01 3.298764e-01 3.576798e-01 7.851818e-01 6.534445e-01 1.305964e+00 1.087592e+00 1.163115e+00 9.295554e-01 1.434253e+00 1.130198e+00 1.096687e+00 8.634647e-01 4.390410e-02 2.244508e-02 3.646011e-02 1.360732e-01 1.190693e-01 1.852390e-01 1.724042e-01 1.200523e-01 1.009864e-01 1.547405e-01 1.830472e-01 1.933925e-01 1.339330e-01 5.972702e-03
<GCONST> 5.179630e+01
<MIXTURE> 32 3.094642e-02
<MEAN> 39
 4.128809e+00 4.142693e+00 -2.611963e+00 9.391779e-01 7.195675e-01 3.557622e+00 4.148395e+00 2.707528e+00 3.202692e+00 2.975152e+00 3.991803e-01 4.776226e-01 2.362931e+01 -2.354892e-01 -2.663287e-01 -1.248987e-01 -1.842930e-01 -4.211962e-01 -3.185554e-01 -4.358049e-01 -7.242506e-01 -7.993119e-01 -8.238432e-01 -6.608353e-01 -6.708394e-01 -3.373633e-01 -1.449722e-01 -9.437172e-02 5.860963e-02 9.699365e-02 1.398282e-01 1.393321e-01 -6.599703e-02 -9.731676e-02 -9.529530e-02 -1.665020e-02 1.657470e-01 1.087943e-01 -4.235847e-02
<VARIANCE> 39
 3.103082e+00 4.139714e+00 7.258587e+00 8.057881e+00 8.107876e+00 8.626126e+00 7.623112e+00 1.022093e+01 9.582368e+00 1.165349e+01 6.256606e+00 9.393949e+00 8.066048e-01 3.929758e-01 3.271633e-01 6.568980e-01 8.322299e-01 1.130684e+00 1.105558e+00 1.032732e+00 1.139355e+00 1.246718e+00 1.217811e+00 1.137104e+00 1.198295e+00 5.554575e-02 5.147788e-02 5.501899e-02 1.136059e-01 1.362766e-01 1.561416e-01 1.802170e-01 1.351932e-01 2.074239e-01 2.101966e-01 2.301507e-01 1.185727e-01 2.032597e-01 7.588048e-03
<GCONST> 6.222888e+01
<MIXTURE> 33 1.857684e-02
<MEAN> 39
 -1.626729e+00 3.874741e+00 -2.519390e+00 -3.709872e+00 -4.500484e+00 -4.005430e+00 -3.370904e+00 -1.917397e+00 -1.294712e+00 -1.235223e+00 -2.409271e+00 -2.177172e+00 2.086962e+01 -6.136495e-01 4.005474e-01 1.224672e-01 1.014753e+00 6.770518e-01 3.032520e-01 6.066139e-01 -1.177097e-01 -9.118603e-03 -3.465430e-01 -8.670629e-02 -9.696230e-02 -1.344267e-01 -7.377368e-02 -2.406348e-02 -1.901448e-01 -1.145845e-01 1.655769e-01 2.830988e-01 4.716051e-02 -8.095513e-03 1.223609e-01 8.377709e-02 4.191444e-02 4.764381e-02 8.612107e-03
<VARIANCE> 39
 3.029199e+01 2.909261e+01 4.312133e+01 4.409803e+01 6.517694e+01 5.351276e+01 4.940791e+01 4.500657e+01 4.672557e+01 4.737222e+01 4.565167e+01 3.041242e+01 3.838058e+00 2.035970e+00 2.256840e+00 3.214645e+00 2.968077e+00 4.413024e+00 3.102849e+00 3.424459e+00 3.309986e+00 3.214367e+00 2.976377e+00 2.842751e+00 2.367911e+00 1.188963e-01 2.725877e-01 2.998852e-01 3.736525e-01 4.238986e-01 5.550033e-01 5.133161e-01 5.272530e-01 5.444806e-01 4.860680e-01 4.776224e-01 4.497580e-01 4.116032e-01 1.364338e-02
<GCONST> 1.147250e+02
<MIXTURE> 34 2.161439e-02
<MEAN> 39
 1.954618e+00 3.746114e+00 -1.983191e+00 3.249651e+00 2.546154e+00 2.807076e+00 1.711188e+00 1.508888e+00 4.943244e+00 6.171445e+00 3.522108e+00 1.699237e+00 2.333168e+01 -3.005411e-01 -4.801562e-01 -3.225893e-01 -3.361089e-01 -3.921291e-01 -5.135330e-01 -6.277336e-01 -9.150315e-01 -9.155195e-01 -3.447454e-01 -1.609084e-01 -1.690624e-01 -4.328606e-01 4.132583e-03 4.898533e-02 2.031482e-01 1.370726e-01 6.337972e-02 2.696351e-01 3.413362e-01 2.112035e-01 -2.406574e-01 -5.264269e-01 -3.516646e-01 -1.205581e-01 2.378036e-02
<VARIANCE> 39
 2.788262e+00 2.471036e+00 3.804912e+00 4.872175e+00 6.358369e+00 6.207046e+00 8.235129e+00 7.260575e+00 6.715836e+00 1.137446e+01 7.542439e+00 7.586479e+00 7.320846e-01 2.388211e-01 3.699121e-01 5.893252e-01 5.272911e-01 9.269823e-01 7.487903e-01 1.052556e+00 8.920503e-01 1.411330e+00 1.630931e+00 1.417900e+00 9.682271e-01 3.617538e-02 2.544126e-02 4.798028e-02 8.459143e-02 1.009072e-01 1.719017e-01 1.026029e-01 1.681694e-01 1.354447e-01 1.148452e-01 2.679882e-01 1.732302e-01 1.401129e-01 6.828565e-03
<GCONST> 5.469450e+01
<MIXTURE> 35 2.514257e-02
<MEAN> 39
 3.090848e+00 4.233284e+00 -1.390835e+00 3.221414e+00 2.725919e+00 4.278759e+00 2.679285e+00 1.002427e+00 2.990731e+00 5.578061e+00 5.446109e+00 4.335090e+00 2.397284e+01 1.933341e-01 1.482608e-01 1.231259e-01 2.934767e-01 4.339769e-01 2.163804e-01 2.688428e-02 -2.302910e-03 -9.200832e-03 -2.154100e-01 1.865372e-02 9.698504e-02 1.328475e-01 -1.282675e-01 -1.202443e-01 3.401294e-02 -1.371750e-01 -1.779324e-01 6.878911e-02 1.913214e-01 1.843469e-01 2.368495e-02 -4.605050e-01 -6.798432e-01 -5.853571e-01 -9.178875e-02
<VARIANCE> 39
 3.694393e+00 2.633687e+00 5.098475e+00 7.423656e+00 7.765179e+00 9.834624e+00 8.957677e+00 1.025315e+01 6.979246e+00 6.682612e+00 6.987271e+00 6.300617e+00 7.510232e-01 3.532257e-01 3.255243e-01 4.924796e-01 5.120804e-01 9.012702e-01 9.019158e-01 1.261666e+00 1.175550e+00 1.528022e+00 1.052333e+00 1.483105e+00 1.414619e+00 4.865656e-02 4.811636e-02 7.920735e-02 1.230035e-01 1.124468e-01 1.458106e-01 2.008109e-01 1.960925e-01 1.592963e-01 1.616072e-01 2.074343e-01 1.486389e-01 1.832277e-01 8.011189e-03
<GCONST> 5.994867e+01
<MIXTURE> 36 2.604370e-02
<MEAN> 39
 -2.465579e+00 5.151582e+00 -2.666585e+00 2.474793e-01 4.127058e+00 4.056762e+00 4.361128e+00 3.403999e+00 3.436117e+00 3.506062e+00 2.224877e+00 2.989570e-01 2.310725e+01 -2.852038e-01 -1.302245e-01 3.529470e-02 1.129223e-01 1.740612e-01 3.427022e-02 1.628247e-02 -1.468719e-01 -4.904369e-01 -2.481214e-01 -1.672183e-01 -1.285473e-01 -4.754594e-02 1.767699e-01 -9.688612e-02 -6.423178e-02 1.606398e-03 -1.403131e-01 -1.219571e-01 -2.360715e-01 -2.290111e-01 -3.715792e-02 -2.996928e-01 -3.223135e-01 -8.622959e-02 -5.200072e-02
<VARIANCE> 39
 2.149818e+01 2.045671e+01 2.305536e+01 2.514107e+01 2.505392e+01 2.555453e+01 2.493770e+01 2.555480e+01 3.538779e+01 2.638879e+01 2.325839e+01 1.823793e+01 1.445768e+00 1.037360e+00 1.153774e+00 1.263009e+00 1.423673e+00 1.745261e+00 1.708882e+00 1.957260e+00 2.147478e+00 2.395793e+00 2.062311e+00 1.821237e+00 1.511919e+00 5.717637e-02 2.562037e-01 2.446440e-01 2.702814e-01 3.297791e-01 3.332626e-01 3.556254e-01 4.292928e-01 4.061141e-01 5.298353e-01 4.069438e-01 3.633013e-01 2.997581e-01 9.920332e-03
<GCONST> 9.591540e+01
~h "eight"
<BEGINHMM>
<NUMSTATES> 18
<STATE> 2
<SID> 51
<NUMMIXES> 20
<MIXTURE> 1 4.138641e-02
<MEAN> 39
 1.125660e+00 3.831323e+00 -5.949321e-01 4.550371e+00 4.393575e+00 4.935747e+00 4.200889e+00 2.069550e+00 2.129442e+00 7.754410e-01 -3.317738e-01 -4.820682e-01 2.304363e+01 1.614305e-02 -1.496182e-02 -4.097024e-02 -3.790055e-02 5.755636e-02 7.696828e-02 5.878694e-02 6.265847e-02 9.925433e-02 2.999508e-02 3.917404e-02 4.265457e-02 3.541911e-02 3.680149e-02 1.327054e-02 -2.526464e-02 -2.541522e-02 4.472264e-02 6.393427e-02 1.409837e-01 2.458121e-01 3.082604e-01 3.730140e-01 3.263130e-01 1.970600e-01 9.693136e-02
<VARIANCE> 39
 2.413266e+00 2.060907e+00 3.244034e+00 4.430296e+00 5.753271e+00 7.840294e+00 7.909247e+00 8.420583e+00 7.489160e+00 6.971960e+00 7.501882e+00 8.137686e+00 6.658372e-01 1.078872e-01 1.958758e-01 3.938786e-01 4.715108e-01 6.727911e-01 7.810147e-01 8.953453e-01 1.010826e+00 9.894123e-01 1.003988e+00 9.815561e-01 9.092808e-01 3.442236e-02 2.149329e-02 3.243792e-02 7.498823e-02 8.048388e-02 1.134341e-01 1.642965e-01 1.752769e-01 1.808994e-01 1.539250e-01 1.529817e-01 1.829455e-01 2.224649e-01 7.879138e-03
<GCONST> 5.023531e+01
<MIXTURE> 2 5.988669e-02
<MEAN> 39
 -7.545992e+00 5.548484e+00 -5.463582e+00 8.320614e-01 7.275826e+00 2.333042e+00 2.688278e+00 1.053432e+00 3.252691e+00 -3.991198e+00 -4.855225e+00 -4.355346e+00 2.076767e+01 -1.737378e-01 3.193942e-01 2.529087e-01 7.781208e-01 6.641238e-01 5.871493e-01 3.564732e-01 2.085317e-01 9.719303e-02 -3.895722e-02 -1.847212e-01 5.697541e-03 1.483057e-01 1.829275e-01 -3.791084e-01 3.628713e-02 -3.111369e-01 -2.328693e-01 -7.945062e-02 -6.425827e-02 1.086505e-01 1.027044e-01 3.062906e-01 3.371802e-01 3.658947e-01 -4.090572e-02
<VARIANCE> 39
 9.891978e+00 1.501362e+01 2.227797e+01 2.124311e+01 1.894929e+01 2.565932e+01 2.563787e+01 2.782928e+01 2.720064e+01 2.415252e+01 1.978524e+01 1.823586e+01 4.107256e+00 8.090268e-01 1.334944e+00 1.362817e+00 1.551898e+00 1.906486e+00 1.918418e+00 2.066931e+00 2.108464e+00 2.375801e+00 2.375187e+00 2.075214e+00 1.873269e+00 6.033142e-02 1.310352e-01 1.691668e-01 2.192227e-01 2.281646e-01 2.671683e-01 3.368105e-01 3.807245e-01 4.380689e-01 4.116022e-01 4.144121e-01 3.702483e-01 3.226001e-01 9.098468e-03
<GCONST> 9.366126e+01
<MIXTURE> 3 3.782037e-02
<MEAN> 39
 2.337997e+00 2.344032e+00 -3.460763e+00 -3.445338e-01 2.754849e+00 4.281709e+00 5.364366e+00 5.876280e+00 5.020185e+00 3.513658e+00 9.163138e-01 -6.105539e-01 2.301327e+01 -1.456479e-01 -7.906945e-02 1.481101e-01 8.395718e-02 1.949576e-01 -1.047504e-01 -2.041298e-01 -6.814158e-02 7.272946e-02 -2.862915e-02 9.294582e-02 3.470391e-02 5.197753e-03 2.888443e-02 4.507188e-02 1.032085e-01 2.554384e-01 1.917114e-01 1.591225e-01 -1.206343e-01 -4.458816e-01 -2.853829e-01 -7.902018e-02 1.370808e-01 2.491570e-01 5.282273e-02
<VARIANCE> 39
 5.149386e+00 5.111556e+00 7.560699e+00 1.037893e+01 9.337154e+00 1.137505e+01 1.202693e+01 8.633245e+00 9.742570e+00 1.259542e+01 1.308015e+01 1.338750e+01 9.917809e-01 2.171954e-01 3.488564e-01 5.968292e-01 7.528102e-01 9.640943e-01 9.941568e-01 1.180237e+00 1.327548e+00 1.361498e+00 1.276222e+00 1.384565e+00 1.412707e+00 4.524070e-02 4.114495e-02 7.252977e-02 1.201419e-01 1.376079e-01 1.504552e-01 1.799833e-01 2.118692e-01 1.680968e-01 2.226546e-01 2.551119e-01 2.769403e-01 2.610736e-01 8.342093e-03
<GCONST> 6.659731e+01
<MIXTURE> 4 5.458159e-02
<MEAN> 39
 -6.961748e+00 -8.828391e-01 -8.047041e+00 -4.676254e+00 3.747362e+00 1.361761e+00 1.438735e-01 1.206836e+00 3.762332e+00 -3.724472e+00 -3.449214e+00 -2.596281e+00 1.982470e+01 -1.798412e-01 4.985779e-01 -1.704014e-01 4.204077e-01 2.926849e-01 2.042432e-01 7.798177e-03 -2.110850e-01 -1.431880e-01 -4.269812e-01 -5.539959e-01 -6.346100e-01 1.076297e-01 -2.251338e-03 2.886793e-01 2.594754e-01 4.720996e-01 3.903963e-01 2.180276e-01 2.203707e-01 1.071910e-01 7.755743e-02 1.324984e-01 4.723890e-02 3.573064e-02 9.375407e-02
<VARIANCE> 39
 6.335974e+00 1.430017e+01 2.212005e+01 2.523403e+01 2.409849e+01 3.447443e+01 3.389660e+01 3.112659e+01 2.792220e+01 2.444724e+01 2.621876e+01 2.347518e+01 4.057134e+00 5.287148e-01 1.449073e+00 1.165172e+00 1.864238e+00 2.046633e+00 1.929268e+00 2.705533e+00 2.799029e+00 2.842257e+00 2.686277e+00 2.230117e+00 1.914137e+00 5.934601e-02 7.854142e-02 1.429692e-01 1.981132e-01 2.113214e-01 2.519595e-01 3.330829e-01 3.834698e-01 3.846677e-01 3.463944e-01 3.822387e-01 3.984825e-01 2.975230e-01 8.328926e-03
<GCONST> 9.411141e+01
<MIXTURE> 5 5.229680e-02
<MEAN> 39
 -6.281231e+00 2.900212e+00 -6.665617e+00 -7.211906e-01 6.588490e+00 2.753121e+00 1.374992e+00 -6.263786e+00 -7.264529e-01 -4.697265e+00 5.308867e-01 -2.012048e+00 1.982804e+01 3.774206e-02 -4.516235e-02 1.081118e-01 6.220836e-02 9.081955e-02 7.073550e-02 1.761236e-01 3.167672e-02 -6.126825e-03 1.664414e-02 4.485558e-02 -3.813295e-02 -1.362272e-02 -1.818069e-02 -3.963020e-02 -5.700368e-02 -1.074270e-01 -1.337241e-01 -5.051095e-02 1.752198e-01 4.852369e-01 3.480866e-01 1.191229e-01 -5.754811e-02 7.836717e-03 1.678586e-02
<VARIANCE> 39
 5.114968e+00 2.319542e+01 2.246726e+01 1.820490e+01 2.733196e+01 2.557395e+01 5.210963e+01 4.612538e+01 2.189168e+01 2.969277e+01 7.952569e+01 2.255408e+01 4.651079e+00 1.762175e-01 3.698151e-01 5.099584e-01 8.151731e-01 1.049802e+00 1.174964e+00 1.657562e+00 1.655649e+00 1.559479e+00 1.517409e+00 1.538426e+00 1.335817e+00 2.240339e-02 3.458267e-02 6.626579e-02 1.133337e-01 1.564546e-01 1.930890e-01 2.103012e-01 3.359979e-01 2.745400e-01 2.626133e-01 2.994748e-01 3.677282e-01 2.661861e-01 4.944244e-03
<GCONST> 8.182714e+01
<MIXTURE> 6 3.006268e-02
<MEAN> 39
 3.111159e+00 1.768439e+00 -4.798094e+00 -9.805005e-01 1.294090e+00 3.230846e+00 2.018449e+00 -5.033410e-01 5.700997e-01 1.301061e+00 4.905033e-01 -1.417630e-01 2.195484e+01 -3.027002e-02 1.181394e-01 1.248438e-01 2.729065e-01 3.843045e-01 2.347169e-01 2.330675e-01 2.252511e-01 2.998698e-01 2.646657e-01 3.164044e-01 1.534875e-01 1.230105e-01 5.476948e-02 1.209152e-01 2.066909e-01 2.558907e-01 3.091490e-01 2.839699e-01 3.686852e-01 4.211879e-01 3.456213e-01 2.822433e-01 1.292043e-01 1.484478e-01 1.891552e-01
<VARIANCE> 39
 3.580295e+00 3.178940e+00 6.494385e+00 8.727466e+00 8.241840e+00 9.402936e+00 8.972223e+00 9.295943e+00 8.838182e+00 8.684862e+00 8.890467e+00 1.029901e+01 1.263458e+00 1.718298e-01 2.631678e-01 4.429683e-01 6.547317e-01 8.229058e-01 7.712448e-01 1.021630e+00 1.271570e+00 1.237919e+00 1.066689e+00 9.376240e-01 1.118723e+00 4.279985e-02 2.800544e-02 4.799110e-02 8.334429e-02 1.226551e-01 1.486096e-01 2.023818e-01 1.945503e-01 2.092300e-01 1.934054e-01 1.959647e-01 2.150514e-01 2.031979e-01 8.302636e-03
<GCONST> 5.956454e+01
<MIXTURE> 7 5.264310e-02
<MEAN> 39
 -7.113470e+00 1.066751e+00 -6.574389e+00 -2.049496e+00 2.463614e-01 4.004835e-01 -1.032115e+00 -1.035096e+00 1.891840e+00 1.430235e+00 2.256846e+00 1.170050e+00 1.766780e+01 -4.939580e-01 -6.858371e-01 -9.289977e-02 -2.421981e-01 5.793235e-01 -6.775247e-03 -2.391958e-01 1.938540e-01 1.990915e-01 -1.846813e-01 -1.130541e-02 -2.251367e-01 7.427558e-02 -3.134043e-03 -2.276140e-01 -3.019720e-02 -5.254702e-02 2.539881e-01 3.971664e-02 1.050907e-01 7.115518e-02 -3.542462e-02 -2.281999e-01 -2.545182e-01 -1.556489e-01 6.178439e-02
<VARIANCE> 39
 1.873168e+01 3.469258e+01 2.425458e+01 2.458986e+01 2.573476e+01 3.159615e+01 2.476308e+01 3.217273e+01 3.279538e+01 1.953467e+01 1.930269e+01 2.125729e+01 8.359975e+00 1.749645e+00 2.286185e+00 1.708194e+00 1.912801e+00 2.527895e+00 2.117388e+00 2.505950e+00 2.792769e+00 2.205258e+00 2.257491e+00 2.342412e+00 1.963614e+00 7.019335e-02 3.396997e-01 3.049801e-01 2.890173e-01 3.022599e-01 3.790486e-01 3.909880e-01 4.563471e-01 4.474677e-01 4.603806e-01 3.795063e-01 4.105797e-01 3.353493e-01 1.287745e-02
<GCONST> 1.029148e+02
<MIXTURE> 8 4.612261e-02
<MEAN> 39
 -1.496017e-01 2.424066e+00 -1.955535e+00 8.532661e-02 9.119925e+00 4.230709e+00 2.904108e+00 4.613984e+00 1.852174e+00 1.513740e+00 1.575665e+00 -1.190297e-01 2.302841e+01 -6.466760e-01 -2.128141e-01 3.457919e-01 2.231000e-01 9.598693e-01 -1.018941e-01 -5.270563e-02 3.945865e-01 4.262902e-01 1.433369e-01 5.035107e-01 5.183073e-02 1.008639e-01 9.132355e-02 -3.181879e-02 -9.611730e-02 -4.045454e-02 -5.391091e-01 -5.637038e-02 2.552699e-03 -2.050647e-01 9.517418e-02 1.334691e-01 -7.953592e-02 3.717560e-02 -1.214527e-02
<VARIANCE> 39
 5.322492e+00 8.621053e+00 1.139995e+01 1.988091e+01 1.154085e+01 2.113793e+01 1.928639e+01 1.785528e+01 1.778147e+01 1.772795e+01 1.915638e+01 1.826463e+01 1.149853e+00 4.025757e-01 4.593565e-01 7.010356e-01 1.051522e+00 1.502573e+00 1.373760e+00 1.374776e+00 1.665555e+00 1.685374e+00 1.552293e+00 1.617673e+00 1.584827e+00 4.143255e-02 4.679838e-02 7.140104e-02 1.219479e-01 1.967105e-01 1.755528e-01 2.742575e-01 2.984351e-01 2.698461e-01 3.178949e-01 3.097797e-01 3.512703e-01 2.795950e-01 9.282076e-03
<GCONST> 7.799350e+01
<MIXTURE> 9 8.263262e-02
<MEAN> 39
 -6.295949e+00 6.312778e-01 -5.179624e+00 -2.233930e+00 6.935325e+00 1.401265e+00 4.034186e+00 4.956666e+00 5.669014e+00 -2.277138e+00 -4.527944e+00 -2.550566e+00 1.983910e+01 1.405566e-01 -1.970989e-02 1.278054e-01 4.100217e-02 1.394950e-01 1.652739e-01 2.074886e-01 1.548561e-01 5.215071e-02 1.520591e-01 2.300909e-01 1.883048e-01 2.634645e-02 -3.809712e-02 4.509202e-02 -1.306498e-02 1.682621e-02 -2.469636e-02 1.659643e-02 -7.694712e-02 -1.631918e-01 -1.513030e-01 -3.446523e-02 1.338049e-01 4.873342e-02 3.914422e-03
<VARIANCE> 39
 4.114213e+00 1.162522e+01 1.777345e+01 1.846399e+01 2.011027e+01 1.757508e+01 1.763066e+01 2.048988e+01 1.819559e+01 1.941274e+01 2.302498e+01 1.449502e+01 3.614364e+00 1.289544e-01 2.937745e-01 4.127699e-01 6.318504e-01 8.524191e-01 9.071848e-01 1.017248e+00 1.358549e+00 1.339616e+00 1.213534e+00 1.423579e+00 1.138061e+00 1.250656e-02 2.411583e-02 5.268890e-02 7.755460e-02 1.011550e-01 1.470035e-01 1.530368e-01 1.664770e-01 2.232214e-01 2.103366e-01 2.134980e-01 2.467156e-01 1.839225e-01 2.422595e-03
<GCONST> 6.727236e+01
<MIXTURE> 10 4.280107e-02
<MEAN> 39
 4.511903e+00 2.414306e+00 -5.093908e+00 -1.074896e+00 2.708794e+00 5.654976e+00 3.468622e+00 1.074126e-01 7.697582e-01 2.238202e+00 1.693968e+00 1.402906e+00 2.278178e+01 -2.385191e-01 -1.842426e-01 -6.601584e-03 -1.976269e-01 1.967984e-01 -1.755326e-01 -2.045822e-01 -1.760783e-01 -1.814311e-01 -2.960255e-01 -1.157114e-01 -1.825089e-01 -1.133504e-01 -1.146779e-01 -6.047130e-02 1.231273e-01 1.054225e-01 6.904417e-02 -6.600076e-02 1.360572e-01 3.041842e-01 2.809434e-01 9.188490e-02 -5.725266e-02 -9.606712e-02 3.379107e-02
<VARIANCE> 39
 1.633769e+00 2.508094e+00 4.427338e+00 5.372013e+00 8.368659e+00 8.398954e+00 9.899149e+00 8.594079e+00 9.386587e+00 9.469228e+00 9.495731e+00 1.101994e+01 1.218548e+00 2.283809e-01 3.471659e-01 5.175647e-01 6.643806e-01 9.176626e-01 1.054511e+00 1.110110e+00 1.332214e+00 1.437407e+00 1.207193e+00 1.239778e+00 1.281290e+00 5.137519e-02 4.605020e-02 6.676556e-02 9.611020e-02 1.136244e-01 1.708818e-01 1.859414e-01 2.080604e-01 1.942770e-01 2.245013e-01 2.162324e-01 2.067196e-01 2.426548e-01 6.986936e-03
<GCONST> 6.114916e+01
<MIXTURE> 11 2.753814e-02
<MEAN> 39
 -6.607574e+00 -1.395460e+00 -8.960443e+00 6.018939e+00 9.383491e+00 -1.283708e+00 -1.343542e+00 9.272618e+00 6.583237e+00 -3.601955e+00 1.437930e+00 4.973419e+00 2.141780e+01 1.486532e-01 -2.474721e-01 1.721869e-01 -6.962436e-02 4.359437e-02 -1.472362e-03 -1.021314e-02 1.311635e-01 -1.175744e-01 -5.720271e-02 1.084690e-01 -1.483916e-03 -2.256404e-02 -2.876228e-02 9.073082e-02 4.310661e-02 -1.831913e-01 -1.085568e-01 1.183194e-01 1.174804e-01 -2.181859e-01 -6.594788e-02 8.372657e-02 -1.162341e-01 -2.781878e-01 1.310520e-04
<VARIANCE> 39
 7.650724e+00 1.344208e+01 1.598152e+01 4.863130e+01 1.359114e+01 6.006141e+01 2.376618e+01 3.671104e+01 4.011172e+01 2.198628e+01 4.072602e+01 3.060738e+01 2.852843e+00 2.839066e-01 5.878532e-01 6.401768e-01 9.627940e-01 8.409309e-01 1.598045e+00 1.317174e+00 1.492045e+00 1.332230e+00 1.161571e+00 1.219532e+00 1.401334e+00 1.447614e-02 4.098988e-02 1.112913e-01 1.039694e-01 1.580200e-01 1.186528e-01 3.659894e-01 2.272390e-01 3.259946e-01 2.654159e-01 2.275699e-01 2.648046e-01 3.165628e-01 2.853346e-03
<GCONST> 8.045180e+01
<MIXTURE> 12 6.972495e-02
<MEAN> 39
 -6.665045e+00 2.384495e+00 -4.800122e+00 -5.069242e-01 6.680099e+00 3.789772e+00 4.532056e+00 3.597216e+00 5.211844e+00 -3.134102e-01 -1.178243e+00 -8.853943e-01 2.002738e+01 -5.749570e-02 -2.422290e-01 -1.378641e-01 -3.084174e-01 -3.420373e-01 -3.153810e-01 -2.611215e-01 -2.361547e-01 -2.284341e-01 -9.756986e-02 -4.798834e-02 -5.900437e-03 -1.165094e-01 -5.054992e-02 -9.505930e-02 -1.315609e-01 -1.336917e-01 -1.269172e-01 -2.410813e-01 -2.623767e-01 -1.694991e-01 -1.406865e-01 -2.059613e-01 -1.609183e-01 -1.165135e-01 -5.123831e-02
<VARIANCE> 39
 9.971995e+00 1.599969e+01 1.906624e+01 1.867265e+01 2.221843e+01 2.113976e+01 2.164207e+01 2.233073e+01 2.137729e+01 1.745790e+01 2.194066e+01 1.808975e+01 3.831907e+00 2.818572e-01 4.931206e-01 6.645411e-01 8.200083e-01 1.139871e+00 1.154444e+00 1.263998e+00 1.496328e+00 1.378111e+00 1.584215e+00 1.401914e+00 1.220986e+00 2.185778e-02 5.216416e-02 8.513291e-02 1.102286e-01 1.438603e-01 2.155944e-01 2.086336e-01 2.204401e-01 2.362611e-01 2.403939e-01 2.346786e-01 2.674165e-01 2.100164e-01 4.606890e-03
<GCONST> 7.728065e+01
<MIXTURE> 13 5.433515e-02
<MEAN> 39
 -4.664231e+00 -1.843615e+00 -5.809033e+00 -1.437909e+00 6.231477e+00 1.937925e+00 8.896141e-01 6.696699e-01 -4.130401e-01 -5.241646e+00 -4.912397e+00 -2.318832e+00 2.023689e+01 -9.044357e-01 -1.057380e+00 -5.654558e-01 6.893790e-01 1.725451e+00 4.691526e-01 -2.449893e-01 2.139730e-02 8.170763e-02 -3.268786e-01 5.163292e-01 3.061993e-01 -1.932664e-01 1.339442e-02 1.763978e-01 1.294235e-02 -2.821137e-01 -4.890982e-01 -2.470150e-01 -2.211678e-01 -1.808144e-01 1.521147e-01 4.140097e-01 2.719766e-01 -5.788490e-02 4.456151e-02
<VARIANCE> 39
 1.304843e+01 2.304724e+01 2.428355e+01 2.929266e+01 3.845584e+01 5.082557e+01 5.156596e+01 4.486709e+01 4.904785e+01 4.306338e+01 3.402165e+01 3.469515e+01 2.517578e+00 8.054677e-01 1.327928e+00 1.630912e+00 2.033915e+00 3.177606e+00 2.434333e+00 2.704663e+00 3.026458e+00 2.828895e+00 2.646028e+00 2.570935e+00 2.055854e+00 5.333347e-02 9.522106e-02 1.889960e-01 2.116673e-01 2.676485e-01 3.528722e-01 4.086002e-01 5.055394e-01 4.950162e-01 4.992217e-01 4.449111e-01 4.779404e-01 3.908959e-01 6.693081e-03
<GCONST> 1.026894e+02
<MIXTURE> 14 8.009157e-02
<MEAN> 39
 -8.494289e+00 -6.349918e-01 -6.839998e+00 -5.100268e+00 1.805737e+00 -1.902079e+00 8.295943e-01 2.728410e+00 4.239528e+00 6.213422e-02 1.113314e-01 7.644259e-01 1.918710e+01 7.238405e-03 -1.868989e-01 -7.648087e-02 -8.289126e-02 -1.103151e-01 -4.298273e-02 -1.456088e-02 -8.814196e-02 -9.158440e-02 8.599458e-02 9.904752e-02 1.127474e-01 -3.289462e-02 3.481656e-02 6.501032e-02 1.961444e-02 1.891329e-01 2.642437e-01 2.514347e-01 9.932460e-02 -3.449138e-02 -9.369285e-02 -1.756888e-01 -2.287847e-01 -1.640480e-01 3.521627e-02
<VARIANCE> 39
 9.484282e+00 1.431920e+01 1.683096e+01 2.015024e+01 2.365096e+01 1.628958e+01 2.621082e+01 3.258442e+01 2.816018e+01 2.022351e+01 2.453115e+01 2.733145e+01 4.387611e+00 2.049320e-01 5.001179e-01 6.473571e-01 8.520449e-01 1.118518e+00 1.304781e+00 1.458372e+00 1.567920e+00 1.549801e+00 1.617505e+00 1.778185e+00 1.443049e+00 2.004964e-02 3.868477e-02 7.890924e-02 1.176361e-01 1.523319e-01 1.806124e-01 2.274495e-01 2.732986e-01 3.313802e-01 3.453444e-01 3.564687e-01 3.182538e-01 3.387871e-01 4.216569e-03
<GCONST> 8.053603e+01
<MIXTURE> 15 5.843059e-02
<MEAN> 39
 -7.172397e+00 -3.062761e+00 -8.297405e+00 -3.949413e+00 6.879840e+00 3.374131e+00 6.328796e+00 5.008596e+00 -3.198839e-01 -6.772515e+00 -4.031485e+00 -1.283843e-01 2.055528e+01 1.525006e-02 -4.080898e-02 -5.786745e-02 -1.363978e-01 -1.305314e-01 -2.180554e-01 -1.057335e-01 5.283157e-02 2.437043e-02 -1.854730e-01 -1.516521e-01 -1.602089e-01 -3.695707e-02 -1.607700e-02 1.340153e-01 5.745683e-02 1.171797e-01 -5.876516e-02 -2.446748e-01 -3.416424e-01 -1.736309e-01 2.738345e-01 3.123773e-01 7.051939e-02 -9.808182e-02 -2.031319e-03
<VARIANCE> 39
 3.962085e+00 1.005304e+01 1.500075e+01 2.273197e+01 2.803171e+01 1.712659e+01 2.333192e+01 2.000760e+01 2.181439e+01 1.746082e+01 2.378221e+01 1.511491e+01 4.070998e+00 1.668124e-01 4.637527e-01 5.791796e-01 1.044945e+00 1.257225e+00 1.345741e+00 1.539837e+00 1.578553e+00 1.564089e+00 1.517629e+00 1.521825e+00 1.257565e+00 1.714086e-02 2.958365e-02 7.407548e-02 8.780232e-02 1.680249e-01 2.277094e-01 2.337878e-01 2.294483e-01 2.412610e-01 2.328024e-01 2.267299e-01 2.950952e-01 2.392426e-01 3.431212e-03
<GCONST> 7.511088e+01
<MIXTURE> 16 4.184228e-02
<MEAN> 39
 1.180696e+00 4.164457e+00 3.383502e-02 4.039237e+00 4.428025e+00 2.864150e+00 1.949924e+00 2.565794e+00 4.279355e+00 3.580663e+00 1.644794e+00 1.867892e-01 2.345999e+01 -1.872584e-01 -2.522054e-01 -8.145962e-02 -2.340935e-02 9.781908e-02 -2.217395e-01 -3.910300e-01 -3.411486e-01 -2.435389e-01 -2.731751e-01 -1.347703e-01 -1.006532e-01 -1.202663e-01 4.863699e-02 -1.355297e-01 -2.220505e-01 -6.280516e-02 8.440045e-02 3.584161e-01 4.349079e-01 1.439612e-01 -7.600822e-02 -1.021066e-01 -3.956236e-02 9.730463e-02 3.061150e-02
<VARIANCE> 39
 3.241471e+00 3.528466e+00 4.378298e+00 7.129488e+00 8.735645e+00 8.932839e+00 9.253897e+00 8.482409e+00 9.620346e+00 8.962049e+00 9.430591e+00 1.099840e+01 6.786101e-01 1.598327e-01 3.351186e-01 4.201583e-01 6.001652e-01 8.290243e-01 9.750349e-01 1.101737e+00 1.052581e+00 1.291252e+00 1.028470e+00 1.068339e+00 1.144063e+00 4.249854e-02 2.509306e-02 5.822964e-02 8.989204e-02 1.139341e-01 1.394446e-01 1.569142e-01 1.714721e-01 1.856902e-01 2.137493e-01 1.898136e-01 1.948513e-01 2.133952e-01 7.172096e-03
<GCONST> 5.824160e+01
<MIXTURE> 17 3.793873e-02
<MEAN> 39
 -1.383774e+00 1.392882e+00 -1.339231e+00 1.932882e+00 7.451898e+00 3.807008e+00 4.211397e+00 5.732409e+00 3.392954e+00 1.694511e+00 2.379464e+00 1.977667e+00 2.323628e+01 -5.664066e-01 -6.495841e-01 -1.636830e-01 1.317019e-01 5.886266e-01 -5.113212e-01 -7.246240e-01 -4.393750e-01 -2.547890e-01 -7.315400e-01 -4.309708e-01 -3.035322e-01 -1.993531e-01 1.254456e-01 5.752396e-02 -1.848660e-01 -1.513757e-01 -3.420030e-01 3.662002e-02 -8.891480e-02 -4.253053e-01 -1.225273e-01 -8.116597e-02 -2.890939e-01 -2.089843e-01 -5.683640e-02
<VARIANCE> 39
 9.175358e+00 1.459070e+01 1.598186e+01 1.885469e+01 1.662466e+01 2.450210e+01 2.189753e+01 2.222209e+01 2.389566e+01 2.117870e+01 1.754846e+01 1.917837e+01 1.285667e+00 5.282823e-01 6.263750e-01 9.212647e-01 1.061213e+00 1.699948e+00 1.600360e+00 1.683516e+00 1.984460e+00 1.794031e+00 1.707521e+00 1.553027e+00 1.553698e+00 5.359240e-02 6.332269e-02 1.072527e-01 1.876511e-01 1.976753e-01 2.612794e-01 3.185906e-01 3.084482e-01 3.250721e-01 3.663496e-01 3.262393e-01 3.096769e-01 2.626732e-01 1.003000e-02
<GCONST> 8.462086e+01
<MIXTURE> 18 4.856802e-02
<MEAN> 39
 -6.692408e+00 -1.319263e+00 -8.367694e+00 -1.560564e-01 1.039505e+01 3.444929e+00 -2.977465e+00 1.531132e+00 8.318972e+00 -4.673822e-01 -3.454390e+00 -3.645978e+00 2.040347e+01 -1.292660e-01 -2.151154e-01 -1.440480e-01 -9.635086e-02 -1.635932e-02 -9.017073e-03 -6.214438e-02 1.012379e-02 -1.490671e-03 2.030354e-01 3.715158e-01 2.598825e-01 -6.957373e-02 1.614223e-02 3.602839e-02 7.154737e-03 -1.759792e-01 -3.372762e-01 -4.611200e-02 3.455233e-01 4.752866e-02 -2.789203e-01 -2.230993e-01 1.611360e-02 1.630952e-01 2.539383e-03
<VARIANCE> 39
 4.385197e+00 1.496238e+01 2.301354e+01 1.747346e+01 1.876325e+01 3.354950e+01 2.346448e+01 2.873394e+01 2.694972e+01 1.866416e+01 2.359668e+01 2.260804e+01 3.281553e+00 2.214888e-01 4.750188e-01 6.183664e-01 8.851064e-01 1.388462e+00 1.332164e+00 1.517111e+00 1.874555e+00 1.636844e+00 1.519440e+00 1.845704e+00 1.954952e+00 1.696367e-02 3.506801e-02 6.720057e-02 1.268172e-01 1.503954e-01 2.048505e-01 2.439400e-01 2.391753e-01 3.098556e-01 2.557054e-01 2.467631e-01 3.536940e-01 3.487532e-01 3.548258e-03
<GCONST> 7.932226e+01
<MIXTURE> 19 3.565274e-02
<MEAN> 39
 3.153265e+00 2.701129e+00 -3.482569e+00 -4.804708e-01 3.089634e+00 5.549003e+00 4.299602e+00 2.962413e+00 3.387639e+00 3.211140e+00 1.905920e+00 7.624878e-01 2.234547e+01 -8.326814e-01 -4.822643e-01 6.194971e-01 -2.662859e-01 8.779718e-01 -3.339690e-01 -3.322912e-01 3.678506e-01 2.747955e-01 -1.183685e-01 1.365123e-01 -7.789637e-02 5.332399e-03 -2.819316e-01 -1.599785e-01 5.990300e-02 1.629845e-02 1.559455e-01 -1.257068e-01 -1.259620e-01 -1.079179e-01 -1.232998e-01 -1.586563e-01 -9.165039e-02 -7.043331e-03 -2.535903e-02
<VARIANCE> 39
 3.681521e+00 5.237442e+00 8.834140e+00 1.048640e+01 8.645894e+00 1.135746e+01 1.072393e+01 9.371349e+00 1.069397e+01 1.110482e+01 1.113522e+01 1.144030e+01 1.911534e+00 7.836448e-01 9.405422e-01 1.320005e+00 1.558045e+00 1.723743e+00 1.793195e+00 1.860869e+00 1.687265e+00 1.887028e+00 1.665628e+00 1.562317e+00 1.706472e+00 7.485355e-02 9.972484e-02 1.183413e-01 2.009036e-01 2.137394e-01 2.033918e-01 2.307612e-01 2.606629e-01 2.208366e-01 2.637599e-01 2.558338e-01 2.408279e-01 2.334865e-01 1.123873e-02
<GCONST> 7.729263e+01
<MIXTURE> 20 4.566113e-02
<MEAN> 39
 2.092399e+00 1.450015e+00 -4.024367e+00 -1.204402e+00 2.736396e+00 2.877038e+00 2.416547e+00 1.225470e+00 1.048773e-01 -4.391653e-01 -1.296022e+00 -1.439927e+00 2.195419e+01 -3.417494e-01 -2.972517e-01 -3.038041e-03 -4.306870e-02 2.905388e-01 -2.579524e-01 -3.448118e-01 -1.865108e-01 -1.712004e-01 -4.802965e-01 -1.909538e-01 -1.342010e-01 -1.754482e-01 6.782655e-02 9.342860e-02 9.026020e-02 1.979155e-01 1.441505e-01 2.864796e-01 2.621243e-01 1.999323e-01 3.686243e-01 4.320182e-01 3.875070e-01 3.301206e-01 1.496911e-01
<VARIANCE> 39
 4.673128e+00 5.306084e+00 8.664831e+00 1.243520e+01 1.375795e+01 1.471730e+01 1.404574e+01 1.373660e+01 1.557305e+01 1.476492e+01 1.237588e+01 1.453656e+01 1.276552e+00 3.287666e-01 4.165572e-01 6.752065e-01 9.634317e-01 1.272516e+00 1.158028e+00 1.249085e+00 1.588606e+00 1.538803e+00 1.392019e+00 1.282537e+00 1.460998e+00 4.752981e-02 4.200277e-02 6.935478e-02 1.196092e-01 1.752802e-01 2.054759e-01 2.312545e-01 2.450370e-01 2.601372e-01 3.082448e-01 2.533087e-01 2.401925e-01 2.634448e-01 7.615473e-03
<GCONST> 7.232249e+01
<STATE> 3
<SID> 52
<NUMMIXES> 20
<MIXTURE> 1 4.612040e-02
<MEAN> 39
 1.161962e+00 4.112555e+00 -3.218991e-01 4.717638e+00 4.126235e+00 4.433791e+00 4.405273e+00 3.328006e+00 4.349737e+00 3.638442e+00 1.870543e+00 9.230850e-01 2.353476e+01 8.676049e-02 6.038262e-02 6.227920e-02 2.476357e-01 3.969085e-01 4.145786e-01 4.916533e-01 4.920021e-01 5.012170e-01 5.048847e-01 4.840932e-01 3.514365e-01 2.320457e-01 3.262686e-02 -1.376455e-02 -5.785136e-02 -1.340139e-02 8.939948e-02 1.393552e-01 1.509267e-01 8.192477e-02 8.484611e-03 -3.182102e-02 -6.735816e-02 -1.263926e-02 4.434258e-02
<VARIANCE> 39
 2.206435e+00 2.097991e+00 3.186567e+00 4.338337e+00 6.466178e+00 6.976589e+00 7.990024e+00 8.261084e+00 9.193160e+00 7.938045e+00 7.894246e+00 8.516932e+00 5.257106e-01 1.161286e-01 2.258305e-01 4.586322e-01 5.534925e-01 6.188192e-01 8.172170e-01 8.000266e-01 1.150098e+00 9.983571e-01 1.001370e+00 1.154513e+00 1.039591e+00 4.234320e-02 2.260478e-02 4.389880e-02 7.828292e-02 9.767664e-02 1.310729e-01 1.475581e-01 1.640111e-01 1.924354e-01 1.918159e-01 1.724205e-01 1.844269e-01 1.854558e-01 5.500213e-03
<GCONST> 5.175559e+01
<MIXTURE> 2 3.226047e-02
<MEAN> 39
 -4.524355e+00 6.795193e+00 -8.911741e-01 3.792637e+00 8.047965e+00 3.379879e+00 3.645888e+00 2.354240e+00 5.763729e+00 -1.060926e-01 -2.846807e+00 -5.632726e+00 2.357626e+01 2.468004e-01 -1.117365e-02 6.529700e-01 3.767761e-01 3.317385e-01 7.734543e-01 1.034438e+00 1.376189e+00 1.004904e+00 9.824492e-01 8.265389e-01 3.134988e-01 2.245469e-01 -1.623215e-02 -4.058160e-01 -2.852075e-01 -4.130597e-01 -5.408490e-01 -1.513835e-01 -2.565662e-01 5.547326e-02 -1.460843e-01 1.039317e-01 2.320267e-01 1.913317e-01 -1.534917e-01
<VARIANCE> 39
 9.394710e+00 1.089559e+01 1.419106e+01 1.279784e+01 1.976169e+01 2.063767e+01 2.237661e+01 1.776423e+01 2.183589e+01 2.300867e+01 2.055207e+01 2.013567e+01 1.653610e+00 5.969709e-01 1.141691e+00 1.138796e+00 1.120755e+00 1.747847e+00 1.527969e+00 1.876391e+00 1.674978e+00 2.388103e+00 2.082349e+00 2.078756e+00 2.020510e+00 6.003251e-02 9.313047e-02 1.618195e-01 1.942040e-01 1.855725e-01 2.762471e-01 2.859286e-01 4.118908e-01 3.540864e-01 4.870263e-01 3.783903e-01 3.280863e-01 2.956374e-01 8.564380e-03
<GCONST> 8.769946e+01
<MIXTURE> 3 6.145042e-02
<MEAN> 39
 -3.622483e+00 2.166307e+00 -1.540335e+00 -3.459911e-01 2.931857e+00 2.994472e+00 2.460704e+00 7.894590e+00 6.472270e+00 -7.600991e-01 -2.028669e+00 -3.254828e+00 2.261072e+01 -7.069823e-02 1.043403e-01 5.139808e-03 -9.420733e-02 1.078218e-01 2.231846e-01 4.481517e-02 -6.804604e-02 2.833253e-02 9.371929e-02 2.538987e-01 -1.194488e-02 2.664939e-02 -8.431917e-02 2.275960e-01 -1.641269e-01 2.025769e-01 2.353759e-01 -8.716278e-03 -6.073085e-02 -6.990482e-01 -2.712860e-01 -8.364740e-03 -3.377381e-03 4.924721e-04 9.129269e-04
<VARIANCE> 39
 8.860555e+00 1.790926e+01 3.576962e+01 2.401501e+01 4.537467e+01 3.466115e+01 4.032272e+01 2.311067e+01 3.690515e+01 4.030494e+01 2.850558e+01 2.984973e+01 1.741758e+00 5.592248e-01 1.293464e+00 1.716962e+00 1.380370e+00 2.236062e+00 2.174690e+00 2.618815e+00 3.227476e+00 2.366179e+00 2.399240e+00 2.126680e+00 1.801184e+00 2.703455e-02 1.034959e-01 1.785368e-01 3.506257e-01 2.396039e-01 4.378817e-01 3.896494e-01 5.566478e-01 3.366631e-01 4.321811e-01 4.277702e-01 3.998914e-01 3.692550e-01 5.350033e-03
<GCONST> 9.728516e+01
<MIXTURE> 4 4.739571e-02
<MEAN> 39
 -2.617727e+00 7.994146e+00 5.409818e-01 2.745473e+00 6.998714e+00 5.450982e+00 1.312277e+00 6.645687e-01 2.667783e+00 -2.007436e+00 -1.913428e-01 -3.265135e+00 2.295792e+01 1.139149e-01 1.036871e-04 2.047597e-01 1.070302e-01 -4.470516e-02 1.138576e-01 3.831903e-02 8.304243e-03 -4.962919e-02 3.430760e-03 1.907862e-01 7.165268e-03 1.899684e-02 -3.676632e-02 -3.379681e-02 -7.351857e-02 -5.985171e-02 -6.781856e-02 -5.859560e-02 3.155109e-02 1.220863e-02 2.187595e-02 1.666364e-02 -4.231758e-02 -2.817455e-02 -1.332383e-02
<VARIANCE> 39
 1.056017e+01 1.696965e+01 2.090850e+01 1.364887e+01 3.523312e+01 3.021319e+01 2.833073e+01 2.488342e+01 3.970293e+01 2.622450e+01 5.870410e+01 3.354953e+01 2.018820e+00 1.086415e-01 1.808428e-01 2.724648e-01 3.879074e-01 4.560366e-01 6.660051e-01 9.344053e-01 8.805928e-01 9.090332e-01 9.623795e-01 9.640930e-01 8.769547e-01 1.839107e-02 1.388421e-02 3.799541e-02 5.403643e-02 7.279544e-02 9.436829e-02 1.193295e-01 1.620899e-01 1.565745e-01 1.797494e-01 1.736793e-01 2.135120e-01 1.883866e-01 3.214052e-03
<GCONST> 6.575691e+01
<MIXTURE> 5 5.433186e-02
<MEAN> 39
 -7.679158e+00 8.970946e+00 -4.089489e+00 3.360307e+00 4.503046e+00 2.769663e+00 3.574614e+00 1.763140e+00 7.938560e+00 3.492472e+00 1.369953e+00 -1.377341e-01 2.170143e+01 1.624049e-01 -8.385277e-02 1.748377e-01 -6.870587e-03 -4.097073e-02 8.464609e-02 -1.317604e-01 -1.222457e-01 4.460038e-02 9.343891e-02 -8.284308e-02 5.488937e-03 -1.767985e-02 8.787762e-02 -2.145560e-01 5.094267e-02 -3.777583e-02 1.151552e-01 5.627461e-02 -4.358991e-02 6.370209e-02 -1.675314e-01 -3.179768e-01 -2.005037e-01 -1.417231e-01 -2.596731e-03
<VARIANCE> 39
 1.974766e+01 1.941415e+01 2.497548e+01 2.793320e+01 3.257326e+01 3.019018e+01 2.272564e+01 1.987123e+01 2.860459e+01 2.530765e+01 2.127538e+01 2.533053e+01 2.819371e+00 4.728567e-01 7.314698e-01 7.579820e-01 9.193537e-01 1.210900e+00 1.105889e+00 1.182898e+00 1.336361e+00 1.352535e+00 1.414419e+00 1.348580e+00 1.072502e+00 1.626613e-02 1.029424e-01 1.083356e-01 1.356254e-01 1.653136e-01 2.225599e-01 2.427522e-01 2.336174e-01 2.749467e-01 2.659959e-01 2.442341e-01 2.558481e-01 2.321560e-01 2.968987e-03
<GCONST> 8.198031e+01
<MIXTURE> 6 2.614091e-02
<MEAN> 39
 -5.338944e+00 6.172736e+00 -3.038756e+00 1.878675e+00 6.216614e+00 1.540892e-01 -1.455746e+00 -2.327072e+00 3.323013e-01 -5.071048e+00 -6.674786e+00 -8.219773e+00 2.297075e+01 -6.070344e-03 7.063999e-01 8.074505e-01 1.039490e+00 1.107311e+00 4.409570e-01 7.018225e-01 8.077343e-02 2.092387e-01 -2.701554e-01 -5.664981e-01 -4.617418e-01 3.291361e-01 7.027633e-02 -2.852918e-01 7.288192e-02 -1.520667e-01 -2.811773e-01 3.692249e-01 5.194825e-01 7.333983e-01 6.760475e-01 8.592888e-01 7.615192e-01 4.962667e-01 -5.825450e-02
<VARIANCE> 39
 1.509177e+01 1.415720e+01 1.530477e+01 1.502665e+01 2.240774e+01 1.937045e+01 2.280573e+01 2.236654e+01 2.312670e+01 2.865572e+01 2.574998e+01 2.797547e+01 1.594815e+00 4.998553e-01 1.088532e+00 1.196049e+00 1.050320e+00 1.670395e+00 1.731545e+00 2.303973e+00 2.011782e+00 2.842228e+00 2.562778e+00 2.216999e+00 1.798409e+00 7.115559e-02 1.363773e-01 1.814924e-01 2.231724e-01 2.310719e-01 3.545206e-01 3.157820e-01 3.288203e-01 3.286872e-01 3.724176e-01 4.380060e-01 3.984141e-01 4.007542e-01 9.205193e-03
<GCONST> 9.185705e+01
<MIXTURE> 7 4.367301e-02
<MEAN> 39
 -7.467905e+00 4.137195e+00 -6.157378e+00 -6.515214e-03 3.253247e+00 -1.134222e+00 -3.820703e-01 4.606355e-01 5.441324e+00 -6.742152e-01 -1.655640e+00 -3.957729e+00 2.147369e+01 -9.542800e-02 4.280372e-01 1.170405e-02 3.654296e-01 8.809728e-01 -1.519095e-01 -4.413531e-02 -4.369614e-01 -2.773865e-01 -9.992768e-01 -9.676461e-01 -4.984799e-01 3.039053e-01 2.311405e-01 1.322954e-01 4.102284e-01 1.815320e-01 1.992427e-01 4.383497e-01 3.378891e-01 1.310630e-01 -1.722150e-01 -6.467468e-02 -3.264929e-02 3.938170e-02 7.919628e-02
<VARIANCE> 39
 1.503651e+01 2.285113e+01 2.739490e+01 2.151233e+01 4.191707e+01 2.349093e+01 3.329991e+01 2.768109e+01 3.629401e+01 2.973468e+01 2.449752e+01 2.426958e+01 2.546136e+00 1.386881e+00 2.102807e+00 2.294527e+00 2.250978e+00 4.114138e+00 3.050013e+00 2.868533e+00 3.474213e+00 3.747760e+00 3.669991e+00 3.191468e+00 2.671475e+00 1.137615e-01 1.503042e-01 3.228077e-01 3.594744e-01 3.269807e-01 6.171302e-01 3.546699e-01 3.805602e-01 5.278106e-01 5.905508e-01 5.770803e-01 4.610935e-01 4.235759e-01 1.521136e-02
<GCONST> 1.068659e+02
<MIXTURE> 8 4.180112e-02
<MEAN> 39
 -2.195118e+00 4.351320e+00 -3.859775e-01 9.308424e-01 2.804045e+00 2.967674e+00 1.437750e-01 3.501248e+00 6.336032e+00 6.460586e+00 1.390087e-01 -9.683629e+00 2.300362e+01 1.565179e-01 1.336328e-01 1.542305e-01 8.384290e-02 1.223161e-01 3.513547e-01 1.541813e-01 -1.443556e-01 -1.328477e-01 1.472657e-01 2.165917e-01 7.932332e-04 3.624528e-02 -5.162854e-02 3.583727e-02 -4.189420e-02 -1.186809e-02 3.742226e-02 -5.811703e-02 -2.957439e-02 2.107475e-02 -8.543333e-03 -2.171915e-01 -7.162141e-02 1.637440e-01 4.094442e-04
<VARIANCE> 39
 3.336219e+00 7.231026e+00 9.778852e+00 1.062351e+01 1.468142e+01 1.088700e+01 2.339216e+01 3.651401e+01 2.156487e+01 1.942285e+01 1.981805e+01 3.390802e+01 1.482928e+00 1.612978e-01 2.387356e-01 4.171647e-01 4.269964e-01 6.528047e-01 8.199671e-01 9.329007e-01 1.219667e+00 1.175354e+00 1.528855e+00 1.069428e+00 7.883343e-01 1.329820e-02 2.622565e-02 5.638820e-02 9.804425e-02 9.825743e-02 1.169276e-01 1.435836e-01 1.801223e-01 2.274772e-01 1.868622e-01 2.167682e-01 2.146248e-01 1.428227e-01 3.351446e-03
<GCONST> 6.405643e+01
<MIXTURE> 9 5.930794e-02
<MEAN> 39
 -3.355587e+00 3.708511e+00 -9.057386e-01 1.856808e+00 4.235331e+00 2.747190e+00 3.159590e+00 5.613405e+00 7.136001e+00 3.920892e+00 1.155268e+00 -4.829040e+00 2.330688e+01 1.474786e-02 -3.948600e-01 -2.105282e-01 -4.998123e-01 -5.714015e-01 -2.133900e-01 -1.392974e-01 3.537937e-02 -3.798874e-02 1.181290e-01 1.912770e-01 6.340334e-02 -1.491475e-01 2.497462e-02 -1.890509e-02 -1.800767e-01 -8.742359e-02 -3.868170e-02 -1.948083e-02 -1.553850e-01 -3.286818e-01 -3.999541e-01 -3.424624e-01 -2.984633e-01 1.797517e-02 -4.680625e-02
<VARIANCE> 39
 6.403748e+00 1.083773e+01 1.348192e+01 1.116973e+01 3.192989e+01 2.239990e+01 2.965542e+01 2.096179e+01 2.282537e+01 2.560134e+01 2.171013e+01 2.620488e+01 1.211604e+00 1.974350e-01 4.567358e-01 4.705444e-01 6.575181e-01 1.045623e+00 1.114667e+00 1.347093e+00 1.486974e+00 2.053354e+00 1.706901e+00 1.550329e+00 1.274495e+00 2.050294e-02 5.138375e-02 9.056664e-02 1.073514e-01 1.160428e-01 2.299599e-01 2.468913e-01 2.558394e-01 2.236757e-01 2.891585e-01 2.713028e-01 2.642583e-01 2.861677e-01 4.114900e-03
<GCONST> 7.605411e+01
<MIXTURE> 10 5.051602e-02
<MEAN> 39
 1.271496e+00 1.411143e+00 -3.463629e+00 3.247194e-01 3.611348e+00 3.204611e+00 2.422516e+00 1.140927e+00 1.785502e+00 1.552304e+00 6.858706e-01 3.979299e-01 2.243686e+01 6.263022e-02 -1.661940e-02 1.509152e-01 4.835222e-01 5.034544e-01 6.002771e-01 7.146180e-01 4.899493e-01 5.462291e-01 5.129505e-01 3.162574e-01 3.970476e-01 2.663359e-01 1.280366e-01 6.338462e-02 -1.212847e-02 4.222367e-02 3.186411e-02 2.314766e-01 3.349866e-01 2.612465e-01 1.687081e-01 1.185004e-01 -3.475198e-02 -4.402537e-03 1.085397e-01
<VARIANCE> 39
 7.048409e+00 6.820012e+00 8.730824e+00 1.367773e+01 1.375983e+01 1.569158e+01 1.423363e+01 1.415465e+01 1.594162e+01 1.384641e+01 1.327629e+01 1.600334e+01 1.001137e+00 2.230138e-01 4.122339e-01 6.210498e-01 7.917508e-01 1.003619e+00 1.095916e+00 1.136960e+00 1.302850e+00 1.423901e+00 1.350197e+00 1.312072e+00 1.392356e+00 4.497558e-02 3.952307e-02 7.996473e-02 1.234302e-01 1.628353e-01 2.034407e-01 2.315480e-01 2.375780e-01 2.807550e-01 2.899595e-01 2.543427e-01 2.548156e-01 2.731043e-01 7.161151e-03
<GCONST> 7.167780e+01
<MIXTURE> 11 6.431910e-02
<MEAN> 39
 -4.328398e+00 6.679341e+00 -1.710598e+00 2.791996e+00 5.966932e+00 5.033250e+00 2.382834e+00 -6.621723e-01 4.060123e+00 -4.044786e-01 2.424925e-01 -2.682139e+00 2.229275e+01 -7.425733e-01 -2.309469e-01 -5.405356e-01 -1.592378e-03 1.947576e-01 -6.404123e-01 -1.545315e-01 -1.376415e-01 1.485725e-01 -2.567330e-01 -1.956260e-01 -2.653704e-02 -2.070788e-02 -1.024875e-01 -7.617017e-02 -1.003928e-01 -6.829605e-02 -1.737559e-02 -2.175746e-01 -3.153993e-02 2.822851e-01 7.262266e-02 -1.374626e-01 -2.827686e-01 -6.068013e-02 9.177261e-03
<VARIANCE> 39
 1.241113e+01 1.885572e+01 3.258172e+01 3.253082e+01 3.417342e+01 3.047518e+01 2.986646e+01 2.917403e+01 3.949886e+01 3.242747e+01 3.149717e+01 3.060690e+01 2.348543e+00 1.436228e+00 2.312796e+00 2.607754e+00 2.521543e+00 2.809078e+00 2.650155e+00 2.887325e+00 3.398658e+00 3.359411e+00 2.862231e+00 2.802191e+00 2.264689e+00 3.273709e-02 2.032501e-01 2.428929e-01 3.469437e-01 3.683551e-01 3.796183e-01 4.513867e-01 4.927866e-01 4.278856e-01 5.435382e-01 4.312035e-01 4.244231e-01 3.933405e-01 6.212276e-03
<GCONST> 1.040556e+02
<MIXTURE> 12 5.039156e-02
<MEAN> 39
 -3.544503e+00 4.220336e+00 -7.404287e-01 -6.873111e-01 2.196892e-01 8.315248e-01 -1.752738e+00 5.484239e-01 6.942667e-01 9.563546e-02 -2.412087e+00 -6.734066e+00 2.186819e+01 2.506336e-02 -1.633803e-01 -1.567430e-01 -1.581853e-01 -2.369122e-01 -3.019899e-02 -2.468939e-01 -1.457916e-01 -3.244795e-01 -1.220087e-01 -1.158907e-01 -6.300729e-02 -1.088587e-01 -7.318414e-03 7.987408e-02 1.028041e-02 2.093427e-01 2.941270e-01 1.610336e-01 2.365978e-01 1.280143e-01 1.831761e-01 1.718190e-02 6.253780e-02 1.334635e-01 6.207765e-02
<VARIANCE> 39
 6.245488e+00 1.598965e+01 1.486329e+01 1.389722e+01 2.290103e+01 2.060334e+01 3.749179e+01 2.819832e+01 3.611377e+01 4.947609e+01 3.534280e+01 2.800789e+01 2.456923e+00 1.491564e-01 2.842936e-01 5.568221e-01 6.056095e-01 9.972123e-01 9.761042e-01 1.094115e+00 1.119288e+00 1.074452e+00 1.177572e+00 1.322739e+00 9.652827e-01 1.896813e-02 2.352434e-02 5.356769e-02 8.741214e-02 1.026663e-01 1.650269e-01 1.582645e-01 2.258576e-01 2.178559e-01 1.903396e-01 2.958293e-01 2.980273e-01 1.583345e-01 3.694318e-03
<GCONST> 7.288071e+01
<MIXTURE> 13 5.751409e-02
<MEAN> 39
 -6.942093e+00 1.732433e+00 -6.315204e+00 -7.405099e-01 6.456373e+00 1.306079e+00 9.006062e-01 1.938416e+00 4.134459e+00 -1.286140e+00 -1.910646e+00 -2.612143e+00 2.068395e+01 -2.598983e-01 -1.856958e-01 -1.244436e-01 1.075043e-01 2.254307e-01 1.066858e-01 9.107989e-02 -6.678732e-02 -1.745387e-02 9.063586e-03 -9.506437e-02 -1.582571e-01 -4.698857e-02 2.149867e-01 1.457143e-01 1.736318e-01 6.870567e-02 -9.237365e-02 6.668727e-02 7.546218e-02 -8.041777e-02 -1.456065e-01 -8.010413e-02 -1.268791e-01 -2.923417e-02 9.225342e-02
<VARIANCE> 39
 1.662856e+01 2.728853e+01 1.487953e+01 1.622282e+01 2.368506e+01 2.877803e+01 2.352355e+01 2.239347e+01 2.790734e+01 2.526732e+01 1.959622e+01 2.043774e+01 2.200934e+00 4.670262e-01 6.658611e-01 7.602304e-01 8.053199e-01 1.214187e+00 1.446486e+00 1.510087e+00 1.619774e+00 1.649524e+00 1.621395e+00 1.518169e+00 1.550094e+00 2.770863e-02 7.615967e-02 1.178081e-01 1.467067e-01 1.522470e-01 2.241203e-01 2.620063e-01 2.681800e-01 2.812419e-01 3.661912e-01 3.289538e-01 2.762717e-01 2.531749e-01 4.887586e-03
<GCONST> 8.343268e+01
<MIXTURE> 14 6.880908e-02
<MEAN> 39
 -3.784725e+00 6.554342e+00 -1.024427e+00 1.084695e+00 5.408135e+00 4.341091e+00 3.600861e+00 8.549694e-01 -2.863601e-02 -5.040159e+00 -3.899654e+00 -2.993826e+00 2.229279e+01 1.528656e-01 -1.851494e-03 5.171289e-02 -1.072281e-01 -1.885531e-01 -2.517925e-02 2.374451e-02 -4.426926e-02 -1.457006e-01 -9.334636e-02 7.958913e-03 8.830179e-02 -4.321928e-02 -6.773427e-02 -7.455081e-02 -1.368552e-01 -4.701400e-02 -5.389049e-02 -1.751476e-01 -2.420472e-01 -2.792935e-02 2.863234e-01 2.985139e-01 8.348960e-02 -1.075639e-01 -1.663570e-02
<VARIANCE> 39
 9.513540e+00 1.784647e+01 1.797348e+01 2.045843e+01 2.097451e+01 2.897241e+01 2.862679e+01 3.360561e+01 3.660736e+01 3.115665e+01 2.409037e+01 2.069716e+01 2.328209e+00 3.287432e-01 3.788068e-01 6.124578e-01 5.630971e-01 1.021991e+00 1.085489e+00 1.487087e+00 1.453961e+00 1.554448e+00 1.673494e+00 1.376687e+00 1.186138e+00 1.580818e-02 5.602609e-02 6.918789e-02 1.233997e-01 1.134862e-01 1.771010e-01 2.315551e-01 2.231028e-01 2.769765e-01 2.623802e-01 2.909458e-01 2.992730e-01 2.365050e-01 3.201052e-03
<GCONST> 7.835599e+01
<MIXTURE> 15 6.776444e-02
<MEAN> 39
 -9.163231e-01 9.189988e-01 -4.255495e-01 1.266383e+00 6.567214e+00 3.375891e+00 9.199812e-01 2.688839e+00 2.985797e+00 2.042277e+00 1.628454e+00 -4.134225e-01 2.279110e+01 -2.744690e-01 -5.175805e-01 -1.211622e-01 2.056860e-01 1.812049e-01 1.645807e-01 -7.903542e-02 -5.242836e-01 -2.082148e-01 -2.010796e-01 -2.513474e-01 9.526286e-03 -5.185325e-02 2.791461e-01 3.266679e-03 -4.485837e-01 -7.062170e-02 -1.892881e-01 2.318647e-01 4.716141e-01 9.146536e-02 -8.901739e-02 -1.001045e-01 -2.213443e-01 1.127275e-01 4.711937e-02
<VARIANCE> 39
 6.246283e+00 1.100438e+01 1.050814e+01 2.105263e+01 1.770759e+01 1.875434e+01 1.658995e+01 1.781313e+01 1.820642e+01 1.710699e+01 1.674540e+01 1.971433e+01 1.087193e+00 3.411750e-01 4.825400e-01 7.734069e-01 8.579926e-01 1.136251e+00 1.249262e+00 1.182659e+00 1.274533e+00 1.451247e+00 1.392660e+00 1.493611e+00 1.441511e+00 4.741849e-02 5.894239e-02 1.188093e-01 1.846509e-01 2.207095e-01 2.968722e-01 2.834365e-01 2.535512e-01 2.975886e-01 3.333434e-01 2.968801e-01 2.862159e-01 3.010153e-01 9.732510e-03
<GCONST> 7.877542e+01
<MIXTURE> 16 5.630301e-02
<MEAN> 39
 -8.039299e+00 7.811526e+00 -3.554722e+00 5.365163e+00 1.143615e+01 4.746375e+00 4.752014e+00 3.097751e+00 6.837445e+00 -2.470201e+00 -3.233424e+00 -2.636453e+00 2.265369e+01 -1.574852e-01 -2.013944e-01 2.274437e-02 1.208938e-02 9.310252e-02 -1.199989e-02 -1.255590e-01 -9.583235e-02 1.220665e-01 6.906637e-02 -1.930099e-02 1.313398e-01 5.217334e-03 2.638162e-01 -1.964513e-01 1.380817e-03 -3.516870e-01 -5.071140e-01 -1.757457e-01 -1.617893e-01 -1.060408e-01 -1.526493e-01 1.558936e-01 1.517639e-01 1.782249e-02 -2.693371e-02
<VARIANCE> 39
 2.128926e+01 2.812575e+01 1.829233e+01 2.108738e+01 2.214463e+01 2.255157e+01 2.719907e+01 2.134352e+01 2.903869e+01 1.982802e+01 1.758356e+01 1.822983e+01 1.952165e+00 9.507081e-01 1.184547e+00 1.182975e+00 1.174072e+00 1.580693e+00 1.744941e+00 1.870946e+00 1.963402e+00 1.972585e+00 1.796395e+00 1.749274e+00 1.596260e+00 3.476205e-02 1.710895e-01 2.331553e-01 2.096242e-01 2.202457e-01 2.872397e-01 3.032402e-01 3.139705e-01 3.404232e-01 3.760216e-01 3.020095e-01 2.724206e-01 2.559168e-01 6.181536e-03
<GCONST> 9.019640e+01
<MIXTURE> 17 5.055983e-02
<MEAN> 39
 3.492678e+00 2.617510e+00 -3.619970e+00 4.822730e-01 3.262493e+00 5.892446e+00 5.031658e+00 2.040945e+00 2.175324e+00 1.953554e+00 9.168490e-01 5.333923e-01 2.344063e+01 -5.924641e-03 1.269575e-02 7.229563e-02 3.513877e-01 4.597642e-01 3.343689e-01 3.055688e-01 6.904885e-02 2.277328e-01 2.815830e-01 2.491932e-01 2.942953e-01 1.619736e-01 -8.814290e-03 -7.345583e-02 -6.009258e-02 1.058450e-02 -1.955501e-02 -7.815264e-02 1.642690e-02 1.242782e-01 1.270113e-01 1.200341e-01 5.769697e-03 -8.467266e-03 1.255658e-02
<VARIANCE> 39
 4.390872e+00 3.279325e+00 6.258202e+00 7.445569e+00 8.445095e+00 9.365780e+00 9.512104e+00 1.106984e+01 1.053807e+01 1.105630e+01 1.071219e+01 1.132019e+01 7.617107e-01 1.561347e-01 3.470350e-01 5.351423e-01 6.314698e-01 8.439058e-01 1.044305e+00 1.064395e+00 1.449468e+00 1.404416e+00 1.288220e+00 1.262588e+00 1.259404e+00 4.308303e-02 2.940020e-02 6.657115e-02 9.471306e-02 1.189127e-01 1.497633e-01 1.642921e-01 1.896638e-01 2.062057e-01 2.458269e-01 2.285720e-01 2.186747e-01 2.383311e-01 4.886226e-03
<GCONST> 6.189279e+01
<MIXTURE> 18 5.040378e-02
<MEAN> 39
 -2.172141e+00 1.750603e+00 -4.400699e+00 9.697869e-01 4.271226e+00 2.081923e+00 -1.765913e+00 5.538677e+00 7.828838e+00 5.927916e+00 -1.101956e+00 -5.044893e+00 2.257250e+01 9.551092e-02 -1.719133e-01 -2.143560e-02 -8.313196e-03 -6.794485e-02 -2.773529e-02 -2.658664e-01 -1.930155e-02 -5.910515e-02 3.633590e-03 -1.024582e-01 -5.639274e-03 -6.840641e-02 -6.887906e-02 8.079305e-02 6.495687e-02 -5.391799e-03 -6.843632e-02 1.689233e-04 6.953445e-02 -8.396792e-02 -2.144027e-01 -1.206194e-01 3.118349e-02 -4.651865e-02 -1.917493e-04
<VARIANCE> 39
 4.612101e+00 1.007159e+01 1.552992e+01 9.255715e+00 2.274491e+01 1.570447e+01 5.359082e+01 2.838495e+01 3.049998e+01 2.521430e+01 2.247805e+01 3.083259e+01 2.171951e+00 1.227574e-01 1.854597e-01 3.195402e-01 4.968923e-01 6.697614e-01 8.116900e-01 1.040667e+00 7.574919e-01 1.041406e+00 9.359105e-01 1.007030e+00 9.617268e-01 1.414270e-02 2.563473e-02 3.727404e-02 5.588645e-02 6.972214e-02 1.160873e-01 1.694522e-01 2.159493e-01 1.630220e-01 2.377172e-01 2.200757e-01 2.285430e-01 1.853561e-01 2.414900e-03
<GCONST> 6.495053e+01
<MIXTURE> 19 3.882724e-02
<MEAN> 39
 -7.937572e+00 -6.223932e+00 -7.501794e+00 -3.622847e+00 6.463035e+00 -2.299997e-01 -3.434959e+00 -1.345736e-01 4.751511e-02 -2.214703e+00 -3.456089e-01 -1.103807e+00 1.806612e+01 -9.727733e-01 -1.312565e+00 -2.026974e-01 9.342132e-02 7.685465e-01 9.524260e-02 1.154647e-01 -9.679733e-02 6.816809e-02 -1.892560e-01 2.385599e-03 -1.873019e-01 5.828401e-02 3.880685e-01 3.817221e-01 1.212123e-02 3.050501e-02 -4.749960e-01 1.394955e-01 2.949305e-01 -2.463013e-01 -2.450460e-01 -1.367811e-01 -4.075148e-01 -1.816319e-01 1.291497e-01
<VARIANCE> 39
 1.344335e+01 2.753016e+01 2.435884e+01 2.978483e+01 2.647186e+01 4.974070e+01 3.929278e+01 4.189294e+01 3.754006e+01 4.009637e+01 3.568613e+01 3.411227e+01 3.720507e+00 7.768803e-01 1.112033e+00 1.186861e+00 1.472965e+00 2.036452e+00 1.922374e+00 2.241398e+00 2.291489e+00 2.192257e+00 2.064821e+00 2.232093e+00 2.140921e+00 9.930965e-02 1.119545e-01 1.876186e-01 2.558376e-01 3.156709e-01 3.884077e-01 4.416246e-01 5.175420e-01 5.562049e-01 4.958141e-01 4.528452e-01 4.408799e-01 4.099370e-01 8.154585e-03
<GCONST> 1.012787e+02
<MIXTURE> 20 3.209668e-02
<MEAN> 39
 -7.464930e+00 5.844598e+00 -1.640250e+00 1.690119e+00 2.876946e+00 -3.412128e+00 -1.864431e+00 -4.256199e+00 -2.790130e+00 -1.079797e+01 -7.351424e+00 -6.086943e+00 2.174134e+01 -5.487115e-02 1.674744e-02 -1.394135e-01 3.187171e-02 -9.204228e-02 -2.288227e-01 -7.887036e-02 -2.395269e-01 -1.205933e-01 -5.056596e-02 -2.528159e-02 5.736878e-02 -1.915148e-02 9.008173e-02 7.592007e-03 -2.366790e-02 -5.941448e-02 8.923298e-02 3.008527e-01 2.270262e-01 3.662739e-01 3.778776e-01 4.659653e-01 4.309722e-01 1.921066e-01 -7.306385e-03
<VARIANCE> 39
 1.512053e+01 1.941455e+01 2.846481e+01 2.268165e+01 2.801313e+01 2.808396e+01 3.088988e+01 2.670886e+01 4.302997e+01 4.360303e+01 2.181775e+01 1.861159e+01 2.353639e+00 1.162556e+00 9.911696e-01 1.384205e+00 1.475858e+00 2.421293e+00 2.258574e+00 2.244748e+00 2.897761e+00 3.741499e+00 2.744348e+00 2.613734e+00 2.069305e+00 6.009115e-02 2.085753e-01 1.602815e-01 2.890193e-01 3.373585e-01 4.317010e-01 4.481761e-01 4.750120e-01 5.010067e-01 5.711818e-01 5.276400e-01 4.016927e-01 3.784741e-01 1.137343e-02
<GCONST> 1.008813e+02
<STATE> 4
<SID> 53
<NUMMIXES> 20
<MIXTURE> 1 4.967466e-02
<MEAN> 39
 2.543795e+00 3.411995e+00 -1.718996e+00 3.037289e+00 4.409912e+00 5.803557e+00 5.682228e+00 3.821488e+00 4.107624e+00 3.999922e+00 2.328245e+00 1.467005e+00 2.398179e+01 1.071173e-01 7.661603e-02 9.443589e-02 3.175688e-01 3.940159e-01 4.505099e-01 5.791377e-01 5.157371e-01 4.888652e-01 4.498217e-01 2.717527e-01 2.452539e-01 2.573637e-01 -1.191393e-03 -6.193635e-02 -1.290207e-01 -1.384495e-01 -1.687271e-01 -1.608656e-01 -1.503679e-01 -1.664175e-01 -1.541842e-01 -2.052488e-01 -2.394491e-01 -1.511078e-01 -8.011430e-02
<VARIANCE> 39
 4.815701e+00 4.196310e+00 7.750247e+00 1.138200e+01 9.304953e+00 9.977139e+00 9.098815e+00 1.026913e+01 1.109232e+01 1.015567e+01 1.040148e+01 1.062510e+01 7.414886e-01 1.392343e-01 2.565699e-01 4.380819e-01 5.714508e-01 7.593874e-01 9.405103e-01 1.049931e+00 1.192693e+00 1.173127e+00 1.116688e+00 1.099012e+00 1.252532e+00 4.187999e-02 2.984088e-02 5.649777e-02 1.028310e-01 1.277681e-01 1.481069e-01 1.832028e-01 1.872961e-01 2.259658e-01 2.201311e-01 2.125196e-01 2.233838e-01 2.216676e-01 5.698996e-03
<GCONST> 6.122747e+01
<MIXTURE> 2 4.093764e-02
<MEAN> 39
 -7.857455e+00 3.701146e+00 -3.011543e+00 -2.704157e+00 4.124822e+00 2.313538e+00 2.621644e+00 -5.045066e-01 2.142765e+00 -4.845621e+00 -6.414736e+00 -5.039951e+00 2.149334e+01 -8.618955e-02 2.010173e-01 1.508725e-01 5.606059e-01 6.159590e-01 3.620323e-01 6.574711e-01 6.203004e-01 5.559921e-01 1.878389e-01 3.730685e-01 -9.033314e-02 1.680786e-01 2.902806e-02 1.942352e-01 1.017305e-01 3.099161e-01 3.358140e-01 1.802262e-01 2.258626e-01 3.153830e-01 3.921037e-01 2.884894e-01 2.346662e-01 1.176530e-01 1.097507e-01
<VARIANCE> 39
 4.423483e+00 7.767565e+00 1.907762e+01 1.352634e+01 1.725595e+01 1.963860e+01 2.126127e+01 2.361779e+01 2.250498e+01 1.882731e+01 2.236236e+01 1.628383e+01 2.396222e+00 3.702810e-01 4.561113e-01 7.568949e-01 1.072221e+00 1.181721e+00 1.329540e+00 1.484676e+00 1.745657e+00 1.735770e+00 1.541131e+00 1.838355e+00 1.493539e+00 4.830211e-02 4.702264e-02 7.000078e-02 1.359060e-01 1.387607e-01 1.838841e-01 1.953076e-01 2.324212e-01 2.604213e-01 2.697491e-01 2.229316e-01 2.808320e-01 2.387565e-01 4.081306e-03
<GCONST> 7.717956e+01
<MIXTURE> 3 4.456247e-02
<MEAN> 39
 -8.700219e+00 4.471594e+00 -5.144857e+00 -2.096255e-01 1.029660e+01 8.249356e+00 6.004587e+00 2.278065e+00 5.883438e+00 -2.547329e+00 -4.371239e+00 -5.428400e+00 2.247675e+01 1.065470e-01 9.075984e-02 1.753533e-01 7.016894e-02 1.366245e-01 3.810509e-01 5.871950e-01 5.594923e-01 5.146151e-01 4.107760e-01 1.712013e-01 1.783990e-01 5.759792e-02 5.174536e-02 4.812456e-03 7.525933e-02 -6.020086e-05 -3.144557e-01 -4.641682e-01 -2.386022e-01 -7.935496e-03 -2.082798e-02 -2.656685e-02 2.246811e-02 1.230696e-01 -8.759405e-03
<VARIANCE> 39
 4.765155e+00 9.119960e+00 1.065811e+01 1.458908e+01 1.646016e+01 2.599050e+01 1.813380e+01 1.700421e+01 1.502462e+01 1.984034e+01 2.000724e+01 1.482653e+01 1.672379e+00 1.722779e-01 3.405855e-01 5.805596e-01 7.930816e-01 9.921564e-01 1.434331e+00 1.371130e+00 1.570147e+00 1.466646e+00 1.489403e+00 1.503455e+00 1.085813e+00 1.861862e-02 3.166458e-02 6.794885e-02 1.008309e-01 1.260331e-01 1.359825e-01 1.649573e-01 2.169142e-01 2.361926e-01 2.215608e-01 2.472160e-01 2.535424e-01 2.102544e-01 3.097158e-03
<GCONST> 7.009661e+01
<MIXTURE> 4 5.837080e-02
<MEAN> 39
 -7.179717e+00 3.503412e+00 -2.616089e+00 1.844014e+00 8.387876e+00 3.857461e-01 2.860504e+00 4.102657e+00 5.245662e+00 -4.102638e+00 -4.715192e+00 -3.296914e+00 2.236335e+01 1.227099e-01 -9.938473e-03 9.692351e-02 6.405082e-02 9.323635e-02 6.342720e-02 -9.440374e-04 7.283445e-02 -5.383387e-03 -5.618843e-02 -2.377659e-02 -1.930599e-03 3.277453e-03 -1.043104e-02 4.242493e-02 -6.179868e-02 -2.078582e-01 -9.924927e-02 2.069009e-01 4.479587e-02 -2.241515e-01 -3.239980e-02 1.570278e-01 -8.629402e-04 -9.507511e-02 -9.679832e-04
<VARIANCE> 39
 5.153588e+00 8.005838e+00 1.344283e+01 1.355124e+01 1.760048e+01 1.587509e+01 1.656098e+01 1.736788e+01 2.091007e+01 1.703193e+01 2.151098e+01 1.286757e+01 1.555232e+00 1.060901e-01 2.405295e-01 4.002810e-01 5.676965e-01 6.651174e-01 9.439394e-01 1.011097e+00 1.132259e+00 1.056109e+00 1.041182e+00 1.148286e+00 9.380813e-01 8.307568e-03 1.744969e-02 3.753157e-02 7.609415e-02 8.825108e-02 1.200732e-01 1.483397e-01 1.498295e-01 1.837502e-01 1.664130e-01 1.747023e-01 1.964529e-01 1.569785e-01 1.677598e-03
<GCONST> 6.037288e+01
<MIXTURE> 5 3.308357e-02
<MEAN> 39
 -8.549888e+00 6.024088e+00 -1.254685e+00 2.617157e+00 8.689392e+00 3.777157e+00 5.261227e+00 2.154601e+00 5.628811e+00 -2.725885e+00 -2.887340e+00 -4.532361e+00 2.287759e+01 1.312554e-01 5.377157e-01 2.674258e-01 5.319463e-01 7.696232e-01 8.308466e-01 9.246029e-01 8.255195e-01 8.997129e-01 8.444128e-01 3.805453e-01 2.441827e-01 3.611491e-01 1.258810e-01 -1.814915e-01 -1.771649e-01 -5.062221e-01 -4.079794e-01 -5.589266e-02 -1.860098e-01 -4.861884e-02 -7.871681e-02 3.844906e-02 -2.140688e-01 9.629778e-02 -1.002158e-01
<VARIANCE> 39
 2.674972e+00 6.601065e+00 1.116150e+01 1.044006e+01 1.357873e+01 1.474894e+01 1.576261e+01 2.112259e+01 1.810109e+01 1.404550e+01 1.758983e+01 1.259612e+01 2.268216e+00 4.377315e-01 7.077609e-01 9.987931e-01 1.226045e+00 1.486953e+00 1.321707e+00 1.631898e+00 1.689778e+00 2.125841e+00 1.651527e+00 2.015739e+00 1.489562e+00 4.250435e-02 6.612499e-02 1.187828e-01 1.584693e-01 1.747554e-01 2.154794e-01 2.506149e-01 3.286833e-01 4.040887e-01 3.354176e-01 2.792784e-01 3.342944e-01 2.585314e-01 9.391666e-03
<GCONST> 7.923506e+01
<MIXTURE> 6 5.529536e-02
<MEAN> 39
 -8.384474e+00 4.447978e+00 -4.363056e+00 -7.673683e-01 7.261512e+00 4.687169e+00 4.434987e+00 2.263766e+00 6.233544e+00 -1.300153e+00 -2.806938e+00 -3.121087e+00 2.210463e+01 -1.380464e-01 -3.689584e-01 -4.712686e-01 -6.627907e-01 -5.872333e-01 -6.043534e-01 -6.807276e-01 -5.898357e-01 -5.259777e-01 -2.641822e-01 -1.358886e-01 -1.731686e-02 -2.606056e-01 3.657812e-02 3.671047e-02 8.123713e-02 6.067273e-02 -3.384460e-02 -1.182091e-01 -2.051794e-02 7.838950e-03 -3.749227e-02 -1.224547e-01 -9.608740e-02 -1.070670e-01 8.859147e-03
<VARIANCE> 39
 4.963334e+00 9.713743e+00 1.274626e+01 1.470079e+01 1.785778e+01 1.835351e+01 2.023141e+01 2.332559e+01 2.209891e+01 1.773140e+01 2.161611e+01 1.830909e+01 2.278618e+00 1.478070e-01 3.654926e-01 5.561374e-01 6.136652e-01 9.633592e-01 1.181084e+00 1.303166e+00 1.427676e+00 1.525677e+00 1.385116e+00 1.496482e+00 1.262784e+00 1.680074e-02 3.006661e-02 6.691818e-02 1.076900e-01 1.289294e-01 1.721202e-01 1.743935e-01 1.954115e-01 2.311772e-01 2.495947e-01 2.387676e-01 2.433471e-01 2.296104e-01 4.304684e-03
<GCONST> 7.132344e+01
<MIXTURE> 7 7.081743e-02
<MEAN> 39
 -7.557236e+00 5.350698e+00 -2.430073e+00 -1.753889e+00 6.043547e+00 4.828756e+00 1.585386e+00 -3.436160e+00 2.941545e-01 -4.647804e+00 -5.017889e+00 -4.004541e+00 2.195126e+01 1.270259e-01 9.869739e-02 2.697717e-01 5.026462e-02 1.017681e-01 2.398907e-01 1.257503e-01 -1.054719e-01 -1.862164e-01 -9.413297e-02 -1.420598e-01 -6.983108e-03 2.285095e-02 -1.636270e-02 -5.775471e-02 -3.569746e-02 6.776898e-02 -3.984950e-02 -1.889649e-01 -2.212626e-02 2.780652e-01 2.550750e-01 3.037017e-02 -6.325995e-02 -5.715716e-02 6.321047e-03
<VARIANCE> 39
 4.056213e+00 7.418266e+00 1.596080e+01 1.167723e+01 1.913602e+01 1.544978e+01 2.189369e+01 1.559638e+01 1.563936e+01 1.416441e+01 2.269687e+01 1.777188e+01 2.426971e+00 9.620646e-02 2.192413e-01 3.785372e-01 5.319423e-01 6.856779e-01 8.521333e-01 9.976995e-01 1.136812e+00 1.071705e+00 1.141236e+00 1.164858e+00 8.847685e-01 7.314353e-03 1.836865e-02 4.280963e-02 8.375677e-02 1.063611e-01 1.368838e-01 1.375431e-01 1.957047e-01 1.732365e-01 1.639808e-01 1.626201e-01 2.263208e-01 1.759283e-01 1.982842e-03
<GCONST> 6.126269e+01
<MIXTURE> 8 6.515244e-02
<MEAN> 39
 -8.622353e+00 4.080978e+00 -4.775603e+00 -2.782228e+00 3.819591e+00 1.550631e+00 3.625064e+00 2.603690e+00 6.642402e+00 2.876486e-01 -4.136348e-01 -1.798774e+00 2.166655e+01 1.149751e-01 4.792305e-02 2.055292e-01 4.204793e-02 9.381452e-02 1.853125e-01 2.023309e-01 1.135999e-01 7.198730e-03 -3.940206e-02 -1.108455e-02 1.101451e-01 7.251611e-03 5.387658e-02 6.207777e-02 1.146950e-01 2.349069e-01 2.401786e-01 1.183766e-01 -6.552897e-02 -1.340154e-01 -1.967784e-01 -3.393280e-01 -4.053788e-01 -2.248404e-01 3.668486e-02
<VARIANCE> 39
 3.714940e+00 6.873165e+00 1.152404e+01 1.167625e+01 1.637012e+01 1.737591e+01 2.141676e+01 1.874159e+01 1.861409e+01 1.737106e+01 1.875791e+01 1.520764e+01 2.450875e+00 1.273662e-01 3.131682e-01 5.356491e-01 6.923006e-01 9.195259e-01 1.015068e+00 1.170140e+00 1.507297e+00 1.290130e+00 1.375564e+00 1.481263e+00 1.229134e+00 1.707802e-02 2.865695e-02 5.971086e-02 1.138707e-01 1.212213e-01 1.559754e-01 1.826559e-01 1.943657e-01 2.377374e-01 2.335504e-01 2.188962e-01 2.135016e-01 2.079513e-01 4.309796e-03
<GCONST> 6.835966e+01
<MIXTURE> 9 4.441596e-02
<MEAN> 39
 -7.721769e+00 5.137704e+00 -3.843851e+00 -3.979482e-01 7.046028e+00 4.556018e+00 6.032364e+00 5.943202e+00 1.223680e+01 1.652709e+00 -5.223429e+00 -7.049405e+00 2.253581e+01 4.477118e-03 -9.118711e-02 -4.113301e-02 1.097632e-02 -9.826609e-02 -6.753702e-02 -7.703878e-02 3.481688e-02 2.846757e-02 1.482483e-01 1.371761e-01 4.969200e-02 -2.740334e-02 -1.200044e-02 -7.467277e-02 -4.421540e-02 -1.457569e-02 9.617759e-04 -6.993040e-02 -1.381976e-01 -3.977343e-01 -7.426538e-01 -4.761362e-01 1.199434e-01 3.058752e-01 -3.640569e-02
<VARIANCE> 39
 7.018443e+00 1.104838e+01 1.363146e+01 1.840766e+01 2.257842e+01 2.625874e+01 2.329377e+01 2.150587e+01 1.773612e+01 1.826139e+01 2.449255e+01 1.679774e+01 2.072447e+00 2.791868e-01 5.226026e-01 7.615200e-01 9.381935e-01 1.375006e+00 1.389080e+00 1.653046e+00 1.894855e+00 2.056037e+00 1.631867e+00 1.521613e+00 1.381203e+00 2.531860e-02 4.793930e-02 8.953764e-02 1.311600e-01 1.483957e-01 2.361300e-01 2.581035e-01 2.892258e-01 2.900689e-01 2.441809e-01 2.407276e-01 2.860490e-01 2.181239e-01 4.756955e-03
<GCONST> 7.886582e+01
<MIXTURE> 10 5.446694e-02
<MEAN> 39
 -6.033941e+00 -3.000511e-01 -2.955477e+00 5.041103e-01 8.883574e+00 3.613929e+00 2.185631e+00 1.953046e+00 3.867576e+00 -5.236166e-01 -6.191353e-01 -1.563616e+00 2.142488e+01 -9.440163e-03 -3.845583e-01 -4.397939e-01 1.768694e-01 2.307993e-02 3.413580e-01 1.881626e-01 -4.419771e-01 -5.076163e-01 -3.755935e-01 -3.199432e-01 5.394214e-02 3.349662e-02 2.521843e-01 2.270471e-01 -2.998719e-01 -2.360213e-01 -4.016251e-01 -9.690921e-02 1.557989e-01 2.689790e-02 -1.271991e-01 -2.189642e-01 -3.108284e-01 -9.001444e-02 5.334324e-02
<VARIANCE> 39
 1.172054e+01 1.643477e+01 2.482596e+01 2.450028e+01 2.411636e+01 3.394479e+01 3.147109e+01 2.881214e+01 2.867038e+01 2.738904e+01 2.919778e+01 2.609151e+01 2.140389e+00 4.467216e-01 1.247020e+00 1.287254e+00 1.299509e+00 1.661987e+00 1.805051e+00 2.055493e+00 1.993510e+00 1.826874e+00 2.008512e+00 2.090342e+00 1.788457e+00 3.405965e-02 1.486902e-01 1.595869e-01 3.208902e-01 3.009174e-01 3.466589e-01 4.116567e-01 4.263072e-01 4.002277e-01 4.501616e-01 4.004981e-01 3.763687e-01 3.583180e-01 7.978127e-03
<GCONST> 9.426450e+01
<MIXTURE> 11 4.937293e-02
<MEAN> 39
 -6.999583e+00 3.849695e+00 -2.159856e+00 -1.950379e+00 5.981761e+00 1.027133e+00 1.036926e+00 1.209606e+00 5.742426e+00 -3.516749e+00 -8.904951e+00 -7.623374e+00 2.165924e+01 1.566650e-01 -3.078820e-02 1.497822e-01 5.834312e-02 1.501830e-01 3.588763e-02 -1.206878e-03 -3.115151e-02 -5.451050e-02 -7.570138e-02 3.411952e-02 7.566216e-02 1.099002e-03 -1.869486e-02 3.263656e-02 7.205326e-03 8.355499e-02 4.826074e-02 1.592873e-01 1.592443e-01 -1.298558e-01 -2.660420e-01 -4.019349e-02 3.224565e-01 3.033883e-01 2.163078e-02
<VARIANCE> 39
 4.747079e+00 7.656988e+00 1.793689e+01 1.239706e+01 2.076528e+01 1.700800e+01 1.462791e+01 1.545294e+01 2.205069e+01 1.847411e+01 1.439658e+01 1.559399e+01 2.595387e+00 1.007781e-01 2.237866e-01 4.148760e-01 5.732471e-01 7.792876e-01 8.573267e-01 9.741768e-01 1.104860e+00 1.175500e+00 1.171869e+00 1.277905e+00 9.738930e-01 8.191150e-03 2.023078e-02 4.554498e-02 9.813034e-02 1.085145e-01 1.500061e-01 1.414679e-01 1.663750e-01 1.814322e-01 1.696289e-01 1.750570e-01 1.977817e-01 1.636050e-01 1.543098e-03
<GCONST> 6.220948e+01
<MIXTURE> 12 5.794812e-02
<MEAN> 39
 -7.846443e+00 4.618346e+00 -3.700309e+00 -6.352160e-01 5.273631e+00 9.930212e-01 -2.149705e+00 -3.453239e+00 3.676212e+00 -1.384185e+00 -1.906163e+00 -2.915435e+00 2.143453e+01 1.224672e-02 -1.320716e-01 1.553353e-03 -5.042204e-02 -9.636855e-03 -9.401507e-02 -1.636652e-01 -9.623078e-02 -6.923387e-02 -5.060138e-02 -2.805171e-02 -3.247179e-02 -5.944666e-02 1.528717e-02 3.210130e-03 -1.767552e-02 -3.789091e-02 3.045454e-02 2.302983e-01 5.179202e-01 4.281010e-01 6.242151e-02 -2.139503e-01 -2.316040e-01 -8.662897e-02 3.746435e-02
<VARIANCE> 39
 3.740438e+00 8.734790e+00 1.587501e+01 1.379385e+01 1.968587e+01 1.842295e+01 1.630292e+01 1.842609e+01 2.726914e+01 2.155112e+01 2.298591e+01 1.643571e+01 2.782612e+00 1.606602e-01 2.952449e-01 5.266390e-01 7.113531e-01 9.092471e-01 1.148542e+00 1.332074e+00 1.427924e+00 1.535487e+00 1.331916e+00 1.457492e+00 1.146673e+00 1.606043e-02 2.789159e-02 5.750943e-02 1.080788e-01 1.308872e-01 1.654554e-01 1.973191e-01 1.851077e-01 2.334536e-01 2.609415e-01 2.354646e-01 2.538302e-01 2.106718e-01 3.787537e-03
<GCONST> 7.068758e+01
<MIXTURE> 13 5.830531e-02
<MEAN> 39
 -6.839971e+00 4.591744e+00 -1.636488e+00 -2.036746e+00 5.929808e+00 4.848352e+00 3.584068e+00 -9.407972e-01 -8.303157e-01 -8.392615e+00 -9.367269e+00 -4.964201e+00 2.194105e+01 -1.147034e-04 -1.781586e-01 -6.572828e-02 -1.199420e-01 -1.709720e-01 -2.461274e-01 -1.755960e-01 -3.496007e-02 -1.276935e-01 -7.355451e-02 -8.930200e-02 -8.108698e-02 -6.604876e-02 -4.515203e-02 -1.574249e-02 -7.412785e-02 3.873219e-02 -2.613275e-02 -1.638842e-01 -9.367318e-02 5.517852e-02 3.316306e-01 4.104571e-01 2.806104e-01 -5.511708e-03 1.264548e-03
<VARIANCE> 39
 3.890599e+00 6.870990e+00 1.373284e+01 1.182938e+01 1.761559e+01 1.818414e+01 1.970613e+01 1.975599e+01 1.843051e+01 1.456327e+01 2.275043e+01 1.730947e+01 2.583016e+00 1.135014e-01 2.768430e-01 5.326360e-01 6.238725e-01 7.644700e-01 9.225923e-01 1.180200e+00 1.173076e+00 1.132039e+00 1.300861e+00 1.389239e+00 1.129645e+00 9.556781e-03 2.342491e-02 4.805029e-02 9.275520e-02 1.011805e-01 1.572641e-01 1.735003e-01 1.718809e-01 1.830815e-01 1.976442e-01 1.910352e-01 2.559904e-01 2.125018e-01 2.094169e-03
<GCONST> 6.503101e+01
<MIXTURE> 14 5.249228e-02
<MEAN> 39
 2.748314e-01 1.843632e+00 -1.879896e+00 2.455553e+00 6.148958e+00 4.710083e+00 3.322652e+00 1.337892e+00 2.894031e+00 2.465910e+00 1.750319e+00 7.112086e-01 2.323897e+01 2.926470e-01 -5.055962e-01 -8.615518e-01 -9.094404e-02 2.758359e-01 5.682581e-01 7.139029e-01 6.606293e-02 -1.939441e-01 -2.477917e-01 -4.000932e-01 2.185971e-01 9.446519e-02 1.593286e-01 -1.301886e-01 -3.523748e-01 -3.254778e-01 -2.168196e-01 -6.116267e-02 2.486188e-01 3.372301e-01 1.565318e-03 -1.408048e-01 -3.051373e-01 -1.198611e-01 -1.531470e-03
<VARIANCE> 39
 8.898274e+00 9.843420e+00 1.151249e+01 1.597718e+01 1.523848e+01 1.596505e+01 1.590041e+01 1.560717e+01 1.691929e+01 1.709547e+01 1.583320e+01 1.787161e+01 9.208986e-01 2.651874e-01 6.164667e-01 1.003637e+00 1.126536e+00 1.348062e+00 1.453324e+00 1.464648e+00 1.572289e+00 1.625380e+00 1.631005e+00 1.457774e+00 1.616387e+00 5.089477e-02 6.192546e-02 1.421589e-01 1.952056e-01 1.857473e-01 2.620085e-01 2.424166e-01 2.505847e-01 2.872384e-01 3.345600e-01 3.086250e-01 2.877690e-01 3.115768e-01 8.698865e-03
<GCONST> 7.941096e+01
<MIXTURE> 15 4.690886e-02
<MEAN> 39
