~o
<STREAMINFO> 1 40
<VECSIZE> 40<NULLD><USER><DIAGC>
~s "silst"
<NUMMIXES> 36
<MIXTURE> 1 2.581035e-02
<MEAN> 40
 1.976400e+01 1.915540e+01 2.103197e+01 1.990857e+00 2.063237e+00 2.286737e+01 8.160707e+00 2.285356e+00 7.468292e-01 2.067085e+01 3.621567e+00 2.197628e+01 1.931881e+01 3.153708e+00 2.290285e+01 1.220942e+00 2.053147e+00 1.993745e+01 1.881549e+01 1.780540e+00 6.488812e-01 3.399872e+00 1.710924e+00 1.136180e+00 1.707107e+01 9.382245e-01 1.780024e+01 1.477880e+00 3.169000e+00 2.162234e+01 2.059920e+01 1.878584e+01 2.552032e+01 2.081144e+01 1.971476e+01 2.014672e+01 2.231596e+01 2.293123e+01 2.030396e+01 2.203920e+01
<VARIANCE> 40
 2.183582e-01 2.285248e-01 2.201715e+00 2.027870e+00 1.395902e+00 2.445250e-01 6.912796e+00 2.713237e+00 1.931528e+00 2.479775e-01 2.104815e+00 2.947882e-01 2.158227e-01 1.980545e+00 2.489614e-01 1.629423e+00 1.421116e+00 2.419481e+00 2.440215e-01 1.537638e+00 1.315897e+00 1.807305e+00 1.642243e+00 1.891284e+00 2.292174e+00 1.484736e+00 1.943413e-01 1.179200e+00 1.390406e+00 2.524264e-01 2.157355e-01 2.014386e-01 2.610422e+00 2.232812e-01 2.424528e-01 2.222089e-01 2.613479e-01 2.323995e-01 2.524348e-01 2.592175e-01
<GCONST> 5.973871e+01
<MIXTURE> 2 1.994946e-02
<MEAN> 40
 1.707193e+01 1.673660e+01 2.014010e+01 1.562283e+00 2.551646e+00 1.998121e+01 7.605189e+00 2.280435e+00 1.014108e+00 1.824804e+01 2.913682e+00 1.918285e+01 1.702554e+01 3.106362e+00 1.996426e+01 6.448775e-01 1.964020e+00 2.035909e+01 1.609698e+01 1.745767e+00 7.365979e-01 3.664274e+00 1.584412e+00 8.354735e-01 1.742773e+01 1.428278e+00 1.546490e+01 1.653547e+00 2.882337e+00 1.868277e+01 1.778556e+01 1.611129e+01 2.539202e+01 1.785694e+01 1.712961e+01 1.752152e+01 1.956921e+01 2.009653e+01 1.772392e+01 1.921466e+01
<VARIANCE> 40
 1.545234e-01 1.843483e-01 2.351525e+00 1.956309e+00 1.607542e+00 1.337626e-01 5.414340e+00 3.142852e+00 1.791613e+00 2.023871e-01 2.342848e+00 1.876552e-01 1.541713e-01 2.411094e+00 1.439278e-01 2.038005e+00 1.807575e+00 2.238670e+00 1.747718e-01 2.159742e+00 1.736818e+00 1.749049e+00 1.919500e+00 2.337522e+00 2.072481e+00 1.711560e+00 1.423096e-01 1.426432e+00 1.428269e+00 1.674631e-01 1.356239e-01 1.363755e-01 2.705799e+00 1.523744e-01 1.575018e-01 1.453296e-01 1.730229e-01 1.357655e-01 1.711887e-01 1.767080e-01
<GCONST> 5.410197e+01
<MIXTURE> 3 1.627722e-02
<MEAN> 40
 1.065746e+01 1.069978e+01 1.045240e+01 -2.544385e+00 1.362011e+00 1.168067e+01 -7.416587e+00 1.891695e+00 -4.960024e+00 1.172134e+01 -3.088508e-01 1.135509e+01 1.096374e+01 1.761093e+00 1.137607e+01 1.924811e+00 -6.985705e-01 1.290755e+01 9.456511e+00 9.794787e-02 -8.080687e-02 1.542584e+00 -3.129746e-01 -7.211711e-01 1.511792e+01 -1.269550e+00 1.036143e+01 -2.927330e-01 2.222843e+00 1.165031e+01 1.040145e+01 1.009599e+01 1.438071e+01 1.004147e+01 1.011132e+01 1.084270e+01 1.148545e+01 1.162690e+01 1.049961e+01 1.183818e+01
<VARIANCE> 40
 1.311004e+00 1.298181e+00 1.508657e+01 1.621921e+01 1.415189e+01 1.472393e+00 1.528311e+01 1.014682e+01 9.853888e+00 1.222258e+00 8.902037e+00 1.457840e+00 1.193459e+00 1.258308e+01 1.503713e+00 1.239488e+01 1.055863e+01 9.952592e+00 1.425994e+00 1.311747e+01 1.245309e+01 9.401981e+00 1.080773e+01 1.059326e+01 1.178351e+01 1.171103e+01 1.086266e+00 1.289847e+01 9.601591e+00 1.437204e+00 1.367105e+00 1.271707e+00 1.073421e+01 1.562457e+00 1.406750e+00 1.206072e+00 1.406981e+00 1.667077e+00 1.279422e+00 1.623682e+00
<GCONST> 1.310774e+02
<MIXTURE> 4 1.919948e-02
<MEAN> 40
 1.622993e+01 1.588748e+01 2.005583e+01 1.111089e+00 2.005661e+00 1.909838e+01 6.662604e+00 3.029840e+00 8.871275e-01 1.755150e+01 2.775960e+00 1.840169e+01 1.637297e+01 2.563941e+00 1.925563e+01 6.110545e-01 1.505238e+00 2.023892e+01 1.531019e+01 1.252747e+00 7.821916e-01 3.198380e+00 9.953790e-01 7.939705e-01 1.641840e+01 9.005234e-01 1.463835e+01 1.369471e+00 2.533633e+00 1.776819e+01 1.716172e+01 1.554394e+01 2.423336e+01 1.718763e+01 1.646846e+01 1.674867e+01 1.878103e+01 1.918518e+01 1.666558e+01 1.821403e+01
<VARIANCE> 40
 1.379877e-01 1.509919e-01 2.108730e+00 1.760615e+00 1.701842e+00 1.305347e-01 4.022793e+00 2.502078e+00 1.638944e+00 1.838257e-01 1.944688e+00 1.683152e-01 1.705083e-01 1.947799e+00 1.246992e-01 1.715931e+00 1.592839e+00 2.202437e+00 1.590903e-01 1.881900e+00 1.647866e+00 1.710420e+00 1.688468e+00 1.827078e+00 2.264059e+00 1.670533e+00 1.149475e-01 1.459800e+00 1.387083e+00 1.483056e-01 1.262930e-01 1.322751e-01 2.946519e+00 1.297684e-01 1.411851e-01 1.508621e-01 1.578200e-01 1.322252e-01 1.534725e-01 1.675225e-01
<GCONST> 5.054269e+01
<MIXTURE> 5 3.078933e-02
<MEAN> 40
 1.848170e+01 1.796357e+01 2.100811e+01 2.114410e+00 2.328672e+00 2.148555e+01 8.794773e+00 2.296294e+00 1.098848e+00 1.954061e+01 3.364823e+00 2.069506e+01 1.821314e+01 3.183753e+00 2.152919e+01 1.011074e+00 2.173574e+00 2.051599e+01 1.750483e+01 1.887294e+00 8.747782e-01 3.775889e+00 1.880113e+00 1.054390e+00 1.735687e+01 1.108486e+00 1.661866e+01 1.624764e+00 3.265734e+00 2.015809e+01 1.923102e+01 1.748354e+01 2.553856e+01 1.944486e+01 1.849164e+01 1.890056e+01 2.106890e+01 2.156848e+01 1.903130e+01 2.061626e+01
<VARIANCE> 40
 1.552058e-01 1.795713e-01 1.819994e+00 1.780134e+00 1.502512e+00 1.435483e-01 4.757320e+00 3.230631e+00 1.661748e+00 1.930757e-01 2.201200e+00 1.897852e-01 1.606599e-01 2.151125e+00 1.503963e-01 1.795872e+00 1.510004e+00 1.864472e+00 1.699678e-01 1.780954e+00 1.418224e+00 1.562616e+00 1.677492e+00 2.031690e+00 2.051077e+00 1.564605e+00 1.409073e-01 1.216245e+00 1.225128e+00 1.670600e-01 1.467954e-01 1.333746e-01 2.709816e+00 1.505553e-01 1.528527e-01 1.489172e-01 1.757218e-01 1.404435e-01 1.919715e-01 1.770066e-01
<GCONST> 5.190919e+01
<MIXTURE> 6 2.400997e-02
<MEAN> 40
 1.549762e+01 1.528287e+01 1.926675e+01 8.475351e-01 2.167441e+00 1.830391e+01 5.753025e+00 2.961725e+00 8.436678e-01 1.685582e+01 2.615516e+00 1.752050e+01 1.577034e+01 2.447474e+00 1.834273e+01 3.227333e-01 1.413957e+00 1.981291e+01 1.453446e+01 1.172587e+00 6.605694e-01 3.103707e+00 9.384628e-01 6.336001e-01 1.641987e+01 1.018964e+00 1.410722e+01 1.266517e+00 2.261263e+00 1.705475e+01 1.636318e+01 1.481150e+01 2.390236e+01 1.630320e+01 1.569783e+01 1.600359e+01 1.794827e+01 1.839613e+01 1.601831e+01 1.748889e+01
<VARIANCE> 40
 1.661990e-01 1.814462e-01 2.549703e+00 1.984371e+00 2.004276e+00 1.411277e-01 4.218701e+00 2.858256e+00 1.932336e+00 2.083797e-01 2.115854e+00 1.989660e-01 1.821357e-01 2.200675e+00 1.531179e-01 2.053057e+00 1.916053e+00 2.766243e+00 1.883329e-01 2.306383e+00 1.972548e+00 2.001409e+00 1.993084e+00 2.054553e+00 2.733596e+00 1.953924e+00 1.480896e-01 1.749881e+00 1.533427e+00 1.798898e-01 1.531738e-01 1.604378e-01 3.483853e+00 1.741695e-01 1.751832e-01 1.689776e-01 1.754895e-01 1.457549e-01 1.848248e-01 1.988243e-01
<GCONST> 5.697440e+01
<MIXTURE> 7 2.065473e-02
<MEAN> 40
 1.665127e+01 1.635464e+01 1.987918e+01 1.392823e+00 2.539715e+00 1.952689e+01 7.165743e+00 2.385867e+00 9.575320e-01 1.786931e+01 2.835917e+00 1.872449e+01 1.668367e+01 2.944098e+00 1.951077e+01 5.348093e-01 1.868834e+00 2.020584e+01 1.566652e+01 1.640415e+00 7.206630e-01 3.581323e+00 1.466480e+00 7.394884e-01 1.721829e+01 1.389737e+00 1.511387e+01 1.577749e+00 2.748479e+00 1.824926e+01 1.739301e+01 1.574002e+01 2.504063e+01 1.741751e+01 1.673819e+01 1.710662e+01 1.912954e+01 1.964654e+01 1.729125e+01 1.876734e+01
<VARIANCE> 40
 1.624081e-01 1.896977e-01 2.339519e+00 2.065961e+00 1.739202e+00 1.396046e-01 5.444120e+00 3.049408e+00 1.949907e+00 2.058302e-01 2.331147e+00 1.892067e-01 1.627713e-01 2.470248e+00 1.453263e-01 2.153635e+00 1.923801e+00 2.429640e+00 1.879629e-01 2.248989e+00 1.852605e+00 1.861699e+00 2.047519e+00 2.296290e+00 2.226521e+00 1.803528e+00 1.529461e-01 1.590382e+00 1.512865e+00 1.817662e-01 1.400752e-01 1.461167e-01 3.130375e+00 1.546571e-01 1.604493e-01 1.557162e-01 1.707214e-01 1.398217e-01 1.759527e-01 1.847503e-01
<GCONST> 5.588771e+01
<MIXTURE> 8 1.970718e-02
<MEAN> 40
 1.749552e+01 1.709476e+01 2.058797e+01 1.865041e+00 2.569777e+00 2.042620e+01 8.381779e+00 2.265486e+00 1.135505e+00 1.865129e+01 3.042488e+00 1.964334e+01 1.738404e+01 3.197443e+00 2.044541e+01 7.844034e-01 2.133784e+00 2.057699e+01 1.650795e+01 1.866649e+00 8.146333e-01 3.854996e+00 1.759502e+00 9.302667e-01 1.750070e+01 1.374434e+00 1.578223e+01 1.709643e+00 3.119291e+00 1.909190e+01 1.820930e+01 1.651185e+01 2.555049e+01 1.834451e+01 1.755472e+01 1.793802e+01 2.003248e+01 2.054650e+01 1.810662e+01 1.963058e+01
<VARIANCE> 40
 1.500738e-01 1.837311e-01 2.087219e+00 1.939047e+00 1.594288e+00 1.376167e-01 5.330924e+00 3.406630e+00 1.764995e+00 1.998019e-01 2.427278e+00 1.848073e-01 1.540252e-01 2.480651e+00 1.447932e-01 2.033638e+00 1.725245e+00 2.024696e+00 1.723984e-01 2.096505e+00 1.645557e+00 1.682492e+00 1.927453e+00 2.370984e+00 2.088986e+00 1.751680e+00 1.375634e-01 1.359276e+00 1.371656e+00 1.587847e-01 1.407371e-01 1.342300e-01 2.822037e+00 1.517492e-01 1.521476e-01 1.436746e-01 1.755303e-01 1.346921e-01 1.708232e-01 1.705749e-01
<GCONST> 5.362256e+01
<MIXTURE> 9 1.929235e-02
<MEAN> 40
 1.593507e+01 1.566637e+01 1.979203e+01 1.135027e+00 2.226287e+00 1.879165e+01 6.590255e+00 2.916227e+00 9.416075e-01 1.728248e+01 2.729386e+00 1.803218e+01 1.614679e+01 2.574253e+00 1.885229e+01 4.947066e-01 1.568207e+00 2.003364e+01 1.495908e+01 1.365735e+00 7.529834e-01 3.313783e+00 1.122503e+00 7.458640e-01 1.654365e+01 1.094410e+00 1.446188e+01 1.414907e+00 2.511993e+00 1.751316e+01 1.682205e+01 1.519920e+01 2.419147e+01 1.678071e+01 1.611735e+01 1.646238e+01 1.845239e+01 1.890103e+01 1.646164e+01 1.795057e+01
<VARIANCE> 40
 1.578937e-01 1.793591e-01 2.157213e+00 1.859264e+00 1.915533e+00 1.350001e-01 4.118593e+00 2.939244e+00 1.738232e+00 1.929187e-01 2.112445e+00 1.757847e-01 1.709353e-01 2.216626e+00 1.273522e-01 1.940292e+00 1.840328e+00 2.414376e+00 1.762261e-01 2.164348e+00 1.767573e+00 1.859095e+00 1.937029e+00 1.989341e+00 2.568983e+00 1.882594e+00 1.479926e-01 1.583982e+00 1.459006e+00 1.738205e-01 1.384682e-01 1.429846e-01 3.437526e+00 1.453704e-01 1.510477e-01 1.589005e-01 1.586800e-01 1.431111e-01 1.902807e-01 1.949641e-01
<GCONST> 5.442438e+01
<MIXTURE> 10 2.741126e-02
<MEAN> 40
 1.494999e+01 1.478674e+01 1.891158e+01 5.349924e-01 1.847267e+00 1.768557e+01 4.725718e+00 3.152975e+00 7.371957e-01 1.637262e+01 2.511598e+00 1.691905e+01 1.530222e+01 2.130143e+00 1.773693e+01 1.648388e-01 1.149953e+00 1.949761e+01 1.400884e+01 8.635255e-01 6.374925e-01 2.734289e+00 6.851830e-01 5.533874e-01 1.596604e+01 7.525975e-01 1.364512e+01 1.097441e+00 1.836848e+00 1.646650e+01 1.582571e+01 1.435375e+01 2.325320e+01 1.576126e+01 1.519515e+01 1.546707e+01 1.734332e+01 1.774811e+01 1.541653e+01 1.685804e+01
<VARIANCE> 40
 1.723340e-01 1.816475e-01 2.600478e+00 2.003004e+00 2.141868e+00 1.470794e-01 4.228711e+00 2.698845e+00 1.907976e+00 2.084962e-01 1.995504e+00 2.078376e-01 1.952472e-01 2.120675e+00 1.554840e-01 2.011728e+00 1.869009e+00 3.006933e+00 1.840478e-01 2.233549e+00 1.893411e+00 2.040972e+00 1.996778e+00 1.877777e+00 3.056596e+00 2.006731e+00 1.479142e-01 1.781297e+00 1.656760e+00 1.897118e-01 1.486576e-01 1.627785e-01 3.621075e+00 1.726506e-01 1.825978e-01 1.760738e-01 1.828301e-01 1.644148e-01 1.913514e-01 2.115705e-01
<GCONST> 5.762868e+01
<MIXTURE> 11 2.894773e-02
<MEAN> 40
 1.796403e+01 1.751328e+01 2.065620e+01 1.903921e+00 2.394672e+00 2.091508e+01 8.303272e+00 2.276807e+00 1.040552e+00 1.906681e+01 3.194255e+00 2.013564e+01 1.777724e+01 3.072164e+00 2.094049e+01 8.685175e-01 2.105241e+00 2.038591e+01 1.697724e+01 1.825102e+00 8.378897e-01 3.725951e+00 1.750896e+00 9.358820e-01 1.735673e+01 1.197402e+00 1.619559e+01 1.618228e+00 3.117693e+00 1.962238e+01 1.870144e+01 1.698187e+01 2.542027e+01 1.885766e+01 1.798940e+01 1.838692e+01 2.049988e+01 2.102180e+01 1.855257e+01 2.010277e+01
<VARIANCE> 40
 1.519263e-01 1.799267e-01 2.024132e+00 1.855813e+00 1.529020e+00 1.383222e-01 4.941767e+00 3.277011e+00 1.718936e+00 1.948084e-01 2.282008e+00 1.875072e-01 1.572137e-01 2.289876e+00 1.442427e-01 1.911232e+00 1.619142e+00 2.050825e+00 1.703424e-01 1.904668e+00 1.543770e+00 1.599783e+00 1.772379e+00 2.174340e+00 2.130251e+00 1.623237e+00 1.378768e-01 1.295040e+00 1.295113e+00 1.588243e-01 1.399770e-01 1.310019e-01 2.829152e+00 1.500783e-01 1.520010e-01 1.454371e-01 1.756020e-01 1.345060e-01 1.760989e-01 1.708127e-01
<GCONST> 5.256422e+01
<MIXTURE> 12 2.388602e-02
<MEAN> 40
 1.649939e+01 1.625483e+01 1.794656e+01 5.217781e-01 1.970715e+00 1.926266e+01 4.510581e+00 2.346292e+00 3.848088e-01 1.752023e+01 2.555264e+00 1.831730e+01 1.646174e+01 2.261805e+00 1.908805e+01 9.061485e-02 1.300421e+00 1.862475e+01 1.553676e+01 9.574172e-01 6.144961e-01 2.446439e+00 9.257071e-01 2.708684e-01 1.678911e+01 1.048249e+00 1.513660e+01 1.123185e+00 1.741215e+00 1.823936e+01 1.711939e+01 1.562083e+01 2.449024e+01 1.712723e+01 1.641482e+01 1.683984e+01 1.870328e+01 1.929393e+01 1.718666e+01 1.863612e+01
<VARIANCE> 40
 1.723574e-01 1.889129e-01 1.953919e+00 1.776343e+00 1.618089e+00 1.516148e-01 3.059263e+00 2.107441e+00 1.680976e+00 1.993181e-01 1.903264e+00 2.045443e-01 1.592113e-01 1.733734e+00 1.349351e-01 1.654690e+00 1.640899e+00 2.570799e+00 1.873743e-01 1.920767e+00 1.727649e+00 1.599238e+00 1.694114e+00 1.793129e+00 2.351524e+00 1.440318e+00 1.250060e-01 1.424815e+00 1.269630e+00 1.650517e-01 1.265536e-01 1.546175e-01 2.836744e+00 1.652849e-01 1.799227e-01 1.497802e-01 1.747203e-01 1.442004e-01 1.415961e-01 1.821334e-01
<GCONST> 5.180254e+01
<MIXTURE> 13 3.753139e-02
<MEAN> 40
 1.718241e+01 1.682172e+01 1.866109e+01 4.970038e-01 1.384353e+00 1.997614e+01 4.311000e+00 2.709825e+00 2.729469e-01 1.819224e+01 2.608635e+00 1.910143e+01 1.704818e+01 1.831359e+00 1.990556e+01 3.391828e-01 1.099627e+00 1.835854e+01 1.623752e+01 7.954608e-01 7.421112e-01 2.218737e+00 7.229671e-01 3.557004e-01 1.605609e+01 5.540769e-01 1.572044e+01 1.118680e+00 1.567597e+00 1.895844e+01 1.795728e+01 1.639263e+01 2.407416e+01 1.799487e+01 1.708887e+01 1.764650e+01 1.949141e+01 1.999993e+01 1.771311e+01 1.929712e+01
<VARIANCE> 40
 1.709091e-01 1.680648e-01 2.075905e+00 1.406903e+00 1.428492e+00 1.452463e-01 2.480481e+00 1.932330e+00 1.378814e+00 1.873057e-01 1.621973e+00 2.010213e-01 1.714602e-01 1.411221e+00 1.219751e-01 1.326296e+00 1.298476e+00 2.488802e+00 1.775558e-01 1.419807e+00 1.363724e+00 1.367811e+00 1.409177e+00 1.437807e+00 2.665251e+00 1.299432e+00 1.192265e-01 1.235962e+00 1.097147e+00 1.594512e-01 1.189399e-01 1.365860e-01 3.045213e+00 1.393760e-01 1.601977e-01 1.533461e-01 1.572834e-01 1.350327e-01 1.576587e-01 1.749071e-01
<GCONST> 4.789885e+01
<MIXTURE> 14 3.644598e-02
<MEAN> 40
 1.684256e+01 1.649996e+01 1.835067e+01 3.101577e-01 1.204012e+00 1.957233e+01 3.810405e+00 2.758023e+00 2.447300e-01 1.783661e+01 2.476711e+00 1.869276e+01 1.669792e+01 1.692781e+00 1.951108e+01 2.450143e-01 9.377173e-01 1.820498e+01 1.592183e+01 5.799016e-01 7.786390e-01 2.035190e+00 5.238946e-01 2.894401e-01 1.583522e+01 4.211205e-01 1.540287e+01 1.085873e+00 1.321730e+00 1.853596e+01 1.756753e+01 1.607432e+01 2.396884e+01 1.765132e+01 1.677789e+01 1.729586e+01 1.910291e+01 1.956753e+01 1.730597e+01 1.889712e+01
<VARIANCE> 40
 1.697062e-01 1.604514e-01 2.140820e+00 1.421927e+00 1.419043e+00 1.428879e-01 2.425457e+00 1.827255e+00 1.390659e+00 1.783268e-01 1.541029e+00 1.956773e-01 1.717115e-01 1.363614e+00 1.221272e-01 1.290739e+00 1.271863e+00 2.677965e+00 1.701156e-01 1.351593e+00 1.351835e+00 1.361787e+00 1.395623e+00 1.391252e+00 2.691988e+00 1.311496e+00 1.154492e-01 1.256168e+00 1.093561e+00 1.602736e-01 1.125876e-01 1.364768e-01 2.988514e+00 1.380811e-01 1.617824e-01 1.557095e-01 1.588316e-01 1.332482e-01 1.452204e-01 1.636510e-01
<GCONST> 4.730698e+01
<MIXTURE> 15 4.306795e-02
<MEAN> 40
 1.821408e+01 1.772437e+01 1.988210e+01 1.027172e+00 1.512796e+00 2.108717e+01 5.742663e+00 2.602370e+00 3.361582e-01 1.919152e+01 3.060692e+00 2.030016e+01 1.794873e+01 2.226565e+00 2.115103e+01 7.184199e-01 1.406277e+00 1.925957e+01 1.725512e+01 1.144372e+00 7.397004e-01 2.612375e+00 1.001691e+00 6.481111e-01 1.636190e+01 5.488628e-01 1.648306e+01 1.224052e+00 2.273596e+00 1.995559e+01 1.905381e+01 1.737154e+01 2.444129e+01 1.913615e+01 1.816224e+01 1.862311e+01 2.061354e+01 2.116127e+01 1.868435e+01 2.035392e+01
<VARIANCE> 40
 1.616618e-01 1.629627e-01 2.073380e+00 1.406352e+00 1.357366e+00 1.367866e-01 3.110680e+00 2.020106e+00 1.431223e+00 1.804351e-01 1.711099e+00 1.977408e-01 1.676418e-01 1.457746e+00 1.316707e-01 1.335784e+00 1.254072e+00 2.258015e+00 1.735156e-01 1.372029e+00 1.304875e+00 1.310414e+00 1.330807e+00 1.499199e+00 2.237533e+00 1.294984e+00 1.315289e-01 1.163327e+00 1.137074e+00 1.636255e-01 1.246864e-01 1.312996e-01 2.685155e+00 1.281546e-01 1.530065e-01 1.517344e-01 1.580062e-01 1.285905e-01 1.664523e-01 1.712181e-01
<GCONST> 4.746023e+01
<MIXTURE> 16 2.936427e-02
<MEAN> 40
 1.575824e+01 1.549615e+01 1.652871e+01 -2.948765e-01 1.179108e+00 1.828139e+01 1.971271e+00 2.745834e+00 1.186100e-01 1.670569e+01 1.776847e+00 1.729395e+01 1.569893e+01 1.383588e+00 1.804857e+01 -1.420882e-01 5.677667e-01 1.735328e+01 1.482873e+01 1.104019e-01 5.960391e-01 1.560143e+00 2.447067e-01 1.221673e-01 1.593624e+01 4.732713e-01 1.455270e+01 6.730399e-01 7.251407e-01 1.738771e+01 1.625211e+01 1.505889e+01 2.353184e+01 1.635213e+01 1.561758e+01 1.607638e+01 1.772732e+01 1.816559e+01 1.615992e+01 1.775489e+01
<VARIANCE> 40
 1.896601e-01 2.102193e-01 2.581899e+00 1.946454e+00 2.033592e+00 1.695152e-01 3.238136e+00 2.119814e+00 2.085204e+00 1.966043e-01 1.762830e+00 2.193780e-01 1.910916e-01 1.878554e+00 1.605267e-01 1.717182e+00 1.736879e+00 3.603664e+00 1.941283e-01 1.986335e+00 1.905077e+00 1.847672e+00 1.883488e+00 1.816854e+00 3.236067e+00 1.732439e+00 1.422392e-01 1.832067e+00 1.466966e+00 1.872634e-01 1.279566e-01 1.756559e-01 3.383397e+00 1.759062e-01 2.052315e-01 1.814669e-01 1.861874e-01 1.678468e-01 1.727178e-01 1.901210e-01
<GCONST> 5.658437e+01
<MIXTURE> 17 3.579947e-02
<MEAN> 40
 1.538262e+01 1.515277e+01 1.838138e+01 1.909070e-01 1.229898e+00 1.803641e+01 3.420931e+00 3.104092e+00 3.904886e-01 1.665466e+01 2.356092e+00 1.726014e+01 1.554762e+01 1.606648e+00 1.805468e+01 1.251456e-01 8.010483e-01 1.860571e+01 1.448874e+01 3.680594e-01 7.144076e-01 2.070225e+00 3.773426e-01 3.955223e-01 1.552179e+01 3.580436e-01 1.407437e+01 9.744519e-01 1.169749e+00 1.690233e+01 1.616948e+01 1.476985e+01 2.310367e+01 1.619357e+01 1.552263e+01 1.587609e+01 1.764095e+01 1.802634e+01 1.576544e+01 1.726944e+01
<VARIANCE> 40
 1.651824e-01 1.689909e-01 2.626671e+00 1.671608e+00 1.658263e+00 1.382940e-01 2.901458e+00 2.105886e+00 1.531685e+00 1.807774e-01 1.668898e+00 1.948148e-01 1.923731e-01 1.628453e+00 1.321188e-01 1.538491e+00 1.498957e+00 3.122074e+00 1.682850e-01 1.587401e+00 1.551966e+00 1.568325e+00 1.603193e+00 1.507558e+00 2.939676e+00 1.579775e+00 1.312052e-01 1.546379e+00 1.374126e+00 1.733394e-01 1.264971e-01 1.468360e-01 3.186128e+00 1.512188e-01 1.714837e-01 1.714192e-01 1.683784e-01 1.443384e-01 1.590204e-01 1.747344e-01
<GCONST> 5.154938e+01
<MIXTURE> 18 2.914996e-02
<MEAN> 40
 1.762992e+01 1.727114e+01 1.882559e+01 7.700183e-01 1.827859e+00 2.049117e+01 5.049776e+00 2.381899e+00 2.767662e-01 1.866624e+01 2.791996e+00 1.965524e+01 1.749961e+01 2.139364e+00 2.036761e+01 3.783101e-01 1.398019e+00 1.867183e+01 1.667241e+01 1.227304e+00 6.470993e-01 2.576450e+00 1.089442e+00 4.540904e-01 1.671348e+01 8.848870e-01 1.616011e+01 1.181166e+00 2.011403e+00 1.951507e+01 1.840241e+01 1.677633e+01 2.442488e+01 1.839890e+01 1.752254e+01 1.803845e+01 1.995020e+01 2.054292e+01 1.832137e+01 1.985139e+01
<VARIANCE> 40
 1.736214e-01 1.742569e-01 1.798367e+00 1.549744e+00 1.473116e+00 1.576336e-01 2.881278e+00 2.220932e+00 1.499553e+00 2.023017e-01 1.802762e+00 2.071262e-01 1.629574e-01 1.628701e+00 1.254795e-01 1.491987e+00 1.489801e+00 2.198303e+00 1.932310e-01 1.606911e+00 1.526081e+00 1.480470e+00 1.532979e+00 1.674974e+00 2.353395e+00 1.340527e+00 1.207273e-01 1.310897e+00 1.186502e+00 1.534284e-01 1.313668e-01 1.436616e-01 3.026976e+00 1.529301e-01 1.741911e-01 1.600861e-01 1.682114e-01 1.421795e-01 1.486792e-01 1.810074e-01
<GCONST> 4.996656e+01
<MIXTURE> 19 4.466084e-02
<MEAN> 40
 1.907822e+01 1.851493e+01 2.067533e+01 1.715780e+00 1.935045e+00 2.208191e+01 7.529613e+00 2.345346e+00 6.760125e-01 2.002171e+01 3.423646e+00 2.124494e+01 1.870443e+01 2.847064e+00 2.212913e+01 1.012287e+00 1.888288e+00 1.983569e+01 1.811487e+01 1.627729e+00 7.299688e-01 3.214127e+00 1.539032e+00 9.439349e-01 1.693326e+01 8.371344e-01 1.720005e+01 1.419199e+00 2.917312e+00 2.086674e+01 1.988847e+01 1.812991e+01 2.523253e+01 2.005746e+01 1.902269e+01 1.946687e+01 2.157992e+01 2.215851e+01 1.959805e+01 2.128793e+01
<VARIANCE> 40
 1.665399e-01 1.791984e-01 2.195772e+00 1.872476e+00 1.461154e+00 1.537362e-01 6.187442e+00 2.558285e+00 1.801962e+00 1.925760e-01 1.996183e+00 2.123389e-01 1.675751e-01 1.934184e+00 1.555155e-01 1.559217e+00 1.428522e+00 2.437081e+00 1.820814e-01 1.568829e+00 1.326886e+00 1.734748e+00 1.604558e+00 1.819179e+00 2.308395e+00 1.447159e+00 1.519511e-01 1.185069e+00 1.362796e+00 1.863567e-01 1.504180e-01 1.514795e-01 2.706350e+00 1.475905e-01 1.671386e-01 1.589122e-01 1.816922e-01 1.448558e-01 1.858637e-01 1.891900e-01
<GCONST> 5.293320e+01
<MIXTURE> 20 1.175079e-02
<MEAN> 40
 1.368440e+01 1.375840e+01 1.331156e+01 -1.796870e+00 1.120142e+00 1.535413e+01 -4.727188e+00 2.036381e+00 -3.099733e+00 1.479186e+01 4.958609e-01 1.489193e+01 1.380736e+01 1.252096e+00 1.509936e+01 1.295357e+00 -8.359433e-02 1.417432e+01 1.272941e+01 2.097456e-01 5.168582e-01 2.014161e+00 -1.258533e-01 -3.301492e-01 1.520047e+01 -3.441932e-01 1.307860e+01 2.353131e-01 1.241435e+00 1.514757e+01 1.390382e+01 1.317598e+01 1.807053e+01 1.370792e+01 1.329320e+01 1.393865e+01 1.507092e+01 1.549917e+01 1.379445e+01 1.551873e+01
<VARIANCE> 40
 5.736381e-01 5.710145e-01 1.044501e+01 9.471548e+00 8.042370e+00 5.856082e-01 1.614433e+01 6.694607e+00 7.732224e+00 4.791468e-01 5.628712e+00 5.623012e-01 5.720057e-01 7.514391e+00 6.205409e-01 7.536476e+00 6.439455e+00 1.088759e+01 5.949106e-01 7.528193e+00 6.903473e+00 6.458746e+00 6.393195e+00 6.304676e+00 7.827954e+00 7.102360e+00 4.601152e-01 8.011106e+00 6.286427e+00 5.900403e-01 4.727180e-01 5.224459e-01 9.818910e+00 5.541652e-01 6.549484e-01 5.021750e-01 5.646622e-01 6.149096e-01 5.232820e-01 5.827566e-01
<GCONST> 1.055035e+02
<MIXTURE> 21 2.594119e-02
<MEAN> 40
 1.720176e+01 1.681449e+01 1.798716e+01 -6.160079e-02 1.120676e+00 1.959750e+01 2.125045e+00 2.498341e+00 -2.576742e-01 1.806345e+01 2.157852e+00 1.881477e+01 1.691193e+01 1.239454e+00 1.959467e+01 1.463579e-01 7.623413e-01 1.781136e+01 1.611118e+01 4.040846e-01 4.690418e-01 1.705856e+00 3.206080e-01 3.365633e-01 1.590665e+01 3.205396e-01 1.570776e+01 7.194428e-01 1.083154e+00 1.876325e+01 1.774970e+01 1.642661e+01 2.334221e+01 1.779477e+01 1.702917e+01 1.740884e+01 1.910030e+01 1.970884e+01 1.750183e+01 1.933995e+01
<VARIANCE> 40
 1.957931e-01 2.185441e-01 3.797407e+00 2.193659e+00 2.305915e+00 1.729754e-01 3.367510e+00 2.380170e+00 2.458770e+00 2.121885e-01 2.056911e+00 2.521751e-01 2.136154e-01 2.132599e+00 1.893412e-01 2.031557e+00 1.887378e+00 4.202713e+00 2.447359e-01 2.127165e+00 1.989787e+00 2.097646e+00 2.059081e+00 2.055938e+00 3.746779e+00 1.965152e+00 1.664902e-01 2.102910e+00 1.869356e+00 2.325873e-01 1.496946e-01 1.817699e-01 3.937499e+00 1.821991e-01 2.149514e-01 2.141365e-01 2.060889e-01 1.603498e-01 1.956673e-01 1.847603e-01
<GCONST> 6.125644e+01
<MIXTURE> 22 2.899516e-02
<MEAN> 40
 1.585975e+01 1.554108e+01 1.930848e+01 2.109680e-01 9.463426e-01 1.842086e+01 3.161731e+00 3.165992e+00 2.695583e-01 1.715134e+01 2.423694e+00 1.781000e+01 1.591845e+01 1.343379e+00 1.857060e+01 2.573975e-01 7.316344e-01 1.906640e+01 1.490209e+01 3.278062e-01 6.709678e-01 2.020811e+00 2.956325e-01 5.173332e-01 1.532513e+01 -2.099148e-03 1.441472e+01 9.365929e-01 1.234512e+00 1.723990e+01 1.667012e+01 1.526446e+01 2.265328e+01 1.669107e+01 1.600923e+01 1.633871e+01 1.811224e+01 1.846662e+01 1.606805e+01 1.771052e+01
<VARIANCE> 40
 1.716687e-01 1.662751e-01 2.394797e+00 1.667570e+00 1.652107e+00 1.418643e-01 2.797438e+00 2.157666e+00 1.656610e+00 1.790107e-01 1.736939e+00 2.088796e-01 2.091310e-01 1.600736e+00 1.493341e-01 1.583723e+00 1.503021e+00 2.877435e+00 1.801835e-01 1.548355e+00 1.572922e+00 1.688970e+00 1.644956e+00 1.565735e+00 3.021020e+00 1.534396e+00 1.387254e-01 1.688844e+00 1.447534e+00 1.628989e-01 1.355342e-01 1.442957e-01 3.292610e+00 1.492759e-01 1.693961e-01 1.798383e-01 1.781740e-01 1.479486e-01 1.437779e-01 1.812972e-01
<GCONST> 5.225459e+01
<MIXTURE> 23 2.145039e-02
<MEAN> 40
 1.637476e+01 1.606528e+01 1.805369e+01 -6.483804e-02 1.465548e+00 1.873640e+01 2.143807e+00 2.401425e+00 -1.456500e-01 1.740415e+01 2.114436e+00 1.806536e+01 1.624881e+01 1.509043e+00 1.875094e+01 -3.234452e-02 8.224795e-01 1.892460e+01 1.533133e+01 3.799521e-01 3.603340e-01 2.025994e+00 5.464967e-01 3.535121e-01 1.662976e+01 3.956169e-01 1.494858e+01 6.251881e-01 1.490673e+00 1.774453e+01 1.684118e+01 1.562238e+01 2.316925e+01 1.691701e+01 1.637679e+01 1.654788e+01 1.824167e+01 1.883876e+01 1.671062e+01 1.840487e+01
<VARIANCE> 40
 2.042678e-01 2.205793e-01 3.799032e+00 2.697416e+00 2.799646e+00 1.835821e-01 4.437288e+00 2.605561e+00 3.080769e+00 2.451769e-01 2.555377e+00 2.530036e-01 2.302729e-01 2.709410e+00 2.095465e-01 2.684376e+00 2.459778e+00 3.944299e+00 2.468147e-01 2.772645e+00 2.591573e+00 2.707784e+00 2.606754e+00 2.493494e+00 3.313965e+00 2.508201e+00 1.748172e-01 2.657604e+00 2.086216e+00 2.252832e-01 1.590588e-01 1.920258e-01 4.551011e+00 1.955518e-01 2.033271e-01 2.113855e-01 2.127001e-01 1.794537e-01 2.087964e-01 1.963161e-01
<GCONST> 6.585749e+01
<MIXTURE> 24 3.091906e-02
<MEAN> 40
 1.670331e+01 1.632210e+01 1.759698e+01 -1.346337e-01 8.358070e-01 1.916346e+01 2.068611e+00 2.817811e+00 1.264380e-02 1.759615e+01 1.936660e+00 1.830864e+01 1.645801e+01 1.083437e+00 1.908570e+01 1.034601e-01 5.805113e-01 1.728403e+01 1.567608e+01 1.994684e-01 6.377336e-01 1.493890e+00 1.326694e-01 2.692457e-01 1.543988e+01 1.936803e-01 1.532512e+01 7.662886e-01 7.003562e-01 1.831588e+01 1.728281e+01 1.597593e+01 2.326920e+01 1.737535e+01 1.653082e+01 1.704721e+01 1.869284e+01 1.916443e+01 1.697930e+01 1.876975e+01
<VARIANCE> 40
 1.842521e-01 2.027812e-01 3.261256e+00 1.659465e+00 1.671590e+00 1.585981e-01 2.351371e+00 1.927654e+00 1.771784e+00 1.915496e-01 1.607199e+00 2.307019e-01 2.042703e-01 1.534968e+00 1.568240e-01 1.549879e+00 1.475889e+00 3.537426e+00 2.047617e-01 1.575013e+00 1.578385e+00 1.567717e+00 1.641563e+00 1.584902e+00 3.227753e+00 1.516261e+00 1.465329e-01 1.656289e+00 1.305569e+00 1.990354e-01 1.263109e-01 1.633377e-01 3.586467e+00 1.503259e-01 1.990752e-01 1.846652e-01 1.760391e-01 1.529706e-01 1.592923e-01 1.765888e-01
<GCONST> 5.367346e+01
<MIXTURE> 25 3.605478e-02
<MEAN> 40
 1.867215e+01 1.815455e+01 1.966183e+01 8.987756e-01 1.447019e+00 2.150930e+01 5.260254e+00 2.498171e+00 1.501440e-01 1.954476e+01 3.068392e+00 2.066512e+01 1.830382e+01 2.112175e+00 2.155726e+01 7.155119e-01 1.376389e+00 1.881171e+01 1.767952e+01 1.123922e+00 6.069292e-01 2.420409e+00 9.245222e-01 5.717663e-01 1.628797e+01 5.525557e-01 1.691811e+01 1.179010e+00 2.128595e+00 2.047757e+01 1.949510e+01 1.781740e+01 2.452646e+01 1.955259e+01 1.854555e+01 1.902354e+01 2.098189e+01 2.160785e+01 1.913689e+01 2.089292e+01
<VARIANCE> 40
 1.720872e-01 1.778287e-01 2.413335e+00 1.571088e+00 1.384766e+00 1.578255e-01 3.716426e+00 2.070302e+00 1.620548e+00 1.882551e-01 1.791653e+00 2.286398e-01 1.753770e-01 1.526876e+00 1.575834e-01 1.359214e+00 1.274058e+00 2.630798e+00 1.941944e-01 1.372983e+00 1.322917e+00 1.416462e+00 1.414882e+00 1.552569e+00 2.506874e+00 1.332249e+00 1.401294e-01 1.214560e+00 1.267791e+00 1.802835e-01 1.331726e-01 1.441707e-01 2.835162e+00 1.407061e-01 1.722428e-01 1.626842e-01 1.805005e-01 1.393414e-01 1.726817e-01 1.820964e-01
<GCONST> 5.061541e+01
<MIXTURE> 26 2.881583e-02
<MEAN> 40
 1.763251e+01 1.718318e+01 1.850733e+01 1.389193e-01 9.477530e-01 2.013971e+01 2.898276e+00 2.658229e+00 -1.018993e-01 1.844774e+01 2.409913e+00 1.931092e+01 1.725589e+01 1.341037e+00 2.018376e+01 3.213345e-01 8.427173e-01 1.787908e+01 1.656834e+01 4.837331e-01 5.792310e-01 1.724409e+00 2.833172e-01 3.453656e-01 1.560256e+01 2.177897e-01 1.603245e+01 9.272284e-01 1.130230e+00 1.923247e+01 1.827657e+01 1.683075e+01 2.369750e+01 1.835433e+01 1.746066e+01 1.792315e+01 1.967209e+01 2.024347e+01 1.791440e+01 1.976229e+01
<VARIANCE> 40
 1.806234e-01 1.939008e-01 3.205559e+00 1.701110e+00 1.627424e+00 1.504008e-01 2.824111e+00 1.980795e+00 1.866875e+00 1.938134e-01 1.762271e+00 2.352799e-01 1.947106e-01 1.534016e+00 1.659279e-01 1.502258e+00 1.394633e+00 3.469897e+00 2.120081e-01 1.531102e+00 1.488784e+00 1.529403e+00 1.543229e+00 1.601848e+00 3.147411e+00 1.487668e+00 1.432378e-01 1.557864e+00 1.363253e+00 1.976685e-01 1.333272e-01 1.616708e-01 3.420173e+00 1.417359e-01 1.790636e-01 1.858189e-01 1.866086e-01 1.415081e-01 1.655770e-01 1.731415e-01
<GCONST> 5.344090e+01
<MIXTURE> 27 2.938456e-02
<MEAN> 40
 1.774157e+01 1.723714e+01 2.040035e+01 1.111794e+00 1.380879e+00 2.061049e+01 6.228089e+00 2.907941e+00 4.935036e-01 1.880266e+01 3.100446e+00 1.988070e+01 1.754851e+01 2.296947e+00 2.080139e+01 8.207052e-01 1.351859e+00 1.984959e+01 1.680797e+01 1.002134e+00 8.819940e-01 2.716187e+00 9.182386e-01 7.465837e-01 1.611233e+01 3.803668e-01 1.593168e+01 1.253841e+00 2.413634e+00 1.931777e+01 1.862727e+01 1.696162e+01 2.426486e+01 1.875056e+01 1.779919e+01 1.819369e+01 2.023046e+01 2.067872e+01 1.806193e+01 1.973976e+01
<VARIANCE> 40
 1.455963e-01 1.434607e-01 1.774481e+00 1.391964e+00 1.268161e+00 1.279203e-01 3.205781e+00 1.999596e+00 1.404044e+00 1.712258e-01 1.633353e+00 1.844573e-01 1.752483e-01 1.437467e+00 1.135146e-01 1.314690e+00 1.195781e+00 1.983998e+00 1.539357e-01 1.312136e+00 1.301522e+00 1.287134e+00 1.288897e+00 1.380599e+00 2.039014e+00 1.225929e+00 1.094579e-01 1.148517e+00 1.135163e+00 1.427687e-01 1.239661e-01 1.177773e-01 2.485507e+00 1.120652e-01 1.331947e-01 1.450079e-01 1.518089e-01 1.218465e-01 1.366508e-01 1.519448e-01
<GCONST> 4.474658e+01
<MIXTURE> 28 2.695518e-02
<MEAN> 40
 1.807833e+01 1.762246e+01 1.864488e+01 3.135773e-01 1.173893e+00 2.070379e+01 3.483882e+00 2.558976e+00 -1.142476e-01 1.889370e+01 2.597867e+00 1.983475e+01 1.770444e+01 1.560815e+00 2.071816e+01 4.149962e-01 1.013157e+00 1.793311e+01 1.703292e+01 7.375976e-01 5.346916e-01 1.918777e+00 5.055879e-01 3.440885e-01 1.586595e+01 4.104770e-01 1.645947e+01 9.891337e-01 1.399409e+00 1.982079e+01 1.879180e+01 1.726454e+01 2.403742e+01 1.883243e+01 1.787892e+01 1.838041e+01 2.018887e+01 2.081466e+01 1.847481e+01 2.028977e+01
<VARIANCE> 40
 1.892154e-01 1.983214e-01 2.745019e+00 1.705264e+00 1.614025e+00 1.645587e-01 3.251672e+00 2.074888e+00 1.892119e+00 1.940775e-01 1.807064e+00 2.285701e-01 1.912757e-01 1.575817e+00 1.550462e-01 1.468953e+00 1.389628e+00 2.990525e+00 2.231599e-01 1.510600e+00 1.468411e+00 1.569575e+00 1.554953e+00 1.617098e+00 3.004366e+00 1.487297e+00 1.483830e-01 1.489417e+00 1.348526e+00 1.987524e-01 1.328572e-01 1.634551e-01 3.345999e+00 1.415427e-01 1.828572e-01 1.785876e-01 1.806475e-01 1.425582e-01 1.774163e-01 1.899743e-01
<GCONST> 5.351122e+01
<MIXTURE> 29 2.684251e-02
<MEAN> 40
 1.515663e+01 1.493611e+01 1.657786e+01 -3.239741e-01 1.123718e+00 1.769679e+01 1.994936e+00 2.898845e+00 2.000654e-01 1.621038e+01 1.809551e+00 1.671337e+01 1.521432e+01 1.387967e+00 1.748046e+01 -1.563317e-01 5.326828e-01 1.744573e+01 1.427370e+01 -1.123222e-02 6.102355e-01 1.584225e+00 1.850250e-01 1.191626e-01 1.573452e+01 4.199688e-01 1.400827e+01 7.027935e-01 6.275507e-01 1.673289e+01 1.569106e+01 1.451208e+01 2.334052e+01 1.577691e+01 1.509978e+01 1.553019e+01 1.716655e+01 1.754262e+01 1.553263e+01 1.706301e+01
<VARIANCE> 40
 1.965159e-01 2.103705e-01 2.905334e+00 1.934174e+00 1.955779e+00 1.678495e-01 3.125768e+00 2.087176e+00 1.934834e+00 1.881664e-01 1.745748e+00 2.144073e-01 1.950037e-01 1.877414e+00 1.549892e-01 1.683197e+00 1.640444e+00 3.583993e+00 1.899288e-01 1.901960e+00 1.867525e+00 1.734089e+00 1.808616e+00 1.727253e+00 3.294835e+00 1.748346e+00 1.543015e-01 1.793878e+00 1.425994e+00 2.031411e-01 1.321031e-01 1.682788e-01 3.400733e+00 1.745972e-01 2.031712e-01 1.899735e-01 1.870750e-01 1.690885e-01 1.853737e-01 2.077351e-01
<GCONST> 5.647772e+01
<MIXTURE> 30 2.985151e-02
<MEAN> 40
 1.448422e+01 1.436637e+01 1.771762e+01 5.319710e-02 1.550372e+00 1.712836e+01 3.275057e+00 3.084365e+00 5.037971e-01 1.584032e+01 2.191566e+00 1.625326e+01 1.483189e+01 1.838810e+00 1.706425e+01 -5.841960e-02 8.449014e-01 1.863058e+01 1.360079e+01 4.027382e-01 5.995378e-01 2.223858e+00 4.592113e-01 3.579201e-01 1.583523e+01 6.238314e-01 1.333515e+01 9.025154e-01 1.239588e+00 1.600647e+01 1.522149e+01 1.391021e+01 2.304531e+01 1.519628e+01 1.466055e+01 1.497362e+01 1.670463e+01 1.709429e+01 1.494302e+01 1.636127e+01
<VARIANCE> 40
 2.146745e-01 2.144527e-01 3.491265e+00 2.232133e+00 2.267011e+00 1.737734e-01 4.824680e+00 2.465738e+00 2.094976e+00 2.210230e-01 1.980408e+00 2.392742e-01 2.160122e-01 2.215266e+00 1.892601e-01 1.982941e+00 1.952231e+00 4.026558e+00 2.239662e-01 2.334064e+00 1.978759e+00 2.137856e+00 2.073460e+00 1.932403e+00 3.312787e+00 2.050044e+00 1.845191e-01 1.924419e+00 1.849267e+00 2.280324e-01 1.691873e-01 1.911062e-01 3.678989e+00 2.082297e-01 2.191740e-01 2.059399e-01 2.144386e-01 2.007122e-01 2.090578e-01 2.378495e-01
<GCONST> 6.211801e+01
<MIXTURE> 31 3.360160e-02
<MEAN> 40
 1.623095e+01 1.592133e+01 1.870449e+01 3.282742e-01 1.052873e+00 1.895445e+01 3.764217e+00 3.109029e+00 3.293778e-01 1.738812e+01 2.465747e+00 1.814434e+01 1.625255e+01 1.545676e+00 1.896268e+01 2.625504e-01 8.120241e-01 1.829905e+01 1.531604e+01 4.464328e-01 8.474901e-01 2.027374e+00 4.368820e-01 3.992317e-01 1.530225e+01 2.469515e-01 1.482991e+01 1.078478e+00 1.221492e+00 1.786027e+01 1.707862e+01 1.556442e+01 2.327148e+01 1.711175e+01 1.625954e+01 1.677228e+01 1.857839e+01 1.895049e+01 1.660357e+01 1.817056e+01
<VARIANCE> 40
 1.648637e-01 1.588907e-01 2.335387e+00 1.402305e+00 1.343566e+00 1.334188e-01 2.450966e+00 1.903664e+00 1.383520e+00 1.700670e-01 1.499507e+00 1.946042e-01 1.822860e-01 1.289668e+00 1.196826e-01 1.271041e+00 1.209736e+00 2.632386e+00 1.641994e-01 1.296710e+00 1.270320e+00 1.347118e+00 1.353972e+00 1.319885e+00 2.548597e+00 1.314117e+00 1.231024e-01 1.286183e+00 1.093478e+00 1.629763e-01 1.144364e-01 1.299196e-01 2.912826e+00 1.349788e-01 1.589595e-01 1.596825e-01 1.524434e-01 1.338145e-01 1.382959e-01 1.711817e-01
<GCONST> 4.678978e+01
<MIXTURE> 32 3.316867e-02
<MEAN> 40
 1.731609e+01 1.686516e+01 2.013683e+01 1.080433e+00 1.538124e+00 2.017653e+01 6.185345e+00 2.951829e+00 5.535577e-01 1.845507e+01 2.992361e+00 1.945705e+01 1.724152e+01 2.247895e+00 2.033538e+01 7.050562e-01 1.385664e+00 1.974981e+01 1.637096e+01 1.059224e+00 8.536133e-01 2.781568e+00 9.444477e-01 7.230651e-01 1.614135e+01 5.206617e-01 1.559581e+01 1.231238e+00 2.393083e+00 1.891763e+01 1.822965e+01 1.657137e+01 2.408103e+01 1.830752e+01 1.741255e+01 1.777755e+01 1.980246e+01 2.025375e+01 1.769049e+01 1.932044e+01
<VARIANCE> 40
 1.451607e-01 1.493519e-01 1.895501e+00 1.472441e+00 1.395023e+00 1.311345e-01 3.139941e+00 2.109463e+00 1.469964e+00 1.735617e-01 1.693478e+00 1.817965e-01 1.737290e-01 1.528480e+00 1.154965e-01 1.447219e+00 1.316447e+00 2.061989e+00 1.591680e-01 1.455457e+00 1.393186e+00 1.365835e+00 1.383915e+00 1.505389e+00 2.105386e+00 1.331398e+00 1.127278e-01 1.243177e+00 1.149663e+00 1.485966e-01 1.247626e-01 1.206812e-01 2.587637e+00 1.180770e-01 1.355826e-01 1.516142e-01 1.554457e-01 1.235564e-01 1.438796e-01 1.593658e-01
<GCONST> 4.646119e+01
<MIXTURE> 33 2.794754e-02
<MEAN> 40
 1.654735e+01 1.617238e+01 1.986866e+01 6.995250e-01 1.319611e+00 1.928572e+01 4.873595e+00 3.196740e+00 4.218672e-01 1.780701e+01 2.739391e+00 1.862468e+01 1.661560e+01 1.812584e+00 1.946417e+01 5.008098e-01 1.081429e+00 1.939315e+01 1.556664e+01 7.504615e-01 7.484825e-01 2.476578e+00 6.356861e-01 6.750257e-01 1.562138e+01 2.752904e-01 1.496914e+01 1.095520e+00 1.898108e+00 1.808078e+01 1.750618e+01 1.591042e+01 2.314454e+01 1.749309e+01 1.667318e+01 1.705035e+01 1.896809e+01 1.937902e+01 1.684743e+01 1.847828e+01
<VARIANCE> 40
 1.577365e-01 1.511502e-01 2.069860e+00 1.593879e+00 1.570772e+00 1.383736e-01 3.276705e+00 2.205713e+00 1.598093e+00 1.779663e-01 1.754207e+00 2.007186e-01 1.919458e-01 1.559227e+00 1.310439e-01 1.564258e+00 1.424687e+00 2.373150e+00 1.683759e-01 1.527092e+00 1.529779e+00 1.503214e+00 1.554336e+00 1.532597e+00 2.425634e+00 1.478188e+00 1.152361e-01 1.494804e+00 1.316651e+00 1.567622e-01 1.277423e-01 1.281905e-01 2.891383e+00 1.300151e-01 1.568857e-01 1.681949e-01 1.667077e-01 1.340228e-01 1.384375e-01 1.681659e-01
<GCONST> 4.954603e+01
<MIXTURE> 34 2.499373e-02
<MEAN> 40
 1.590269e+01 1.568694e+01 1.787967e+01 4.630789e-01 1.818364e+00 1.867195e+01 4.451603e+00 2.696987e+00 5.138487e-01 1.700303e+01 2.504232e+00 1.771051e+01 1.599909e+01 2.151841e+00 1.853985e+01 6.992129e-02 1.145435e+00 1.843011e+01 1.496024e+01 8.066840e-01 7.026941e-01 2.379240e+00 7.288600e-01 3.124300e-01 1.623457e+01 9.350547e-01 1.458827e+01 1.078921e+00 1.542317e+00 1.761415e+01 1.662171e+01 1.511553e+01 2.403817e+01 1.663002e+01 1.590456e+01 1.632217e+01 1.817342e+01 1.867640e+01 1.653059e+01 1.795545e+01
<VARIANCE> 40
 1.673548e-01 1.805940e-01 1.852863e+00 1.615048e+00 1.544638e+00 1.403735e-01 2.686753e+00 2.026551e+00 1.581455e+00 1.851635e-01 1.714820e+00 1.941419e-01 1.640607e-01 1.604531e+00 1.301215e-01 1.558191e+00 1.537549e+00 2.636602e+00 1.723448e-01 1.736508e+00 1.646873e+00 1.494931e+00 1.580500e+00 1.617174e+00 2.515391e+00 1.372295e+00 1.236118e-01 1.383843e+00 1.171997e+00 1.524149e-01 1.211711e-01 1.390748e-01 2.922001e+00 1.602325e-01 1.688432e-01 1.532183e-01 1.689445e-01 1.388752e-01 1.421818e-01 1.797865e-01
<GCONST> 4.988716e+01
<MIXTURE> 35 3.004474e-02
<MEAN> 40
 1.689349e+01 1.647338e+01 2.008735e+01 1.016238e+00 1.577756e+00 1.971640e+01 6.029897e+00 3.070758e+00 5.793832e-01 1.811380e+01 2.900379e+00 1.903911e+01 1.690517e+01 2.172263e+00 1.990049e+01 6.389828e-01 1.334313e+00 1.976669e+01 1.593232e+01 1.019371e+00 8.204663e-01 2.792126e+00 8.609858e-01 7.480485e-01 1.601479e+01 5.104550e-01 1.521888e+01 1.203483e+00 2.323272e+00 1.846345e+01 1.784014e+01 1.619993e+01 2.374694e+01 1.788147e+01 1.703916e+01 1.736711e+01 1.937910e+01 1.980731e+01 1.725222e+01 1.886716e+01
<VARIANCE> 40
 1.490337e-01 1.478305e-01 1.965595e+00 1.564049e+00 1.509252e+00 1.313449e-01 3.382125e+00 2.177764e+00 1.538975e+00 1.786706e-01 1.747007e+00 1.880237e-01 1.779486e-01 1.580669e+00 1.246354e-01 1.523024e+00 1.386108e+00 2.156916e+00 1.612828e-01 1.530229e+00 1.474894e+00 1.437759e+00 1.480359e+00 1.536376e+00 2.147364e+00 1.420041e+00 1.138855e-01 1.339685e+00 1.251767e+00 1.474394e-01 1.283265e-01 1.276827e-01 2.729537e+00 1.244574e-01 1.459895e-01 1.572129e-01 1.588579e-01 1.263499e-01 1.408574e-01 1.640980e-01
<GCONST> 4.804018e+01
<MIXTURE> 36 2.070058e-02
<MEAN> 40
 1.615617e+01 1.584081e+01 1.657256e+01 -2.583354e-01 8.724129e-01 1.874990e+01 2.051973e+00 2.909493e+00 1.292000e-01 1.705583e+01 1.715162e+00 1.770395e+01 1.600560e+01 1.159575e+00 1.848734e+01 -1.452122e-02 5.046104e-01 1.665992e+01 1.523263e+01 8.511572e-02 7.516952e-01 1.422325e+00 9.997165e-02 1.106830e-01 1.537761e+01 3.045458e-01 1.493839e+01 7.274989e-01 4.755335e-01 1.790726e+01 1.672625e+01 1.547592e+01 2.363706e+01 1.682833e+01 1.592575e+01 1.655038e+01 1.820906e+01 1.858542e+01 1.651094e+01 1.817691e+01
<VARIANCE> 40
 1.814479e-01 1.926000e-01 2.393213e+00 1.515956e+00 1.529148e+00 1.648310e-01 2.195211e+00 1.854931e+00 1.517927e+00 1.693419e-01 1.387865e+00 1.951276e-01 1.770937e-01 1.430799e+00 1.420852e-01 1.363230e+00 1.340479e+00 2.651111e+00 1.841541e-01 1.463587e+00 1.393639e+00 1.450261e+00 1.477066e+00 1.471381e+00 2.884576e+00 1.319004e+00 1.340480e-01 1.463660e+00 1.125103e+00 1.761565e-01 1.139422e-01 1.614166e-01 3.014061e+00 1.545463e-01 1.804977e-01 1.698327e-01 1.699880e-01 1.493426e-01 1.538641e-01 1.871128e-01
<GCONST> 4.985661e+01
~h "eight"
<BEGINHMM>
<NUMSTATES> 18
<STATE> 2
<NUMMIXES> 20
<MIXTURE> 1 4.145190e-02
<MEAN> 40
 1.712957e+01 1.685800e+01 1.889853e+01 1.701408e+00 2.802603e+00 1.911064e+01 5.136574e-01 1.756074e+00 -1.064764e+00 1.801399e+01 1.133241e+00 1.858275e+01 1.684973e+01 5.362611e-01 1.925498e+01 2.475175e-01 1.572490e+00 1.772451e+01 1.553225e+01 2.097247e+00 -1.317876e-01 2.881326e+00 -7.742848e-02 5.517820e-01 1.528928e+01 -1.384365e+00 1.569312e+01 -1.366971e+00 2.407590e+00 1.833833e+01 1.763755e+01 1.641652e+01 2.096423e+01 1.763251e+01 1.690739e+01 1.696286e+01 1.895237e+01 1.947162e+01 1.716922e+01 1.908634e+01
<VARIANCE> 40
 2.905805e-01 3.459363e-01 4.814639e+00 4.454243e+00 5.671402e+00 3.227060e-01 1.232434e+01 4.140639e+00 4.906085e+00 3.296185e-01 3.452239e+00 3.532288e-01 3.739550e-01 4.178966e+00 3.133824e-01 4.611192e+00 5.171054e+00 6.898259e+00 4.773814e-01 4.592778e+00 3.649634e+00 4.910151e+00 4.265751e+00 3.038848e+00 4.140889e+00 3.819900e+00 2.706870e-01 4.643263e+00 3.591805e+00 4.304730e-01 2.396197e-01 3.077034e-01 5.592769e+00 2.620086e-01 3.175209e-01 3.612921e-01 3.656626e-01 3.188339e-01 3.253303e-01 3.782105e-01
<GCONST> 8.491181e+01
<MIXTURE> 2 6.613289e-02
<MEAN> 40
 1.157083e+01 1.200578e+01 1.347623e+01 1.918517e+00 3.250678e+00 1.291700e+01 -5.654821e+00 1.200945e+00 -3.742496e+00 1.280622e+01 -1.140550e+00 1.260331e+01 1.192011e+01 4.832907e-01 1.283963e+01 -2.061624e-01 2.360469e+00 1.560422e+01 1.029865e+01 2.006049e+00 -2.094542e+00 2.380345e+00 -2.919969e+00 4.126056e-02 1.448305e+01 -3.587943e+00 1.127347e+01 -2.714269e+00 3.204661e+00 1.283651e+01 1.146310e+01 1.122731e+01 1.395253e+01 1.157071e+01 1.135744e+01 1.159613e+01 1.298100e+01 1.304642e+01 1.152202e+01 1.291744e+01
<VARIANCE> 40
 3.232657e-01 4.595797e-01 8.863014e+00 9.481640e+00 9.538244e+00 2.882359e-01 1.619357e+01 9.039156e+00 8.549837e+00 3.194990e-01 5.319823e+00 3.397284e-01 3.939877e-01 7.870841e+00 3.179740e-01 9.384928e+00 7.875672e+00 9.902366e+00 4.655317e-01 7.905499e+00 8.137784e+00 6.191295e+00 8.325045e+00 7.344071e+00 8.272332e+00 6.387004e+00 3.431611e-01 6.762330e+00 5.597192e+00 4.604583e-01 2.701543e-01 3.876001e-01 1.021927e+01 3.710750e-01 3.581263e-01 4.108353e-01 3.667170e-01 3.795708e-01 3.767867e-01 3.409012e-01
<GCONST> 9.844284e+01
<MIXTURE> 3 5.632284e-02
<MEAN> 40
 1.421158e+01 1.420412e+01 1.735715e+01 1.233125e+00 2.923061e+00 1.620792e+01 -3.336357e-01 2.086930e+00 -1.092542e+00 1.550383e+01 6.213818e-01 1.575545e+01 1.447028e+01 6.057699e-01 1.616125e+01 -1.664836e-01 1.338403e+00 1.874585e+01 1.280172e+01 1.390225e+00 -2.430125e-01 2.493653e+00 -2.435553e-01 3.749521e-01 1.503514e+01 -1.716309e+00 1.323163e+01 -1.406457e+00 1.962068e+00 1.527909e+01 1.460443e+01 1.370784e+01 1.898897e+01 1.481568e+01 1.424593e+01 1.419325e+01 1.615838e+01 1.622713e+01 1.440514e+01 1.578284e+01
<VARIANCE> 40
 2.377627e-01 2.816323e-01 4.616815e+00 5.224349e+00 5.251688e+00 2.275405e-01 1.118855e+01 5.148483e+00 4.738393e+00 2.605859e-01 3.783434e+00 2.911453e-01 2.885769e-01 3.829793e+00 2.677860e-01 3.845794e+00 4.817120e+00 5.809530e+00 3.148580e-01 4.524990e+00 3.989302e+00 4.063236e+00 4.521874e+00 3.699740e+00 4.568124e+00 3.735201e+00 2.623403e-01 4.736595e+00 3.281038e+00 3.210678e-01 1.891529e-01 2.512828e-01 7.964973e+00 2.940250e-01 2.986785e-01 2.826170e-01 2.760413e-01 2.942072e-01 2.757702e-01 2.707625e-01
<GCONST> 8.128497e+01
<MIXTURE> 4 3.593037e-02
<MEAN> 40
 1.628096e+01 1.592772e+01 1.899197e+01 2.802772e+00 4.250822e+00 1.789275e+01 -9.082768e-01 2.098511e+00 -1.966011e+00 1.727349e+01 -2.089945e-03 1.765084e+01 1.628473e+01 4.554175e-01 1.812548e+01 7.618638e-01 2.811206e+00 1.728493e+01 1.416823e+01 3.643952e+00 -1.410769e+00 4.552326e+00 -6.475424e-01 1.160163e+00 1.520116e+01 -3.217300e+00 1.498784e+01 -3.697020e+00 3.753739e+00 1.720607e+01 1.668225e+01 1.575458e+01 1.868504e+01 1.669078e+01 1.581515e+01 1.581038e+01 1.795762e+01 1.850290e+01 1.599922e+01 1.799842e+01
<VARIANCE> 40
 2.681490e-01 3.746456e-01 4.730199e+00 5.716142e+00 5.211514e+00 2.919277e-01 1.821597e+01 5.412581e+00 6.590274e+00 3.593888e-01 3.526511e+00 3.326944e-01 4.158647e-01 4.664306e+00 3.303032e-01 4.666262e+00 7.279381e+00 8.261635e+00 4.167053e-01 4.349645e+00 4.642588e+00 4.362768e+00 6.038430e+00 3.630259e+00 4.330621e+00 3.808335e+00 2.878296e-01 4.909659e+00 3.836699e+00 3.863547e-01 2.452333e-01 2.862079e-01 6.023627e+00 2.776074e-01 3.036073e-01 3.358997e-01 3.623833e-01 3.424299e-01 3.044608e-01 3.728520e-01
<GCONST> 8.728381e+01
<MIXTURE> 5 5.290829e-02
<MEAN> 40
 1.356792e+01 1.364125e+01 1.639109e+01 8.373669e-01 2.326830e+00 1.559609e+01 -8.654299e-01 2.019074e+00 -1.057558e+00 1.483465e+01 6.676566e-01 1.500246e+01 1.384261e+01 2.640700e-01 1.546480e+01 -7.420843e-01 9.203350e-01 1.814766e+01 1.228635e+01 8.135836e-01 1.337191e-01 1.852096e+00 -2.715880e-01 1.583511e-01 1.494512e+01 -1.294283e+00 1.272446e+01 -1.054759e+00 1.554768e+00 1.476068e+01 1.391922e+01 1.310756e+01 1.886998e+01 1.408652e+01 1.363932e+01 1.363573e+01 1.543470e+01 1.554171e+01 1.383578e+01 1.519071e+01
<VARIANCE> 40
 2.445709e-01 2.799082e-01 5.794615e+00 4.945999e+00 4.855463e+00 2.260232e-01 9.968625e+00 4.915749e+00 5.039502e+00 2.748622e-01 3.695647e+00 2.839250e-01 2.677314e-01 4.432597e+00 2.884243e-01 4.249465e+00 3.891364e+00 6.788960e+00 3.451034e-01 4.120597e+00 4.037594e+00 4.004912e+00 4.214100e+00 3.525452e+00 4.947369e+00 3.635453e+00 2.667083e-01 4.019589e+00 3.283106e+00 3.306431e-01 1.812298e-01 2.498946e-01 8.999825e+00 2.586072e-01 3.067294e-01 2.895135e-01 2.593135e-01 2.871607e-01 2.823705e-01 2.724422e-01
<GCONST> 8.123795e+01
<MIXTURE> 6 6.913833e-02
<MEAN> 40
 1.472293e+01 1.479432e+01 1.655421e+01 2.522481e-01 1.700453e+00 1.686003e+01 -1.631757e+00 1.914432e+00 -1.121544e+00 1.590053e+01 9.646900e-01 1.621020e+01 1.484082e+01 -2.599747e-02 1.670280e+01 -7.502880e-01 4.345921e-01 1.757523e+01 1.368645e+01 5.049593e-01 2.435064e-01 1.463233e+00 -5.210825e-01 1.171138e-01 1.520039e+01 -7.136243e-01 1.381619e+01 -5.474095e-01 9.992757e-01 1.613673e+01 1.517337e+01 1.422403e+01 2.021731e+01 1.532605e+01 1.481830e+01 1.493637e+01 1.657093e+01 1.682231e+01 1.507816e+01 1.656537e+01
<VARIANCE> 40
 2.440493e-01 2.794887e-01 6.307018e+00 3.728103e+00 3.791306e+00 2.219670e-01 9.077109e+00 4.273224e+00 4.737849e+00 2.759746e-01 3.301857e+00 3.031395e-01 2.844813e-01 4.008257e+00 2.699143e-01 3.593664e+00 3.134061e+00 6.906939e+00 3.103222e-01 3.605072e+00 3.428646e+00 3.503734e+00 3.420198e+00 3.313097e+00 4.901826e+00 3.165152e+00 2.467332e-01 3.506582e+00 2.715270e+00 3.107749e-01 1.979461e-01 2.452738e-01 7.221934e+00 2.543058e-01 2.970797e-01 2.750702e-01 2.797755e-01 2.573510e-01 2.523115e-01 2.445457e-01
<GCONST> 7.803252e+01
<MIXTURE> 7 3.606910e-02
<MEAN> 40
 8.597130e+00 9.272534e+00 1.290504e+01 2.579283e+00 3.656978e+00 9.560287e+00 -9.657469e+00 1.197067e+00 -5.814488e+00 9.980903e+00 -2.196983e+00 9.246504e+00 9.270323e+00 2.510716e-01 9.365590e+00 -3.433976e-01 2.090022e+00 1.466838e+01 7.110293e+00 2.349464e+00 -4.588607e+00 2.199635e+00 -4.858418e+00 -4.747023e-01 1.448321e+01 -5.736560e+00 8.798769e+00 -4.399125e+00 4.832118e+00 9.525422e+00 8.140448e+00 8.629050e+00 1.042090e+01 7.991672e+00 8.369287e+00 8.809298e+00 9.743255e+00 9.590034e+00 8.410021e+00 9.397064e+00
<VARIANCE> 40
 6.418707e-01 6.442209e-01 1.171140e+01 1.572020e+01 1.739244e+01 6.089029e-01 1.806054e+01 1.365883e+01 1.472030e+01 6.695637e-01 8.161005e+00 6.890948e-01 7.389380e-01 1.269356e+01 7.087372e-01 1.305236e+01 8.760035e+00 7.983826e+00 8.427206e-01 1.446041e+01 1.138448e+01 9.253382e+00 1.212848e+01 1.176595e+01 1.057329e+01 9.330914e+00 6.419355e-01 9.936730e+00 7.655367e+00 8.695374e-01 6.511613e-01 6.398447e-01 1.347375e+01 8.022245e-01 7.445548e-01 6.845733e-01 6.820723e-01 7.629148e-01 7.598786e-01 6.889385e-01
<GCONST> 1.184306e+02
<MIXTURE> 8 3.897724e-02
<MEAN> 40
 1.324485e+01 1.344164e+01 1.506202e+01 2.746972e+00 4.038028e+00 1.459647e+01 -4.564749e+00 1.361338e+00 -3.762221e+00 1.434300e+01 -1.214647e+00 1.439454e+01 1.351240e+01 6.537394e-01 1.458666e+01 -5.072175e-01 3.184282e+00 1.615531e+01 1.155506e+01 3.191910e+00 -2.268822e+00 3.629137e+00 -2.357871e+00 7.517932e-01 1.509116e+01 -3.770180e+00 1.250371e+01 -3.841029e+00 3.766678e+00 1.434167e+01 1.321591e+01 1.281201e+01 1.527846e+01 1.337963e+01 1.279815e+01 1.282178e+01 1.464790e+01 1.487386e+01 1.308017e+01 1.474998e+01
<VARIANCE> 40
 2.458155e-01 4.597495e-01 6.514167e+00 8.165318e+00 8.112369e+00 2.831598e-01 1.811631e+01 1.028026e+01 7.909398e+00 3.314332e-01 5.457885e+00 3.333657e-01 4.104228e-01 6.482855e+00 3.081504e-01 7.613110e+00 7.511941e+00 1.222156e+01 5.131905e-01 7.116289e+00 7.722160e+00 5.652740e+00 9.260895e+00 7.572933e+00 8.223298e+00 4.884391e+00 3.220465e-01 5.513743e+00 5.078082e+00 4.514703e-01 2.498073e-01 3.662140e-01 9.223402e+00 4.408812e-01 3.584414e-01 3.917669e-01 3.494312e-01 4.028025e-01 3.611710e-01 3.678048e-01
<GCONST> 9.676816e+01
<MIXTURE> 9 4.469512e-02
<MEAN> 40
 1.426757e+01 1.441516e+01 1.508274e+01 1.802526e+00 2.431977e+00 1.577832e+01 -3.895078e+00 1.245636e+00 -3.044721e+00 1.520396e+01 -4.016669e-01 1.538088e+01 1.420465e+01 2.884418e-01 1.569598e+01 -1.121836e+00 1.389487e+00 1.532692e+01 1.287022e+01 2.106053e+00 -7.574854e-01 2.177438e+00 -1.533854e+00 3.945457e-01 1.528948e+01 -2.065946e+00 1.345388e+01 -2.372397e+00 2.257857e+00 1.566764e+01 1.442268e+01 1.376909e+01 1.719647e+01 1.441583e+01 1.389263e+01 1.402656e+01 1.562985e+01 1.603707e+01 1.427773e+01 1.606521e+01
<VARIANCE> 40
 2.570648e-01 3.912216e-01 6.189656e+00 6.751895e+00 5.900827e+00 2.764375e-01 1.262770e+01 6.211008e+00 6.534538e+00 3.196294e-01 4.790402e+00 3.437182e-01 3.935454e-01 6.065953e+00 3.011454e-01 7.220777e+00 7.143964e+00 9.359092e+00 5.487538e-01 5.650004e+00 6.874894e+00 6.240050e+00 6.500781e+00 5.280907e+00 7.066316e+00 5.110372e+00 2.490143e-01 5.160079e+00 5.246491e+00 3.430271e-01 2.156574e-01 3.312348e-01 1.147198e+01 3.402708e-01 3.716502e-01 3.369317e-01 3.038382e-01 3.692448e-01 3.355727e-01 2.876625e-01
<GCONST> 9.185831e+01
<MIXTURE> 10 4.782286e-02
<MEAN> 40
 1.547026e+01 1.512150e+01 1.860692e+01 3.248115e+00 4.493190e+00 1.711565e+01 -1.960631e-01 2.111997e+00 -2.026054e+00 1.656688e+01 -1.781600e-01 1.688117e+01 1.562068e+01 7.766190e-01 1.723314e+01 8.587093e-01 3.182249e+00 1.766622e+01 1.329034e+01 3.810322e+00 -1.394278e+00 4.463283e+00 -4.817581e-01 9.462087e-01 1.514588e+01 -3.255401e+00 1.426937e+01 -3.778881e+00 3.948581e+00 1.633342e+01 1.584311e+01 1.497445e+01 1.798726e+01 1.590076e+01 1.499090e+01 1.491591e+01 1.724708e+01 1.761730e+01 1.522500e+01 1.705596e+01
<VARIANCE> 40
 2.602080e-01 3.426744e-01 3.699499e+00 6.924127e+00 5.006591e+00 2.409580e-01 1.806392e+01 5.176040e+00 6.505388e+00 3.034883e-01 4.091073e+00 3.180908e-01 3.204091e-01 4.188480e+00 2.622475e-01 3.843244e+00 6.789573e+00 7.842801e+00 3.861732e-01 4.643908e+00 4.347701e+00 4.529216e+00 5.759646e+00 4.405729e+00 4.364298e+00 4.234007e+00 2.839270e-01 5.549923e+00 4.139132e+00 3.312600e-01 2.287726e-01 2.908829e-01 6.726083e+00 2.472046e-01 2.904710e-01 3.035655e-01 3.083321e-01 3.628495e-01 2.943511e-01 4.017933e-01
<GCONST> 8.581731e+01
<MIXTURE> 11 5.962380e-02
<MEAN> 40
 1.092528e+01 1.148120e+01 1.312417e+01 2.618035e+00 3.986228e+00 1.213054e+01 -7.468003e+00 1.073765e+00 -5.009456e+00 1.223195e+01 -1.817903e+00 1.186045e+01 1.143200e+01 6.972541e-01 1.204740e+01 -1.287645e-01 2.721128e+00 1.496818e+01 9.600489e+00 2.803647e+00 -3.415431e+00 2.977917e+00 -4.303791e+00 4.521730e-03 1.453083e+01 -4.896344e+00 1.080548e+01 -3.758694e+00 4.061522e+00 1.215099e+01 1.070951e+01 1.072933e+01 1.285052e+01 1.070326e+01 1.064295e+01 1.091722e+01 1.227987e+01 1.225976e+01 1.081255e+01 1.215235e+01
<VARIANCE> 40
 3.209063e-01 4.908653e-01 8.156054e+00 1.082880e+01 1.092773e+01 3.293964e-01 1.412827e+01 1.073750e+01 1.041762e+01 3.808787e-01 5.839273e+00 3.647049e-01 4.741148e-01 9.282017e+00 3.349474e-01 9.463346e+00 7.831534e+00 8.001483e+00 4.546388e-01 9.936770e+00 8.479035e+00 6.488682e+00 8.796033e+00 8.498847e+00 9.521290e+00 6.551709e+00 3.322084e-01 7.285912e+00 6.070098e+00 5.121716e-01 3.064096e-01 3.963628e-01 9.580914e+00 3.816872e-01 3.929255e-01 4.456167e-01 3.653596e-01 4.193847e-01 4.312340e-01 4.156356e-01
<GCONST> 1.011904e+02
<MIXTURE> 12 4.882379e-02
<MEAN> 40
 1.227096e+01 1.259855e+01 1.442644e+01 9.250201e-01 2.345496e+00 1.402664e+01 -2.015959e+00 1.419955e+00 -1.851544e+00 1.348848e+01 -2.034347e-03 1.349105e+01 1.250538e+01 7.480044e-01 1.384304e+01 -1.166632e+00 1.245556e+00 1.712735e+01 1.106658e+01 6.581023e-01 1.380763e-01 1.326236e+00 -6.614430e-01 -1.783785e-01 1.489003e+01 -1.384896e+00 1.172436e+01 -7.556460e-01 1.601443e+00 1.348857e+01 1.236970e+01 1.175537e+01 1.672235e+01 1.257569e+01 1.224980e+01 1.237735e+01 1.388980e+01 1.393469e+01 1.256199e+01 1.378135e+01
<VARIANCE> 40
 2.899393e-01 3.701831e-01 7.444316e+00 8.237726e+00 6.732243e+00 2.815363e-01 1.715940e+01 6.486568e+00 6.579182e+00 3.098723e-01 4.888187e+00 3.406897e-01 3.393427e-01 5.837414e+00 2.953085e-01 7.721041e+00 5.694898e+00 8.434262e+00 4.198928e-01 5.794508e+00 6.220900e+00 5.448102e+00 6.058373e+00 5.244946e+00 6.488210e+00 4.591971e+00 3.126132e-01 5.044582e+00 5.030507e+00 3.781354e-01 2.383330e-01 3.098404e-01 1.127278e+01 3.590455e-01 3.668126e-01 3.441408e-01 3.153911e-01 3.387927e-01 3.078975e-01 3.281749e-01
<GCONST> 9.191118e+01
<MIXTURE> 13 6.397782e-02
<MEAN> 40
 1.545138e+01 1.547490e+01 1.695639e+01 4.538684e-01 1.824457e+00 1.753136e+01 -1.674433e+00 1.761817e+00 -1.374506e+00 1.652647e+01 7.864672e-01 1.690569e+01 1.542802e+01 1.357960e-01 1.747173e+01 -5.569301e-01 6.173974e-01 1.716642e+01 1.434557e+01 9.135754e-01 4.756376e-02 1.690766e+00 -4.999550e-01 2.575589e-01 1.509965e+01 -8.297522e-01 1.443584e+01 -6.769351e-01 1.076450e+00 1.688025e+01 1.591021e+01 1.484907e+01 2.032290e+01 1.600280e+01 1.545571e+01 1.560413e+01 1.729615e+01 1.759331e+01 1.574799e+01 1.741395e+01
<VARIANCE> 40
 2.289028e-01 3.055305e-01 5.804607e+00 3.854187e+00 3.949975e+00 2.529483e-01 9.457604e+00 4.181169e+00 4.472926e+00 2.886808e-01 3.680690e+00 3.022501e-01 2.915359e-01 3.851477e+00 2.653694e-01 4.115761e+00 3.365236e+00 7.833091e+00 3.135508e-01 3.590953e+00 3.498312e+00 3.672623e+00 3.743792e+00 3.610425e+00 4.799328e+00 3.523892e+00 2.436505e-01 3.670690e+00 2.860276e+00 3.325103e-01 1.838666e-01 2.553145e-01 7.695982e+00 2.702233e-01 3.063124e-01 2.728120e-01 2.987268e-01 2.634071e-01 2.673510e-01 2.677349e-01
<GCONST> 7.943141e+01
<MIXTURE> 14 4.601994e-02
<MEAN> 40
 1.298110e+01 1.323420e+01 1.523967e+01 5.706213e-01 2.208215e+00 1.489558e+01 -2.206855e+00 1.888550e+00 -1.595132e+00 1.424011e+01 3.936347e-01 1.429759e+01 1.326559e+01 2.132931e-01 1.472816e+01 -1.045676e+00 7.635090e-01 1.746116e+01 1.186253e+01 5.250548e-01 3.028474e-02 1.538208e+00 -6.227974e-01 3.514165e-02 1.503206e+01 -1.302075e+00 1.233998e+01 -9.381506e-01 1.338014e+00 1.425076e+01 1.323082e+01 1.254528e+01 1.829017e+01 1.340176e+01 1.305148e+01 1.316424e+01 1.471171e+01 1.480715e+01 1.330552e+01 1.457841e+01
<VARIANCE> 40
 2.717835e-01 3.453158e-01 6.553188e+00 5.804504e+00 5.017124e+00 2.502543e-01 1.222548e+01 5.024335e+00 5.919147e+00 2.625843e-01 4.051860e+00 3.095713e-01 3.001956e-01 5.007887e+00 2.799777e-01 5.279591e+00 3.967101e+00 7.954645e+00 3.663695e-01 4.222458e+00 4.576174e+00 4.346272e+00 4.444818e+00 4.318498e+00 5.463022e+00 3.757348e+00 2.811081e-01 4.523163e+00 3.540680e+00 3.440810e-01 2.183116e-01 2.749850e-01 8.750326e+00 2.737602e-01 3.058561e-01 2.954900e-01 2.605906e-01 3.322222e-01 3.107137e-01 2.912855e-01
<GCONST> 8.469928e+01
<MIXTURE> 15 4.921612e-02
<MEAN> 40
 1.501533e+01 1.495983e+01 1.671634e+01 2.167088e+00 2.860842e+00 1.645626e+01 -3.088063e+00 1.726177e+00 -2.815806e+00 1.588037e+01 -5.122616e-01 1.622262e+01 1.491667e+01 1.579769e-01 1.658115e+01 -1.641080e-01 1.943339e+00 1.540267e+01 1.328650e+01 2.923004e+00 -9.983379e-01 3.358471e+00 -1.529185e+00 9.039019e-01 1.480504e+01 -2.700669e+00 1.404947e+01 -3.044228e+00 2.964957e+00 1.624707e+01 1.524191e+01 1.450625e+01 1.698593e+01 1.520188e+01 1.451202e+01 1.470990e+01 1.643447e+01 1.700698e+01 1.483919e+01 1.687124e+01
<VARIANCE> 40
 2.605893e-01 3.748220e-01 6.361485e+00 6.636125e+00 5.928646e+00 2.618664e-01 1.547055e+01 6.435515e+00 7.032421e+00 3.368730e-01 3.819901e+00 3.527263e-01 4.256415e-01 6.341271e+00 2.991348e-01 6.374896e+00 6.673550e+00 8.659640e+00 5.025322e-01 4.682065e+00 5.828510e+00 5.158668e+00 6.369985e+00 4.726199e+00 6.405192e+00 4.250554e+00 2.995707e-01 5.670161e+00 4.273130e+00 3.670931e-01 2.255118e-01 2.971633e-01 8.198255e+00 3.201110e-01 3.886912e-01 3.505622e-01 3.159212e-01 3.347704e-01 3.133883e-01 3.306969e-01
<GCONST> 9.053167e+01
<MIXTURE> 16 5.078335e-02
<MEAN> 40
 1.622232e+01 1.612354e+01 1.757859e+01 7.294757e-01 1.888089e+00 1.839016e+01 -6.329516e-01 1.797748e+00 -1.154171e+00 1.720817e+01 1.168682e+00 1.772657e+01 1.610858e+01 2.648614e-01 1.833531e+01 -4.734853e-01 7.524692e-01 1.760851e+01 1.505135e+01 1.055458e+00 1.202945e-01 1.851503e+00 -2.433071e-01 2.321857e-01 1.532582e+01 -7.951132e-01 1.505045e+01 -5.697405e-01 1.312059e+00 1.763255e+01 1.669525e+01 1.557312e+01 2.126873e+01 1.678378e+01 1.618790e+01 1.632546e+01 1.809942e+01 1.848295e+01 1.650970e+01 1.823876e+01
<VARIANCE> 40
 2.512070e-01 2.899837e-01 5.504819e+00 3.519184e+00 3.781925e+00 2.397407e-01 9.243233e+00 3.945296e+00 4.891996e+00 2.866249e-01 2.895679e+00 2.988073e-01 2.760580e-01 3.828268e+00 2.653827e-01 3.699870e+00 3.113160e+00 6.351953e+00 2.836194e-01 3.581599e+00 3.146644e+00 3.647199e+00 3.496615e+00 3.138301e+00 4.124252e+00 3.092552e+00 2.360411e-01 3.508937e+00 2.699696e+00 3.553299e-01 1.950222e-01 2.540145e-01 5.286886e+00 2.564612e-01 2.593830e-01 2.673636e-01 3.196636e-01 2.554424e-01 2.541252e-01 2.894967e-01
<GCONST> 7.725605e+01
<MIXTURE> 17 6.110182e-02
<MEAN> 40
 1.001370e+01 1.063507e+01 1.312955e+01 2.683809e+00 3.853405e+00 1.112224e+01 -8.151280e+00 1.308785e+00 -5.307293e+00 1.133514e+01 -1.920267e+00 1.085933e+01 1.054390e+01 6.152905e-01 1.099191e+01 -2.877317e-01 2.244704e+00 1.495650e+01 8.594213e+00 2.720757e+00 -3.664809e+00 2.681683e+00 -4.595707e+00 -1.558852e-01 1.444652e+01 -5.340657e+00 1.002887e+01 -3.915063e+00 4.361333e+00 1.116796e+01 9.735398e+00 9.902529e+00 1.166099e+01 9.633496e+00 9.745529e+00 1.013634e+01 1.130705e+01 1.121889e+01 9.902452e+00 1.105729e+01
<VARIANCE> 40
 3.838391e-01 4.978541e-01 9.981738e+00 1.235013e+01 1.218488e+01 3.555678e-01 1.525737e+01 1.098673e+01 1.115124e+01 3.833039e-01 6.367268e+00 4.061765e-01 4.621883e-01 1.018741e+01 3.838890e-01 1.134894e+01 8.995433e+00 7.913190e+00 5.382587e-01 1.070213e+01 8.812889e+00 7.616633e+00 9.369546e+00 8.864470e+00 8.610374e+00 7.780347e+00 3.590287e-01 7.488733e+00 7.032475e+00 5.284949e-01 3.607365e-01 4.850330e-01 1.049673e+01 4.027562e-01 4.563654e-01 4.394479e-01 3.762026e-01 4.209020e-01 4.809380e-01 4.428843e-01
<GCONST> 1.045375e+02
<MIXTURE> 18 5.126828e-02
<MEAN> 40
 1.216944e+01 1.274780e+01 1.300093e+01 2.099581e+00 3.905317e+00 1.342671e+01 -7.458786e+00 1.201427e+00 -4.976159e+00 1.340956e+01 -1.606898e+00 1.316260e+01 1.271422e+01 6.897644e-01 1.342385e+01 -2.646523e-01 2.654547e+00 1.482478e+01 1.102314e+01 2.960060e+00 -3.202494e+00 3.186150e+00 -3.803404e+00 4.822824e-01 1.511847e+01 -4.311067e+00 1.188907e+01 -3.832044e+00 3.545307e+00 1.356888e+01 1.214230e+01 1.187735e+01 1.485898e+01 1.209281e+01 1.188733e+01 1.207822e+01 1.358228e+01 1.364530e+01 1.215599e+01 1.365305e+01
<VARIANCE> 40
 3.384039e-01 4.863394e-01 7.292124e+00 9.124239e+00 1.004356e+01 2.990440e-01 1.239953e+01 1.071992e+01 9.090631e+00 3.659776e-01 5.427503e+00 3.521668e-01 4.547483e-01 9.682516e+00 3.512987e-01 9.755095e+00 8.718865e+00 8.804246e+00 4.665937e-01 8.700980e+00 7.458129e+00 7.074170e+00 8.088819e+00 7.955465e+00 8.689566e+00 5.910535e+00 3.121341e-01 6.505224e+00 5.806050e+00 4.524988e-01 2.648472e-01 3.815475e-01 8.883702e+00 4.477107e-01 4.006935e-01 4.390224e-01 3.725570e-01 3.946090e-01 4.058808e-01 3.580615e-01
<GCONST> 9.945164e+01
<MIXTURE> 19 4.321747e-02
<MEAN> 40
 1.274380e+01 1.313633e+01 1.389205e+01 1.484733e+00 2.576783e+00 1.410859e+01 -5.933696e+00 1.285201e+00 -3.888545e+00 1.388253e+01 -9.157602e-01 1.383194e+01 1.298643e+01 2.989602e-01 1.409853e+01 3.357422e-01 2.124300e+00 1.452778e+01 1.150232e+01 2.151232e+00 -1.736288e+00 2.719362e+00 -2.830624e+00 1.665519e-02 1.426059e+01 -3.496717e+00 1.237045e+01 -2.686028e+00 2.669913e+00 1.413770e+01 1.279576e+01 1.235461e+01 1.524308e+01 1.276058e+01 1.244819e+01 1.281389e+01 1.414915e+01 1.442783e+01 1.266544e+01 1.436644e+01
<VARIANCE> 40
 2.868616e-01 4.463200e-01 7.217168e+00 6.995425e+00 6.696960e+00 2.356012e-01 1.183404e+01 7.741574e+00 6.584233e+00 2.835452e-01 4.787311e+00 3.072526e-01 3.896743e-01 7.951792e+00 3.098938e-01 6.720428e+00 6.337531e+00 8.004473e+00 4.716354e-01 6.009369e+00 5.951930e+00 4.968596e+00 5.942935e+00 5.721209e+00 7.379644e+00 4.692929e+00 2.904695e-01 5.717187e+00 4.645136e+00 3.627231e-01 2.546256e-01 3.322057e-01 9.323754e+00 3.385105e-01 3.951073e-01 3.391602e-01 3.064428e-01 3.400135e-01 3.275539e-01 3.113040e-01
<GCONST> 9.180986e+01
<MIXTURE> 20 3.652998e-02
<MEAN> 40
 1.375508e+01 1.403428e+01 1.470661e+01 2.572124e+00 3.661639e+00 1.513007e+01 -5.508236e+00 1.414937e+00 -4.226770e+00 1.478300e+01 -1.090157e+00 1.483762e+01 1.397478e+01 3.332475e-01 1.508818e+01 -8.015036e-01 2.559473e+00 1.528912e+01 1.229417e+01 2.833031e+00 -2.166300e+00 3.351522e+00 -2.647931e+00 7.682088e-01 1.508258e+01 -3.586331e+00 1.307002e+01 -3.954853e+00 3.373782e+00 1.504716e+01 1.386228e+01 1.333952e+01 1.622876e+01 1.389875e+01 1.336963e+01 1.343362e+01 1.512575e+01 1.551250e+01 1.362296e+01 1.539456e+01
<VARIANCE> 40
 2.818362e-01 4.137534e-01 6.640290e+00 7.982333e+00 6.787978e+00 2.629449e-01 1.166568e+01 8.627612e+00 7.618896e+00 3.527991e-01 4.583434e+00 3.764638e-01 4.263692e-01 6.908027e+00 3.256253e-01 8.407181e+00 6.811393e+00 1.121708e+01 4.945028e-01 5.681901e+00 6.092571e+00 6.094839e+00 7.335351e+00 6.667266e+00 6.914575e+00 4.559227e+00 2.706172e-01 5.604587e+00 4.963308e+00 3.597278e-01 2.380832e-01 3.633983e-01 9.146982e+00 3.886829e-01 4.126050e-01 3.358906e-01 3.214998e-01 3.945316e-01 3.195407e-01 3.063356e-01
<GCONST> 9.392571e+01
<STATE> 3
<NUMMIXES> 20
<MIXTURE> 1 4.247802e-02
<MEAN> 40
 1.545693e+01 1.543950e+01 1.783935e+01 1.260489e+00 2.154981e+00 1.749753e+01 -2.892078e+00 2.114048e+00 -5.107231e-01 1.659292e+01 4.798466e-01 1.705447e+01 1.535140e+01 -1.719076e+00 1.744228e+01 -1.918836e+00 -1.327848e-01 1.778191e+01 1.442175e+01 1.604798e+00 7.692270e-01 1.645702e+00 -1.634968e+00 9.682415e-01 1.520229e+01 -1.577987e+00 1.448225e+01 -1.487400e+00 1.466535e+00 1.692482e+01 1.590243e+01 1.508554e+01 1.987761e+01 1.594657e+01 1.558298e+01 1.572294e+01 1.708713e+01 1.767544e+01 1.576507e+01 1.750447e+01
<VARIANCE> 40
 3.563327e-01 4.093454e-01 8.612131e+00 5.871346e+00 5.572338e+00 3.778911e-01 1.281825e+01 4.848213e+00 7.279938e+00 3.802131e-01 4.215928e+00 3.870130e-01 3.620024e-01 6.980031e+00 4.162659e-01 4.853054e+00 4.411812e+00 7.110607e+00 4.475513e-01 7.412562e+00 5.816885e+00 6.455567e+00 6.382012e+00 3.780533e+00 5.065909e+00 5.349860e+00 3.142932e-01 5.950088e+00 3.795262e+00 4.436964e-01 3.468429e-01 3.611329e-01 8.365700e+00 3.800908e-01 3.339698e-01 3.652929e-01 4.278800e-01 3.659486e-01 3.669669e-01 3.864029e-01
<GCONST> 9.259415e+01
<MIXTURE> 2 3.996572e-02
<MEAN> 40
 1.140145e+01 1.157524e+01 1.439304e+01 1.405295e+00 1.269664e+00 1.302040e+01 2.429450e-01 1.345005e+00 -7.100281e-01 1.242079e+01 -2.681034e-02 1.257462e+01 1.150179e+01 3.148478e-01 1.279277e+01 -7.520440e-01 1.108793e+00 1.567036e+01 9.980289e+00 4.779992e-01 7.564337e-01 6.139096e-01 2.957937e-02 3.098546e-01 1.400438e+01 -7.988775e-01 1.082198e+01 -2.981422e-01 1.072520e+00 1.251529e+01 1.145384e+01 1.085174e+01 1.461040e+01 1.138843e+01 1.107503e+01 1.152649e+01 1.266729e+01 1.301844e+01 1.146071e+01 1.286777e+01
<VARIANCE> 40
 2.842807e-01 3.412995e-01 8.609581e+00 6.660079e+00 5.660960e+00 2.613051e-01 1.465158e+01 6.732071e+00 6.322948e+00 3.043748e-01 5.042273e+00 3.221392e-01 3.431468e-01 5.557654e+00 2.861798e-01 5.759798e+00 4.782631e+00 1.112430e+01 4.368813e-01 4.883129e+00 5.551095e+00 4.843205e+00 5.505906e+00 4.682054e+00 6.767763e+00 5.324522e+00 2.664548e-01 5.374208e+00 4.473186e+00 3.207421e-01 2.489309e-01 3.171537e-01 1.116280e+01 3.296071e-01 3.995914e-01 3.430081e-01 3.281608e-01 3.192832e-01 2.819837e-01 3.122611e-01
<GCONST> 9.016759e+01
<MIXTURE> 3 6.345128e-02
<MEAN> 40
 1.404743e+01 1.385674e+01 1.810784e+01 4.174645e+00 5.410977e+00 1.548018e+01 -3.228304e+00 2.309152e+00 -3.281918e+00 1.522599e+01 -1.042539e+00 1.539024e+01 1.425994e+01 -1.633689e-01 1.552586e+01 -5.852068e-01 2.716964e+00 1.716940e+01 1.179141e+01 4.926520e+00 -2.096715e+00 5.121836e+00 -2.556603e+00 1.549252e+00 1.453278e+01 -4.805841e+00 1.316296e+01 -5.497441e+00 4.750757e+00 1.484937e+01 1.420397e+01 1.396102e+01 1.521811e+01 1.444114e+01 1.341571e+01 1.339570e+01 1.566160e+01 1.604131e+01 1.363294e+01 1.558473e+01
<VARIANCE> 40
 2.482018e-01 3.514281e-01 4.122889e+00 8.263672e+00 6.064115e+00 2.753912e-01 1.540291e+01 6.591660e+00 7.836234e+00 3.498576e-01 4.659115e+00 3.001440e-01 3.622891e-01 7.351651e+00 2.805209e-01 6.007152e+00 1.044509e+01 7.222460e+00 4.129292e-01 4.997162e+00 5.029212e+00 5.689879e+00 7.661734e+00 5.196334e+00 5.340233e+00 5.029278e+00 3.178459e-01 5.092361e+00 5.369448e+00 3.696013e-01 2.245115e-01 3.038142e-01 7.107351e+00 2.927535e-01 3.196064e-01 3.444936e-01 3.565647e-01 3.516484e-01 3.023940e-01 3.412065e-01
<GCONST> 9.061966e+01
<MIXTURE> 4 2.393645e-02
<MEAN> 40
 5.880991e+00 6.810795e+00 1.300945e+01 3.707482e+00 1.230231e+00 7.317984e+00 -6.306406e-01 -8.024056e-01 -1.071877e+00 7.089655e+00 -1.249119e+00 6.518641e+00 6.457380e+00 5.750423e-02 6.751879e+00 -1.120239e+00 1.385046e+00 1.521188e+01 4.550894e+00 -5.497116e-01 1.225843e+00 -5.860246e-01 -1.220200e+00 9.790017e-02 1.439049e+01 -2.390004e+00 6.046028e+00 -6.665215e-01 1.752661e+00 6.916830e+00 5.788755e+00 5.640141e+00 1.080456e+01 4.799802e+00 5.541879e+00 6.317771e+00 7.060736e+00 7.238811e+00 5.701823e+00 6.712996e+00
<VARIANCE> 40
 1.784830e+00 1.443983e+00 1.307346e+01 1.603642e+01 1.314054e+01 1.654754e+00 4.995761e+01 1.540719e+01 1.480161e+01 2.105469e+00 6.913749e+00 2.172747e+00 2.240137e+00 1.234685e+01 1.977784e+00 9.553300e+00 6.995241e+00 7.094320e+00 1.815800e+00 1.325616e+01 1.584222e+01 8.941738e+00 1.482418e+01 6.480145e+00 8.015981e+00 8.891645e+00 1.676226e+00 1.227549e+01 7.238154e+00 1.741045e+00 1.686826e+00 2.192628e+00 1.063098e+01 3.199471e+00 2.358748e+00 1.942783e+00 1.757411e+00 1.635923e+00 2.571518e+00 2.024276e+00
<GCONST> 1.374314e+02
<MIXTURE> 5 4.125499e-02
<MEAN> 40
 1.279250e+01 1.285795e+01 1.500306e+01 6.118696e-01 1.135590e+00 1.453141e+01 -8.770392e-01 1.871565e+00 -3.621746e-01 1.381069e+01 1.707757e-01 1.410920e+01 1.278152e+01 -1.833917e-01 1.431668e+01 -5.506617e-01 4.724784e-01 1.547520e+01 1.151562e+01 5.223665e-01 5.586872e-01 8.364428e-01 -2.990271e-01 3.720284e-01 1.418120e+01 -6.949114e-01 1.212876e+01 -4.431513e-01 5.976925e-01 1.411125e+01 1.295671e+01 1.229880e+01 1.634803e+01 1.296110e+01 1.246571e+01 1.300247e+01 1.418518e+01 1.452451e+01 1.290486e+01 1.441310e+01
<VARIANCE> 40
 3.318598e-01 3.589697e-01 8.352036e+00 5.066257e+00 4.565678e+00 2.552500e-01 1.261852e+01 5.322006e+00 5.001997e+00 2.721595e-01 3.492697e+00 3.301604e-01 3.553187e-01 5.031684e+00 3.024766e-01 5.065730e+00 3.979894e+00 9.579455e+00 4.043316e-01 4.439472e+00 4.217381e+00 4.550486e+00 4.166551e+00 3.619460e+00 5.736490e+00 4.336206e+00 2.806402e-01 4.674304e+00 3.542281e+00 3.713498e-01 2.624062e-01 3.155644e-01 1.203545e+01 2.891985e-01 4.483770e-01 3.334611e-01 3.171745e-01 3.262428e-01 2.517205e-01 3.348194e-01
<GCONST> 8.671820e+01
<MIXTURE> 6 4.360852e-02
<MEAN> 40
 9.327909e+00 9.800331e+00 1.322861e+01 1.447750e+00 1.562602e+00 1.085192e+01 -6.908621e-01 1.357934e+00 -9.510757e-01 1.047321e+01 -4.992817e-01 1.038383e+01 9.680873e+00 3.215337e-01 1.056776e+01 -9.884067e-01 8.729281e-01 1.525056e+01 8.040023e+00 3.474433e-01 7.930385e-01 6.290314e-01 -3.293372e-01 4.786405e-01 1.363504e+01 -8.023395e-01 9.101609e+00 -5.562317e-01 1.455890e+00 1.047346e+01 9.260094e+00 8.928833e+00 1.235385e+01 9.154270e+00 9.135723e+00 9.668159e+00 1.052156e+01 1.077520e+01 9.410240e+00 1.057578e+01
<VARIANCE> 40
 3.164894e-01 3.914958e-01 9.160672e+00 7.663749e+00 7.027611e+00 3.037761e-01 2.009074e+01 7.890033e+00 8.560865e+00 3.717891e-01 5.558490e+00 3.657694e-01 4.137202e-01 7.575716e+00 3.350962e-01 7.475449e+00 5.855815e+00 1.089094e+01 4.621586e-01 6.066668e+00 7.369417e+00 5.749942e+00 7.290366e+00 5.972624e+00 7.136736e+00 6.499399e+00 2.852613e-01 7.105742e+00 5.781651e+00 3.848577e-01 3.006219e-01 3.967811e-01 1.034715e+01 4.238150e-01 3.958872e-01 3.899102e-01 3.159507e-01 3.846439e-01 3.552349e-01 3.710514e-01
<GCONST> 9.682994e+01
<MIXTURE> 7 4.966104e-02
<MEAN> 40
 1.249377e+01 1.243537e+01 1.677980e+01 2.694538e+00 3.257161e+00 1.394461e+01 -2.092709e+00 2.005085e+00 -1.654039e+00 1.364679e+01 -7.693779e-01 1.385343e+01 1.258312e+01 -2.951538e-01 1.376125e+01 -3.384390e-01 1.671091e+00 1.721795e+01 1.047188e+01 2.937956e+00 -8.548617e-01 2.910776e+00 -1.367836e+00 1.208891e+00 1.396145e+01 -3.226163e+00 1.178071e+01 -3.215234e+00 2.901565e+00 1.341714e+01 1.242628e+01 1.225663e+01 1.387603e+01 1.271626e+01 1.204552e+01 1.221229e+01 1.388607e+01 1.415997e+01 1.224304e+01 1.383910e+01
<VARIANCE> 40
 2.404279e-01 3.327444e-01 5.219939e+00 6.465974e+00 6.482876e+00 2.626745e-01 1.232144e+01 6.660022e+00 5.453451e+00 3.102634e-01 4.021554e+00 2.914903e-01 3.918903e-01 5.661760e+00 3.118054e-01 4.913208e+00 7.168283e+00 8.802157e+00 3.692316e-01 4.988393e+00 4.849430e+00 5.234735e+00 5.523266e+00 5.097870e+00 6.904935e+00 4.433705e+00 3.454381e-01 5.453095e+00 4.608242e+00 4.298998e-01 2.389134e-01 2.789529e-01 8.989182e+00 3.061683e-01 3.430892e-01 3.723437e-01 3.528304e-01 3.449998e-01 2.920223e-01 3.898857e-01
<GCONST> 8.938984e+01
<MIXTURE> 8 5.592620e-02
<MEAN> 40
 1.080356e+01 1.103014e+01 1.441885e+01 1.591593e+00 1.641911e+00 1.233520e+01 -9.000144e-01 1.506473e+00 -9.523630e-01 1.190950e+01 -3.860730e-01 1.198606e+01 1.097739e+01 -8.580618e-02 1.205778e+01 -9.866487e-01 7.961060e-01 1.592809e+01 9.361970e+00 6.877288e-01 3.656210e-01 8.670854e-01 -5.841255e-01 5.600564e-01 1.384407e+01 -1.178382e+00 1.037354e+01 -8.701913e-01 1.555297e+00 1.191252e+01 1.078121e+01 1.039033e+01 1.344003e+01 1.079225e+01 1.053529e+01 1.098303e+01 1.205788e+01 1.229246e+01 1.081376e+01 1.216078e+01
<VARIANCE> 40
 3.013943e-01 3.631370e-01 8.528646e+00 6.758916e+00 6.628098e+00 2.286860e-01 1.773782e+01 6.892200e+00 6.365103e+00 3.686930e-01 5.100868e+00 3.398007e-01 3.838176e-01 6.216794e+00 2.930567e-01 5.644311e+00 5.421353e+00 9.928731e+00 4.600618e-01 5.914767e+00 6.025279e+00 4.973274e+00 6.361709e+00 5.318631e+00 7.652016e+00 5.302837e+00 2.787283e-01 6.428141e+00 4.948824e+00 3.350558e-01 2.640058e-01 3.628744e-01 1.074654e+01 3.660619e-01 3.671497e-01 3.617041e-01 3.177876e-01 3.226084e-01 3.001425e-01 3.335650e-01
<GCONST> 9.248166e+01
<MIXTURE> 9 6.436181e-02
<MEAN> 40
 1.045563e+01 1.106050e+01 1.452938e+01 4.662066e+00 4.923143e+00 1.166678e+01 -8.296746e+00 1.624195e+00 -5.560432e+00 1.197398e+01 -2.258436e+00 1.154069e+01 1.105881e+01 -1.225564e+00 1.154453e+01 -2.590707e+00 1.333689e+00 1.543928e+01 9.076341e+00 4.144763e+00 -3.143705e+00 3.798404e+00 -5.518294e+00 1.354323e+00 1.484826e+01 -5.628182e+00 1.046941e+01 -5.400805e+00 4.804101e+00 1.179096e+01 1.025091e+01 1.064348e+01 1.115944e+01 1.029168e+01 1.016564e+01 1.037169e+01 1.176188e+01 1.184467e+01 1.043270e+01 1.175464e+01
<VARIANCE> 40
 3.210036e-01 4.805808e-01 6.287826e+00 1.036939e+01 8.996723e+00 3.547976e-01 1.380121e+01 1.170710e+01 9.319369e+00 4.112951e-01 6.367111e+00 3.786411e-01 4.038720e-01 8.178692e+00 3.201805e-01 8.568028e+00 1.106629e+01 8.130266e+00 4.396208e-01 8.157213e+00 8.496586e+00 6.716108e+00 8.948370e+00 8.787992e+00 6.642379e+00 6.242090e+00 3.232152e-01 7.541701e+00 6.028130e+00 4.806437e-01 3.401586e-01 4.160625e-01 8.218484e+00 4.001512e-01 3.717621e-01 4.787351e-01 3.583941e-01 4.223351e-01 4.240919e-01 4.387858e-01
<GCONST> 1.003014e+02
<MIXTURE> 10 6.448592e-02
<MEAN> 40
 1.328839e+01 1.318353e+01 1.785486e+01 4.683626e+00 5.668797e+00 1.470086e+01 -3.047848e+00 2.331194e+00 -3.516542e+00 1.449713e+01 -1.181012e+00 1.456828e+01 1.352292e+01 1.934120e-02 1.466484e+01 -6.846985e-01 3.107833e+00 1.748614e+01 1.093294e+01 4.887281e+00 -2.389918e+00 4.780509e+00 -2.854111e+00 1.204007e+00 1.405923e+01 -4.941489e+00 1.245267e+01 -5.706764e+00 4.907697e+00 1.403959e+01 1.339256e+01 1.327318e+01 1.402824e+01 1.369489e+01 1.258050e+01 1.257440e+01 1.494056e+01 1.519236e+01 1.284682e+01 1.470103e+01
<VARIANCE> 40
 2.261909e-01 3.086337e-01 4.013829e+00 8.660687e+00 6.604222e+00 2.500361e-01 1.469341e+01 7.225470e+00 7.602725e+00 3.349418e-01 4.630817e+00 2.795898e-01 3.417473e-01 6.562241e+00 3.021676e-01 5.931520e+00 8.245376e+00 8.329958e+00 3.114624e-01 5.275833e+00 5.402816e+00 5.870406e+00 7.096480e+00 5.483931e+00 5.094100e+00 4.876389e+00 3.318640e-01 5.311311e+00 6.071516e+00 3.790436e-01 2.560633e-01 3.314214e-01 7.915487e+00 2.720588e-01 3.133903e-01 3.613855e-01 3.349554e-01 4.057595e-01 2.813028e-01 3.340974e-01
<GCONST> 9.037153e+01
<MIXTURE> 11 6.038282e-02
<MEAN> 40
 1.196213e+01 1.235558e+01 1.531258e+01 4.904121e+00 5.205722e+00 1.328232e+01 -6.815745e+00 2.039668e+00 -5.441493e+00 1.333633e+01 -1.976247e+00 1.319549e+01 1.240116e+01 -6.838883e-01 1.316957e+01 -2.263701e+00 1.812185e+00 1.564169e+01 1.033657e+01 4.768859e+00 -2.680256e+00 4.331018e+00 -4.538633e+00 1.635825e+00 1.506410e+01 -5.345937e+00 1.165441e+01 -5.727869e+00 4.902005e+00 1.321233e+01 1.187434e+01 1.200088e+01 1.280354e+01 1.200339e+01 1.156721e+01 1.155820e+01 1.332581e+01 1.364141e+01 1.181876e+01 1.351795e+01
<VARIANCE> 40
 2.740893e-01 4.380891e-01 5.350342e+00 9.042664e+00 7.616106e+00 3.108428e-01 1.439446e+01 1.066534e+01 8.217191e+00 3.606631e-01 5.542780e+00 3.390063e-01 3.640083e-01 7.361231e+00 3.257158e-01 8.218739e+00 1.031403e+01 9.166999e+00 4.792605e-01 6.329735e+00 6.560544e+00 5.674742e+00 8.602534e+00 8.273796e+00 6.669494e+00 5.087569e+00 3.137008e-01 6.407997e+00 5.282198e+00 3.976936e-01 3.095533e-01 3.575436e-01 7.847955e+00 4.111266e-01 3.321947e-01 4.075762e-01 3.824471e-01 4.471327e-01 4.010591e-01 3.695824e-01
<GCONST> 9.665928e+01
<MIXTURE> 12 4.178509e-02
<MEAN> 40
 1.476144e+01 1.452153e+01 1.872471e+01 3.979597e+00 5.261479e+00 1.620687e+01 -2.841839e+00 2.518594e+00 -2.873550e+00 1.590687e+01 -9.958959e-01 1.612089e+01 1.494319e+01 -1.578684e-01 1.635008e+01 -1.909178e-01 2.845458e+00 1.709560e+01 1.248075e+01 4.733050e+00 -2.122180e+00 5.177165e+00 -2.128940e+00 1.680240e+00 1.466828e+01 -4.659933e+00 1.377873e+01 -5.318991e+00 4.565315e+00 1.554761e+01 1.507638e+01 1.463056e+01 1.607681e+01 1.516471e+01 1.414884e+01 1.415007e+01 1.641627e+01 1.690328e+01 1.432442e+01 1.637654e+01
<VARIANCE> 40
 2.478621e-01 3.274561e-01 4.401079e+00 8.066040e+00 5.544976e+00 2.917713e-01 1.607968e+01 6.303056e+00 7.574462e+00 3.483028e-01 4.109816e+00 3.119608e-01 3.577539e-01 6.719121e+00 2.995863e-01 5.189470e+00 9.775997e+00 6.903954e+00 4.078289e-01 4.626791e+00 4.525642e+00 4.990744e+00 6.332143e+00 4.757885e+00 4.948162e+00 4.001853e+00 3.021319e-01 5.149163e+00 4.747507e+00 3.540375e-01 2.431555e-01 2.747344e-01 6.525465e+00 2.805864e-01 3.123739e-01 3.528066e-01 3.744214e-01 3.340767e-01 2.881239e-01 3.489704e-01
<GCONST> 8.884423e+01
<MIXTURE> 13 5.950379e-02
<MEAN> 40
 1.347835e+01 1.365810e+01 1.680603e+01 2.168353e+00 2.683041e+00 1.501235e+01 -4.107022e+00 1.703768e+00 -1.840631e+00 1.464821e+01 -6.735915e-01 1.484337e+01 1.341679e+01 -1.565831e+00 1.496687e+01 -1.961130e+00 -3.332983e-01 1.615838e+01 1.207723e+01 2.920306e+00 4.899243e-02 2.511225e+00 -2.196387e+00 1.579909e+00 1.462689e+01 -2.654751e+00 1.290572e+01 -2.759361e+00 2.250947e+00 1.480616e+01 1.360810e+01 1.325117e+01 1.522854e+01 1.362316e+01 1.329066e+01 1.341382e+01 1.475170e+01 1.526692e+01 1.357309e+01 1.525566e+01
<VARIANCE> 40
 2.944663e-01 3.746248e-01 6.600671e+00 5.825732e+00 6.296286e+00 2.971782e-01 1.406635e+01 6.755819e+00 7.163874e+00 3.678581e-01 3.944990e+00 3.512003e-01 3.881129e-01 5.881244e+00 3.398568e-01 5.738205e+00 5.768572e+00 8.653787e+00 4.518909e-01 5.413608e+00 6.256249e+00 5.671469e+00 6.804784e+00 4.470921e+00 7.099852e+00 4.923908e+00 2.934252e-01 5.200376e+00 4.458483e+00 3.882793e-01 2.866932e-01 3.531204e-01 9.521965e+00 3.326453e-01 3.668500e-01 3.620616e-01 3.335381e-01 3.148509e-01 3.649127e-01 3.253713e-01
<GCONST> 9.170329e+01
<MIXTURE> 14 4.357321e-02
<MEAN> 40
 1.015874e+01 1.044545e+01 1.356736e+01 1.346732e+00 1.399509e+00 1.166694e+01 -3.754839e-01 1.315385e+00 -7.949184e-01 1.116175e+01 -2.552091e-01 1.126432e+01 1.039299e+01 7.405484e-02 1.139629e+01 -8.978261e-01 7.471417e-01 1.543552e+01 8.832744e+00 4.280858e-01 7.824737e-01 5.879660e-01 -2.514933e-01 3.924342e-01 1.384740e+01 -6.825544e-01 9.814331e+00 -4.973756e-01 1.232745e+00 1.125435e+01 1.007956e+01 9.736061e+00 1.335121e+01 1.003331e+01 9.913631e+00 1.039434e+01 1.130577e+01 1.156469e+01 1.022396e+01 1.149675e+01
<VARIANCE> 40
 2.917570e-01 3.736818e-01 8.987488e+00 7.440592e+00 6.167820e+00 2.795644e-01 1.793628e+01 7.512220e+00 7.768759e+00 3.303781e-01 5.081874e+00 3.500786e-01 3.711794e-01 6.989240e+00 3.026092e-01 6.253107e+00 5.313242e+00 1.052146e+01 4.005409e-01 5.587947e+00 6.621251e+00 5.209949e+00 6.734673e+00 5.596825e+00 7.180954e+00 5.609418e+00 2.720865e-01 6.378203e+00 4.889039e+00 3.339441e-01 2.756820e-01 3.656458e-01 1.042806e+01 3.765484e-01 3.824644e-01 3.634885e-01 3.135908e-01 3.396574e-01 3.257764e-01 3.152094e-01
<GCONST> 9.338110e+01
<MIXTURE> 15 5.787101e-02
<MEAN> 40
 1.268541e+01 1.307230e+01 1.598399e+01 4.555935e+00 4.807777e+00 1.394329e+01 -7.341318e+00 2.320364e+00 -5.363845e+00 1.395215e+01 -1.831477e+00 1.391757e+01 1.301720e+01 -1.275006e+00 1.403472e+01 -2.510861e+00 1.162885e+00 1.527102e+01 1.114774e+01 4.855356e+00 -2.276813e+00 4.544011e+00 -4.535465e+00 2.216978e+00 1.523195e+01 -5.295310e+00 1.236137e+01 -5.695342e+00 4.748442e+00 1.390635e+01 1.275406e+01 1.275506e+01 1.359052e+01 1.272704e+01 1.229196e+01 1.235610e+01 1.402900e+01 1.448087e+01 1.255731e+01 1.434688e+01
<VARIANCE> 40
 2.698170e-01 4.373911e-01 6.026125e+00 8.456804e+00 6.895003e+00 2.898023e-01 1.245144e+01 9.325734e+00 7.997689e+00 3.877237e-01 4.874316e+00 3.374412e-01 4.116764e-01 7.068184e+00 3.531824e-01 7.897260e+00 1.120471e+01 7.980432e+00 4.640993e-01 6.107052e+00 7.384383e+00 6.168316e+00 7.608823e+00 7.157866e+00 6.478384e+00 5.323830e+00 3.158283e-01 6.566452e+00 5.405159e+00 3.876114e-01 3.070989e-01 3.539286e-01 8.037948e+00 4.067251e-01 3.624221e-01 4.345384e-01 3.668062e-01 4.412802e-01 3.901984e-01 3.557138e-01
<GCONST> 9.616148e+01
<MIXTURE> 16 5.341182e-02
<MEAN> 40
 9.370873e+00 1.012858e+01 1.432398e+01 5.091832e+00 5.359185e+00 1.045561e+01 -1.004632e+01 1.867242e+00 -6.428853e+00 1.098405e+01 -2.994061e+00 1.031617e+01 1.015456e+01 -1.649594e+00 1.033523e+01 -2.880801e+00 1.190848e+00 1.507933e+01 7.998910e+00 4.319198e+00 -3.944212e+00 3.949620e+00 -6.424242e+00 1.072028e+00 1.477429e+01 -6.554194e+00 9.625514e+00 -6.230733e+00 5.475222e+00 1.065714e+01 9.089199e+00 9.759761e+00 1.002096e+01 9.026617e+00 9.137520e+00 9.458416e+00 1.061247e+01 1.065649e+01 9.372582e+00 1.053464e+01
<VARIANCE> 40
 3.663951e-01 5.731477e-01 8.028571e+00 1.075436e+01 1.093317e+01 4.060510e-01 1.328935e+01 1.238901e+01 1.033418e+01 4.552004e-01 6.401109e+00 4.591473e-01 4.862626e-01 1.013060e+01 4.251993e-01 1.072265e+01 1.145872e+01 7.660250e+00 5.353796e-01 1.109289e+01 9.148185e+00 7.156250e+00 9.175614e+00 9.708339e+00 6.778044e+00 6.546666e+00 4.219994e-01 8.667842e+00 6.226161e+00 4.995218e-01 4.160951e-01 4.930693e-01 9.033247e+00 4.786720e-01 4.553346e-01 4.806421e-01 4.623755e-01 4.968580e-01 5.016290e-01 4.958084e-01
<GCONST> 1.053954e+02
<MIXTURE> 17 4.659628e-02
<MEAN> 40
 1.437364e+01 1.443658e+01 1.743626e+01 9.314613e-01 1.624827e+00 1.621370e+01 -2.845335e+00 2.049784e+00 -5.239841e-01 1.555662e+01 2.160758e-01 1.592389e+01 1.427210e+01 -1.450046e+00 1.614312e+01 -1.432862e+00 -1.636067e-01 1.663385e+01 1.317673e+01 1.451351e+00 5.977201e-01 1.620218e+00 -1.321651e+00 9.924914e-01 1.463301e+01 -1.448419e+00 1.362437e+01 -1.449571e+00 1.333062e+00 1.580450e+01 1.474532e+01 1.402066e+01 1.773231e+01 1.470199e+01 1.432631e+01 1.461871e+01 1.585784e+01 1.639312e+01 1.453681e+01 1.628926e+01
<VARIANCE> 40
 2.726600e-01 3.612859e-01 7.903814e+00 4.716582e+00 4.292933e+00 2.948815e-01 1.245282e+01 4.780403e+00 6.479141e+00 3.505350e-01 3.485266e+00 3.247088e-01 3.648922e-01 5.072776e+00 3.294166e-01 4.131466e+00 3.807163e+00 8.276651e+00 4.003455e-01 5.255737e+00 4.652138e+00 4.949701e+00 4.667461e+00 3.741654e+00 5.973967e+00 4.427000e+00 2.882373e-01 5.121683e+00 3.817485e+00 3.845975e-01 2.471588e-01 2.699274e-01 1.015670e+01 2.856428e-01 3.643760e-01 3.146119e-01 3.136893e-01 3.034240e-01 3.062302e-01 3.303953e-01
<GCONST> 8.679473e+01
<MIXTURE> 18 4.903278e-02
<MEAN> 40
 1.197016e+01 1.210490e+01 1.463241e+01 1.015174e+00 1.360697e+00 1.355843e+01 -1.577772e+00 1.730374e+00 -7.794302e-01 1.304459e+01 -1.032936e-01 1.320491e+01 1.208435e+01 -3.166211e-01 1.333466e+01 -6.902446e-01 4.801724e-01 1.552700e+01 1.061732e+01 8.030115e-01 3.300382e-01 9.256446e-01 -6.524256e-01 5.809726e-01 1.402116e+01 -1.197242e+00 1.141541e+01 -8.666230e-01 1.128634e+00 1.318896e+01 1.201024e+01 1.156106e+01 1.496168e+01 1.205255e+01 1.167107e+01 1.214517e+01 1.324567e+01 1.356329e+01 1.198634e+01 1.344908e+01
<VARIANCE> 40
 3.035449e-01 3.691193e-01 9.055321e+00 5.738179e+00 5.994159e+00 2.714721e-01 1.505747e+01 6.266646e+00 6.851123e+00 2.700443e-01 4.282233e+00 2.840613e-01 3.724293e-01 5.573910e+00 3.027632e-01 6.258770e+00 5.025524e+00 1.010133e+01 4.697938e-01 5.436128e+00 5.392000e+00 5.491824e+00 5.102059e+00 4.288085e+00 6.677270e+00 5.118427e+00 2.833728e-01 5.616264e+00 4.547841e+00 3.845641e-01 2.604850e-01 3.098291e-01 1.081810e+01 2.935134e-01 3.781069e-01 3.739142e-01 2.906449e-01 3.391337e-01 2.883070e-01 3.495568e-01
<GCONST> 9.045548e+01
<MIXTURE> 19 6.391053e-02
<MEAN> 40
 1.123176e+01 1.182461e+01 1.477570e+01 4.721911e+00 4.994486e+00 1.250322e+01 -8.213599e+00 1.884135e+00 -5.899589e+00 1.272527e+01 -2.278926e+00 1.240112e+01 1.179675e+01 -1.133213e+00 1.239982e+01 -2.608903e+00 1.367815e+00 1.517558e+01 9.848037e+00 4.505621e+00 -2.928753e+00 4.160852e+00 -5.305377e+00 1.720196e+00 1.497933e+01 -5.630423e+00 1.116234e+01 -5.545227e+00 4.773564e+00 1.261015e+01 1.108763e+01 1.134955e+01 1.205088e+01 1.115207e+01 1.090713e+01 1.104415e+01 1.261474e+01 1.278812e+01 1.121526e+01 1.271987e+01
<VARIANCE> 40
 2.798374e-01 4.545036e-01 6.269447e+00 1.011619e+01 8.375437e+00 3.426116e-01 1.392993e+01 1.084033e+01 9.207722e+00 4.200063e-01 6.198757e+00 3.303165e-01 3.762290e-01 8.159643e+00 3.048040e-01 9.357412e+00 1.032796e+01 7.970315e+00 4.965959e-01 7.063984e+00 7.572315e+00 6.468519e+00 8.379398e+00 7.791779e+00 6.404523e+00 5.941765e+00 3.350309e-01 6.634609e+00 5.194125e+00 4.247910e-01 3.136367e-01 3.798755e-01 8.525627e+00 3.918232e-01 3.551345e-01 4.545738e-01 3.782518e-01 4.117201e-01 4.107145e-01 3.642461e-01
<GCONST> 9.837389e+01
<MIXTURE> 20 3.481024e-02
<MEAN> 40
 8.232447e+00 8.821744e+00 1.295535e+01 1.612530e+00 1.739469e+00 9.607397e+00 -1.016125e+00 1.276457e+00 -9.724269e-01 9.410761e+00 -1.161010e+00 9.154466e+00 8.628899e+00 1.928041e-01 9.351683e+00 -1.178149e+00 9.092726e-01 1.533120e+01 6.891791e+00 3.352720e-01 5.250111e-01 2.539396e-01 -6.264278e-01 6.486366e-01 1.403749e+01 -1.474517e+00 8.118784e+00 -6.826779e-01 1.816297e+00 9.231286e+00 8.062950e+00 7.922694e+00 1.186756e+01 7.871171e+00 8.060078e+00 8.636876e+00 9.360616e+00 9.480865e+00 8.273775e+00 9.327363e+00
<VARIANCE> 40
 4.254835e-01 5.144933e-01 1.117305e+01 9.458020e+00 9.920247e+00 4.940294e-01 2.906004e+01 9.680118e+00 1.195378e+01 4.895275e-01 7.084143e+00 5.053137e-01 4.919225e-01 9.620264e+00 4.838138e-01 7.825761e+00 6.274621e+00 9.070340e+00 5.718548e-01 9.088105e+00 9.772826e+00 7.480677e+00 1.003098e+01 6.330526e+00 8.171502e+00 8.180064e+00 4.039750e-01 9.339472e+00 6.487022e+00 5.485548e-01 4.157470e-01 5.639730e-01 1.032304e+01 6.497945e-01 5.508146e-01 5.140914e-01 4.530832e-01 4.827083e-01 4.700628e-01 5.461715e-01
<GCONST> 1.070566e+02
<STATE> 4
<NUMMIXES> 20
<MIXTURE> 1 3.142317e-02
<MEAN> 40
 1.656030e+01 1.633517e+01 1.694285e+01 7.447045e-01 1.512368e+00 1.867254e+01 -1.347456e+00 1.965650e+00 -4.652232e-01 1.741288e+01 1.182727e+00 1.802981e+01 1.620661e+01 -2.283361e-01 1.865319e+01 -1.378170e+00 7.142454e-01 1.773542e+01 1.558783e+01 -2.054406e-01 5.041492e-01 4.293968e-01 -1.069692e-01 3.577609e-01 1.572945e+01 -4.624691e-01 1.526072e+01 2.458293e-01 1.163653e+00 1.806657e+01 1.697685e+01 1.593099e+01 2.184879e+01 1.708660e+01 1.651512e+01 1.677815e+01 1.823584e+01 1.880380e+01 1.684703e+01 1.862440e+01
<VARIANCE> 40
 4.884920e-01 4.641663e-01 6.877311e+00 4.936963e+00 3.834783e+00 4.284692e-01 1.050609e+01 3.603474e+00 5.723133e+00 3.776011e-01 4.046477e+00 4.337910e-01 3.592610e-01 6.008037e+00 4.983756e-01 3.490211e+00 2.793108e+00 8.437444e+00 5.056366e-01 4.546313e+00 4.802284e+00 3.881105e+00 5.529940e+00 2.966743e+00 4.518173e+00 3.706431e+00 3.255622e-01 3.969465e+00 3.319865e+00 5.752896e-01 3.851589e-01 3.831283e-01 5.579107e+00 4.162755e-01 4.211231e-01 4.019789e-01 5.127102e-01 4.456176e-01 4.145216e-01 4.921757e-01
<GCONST> 8.986653e+01
<MIXTURE> 2 3.395338e-02
<MEAN> 40
 1.253391e+01 1.254289e+01 1.807934e+01 5.302591e+00 6.672720e+00 1.391139e+01 -3.733737e+00 2.358951e+00 -3.708797e+00 1.384530e+01 -1.522584e+00 1.374768e+01 1.286257e+01 -1.057643e-01 1.380565e+01 -1.016541e+00 3.143128e+00 1.823090e+01 1.007734e+01 5.637609e+00 -2.825110e+00 5.092801e+00 -3.962915e+00 1.059312e+00 1.338310e+01 -5.561490e+00 1.180247e+01 -6.850574e+00 5.586859e+00 1.312970e+01 1.252486e+01 1.279903e+01 1.281804e+01 1.303716e+01 1.178311e+01 1.168405e+01 1.425573e+01 1.438892e+01 1.198295e+01 1.390172e+01
<VARIANCE> 40
 2.108350e-01 2.604916e-01 4.059588e+00 1.002954e+01 5.583348e+00 2.709353e-01 1.123495e+01 8.023497e+00 8.216703e+00 3.216751e-01 4.590712e+00 2.636722e-01 3.148352e-01 8.097469e+00 2.808971e-01 6.382680e+00 7.119038e+00 6.689536e+00 2.810888e-01 4.805265e+00 5.794075e+00 5.823797e+00 7.006806e+00 5.629447e+00 4.291795e+00 4.209503e+00 3.560009e-01 4.848495e+00 6.111425e+00 3.412848e-01 2.630843e-01 2.966560e-01 7.896609e+00 2.343279e-01 3.332835e-01 3.510806e-01 2.922408e-01 4.023722e-01 2.697405e-01 3.079396e-01
<GCONST> 8.874115e+01
<MIXTURE> 3 4.009837e-02
<MEAN> 40
 1.431112e+01 1.466526e+01 1.886339e+01 3.559783e+00 4.815554e+00 1.637050e+01 -6.599643e+00 1.896593e+00 1.134497e+00 1.593917e+01 -1.173717e+00 1.613276e+01 1.450444e+01 -5.195524e+00 1.624625e+01 -4.548297e+00 -9.330214e-01 1.891615e+01 1.339568e+01 4.372510e+00 2.608851e+00 2.875084e+00 -5.029860e+00 1.936177e+00 1.497565e+01 -3.555765e+00 1.379245e+01 -4.286180e+00 2.734315e+00 1.591302e+01 1.473149e+01 1.443960e+01 1.718951e+01 1.490596e+01 1.471354e+01 1.486924e+01 1.586197e+01 1.663204e+01 1.492290e+01 1.653734e+01
<VARIANCE> 40
 3.491161e-01 4.456652e-01 8.797670e+00 7.488809e+00 6.164764e+00 3.684973e-01 1.377894e+01 6.599579e+00 1.661903e+01 3.325423e-01 5.041101e+00 3.902448e-01 3.539307e-01 8.218779e+00 4.023033e-01 5.520698e+00 8.622198e+00 6.901670e+00 4.195510e-01 1.053530e+01 9.409811e+00 1.060732e+01 8.671909e+00 5.353663e+00 5.535600e+00 7.763506e+00 3.169330e-01 6.135026e+00 5.124308e+00 4.668333e-01 3.981150e-01 3.488477e-01 7.967919e+00 3.823207e-01 3.563060e-01 4.270517e-01 4.396760e-01 3.746020e-01 3.879754e-01 3.989433e-01
<GCONST> 9.832388e+01
<MIXTURE> 4 4.875091e-02
<MEAN> 40
 9.878966e+00 1.028203e+01 1.631088e+01 3.730516e+00 4.213002e+00 1.126847e+01 -5.979565e+00 2.430008e+00 -2.723253e+00 1.131437e+01 -1.569754e+00 1.109608e+01 1.027966e+01 -2.529710e+00 1.094757e+01 -2.915014e+00 -2.992223e-01 1.681290e+01 8.253065e+00 3.485553e+00 -8.468065e-01 2.859899e+00 -3.790751e+00 2.130165e+00 1.390881e+01 -4.094976e+00 9.836263e+00 -4.422677e+00 3.815451e+00 1.107456e+01 9.698706e+00 1.017824e+01 1.010351e+01 9.889546e+00 9.689905e+00 1.001234e+01 1.113079e+01 1.138298e+01 9.851274e+00 1.112927e+01
<VARIANCE> 40
 2.975693e-01 3.609629e-01 7.744647e+00 1.109165e+01 8.190661e+00 2.961924e-01 1.220361e+01 9.640606e+00 8.899032e+00 4.039063e-01 5.786141e+00 3.341934e-01 4.020063e-01 7.548337e+00 3.333327e-01 5.846797e+00 8.759052e+00 8.857549e+00 4.680037e-01 8.537189e+00 7.555440e+00 7.257706e+00 8.195826e+00 6.150048e+00 7.006556e+00 6.203252e+00 3.414137e-01 7.760842e+00 6.781812e+00 4.161517e-01 3.275465e-01 3.757553e-01 1.042545e+01 3.949793e-01 3.873266e-01 4.925743e-01 3.351135e-01 4.529733e-01 3.892956e-01 3.734554e-01
<GCONST> 9.840230e+01
<MIXTURE> 5 4.736512e-02
<MEAN> 40
 1.174940e+01 1.187340e+01 1.818817e+01 4.708286e+00 6.189311e+00 1.310341e+01 -5.088423e+00 2.682113e+00 -3.214596e+00 1.312355e+01 -1.531514e+00 1.294887e+01 1.211659e+01 -1.657070e+00 1.308253e+01 -2.069127e+00 1.981501e+00 1.829917e+01 9.496989e+00 5.307270e+00 -2.173212e+00 4.693759e+00 -4.166949e+00 1.599603e+00 1.319852e+01 -5.833360e+00 1.117055e+01 -6.576256e+00 5.139725e+00 1.239358e+01 1.168577e+01 1.214356e+01 1.189591e+01 1.218474e+01 1.115630e+01 1.111577e+01 1.343217e+01 1.348077e+01 1.133170e+01 1.306711e+01
<VARIANCE> 40
 2.059176e-01 2.717025e-01 4.462250e+00 8.849718e+00 6.383057e+00 2.652451e-01 1.151583e+01 8.283065e+00 8.287981e+00 3.438030e-01 4.828510e+00 3.001136e-01 3.647326e-01 8.146432e+00 2.822903e-01 7.197929e+00 8.308261e+00 7.037924e+00 2.848280e-01 5.881123e+00 7.098696e+00 7.289157e+00 7.435602e+00 6.010254e+00 5.371892e+00 4.742747e+00 4.169465e-01 6.018543e+00 6.638648e+00 3.260944e-01 2.757092e-01 2.999863e-01 8.110853e+00 2.511843e-01 3.243702e-01 4.085662e-01 3.669805e-01 4.067510e-01 3.009069e-01 3.075837e-01
<GCONST> 9.178527e+01
<MIXTURE> 6 6.408795e-02
<MEAN> 40
 1.257372e+01 1.286587e+01 1.667682e+01 1.940880e+00 2.763964e+00 1.434581e+01 -5.258481e+00 1.684729e+00 -1.975866e-01 1.400007e+01 -8.401039e-01 1.405802e+01 1.273407e+01 -3.252778e+00 1.407084e+01 -2.921797e+00 -1.092013e+00 1.719507e+01 1.148893e+01 2.777355e+00 1.586760e+00 2.076272e+00 -2.880929e+00 1.592435e+00 1.463735e+01 -2.438160e+00 1.221705e+01 -2.688771e+00 1.889007e+00 1.403668e+01 1.273109e+01 1.253607e+01 1.510050e+01 1.286783e+01 1.271038e+01 1.293636e+01 1.387997e+01 1.438675e+01 1.289162e+01 1.441174e+01
<VARIANCE> 40
 3.076535e-01 4.215551e-01 9.091609e+00 5.522856e+00 5.665372e+00 3.130127e-01 1.242244e+01 7.551489e+00 9.342126e+00 3.270727e-01 4.367772e+00 3.502421e-01 3.522935e-01 6.331873e+00 2.764170e-01 5.076222e+00 4.826533e+00 8.594119e+00 4.094977e-01 6.386321e+00 6.773848e+00 6.438806e+00 5.943617e+00 4.474793e+00 6.768081e+00 5.220086e+00 3.034835e-01 5.168283e+00 4.772697e+00 3.959713e-01 3.006212e-01 3.610990e-01 1.133143e+01 3.178321e-01 3.616613e-01 3.352677e-01 3.310885e-01 3.275215e-01 3.399742e-01 3.449622e-01
<GCONST> 9.216622e+01
<MIXTURE> 7 4.830820e-02
<MEAN> 40
 1.322743e+01 1.359351e+01 1.925405e+01 4.282174e+00 5.684243e+00 1.515470e+01 -8.043558e+00 2.352734e+00 -1.375036e+00 1.493701e+01 -1.638899e+00 1.499987e+01 1.357068e+01 -5.454328e+00 1.500595e+01 -4.921964e+00 -2.491584e+00 1.830691e+01 1.214146e+01 6.309700e+00 1.446982e+00 4.963870e+00 -5.648850e+00 3.030957e+00 1.489172e+01 -5.322717e+00 1.302993e+01 -5.434902e+00 3.879120e+00 1.467778e+01 1.351302e+01 1.366474e+01 1.470107e+01 1.374959e+01 1.358099e+01 1.360293e+01 1.482720e+01 1.540518e+01 1.378270e+01 1.537028e+01
<VARIANCE> 40
 2.689698e-01 3.920913e-01 7.377668e+00 7.246328e+00 7.020272e+00 3.150556e-01 1.387412e+01 7.369473e+00 1.272770e+01 3.487443e-01 4.449764e+00 3.462363e-01 3.304302e-01 7.021537e+00 3.350655e-01 5.382534e+00 6.178031e+00 6.763093e+00 3.792328e-01 6.924873e+00 1.188367e+01 7.595285e+00 7.891380e+00 5.141051e+00 5.846001e+00 6.113084e+00 3.330441e-01 6.288225e+00 5.378212e+00 4.514243e-01 3.635511e-01 3.631368e-01 7.527416e+00 3.164500e-01 3.319531e-01 4.386362e-01 4.081391e-01 3.453284e-01 4.244636e-01 3.672946e-01
<GCONST> 9.522421e+01
<MIXTURE> 8 5.953488e-02
<MEAN> 40
 1.185009e+01 1.220844e+01 1.622657e+01 2.972469e+00 3.487382e+00 1.346034e+01 -6.508432e+00 1.249135e+00 -7.951302e-01 1.336970e+01 -1.517782e+00 1.325029e+01 1.207133e+01 -3.898922e+00 1.318601e+01 -3.642258e+00 -1.627913e+00 1.694185e+01 1.077911e+01 3.760486e+00 1.658563e+00 2.583264e+00 -4.008885e+00 2.232576e+00 1.471901e+01 -3.091511e+00 1.167739e+01 -3.130764e+00 2.579925e+00 1.342495e+01 1.183367e+01 1.196569e+01 1.356743e+01 1.199371e+01 1.196819e+01 1.213888e+01 1.300076e+01 1.355363e+01 1.220986e+01 1.365580e+01
<VARIANCE> 40
 2.935668e-01 5.211127e-01 8.599430e+00 6.882177e+00 5.711174e+00 3.144134e-01 1.310139e+01 9.837843e+00 9.767419e+00 3.282308e-01 4.848665e+00 3.478313e-01 3.526478e-01 7.145836e+00 2.907093e-01 5.145550e+00 5.417834e+00 8.836822e+00 4.101118e-01 6.143245e+00 8.336324e+00 6.654693e+00 6.194784e+00 5.218520e+00 7.397092e+00 4.950691e+00 3.218938e-01 5.625371e+00 5.516796e+00 4.274756e-01 3.197736e-01 3.460412e-01 9.805795e+00 3.367255e-01 3.717315e-01 3.465348e-01 3.095270e-01 3.326305e-01 3.607464e-01 3.416960e-01
<GCONST> 9.409100e+01
<MIXTURE> 9 6.753936e-02
<MEAN> 40
 1.074788e+01 1.124551e+01 1.625211e+01 5.119903e+00 5.473289e+00 1.228117e+01 -8.231315e+00 1.152648e+00 -3.493750e+00 1.243521e+01 -1.895713e+00 1.206632e+01 1.115371e+01 -4.099657e+00 1.193640e+01 -5.034381e+00 -3.070997e+00 1.686445e+01 9.718328e+00 5.670777e+00 5.852852e-01 4.038794e+00 -6.301095e+00 3.317370e+00 1.514318e+01 -4.780204e+00 1.093167e+01 -4.547059e+00 4.252640e+00 1.237337e+01 1.060326e+01 1.121896e+01 1.113886e+01 1.073894e+01 1.088487e+01 1.097540e+01 1.185995e+01 1.240900e+01 1.119746e+01 1.255618e+01
<VARIANCE> 40
 2.914326e-01 5.328162e-01 6.601816e+00 8.354029e+00 7.666441e+00 3.461773e-01 1.280652e+01 1.201413e+01 8.823339e+00 4.342078e-01 5.848878e+00 3.606929e-01 3.349786e-01 6.747177e+00 3.018424e-01 5.823722e+00 6.362074e+00 7.827017e+00 3.953088e-01 7.762440e+00 8.011167e+00 7.463584e+00 7.182104e+00 5.944258e+00 6.029733e+00 5.723654e+00 3.409137e-01 6.441857e+00 5.872867e+00 4.409944e-01 3.221716e-01 3.679196e-01 9.288444e+00 3.402674e-01 3.480404e-01 3.983445e-01 3.323244e-01 3.519780e-01 3.477980e-01 3.663435e-01
<GCONST> 9.613374e+01
<MIXTURE> 10 4.968137e-02
<MEAN> 40
 1.382660e+01 1.399224e+01 1.674943e+01 7.349423e-01 1.432708e+00 1.586467e+01 -2.863584e+00 2.397188e+00 4.285648e-01 1.514475e+01 3.889103e-01 1.540364e+01 1.391287e+01 -1.656675e+00 1.571331e+01 -1.811140e+00 1.202432e-01 1.762042e+01 1.279278e+01 6.705917e-01 1.285717e+00 7.941470e-01 -1.172131e+00 6.062861e-01 1.485472e+01 -8.889674e-01 1.313340e+01 -1.026377e+00 1.004894e+00 1.532100e+01 1.425603e+01 1.351814e+01 1.835904e+01 1.430679e+01 1.398143e+01 1.427067e+01 1.541017e+01 1.590787e+01 1.417401e+01 1.572097e+01
<VARIANCE> 40
 2.650830e-01 3.240113e-01 7.676735e+00 4.324747e+00 4.197094e+00 2.892865e-01 1.136808e+01 5.047547e+00 5.777512e+00 2.594527e-01 3.744012e+00 2.791637e-01 3.082251e-01 6.088341e+00 2.979110e-01 4.692839e+00 3.615806e+00 7.961649e+00 3.764129e-01 4.941493e+00 4.168468e+00 4.855798e+00 5.084363e+00 3.558059e+00 5.426060e+00 4.041415e+00 2.650912e-01 4.714206e+00 3.120711e+00 3.218928e-01 2.363249e-01 2.535060e-01 9.839360e+00 2.856920e-01 3.166815e-01 2.689968e-01 3.256400e-01 2.645031e-01 2.640370e-01 3.228186e-01
<GCONST> 8.426065e+01
<MIXTURE> 11 5.753385e-02
<MEAN> 40
 1.200743e+01 1.235067e+01 1.904841e+01 5.169666e+00 6.636816e+00 1.368876e+01 -8.005739e+00 2.676579e+00 -2.918314e+00 1.367460e+01 -1.794842e+00 1.348158e+01 1.235572e+01 -5.062129e+00 1.352960e+01 -5.009527e+00 -2.557417e+00 1.807888e+01 1.059058e+01 7.006038e+00 2.632220e-01 5.395007e+00 -6.352438e+00 3.540425e+00 1.468400e+01 -5.945817e+00 1.202465e+01 -5.765345e+00 5.009107e+00 1.330913e+01 1.202379e+01 1.267746e+01 1.203823e+01 1.236058e+01 1.209084e+01 1.214499e+01 1.358341e+01 1.400178e+01 1.235849e+01 1.390389e+01
<VARIANCE> 40
 2.625024e-01 3.746087e-01 6.129337e+00 7.463548e+00 7.060073e+00 2.833299e-01 1.191269e+01 9.425694e+00 1.024922e+01 3.663991e-01 4.876394e+00 3.671488e-01 3.293300e-01 6.271430e+00 2.793231e-01 5.559718e+00 6.479155e+00 6.234941e+00 3.404835e-01 6.487447e+00 9.278099e+00 7.863953e+00 7.499665e+00 5.535186e+00 6.132294e+00 5.254991e+00 2.908128e-01 6.870840e+00 5.946330e+00 5.086067e-01 3.239464e-01 2.925802e-01 7.753063e+00 2.783051e-01 2.820356e-01 3.742349e-01 3.505853e-01 3.121137e-01 3.596142e-01 3.415076e-01
<GCONST> 9.313769e+01
<MIXTURE> 12 3.980922e-02
<MEAN> 40
 7.979145e+00 8.863374e+00 1.530299e+01 5.122842e+00 5.668523e+00 9.171411e+00 -1.039805e+01 1.840473e+00 -4.230152e+00 9.857895e+00 -3.004544e+00 8.946531e+00 8.888832e+00 -3.932358e+00 8.940539e+00 -4.582464e+00 -1.155323e+00 1.621531e+01 6.746090e+00 4.463502e+00 -1.423859e+00 3.696069e+00 -6.415479e+00 2.195148e+00 1.445201e+01 -5.797267e+00 8.516905e+00 -6.217759e+00 5.137641e+00 9.305317e+00 7.803328e+00 8.709239e+00 8.411893e+00 7.698575e+00 8.027247e+00 8.437507e+00 9.096493e+00 9.349052e+00 8.215903e+00 9.235014e+00
<VARIANCE> 40
 4.330483e-01 5.473559e-01 9.835876e+00 1.064754e+01 1.080120e+01 4.831752e-01 1.755132e+01 1.232115e+01 1.516451e+01 6.094787e-01 7.181230e+00 4.934418e-01 4.991937e-01 1.169482e+01 4.986465e-01 8.976484e+00 1.170374e+01 8.223310e+00 5.904342e-01 1.207530e+01 1.378190e+01 9.491386e+00 1.135181e+01 9.835032e+00 7.501163e+00 9.612974e+00 5.088078e-01 1.007679e+01 7.762253e+00 5.829675e-01 4.584074e-01 5.940189e-01 1.127822e+01 5.941129e-01 5.706959e-01 4.785378e-01 5.397279e-01 5.783275e-01 5.562094e-01 6.510680e-01
<GCONST> 1.111736e+02
<MIXTURE> 13 4.768765e-02
<MEAN> 40
 1.046110e+01 1.087191e+01 1.818344e+01 5.374756e+00 6.172109e+00 1.186356e+01 -7.191561e+00 3.233797e+00 -3.623587e+00 1.201395e+01 -2.288769e+00 1.163368e+01 1.093936e+01 -3.407754e+00 1.175158e+01 -3.989501e+00 -1.261177e-01 1.793786e+01 8.604302e+00 5.592064e+00 -1.453364e+00 4.220391e+00 -5.782373e+00 2.667231e+00 1.343015e+01 -5.976473e+00 1.035824e+01 -6.474182e+00 5.002159e+00 1.139705e+01 1.027466e+01 1.117355e+01 9.839408e+00 1.078160e+01 1.012540e+01 1.033024e+01 1.208533e+01 1.218314e+01 1.043086e+01 1.190255e+01
<VARIANCE> 40
 2.659732e-01 3.284686e-01 4.960682e+00 9.589207e+00 7.554467e+00 2.936800e-01 1.170483e+01 8.442343e+00 8.489231e+00 3.624532e-01 5.309767e+00 3.116960e-01 3.555149e-01 7.298645e+00 2.934934e-01 6.343528e+00 9.891328e+00 6.839480e+00 3.030871e-01 6.661426e+00 8.285215e+00 7.035807e+00 8.337827e+00 6.782917e+00 5.684096e+00 5.264131e+00 3.861121e-01 6.542070e+00 6.810524e+00 4.175634e-01 2.996588e-01 2.624177e-01 7.974227e+00 3.024277e-01 3.198753e-01 4.275146e-01 3.243330e-01 3.761507e-01 3.594428e-01 3.309328e-01
<GCONST> 9.403554e+01
<MIXTURE> 14 4.835237e-02
<MEAN> 40
