~o
<STREAMINFO> 1 40
<VECSIZE> 40<NULLD><USER><DIAGC>
~s "silst"
<NUMMIXES> 36
<MIXTURE> 1 1.386359e-02
<MEAN> 40
 -3.559498e-01 2.794201e+01 3.131975e+01 2.248415e-01 4.471046e+00 3.238826e+01 2.541831e+00 2.127990e+00 3.191325e+01 3.169796e+01 8.614922e-01 3.004909e+01 3.118007e+01 3.818130e+00 2.962550e+01 3.896001e+00 4.046426e+00 1.460704e+00 -1.713859e+00 -5.183386e+00 -5.485657e-01 1.640263e+00 1.360567e+00 2.800005e+00 1.576995e+00 3.954868e+00 3.295575e+01 1.274971e+00 1.114870e-01 2.697060e+00 3.141889e+01 2.741311e+01 1.331918e+00 3.080479e+00 3.240567e+01 3.287694e+01 -1.546088e+00 -1.337555e+00 -1.024478e+00 3.410480e+01
<VARIANCE> 40
 1.347822e+00 2.563251e-01 3.231415e-01 1.481626e+00 2.260683e+00 3.827445e-01 2.135145e+00 1.683100e+00 3.606377e-01 3.918986e-01 1.535042e+00 3.010389e-01 3.132834e-01 1.779170e+00 2.941545e-01 2.245410e+00 4.734586e+00 1.624196e+00 1.269738e+00 3.077958e+00 1.459484e+00 1.482196e+00 1.677042e+00 2.683707e+00 1.408089e+00 3.441063e+00 3.117018e-01 1.488957e+00 1.277088e+00 1.587545e+00 3.141882e-01 2.750556e-01 1.428657e+00 1.845562e+00 2.759402e-01 3.166459e-01 2.197426e+00 1.565010e+00 1.456350e+00 3.113243e-01
<GCONST> 7.284595e+01
<MIXTURE> 2 2.006043e-02
<MEAN> 40
 -1.128332e-01 2.445163e+01 2.727857e+01 3.092869e-01 3.402467e+00 2.777531e+01 3.014229e+00 2.211238e+00 2.754593e+01 2.744109e+01 2.606377e-01 2.582379e+01 2.700720e+01 3.380522e+00 2.581291e+01 3.425414e+00 3.667232e+00 1.128271e+00 -1.768703e+00 -5.448142e+00 -1.713070e-01 1.035870e+00 2.224066e+00 2.829352e+00 1.369227e+00 4.478599e+00 2.872755e+01 1.091439e+00 6.232620e-01 2.406923e+00 2.728407e+01 2.381071e+01 1.755633e+00 3.056916e+00 2.854161e+01 2.871148e+01 -1.518545e+00 -1.106855e+00 -6.478108e-01 2.990479e+01
<VARIANCE> 40
 1.790460e+00 1.747697e-01 1.438957e-01 1.762539e+00 2.225071e+00 1.604457e-01 2.357529e+00 2.081351e+00 1.643131e-01 1.968785e-01 2.128219e+00 1.558775e-01 1.311482e-01 1.972340e+00 1.918205e-01 2.876120e+00 5.246373e+00 2.057345e+00 1.981913e+00 2.476486e+00 1.972597e+00 1.985482e+00 2.189929e+00 2.132760e+00 1.728166e+00 2.753986e+00 1.601047e-01 2.062452e+00 1.896044e+00 1.911292e+00 1.675041e-01 1.665935e-01 1.940490e+00 1.983387e+00 1.501911e-01 1.476091e-01 2.669237e+00 2.455659e+00 2.025236e+00 1.488549e-01
<GCONST> 6.831731e+01
<MIXTURE> 3 2.831229e-02
<MEAN> 40
 -1.137323e-01 2.176267e+01 2.386633e+01 -1.436001e-01 7.630466e-01 2.443685e+01 1.105622e+00 7.686115e-01 2.369547e+01 2.405244e+01 3.415464e-01 2.241911e+01 2.347163e+01 1.422209e+00 2.249556e+01 1.560722e+00 1.713628e+00 3.235706e-01 -5.849221e-01 -4.812151e-01 -3.562280e-01 -1.437051e-02 5.056375e-01 -2.557666e-01 2.080435e-01 1.345070e+00 2.527294e+01 4.878756e-01 -1.510823e-01 9.254248e-01 2.384891e+01 2.132429e+01 5.836025e-01 1.786217e+00 2.525555e+01 2.497835e+01 -2.107806e-03 -5.939489e-01 -4.328096e-01 2.634513e+01
<VARIANCE> 40
 1.312424e+00 2.331942e-01 1.691251e-01 1.463071e+00 1.759317e+00 2.119712e-01 1.707522e+00 1.722112e+00 1.974894e-01 2.151590e-01 1.592788e+00 1.984395e-01 1.622195e-01 1.616657e+00 1.849411e-01 2.218958e+00 3.100896e+00 1.448189e+00 1.654729e+00 2.986272e+00 1.514588e+00 1.567027e+00 1.861576e+00 1.733428e+00 1.398737e+00 1.823683e+00 1.781643e-01 1.737485e+00 1.454879e+00 1.479517e+00 2.120878e-01 1.991028e-01 1.587781e+00 1.707971e+00 1.780088e-01 1.855624e-01 2.121692e+00 1.571504e+00 1.590805e+00 1.894763e-01
<GCONST> 6.458099e+01
<MIXTURE> 4 2.732741e-02
<MEAN> 40
 -2.201425e-01 2.642628e+01 2.955589e+01 3.417302e-01 4.187287e+00 3.029531e+01 3.079985e+00 2.366885e+00 3.004199e+01 2.977220e+01 4.882453e-01 2.824464e+01 2.938294e+01 3.776104e+00 2.800704e+01 3.917009e+00 4.145302e+00 1.381854e+00 -1.766898e+00 -5.843441e+00 -3.343301e-01 1.361686e+00 2.000568e+00 3.222980e+00 1.538358e+00 4.789287e+00 3.108763e+01 1.298192e+00 3.847557e-01 2.675129e+00 2.961452e+01 2.576702e+01 1.613083e+00 3.346026e+00 3.069653e+01 3.115195e+01 -1.696691e+00 -1.230802e+00 -7.999733e-01 3.228762e+01
<VARIANCE> 40
 1.489281e+00 1.523038e-01 1.378216e-01 1.580653e+00 1.917570e+00 1.480479e-01 2.028553e+00 1.686087e+00 1.599670e-01 1.905295e-01 1.926568e+00 1.443142e-01 1.379518e-01 1.760563e+00 1.694367e-01 2.475386e+00 5.006322e+00 1.732517e+00 1.503995e+00 2.122305e+00 1.710041e+00 1.651335e+00 1.761961e+00 1.833792e+00 1.586085e+00 2.624833e+00 1.455567e-01 1.734507e+00 1.556525e+00 1.667219e+00 1.601823e-01 1.366554e-01 1.649245e+00 1.799425e+00 1.326550e-01 1.474544e-01 2.398538e+00 2.052513e+00 1.710132e+00 1.486942e-01
<GCONST> 6.351494e+01
<MIXTURE> 5 2.246320e-02
<MEAN> 40
 -1.099194e-01 2.385784e+01 2.652231e+01 2.034288e-01 2.856125e+00 2.701958e+01 2.687071e+00 1.922161e+00 2.672243e+01 2.667585e+01 2.453801e-01 2.503222e+01 2.621873e+01 2.987820e+00 2.508411e+01 2.966864e+00 3.277053e+00 9.290493e-01 -1.726334e+00 -4.657174e+00 -2.075699e-01 8.430917e-01 1.999632e+00 2.224766e+00 1.154359e+00 3.757666e+00 2.798112e+01 8.815686e-01 5.562785e-01 2.125662e+00 2.651321e+01 2.322447e+01 1.640941e+00 2.751912e+00 2.785638e+01 2.789692e+01 -1.379042e+00 -1.190146e+00 -6.578454e-01 2.912661e+01
<VARIANCE> 40
 1.818177e+00 1.906597e-01 1.532693e-01 1.814066e+00 2.330187e+00 1.751471e-01 2.430050e+00 2.240227e+00 1.772573e-01 2.064970e-01 2.065605e+00 1.690915e-01 1.438614e-01 2.021632e+00 1.944933e-01 2.925426e+00 5.148414e+00 2.053432e+00 2.005910e+00 2.799163e+00 2.006187e+00 2.020886e+00 2.238924e+00 2.279256e+00 1.772534e+00 2.750965e+00 1.709584e-01 2.123681e+00 1.903538e+00 1.946892e+00 1.871223e-01 1.767451e-01 2.007033e+00 1.978987e+00 1.567806e-01 1.621733e-01 2.526733e+00 2.369523e+00 2.007798e+00 1.592181e-01
<GCONST> 6.975729e+01
<MIXTURE> 6 2.077670e-02
<MEAN> 40
 -1.363267e-01 2.501836e+01 2.795907e+01 3.395818e-01 3.710376e+00 2.848900e+01 3.174482e+00 2.329265e+00 2.828112e+01 2.812093e+01 2.905966e-01 2.653939e+01 2.770910e+01 3.611681e+00 2.646988e+01 3.674006e+00 3.962815e+00 1.289238e+00 -1.761561e+00 -5.823664e+00 -1.589083e-01 1.165585e+00 2.249918e+00 3.134778e+00 1.455945e+00 4.861710e+00 2.941232e+01 1.171467e+00 6.302244e-01 2.549894e+00 2.797066e+01 2.436357e+01 1.775650e+00 3.245697e+00 2.916148e+01 2.943848e+01 -1.610601e+00 -1.078451e+00 -6.504003e-01 3.060730e+01
<VARIANCE> 40
 1.677260e+00 1.631283e-01 1.380318e-01 1.764216e+00 2.134407e+00 1.466466e-01 2.294464e+00 1.958683e+00 1.597024e-01 1.922751e-01 2.105325e+00 1.477674e-01 1.294130e-01 1.930500e+00 1.841961e-01 2.699408e+00 5.244160e+00 1.964796e+00 1.868141e+00 2.116274e+00 1.874139e+00 1.901865e+00 2.065214e+00 1.927352e+00 1.682532e+00 2.572299e+00 1.522874e-01 1.962660e+00 1.818827e+00 1.843537e+00 1.608185e-01 1.522454e-01 1.854977e+00 1.941216e+00 1.435148e-01 1.407482e-01 2.643754e+00 2.363820e+00 1.996688e+00 1.449329e-01
<GCONST> 6.649967e+01
<MIXTURE> 7 3.407786e-02
<MEAN> 40
 -2.360099e-01 2.592018e+01 2.893666e+01 2.219055e-01 3.713708e+00 2.964296e+01 2.829658e+00 2.138205e+00 2.935601e+01 2.915478e+01 4.058576e-01 2.758568e+01 2.871589e+01 3.400723e+00 2.739580e+01 3.586086e+00 3.780281e+00 1.181987e+00 -1.754470e+00 -5.278025e+00 -3.530172e-01 1.174028e+00 1.956875e+00 2.717759e+00 1.443090e+00 4.289217e+00 3.047215e+01 1.217830e+00 4.018758e-01 2.443966e+00 2.899484e+01 2.528453e+01 1.553630e+00 3.049606e+00 3.014975e+01 3.048269e+01 -1.563449e+00 -1.241169e+00 -7.746174e-01 3.163470e+01
<VARIANCE> 40
 1.502517e+00 1.503776e-01 1.255246e-01 1.581950e+00 2.023046e+00 1.336592e-01 2.095366e+00 1.785756e+00 1.448846e-01 1.804774e-01 1.913488e+00 1.310786e-01 1.187252e-01 1.810350e+00 1.596510e-01 2.534136e+00 4.685254e+00 1.694406e+00 1.569636e+00 2.435997e+00 1.672880e+00 1.681912e+00 1.809824e+00 1.964347e+00 1.552869e+00 2.645176e+00 1.360703e-01 1.770724e+00 1.554222e+00 1.698267e+00 1.487780e-01 1.374154e-01 1.686360e+00 1.825881e+00 1.270769e-01 1.262970e-01 2.293369e+00 1.977248e+00 1.717354e+00 1.284952e-01
<GCONST> 6.273261e+01
<MIXTURE> 8 2.363057e-02
<MEAN> 40
 -1.022764e-01 2.331755e+01 2.584818e+01 1.479670e-01 2.393119e+00 2.636601e+01 2.338075e+00 1.676588e+00 2.598005e+01 2.603439e+01 2.772414e-01 2.433578e+01 2.552495e+01 2.664361e+00 2.442958e+01 2.632979e+00 3.013905e+00 7.798948e-01 -1.561792e+00 -3.802728e+00 -2.479682e-01 6.565377e-01 1.792393e+00 1.646537e+00 9.966416e-01 3.176295e+00 2.732729e+01 7.898803e-01 4.742582e-01 1.869901e+00 2.584841e+01 2.274180e+01 1.475955e+00 2.479679e+00 2.723578e+01 2.717674e+01 -1.218586e+00 -1.116249e+00 -6.556970e-01 2.844043e+01
<VARIANCE> 40
 1.844757e+00 2.073052e-01 1.618283e-01 1.859955e+00 2.268180e+00 1.915270e-01 2.466584e+00 2.262503e+00 1.887434e-01 2.130959e-01 2.056549e+00 1.804291e-01 1.523047e-01 1.993606e+00 1.977738e-01 2.850991e+00 4.734994e+00 2.053386e+00 2.099329e+00 3.158110e+00 2.055575e+00 2.033601e+00 2.245003e+00 2.345227e+00 1.706363e+00 2.594954e+00 1.826106e-01 2.188218e+00 1.928026e+00 1.919783e+00 1.975647e-01 1.960767e-01 2.058142e+00 2.010062e+00 1.664983e-01 1.760435e-01 2.500255e+00 2.370444e+00 1.985881e+00 1.683349e-01
<GCONST> 7.072891e+01
<MIXTURE> 9 2.487850e-02
<MEAN> 40
 -1.773170e-01 2.506402e+01 2.763699e+01 -2.820273e-02 1.675723e+00 2.860995e+01 1.361982e+00 1.123755e+00 2.788830e+01 2.808236e+01 4.109506e-01 2.637095e+01 2.741002e+01 1.986285e+00 2.616667e+01 2.351872e+00 2.512281e+00 5.390190e-01 -8.917374e-01 -1.538421e+00 -5.140632e-01 3.986014e-01 1.009218e+00 1.123853e-01 6.923378e-01 1.914905e+00 2.934168e+01 1.067600e+00 -8.032948e-02 1.292566e+00 2.785932e+01 2.467100e+01 7.454752e-01 1.912097e+00 2.903752e+01 2.910874e+01 -5.719213e-01 -7.865254e-01 -6.801162e-01 3.034156e+01
<VARIANCE> 40
 1.361302e+00 1.618695e-01 1.160637e-01 1.430506e+00 1.491472e+00 1.339504e-01 1.547925e+00 1.524408e+00 1.399011e-01 1.729851e-01 1.514577e+00 1.262153e-01 1.102462e-01 1.370461e+00 1.473241e-01 2.044838e+00 2.696157e+00 1.365537e+00 1.485789e+00 1.673503e+00 1.467643e+00 1.500565e+00 1.562507e+00 1.269780e+00 1.268065e+00 1.361724e+00 1.346864e-01 1.701493e+00 1.383627e+00 1.430250e+00 1.511886e-01 1.333665e-01 1.491041e+00 1.502909e+00 1.156357e-01 1.303013e-01 1.877270e+00 1.673562e+00 1.523834e+00 1.217697e-01
<GCONST> 5.660182e+01
<MIXTURE> 10 2.251566e-02
<MEAN> 40
 -1.264433e-01 2.444106e+01 2.691529e+01 2.241765e-02 1.352653e+00 2.783386e+01 1.152601e+00 1.002233e+00 2.705876e+01 2.738070e+01 4.156001e-01 2.560992e+01 2.666365e+01 1.752757e+00 2.543059e+01 2.249325e+00 2.318833e+00 4.514183e-01 -6.189687e-01 -7.784688e-01 -5.378141e-01 2.104651e-01 7.794333e-01 -2.190970e-01 5.863730e-01 1.659357e+00 2.856749e+01 1.080996e+00 -1.850912e-01 1.082428e+00 2.714377e+01 2.411643e+01 5.662180e-01 1.883218e+00 2.830836e+01 2.829242e+01 -2.039002e-01 -4.871336e-01 -6.542044e-01 2.954468e+01
<VARIANCE> 40
 1.392055e+00 1.570635e-01 1.161304e-01 1.505937e+00 1.561588e+00 1.335878e-01 1.494006e+00 1.575542e+00 1.370145e-01 1.690725e-01 1.545630e+00 1.292970e-01 1.132908e-01 1.384617e+00 1.489965e-01 2.069662e+00 2.317116e+00 1.439707e+00 1.500053e+00 1.756642e+00 1.497926e+00 1.531131e+00 1.606744e+00 1.288569e+00 1.224213e+00 1.392090e+00 1.449377e-01 1.762838e+00 1.370815e+00 1.444484e+00 1.484964e-01 1.370560e-01 1.469250e+00 1.581283e+00 1.205389e-01 1.317535e-01 1.943698e+00 1.596977e+00 1.534485e+00 1.281730e-01
<GCONST> 5.703137e+01
<MIXTURE> 11 2.339645e-02
<MEAN> 40
 -8.405372e-02 2.270043e+01 2.511959e+01 1.118967e-01 1.994897e+00 2.562802e+01 2.039641e+00 1.507610e+00 2.516700e+01 2.530841e+01 2.795941e-01 2.357987e+01 2.476444e+01 2.379481e+00 2.371588e+01 2.373343e+00 2.773334e+00 6.788062e-01 -1.365109e+00 -3.008979e+00 -3.033927e-01 5.016950e-01 1.558521e+00 1.168932e+00 8.164085e-01 2.724865e+00 2.659000e+01 7.240261e-01 3.573938e-01 1.648685e+00 2.511292e+01 2.218461e+01 1.329003e+00 2.304867e+00 2.652165e+01 2.638754e+01 -1.002976e+00 -1.016270e+00 -6.607937e-01 2.767212e+01
<VARIANCE> 40
 1.864348e+00 2.335479e-01 1.821392e-01 1.901075e+00 2.275443e+00 2.302363e-01 2.529150e+00 2.295367e+00 2.104626e-01 2.395859e-01 2.039668e+00 2.125141e-01 1.727370e-01 1.975609e+00 2.155926e-01 2.794113e+00 4.596817e+00 2.040401e+00 2.191308e+00 3.611802e+00 2.111495e+00 2.045511e+00 2.298572e+00 2.376228e+00 1.693995e+00 2.522840e+00 2.055184e-01 2.321969e+00 1.937326e+00 1.906792e+00 2.280029e-01 2.284284e-01 2.133271e+00 2.024868e+00 1.882216e-01 2.068761e-01 2.464142e+00 2.331138e+00 1.997365e+00 1.961042e-01
<GCONST> 7.289101e+01
<MIXTURE> 12 1.859701e-02
<MEAN> 40
 -1.143298e+00 2.103878e+01 2.237348e+01 -3.268468e+00 9.604559e-01 2.306254e+01 -9.501027e-01 -1.742675e+00 2.235961e+01 2.270022e+01 -1.236238e+00 2.164555e+01 2.285137e+01 -1.054508e+00 2.178475e+01 -3.722516e-01 -1.376569e+01 1.277325e+00 -7.214149e-01 3.601469e-01 -9.954425e-02 2.551118e+00 -7.769310e-02 2.209037e+00 -3.527557e+00 -3.353017e+00 2.356384e+01 -1.869940e+00 -1.722589e+00 1.003201e+00 2.224667e+01 2.067322e+01 2.789235e-01 -2.451733e+00 2.377238e+01 2.377752e+01 3.039212e-01 -2.431898e+00 -6.732251e-01 2.529127e+01
<VARIANCE> 40
 8.881579e+00 2.472547e+00 2.894994e+00 6.119131e+00 7.623707e+00 3.371986e+00 1.732646e+01 9.963413e+00 3.036258e+00 2.828780e+00 9.017295e+00 2.874568e+00 2.576375e+00 8.080016e+00 2.520686e+00 8.352051e+00 2.091027e+01 7.794026e+00 1.068505e+01 7.667185e+00 9.393808e+00 8.072959e+00 1.268901e+01 5.933837e+00 6.718225e+00 1.267346e+01 3.213011e+00 8.633448e+00 9.650298e+00 8.205240e+00 3.168577e+00 2.125216e+00 1.020089e+01 6.120338e+00 2.842013e+00 3.137376e+00 8.806983e+00 6.868493e+00 1.017925e+01 2.942330e+00
<GCONST> 1.453845e+02
<MIXTURE> 13 3.393354e-02
<MEAN> 40
 -2.165986e-01 2.600844e+01 2.868721e+01 -1.101308e-01 1.810253e+00 2.976535e+01 1.398645e+00 1.121375e+00 2.904431e+01 2.910399e+01 3.946952e-01 2.749806e+01 2.847270e+01 2.094622e+00 2.717887e+01 2.423319e+00 2.433955e+00 5.682779e-01 -1.007846e+00 -1.815134e+00 -4.467980e-01 4.440925e-01 8.696107e-01 2.076184e-01 7.104524e-01 1.897399e+00 3.038971e+01 9.659832e-01 -8.057676e-02 1.408311e+00 2.891148e+01 2.554827e+01 7.621711e-01 1.935955e+00 3.003675e+01 3.021017e+01 -6.246269e-01 -9.240394e-01 -5.959879e-01 3.143322e+01
<VARIANCE> 40
 1.268062e+00 1.674599e-01 1.166406e-01 1.245411e+00 1.625908e+00 1.471533e-01 1.452900e+00 1.324803e+00 1.387313e-01 1.709257e-01 1.354793e+00 1.313273e-01 1.066436e-01 1.330680e+00 1.361422e-01 1.840058e+00 2.932266e+00 1.195021e+00 1.411895e+00 2.617650e+00 1.246999e+00 1.389390e+00 1.649080e+00 1.500606e+00 1.264880e+00 1.542532e+00 1.348990e-01 1.507700e+00 1.224151e+00 1.341789e+00 1.532871e-01 1.359669e-01 1.349954e+00 1.299016e+00 1.105987e-01 1.254598e-01 1.908516e+00 1.507201e+00 1.280962e+00 1.091830e-01
<GCONST> 5.554758e+01
<MIXTURE> 14 2.992572e-02
<MEAN> 40
 -1.688603e-01 2.572789e+01 2.828942e+01 -1.226733e-01 1.392060e+00 2.938583e+01 1.146029e+00 9.541962e-01 2.857475e+01 2.870858e+01 3.711607e-01 2.713058e+01 2.807052e+01 1.824934e+00 2.679191e+01 2.229896e+00 2.112951e+00 4.798238e-01 -7.351245e-01 -9.947014e-01 -4.326422e-01 2.322251e-01 5.842191e-01 -2.275763e-01 5.111372e-01 1.531626e+00 2.995810e+01 8.975864e-01 -1.925037e-01 1.166752e+00 2.852123e+01 2.527620e+01 5.590630e-01 1.819023e+00 2.961632e+01 2.977069e+01 -2.839856e-01 -7.293528e-01 -5.019738e-01 3.100908e+01
<VARIANCE> 40
 1.178491e+00 1.607637e-01 1.134621e-01 1.199625e+00 1.444711e+00 1.380126e-01 1.318861e+00 1.263849e+00 1.391788e-01 1.622628e-01 1.266752e+00 1.277323e-01 1.020466e-01 1.250154e+00 1.351400e-01 1.797432e+00 2.698745e+00 1.115870e+00 1.299402e+00 2.155432e+00 1.179450e+00 1.319940e+00 1.490884e+00 1.291304e+00 1.179163e+00 1.344375e+00 1.274575e-01 1.458567e+00 1.169772e+00 1.219949e+00 1.493494e-01 1.250756e-01 1.240734e+00 1.253587e+00 1.073549e-01 1.249995e-01 1.769312e+00 1.402155e+00 1.212571e+00 1.068560e-01
<GCONST> 5.304884e+01
<MIXTURE> 15 2.337560e-02
<MEAN> 40
 -1.379890e-01 2.382648e+01 2.629530e+01 9.360320e-02 1.645876e+00 2.704389e+01 1.470516e+00 1.175419e+00 2.642788e+01 2.665721e+01 4.006878e-01 2.490146e+01 2.597833e+01 1.984821e+00 2.482638e+01 2.301372e+00 2.582488e+00 4.804164e-01 -1.029523e+00 -1.763570e+00 -4.734719e-01 3.515384e-01 1.150473e+00 3.096704e-01 7.210324e-01 2.061640e+00 2.790202e+01 9.274679e-01 2.804741e-02 1.288872e+00 2.644341e+01 2.343406e+01 8.862872e-01 2.033395e+00 2.773192e+01 2.765119e+01 -6.099002e-01 -8.079330e-01 -7.072253e-01 2.892169e+01
<VARIANCE> 40
 1.538593e+00 1.735417e-01 1.246964e-01 1.607331e+00 1.763384e+00 1.482521e-01 1.721484e+00 1.692123e+00 1.472618e-01 1.837142e-01 1.703208e+00 1.412638e-01 1.145407e-01 1.561777e+00 1.592455e-01 2.249449e+00 2.768987e+00 1.598695e+00 1.713359e+00 2.264099e+00 1.701486e+00 1.767405e+00 1.799362e+00 1.496608e+00 1.403568e+00 1.643499e+00 1.538969e-01 1.861296e+00 1.549246e+00 1.479270e+00 1.651158e-01 1.596742e-01 1.646180e+00 1.640031e+00 1.345989e-01 1.332739e-01 2.105395e+00 1.859735e+00 1.697944e+00 1.389215e-01
<GCONST> 6.113980e+01
<MIXTURE> 16 2.947368e-02
<MEAN> 40
 -3.146214e-01 2.717167e+01 3.035804e+01 1.515866e-01 3.914548e+00 3.132056e+01 2.549733e+00 2.055411e+00 3.089728e+01 3.068677e+01 6.510674e-01 2.909962e+01 3.019922e+01 3.508913e+00 2.875755e+01 3.699622e+00 3.763988e+00 1.222482e+00 -1.650204e+00 -4.937222e+00 -4.667075e-01 1.335846e+00 1.605955e+00 2.519372e+00 1.480594e+00 3.883408e+00 3.199168e+01 1.263741e+00 2.008580e-01 2.498428e+00 3.047845e+01 2.660428e+01 1.333745e+00 2.954130e+00 3.152835e+01 3.195095e+01 -1.520291e+00 -1.273163e+00 -8.647472e-01 3.313651e+01
<VARIANCE> 40
 1.386837e+00 1.614508e-01 1.427687e-01 1.515497e+00 2.324641e+00 1.875576e-01 2.193546e+00 1.693921e+00 1.642341e-01 2.026366e-01 1.660800e+00 1.405521e-01 1.364967e-01 1.810619e+00 1.610790e-01 2.406951e+00 4.718917e+00 1.557146e+00 1.359816e+00 3.488991e+00 1.506999e+00 1.549350e+00 1.774532e+00 2.716936e+00 1.512353e+00 3.442796e+00 1.625095e-01 1.565639e+00 1.386234e+00 1.597009e+00 1.680520e-01 1.750814e-01 1.524647e+00 1.894144e+00 1.439594e-01 1.528858e-01 2.268614e+00 1.742041e+00 1.517708e+00 1.392751e-01
<GCONST> 6.435396e+01
<MIXTURE> 17 3.316951e-02
<MEAN> 40
 -1.166313e-01 2.270681e+01 2.482780e+01 -1.513849e-01 6.551033e-01 2.555000e+01 9.356836e-01 6.706563e-01 2.473722e+01 2.507580e+01 3.663912e-01 2.351051e+01 2.449277e+01 1.285874e+00 2.344666e+01 1.566560e+00 1.540941e+00 2.605235e-01 -4.685850e-01 -1.187537e-01 -3.343682e-01 -8.145238e-02 3.209782e-01 -4.797288e-01 1.451099e-01 1.107287e+00 2.627648e+01 4.889530e-01 -2.406771e-01 8.357993e-01 2.488146e+01 2.222866e+01 4.551030e-01 1.689393e+00 2.620042e+01 2.600774e+01 1.195699e-01 -5.447106e-01 -4.020139e-01 2.736919e+01
<VARIANCE> 40
 1.176626e+00 1.964939e-01 1.385931e-01 1.366612e+00 1.402339e+00 1.611169e-01 1.322106e+00 1.450808e+00 1.592650e-01 1.819685e-01 1.377859e+00 1.593232e-01 1.365754e-01 1.340007e+00 1.600159e-01 1.964747e+00 2.484725e+00 1.276925e+00 1.340941e+00 1.777481e+00 1.329679e+00 1.434705e+00 1.426391e+00 1.291964e+00 1.224547e+00 1.325477e+00 1.503115e-01 1.469879e+00 1.269567e+00 1.235074e+00 1.902107e-01 1.675580e-01 1.341850e+00 1.468551e+00 1.487725e-01 1.441864e-01 1.767977e+00 1.386449e+00 1.391312e+00 1.509046e-01
<GCONST> 5.706858e+01
<MIXTURE> 18 3.334739e-02
<MEAN> 40
 -1.582463e-01 2.470705e+01 2.724667e+01 -3.051091e-02 1.711663e+00 2.812084e+01 1.506791e+00 1.154902e+00 2.746894e+01 2.760911e+01 3.553585e-01 2.594436e+01 2.698671e+01 2.015096e+00 2.579555e+01 2.286540e+00 2.489674e+00 5.286375e-01 -1.046139e+00 -1.859484e+00 -4.269781e-01 3.949862e-01 1.078618e+00 2.818012e-01 6.656418e-01 2.040262e+00 2.889376e+01 9.169250e-01 1.358339e-02 1.338930e+00 2.741754e+01 2.426151e+01 8.778497e-01 1.969834e+00 2.865143e+01 2.868116e+01 -7.022020e-01 -9.011613e-01 -6.639651e-01 2.992443e+01
<VARIANCE> 40
 1.416100e+00 1.673867e-01 1.183962e-01 1.501050e+00 1.636884e+00 1.413436e-01 1.641690e+00 1.600730e+00 1.397943e-01 1.882829e-01 1.603452e+00 1.359922e-01 1.124519e-01 1.429217e+00 1.504401e-01 2.081606e+00 3.104934e+00 1.461199e+00 1.558185e+00 1.996780e+00 1.523163e+00 1.567768e+00 1.635519e+00 1.433497e+00 1.345273e+00 1.513901e+00 1.439230e-01 1.717762e+00 1.405493e+00 1.441365e+00 1.587598e-01 1.505291e-01 1.547472e+00 1.558826e+00 1.191911e-01 1.253878e-01 1.939330e+00 1.737397e+00 1.562827e+00 1.249641e-01
<GCONST> 5.861524e+01
<MIXTURE> 19 4.067965e-02
<MEAN> 40
 -1.216000e-01 2.331000e+01 2.558008e+01 -5.203127e-02 1.029579e+00 2.633079e+01 1.122372e+00 8.535347e-01 2.557994e+01 2.587717e+01 3.583786e-01 2.423324e+01 2.525269e+01 1.526919e+00 2.415142e+01 1.858847e+00 1.897995e+00 3.736400e-01 -6.575408e-01 -6.416808e-01 -3.994857e-01 6.897548e-02 5.996611e-01 -2.262291e-01 3.468481e-01 1.455891e+00 2.709305e+01 6.668301e-01 -1.476702e-01 1.005972e+00 2.568188e+01 2.286700e+01 5.811834e-01 1.811929e+00 2.696471e+01 2.682770e+01 -1.492834e-01 -6.285561e-01 -5.380175e-01 2.814274e+01
<VARIANCE> 40
 1.357581e+00 1.919679e-01 1.325862e-01 1.483733e+00 1.609754e+00 1.583629e-01 1.508449e+00 1.559801e+00 1.537996e-01 1.855791e-01 1.519274e+00 1.541553e-01 1.262871e-01 1.490496e+00 1.601143e-01 2.111168e+00 3.020078e+00 1.418978e+00 1.552152e+00 2.160557e+00 1.503577e+00 1.581611e+00 1.602382e+00 1.448146e+00 1.335623e+00 1.507547e+00 1.476093e-01 1.668395e+00 1.401644e+00 1.319738e+00 1.769205e-01 1.666965e-01 1.482961e+00 1.556914e+00 1.412226e-01 1.365560e-01 1.930541e+00 1.607217e+00 1.551176e+00 1.447315e-01
<GCONST> 5.956063e+01
<MIXTURE> 20 3.094894e-02
<MEAN> 40
 -1.249602e-01 2.416254e+01 2.658824e+01 -3.092275e-02 1.362349e+00 2.741929e+01 1.289334e+00 9.846593e-01 2.670497e+01 2.692899e+01 3.471221e-01 2.526761e+01 2.630136e+01 1.763094e+00 2.513918e+01 2.120791e+00 2.202123e+00 4.540997e-01 -8.285699e-01 -1.136612e+00 -4.161328e-01 2.257826e-01 8.266743e-01 -4.591778e-02 4.891842e-01 1.732897e+00 2.818054e+01 8.447735e-01 -9.754629e-02 1.147057e+00 2.674101e+01 2.373640e+01 7.059606e-01 1.895404e+00 2.797804e+01 2.793509e+01 -3.910889e-01 -7.092210e-01 -6.087598e-01 2.920550e+01
<VARIANCE> 40
 1.383833e+00 1.674189e-01 1.224700e-01 1.524406e+00 1.585341e+00 1.381739e-01 1.572850e+00 1.596632e+00 1.449787e-01 1.868968e-01 1.564543e+00 1.357320e-01 1.143889e-01 1.443659e+00 1.548936e-01 2.095929e+00 2.995932e+00 1.454135e+00 1.553499e+00 2.089532e+00 1.504581e+00 1.571982e+00 1.603880e+00 1.385309e+00 1.331645e+00 1.509494e+00 1.478418e-01 1.725331e+00 1.403118e+00 1.401810e+00 1.616529e-01 1.566423e-01 1.515910e+00 1.587149e+00 1.263611e-01 1.300970e-01 1.951146e+00 1.697264e+00 1.559154e+00 1.294441e-01
<GCONST> 5.870054e+01
<MIXTURE> 21 3.400844e-02
<MEAN> 40
 -2.764941e-01 2.635531e+01 2.917503e+01 -9.973238e-02 2.277882e+00 3.023888e+01 1.628480e+00 1.318026e+00 2.959123e+01 2.957801e+01 4.460631e-01 2.795447e+01 2.896224e+01 2.378365e+00 2.763630e+01 2.672321e+00 2.689068e+00 6.699287e-01 -1.237086e+00 -2.587374e+00 -4.753066e-01 6.586905e-01 1.097581e+00 6.834949e-01 9.255658e-01 2.261294e+00 3.088585e+01 1.039419e+00 6.334297e-03 1.658954e+00 2.938023e+01 2.588019e+01 9.133371e-01 2.084517e+00 3.050690e+01 3.072148e+01 -9.112126e-01 -1.084446e+00 -6.796630e-01 3.193854e+01
<VARIANCE> 40
 1.327220e+00 1.589873e-01 1.215137e-01 1.286011e+00 1.834927e+00 1.489824e-01 1.597925e+00 1.413993e+00 1.445493e-01 1.734032e-01 1.424908e+00 1.242350e-01 1.090229e-01 1.385604e+00 1.396264e-01 1.941864e+00 3.345189e+00 1.234433e+00 1.439308e+00 2.877182e+00 1.305247e+00 1.466562e+00 1.732542e+00 1.753962e+00 1.349807e+00 1.749981e+00 1.383868e-01 1.513550e+00 1.278092e+00 1.411329e+00 1.504834e-01 1.388786e-01 1.419954e+00 1.350584e+00 1.151392e-01 1.301848e-01 1.973000e+00 1.567572e+00 1.341084e+00 1.119781e-01
<GCONST> 5.731025e+01
<MIXTURE> 22 3.825534e-02
<MEAN> 40
 -2.328142e-01 2.553633e+01 2.845304e+01 1.434938e-01 3.313088e+00 2.915156e+01 2.615912e+00 1.930865e+00 2.882361e+01 2.867756e+01 3.719609e-01 2.708081e+01 2.820197e+01 3.113458e+00 2.692775e+01 3.304664e+00 3.496049e+00 1.034422e+00 -1.694140e+00 -4.758807e+00 -3.707367e-01 1.021821e+00 1.892788e+00 2.282484e+00 1.333447e+00 3.867396e+00 3.000369e+01 1.145633e+00 3.784517e-01 2.235332e+00 2.851772e+01 2.492671e+01 1.485795e+00 2.809117e+00 2.972295e+01 2.996724e+01 -1.463564e+00 -1.248672e+00 -7.551749e-01 3.113067e+01
<VARIANCE> 40
 1.546930e+00 1.572175e-01 1.207842e-01 1.608010e+00 2.130459e+00 1.348133e-01 2.130820e+00 1.845139e+00 1.414202e-01 1.839137e-01 1.896007e+00 1.283781e-01 1.129328e-01 1.814343e+00 1.577050e-01 2.541572e+00 4.318282e+00 1.693540e+00 1.629740e+00 2.643243e+00 1.699717e+00 1.712820e+00 1.866749e+00 2.061437e+00 1.551054e+00 2.554073e+00 1.405916e-01 1.805862e+00 1.571392e+00 1.728481e+00 1.496431e-01 1.434857e-01 1.722267e+00 1.830746e+00 1.258309e-01 1.211755e-01 2.223344e+00 1.979251e+00 1.731133e+00 1.246240e-01
<GCONST> 6.296555e+01
<MIXTURE> 23 2.460507e-02
<MEAN> 40
 -1.265250e-01 2.547805e+01 2.790946e+01 -1.694962e-01 9.813246e-01 2.900332e+01 9.384136e-01 7.646810e-01 2.813175e+01 2.828932e+01 3.495829e-01 2.678933e+01 2.768596e+01 1.514062e+00 2.641971e+01 1.999195e+00 1.715763e+00 4.059150e-01 -4.880167e-01 -2.553693e-01 -3.897011e-01 1.921332e-04 2.681234e-01 -5.842460e-01 3.048109e-01 1.170470e+00 2.950556e+01 7.363521e-01 -2.931342e-01 9.568156e-01 2.812594e+01 2.498862e+01 3.818371e-01 1.734980e+00 2.920073e+01 2.934020e+01 6.597733e-02 -5.762679e-01 -3.958856e-01 3.059181e+01
<VARIANCE> 40
 1.051245e+00 1.458417e-01 1.114013e-01 1.126892e+00 1.227293e+00 1.351948e-01 1.116292e+00 1.124475e+00 1.411509e-01 1.638961e-01 1.181193e+00 1.223613e-01 9.973092e-02 1.138502e+00 1.321895e-01 1.701372e+00 2.348673e+00 1.031694e+00 1.145212e+00 1.509835e+00 1.064867e+00 1.182238e+00 1.247262e+00 1.109042e+00 1.044728e+00 1.148346e+00 1.256646e-01 1.339643e+00 1.071893e+00 1.057568e+00 1.483497e-01 1.223847e-01 1.061822e+00 1.193557e+00 1.059902e-01 1.249890e-01 1.558695e+00 1.227116e+00 1.129210e+00 1.038001e-01
<GCONST> 4.954948e+01
<MIXTURE> 24 2.825435e-02
<MEAN> 40
 -1.024594e-01 2.370401e+01 2.587216e+01 -2.368719e-01 5.116205e-01 2.672516e+01 8.256188e-01 5.705641e-01 2.586300e+01 2.613257e+01 3.507253e-01 2.468702e+01 2.559422e+01 1.129130e+00 2.446548e+01 1.536758e+00 1.242397e+00 2.308773e-01 -3.611108e-01 1.746430e-01 -2.924860e-01 -1.514582e-01 1.168216e-01 -7.158327e-01 6.706806e-02 8.634821e-01 2.733887e+01 3.994657e-01 -2.972272e-01 7.475530e-01 2.597715e+01 2.318670e+01 3.176769e-01 1.635782e+00 2.718354e+01 2.710758e+01 2.767710e-01 -5.227376e-01 -3.016396e-01 2.845070e+01
<VARIANCE> 40
 9.490675e-01 1.674063e-01 1.278753e-01 1.089398e+00 1.073203e+00 1.447710e-01 1.027530e+00 1.104255e+00 1.462741e-01 1.731784e-01 1.123423e+00 1.436560e-01 1.184687e-01 1.073170e+00 1.467460e-01 1.691422e+00 2.043785e+00 1.018123e+00 1.095370e+00 1.318274e+00 1.035818e+00 1.087334e+00 1.094958e+00 1.101463e+00 1.024768e+00 1.027677e+00 1.340937e-01 1.148192e+00 1.025629e+00 9.781822e-01 1.719298e-01 1.492618e-01 1.034421e+00 1.255904e+00 1.264550e-01 1.313644e-01 1.501601e+00 1.083505e+00 1.094351e+00 1.276914e-01
<GCONST> 4.962366e+01
<MIXTURE> 25 3.485411e-02
<MEAN> 40
 -1.221336e-01 2.225710e+01 2.440813e+01 -1.125802e-01 8.850684e-01 2.503301e+01 1.137444e+00 8.200446e-01 2.429292e+01 2.461878e+01 3.542885e-01 2.299515e+01 2.403839e+01 1.495405e+00 2.302772e+01 1.668285e+00 1.759343e+00 3.427205e-01 -6.489864e-01 -6.258857e-01 -3.662377e-01 2.266017e-02 5.638995e-01 -1.774605e-01 2.524341e-01 1.409955e+00 2.583990e+01 5.123581e-01 -1.326454e-01 9.836087e-01 2.442123e+01 2.179501e+01 6.193311e-01 1.802990e+00 2.579332e+01 2.557018e+01 -7.954098e-02 -6.383793e-01 -4.520494e-01 2.692363e+01
<VARIANCE> 40
 1.354484e+00 2.136279e-01 1.512886e-01 1.504386e+00 1.776819e+00 1.838121e-01 1.711950e+00 1.732937e+00 1.788235e-01 1.987491e-01 1.558046e+00 1.772142e-01 1.473196e-01 1.620488e+00 1.746813e-01 2.200042e+00 3.311432e+00 1.462524e+00 1.677571e+00 3.014744e+00 1.541322e+00 1.615517e+00 1.828515e+00 1.742216e+00 1.415535e+00 1.813488e+00 1.672231e-01 1.734622e+00 1.452994e+00 1.459337e+00 2.004967e-01 1.859302e-01 1.618349e+00 1.654934e+00 1.619032e-01 1.687073e-01 2.123611e+00 1.607792e+00 1.596041e+00 1.663354e-01
<GCONST> 6.347380e+01
<MIXTURE> 26 3.095783e-02
<MEAN> 40
 -1.541037e-01 2.432047e+01 2.691511e+01 4.427569e-02 2.275127e+00 2.759114e+01 2.092540e+00 1.436763e+00 2.714330e+01 2.713519e+01 3.214754e-01 2.550611e+01 2.660530e+01 2.451385e+00 2.546757e+01 2.505865e+00 2.849666e+00 6.822692e-01 -1.536511e+00 -3.369367e+00 -3.331312e-01 6.217467e-01 1.565574e+00 1.219061e+00 9.195353e-01 2.816932e+00 2.848098e+01 8.033718e-01 2.983507e-01 1.695310e+00 2.696971e+01 2.374287e+01 1.292341e+00 2.298489e+00 2.831889e+01 2.832502e+01 -1.198143e+00 -1.247880e+00 -6.944086e-01 2.955716e+01
<VARIANCE> 40
 1.637503e+00 1.854679e-01 1.342923e-01 1.670746e+00 1.975876e+00 1.527676e-01 1.974896e+00 1.843231e+00 1.616217e-01 1.921329e-01 1.807311e+00 1.509736e-01 1.215054e-01 1.673985e+00 1.710486e-01 2.410784e+00 4.180927e+00 1.683048e+00 1.707020e+00 1.940753e+00 1.768966e+00 1.802320e+00 1.912513e+00 1.667442e+00 1.599410e+00 1.909574e+00 1.589875e-01 1.859601e+00 1.617040e+00 1.590563e+00 1.689443e-01 1.557106e-01 1.723223e+00 1.680043e+00 1.373994e-01 1.356621e-01 2.129603e+00 1.936781e+00 1.780406e+00 1.362225e-01
<GCONST> 6.342756e+01
<MIXTURE> 27 2.992581e-02
<MEAN> 40
 -2.032936e-01 2.486707e+01 2.758167e+01 4.991526e-02 2.595236e+00 2.828051e+01 2.234972e+00 1.564276e+00 2.787718e+01 2.780601e+01 3.412952e-01 2.618742e+01 2.728539e+01 2.612076e+00 2.609703e+01 2.732737e+00 3.062833e+00 7.720522e-01 -1.619543e+00 -3.806706e+00 -3.690978e-01 7.428802e-01 1.667440e+00 1.489664e+00 1.071868e+00 3.077178e+00 2.915749e+01 9.174983e-01 3.266368e-01 1.856986e+00 2.764977e+01 2.427776e+01 1.347844e+00 2.423760e+00 2.895716e+01 2.903536e+01 -1.314884e+00 -1.284271e+00 -7.206898e-01 3.023995e+01
<VARIANCE> 40
 1.609617e+00 1.686416e-01 1.239651e-01 1.593191e+00 1.947924e+00 1.376462e-01 1.922401e+00 1.804521e+00 1.524150e-01 1.898262e-01 1.821945e+00 1.426788e-01 1.152674e-01 1.607008e+00 1.619408e-01 2.357857e+00 3.938424e+00 1.624257e+00 1.625529e+00 1.784311e+00 1.692731e+00 1.716744e+00 1.855380e+00 1.594890e+00 1.517498e+00 1.836011e+00 1.462122e-01 1.783399e+00 1.536154e+00 1.590640e+00 1.598511e-01 1.446434e-01 1.663769e+00 1.645234e+00 1.280708e-01 1.280311e-01 2.068034e+00 1.879267e+00 1.729945e+00 1.302815e-01
<GCONST> 6.162079e+01
<MIXTURE> 28 3.425423e-02
<MEAN> 40
 -1.148227e-01 2.310073e+01 2.524341e+01 -1.708256e-01 6.264431e-01 2.601119e+01 9.145511e-01 6.352808e-01 2.518784e+01 2.549490e+01 3.669424e-01 2.396966e+01 2.492705e+01 1.232695e+00 2.385145e+01 1.554714e+00 1.459704e+00 2.508474e-01 -4.496200e-01 -4.682944e-02 -3.236572e-01 -1.120258e-01 2.584510e-01 -5.385079e-01 1.219269e-01 1.044379e+00 2.669876e+01 4.569837e-01 -2.637204e-01 8.105394e-01 2.531614e+01 2.259928e+01 4.235248e-01 1.659736e+00 2.659098e+01 2.644033e+01 1.498004e-01 -5.564361e-01 -3.676487e-01 2.779667e+01
<VARIANCE> 40
 1.105879e+00 1.917240e-01 1.310912e-01 1.262382e+00 1.303927e+00 1.541634e-01 1.191459e+00 1.308436e+00 1.503293e-01 1.692013e-01 1.266488e+00 1.616965e-01 1.288368e-01 1.244844e+00 1.538696e-01 1.861543e+00 2.304816e+00 1.167519e+00 1.242425e+00 1.621647e+00 1.241376e+00 1.321868e+00 1.293265e+00 1.220949e+00 1.161967e+00 1.224295e+00 1.345177e-01 1.352496e+00 1.191742e+00 1.124132e+00 1.751419e-01 1.588973e-01 1.215736e+00 1.369796e+00 1.344728e-01 1.329182e-01 1.656494e+00 1.283864e+00 1.314082e+00 1.406412e-01
<GCONST> 5.422036e+01
<MIXTURE> 29 1.661118e-02
<MEAN> 40
 -1.252764e-01 2.102828e+01 2.308750e+01 -1.842590e-01 6.702417e-01 2.358103e+01 1.062796e+00 7.072864e-01 2.285224e+01 2.325755e+01 2.964723e-01 2.158991e+01 2.267790e+01 1.345752e+00 2.174976e+01 1.449303e+00 1.615417e+00 2.970046e-01 -5.751798e-01 -3.505124e-01 -3.948933e-01 -5.987683e-02 4.688629e-01 -3.065584e-01 1.496975e-01 1.258100e+00 2.446317e+01 4.943605e-01 -1.573727e-01 9.157975e-01 2.304861e+01 2.064556e+01 5.651889e-01 1.754170e+00 2.446989e+01 2.413979e+01 5.141182e-02 -5.741889e-01 -4.423118e-01 2.551876e+01
<VARIANCE> 40
 1.351447e+00 2.875708e-01 2.334428e-01 1.484653e+00 1.704443e+00 2.836758e-01 1.730340e+00 1.681765e+00 2.724201e-01 2.806371e-01 1.661514e+00 2.797305e-01 2.340544e-01 1.629342e+00 2.381346e-01 2.275976e+00 3.507245e+00 1.478976e+00 1.631559e+00 2.902947e+00 1.485513e+00 1.645414e+00 1.838660e+00 1.680470e+00 1.490795e+00 1.838984e+00 2.529999e-01 1.754131e+00 1.481716e+00 1.557635e+00 2.778945e-01 2.493981e-01 1.643128e+00 1.811360e+00 2.505610e-01 2.566160e-01 2.183030e+00 1.578166e+00 1.564786e+00 2.452513e-01
<GCONST> 6.915027e+01
<MIXTURE> 30 2.708056e-02
<MEAN> 40
 -3.335313e-01 2.679135e+01 2.975575e+01 -1.034093e-01 2.745459e+00 3.083238e+01 1.797195e+00 1.485705e+00 3.022128e+01 3.015061e+01 5.095394e-01 2.851764e+01 2.954883e+01 2.683413e+00 2.818151e+01 2.935789e+00 2.866740e+00 7.849029e-01 -1.387050e+00 -3.235469e+00 -4.942338e-01 8.662130e-01 1.216337e+00 1.111069e+00 1.118968e+00 2.556765e+00 3.146566e+01 1.089428e+00 4.495649e-02 1.918210e+00 2.993835e+01 2.631055e+01 9.987751e-01 2.244070e+00 3.105105e+01 3.130761e+01 -1.096442e+00 -1.209775e+00 -7.446677e-01 3.252579e+01
<VARIANCE> 40
 1.320769e+00 1.539607e-01 1.288397e-01 1.297721e+00 2.022590e+00 1.491603e-01 1.671790e+00 1.430610e+00 1.519382e-01 1.789715e-01 1.425812e+00 1.232845e-01 1.170512e-01 1.428801e+00 1.466368e-01 1.980141e+00 3.561585e+00 1.248204e+00 1.383769e+00 2.942580e+00 1.311995e+00 1.431819e+00 1.758521e+00 1.993119e+00 1.400150e+00 1.975582e+00 1.431145e-01 1.466124e+00 1.281405e+00 1.443994e+00 1.511980e-01 1.387246e-01 1.411669e+00 1.406440e+00 1.203638e-01 1.393493e-01 1.966662e+00 1.550749e+00 1.375211e+00 1.184977e-01
<GCONST> 5.832525e+01
<MIXTURE> 31 2.374461e-02
<MEAN> 40
 -8.834773e-02 2.451735e+01 2.674242e+01 -2.434180e-01 6.152113e-01 2.769717e+01 8.651372e-01 5.934360e-01 2.684012e+01 2.701251e+01 3.277485e-01 2.562217e+01 2.649029e+01 1.186073e+00 2.532361e+01 1.609170e+00 1.288558e+00 2.656017e-01 -4.141895e-01 6.181169e-02 -2.835566e-01 -1.295457e-01 8.063870e-02 -7.057130e-01 8.005149e-02 9.336178e-01 2.824551e+01 4.459371e-01 -2.910146e-01 8.108425e-01 2.688176e+01 2.395115e+01 3.308325e-01 1.645096e+00 2.804039e+01 2.806005e+01 1.999956e-01 -5.678796e-01 -2.796195e-01 2.936966e+01
<VARIANCE> 40
 9.290930e-01 1.466644e-01 1.217220e-01 1.035128e+00 1.082042e+00 1.341154e-01 1.080526e+00 1.118857e+00 1.431562e-01 1.576704e-01 1.102235e+00 1.290134e-01 1.072686e-01 1.032896e+00 1.462290e-01 1.559136e+00 2.017041e+00 9.721646e-01 1.077155e+00 1.357780e+00 9.569164e-01 1.035770e+00 1.065953e+00 1.074079e+00 9.757879e-01 9.732074e-01 1.176785e-01 1.094884e+00 1.009804e+00 9.278377e-01 1.558445e-01 1.336807e-01 1.039255e+00 1.175048e+00 1.159853e-01 1.262059e-01 1.472247e+00 1.069005e+00 1.062018e+00 1.117338e-01
<GCONST> 4.773049e+01
<MIXTURE> 32 2.272183e-02
<MEAN> 40
 -1.043408e-01 2.483397e+01 2.712510e+01 -2.349816e-01 7.000433e-01 2.812876e+01 8.646740e-01 6.307126e-01 2.726005e+01 2.743174e+01 3.375738e-01 2.600643e+01 2.688264e+01 1.261259e+00 2.567945e+01 1.701971e+00 1.366400e+00 3.061232e-01 -3.923487e-01 4.766627e-02 -2.986990e-01 -1.126866e-01 1.054642e-01 -6.910222e-01 1.347050e-01 9.677177e-01 2.865232e+01 5.257211e-01 -2.957500e-01 8.415683e-01 2.728878e+01 2.429609e+01 3.272171e-01 1.693838e+00 2.840843e+01 2.847478e+01 2.067259e-01 -5.385389e-01 -3.015675e-01 2.976155e+01
<VARIANCE> 40
 9.762617e-01 1.449879e-01 1.164330e-01 1.066797e+00 1.079679e+00 1.331681e-01 1.097166e+00 1.101729e+00 1.417960e-01 1.611978e-01 1.144686e+00 1.241795e-01 1.024961e-01 1.033000e+00 1.345633e-01 1.552974e+00 2.359777e+00 9.653400e-01 1.108649e+00 1.358341e+00 9.768568e-01 1.085916e+00 1.121234e+00 1.054546e+00 1.022306e+00 1.037975e+00 1.190046e-01 1.184030e+00 1.017940e+00 9.680094e-01 1.506103e-01 1.307400e-01 1.063549e+00 1.231176e+00 1.087893e-01 1.253609e-01 1.481482e+00 1.141115e+00 1.076807e+00 1.077402e-01
<GCONST> 4.814617e+01
<MIXTURE> 33 3.630496e-02
<MEAN> 40
 -2.425967e-01 2.529709e+01 2.802240e+01 -2.788510e-02 2.373363e+00 2.886197e+01 1.932382e+00 1.422613e+00 2.835486e+01 2.833567e+01 3.846632e-01 2.669293e+01 2.776403e+01 2.436249e+00 2.653526e+01 2.636681e+00 2.930021e+00 7.035726e-01 -1.449542e+00 -3.172839e+00 -4.435343e-01 6.861586e-01 1.465578e+00 1.057796e+00 9.811856e-01 2.670194e+00 2.967719e+01 9.904739e-01 1.776548e-01 1.715950e+00 2.815840e+01 2.477264e+01 1.164785e+00 2.227203e+00 2.940871e+01 2.952302e+01 -1.172722e+00 -1.213625e+00 -7.355435e-01 3.072432e+01
<VARIANCE> 40
 1.467523e+00 1.624805e-01 1.203126e-01 1.488233e+00 1.769980e+00 1.352943e-01 1.766198e+00 1.645200e+00 1.441432e-01 1.889230e-01 1.665410e+00 1.301238e-01 1.118559e-01 1.454119e+00 1.508248e-01 2.153400e+00 3.404549e+00 1.469143e+00 1.555472e+00 1.871840e+00 1.553302e+00 1.573186e+00 1.686181e+00 1.510564e+00 1.396248e+00 1.630417e+00 1.426586e-01 1.700940e+00 1.414898e+00 1.508920e+00 1.560363e-01 1.427145e-01 1.564473e+00 1.541198e+00 1.206843e-01 1.239775e-01 1.959344e+00 1.750657e+00 1.572959e+00 1.234681e-01
<GCONST> 5.906442e+01
<MIXTURE> 34 2.943366e-02
<MEAN> 40
 -8.917615e-02 2.411376e+01 2.631674e+01 -2.519830e-01 5.776560e-01 2.723219e+01 8.484909e-01 5.701600e-01 2.636808e+01 2.660773e+01 3.403264e-01 2.515493e+01 2.606266e+01 1.189787e+00 2.490697e+01 1.614941e+00 1.285195e+00 2.669388e-01 -3.939625e-01 1.268298e-01 -3.016360e-01 -1.287125e-01 1.110869e-01 -7.053943e-01 8.834699e-02 9.144313e-01 2.781017e+01 4.660959e-01 -3.053027e-01 7.793044e-01 2.644817e+01 2.359466e+01 3.285358e-01 1.643381e+00 2.763082e+01 2.759743e+01 2.290254e-01 -5.208050e-01 -3.152782e-01 2.892111e+01
<VARIANCE> 40
 9.677191e-01 1.574981e-01 1.225652e-01 1.090153e+00 1.118418e+00 1.366285e-01 1.078928e+00 1.179944e+00 1.449352e-01 1.678417e-01 1.136520e+00 1.417044e-01 1.145621e-01 1.087848e+00 1.506810e-01 1.655456e+00 2.210455e+00 1.024321e+00 1.104186e+00 1.341303e+00 1.029509e+00 1.096145e+00 1.093814e+00 1.099659e+00 1.021320e+00 1.054847e+00 1.261981e-01 1.154724e+00 1.053695e+00 9.849378e-01 1.630564e-01 1.432146e-01 1.050485e+00 1.258595e+00 1.194125e-01 1.259959e-01 1.530684e+00 1.109545e+00 1.117620e+00 1.201554e-01
<GCONST> 4.951931e+01
<MIXTURE> 35 2.982505e-02
<MEAN> 40
 -1.248821e-01 2.368414e+01 2.603472e+01 -2.392290e-02 1.278383e+00 2.680311e+01 1.291591e+00 9.527992e-01 2.609417e+01 2.633201e+01 3.307448e-01 2.468611e+01 2.571644e+01 1.710631e+00 2.460013e+01 1.987558e+00 2.110608e+00 4.304040e-01 -8.460589e-01 -1.123041e+00 -4.012856e-01 1.869097e-01 7.972651e-01 -2.362044e-02 4.445972e-01 1.715628e+00 2.758231e+01 7.295844e-01 -8.895779e-02 1.123469e+00 2.613875e+01 2.322009e+01 7.225138e-01 1.888786e+00 2.742367e+01 2.733501e+01 -3.751575e-01 -7.626812e-01 -6.201712e-01 2.862228e+01
<VARIANCE> 40
 1.411143e+00 1.916532e-01 1.349916e-01 1.544785e+00 1.615467e+00 1.548924e-01 1.644788e+00 1.609205e+00 1.502932e-01 1.815579e-01 1.603239e+00 1.508668e-01 1.218958e-01 1.484773e+00 1.670294e-01 2.121794e+00 3.113318e+00 1.477402e+00 1.567849e+00 2.097406e+00 1.586489e+00 1.677065e+00 1.633356e+00 1.421382e+00 1.383397e+00 1.521684e+00 1.449968e-01 1.756896e+00 1.452057e+00 1.352514e+00 1.679422e-01 1.620023e-01 1.573016e+00 1.625583e+00 1.303266e-01 1.319326e-01 1.944921e+00 1.761994e+00 1.611550e+00 1.387629e-01
<GCONST> 6.005467e+01
<MIXTURE> 36 2.391008e-02
<MEAN> 40
 -1.096722e-01 2.513416e+01 2.749346e+01 -2.157533e-01 7.913170e-01 2.853695e+01 8.820696e-01 6.678168e-01 2.766101e+01 2.783226e+01 3.305426e-01 2.636976e+01 2.725852e+01 1.355200e+00 2.602271e+01 1.847552e+00 1.517464e+00 3.582787e-01 -4.124681e-01 -2.018846e-02 -3.502051e-01 -8.020461e-02 1.520107e-01 -6.597788e-01 2.090182e-01 1.038591e+00 2.904660e+01 6.224557e-01 -3.017381e-01 8.897833e-01 2.767771e+01 2.462333e+01 3.390532e-01 1.707052e+00 2.877701e+01 2.887803e+01 1.665111e-01 -5.536935e-01 -3.349431e-01 3.014437e+01
<VARIANCE> 40
 1.000544e+00 1.502000e-01 1.169470e-01 1.059907e+00 1.138860e+00 1.341832e-01 1.073259e+00 1.088335e+00 1.487476e-01 1.548688e-01 1.163729e+00 1.286608e-01 1.003394e-01 1.074100e+00 1.372952e-01 1.608356e+00 2.155385e+00 1.001370e+00 1.108776e+00 1.390025e+00 1.010355e+00 1.104621e+00 1.136558e+00 1.040463e+00 1.009379e+00 1.066906e+00 1.175322e-01 1.260173e+00 1.035933e+00 1.003799e+00 1.485248e-01 1.271716e-01 1.048813e+00 1.203405e+00 1.053593e-01 1.245055e-01 1.477476e+00 1.174981e+00 1.089902e+00 1.057413e-01
<GCONST> 4.840457e+01
~h "eight"
<BEGINHMM>
<NUMSTATES> 18
<STATE> 2
<NUMMIXES> 20
<MIXTURE> 1 4.117817e-02
<MEAN> 40
 -7.209039e-02 2.538638e+01 2.797702e+01 -2.494032e+00 2.542037e+00 2.866859e+01 6.285477e-01 -2.712203e+00 2.829965e+01 2.802698e+01 -1.083832e-01 2.686720e+01 2.786363e+01 3.602385e+00 2.671601e+01 2.483347e+00 -2.399955e+00 -2.712602e-01 -1.443083e+00 -1.995154e+00 -1.311471e+00 2.820138e+00 1.373390e+00 8.390989e-01 -9.128416e-01 2.425661e+00 2.961054e+01 -1.056350e+00 -2.605798e-02 1.202926e+00 2.789354e+01 2.512355e+01 1.475642e+00 1.879898e-01 2.944592e+01 2.960980e+01 8.076059e-01 9.284288e-01 1.180012e+00 3.080619e+01
<VARIANCE> 40
 2.809605e+00 3.724214e-01 2.945199e-01 3.641518e+00 5.372032e+00 4.206640e-01 4.568824e+00 6.727655e+00 3.484489e-01 4.494808e-01 3.301139e+00 3.349084e-01 2.464256e-01 3.057118e+00 2.859033e-01 2.870279e+00 1.129166e+01 2.732476e+00 3.711738e+00 5.730551e+00 2.799806e+00 4.868394e+00 3.504766e+00 4.084358e+00 3.381707e+00 5.143023e+00 3.079998e-01 3.349084e+00 3.054706e+00 2.655237e+00 3.170527e-01 2.625501e-01 2.914788e+00 3.985880e+00 2.784677e-01 2.990650e-01 3.919454e+00 3.575782e+00 2.869672e+00 2.933643e-01
<GCONST> 9.232616e+01
<MIXTURE> 2 5.189222e-02
<MEAN> 40
 2.433131e-02 2.154623e+01 2.360642e+01 -2.823714e+00 1.744806e+00 2.388661e+01 7.748285e-01 -2.840340e+00 2.353177e+01 2.358043e+01 -3.488250e-01 2.245837e+01 2.353010e+01 2.801575e+00 2.249761e+01 1.324356e+00 -5.958408e+00 -1.160565e+00 -1.152839e+00 -1.377249e+00 -1.244761e+00 2.737845e+00 1.273509e+00 9.161239e-01 -1.548228e+00 1.477615e+00 2.483338e+01 -1.803732e+00 -6.566206e-02 7.056234e-01 2.340503e+01 2.124012e+01 1.956424e+00 -1.040863e+00 2.493170e+01 2.498372e+01 1.886285e+00 1.158127e+00 1.953850e+00 2.623625e+01
<VARIANCE> 40
 3.927823e+00 3.263295e-01 2.867849e-01 4.179399e+00 4.123339e+00 3.896759e-01 5.617777e+00 6.032385e+00 3.022887e-01 4.347887e-01 4.509691e+00 3.134944e-01 2.325761e-01 3.175709e+00 2.767956e-01 3.808315e+00 1.518499e+01 3.128913e+00 4.195434e+00 6.261827e+00 3.724667e+00 4.042112e+00 4.467865e+00 4.508840e+00 3.656571e+00 6.828894e+00 4.008772e-01 3.894257e+00 5.128122e+00 4.463799e+00 3.137068e-01 2.863074e-01 4.018937e+00 5.322073e+00 3.117653e-01 2.476929e-01 4.720253e+00 3.505368e+00 3.784277e+00 2.638919e-01
<GCONST> 9.654309e+01
<MIXTURE> 3 5.474277e-02
<MEAN> 40
 8.901276e-02 2.331539e+01 2.570833e+01 -3.570887e+00 3.281502e+00 2.599796e+01 1.977498e+00 -4.675244e+00 2.612115e+01 2.547931e+01 -3.342220e-01 2.472163e+01 2.573450e+01 4.256985e+00 2.464991e+01 1.910115e+00 -3.439715e+00 -1.104979e+00 -2.231995e+00 -4.000708e+00 -1.711007e+00 4.243448e+00 2.408422e+00 2.476569e+00 -1.721135e+00 4.176204e+00 2.723740e+01 -2.905324e+00 1.122384e+00 1.348556e+00 2.543345e+01 2.301773e+01 2.764724e+00 -9.494197e-01 2.716812e+01 2.738601e+01 1.218629e+00 1.168731e+00 2.579204e+00 2.847983e+01
<VARIANCE> 40
 3.568450e+00 2.874324e-01 3.218697e-01 4.200799e+00 4.743497e+00 3.973258e-01 8.004706e+00 7.547488e+00 3.628573e-01 4.709716e-01 4.221986e+00 3.650093e-01 2.487130e-01 2.864715e+00 2.648479e-01 3.958574e+00 1.082745e+01 3.483427e+00 5.190576e+00 5.765714e+00 4.114868e+00 4.470624e+00 3.733293e+00 4.408483e+00 3.880712e+00 5.992864e+00 3.208529e-01 3.663003e+00 4.402111e+00 3.970486e+00 3.092661e-01 2.814369e-01 3.988689e+00 4.855928e+00 3.152150e-01 2.482433e-01 4.394919e+00 4.025455e+00 4.016171e+00 2.667932e-01
<GCONST> 9.677866e+01
<MIXTURE> 4 4.723282e-02
<MEAN> 40
 4.336217e-01 2.043298e+01 2.195661e+01 -2.026222e+00 6.696473e-01 2.241679e+01 9.146550e-01 -2.063304e+00 2.178601e+01 2.188074e+01 -6.126005e-01 2.100144e+01 2.203773e+01 2.419118e+00 2.099069e+01 3.800515e-01 -7.069600e+00 -1.451335e+00 -1.536433e+00 -1.726660e+00 -1.122591e+00 2.160624e+00 1.146244e+00 1.166164e+00 -2.081565e+00 9.257129e-01 2.291151e+01 -2.217203e+00 -1.254573e-01 8.615261e-01 2.169795e+01 1.970236e+01 2.089974e+00 -5.233850e-01 2.311562e+01 2.337230e+01 1.407021e+00 1.476174e+00 1.864009e+00 2.470185e+01
<VARIANCE> 40
 4.049662e+00 4.063421e-01 2.969996e-01 4.270731e+00 4.415840e+00 3.413022e-01 6.072885e+00 5.200582e+00 3.759820e-01 3.969347e-01 4.588562e+00 3.441373e-01 3.134311e-01 3.498554e+00 3.442361e-01 4.442669e+00 1.683340e+01 3.514673e+00 4.519714e+00 6.724209e+00 3.782861e+00 4.230082e+00 5.220230e+00 5.191073e+00 4.026738e+00 7.872861e+00 4.098153e-01 4.164591e+00 5.720264e+00 4.040873e+00 3.232044e-01 3.132350e-01 4.039074e+00 4.544520e+00 3.661621e-01 2.973170e-01 4.828425e+00 3.563905e+00 4.442041e+00 3.172786e-01
<GCONST> 9.947404e+01
<MIXTURE> 5 5.454310e-02
<MEAN> 40
 -4.628827e-02 2.304376e+01 2.527559e+01 -2.155001e+00 1.308203e+00 2.581392e+01 3.783492e-02 -1.945082e+00 2.521184e+01 2.537098e+01 -3.832828e-01 2.403255e+01 2.504897e+01 2.393081e+00 2.403880e+01 1.789285e+00 -3.916508e+00 -6.940013e-01 -7.901571e-01 -2.144860e-01 -1.270737e+00 1.812300e+00 6.026227e-01 -3.557660e-01 -9.753289e-01 8.030678e-01 2.668285e+01 -6.037262e-01 -7.861882e-01 4.613263e-01 2.521105e+01 2.277682e+01 1.017037e+00 -2.248009e-01 2.664318e+01 2.655999e+01 1.952635e+00 1.215465e+00 9.386005e-01 2.785839e+01
<VARIANCE> 40
 2.496177e+00 2.552614e-01 2.151195e-01 3.050082e+00 2.891407e+00 3.020538e-01 3.235818e+00 4.430409e+00 2.496106e-01 3.387644e-01 2.502819e+00 2.354707e-01 1.825823e-01 2.356940e+00 2.208602e-01 2.736171e+00 9.588918e+00 2.065254e+00 2.699260e+00 3.023378e+00 2.388119e+00 3.003314e+00 3.006591e+00 2.466478e+00 2.065915e+00 3.663806e+00 2.457634e-01 2.798165e+00 2.622160e+00 2.718103e+00 2.710977e-01 2.191914e-01 2.438792e+00 3.700999e+00 1.973674e-01 1.762419e-01 2.858773e+00 2.374261e+00 2.693517e+00 1.969671e-01
<GCONST> 8.079668e+01
<MIXTURE> 6 4.885061e-02
<MEAN> 40
 1.645318e-02 2.450566e+01 2.703922e+01 -3.242682e+00 3.029386e+00 2.753383e+01 9.373819e-01 -4.167710e+00 2.740881e+01 2.693522e+01 -2.053327e-01 2.593537e+01 2.696609e+01 4.073594e+00 2.586992e+01 2.248366e+00 -3.424155e+00 -8.091483e-01 -1.839473e+00 -2.766994e+00 -1.693034e+00 3.852386e+00 1.697375e+00 1.408513e+00 -1.501723e+00 3.062026e+00 2.862445e+01 -1.953884e+00 2.625785e-01 1.099322e+00 2.683737e+01 2.429480e+01 2.040511e+00 -6.224738e-01 2.855406e+01 2.869311e+01 1.151132e+00 1.241085e+00 1.910342e+00 2.980590e+01
<VARIANCE> 40
 3.188771e+00 3.601383e-01 2.732783e-01 3.749072e+00 5.018683e+00 4.245784e-01 6.343324e+00 7.760581e+00 2.993000e-01 4.168385e-01 3.919056e+00 3.086115e-01 2.452306e-01 2.938251e+00 2.424335e-01 3.290803e+00 1.151192e+01 3.015652e+00 4.199319e+00 5.719440e+00 3.675361e+00 4.674955e+00 3.384784e+00 3.681493e+00 3.844036e+00 5.568986e+00 2.385874e-01 3.193181e+00 4.237035e+00 3.263030e+00 3.044550e-01 2.435690e-01 3.433589e+00 4.422959e+00 2.132473e-01 2.452366e-01 3.870263e+00 4.071537e+00 3.500673e+00 2.454622e-01
<GCONST> 9.317025e+01
<MIXTURE> 7 4.962632e-02
<MEAN> 40
 -2.154880e-01 1.863224e+01 1.960781e+01 -2.927032e+00 8.453917e-01 2.014790e+01 1.544828e+00 -3.547046e+00 1.930301e+01 1.995623e+01 -3.259419e+00 1.890552e+01 1.997270e+01 1.454735e+00 1.924510e+01 -1.544379e+00 -1.294806e+01 -3.166761e+00 -3.109710e+00 -9.198757e-01 -2.354765e+00 3.297303e+00 -2.636585e-01 2.234696e+00 -4.743248e+00 -2.164845e+00 2.056240e+01 -3.493290e+00 -1.665038e+00 8.597192e-01 1.942422e+01 1.805311e+01 2.606374e+00 -3.233840e+00 2.086267e+01 2.116506e+01 1.925720e+00 1.872898e+00 2.734964e+00 2.236649e+01
<VARIANCE> 40
 9.272271e+00 4.864809e-01 3.687873e-01 6.254780e+00 7.014030e+00 4.734117e-01 1.026885e+01 8.118651e+00 5.899094e-01 4.665391e-01 8.780588e+00 4.311461e-01 3.310370e-01 6.946451e+00 4.391528e-01 6.446951e+00 2.369312e+01 5.838238e+00 6.880614e+00 6.937299e+00 5.755259e+00 6.061563e+00 1.058772e+01 6.015966e+00 6.917953e+00 1.332166e+01 3.743761e-01 7.599907e+00 9.877204e+00 7.046699e+00 4.345402e-01 3.863272e-01 5.755194e+00 8.068163e+00 3.928643e-01 3.955721e-01 7.343858e+00 7.050270e+00 8.877316e+00 4.626444e-01
<GCONST> 1.152600e+02
<MIXTURE> 8 3.723342e-02
<MEAN> 40
 5.064467e-01 2.241823e+01 2.447943e+01 -3.153967e+00 2.762152e+00 2.478820e+01 2.609338e+00 -3.851235e+00 2.482732e+01 2.421019e+01 -1.945967e-01 2.368307e+01 2.467794e+01 4.018187e+00 2.351326e+01 1.492652e+00 -3.753946e+00 -1.039707e+00 -2.266443e+00 -4.448957e+00 -1.130381e+00 3.830733e+00 2.727231e+00 3.257955e+00 -1.939204e+00 4.400045e+00 2.584178e+01 -3.446040e+00 1.605536e+00 1.857343e+00 2.433561e+01 2.185527e+01 3.406830e+00 -6.450782e-01 2.584476e+01 2.623434e+01 1.008013e+00 1.166004e+00 3.171818e+00 2.739452e+01
<VARIANCE> 40
 3.826988e+00 3.488047e-01 3.421663e-01 4.289845e+00 5.867645e+00 4.022110e-01 8.930631e+00 6.204437e+00 3.395775e-01 5.442053e-01 5.144063e+00 3.511975e-01 2.685283e-01 3.288805e+00 3.011125e-01 4.416593e+00 1.432571e+01 4.115282e+00 4.642531e+00 5.575645e+00 4.567194e+00 4.578346e+00 4.463178e+00 5.364188e+00 4.631244e+00 7.701297e+00 4.280951e-01 3.885781e+00 4.610284e+00 4.672754e+00 3.171539e-01 3.282576e-01 4.506427e+00 4.971898e+00 4.151651e-01 2.645454e-01 4.251023e+00 4.415477e+00 4.481903e+00 2.808137e-01
<GCONST> 1.006248e+02
<MIXTURE> 9 5.762981e-02
<MEAN> 40
 1.418246e-01 2.393030e+01 2.562888e+01 -1.598958e+00 7.375703e-01 2.646024e+01 2.283273e-01 -1.831603e+00 2.565377e+01 2.571295e+01 -6.160522e-01 2.491511e+01 2.575530e+01 1.930356e+00 2.453175e+01 1.030412e+00 -6.993837e+00 -1.131323e+00 -1.243537e+00 -8.690073e-01 -1.166786e+00 1.714044e+00 8.540118e-02 3.786119e-01 -2.201385e+00 5.570623e-02 2.683093e+01 -1.599429e+00 -1.353450e+00 5.353174e-01 2.563242e+01 2.308722e+01 1.268279e+00 -4.031792e-01 2.693388e+01 2.730924e+01 1.385830e+00 1.417920e+00 1.088175e+00 2.863127e+01
<VARIANCE> 40
 3.194084e+00 3.265200e-01 2.427522e-01 3.008913e+00 3.832438e+00 2.856669e-01 4.133527e+00 3.729061e+00 2.927304e-01 3.298237e-01 3.488653e+00 3.017864e-01 2.037957e-01 2.386838e+00 2.846595e-01 3.438199e+00 1.435881e+01 2.497677e+00 2.936943e+00 4.072956e+00 2.645344e+00 3.131715e+00 4.323819e+00 2.649910e+00 3.309633e+00 4.653809e+00 3.464294e-01 3.334476e+00 3.830112e+00 3.037739e+00 3.214630e-01 3.052760e-01 2.691677e+00 3.478006e+00 2.384626e-01 2.247299e-01 3.230170e+00 2.715136e+00 2.752861e+00 2.532258e-01
<GCONST> 8.778708e+01
<MIXTURE> 10 4.972212e-02
<MEAN> 40
 -2.720375e-01 2.154393e+01 2.243949e+01 -3.461314e+00 1.135644e+00 2.338523e+01 2.094640e+00 -4.319784e+00 2.227282e+01 2.288758e+01 -4.067088e+00 2.206418e+01 2.298632e+01 1.773578e+00 2.228177e+01 -1.344021e+00 -1.385625e+01 -3.932542e+00 -3.681064e+00 -7.950336e-01 -3.009916e+00 4.067663e+00 -3.287817e-01 2.289455e+00 -6.454089e+00 -3.110877e+00 2.371702e+01 -3.666193e+00 -3.753442e+00 7.581413e-01 2.251669e+01 2.084161e+01 2.337517e+00 -3.933407e+00 2.395563e+01 2.444244e+01 3.116324e+00 1.625782e+00 2.838420e+00 2.547062e+01
<VARIANCE> 40
 7.638783e+00 4.120091e-01 3.169462e-01 4.846615e+00 6.513844e+00 3.492605e-01 1.033489e+01 6.735565e+00 4.768535e-01 4.044693e-01 5.438765e+00 3.098171e-01 2.632997e-01 4.836219e+00 2.706186e-01 5.391379e+00 1.301898e+01 4.913080e+00 5.696393e+00 4.722503e+00 5.152385e+00 5.814750e+00 9.425170e+00 4.350770e+00 5.085598e+00 7.936131e+00 3.297088e-01 5.231293e+00 8.609670e+00 6.677786e+00 3.488362e-01 2.991377e-01 4.942867e+00 4.226734e+00 2.836645e-01 3.320443e-01 6.678746e+00 5.911671e+00 6.304984e+00 3.247091e-01
<GCONST> 1.053193e+02
<MIXTURE> 11 4.851569e-02
<MEAN> 40
 -6.463140e-02 2.246063e+01 2.459100e+01 -1.891218e+00 1.053689e+00 2.509763e+01 1.686504e-01 -1.513583e+00 2.444481e+01 2.472670e+01 -4.016340e-01 2.333715e+01 2.436897e+01 2.067528e+00 2.336018e+01 1.634767e+00 -3.926167e+00 -6.731843e-01 -6.838467e-01 9.776634e-02 -1.169723e+00 1.517257e+00 5.281535e-01 -2.804942e-01 -9.583036e-01 5.165042e-01 2.596036e+01 -5.819969e-01 -8.574060e-01 4.278985e-01 2.454720e+01 2.215684e+01 1.030568e+00 -9.869657e-02 2.594303e+01 2.585345e+01 1.749762e+00 9.789599e-01 9.131073e-01 2.717192e+01
<VARIANCE> 40
 2.453471e+00 3.181833e-01 2.170040e-01 2.919432e+00 2.760115e+00 3.110265e-01 3.150178e+00 3.363404e+00 2.405366e-01 3.111446e-01 2.523899e+00 2.653612e-01 2.086059e-01 2.141736e+00 2.493967e-01 2.624672e+00 1.132168e+01 1.997380e+00 2.354016e+00 2.843049e+00 2.138787e+00 2.649494e+00 2.928465e+00 2.315007e+00 2.267449e+00 3.299706e+00 2.564619e-01 2.446578e+00 2.555816e+00 2.520468e+00 2.687334e-01 2.171758e-01 2.302180e+00 3.536267e+00 1.947003e-01 1.975709e-01 2.998694e+00 2.302371e+00 2.418227e+00 2.127425e-01
<GCONST> 8.013879e+01
<MIXTURE> 12 4.433171e-02
<MEAN> 40
 -1.736893e-02 2.243062e+01 2.328541e+01 -3.460298e+00 1.203635e+00 2.441511e+01 2.116973e+00 -4.213982e+00 2.319725e+01 2.374373e+01 -3.896025e+00 2.303601e+01 2.394168e+01 2.058861e+00 2.317473e+01 -7.464517e-01 -1.351969e+01 -3.948912e+00 -3.657360e+00 -9.809793e-01 -3.051584e+00 4.144356e+00 -6.619019e-02 2.135851e+00 -6.670351e+00 -2.808612e+00 2.470870e+01 -3.571175e+00 -4.106239e+00 6.421317e-01 2.346787e+01 2.171795e+01 2.206698e+00 -3.685925e+00 2.491586e+01 2.544526e+01 3.154156e+00 1.600868e+00 2.725587e+00 2.646205e+01
<VARIANCE> 40
 7.606710e+00 4.110111e-01 2.934265e-01 4.694898e+00 6.838568e+00 3.658726e-01 9.075650e+00 6.856035e+00 4.547667e-01 3.880977e-01 5.213114e+00 3.048430e-01 2.862380e-01 4.322841e+00 3.271530e-01 5.765704e+00 1.210457e+01 4.546504e+00 5.299721e+00 4.385623e+00 5.357471e+00 5.197529e+00 7.971294e+00 4.475391e+00 4.327201e+00 7.274741e+00 3.578564e-01 5.115360e+00 7.483441e+00 6.288672e+00 3.300442e-01 3.471408e-01 5.181533e+00 3.763525e+00 2.807870e-01 3.686504e-01 6.337126e+00 5.692607e+00 5.995797e+00 3.268538e-01
<GCONST> 1.043542e+02
<MIXTURE> 13 6.519170e-02
<MEAN> 40
 3.261764e-02 2.429004e+01 2.640907e+01 -2.305403e+00 1.442528e+00 2.719980e+01 2.793150e-01 -2.561394e+00 2.659780e+01 2.642755e+01 -3.886726e-01 2.546330e+01 2.640743e+01 2.606415e+00 2.527032e+01 1.651374e+00 -5.315886e+00 -9.129526e-01 -1.421409e+00 -1.062721e+00 -1.321333e+00 2.357441e+00 6.188942e-01 2.461622e-01 -1.773757e+00 9.468765e-01 2.783002e+01 -1.400271e+00 -8.068538e-01 7.033118e-01 2.635172e+01 2.381826e+01 1.361080e+00 -3.464613e-01 2.779921e+01 2.804229e+01 1.571104e+00 1.192379e+00 1.309718e+00 2.924304e+01
<VARIANCE> 40
 3.116336e+00 3.667838e-01 2.467199e-01 3.601189e+00 3.703990e+00 3.540587e-01 4.463524e+00 5.210581e+00 2.950728e-01 3.476239e-01 3.100999e+00 3.300809e-01 2.176249e-01 2.566051e+00 2.508044e-01 3.181966e+00 1.422627e+01 2.713062e+00 3.568545e+00 4.226451e+00 2.687280e+00 3.659777e+00 3.632742e+00 3.099964e+00 3.553508e+00 4.902484e+00 2.766511e-01 3.494569e+00 3.781332e+00 2.916393e+00 2.802157e-01 2.430383e-01 2.770448e+00 3.628477e+00 2.071573e-01 2.256012e-01 3.206632e+00 2.741263e+00 2.981678e+00 2.157945e-01
<GCONST> 8.847506e+01
<MIXTURE> 14 4.950451e-02
<MEAN> 40
 -5.181373e-01 1.969574e+01 2.037875e+01 -4.463026e+00 7.670326e-01 2.110163e+01 2.237993e+00 -5.668430e+00 2.022314e+01 2.099784e+01 -5.482004e+00 2.001797e+01 2.094238e+01 1.814677e+00 2.046343e+01 -2.197743e+00 -1.594723e+01 -5.076844e+00 -4.760328e+00 -9.704709e-01 -3.944194e+00 4.721848e+00 -7.466505e-01 2.983272e+00 -7.743866e+00 -3.104659e+00 2.160708e+01 -4.770782e+00 -4.149215e+00 9.921002e-01 2.046554e+01 1.906736e+01 3.359442e+00 -5.265649e+00 2.187229e+01 2.235576e+01 3.764880e+00 2.488629e+00 4.363847e+00 2.327977e+01
<VARIANCE> 40
 9.879004e+00 4.763044e-01 3.717634e-01 6.296136e+00 8.207725e+00 4.084436e-01 1.356861e+01 7.634424e+00 6.182572e-01 4.418004e-01 6.315542e+00 4.193358e-01 3.291830e-01 6.535435e+00 3.283730e-01 6.382025e+00 1.479177e+01 5.480509e+00 6.421563e+00 5.535693e+00 6.547387e+00 6.632876e+00 1.214825e+01 5.215619e+00 6.016580e+00 1.172932e+01 3.587714e-01 7.260957e+00 1.149383e+01 8.055067e+00 4.313853e-01 3.490471e-01 6.302487e+00 4.660454e+00 3.459449e-01 3.841106e-01 7.911148e+00 9.086716e+00 8.904954e+00 3.766707e-01
<GCONST> 1.135285e+02
<MIXTURE> 15 3.991373e-02
<MEAN> 40
 -7.035327e-01 1.734728e+01 1.812145e+01 -3.885170e+00 7.170778e-01 1.859254e+01 1.265271e+00 -4.817607e+00 1.792452e+01 1.867312e+01 -4.951232e+00 1.752323e+01 1.852648e+01 1.656969e+00 1.804396e+01 -2.339958e+00 -1.523875e+01 -4.065671e+00 -4.146114e+00 -1.117723e+00 -3.214986e+00 4.024188e+00 -8.614033e-01 2.720731e+00 -6.071381e+00 -2.463138e+00 1.911576e+01 -4.660731e+00 -2.201767e+00 8.578035e-01 1.806949e+01 1.687333e+01 3.310497e+00 -4.478034e+00 1.943222e+01 1.974282e+01 2.289735e+00 2.594726e+00 4.058251e+00 2.083670e+01
<VARIANCE> 40
 1.100007e+01 6.669651e-01 5.986934e-01 7.572126e+00 8.965331e+00 6.892503e-01 1.264869e+01 1.012012e+01 7.877918e-01 6.912559e-01 1.087578e+01 6.552064e-01 5.450964e-01 8.680206e+00 6.224365e-01 7.338343e+00 2.552207e+01 7.667123e+00 8.886275e+00 7.527533e+00 8.012929e+00 7.451600e+00 1.492874e+01 7.449475e+00 9.935827e+00 1.391687e+01 5.597658e-01 9.416080e+00 1.324014e+01 8.621691e+00 6.819326e-01 5.505259e-01 6.359078e+00 8.317812e+00 6.245565e-01 6.611999e-01 7.582383e+00 9.501966e+00 1.230846e+01 6.708323e-01
<GCONST> 1.262239e+02
<MIXTURE> 16 5.638475e-02
<MEAN> 40
 1.242872e-01 2.343286e+01 2.465369e+01 -2.195669e+00 8.441672e-01 2.571901e+01 1.212940e+00 -2.878693e+00 2.466153e+01 2.492279e+01 -1.892718e+00 2.424408e+01 2.511792e+01 1.996154e+00 2.409514e+01 1.329110e-01 -1.099290e+01 -2.330590e+00 -2.506047e+00 -1.112054e+00 -1.953789e+00 2.873950e+00 -8.978277e-02 1.365714e+00 -4.625670e+00 -1.420541e+00 2.594189e+01 -2.597043e+00 -2.643269e+00 5.988814e-01 2.478200e+01 2.257231e+01 1.644658e+00 -1.970232e+00 2.612645e+01 2.666378e+01 1.806168e+00 1.270143e+00 1.645108e+00 2.785080e+01
<VARIANCE> 40
 5.502816e+00 3.612440e-01 2.766388e-01 4.202367e+00 5.145295e+00 3.273369e-01 7.065134e+00 5.365599e+00 4.338936e-01 3.854237e-01 5.246091e+00 3.088851e-01 2.436604e-01 3.342587e+00 3.426424e-01 4.242623e+00 1.181849e+01 4.172538e+00 4.384148e+00 4.384120e+00 3.654726e+00 4.122171e+00 6.320358e+00 3.684422e+00 4.564697e+00 6.566058e+00 3.448761e-01 4.264604e+00 6.553242e+00 4.642624e+00 3.506235e-01 3.383046e-01 4.061194e+00 4.841105e+00 2.704559e-01 3.407879e-01 4.624882e+00 3.965495e+00 4.433735e+00 3.132203e-01
<GCONST> 9.898829e+01
<MIXTURE> 17 5.773094e-02
<MEAN> 40
 2.186929e-01 2.258076e+01 2.392092e+01 -1.685179e+00 2.555677e-01 2.473469e+01 4.363006e-01 -1.984378e+00 2.380058e+01 2.406213e+01 -1.138923e+00 2.330688e+01 2.419810e+01 1.876914e+00 2.306888e+01 1.410830e-01 -9.221989e+00 -1.768975e+00 -1.608004e+00 -1.258294e+00 -1.571456e+00 2.064110e+00 1.261477e-01 8.615526e-01 -3.006610e+00 -5.066882e-01 2.495618e+01 -2.115776e+00 -1.490486e+00 6.197242e-01 2.387160e+01 2.161401e+01 1.716287e+00 -9.658831e-01 2.518436e+01 2.565807e+01 1.357639e+00 1.680530e+00 1.456272e+00 2.699056e+01
<VARIANCE> 40
 4.135351e+00 3.123441e-01 2.485305e-01 3.263398e+00 3.998719e+00 3.025365e-01 5.065741e+00 4.023777e+00 3.608254e-01 3.287014e-01 4.395625e+00 2.741470e-01 2.353586e-01 3.085571e+00 3.266588e-01 3.708400e+00 1.119487e+01 2.955848e+00 3.657402e+00 4.524478e+00 3.328015e+00 3.737458e+00 5.272262e+00 3.130899e+00 3.263729e+00 6.092897e+00 3.277956e-01 3.403569e+00 5.142490e+00 3.695491e+00 3.062972e-01 2.969909e-01 3.496880e+00 3.942901e+00 2.759348e-01 2.668964e-01 4.428154e+00 3.084166e+00 4.007899e+00 2.689800e-01
<GCONST> 9.267475e+01
<MIXTURE> 18 4.913162e-02
<MEAN> 40
 1.691867e-01 2.120497e+01 2.281566e+01 -1.721630e+00 6.165881e-01 2.334971e+01 2.996287e-01 -1.837464e+00 2.256741e+01 2.286978e+01 -7.551631e-01 2.183538e+01 2.281277e+01 1.997810e+00 2.177918e+01 5.830878e-01 -7.220620e+00 -1.292170e+00 -1.176426e+00 -7.546890e-01 -1.119256e+00 1.867891e+00 5.615988e-01 4.995594e-01 -1.886249e+00 -5.287664e-02 2.387319e+01 -1.538470e+00 -9.382781e-01 6.662491e-01 2.263433e+01 2.058053e+01 1.501637e+00 -6.063217e-01 2.405779e+01 2.419886e+01 1.638931e+00 1.453752e+00 1.427611e+00 2.555535e+01
<VARIANCE> 40
 3.799394e+00 4.014832e-01 2.473809e-01 3.332673e+00 3.422430e+00 3.462636e-01 4.647353e+00 3.874158e+00 3.054729e-01 3.349850e-01 3.923001e+00 3.645343e-01 2.621532e-01 2.825330e+00 3.072670e-01 3.829361e+00 1.688281e+01 2.828710e+00 3.510572e+00 4.979715e+00 3.491021e+00 3.815392e+00 4.803529e+00 3.552746e+00 3.390462e+00 6.064101e+00 3.688368e-01 3.648638e+00 4.436123e+00 3.860656e+00 2.966760e-01 2.572706e-01 3.367540e+00 4.142961e+00 2.866776e-01 2.793006e-01 4.426980e+00 2.859369e+00 3.859560e+00 2.857893e-01
<GCONST> 9.323418e+01
<MIXTURE> 19 4.615270e-02
<MEAN> 40
 3.519845e-01 1.980060e+01 2.106714e+01 -2.005521e+00 3.409597e-01 2.163846e+01 7.240057e-01 -2.135990e+00 2.082868e+01 2.111059e+01 -1.083588e+00 2.022022e+01 2.126082e+01 2.133644e+00 2.023059e+01 -1.100110e-01 -9.075293e+00 -1.797764e+00 -1.820490e+00 -1.461200e+00 -1.356354e+00 2.261863e+00 6.846110e-01 1.122315e+00 -2.701431e+00 -1.399200e-01 2.197044e+01 -2.289081e+00 -9.550775e-01 7.095142e-01 2.082496e+01 1.906529e+01 2.063684e+00 -1.171368e+00 2.225218e+01 2.252935e+01 1.407442e+00 1.631367e+00 1.763119e+00 2.388422e+01
<VARIANCE> 40
 4.918911e+00 4.360263e-01 2.990833e-01 4.499356e+00 4.501017e+00 3.850806e-01 6.758864e+00 5.379253e+00 4.634350e-01 4.027035e-01 5.857522e+00 3.578965e-01 2.943635e-01 3.792830e+00 3.976643e-01 4.358576e+00 1.831171e+01 4.051826e+00 4.618965e+00 6.040737e+00 4.204946e+00 4.474324e+00 6.067976e+00 4.365149e+00 4.019993e+00 8.793568e+00 4.303927e-01 4.344380e+00 6.942451e+00 4.896584e+00 3.620943e-01 3.420850e-01 4.091021e+00 5.150887e+00 3.541997e-01 3.245022e-01 5.694429e+00 4.286376e+00 5.102905e+00 3.423984e-01
<GCONST> 1.025532e+02
<MIXTURE> 20 5.049197e-02
<MEAN> 40
 -3.550335e-01 2.074779e+01 2.152354e+01 -4.041724e+00 9.439077e-01 2.241325e+01 2.069026e+00 -5.088407e+00 2.134839e+01 2.204296e+01 -4.847424e+00 2.116833e+01 2.212459e+01 1.896579e+00 2.153601e+01 -1.673907e+00 -1.504456e+01 -4.460824e+00 -4.031408e+00 -8.657322e-01 -3.458285e+00 4.575004e+00 -4.012461e-01 2.591366e+00 -7.149349e+00 -3.238308e+00 2.281646e+01 -4.236167e+00 -4.168426e+00 9.671261e-01 2.162202e+01 2.012635e+01 2.779657e+00 -4.680305e+00 2.307530e+01 2.354969e+01 3.748668e+00 1.982062e+00 3.642728e+00 2.446642e+01
<VARIANCE> 40
 8.697888e+00 4.382840e-01 3.131692e-01 5.486186e+00 7.735171e+00 3.736240e-01 1.174260e+01 7.375119e+00 5.268539e-01 3.855354e-01 5.972778e+00 3.488717e-01 2.649166e-01 5.498438e+00 3.345657e-01 5.966592e+00 1.440073e+01 5.276353e+00 5.842445e+00 5.105803e+00 5.734789e+00 6.025432e+00 1.128393e+01 4.890827e+00 5.893118e+00 9.018469e+00 3.156558e-01 6.030073e+00 9.944335e+00 7.454867e+00 3.846101e-01 3.177308e-01 5.600706e+00 4.541374e+00 2.923504e-01 3.532141e-01 7.628356e+00 6.867794e+00 7.435193e+00 3.396945e-01
<GCONST> 1.090754e+02
<STATE> 3
<NUMMIXES> 20
<MIXTURE> 1 3.997508e-02
<MEAN> 40
 6.300291e-01 2.511437e+01 2.716010e+01 -1.667436e+00 -5.333708e-03 2.812132e+01 -7.105032e-01 -1.299744e+00 2.731128e+01 2.723157e+01 -1.219121e+00 2.625144e+01 2.701957e+01 1.988675e+00 2.580606e+01 1.529336e+00 -4.919553e+00 -7.304270e-01 -8.934807e-01 -8.817874e-01 -1.662815e+00 3.632182e-01 2.909485e-01 -1.275825e+00 -4.447143e-01 1.054082e+00 2.860388e+01 -3.313195e-02 -1.476141e+00 4.908258e-01 2.717359e+01 2.447848e+01 7.213964e-01 1.601422e-01 2.847275e+01 2.869090e+01 2.153550e+00 2.406244e+00 8.944011e-01 2.984292e+01
<VARIANCE> 40
 2.762340e+00 3.683843e-01 2.541471e-01 3.045750e+00 2.949462e+00 3.211592e-01 4.174825e+00 4.056201e+00 3.066849e-01 3.747317e-01 3.114499e+00 3.635493e-01 2.376370e-01 2.459081e+00 2.816258e-01 3.330806e+00 1.327618e+01 2.494959e+00 2.312263e+00 3.441120e+00 2.768401e+00 3.025933e+00 3.043690e+00 2.331336e+00 3.191411e+00 3.460066e+00 2.876517e-01 3.391477e+00 2.627079e+00 2.769555e+00 3.020740e-01 3.006871e-01 2.596779e+00 3.377553e+00 2.333502e-01 2.712370e-01 3.518214e+00 3.267073e+00 2.557374e+00 2.747725e-01
<GCONST> 8.653364e+01
<MIXTURE> 2 2.473551e-02
<MEAN> 40
 8.252527e-01 1.571840e+01 1.639245e+01 -3.663660e+00 -1.663727e+00 1.690623e+01 -4.477572e-01 -3.920796e+00 1.591638e+01 1.682264e+01 -4.945763e+00 1.573836e+01 1.666955e+01 2.666502e+00 1.625340e+01 -2.257668e+00 -1.415965e+01 -4.077918e+00 -3.694944e+00 -2.065789e+00 -3.798730e+00 3.048663e+00 4.717025e-01 1.102175e+00 -4.785967e+00 -1.051131e+00 1.726115e+01 -4.078941e+00 -3.229013e+00 4.221071e-01 1.619724e+01 1.518694e+01 3.120317e+00 -4.027054e+00 1.751898e+01 1.784018e+01 2.103526e+00 4.182655e+00 3.475893e+00 1.880794e+01
<VARIANCE> 40
 9.178936e+00 1.192472e+00 1.129573e+00 9.008154e+00 9.650656e+00 1.205939e+00 1.084443e+01 1.064999e+01 1.356051e+00 1.204017e+00 1.351768e+01 1.201590e+00 1.109799e+00 7.502603e+00 1.126316e+00 7.603666e+00 2.579588e+01 9.460361e+00 1.048748e+01 7.628133e+00 9.535227e+00 9.693377e+00 1.188767e+01 9.032485e+00 1.193669e+01 1.292801e+01 1.251263e+00 1.088605e+01 1.129018e+01 8.192821e+00 1.198259e+00 8.619667e-01 7.446613e+00 1.053203e+01 1.195624e+00 1.262552e+00 9.048906e+00 9.062942e+00 1.279671e+01 1.213205e+00
<GCONST> 1.361919e+02
<MIXTURE> 3 4.115510e-02
<MEAN> 40
 -2.658417e-01 2.270982e+01 2.486646e+01 -5.026168e+00 2.236723e+00 2.532946e+01 1.211019e+00 -7.285111e+00 2.550633e+01 2.450179e+01 -2.712363e+00 2.402767e+01 2.485565e+01 4.641508e+00 2.393143e+01 1.418476e+00 -6.937852e+00 -2.518273e+00 -2.865600e+00 -4.457607e+00 -3.658439e+00 4.467200e+00 2.217711e+00 1.748386e+00 -3.251088e+00 4.720625e+00 2.636192e+01 -2.992311e+00 -5.462356e-01 3.639842e-01 2.448396e+01 2.241723e+01 3.440528e+00 -2.705242e+00 2.638482e+01 2.657988e+01 3.670951e+00 3.638527e+00 4.168405e+00 2.744277e+01
<VARIANCE> 40
 4.460092e+00 2.895432e-01 2.683929e-01 4.573613e+00 4.933039e+00 3.048667e-01 1.048085e+01 6.724633e+00 2.704574e-01 3.702137e-01 6.288261e+00 3.243959e-01 2.421986e-01 3.153524e+00 2.247012e-01 3.806268e+00 9.745008e+00 3.728508e+00 5.674615e+00 4.116465e+00 5.324808e+00 4.719755e+00 3.901845e+00 5.078943e+00 4.559667e+00 5.383962e+00 2.606688e-01 4.325679e+00 5.654934e+00 4.942888e+00 2.287998e-01 2.506728e-01 4.327921e+00 4.996146e+00 2.489929e-01 2.532441e-01 6.360064e+00 6.302146e+00 4.515547e+00 2.784619e-01
<GCONST> 9.760213e+01
<MIXTURE> 4 5.505278e-02
<MEAN> 40
 5.214847e-01 2.098247e+01 2.268608e+01 -4.580812e+00 5.685491e-01 2.316614e+01 2.332225e-01 -5.408237e+00 2.306084e+01 2.249963e+01 -2.215042e+00 2.190704e+01 2.285738e+01 3.772885e+00 2.191814e+01 7.435566e-01 -8.731203e+00 -2.210810e+00 -2.661960e+00 -3.969614e+00 -2.896081e+00 3.353638e+00 2.260258e+00 1.079983e+00 -2.891969e+00 3.218819e+00 2.394781e+01 -2.889066e+00 -8.973259e-01 4.370497e-01 2.244892e+01 2.048541e+01 3.253668e+00 -2.190180e+00 2.412855e+01 2.434677e+01 3.204923e+00 3.267500e+00 4.067090e+00 2.536589e+01
<VARIANCE> 40
 5.159676e+00 3.814865e-01 2.736981e-01 5.640022e+00 6.810129e+00 3.559160e-01 1.116613e+01 6.837293e+00 3.174632e-01 4.629281e-01 6.427054e+00 2.850533e-01 2.859436e-01 3.846766e+00 2.682255e-01 4.857050e+00 1.160200e+01 4.374857e+00 6.610771e+00 6.139363e+00 5.999100e+00 5.963869e+00 5.527635e+00 6.765611e+00 4.627879e+00 6.744676e+00 3.284914e-01 4.854491e+00 7.485271e+00 5.827375e+00 2.481884e-01 3.113915e-01 5.060452e+00 6.001377e+00 3.035389e-01 2.451736e-01 7.005380e+00 5.293757e+00 5.111540e+00 3.206114e-01
<GCONST> 1.037695e+02
<MIXTURE> 5 3.833036e-02
<MEAN> 40
 4.473594e-01 2.203869e+01 2.399161e+01 -1.265588e+00 6.187864e-02 2.460764e+01 -4.702705e-01 -1.016065e+00 2.383157e+01 2.404270e+01 -8.348793e-01 2.273719e+01 2.367588e+01 1.541161e+00 2.274858e+01 1.420690e+00 -3.367570e+00 -4.777307e-01 -7.315252e-01 3.570260e-02 -1.222815e+00 4.945979e-01 2.735724e-01 -1.334958e+00 -4.261621e-01 4.566292e-01 2.529391e+01 2.023177e-02 -1.074496e+00 3.369444e-01 2.394090e+01 2.159280e+01 7.383828e-01 5.235419e-01 2.528771e+01 2.516139e+01 2.110018e+00 1.626142e+00 7.554769e-01 2.647137e+01
<VARIANCE> 40
 2.018244e+00 3.030248e-01 2.294743e-01 2.419269e+00 2.037942e+00 2.700154e-01 2.481847e+00 3.321178e+00 2.518800e-01 2.868752e-01 2.211181e+00 2.778925e-01 2.396984e-01 1.924266e+00 2.177539e-01 2.856142e+00 1.001040e+01 2.212222e+00 2.220102e+00 2.689263e+00 2.264964e+00 2.512828e+00 2.660072e+00 1.709943e+00 2.019456e+00 2.551606e+00 2.309263e-01 2.234927e+00 2.255929e+00 2.100664e+00 2.413701e-01 1.924095e-01 2.158531e+00 2.784776e+00 2.202981e-01 2.111831e-01 2.645385e+00 2.169993e+00 2.249703e+00 2.156909e-01
<GCONST> 7.693641e+01
<MIXTURE> 6 4.752720e-02
<MEAN> 40
 7.424546e-01 2.419114e+01 2.597067e+01 -4.297585e+00 4.907830e-01 2.687230e+01 -1.390172e+00 -5.415311e+00 2.633488e+01 2.578773e+01 -3.046008e+00 2.526690e+01 2.606192e+01 4.074721e+00 2.506948e+01 1.046046e+00 -8.670692e+00 -2.339751e+00 -2.533324e+00 -3.340173e+00 -3.632172e+00 2.513296e+00 1.649793e+00 5.509397e-02 -2.802794e+00 2.965209e+00 2.751939e+01 -2.107016e+00 -2.783916e+00 7.479801e-01 2.582069e+01 2.368865e+01 2.111063e+00 -2.258474e+00 2.754408e+01 2.781743e+01 3.406377e+00 4.083516e+00 2.940233e+00 2.861758e+01
<VARIANCE> 40
 4.999364e+00 4.694650e-01 2.893289e-01 4.454435e+00 6.231914e+00 3.855946e-01 9.900613e+00 7.754553e+00 4.304473e-01 3.689558e-01 5.299612e+00 3.184123e-01 2.465143e-01 3.386925e+00 2.766854e-01 4.391717e+00 1.036276e+01 4.008752e+00 5.739334e+00 4.258886e+00 4.438597e+00 6.442779e+00 4.526726e+00 4.729981e+00 6.006421e+00 6.188259e+00 3.296932e-01 4.519749e+00 6.313714e+00 4.953232e+00 2.749068e-01 3.683940e-01 4.879461e+00 4.277664e+00 2.776082e-01 2.836170e-01 4.937829e+00 5.346213e+00 4.226840e+00 2.715398e-01
<GCONST> 1.009525e+02
<MIXTURE> 7 3.997659e-02
<MEAN> 40
 2.835827e-01 2.025235e+01 2.185945e+01 -5.801204e+00 2.184256e-02 2.230470e+01 5.386149e-01 -7.015921e+00 2.235645e+01 2.167995e+01 -4.255795e+00 2.114751e+01 2.199112e+01 4.480542e+00 2.124706e+01 4.854363e-01 -1.053037e+01 -3.303215e+00 -2.998373e+00 -4.618019e+00 -4.687992e+00 3.849313e+00 2.836343e+00 1.487179e+00 -4.399719e+00 4.075130e+00 2.325774e+01 -3.120967e+00 -2.014983e+00 -2.605976e-01 2.168942e+01 1.983027e+01 4.045306e+00 -3.659488e+00 2.345182e+01 2.362944e+01 4.913307e+00 5.234613e+00 5.538738e+00 2.440720e+01
<VARIANCE> 40
 5.984013e+00 3.949308e-01 3.274503e-01 6.143535e+00 7.038742e+00 3.767190e-01 1.313306e+01 6.745927e+00 3.778734e-01 4.178727e-01 7.952656e+00 3.367571e-01 3.590518e-01 4.581676e+00 3.138465e-01 5.516040e+00 1.122266e+01 5.854850e+00 8.466113e+00 6.110205e+00 7.092053e+00 6.225462e+00 6.224599e+00 6.350494e+00 5.820585e+00 7.019227e+00 3.170763e-01 4.836783e+00 8.653734e+00 6.997167e+00 2.904269e-01 3.329310e-01 5.550651e+00 5.666103e+00 3.423286e-01 3.004298e-01 9.954556e+00 7.985878e+00 6.771233e+00 3.847045e-01
<GCONST> 1.087271e+02
<MIXTURE> 8 4.217448e-02
<MEAN> 40
 1.702929e-01 2.158906e+01 2.330289e+01 -5.331438e+00 9.629173e-01 2.384529e+01 1.923214e+00 -6.744991e+00 2.395802e+01 2.297298e+01 -3.579450e+00 2.271407e+01 2.348670e+01 4.562136e+00 2.261167e+01 9.832451e-01 -8.006495e+00 -3.066905e+00 -3.209818e+00 -5.077467e+00 -4.261008e+00 4.045552e+00 2.935656e+00 2.429321e+00 -4.234943e+00 5.093195e+00 2.472483e+01 -3.437084e+00 -9.021734e-01 2.642038e-01 2.311941e+01 2.098132e+01 4.125685e+00 -2.865148e+00 2.486094e+01 2.516264e+01 4.005419e+00 4.544195e+00 5.385923e+00 2.603139e+01
<VARIANCE> 40
 5.565583e+00 3.200983e-01 2.781642e-01 5.604822e+00 6.393213e+00 3.593733e-01 1.196472e+01 7.201114e+00 3.083046e-01 3.401334e-01 7.986113e+00 2.727397e-01 3.267044e-01 3.455539e+00 2.355974e-01 4.406560e+00 1.203790e+01 4.454634e+00 6.294477e+00 4.732408e+00 6.514318e+00 5.937513e+00 4.883511e+00 5.824893e+00 4.918248e+00 5.660107e+00 2.835742e-01 4.405807e+00 8.011776e+00 6.275831e+00 2.406239e-01 2.409447e-01 4.642953e+00 5.912256e+00 2.949540e-01 2.342078e-01 8.558952e+00 8.128573e+00 5.291798e+00 3.024250e-01
<GCONST> 1.028577e+02
<MIXTURE> 9 6.946940e-02
<MEAN> 40
 8.610069e-01 2.303642e+01 2.469120e+01 -2.219377e+00 -5.519234e-01 2.546090e+01 -1.373986e+00 -2.431950e+00 2.470427e+01 2.463194e+01 -1.574067e+00 2.387683e+01 2.472046e+01 2.244994e+00 2.362631e+01 8.156829e-01 -8.122310e+00 -1.457154e+00 -1.310756e+00 -1.743247e+00 -1.900249e+00 1.113460e+00 8.699882e-01 -8.200507e-01 -1.215421e+00 1.012801e+00 2.585915e+01 -1.168010e+00 -1.814712e+00 3.131427e-01 2.458761e+01 2.229160e+01 1.475185e+00 -7.371387e-01 2.596749e+01 2.624393e+01 2.374615e+00 2.905905e+00 1.558972e+00 2.742167e+01
<VARIANCE> 40
 3.453617e+00 3.822175e-01 2.641155e-01 3.345959e+00 4.122623e+00 3.211303e-01 4.382299e+00 5.841399e+00 3.241359e-01 3.342440e-01 4.149088e+00 2.968093e-01 2.481968e-01 2.853536e+00 2.718777e-01 4.088833e+00 1.179039e+01 3.355855e+00 4.223435e+00 4.298171e+00 3.419247e+00 3.997099e+00 4.584778e+00 3.258890e+00 3.180815e+00 4.770938e+00 3.120234e-01 3.495112e+00 3.397060e+00 3.699526e+00 2.492507e-01 3.005375e-01 3.812934e+00 3.909265e+00 2.755821e-01 2.560248e-01 5.243772e+00 3.020919e+00 3.499290e+00 3.090390e-01
<GCONST> 9.247211e+01
<MIXTURE> 10 6.199035e-02
<MEAN> 40
 8.448297e-01 1.928271e+01 2.049152e+01 -3.359352e+00 -1.069550e+00 2.105692e+01 -7.044694e-01 -3.383792e+00 2.027614e+01 2.049122e+01 -2.845031e+00 1.968121e+01 2.065182e+01 2.870730e+00 1.987814e+01 -4.636585e-01 -1.079009e+01 -2.827742e+00 -2.452832e+00 -2.564239e+00 -2.769311e+00 2.488064e+00 1.461140e+00 3.342522e-01 -3.308773e+00 5.886750e-01 2.148072e+01 -2.644616e+00 -2.256436e+00 2.597304e-01 2.030628e+01 1.865113e+01 2.595822e+00 -2.531884e+00 2.176823e+01 2.201608e+01 2.640757e+00 3.444330e+00 2.777177e+00 2.315187e+01
<VARIANCE> 40
 5.737207e+00 4.451869e-01 3.381277e-01 6.231702e+00 5.989820e+00 3.637756e-01 8.183837e+00 8.410157e+00 5.922894e-01 4.161595e-01 6.849800e+00 3.414218e-01 3.288216e-01 5.057033e+00 4.180199e-01 5.451829e+00 1.572602e+01 5.890176e+00 7.129363e+00 6.472463e+00 5.519465e+00 5.999328e+00 6.788020e+00 5.919803e+00 6.549005e+00 1.021623e+01 4.130213e-01 6.179994e+00 8.464655e+00 5.696296e+00 3.438632e-01 3.290665e-01 5.620858e+00 6.552312e+00 3.764026e-01 3.391660e-01 7.520195e+00 5.252627e+00 6.691449e+00 3.766291e-01
<GCONST> 1.095294e+02
<MIXTURE> 11 5.839642e-02
<MEAN> 40
 8.899912e-01 2.189366e+01 2.327814e+01 -1.540214e+00 -9.987226e-01 2.400149e+01 -7.382132e-01 -1.295266e+00 2.309904e+01 2.329961e+01 -1.371589e+00 2.248215e+01 2.334733e+01 1.751116e+00 2.221177e+01 1.909028e-01 -7.872226e+00 -1.438036e+00 -1.249202e+00 -1.580386e+00 -1.742117e+00 7.553544e-01 6.905166e-01 -5.813515e-01 -1.540558e+00 3.712749e-01 2.426012e+01 -1.390314e+00 -1.691481e+00 4.458938e-01 2.317094e+01 2.099849e+01 1.333697e+00 -6.059374e-01 2.445767e+01 2.478789e+01 1.573176e+00 2.373088e+00 1.081323e+00 2.610738e+01
<VARIANCE> 40
 3.182834e+00 3.707790e-01 2.408056e-01 2.883504e+00 3.299423e+00 3.006232e-01 3.748591e+00 4.237472e+00 3.249696e-01 2.881634e-01 3.468777e+00 3.105503e-01 2.707496e-01 3.154799e+00 3.045143e-01 4.165848e+00 1.406118e+01 3.070211e+00 3.376194e+00 3.981205e+00 3.015390e+00 3.420040e+00 4.194742e+00 3.014915e+00 3.352262e+00 4.925086e+00 2.901968e-01 3.409590e+00 3.912403e+00 3.320382e+00 2.668424e-01 2.644365e-01 3.567190e+00 3.585282e+00 2.525357e-01 2.665784e-01 3.999530e+00 2.437807e+00 3.394788e+00 2.935375e-01
<GCONST> 8.992427e+01
<MIXTURE> 12 5.377699e-02
<MEAN> 40
 -9.850373e-03 2.208137e+01 2.418257e+01 -4.715862e+00 1.636251e+00 2.448800e+01 2.210524e-01 -6.328773e+00 2.457673e+01 2.394915e+01 -2.555113e+00 2.326589e+01 2.407162e+01 4.102366e+00 2.322867e+01 1.252850e+00 -8.611373e+00 -2.389680e+00 -1.947145e+00 -3.197775e+00 -3.341676e+00 3.635189e+00 1.883590e+00 5.649970e-01 -2.493973e+00 3.754281e+00 2.562107e+01 -2.274039e+00 -1.060750e+00 -2.971262e-01 2.381702e+01 2.182379e+01 2.807055e+00 -2.981270e+00 2.570002e+01 2.575072e+01 4.299624e+00 3.775797e+00 3.768063e+00 2.665031e+01
<VARIANCE> 40
 4.696470e+00 3.682871e-01 2.688886e-01 5.548938e+00 5.239991e+00 3.816400e-01 1.176705e+01 7.587691e+00 2.899940e-01 4.057345e-01 5.641636e+00 2.956967e-01 2.563604e-01 3.633584e+00 2.172879e-01 4.375773e+00 1.157118e+01 4.512272e+00 7.309723e+00 6.140371e+00 5.724258e+00 5.795169e+00 4.884184e+00 5.541283e+00 4.860112e+00 6.639004e+00 2.449524e-01 4.407946e+00 5.657836e+00 6.613175e+00 2.490445e-01 2.639922e-01 4.777158e+00 5.372563e+00 2.394662e-01 2.274419e-01 6.481272e+00 6.047152e+00 5.316807e+00 2.603025e-01
<GCONST> 1.012371e+02
<MIXTURE> 13 6.294210e-02
<MEAN> 40
 9.308636e-01 2.040240e+01 2.111353e+01 -4.556849e+00 -2.151788e+00 2.199742e+01 -1.384356e+00 -4.660115e+00 2.087626e+01 2.138538e+01 -5.053246e+00 2.072116e+01 2.154872e+01 3.441747e+00 2.105368e+01 -1.397803e+00 -1.386217e+01 -4.950515e+00 -4.248215e+00 -2.891631e+00 -4.345008e+00 3.379332e+00 1.356039e+00 7.568194e-01 -6.254566e+00 -1.985204e-01 2.227884e+01 -4.063652e+00 -5.470696e+00 8.467979e-01 2.123757e+01 1.962103e+01 2.821482e+00 -4.470083e+00 2.268292e+01 2.311029e+01 4.141228e+00 4.598980e+00 3.883982e+00 2.399571e+01
<VARIANCE> 40
 7.081535e+00 4.261202e-01 3.345152e-01 6.024877e+00 6.236055e+00 3.283570e-01 1.014150e+01 7.488670e+00 5.503138e-01 3.810582e-01 7.080775e+00 3.095729e-01 2.827065e-01 4.860842e+00 3.086246e-01 5.591176e+00 1.266584e+01 5.812286e+00 6.765132e+00 4.702371e+00 6.591338e+00 6.662389e+00 8.098337e+00 5.038793e+00 6.584300e+00 8.574347e+00 2.735069e-01 5.569809e+00 9.026715e+00 5.544471e+00 3.427015e-01 3.554265e-01 6.050908e+00 6.188341e+00 3.205407e-01 3.340710e-01 7.936875e+00 6.618589e+00 6.386633e+00 3.606390e-01
<GCONST> 1.081496e+02
<MIXTURE> 14 5.857061e-02
<MEAN> 40
 8.716862e-01 2.099805e+01 2.211185e+01 -2.670137e+00 -1.674930e+00 2.289380e+01 -1.148719e+00 -2.535969e+00 2.181138e+01 2.216173e+01 -2.414499e+00 2.137814e+01 2.234198e+01 2.396878e+00 2.140678e+01 -6.130072e-01 -1.080868e+01 -2.615372e+00 -2.252522e+00 -2.279853e+00 -2.427505e+00 1.770007e+00 1.080133e+00 -3.032483e-01 -3.233178e+00 1.081821e-01 2.307559e+01 -2.266512e+00 -3.048549e+00 6.043913e-01 2.204746e+01 2.016498e+01 1.817437e+00 -2.253022e+00 2.341793e+01 2.380150e+01 2.349427e+00 2.853409e+00 1.871353e+00 2.502322e+01
<VARIANCE> 40
 5.554750e+00 3.818605e-01 2.719089e-01 4.276026e+00 4.776232e+00 3.140219e-01 5.508759e+00 6.607586e+00 4.439599e-01 3.425609e-01 5.106119e+00 2.872012e-01 2.513067e-01 4.149967e+00 3.354998e-01 5.691776e+00 1.253917e+01 4.276080e+00 5.361728e+00 4.901749e+00 4.567854e+00 5.091839e+00 6.172839e+00 4.247528e+00 4.980593e+00 6.693431e+00 3.027056e-01 4.438197e+00 6.257300e+00 4.437596e+00 3.028939e-01 3.057822e-01 4.385958e+00 5.082632e+00 2.718789e-01 3.056296e-01 5.795682e+00 4.106031e+00 4.845959e+00 3.411672e-01
<GCONST> 1.003054e+02
<MIXTURE> 15 4.911888e-02
<MEAN> 40
 1.224104e+00 2.181817e+01 2.249710e+01 -4.645461e+00 -2.184889e+00 2.358878e+01 -1.546128e+00 -4.522571e+00 2.225104e+01 2.276464e+01 -5.099381e+00 2.219757e+01 2.302542e+01 3.750175e+00 2.245410e+01 -6.674484e-01 -1.313552e+01 -4.897011e+00 -3.975636e+00 -2.905281e+00 -4.337165e+00 3.512096e+00 1.911884e+00 5.031305e-01 -6.658771e+00 1.955654e-02 2.382791e+01 -3.669783e+00 -6.386403e+00 1.044288e+00 2.270801e+01 2.104345e+01 2.266766e+00 -4.482603e+00 2.424019e+01 2.467257e+01 4.505996e+00 4.264692e+00 3.710160e+00 2.554660e+01
<VARIANCE> 40
 6.485430e+00 3.633428e-01 2.844844e-01 5.382504e+00 5.406610e+00 3.348071e-01 8.909053e+00 7.267425e+00 4.573724e-01 3.372602e-01 5.884558e+00 2.589017e-01 2.592846e-01 4.398758e+00 2.924283e-01 4.903758e+00 1.105458e+01 4.930060e+00 5.598309e+00 3.753423e+00 5.709291e+00 5.919004e+00 6.641761e+00 5.041901e+00 5.078768e+00 6.775173e+00 2.952833e-01 4.775073e+00 5.975458e+00 5.938234e+00 3.306995e-01 3.309085e-01 5.586316e+00 5.119002e+00 2.783965e-01 3.476390e-01 5.948701e+00 5.341588e+00 5.944586e+00 4.028346e-01
<GCONST> 1.032692e+02
<MIXTURE> 16 5.743617e-02
<MEAN> 40
 5.761818e-01 2.401389e+01 2.603775e+01 -1.566792e+00 1.376357e-01 2.686251e+01 -7.118041e-01 -1.429435e+00 2.609953e+01 2.609026e+01 -1.164010e+00 2.494447e+01 2.582781e+01 1.818339e+00 2.473435e+01 1.532735e+00 -4.746684e+00 -7.432504e-01 -8.016199e-01 -6.627891e-01 -1.472688e+00 5.839473e-01 3.044017e-01 -1.432677e+00 -1.657161e-01 9.161508e-01 2.744677e+01 1.004906e-01 -1.304844e+00 4.310769e-01 2.600039e+01 2.349157e+01 7.849809e-01 1.724901e-01 2.736447e+01 2.740011e+01 2.375744e+00 2.287278e+00 9.420775e-01 2.861769e+01
<VARIANCE> 40
 2.492748e+00 3.131972e-01 2.001409e-01 2.678331e+00 2.762612e+00 2.631248e-01 3.437386e+00 3.973215e+00 2.581480e-01 3.218478e-01 2.472143e+00 2.715814e-01 2.184775e-01 2.262693e+00 2.292553e-01 3.345723e+00 1.227886e+01 2.306704e+00 2.438550e+00 2.928278e+00 2.642411e+00 2.854957e+00 2.999725e+00 1.909105e+00 2.272910e+00 3.025423e+00 2.355126e-01 2.581881e+00 2.213893e+00 2.486560e+00 2.521268e-01 2.388549e-01 2.415293e+00 3.232559e+00 2.137235e-01 2.192930e-01 3.303045e+00 2.751832e+00 2.540920e+00 2.356744e-01
<GCONST> 8.117429e+01
<MIXTURE> 17 4.999258e-02
<MEAN> 40
 4.745452e-01 1.859208e+01 1.932249e+01 -5.034882e+00 -2.228889e+00 1.996474e+01 -1.121125e+00 -5.523917e+00 1.905231e+01 1.972068e+01 -6.029599e+00 1.882892e+01 1.965127e+01 3.517165e+00 1.932573e+01 -1.982947e+00 -1.488694e+01 -5.478370e+00 -4.791502e+00 -2.855003e+00 -5.009345e+00 3.699193e+00 8.510377e-01 1.212744e+00 -6.540700e+00 -3.331384e-01 2.043951e+01 -4.805066e+00 -5.167389e+00 6.722777e-01 1.936528e+01 1.796450e+01 3.745651e+00 -5.287735e+00 2.078124e+01 2.115641e+01 4.184424e+00 5.581234e+00 4.710922e+00 2.191929e+01
<VARIANCE> 40
 9.581078e+00 5.577744e-01 4.503019e-01 7.510936e+00 7.271415e+00 4.489042e-01 1.355659e+01 9.005055e+00 7.152820e-01 5.248735e-01 7.774543e+00 4.540977e-01 4.209681e-01 5.923171e+00 4.353910e-01 6.416465e+00 1.621149e+01 7.638369e+00 7.945849e+00 5.996325e+00 7.681075e+00 7.351687e+00 1.190422e+01 6.312688e+00 8.615533e+00 1.240771e+01 4.251994e-01 7.325459e+00 1.053212e+01 7.614263e+00 3.930029e-01 4.085640e-01 6.131920e+00 7.007539e+00 4.582809e-01 4.258358e-01 1.016970e+01 8.105466e+00 8.022912e+00 4.961581e-01
<GCONST> 1.179392e+02
<MIXTURE> 18 5.312698e-02
<MEAN> 40
 1.054708e+00 2.209878e+01 2.343210e+01 -4.327067e+00 -9.693299e-01 2.431497e+01 -2.211385e+00 -4.918769e+00 2.362759e+01 2.337888e+01 -3.021259e+00 2.280907e+01 2.373581e+01 3.431031e+00 2.281387e+01 1.222678e-01 -1.062483e+01 -2.405256e+00 -2.741617e+00 -3.198332e+00 -3.329951e+00 2.391197e+00 1.911479e+00 -2.666286e-01 -3.224182e+00 1.758893e+00 2.478014e+01 -2.416256e+00 -3.635588e+00 7.206399e-01 2.337310e+01 2.153773e+01 2.120681e+00 -2.609379e+00 2.501289e+01 2.525046e+01 3.454711e+00 3.751487e+00 2.938204e+00 2.617725e+01
<VARIANCE> 40
 5.126583e+00 3.406963e-01 2.415808e-01 4.505017e+00 5.932673e+00 2.807304e-01 6.425931e+00 6.694867e+00 4.359011e-01 3.371239e-01 5.982122e+00 2.714218e-01 2.240482e-01 3.632378e+00 2.883454e-01 5.061023e+00 1.005747e+01 4.470726e+00 6.296003e+00 4.753073e+00 4.888968e+00 5.245693e+00 5.579780e+00 4.319456e+00 4.834269e+00 6.107570e+00 2.550339e-01 3.858987e+00 5.984488e+00 5.396513e+00 2.612483e-01 2.895952e-01 4.929046e+00 4.769134e+00 2.362671e-01 2.533425e-01 5.326433e+00 4.726860e+00 4.344675e+00 3.131225e-01
<GCONST> 9.893734e+01
<MIXTURE> 19 4.388193e-02
<MEAN> 40
 1.170505e+00 2.305458e+01 2.389899e+01 -4.514452e+00 -1.851945e+00 2.516971e+01 -1.737485e+00 -4.324032e+00 2.391202e+01 2.404606e+01 -4.334618e+00 2.361975e+01 2.444419e+01 3.590428e+00 2.363103e+01 5.111935e-02 -1.143249e+01 -3.891903e+00 -3.542111e+00 -3.280352e+00 -3.914252e+00 2.517208e+00 2.150098e+00 4.615849e-01 -5.602483e+00 9.336594e-01 2.534661e+01 -3.320940e+00 -5.575523e+00 8.665489e-01 2.420716e+01 2.217408e+01 1.977048e+00 -3.291935e+00 2.568472e+01 2.612144e+01 3.484509e+00 3.968927e+00 3.277470e+00 2.700716e+01
<VARIANCE> 40
 5.900061e+00 3.160882e-01 2.443600e-01 4.526084e+00 4.981159e+00 2.884883e-01 7.699758e+00 7.224446e+00 5.145504e-01 2.966288e-01 5.645390e+00 2.319919e-01 2.130996e-01 3.856951e+00 2.987815e-01 4.459338e+00 9.950089e+00 4.540498e+00 5.240742e+00 3.886906e+00 4.527159e+00 5.606291e+00 6.602384e+00 4.369848e+00 5.032174e+00 6.907657e+00 2.572314e-01 4.523046e+00 5.895424e+00 5.122533e+00 2.346936e-01 3.265060e-01 4.972894e+00 4.437177e+00 2.402846e-01 2.876696e-01 5.297652e+00 5.353499e+00 5.406427e+00 3.028460e-01
<GCONST> 9.932117e+01
<MIXTURE> 20 5.238733e-02
<MEAN> 40
 9.423734e-01 2.352850e+01 2.507648e+01 -4.183146e+00 -1.925055e-01 2.598051e+01 -2.247130e+00 -5.092888e+00 2.535382e+01 2.500488e+01 -3.125144e+00 2.439099e+01 2.524272e+01 3.849288e+00 2.427381e+01 8.639432e-01 -9.722406e+00 -2.427079e+00 -2.546341e+00 -3.013991e+00 -3.766917e+00 2.087528e+00 1.714676e+00 -3.106689e-01 -2.855010e+00 2.472213e+00 2.659609e+01 -1.851549e+00 -3.527184e+00 6.187374e-01 2.502523e+01 2.299554e+01 1.917317e+00 -2.538721e+00 2.670050e+01 2.689989e+01 3.630117e+00 4.369996e+00 2.972731e+00 2.772237e+01
<VARIANCE> 40
 4.748879e+00 3.562909e-01 2.762192e-01 4.727320e+00 5.595820e+00 2.910011e-01 7.229121e+00 7.329945e+00 4.171368e-01 2.947881e-01 5.646024e+00 2.726809e-01 2.082027e-01 3.494537e+00 2.756224e-01 4.070428e+00 1.026047e+01 4.352390e+00 6.588255e+00 4.590195e+00 5.610299e+00 5.159159e+00 5.691892e+00 4.094311e+00 6.226311e+00 6.191362e+00 2.525946e-01 4.327014e+00 6.328158e+00 5.389109e+00 2.356799e-01 2.782013e-01 4.494397e+00 4.322053e+00 2.177698e-01 2.329648e-01 5.427468e+00 5.512112e+00 4.499605e+00 2.980908e-01
<GCONST> 9.884332e+01
<STATE> 4
<NUMMIXES> 20
<MIXTURE> 1 4.968995e-02
<MEAN> 40
 1.446243e+00 2.487053e+01 2.669431e+01 -8.314446e-01 -1.158624e+00 2.765282e+01 -7.079367e-02 -6.523314e-01 2.668553e+01 2.673267e+01 -1.748026e+00 2.574259e+01 2.638645e+01 8.461413e-01 2.517395e+01 3.629682e-01 -5.829429e+00 -8.295274e-01 -7.750283e-01 -1.138945e+00 -1.977597e+00 -9.968315e-01 2.190024e-01 -2.053557e+00 1.182371e+00 1.527699e+00 2.797209e+01 8.648360e-01 -9.559202e-01 -6.942942e-02 2.671465e+01 2.398900e+01 5.879304e-01 9.941524e-01 2.787277e+01 2.809952e+01 2.299429e+00 3.118739e+00 7.612767e-01 2.926555e+01
<VARIANCE> 40
 2.986066e+00 3.443283e-01 2.304044e-01 3.270713e+00 3.161149e+00 3.193112e-01 3.845665e+00 3.403999e+00 3.128018e-01 3.174741e-01 3.156403e+00 3.061553e-01 2.452062e-01 3.026973e+00 2.843781e-01 4.325239e+00 1.270518e+01 2.811193e+00 2.733732e+00 3.982002e+00 3.624322e+00 2.848926e+00 3.408576e+00 2.323941e+00 2.647670e+00 3.429764e+00 2.952943e-01 3.999396e+00 2.888030e+00 3.037647e+00 2.624452e-01 3.098422e-01 2.685846e+00 3.042221e+00 2.744618e-01 2.532218e-01 4.458243e+00 4.724483e+00 2.824389e+00 2.458049e-01
<GCONST> 8.792511e+01
<MIXTURE> 2 3.765665e-02
<MEAN> 40
 1.211209e+00 2.079808e+01 2.255653e+01 -1.314984e+00 -8.334796e-01 2.297292e+01 -8.197848e-01 -1.396448e+00 2.221128e+01 2.252042e+01 -1.897890e+00 2.137853e+01 2.217281e+01 1.039784e+00 2.132349e+01 6.070709e-01 -6.944925e+00 -9.697694e-01 -7.898863e-01 -7.398265e-01 -1.455185e+00 -2.704468e-01 7.632189e-01 -1.838160e+00 1.731839e-01 5.786129e-01 2.361056e+01 -4.425381e-02 -1.418815e+00 -3.125636e-01 2.239204e+01 2.037179e+01 1.157070e+00 -3.815164e-01 2.375960e+01 2.363774e+01 2.907963e+00 2.906279e+00 9.661321e-01 2.485848e+01
<VARIANCE> 40
 2.665025e+00 3.785655e-01 2.754372e-01 3.540685e+00 3.324661e+00 2.982181e-01 3.859740e+00 4.464710e+00 3.101807e-01 3.535985e-01 3.369777e+00 3.090760e-01 2.420836e-01 3.262434e+00 2.703475e-01 3.976803e+00 1.848989e+01 2.952039e+00 3.178596e+00 4.048842e+00 3.923038e+00 3.166101e+00 3.607811e+00 2.631109e+00 2.492078e+00 4.234433e+00 3.249469e-01 3.060751e+00 2.944387e+00 3.373626e+00 2.771348e-01 2.832964e-01 3.244188e+00 4.514326e+00 3.068009e-01 2.427095e-01 5.805972e+00 3.469471e+00 3.489369e+00 2.509694e-01
<GCONST> 9.038765e+01
<MIXTURE> 3 5.072553e-02
<MEAN> 40
 3.453625e+00 2.366929e+01 2.453554e+01 -4.616581e+00 -2.478733e+00 2.537337e+01 -3.107253e+00 -3.670012e+00 2.450080e+01 2.456588e+01 -5.212174e+00 2.377872e+01 2.438677e+01 2.202464e+00 2.360751e+01 -1.239294e+00 -1.214934e+01 -2.426094e+00 -2.778530e+00 -4.464889e+00 -5.393958e+00 -9.760215e-01 2.526870e+00 -2.737483e+00 -1.949372e-01 3.065102e+00 2.607122e+01 -6.838446e-01 -4.092469e+00 8.092458e-01 2.463366e+01 2.281167e+01 8.875758e-01 -2.311204e+00 2.621207e+01 2.617642e+01 5.336898e+00 6.890752e+00 2.245519e+00 2.689368e+01
<VARIANCE> 40
 4.983324e+00 3.173074e-01 2.367270e-01 5.113375e+00 5.559960e+00 2.892564e-01 6.170223e+00 7.541670e+00 3.918709e-01 2.348365e-01 6.151537e+00 2.484863e-01 2.260599e-01 5.739043e+00 2.725928e-01 5.839291e+00 1.030223e+01 4.407337e+00 6.245853e+00 5.293703e+00 5.992883e+00 4.575133e+00 6.439682e+00 4.410825e+00 5.528347e+00 6.072783e+00 2.421669e-01 5.006073e+00 5.705264e+00 4.776743e+00 2.219939e-01 2.997896e-01 4.905844e+00 4.983757e+00 2.605184e-01 2.213435e-01 5.672246e+00 6.118928e+00 4.718989e+00 2.468047e-01
<GCONST> 9.955978e+01
<MIXTURE> 4 4.518644e-02
<MEAN> 40
 2.104718e+00 1.822639e+01 1.929641e+01 -2.548379e+00 -2.525908e+00 1.978831e+01 -1.867779e+00 -2.566955e+00 1.875822e+01 1.935158e+01 -3.376205e+00 1.841698e+01 1.929108e+01 1.964958e+00 1.852611e+01 -1.072393e+00 -1.136394e+01 -2.574895e+00 -2.192824e+00 -2.974257e+00 -2.928592e+00 5.851349e-01 2.000725e+00 -1.246070e+00 -1.510388e+00 5.823960e-01 2.010919e+01 -1.655986e+00 -2.907980e+00 -5.953799e-02 1.907370e+01 1.767463e+01 2.210700e+00 -2.065702e+00 2.049801e+01 2.059554e+01 2.755160e+00 4.491618e+00 1.870080e+00 2.162912e+01
<VARIANCE> 40
 5.880705e+00 5.121672e-01 3.595775e-01 6.186944e+00 6.827884e+00 3.787751e-01 6.561279e+00 8.329312e+00 5.246368e-01 4.354115e-01 8.513559e+00 3.834472e-01 3.671915e-01 5.772616e+00 4.164416e-01 7.075667e+00 1.781693e+01 5.641147e+00 6.802468e+00 5.784908e+00 6.796268e+00 6.244159e+00 6.361301e+00 5.814656e+00 5.036179e+00 8.140450e+00 3.739512e-01 6.250242e+00 7.258211e+00 6.014492e+00 3.758040e-01 3.727503e-01 5.352502e+00 6.641489e+00 3.980335e-01 3.348698e-01 8.062302e+00 7.017394e+00 5.976814e+00 4.595149e-01
<GCONST> 1.105232e+02
<MIXTURE> 5 4.566822e-02
<MEAN> 40
 1.688902e+00 2.180478e+01 2.353399e+01 -2.350524e+00 -9.580324e-01 2.393601e+01 -1.986329e+00 -2.965684e+00 2.326823e+01 2.338583e+01 -3.192859e+00 2.237874e+01 2.309475e+01 1.483786e+00 2.241725e+01 4.570614e-01 -1.040803e+01 -1.653763e+00 -1.119463e+00 -1.589454e+00 -2.756688e+00 -2.136211e-01 9.075765e-01 -2.512862e+00 5.331721e-01 9.516494e-01 2.469451e+01 2.702266e-01 -2.166833e+00 -3.909971e-01 2.334870e+01 2.140166e+01 1.488883e+00 -1.352516e+00 2.483751e+01 2.467719e+01 4.941283e+00 5.094796e+00 1.989067e+00 2.565838e+01
<VARIANCE> 40
 3.957075e+00 4.031208e-01 2.568464e-01 4.181201e+00 4.112270e+00 3.273882e-01 5.387064e+00 6.705944e+00 3.291761e-01 3.301135e-01 4.211700e+00 2.875856e-01 2.318773e-01 4.482317e+00 2.681488e-01 5.351369e+00 1.529980e+01 4.531936e+00 5.163966e+00 4.877262e+00 7.001432e+00 4.450484e+00 5.391304e+00 3.369740e+00 3.442860e+00 6.078840e+00 2.865413e-01 3.722999e+00 3.633168e+00 5.276160e+00 2.947182e-01 2.895848e-01 4.979978e+00 4.824344e+00 2.697996e-01 2.401564e-01 6.199182e+00 5.749441e+00 5.089557e+00 2.598090e-01
<GCONST> 9.800716e+01
<MIXTURE> 6 4.712328e-02
<MEAN> 40
 9.143399e-01 2.362744e+01 2.556502e+01 -8.365403e-01 -5.077547e-01 2.631329e+01 -2.496382e-01 -5.614394e-01 2.545443e+01 2.560318e+01 -1.330840e+00 2.449201e+01 2.524029e+01 1.051247e+00 2.416740e+01 1.032484e+00 -4.553409e+00 -5.945862e-01 -8.220347e-01 -5.355980e-01 -1.383445e+00 -4.651748e-01 2.155924e-01 -1.743122e+00 4.796548e-01 7.477131e-01 2.682636e+01 4.411752e-01 -9.947430e-01 1.528743e-01 2.557851e+01 2.298412e+01 7.541448e-01 8.260615e-01 2.680014e+01 2.679872e+01 2.086540e+00 2.172651e+00 5.308549e-01 2.809356e+01
<VARIANCE> 40
 2.322726e+00 2.843916e-01 1.764743e-01 2.219284e+00 2.345158e+00 2.254442e-01 2.751861e+00 2.691297e+00 2.310929e-01 2.549111e-01 2.379518e+00 2.780023e-01 2.089789e-01 2.076716e+00 2.161551e-01 3.430985e+00 1.139757e+01 2.199282e+00 2.166718e+00 2.799552e+00 2.443890e+00 2.265211e+00 2.811397e+00 1.858109e+00 2.104702e+00 2.454295e+00 2.267113e-01 2.933979e+00 2.216831e+00 2.188136e+00 2.105727e-01 2.095932e-01 2.196277e+00 2.676988e+00 1.931964e-01 2.061524e-01 3.104352e+00 2.688165e+00 2.295649e+00 2.029861e-01
<GCONST> 7.713731e+01
<MIXTURE> 7 5.402265e-02
<MEAN> 40
 3.356122e+00 2.047054e+01 2.105477e+01 -6.459108e+00 -3.597902e+00 2.161030e+01 -4.329847e+00 -6.085269e+00 2.095473e+01 2.122678e+01 -7.280603e+00 2.039098e+01 2.111756e+01 3.766050e+00 2.071355e+01 -1.695562e+00 -1.514102e+01 -3.749025e+00 -3.959885e+00 -5.525060e+00 -6.928404e+00 9.070686e-02 4.362102e+00 -1.665547e+00 -2.971858e+00 3.308473e+00 2.255929e+01 -2.484361e+00 -6.283505e+00 2.919888e-01 2.114080e+01 1.977737e+01 2.909903e+00 -4.099826e+00 2.299734e+01 2.287074e+01 6.596965e+00 8.639083e+00 4.341246e+00 2.339165e+01
<VARIANCE> 40
 6.684192e+00 4.207658e-01 2.821457e-01 6.433625e+00 7.403575e+00 3.187757e-01 7.494826e+00 1.034818e+01 6.128848e-01 2.958559e-01 7.884163e+00 3.107451e-01 2.842655e-01 5.892047e+00 2.779087e-01 6.428642e+00 1.266138e+01 6.444755e+00 1.019802e+01 5.835618e+00 7.690954e+00 7.096203e+00 6.918528e+00 6.318933e+00 6.004936e+00 8.631800e+00 2.882808e-01 4.829386e+00 6.749431e+00 7.982872e+00 2.550350e-01 3.543088e-01 6.610533e+00 5.637536e+00 2.704883e-01 2.482029e-01 9.633421e+00 8.025847e+00 7.855913e+00 3.263215e-01
<GCONST> 1.089732e+02
<MIXTURE> 8 4.795387e-02
<MEAN> 40
 2.317657e+00 2.163399e+01 2.258060e+01 -6.167252e+00 -2.123295e+00 2.321699e+01 -3.892295e+00 -6.835665e+00 2.278750e+01 2.264308e+01 -6.680447e+00 2.193943e+01 2.260965e+01 4.461846e+00 2.205749e+01 -4.873306e-01 -1.371515e+01 -3.245497e+00 -3.412150e+00 -4.766783e+00 -6.809935e+00 6.675256e-01 3.642561e+00 -1.201442e+00 -2.886077e+00 4.016641e+00 2.417058e+01 -1.939226e+00 -5.646950e+00 1.123121e-01 2.257240e+01 2.103986e+01 2.972798e+00 -3.991409e+00 2.453445e+01 2.441763e+01 6.740891e+00 8.327455e+00 4.874614e+00 2.492101e+01
<VARIANCE> 40
 6.535249e+00 3.255301e-01 2.961290e-01 5.890974e+00 6.455652e+00 2.819584e-01 8.584222e+00 8.058018e+00 4.446359e-01 2.589372e-01 7.219244e+00 2.661050e-01 2.347955e-01 4.355470e+00 2.461403e-01 6.096849e+00 9.548768e+00 5.000328e+00 1.024775e+01 5.110864e+00 7.406621e+00 6.483373e+00 7.014529e+00 5.056658e+00 5.888973e+00 7.405584e+00 2.388506e-01 4.370967e+00 6.112196e+00 7.361947e+00 2.014273e-01 2.985383e-01 6.089746e+00 4.563268e+00 2.582825e-01 1.936654e-01 7.418312e+00 7.052127e+00 7.717125e+00 2.796882e-01
<GCONST> 1.037160e+02
<MIXTURE> 9 4.277318e-02
<MEAN> 40
 9.451007e-01 2.253838e+01 2.444924e+01 -6.366521e-01 -6.219745e-01 2.505332e+01 -1.401572e-01 -5.992624e-01 2.419860e+01 2.444219e+01 -1.512167e+00 2.323659e+01 2.398350e+01 7.617141e-01 2.309166e+01 8.200776e-01 -4.565054e+00 -7.527896e-01 -6.805248e-01 -1.738721e-01 -1.393197e+00 -8.103313e-01 2.612548e-01 -1.861710e+00 6.338624e-01 7.644047e-01 2.563694e+01 7.801684e-01 -9.535270e-01 -6.726602e-02 2.443962e+01 2.197169e+01 8.211313e-01 8.783914e-01 2.566375e+01 2.553696e+01 2.393535e+00 2.356493e+00 6.137528e-01 2.683664e+01
<VARIANCE> 40
 1.914731e+00 2.597524e-01 1.840424e-01 2.273562e+00 2.374468e+00 2.461551e-01 2.987269e+00 3.081364e+00 2.310484e-01 2.547154e-01 2.561145e+00 2.483739e-01 2.005102e-01 2.420579e+00 2.390574e-01 3.216620e+00 1.195252e+01 2.327416e+00 2.394534e+00 2.900532e+00 2.966668e+00 2.553458e+00 3.118168e+00 1.822119e+00 2.347707e+00 2.972218e+00 2.307001e-01 2.614653e+00 2.220836e+00 2.579972e+00 2.133203e-01 2.068060e-01 2.402074e+00 2.502304e+00 2.182900e-01 2.112665e-01 3.463288e+00 3.084648e+00 2.602170e+00 2.025112e-01
<GCONST> 7.889031e+01
<MIXTURE> 10 4.451020e-02
<MEAN> 40
 2.784456e+00 2.292950e+01 2.383903e+01 -5.510937e+00 -1.947395e+00 2.457240e+01 -3.972291e+00 -5.635317e+00 2.396720e+01 2.390470e+01 -5.913825e+00 2.311834e+01 2.381858e+01 3.822685e+00 2.313108e+01 -7.504197e-01 -1.282362e+01 -2.764108e+00 -3.489826e+00 -4.713214e+00 -6.507472e+00 7.336643e-02 3.026068e+00 -1.701435e+00 -1.784568e+00 3.735573e+00 2.546119e+01 -1.542515e+00 -5.182790e+00 8.467430e-01 2.385844e+01 2.222738e+01 1.749497e+00 -3.535009e+00 2.566051e+01 2.557910e+01 5.962356e+00 7.647583e+00 3.530594e+00 2.615468e+01
<VARIANCE> 40
 5.931636e+00 3.209586e-01 2.394941e-01 4.961436e+00 5.683991e+00 2.810222e-01 6.441520e+00 8.589950e+00 3.690743e-01 2.385498e-01 6.581203e+00 2.238861e-01 1.960009e-01 5.308871e+00 2.364251e-01 6.235087e+00 1.029587e+01 4.608897e+00 7.747033e+00 4.854104e+00 6.352272e+00 5.642331e+00 6.858369e+00 4.894132e+00 6.619160e+00 6.853470e+00 2.212074e-01 4.285641e+00 5.812123e+00 6.270381e+00 1.942740e-01 3.157341e-01 5.743093e+00 4.784196e+00 2.301754e-01 1.972981e-01 5.843730e+00 5.928681e+00 6.295219e+00 2.700140e-01
<GCONST> 1.006409e+02
<MIXTURE> 11 6.039736e-02
<MEAN> 40
 2.027368e+00 2.047540e+01 2.178076e+01 -2.263882e+00 -2.195208e+00 2.229104e+01 -1.595701e+00 -2.064232e+00 2.142618e+01 2.172765e+01 -2.864706e+00 2.083898e+01 2.161123e+01 1.179397e+00 2.078330e+01 -6.287721e-01 -1.041123e+01 -1.896124e+00 -1.550336e+00 -2.491630e+00 -2.374013e+00 -2.398614e-01 1.660726e+00 -1.999084e+00 -4.054244e-01 7.768353e-01 2.272498e+01 -9.610028e-01 -2.350458e+00 -1.331086e-01 2.166053e+01 1.982254e+01 1.583623e+00 -1.394302e+00 2.298157e+01 2.308459e+01 3.174692e+00 4.068695e+00 1.432757e+00 2.417771e+01
<VARIANCE> 40
 4.638828e+00 4.608070e-01 2.859471e-01 5.008970e+00 5.265553e+00 3.129703e-01 5.601440e+00 6.679484e+00 3.910485e-01 3.489925e-01 5.623319e+00 2.750097e-01 2.666633e-01 4.960645e+00 3.208842e-01 5.872216e+00 1.570978e+01 4.247003e+00 5.260160e+00 6.166002e+00 6.104849e+00 4.538263e+00 5.864753e+00 4.308074e+00 3.842016e+00 7.560766e+00 2.861042e-01 4.803897e+00 4.723148e+00 5.147235e+00 2.848196e-01 2.892704e-01 4.942345e+00 4.947906e+00 2.789328e-01 2.562419e-01 7.792852e+00 4.917838e+00 4.901927e+00 2.843716e-01
<GCONST> 1.012624e+02
<MIXTURE> 12 5.650187e-02
<MEAN> 40
 2.828101e+00 1.943336e+01 2.009689e+01 -5.487445e+00 -3.929882e+00 2.064491e+01 -3.642570e+00 -5.298786e+00 1.976118e+01 2.031206e+01 -6.813557e+00 1.939818e+01 2.012399e+01 3.311167e+00 1.979054e+01 -1.885917e+00 -1.518644e+01 -4.145189e+00 -3.825679e+00 -4.739709e+00 -5.972974e+00 4.072989e-01 3.541948e+00 -1.225030e+00 -3.269125e+00 1.936318e+00 2.133934e+01 -2.782515e+00 -5.779821e+00 -4.667306e-02 2.013686e+01 1.875907e+01 3.098109e+00 -4.082384e+00 2.181070e+01 2.180471e+01 5.580469e+00 7.802056e+00 4.273721e+00 2.240010e+01
<VARIANCE> 40
 7.086807e+00 5.368292e-01 3.419066e-01 7.461190e+00 7.469618e+00 3.875649e-01 7.743228e+00 1.018916e+01 6.578456e-01 3.923737e-01 8.273998e+00 3.771339e-01 3.450815e-01 5.968632e+00 3.529018e-01 7.380289e+00 1.362577e+01 7.008087e+00 9.543799e+00 6.183293e+00 8.576953e+00 7.395179e+00 8.675678e+00 7.114173e+00 7.119537e+00 9.302386e+00 3.505841e-01 6.236669e+00 7.869741e+00 6.973986e+00 3.030328e-01 3.545131e-01 6.963415e+00 6.654004e+00 3.527222e-01 3.200114e-01 1.177018e+01 8.226156e+00 8.424864e+00 3.758112e-01
<GCONST> 1.137211e+02
<MIXTURE> 13 6.935265e-02
<MEAN> 40
 3.080621e+00 2.126467e+01 2.188675e+01 -5.671310e+00 -3.521794e+00 2.257976e+01 -4.228764e+00 -4.870305e+00 2.170223e+01 2.207683e+01 -6.284413e+00 2.123150e+01 2.196954e+01 3.264776e+00 2.144959e+01 -1.562930e+00 -1.408679e+01 -3.545996e+00 -3.782172e+00 -4.954719e+00 -5.968614e+00 1.154717e-01 3.692072e+00 -1.661336e+00 -2.713289e+00 2.519279e+00 2.329044e+01 -2.444172e+00 -5.899321e+00 6.700733e-01 2.198771e+01 2.048401e+01 2.369497e+00 -3.767091e+00 2.372262e+01 2.371423e+01 5.619203e+00 7.350073e+00 3.572231e+00 2.431451e+01
<VARIANCE> 40
