~o
<STREAMINFO> 1 39
<VECSIZE> 39<NULLD><MFCC_E_D_A><DIAGC>
~s "silst"
<NUMMIXES> 36
<MIXTURE> 1 3.278004e-02
<MEAN> 39
 2.796370e+00 4.831241e+00 -7.918552e-01 4.929935e+00 4.509562e+00 6.927302e+00 6.833237e+00 3.866810e+00 2.922088e+00 3.302919e+00 2.632550e+00 2.251815e+00 2.412628e+01 -5.163038e-02 2.901568e-01 6.393837e-01 6.894447e-01 5.917291e-01 8.753713e-01 6.025452e-01 7.683926e-01 7.981156e-01 8.989114e-01 6.502450e-01 3.601250e-01 4.359623e-01 -1.837660e-01 -1.545598e-01 9.513934e-02 -1.530327e-01 -2.491332e-01 -7.581121e-02 -2.572085e-01 -4.366074e-02 1.799866e-01 1.520410e-01 -4.979819e-02 -1.696542e-01 -5.312848e-02
<VARIANCE> 39
 5.796823e+00 2.614795e+00 3.555664e+00 6.869402e+00 7.785647e+00 8.416816e+00 6.836996e+00 7.564453e+00 7.625200e+00 8.129012e+00 6.705349e+00 6.155806e+00 6.623547e-01 3.833151e-01 4.295833e-01 6.191723e-01 8.421183e-01 8.078519e-01 9.444064e-01 1.363729e+00 1.004705e+00 1.173584e+00 1.275059e+00 1.035579e+00 8.520988e-01 5.846175e-02 3.422613e-02 5.449241e-02 1.284816e-01 1.180198e-01 1.655467e-01 1.728579e-01 1.826825e-01 2.404987e-01 1.823314e-01 2.233624e-01 1.495842e-01 1.283062e-01 8.427288e-03
<GCONST> 5.910020e+01
<MIXTURE> 2 2.226824e-02
<MEAN> 39
 1.366518e+00 2.707642e+00 -2.274339e+00 3.608935e+00 2.798467e+00 3.085188e+00 2.709624e+00 7.575279e-01 9.438854e-01 8.205228e-01 -2.314050e-02 1.311505e-01 2.221297e+01 3.939682e-01 4.966110e-01 1.568929e-01 5.783368e-01 6.875769e-01 4.295654e-01 6.730493e-01 8.292707e-01 2.895865e-01 1.341149e-01 3.242067e-01 2.353051e-01 2.781282e-01 8.980019e-03 1.947363e-01 3.539917e-01 2.095490e-01 1.409448e-01 4.456558e-01 3.336407e-01 4.031920e-01 4.739189e-01 4.765565e-01 3.342101e-01 1.695790e-01 2.345652e-01
<VARIANCE> 39
 4.221298e+00 2.598345e+00 4.599638e+00 6.107853e+00 5.990196e+00 9.413619e+00 9.623980e+00 7.720439e+00 6.825613e+00 6.090086e+00 6.706724e+00 7.044923e+00 8.116697e-01 1.869802e-01 2.483390e-01 5.683923e-01 5.174798e-01 7.171233e-01 9.712937e-01 7.638894e-01 1.012318e+00 1.058557e+00 1.293201e+00 9.840918e-01 8.357050e-01 7.355443e-02 5.521205e-02 6.268381e-02 1.190969e-01 1.057631e-01 1.120809e-01 2.142829e-01 2.093295e-01 1.915025e-01 1.836064e-01 1.789788e-01 1.741327e-01 1.980912e-01 9.991724e-03
<GCONST> 5.734422e+01
<MIXTURE> 3 1.361810e-02
<MEAN> 39
 -1.150222e+00 3.388016e+00 2.956082e+00 9.859326e+00 4.891375e+00 8.598303e+00 8.274343e+00 3.438990e+00 3.392868e+00 5.532588e+00 -4.946775e-01 2.973400e-02 2.440643e+01 2.890186e-02 4.622790e-03 6.741976e-01 5.038713e-01 4.660890e-01 4.188039e-01 2.725880e-01 5.127832e-01 6.331558e-01 5.122406e-01 1.393799e-01 -2.676006e-01 2.486328e-01 3.367546e-01 1.338087e-01 -3.097607e-01 -5.583655e-01 9.568081e-03 -1.464989e-01 -2.435019e-01 1.704036e-01 2.151372e-01 -9.451659e-02 4.433306e-01 3.105830e-01 -1.195298e-02
<VARIANCE> 39
 3.172975e+00 3.744093e+00 4.550451e+00 3.414043e+00 8.575237e+00 5.283996e+00 8.875842e+00 8.943151e+00 1.071745e+01 1.239940e+01 1.337517e+01 6.540719e+00 5.472841e-01 3.103685e-01 3.917656e-01 5.078725e-01 6.968742e-01 8.652036e-01 1.053457e+00 6.827031e-01 1.140286e+00 1.047996e+00 1.029919e+00 1.410026e+00 9.523516e-01 2.452702e-02 6.708734e-02 8.066104e-02 1.168889e-01 7.823623e-02 1.765395e-01 1.448779e-01 1.548796e-01 1.639674e-01 2.465488e-01 3.156925e-01 2.564424e-01 1.099308e-01 6.280332e-03
<GCONST> 5.857008e+01
<MIXTURE> 4 1.873790e-02
<MEAN> 39
 -1.706454e-01 3.156363e+00 2.046825e+00 3.306605e+00 3.297969e-01 7.333116e+00 3.507487e+00 1.719720e+00 5.157424e+00 2.128476e+00 7.518612e-01 1.959730e+00 2.358409e+01 1.193606e+00 7.639729e-01 -1.771382e+00 6.966153e-01 1.384165e+00 -1.995200e+00 8.880552e-01 4.504645e-01 -1.020478e+00 5.133117e-01 -3.491031e-01 2.764193e-01 -5.732844e-02 2.183795e-01 2.029836e-01 -3.423841e-01 1.475222e-01 5.357111e-01 -3.522114e-01 1.692512e-01 2.508422e-01 -2.223943e-01 1.432577e-01 1.324576e-01 -1.036511e-01 2.627724e-02
<VARIANCE> 39
 3.019232e+00 2.910253e+00 5.427516e+00 6.609154e+00 1.232771e+01 1.245880e+01 1.124319e+01 9.885271e+00 1.139515e+01 1.117535e+01 6.666582e+00 9.373332e+00 8.083417e-01 1.004664e-01 5.188450e-01 7.644479e-01 5.089797e-01 9.208009e-01 9.895104e-01 9.203910e-01 9.148907e-01 1.781996e+00 1.064368e+00 1.195322e+00 1.142821e+00 5.080401e-02 5.077393e-02 7.732311e-02 1.644413e-01 1.232711e-01 2.591060e-01 2.786933e-01 2.203703e-01 1.728420e-01 2.692093e-01 2.786236e-01 1.627372e-01 2.362184e-01 1.333472e-02
<GCONST> 6.425300e+01
<MIXTURE> 5 1.938668e-02
<MEAN> 39
 2.285740e+00 4.862613e+00 -6.204689e-01 3.102158e+00 1.324130e+00 3.537380e+00 3.452143e+00 1.570230e+00 3.270607e+00 6.376773e+00 5.742819e+00 3.756969e+00 2.398665e+01 1.127631e-01 1.481054e-01 4.127775e-01 5.698440e-01 8.166728e-01 6.001717e-01 6.292933e-01 5.879548e-01 3.597935e-01 4.127591e-01 4.279896e-01 3.148957e-01 3.292985e-01 -6.584691e-02 -1.920356e-01 4.559444e-02 2.916678e-03 1.425421e-01 3.707333e-01 1.932949e-01 2.205266e-01 1.002305e-01 -4.977597e-01 -6.412144e-01 -4.404178e-01 -3.371533e-02
<VARIANCE> 39
 5.592270e+00 2.237060e+00 4.845699e+00 7.954186e+00 9.972528e+00 7.798809e+00 7.118998e+00 1.290978e+01 1.032393e+01 7.810309e+00 7.038147e+00 7.721766e+00 8.006453e-01 4.921287e-01 4.043400e-01 3.541613e-01 5.785817e-01 6.404198e-01 8.906423e-01 1.188131e+00 1.000283e+00 1.315820e+00 1.135391e+00 1.354980e+00 1.091705e+00 3.825857e-02 7.949644e-02 3.794100e-02 1.081410e-01 1.659703e-01 2.014107e-01 1.557458e-01 1.339726e-01 1.837799e-01 1.996373e-01 2.247886e-01 2.170496e-01 1.754672e-01 1.059632e-02
<GCONST> 6.092504e+01
<MIXTURE> 6 2.690591e-02
<MEAN> 39
 1.019862e+00 3.763328e+00 -1.871499e-01 3.676601e+00 2.722333e+00 7.701835e+00 6.512400e+00 3.737873e+00 5.740887e+00 7.888033e+00 4.576770e+00 3.649321e+00 2.436569e+01 1.827851e-01 4.117260e-02 -2.416371e-01 -1.502913e-01 1.443998e-01 -2.597139e-01 -7.628370e-02 1.163724e-02 -2.752518e-01 3.436133e-02 2.148340e-01 2.435200e-01 -4.963315e-03 9.594367e-02 1.014792e-01 4.056980e-02 1.821362e-01 1.923122e-01 -2.574615e-01 -1.086170e-01 1.814542e-02 -2.592608e-01 -5.576822e-01 -3.515170e-01 -3.133267e-01 -3.022029e-02
<VARIANCE> 39
 4.399686e+00 2.536450e+00 4.262194e+00 4.108479e+00 5.853154e+00 7.277703e+00 7.701291e+00 1.190206e+01 9.954839e+00 5.773090e+00 6.647011e+00 6.056325e+00 5.517623e-01 3.421519e-01 4.675362e-01 8.209874e-01 5.890875e-01 9.596615e-01 1.070090e+00 1.190701e+00 1.505629e+00 9.270895e-01 1.051737e+00 9.227836e-01 1.018952e+00 2.297590e-02 4.304523e-02 4.524101e-02 7.824640e-02 1.113054e-01 1.151654e-01 8.884823e-02 1.958839e-01 2.849631e-01 2.147674e-01 1.544247e-01 1.557818e-01 1.626413e-01 3.210285e-03
<GCONST> 5.528949e+01
<MIXTURE> 7 2.642960e-02
<MEAN> 39
 1.340471e+00 5.572886e+00 2.694896e+00 8.180962e+00 6.966238e+00 7.689900e+00 5.999612e+00 4.393440e+00 4.619610e+00 4.033732e+00 1.442516e+00 1.273091e+00 2.472190e+01 1.043863e-01 9.549163e-02 5.786205e-02 -1.719354e-01 2.802679e-02 4.060869e-03 -9.704874e-02 3.933554e-01 5.712082e-01 6.496134e-01 6.911931e-01 2.701583e-01 1.519716e-01 -8.480361e-02 -2.086815e-01 -3.486544e-01 -3.572716e-01 -3.818594e-01 -1.476453e-01 4.094695e-02 -9.098904e-02 -1.228406e-01 1.226165e-02 1.293507e-01 1.017636e-01 -1.023248e-01
<VARIANCE> 39
 2.937586e+00 1.643855e+00 2.135063e+00 4.328127e+00 6.870042e+00 5.257485e+00 7.999784e+00 8.124025e+00 7.953463e+00 8.289538e+00 4.795708e+00 6.248213e+00 5.237658e-01 1.595327e-01 3.121640e-01 4.195462e-01 6.703216e-01 7.540758e-01 6.144457e-01 7.548811e-01 1.031722e+00 1.147899e+00 1.136843e+00 7.958550e-01 7.805112e-01 3.468563e-02 3.984503e-02 4.053709e-02 5.686202e-02 1.306560e-01 1.258907e-01 1.450661e-01 1.760297e-01 1.755363e-01 1.950783e-01 1.761513e-01 1.415354e-01 1.490252e-01 8.029855e-03
<GCONST> 5.045475e+01
<MIXTURE> 8 1.586441e-02
<MEAN> 39
 -5.833524e+00 4.718349e+00 -1.603800e-01 7.073006e+00 6.763855e+00 4.935053e+00 5.693347e+00 4.444012e+00 2.960224e+00 3.329755e+00 2.121166e+00 4.443092e+00 2.367533e+01 -5.376801e-01 -1.078526e-01 -3.781155e-01 4.227585e-02 -1.195480e-01 -3.666808e-02 -1.387872e-01 3.067450e-01 7.133508e-01 4.197460e-01 2.100202e-01 1.406065e-01 2.135071e-02 3.912026e-01 -1.185111e-01 -1.397760e-01 -2.203422e-01 -2.845719e-01 1.766132e-01 -9.287848e-03 -4.049938e-03 1.594793e-01 3.201078e-02 -9.132744e-02 -2.637722e-01 -9.719341e-03
<VARIANCE> 39
 3.209018e+01 1.465565e+01 5.933753e+00 9.039120e+00 1.921745e+01 8.098742e+00 1.371323e+01 8.643427e+00 2.098865e+01 1.582918e+01 1.077384e+01 8.019992e+00 6.887793e-01 5.602088e+00 1.704687e+00 1.315180e+00 1.185395e+00 2.842309e+00 7.308644e-01 1.429106e+00 6.460840e-01 1.424241e+00 1.468436e+00 9.509066e-01 9.418516e-01 3.528310e-02 8.356301e-01 3.631769e-01 2.198353e-01 1.972155e-01 4.841836e-01 9.143689e-02 2.157196e-01 1.214222e-01 5.232831e-01 4.302740e-01 2.098190e-01 1.370083e-01 9.126727e-03
<GCONST> 8.133550e+01
<MIXTURE> 9 3.426836e-02
<MEAN> 39
 1.106285e+00 4.785660e+00 -1.169924e-01 4.478982e+00 3.149576e+00 5.407641e+00 7.097875e+00 7.092132e+00 5.905513e+00 2.789729e+00 1.178566e+00 1.226569e+00 2.392281e+01 2.549224e-02 6.093308e-02 1.091866e-01 1.525931e-01 2.634556e-01 3.178995e-01 5.665258e-01 4.771312e-01 1.192774e-01 7.701006e-02 -1.468869e-02 -8.039963e-02 1.372377e-01 -8.971088e-02 -1.106999e-01 7.453436e-02 7.764537e-02 7.202312e-02 9.273233e-02 -3.326514e-01 -6.063192e-01 -3.621067e-01 2.006777e-01 1.346799e-01 1.285576e-02 -2.006503e-02
<VARIANCE> 39
 3.007344e+00 1.963911e+00 3.218722e+00 4.111387e+00 5.820466e+00 8.362307e+00 6.898741e+00 5.322825e+00 6.591057e+00 7.916138e+00 6.277181e+00 6.394981e+00 6.772290e-01 3.024801e-01 4.184185e-01 5.987029e-01 6.908571e-01 7.921822e-01 7.459223e-01 8.663602e-01 1.368031e+00 1.472213e+00 1.039706e+00 7.541271e-01 7.741001e-01 5.154321e-02 9.906729e-02 6.894145e-02 8.865025e-02 8.965275e-02 1.334132e-01 1.916307e-01 1.435529e-01 1.235691e-01 2.063534e-01 1.913641e-01 1.580370e-01 1.387099e-01 6.950487e-03
<GCONST> 5.485701e+01
<MIXTURE> 10 2.365018e-02
<MEAN> 39
 3.627529e-02 2.039433e+00 -9.092627e-01 2.732646e+00 -5.467667e-02 2.830295e+00 2.600487e+00 -9.784123e-01 -6.154913e-01 2.853078e+00 1.107649e+00 4.273390e-01 2.242391e+01 -1.926137e-01 -2.496276e-01 2.242991e-02 1.531064e-01 1.161411e-01 4.929676e-02 -1.195023e-02 1.432192e-02 -3.317887e-01 -4.580593e-01 -2.880982e-01 -2.315080e-01 -1.256217e-01 3.321623e-01 3.072847e-01 -1.856028e-02 1.413189e-01 4.824623e-01 4.061837e-01 4.331043e-01 7.016948e-01 6.674896e-01 1.263405e-01 1.358252e-01 1.352562e-01 2.150715e-01
<VARIANCE> 39
 5.319971e+00 4.869036e+00 8.037093e+00 1.172087e+01 1.005750e+01 9.949302e+00 8.073388e+00 8.550787e+00 1.177233e+01 1.392852e+01 1.264742e+01 1.267410e+01 1.077114e+00 3.698061e-01 3.865497e-01 4.909541e-01 6.977513e-01 8.531067e-01 1.071567e+00 1.068838e+00 1.148124e+00 9.961145e-01 1.032696e+00 1.122270e+00 1.359412e+00 6.920052e-02 7.103951e-02 1.143029e-01 1.413683e-01 1.888874e-01 1.739249e-01 1.552756e-01 1.712907e-01 1.784189e-01 2.300813e-01 2.643060e-01 2.234002e-01 2.201299e-01 1.079200e-02
<GCONST> 6.756940e+01
<MIXTURE> 11 3.403141e-02
<MEAN> 39
 1.619600e+00 2.908981e+00 -1.232728e+00 4.759086e+00 5.537912e+00 9.200216e+00 9.127202e+00 6.350014e+00 4.722666e+00 3.321886e+00 3.576694e-02 1.350175e-01 2.402044e+01 -2.860984e-04 -1.075823e-01 -3.664173e-01 -3.200504e-01 -3.406072e-01 -2.783266e-01 -1.091588e-01 -1.690035e-01 4.188803e-05 -1.178309e-01 -4.187167e-01 -3.021139e-01 -1.483330e-01 1.058377e-02 1.175808e-01 3.849013e-02 -1.554252e-01 -3.574868e-01 -5.362896e-01 -6.312683e-01 -5.141836e-01 -1.663879e-01 6.945276e-02 2.894210e-01 1.873141e-01 -5.699805e-02
<VARIANCE> 39
 6.154121e+00 3.694371e+00 4.827287e+00 6.478136e+00 5.330750e+00 6.828500e+00 7.892847e+00 7.409462e+00 7.844034e+00 8.678945e+00 7.556536e+00 1.095119e+01 9.337546e-01 2.491974e-01 3.384483e-01 5.397234e-01 6.616827e-01 8.076298e-01 9.870268e-01 1.257010e+00 1.246360e+00 1.016573e+00 1.195688e+00 1.162591e+00 1.090046e+00 4.084556e-02 4.789916e-02 5.504857e-02 1.287194e-01 1.472559e-01 1.007684e-01 1.411255e-01 1.689436e-01 1.482687e-01 1.753324e-01 2.176689e-01 2.210900e-01 3.032137e-01 1.009761e-02
<GCONST> 6.002122e+01
<MIXTURE> 12 2.737325e-02
<MEAN> 39
 1.850649e+00 4.579082e+00 7.163087e-01 6.241662e+00 4.249432e+00 5.526152e+00 4.373375e+00 1.615146e+00 2.002882e+00 1.530726e+00 -1.227548e+00 -1.153424e+00 2.339155e+01 -8.892102e-02 4.206620e-02 4.227053e-01 2.931191e-01 9.829513e-02 4.474077e-01 7.735816e-03 3.152253e-01 9.060737e-01 4.856772e-01 5.281367e-01 2.809654e-01 2.101188e-01 -8.326060e-02 -8.993687e-02 -7.811018e-02 -2.920368e-01 -1.854037e-01 5.878865e-02 1.277699e-01 2.513933e-01 3.317798e-01 3.692150e-01 4.967650e-01 3.559101e-01 5.178319e-02
<VARIANCE> 39
 3.970845e+00 1.972356e+00 2.592388e+00 3.638595e+00 4.886859e+00 6.690359e+00 8.671049e+00 6.418191e+00 6.948724e+00 7.316219e+00 6.399480e+00 6.154247e+00 4.656115e-01 5.380118e-01 4.816398e-01 1.039647e+00 5.351191e-01 1.300189e+00 1.997944e+00 1.710396e+00 9.632822e-01 1.071336e+00 1.026885e+00 1.128484e+00 8.543330e-01 5.841517e-02 5.276192e-02 5.991541e-02 1.048978e-01 9.388619e-02 1.560874e-01 2.198332e-01 1.782616e-01 1.645986e-01 1.941784e-01 1.643324e-01 1.271231e-01 1.567791e-01 7.983834e-03
<GCONST> 5.759049e+01
<MIXTURE> 13 2.906008e-02
<MEAN> 39
 1.000426e+00 3.710093e+00 1.040789e+00 7.463060e+00 6.002375e+00 8.405053e+00 8.237009e+00 6.592127e+00 7.001703e+00 6.709435e+00 4.318690e+00 2.394857e+00 2.471858e+01 4.320153e-02 -4.674970e-02 -3.793316e-02 -2.034429e-01 2.018653e-01 5.013767e-01 1.567625e-01 3.807085e-01 6.465666e-01 4.450261e-01 6.113920e-01 5.046772e-01 1.893527e-01 5.760488e-02 9.995834e-02 -1.717982e-01 -3.489685e-01 -3.032096e-01 -3.637871e-01 -3.675652e-01 -5.078106e-01 -4.680076e-01 -3.802096e-01 -3.765129e-01 -1.013409e-01 -1.347867e-01
<VARIANCE> 39
 4.252808e+00 1.717278e+00 4.488022e+00 5.543537e+00 7.526197e+00 6.077821e+00 9.234997e+00 7.748388e+00 6.983048e+00 9.332384e+00 6.311693e+00 6.530684e+00 5.558840e-01 3.289034e-01 3.809442e-01 8.836969e-01 7.473471e-01 8.944182e-01 1.114086e+00 1.096902e+00 1.432268e+00 1.068211e+00 1.273899e+00 1.186065e+00 9.072345e-01 3.934012e-02 4.345282e-02 5.047192e-02 9.838365e-02 1.072743e-01 1.608024e-01 2.086652e-01 2.016194e-01 1.621739e-01 1.829310e-01 2.958327e-01 1.647899e-01 1.866992e-01 8.727477e-03
<GCONST> 5.875592e+01
<MIXTURE> 14 3.995863e-02
<MEAN> 39
 -2.297617e+00 4.829150e+00 -2.757461e+00 -2.272751e+00 1.494347e+00 1.386745e-01 9.605122e-03 -8.875729e-01 1.610645e+00 -3.243325e-01 -1.446181e+00 -1.006339e+00 2.220377e+01 -9.571318e-02 5.889735e-02 7.464729e-02 3.549632e-01 3.524454e-01 3.499875e-01 2.131291e-01 -1.539626e-02 -2.701090e-02 -1.472680e-01 -1.712423e-01 -1.115760e-01 -1.710905e-02 -2.670287e-02 -4.786512e-02 -6.973153e-02 -1.092586e-02 7.812260e-03 4.652726e-02 5.893413e-02 1.556859e-01 1.499845e-01 3.270907e-02 -3.089799e-02 -3.760408e-02 1.984495e-02
<VARIANCE> 39
 2.445041e+01 1.316898e+01 1.898697e+01 2.056991e+01 3.381830e+01 2.994822e+01 2.479175e+01 2.490530e+01 2.354958e+01 2.674673e+01 2.577661e+01 2.055369e+01 1.646124e+00 4.074620e-01 5.753080e-01 9.724990e-01 1.167493e+00 1.643893e+00 1.532058e+00 1.750816e+00 1.926117e+00 1.798116e+00 1.726217e+00 1.665277e+00 1.431275e+00 3.578798e-02 7.282552e-02 8.857964e-02 1.494418e-01 2.026888e-01 2.612687e-01 2.859671e-01 3.081374e-01 3.291200e-01 2.909286e-01 2.851194e-01 2.844906e-01 2.575444e-01 5.720683e-03
<GCONST> 8.577858e+01
<MIXTURE> 15 3.487703e-02
<MEAN> 39
 1.395730e+00 4.242665e+00 1.305274e+00 7.210974e+00 4.926747e+00 5.485067e+00 3.761567e+00 7.605928e-01 1.364716e+00 2.810036e+00 3.074436e+00 2.300010e+00 2.407711e+01 -1.043176e-03 -2.057861e-02 -2.841418e-02 6.454439e-02 3.256249e-02 2.193923e-01 2.583626e-01 4.004641e-02 -1.926117e-01 -1.443682e-01 -2.795996e-01 -1.354395e-01 -1.749240e-03 1.552620e-02 2.689145e-02 -2.400862e-01 -4.039739e-01 -1.873086e-01 -1.420395e-02 2.325672e-01 4.246488e-01 4.286348e-01 1.320073e-01 -1.971179e-01 -1.625716e-01 -2.608397e-02
<VARIANCE> 39
 2.853133e+00 2.748961e+00 3.313170e+00 3.804892e+00 6.416642e+00 8.260709e+00 8.016499e+00 6.665947e+00 7.903743e+00 7.096612e+00 6.937754e+00 6.936049e+00 5.613354e-01 2.029944e-01 3.240320e-01 5.296348e-01 8.217531e-01 8.284236e-01 6.927341e-01 9.700989e-01 1.228892e+00 1.265594e+00 1.032031e+00 1.046350e+00 9.518951e-01 4.098155e-02 3.435445e-02 4.878680e-02 8.553725e-02 1.007352e-01 1.141689e-01 1.529054e-01 1.654804e-01 1.463144e-01 1.684124e-01 1.627614e-01 1.582347e-01 1.676065e-01 6.502334e-03
<GCONST> 5.350217e+01
<MIXTURE> 16 3.117694e-02
<MEAN> 39
 -3.420464e+00 1.947320e+00 5.923369e+00 2.475250e+00 -1.359704e+00 1.200447e+01 1.496164e+00 1.996821e+00 7.170869e+00 1.485518e+00 3.313829e+00 1.666946e-02 2.380938e+01 -1.622096e-01 -2.539401e-01 2.681966e-01 -2.298180e-01 -7.360256e-01 2.049372e-01 -2.567900e-01 -4.052987e-01 2.698646e-01 -8.535770e-02 -2.433161e-02 3.653826e-01 -7.197366e-02 5.777802e-01 3.576997e-01 -9.164532e-01 3.007210e-01 7.391886e-01 -9.819044e-01 4.816942e-01 2.429676e-01 -5.005201e-01 2.267369e-01 -1.965318e-01 1.523133e-01 -2.771534e-02
<VARIANCE> 39
 3.080973e+00 6.275351e+00 6.858965e+00 6.926627e+00 1.312963e+01 1.181479e+01 1.231155e+01 1.043374e+01 1.372975e+01 1.351576e+01 1.067379e+01 1.639109e+01 8.189768e-01 3.375415e-01 3.790848e-01 1.141640e+00 7.924365e-01 1.461739e+00 1.490992e+00 1.228792e+00 8.945352e-01 1.350063e+00 1.551248e+00 1.015541e+00 1.028805e+00 5.492805e-02 3.202099e-02 1.225939e-01 1.266484e-01 1.011023e-01 2.489378e-01 2.143104e-01 1.927380e-01 1.895996e-01 3.293936e-01 2.923439e-01 3.040924e-01 2.823899e-01 1.293192e-02
<GCONST> 6.990517e+01
<MIXTURE> 17 2.583049e-02
<MEAN> 39
 -2.266569e-01 3.266715e+00 -1.078013e+00 5.198390e+00 6.189989e+00 8.045066e+00 6.954759e+00 2.435588e+00 3.506012e-01 1.670464e+00 1.749699e+00 2.014677e+00 2.325617e+01 -2.257639e-02 5.383952e-02 9.252974e-02 9.159483e-02 -1.806718e-01 -1.857388e-01 3.194498e-02 -2.315610e-01 -1.517478e-01 -1.447308e-03 -3.731867e-01 -1.149572e-01 -8.010196e-02 -1.044617e-01 9.363684e-02 3.225781e-01 9.224232e-02 -2.702821e-01 -1.616813e-01 -2.697510e-01 1.738295e-01 6.636913e-01 3.272728e-01 3.078450e-02 -1.200179e-01 7.627758e-02
<VARIANCE> 39
 3.030118e+00 2.307493e+00 3.065085e+00 4.274166e+00 5.760821e+00 8.037245e+00 6.355539e+00 7.385066e+00 6.272801e+00 7.650911e+00 1.070591e+01 8.004910e+00 6.119958e-01 1.948530e-01 3.371081e-01 5.703667e-01 4.915697e-01 6.733404e-01 7.338720e-01 6.973122e-01 9.651650e-01 1.209952e+00 1.473440e+00 1.641171e+00 1.347365e+00 4.635385e-02 8.305375e-02 7.089681e-02 1.227745e-01 1.177532e-01 1.832170e-01 2.253411e-01 1.310329e-01 1.877209e-01 1.550868e-01 1.369438e-01 2.415247e-01 1.653080e-01 8.616241e-03
<GCONST> 5.682388e+01
<MIXTURE> 18 2.558235e-02
<MEAN> 39
 2.211456e+00 4.911271e+00 5.527920e-01 5.191764e+00 3.738771e+00 4.878877e+00 4.355722e+00 3.077074e+00 4.770674e+00 6.370147e+00 4.310877e+00 2.908150e+00 2.445742e+01 -2.991060e-01 -4.197857e-01 -3.418133e-01 -5.274277e-01 -9.215302e-01 -8.076174e-01 -8.205113e-01 -1.185432e+00 -9.813421e-01 -5.304769e-01 -5.889210e-01 -2.925093e-01 -3.936901e-01 -8.978380e-02 -1.466124e-01 -1.381846e-01 -9.701721e-02 -7.208174e-02 4.729890e-02 1.075987e-01 7.050124e-02 -1.519220e-01 -3.404599e-01 -3.043153e-01 -2.309101e-01 -1.098603e-01
<VARIANCE> 39
 3.141274e+00 2.878962e+00 5.259085e+00 6.867177e+00 1.018063e+01 9.176395e+00 8.741021e+00 6.963771e+00 6.075037e+00 8.035398e+00 6.493139e+00 8.994054e+00 5.589252e-01 3.087305e-01 3.795893e-01 5.686708e-01 6.995351e-01 7.328086e-01 7.349142e-01 7.358530e-01 1.029644e+00 1.408840e+00 1.200354e+00 1.031968e+00 8.310742e-01 4.340462e-02 5.594832e-02 5.945281e-02 8.773446e-02 1.084141e-01 1.510714e-01 1.784259e-01 1.590933e-01 1.701522e-01 1.459590e-01 1.919448e-01 1.650395e-01 1.752653e-01 7.761666e-03
<GCONST> 5.719736e+01
<MIXTURE> 19 2.044952e-02
<MEAN> 39
 4.785529e+00 3.088043e+00 -4.263666e+00 -1.133935e+00 -3.162181e-01 5.840538e+00 7.881953e+00 6.934307e+00 5.624716e+00 4.321882e+00 1.367842e+00 2.602650e-01 2.366838e+01 1.885340e-01 3.595172e-01 1.315507e-01 -4.700151e-03 -4.242690e-02 2.619823e-01 2.533755e-01 3.400421e-01 3.593122e-01 -1.090565e-01 5.813675e-02 -3.788933e-03 1.727968e-01 -1.472938e-01 8.082081e-02 2.657010e-01 4.070564e-01 3.314391e-01 9.064241e-02 -4.903823e-01 -7.537501e-01 -5.100442e-01 -1.802173e-01 3.982801e-02 1.906154e-01 -1.746114e-02
<VARIANCE> 39
 3.386691e+00 3.016501e+00 3.110359e+00 4.997407e+00 5.881587e+00 8.718860e+00 1.103929e+01 1.019114e+01 1.409203e+01 1.110374e+01 1.027862e+01 1.379101e+01 8.851328e-01 2.791357e-01 3.512793e-01 6.060595e-01 8.405848e-01 1.211342e+00 1.070072e+00 1.866688e+00 2.182467e+00 2.159110e+00 9.609967e-01 1.132508e+00 1.461913e+00 6.145319e-02 6.121097e-02 6.634041e-02 9.688150e-02 1.323433e-01 1.913651e-01 1.894450e-01 2.934765e-01 2.840249e-01 3.561801e-01 2.216438e-01 2.152239e-01 3.298944e-01 1.287034e-02
<GCONST> 6.720029e+01
<MIXTURE> 20 1.814911e-02
<MEAN> 39
 1.799959e+00 2.919876e+00 -2.861251e+00 1.548468e+00 4.179425e-01 2.723550e+00 2.873063e+00 3.327945e+00 4.921933e+00 5.955073e+00 4.659001e+00 3.942732e+00 2.302228e+01 2.692891e-02 1.604088e-01 -1.256837e-02 5.965853e-02 -1.763441e-03 -2.972146e-01 1.763613e-01 1.939340e-01 -1.758292e-01 1.380313e-01 3.686516e-02 1.226257e-01 2.004545e-02 -3.606596e-02 1.846496e-01 3.338072e-01 3.822829e-01 4.139374e-01 4.942967e-01 2.892523e-01 -5.035989e-03 -1.594844e-01 -2.422398e-01 -3.560640e-01 -3.909065e-01 9.531794e-02
<VARIANCE> 39
 5.505717e+00 2.420208e+00 3.639666e+00 5.547024e+00 4.616423e+00 6.423701e+00 7.840652e+00 7.276451e+00 7.280021e+00 8.707708e+00 5.687327e+00 7.228316e+00 9.358138e-01 7.895492e-01 5.805460e-01 8.403250e-01 1.009210e+00 1.308427e+00 1.712689e+00 1.043168e+00 1.612673e+00 1.058317e+00 1.795980e+00 1.488427e+00 9.971998e-01 5.583195e-02 8.196759e-02 5.094304e-02 7.711392e-02 8.604929e-02 1.064430e-01 2.136721e-01 2.139852e-01 1.683733e-01 1.549026e-01 1.927156e-01 1.869936e-01 1.810312e-01 1.064841e-02
<GCONST> 6.199846e+01
<MIXTURE> 21 2.209409e-02
<MEAN> 39
 1.072994e+00 4.508747e+00 1.110568e+00 5.640550e+00 3.488577e+00 5.925527e+00 6.035982e+00 4.744954e+00 3.703519e+00 2.499481e+00 1.010718e+00 7.645954e-01 2.410942e+01 -8.755323e-01 -5.928881e-01 9.606196e-01 -5.173219e-01 -1.403791e+00 6.967282e-01 -6.861579e-01 -5.954369e-01 1.348158e-01 -4.966385e-01 -2.941742e-01 -5.801581e-01 -1.727499e-01 -1.523184e-02 -6.680289e-02 -1.965580e-01 -1.565945e-01 -7.950139e-02 -1.536544e-01 -2.820336e-01 -2.755173e-01 3.945617e-02 8.300119e-02 4.367181e-02 5.013353e-02 -7.348697e-02
<VARIANCE> 39
 2.510697e+00 1.891180e+00 3.220783e+00 4.697243e+00 7.739006e+00 6.151153e+00 1.013242e+01 8.149303e+00 7.740921e+00 8.284386e+00 7.323958e+00 4.822092e+00 5.334352e-01 2.893764e-01 4.913554e-01 1.268853e+00 6.060326e-01 1.479098e+00 1.534968e+00 1.056623e+00 9.177760e-01 1.552060e+00 1.882272e+00 1.496595e+00 1.290185e+00 6.239122e-02 5.578942e-02 5.008673e-02 9.850658e-02 9.834804e-02 2.305445e-01 1.572167e-01 1.910594e-01 1.238766e-01 1.713430e-01 1.735245e-01 2.162175e-01 1.195901e-01 9.520316e-03
<GCONST> 5.945346e+01
<MIXTURE> 22 2.992260e-02
<MEAN> 39
 -3.861677e+00 4.084672e+00 -3.472617e+00 1.922635e+00 3.692147e+00 4.785524e+00 4.441551e+00 4.562631e+00 5.266890e+00 3.730996e+00 1.097198e+00 4.814767e-01 2.321427e+01 2.607761e-02 -1.532895e-01 -1.402335e-01 -8.152134e-02 8.964068e-02 6.481630e-02 -9.076715e-02 -3.211925e-01 -5.062265e-01 -4.580677e-01 -4.062325e-01 -4.476669e-01 -8.106781e-02 3.110806e-01 4.127405e-02 1.363140e-01 -1.630907e-02 2.148779e-02 -8.722613e-02 -1.179034e-01 -3.046972e-01 -2.573619e-01 -2.508502e-01 -1.006638e-01 -1.001240e-02 -2.801189e-02
<VARIANCE> 39
 1.980401e+01 2.143998e+01 2.176332e+01 2.608477e+01 2.694301e+01 2.043377e+01 1.883131e+01 1.931620e+01 2.459977e+01 2.015130e+01 2.015467e+01 1.800727e+01 1.541000e+00 1.297189e+00 1.040065e+00 1.320730e+00 1.433344e+00 1.523981e+00 1.384304e+00 1.535044e+00 1.609391e+00 1.974576e+00 1.620662e+00 1.640347e+00 1.711751e+00 4.572494e-02 2.673732e-01 3.094166e-01 3.421312e-01 3.119481e-01 4.191470e-01 2.595459e-01 3.594238e-01 2.990943e-01 4.356991e-01 3.274082e-01 3.388048e-01 3.287747e-01 9.770644e-03
<GCONST> 9.256037e+01
<MIXTURE> 23 2.399465e-02
<MEAN> 39
 2.904536e+00 5.387236e+00 1.036941e+00 5.154221e+00 3.851385e+00 6.257846e+00 6.147636e+00 4.259328e+00 3.896319e+00 5.976105e+00 4.892942e+00 2.539559e+00 2.494257e+01 -2.518170e-01 -2.610630e-01 1.811935e-01 2.589412e-03 9.707954e-02 2.880760e-01 5.689848e-02 1.843845e-01 -2.819874e-01 -4.451856e-02 -1.185024e-01 -3.555927e-01 3.159603e-02 -1.332735e-01 -3.274785e-01 -3.422810e-01 -3.981144e-01 -2.925222e-01 -1.081073e-01 -2.484466e-01 -3.251741e-01 -1.312535e-01 -4.405895e-01 -4.964901e-01 -1.729457e-01 -2.375065e-01
<VARIANCE> 39
 5.557791e+00 3.521806e+00 5.971212e+00 9.193222e+00 6.733804e+00 7.131467e+00 1.014571e+01 8.574356e+00 1.269232e+01 7.297648e+00 7.997370e+00 1.120534e+01 5.263627e-01 7.583633e-01 3.381386e-01 8.126078e-01 8.012779e-01 1.152215e+00 1.635052e+00 1.139169e+00 1.201171e+00 1.683546e+00 1.647440e+00 1.863465e+00 1.168075e+00 7.905521e-02 8.544345e-02 5.372823e-02 1.278502e-01 1.528341e-01 1.655361e-01 1.517275e-01 2.204585e-01 2.134263e-01 2.567542e-01 1.835796e-01 1.399493e-01 2.149247e-01 8.305950e-03
<GCONST> 6.638466e+01
<MIXTURE> 24 3.234746e-02
<MEAN> 39
 -7.463840e+00 -9.286534e-01 -5.728591e+00 -3.619686e+00 -2.811892e+00 -2.098419e+00 -2.063802e+00 -4.667552e-01 -5.108638e-01 1.218787e+00 2.151901e+00 2.726148e+00 1.472755e+01 -3.067850e-02 -4.364410e-02 2.848676e-02 -2.598175e-02 1.111052e-02 -2.372970e-02 -4.922251e-04 2.283180e-02 -2.318287e-03 -2.899985e-02 2.604764e-02 4.019896e-02 -1.242221e-02 7.873378e-02 -6.297344e-03 -1.921733e-02 4.628803e-02 -5.407176e-03 2.621180e-02 -1.871140e-03 -1.464675e-02 -1.074263e-02 -6.089289e-03 2.015897e-03 2.906906e-03 -2.095781e-03
<VARIANCE> 39
 1.296568e+01 1.446012e+01 1.675603e+01 1.866587e+01 1.767494e+01 2.434470e+01 2.254689e+01 2.093294e+01 1.971877e+01 1.929759e+01 1.615665e+01 1.409651e+01 7.170255e-01 1.344894e+00 9.212160e-01 1.074938e+00 1.442864e+00 1.457023e+00 1.770272e+00 1.788328e+00 1.778085e+00 1.685611e+00 1.560916e+00 1.378316e+00 1.276217e+00 3.816252e-02 2.477006e-01 1.822798e-01 2.204463e-01 2.939200e-01 3.011199e-01 3.625247e-01 3.705590e-01 3.656271e-01 3.530993e-01 3.237078e-01 2.846998e-01 2.654744e-01 7.803266e-03
<GCONST> 8.728591e+01
<MIXTURE> 25 4.266099e-02
<MEAN> 39
 2.380970e+00 5.098891e+00 6.203853e-01 6.196386e+00 4.753423e+00 4.472333e+00 3.082349e+00 2.951991e+00 6.423319e+00 6.010866e+00 2.149582e+00 6.206159e-01 2.440685e+01 5.982204e-02 4.097411e-02 -2.453886e-01 -2.124400e-01 -9.633569e-02 -2.095825e-01 1.436724e-01 2.262453e-02 -2.570076e-03 -1.313020e-01 1.451170e-01 1.262517e-01 -3.530711e-03 -1.505799e-01 -1.189677e-01 -1.137654e-01 -2.281499e-01 -2.389826e-01 8.167210e-02 2.036278e-01 -4.630463e-03 -4.090680e-01 -3.894928e-01 -7.247944e-02 8.658624e-02 -1.015668e-01
<VARIANCE> 39
 2.402137e+00 2.052976e+00 3.089134e+00 4.040154e+00 4.544454e+00 6.601904e+00 5.201442e+00 6.900854e+00 8.308319e+00 7.448359e+00 6.242653e+00 6.578963e+00 5.282490e-01 3.052365e-01 2.353595e-01 5.101848e-01 6.083362e-01 8.923767e-01 1.019555e+00 1.125667e+00 8.586716e-01 1.157733e+00 1.425907e+00 1.095448e+00 1.147182e+00 3.827741e-02 2.956302e-02 3.504374e-02 8.708317e-02 9.481879e-02 1.200632e-01 1.680397e-01 1.541011e-01 1.586991e-01 1.776851e-01 1.753721e-01 1.590234e-01 1.822844e-01 5.010004e-03
<GCONST> 5.192722e+01
<MIXTURE> 26 3.878598e-02
<MEAN> 39
 1.046103e+00 3.709624e+00 -1.217315e+00 3.685554e+00 2.789803e+00 5.664187e+00 5.879222e+00 3.843593e+00 4.535425e+00 4.210799e+00 1.238576e+00 1.955644e-01 2.337738e+01 -7.147170e-02 4.935417e-03 1.994444e-02 -2.549553e-01 -3.362617e-01 -1.366934e-01 -2.582090e-01 -2.950080e-01 -1.314119e-01 -6.305677e-03 1.932220e-01 1.238830e-01 -9.674844e-02 2.307441e-02 7.111565e-02 2.158026e-01 2.301071e-01 1.697161e-01 -9.510159e-03 -1.448323e-01 -7.433748e-02 -1.296130e-01 -7.695281e-02 1.141809e-01 1.770397e-01 6.256307e-02
<VARIANCE> 39
 3.000468e+00 2.520947e+00 3.225116e+00 4.167267e+00 3.568279e+00 4.852501e+00 5.289417e+00 5.169342e+00 4.862878e+00 5.056485e+00 5.101181e+00 6.574968e+00 7.696550e-01 5.175959e-01 4.264770e-01 7.350797e-01 7.848588e-01 8.337198e-01 1.375414e+00 1.561157e+00 1.217358e+00 1.145699e+00 1.149874e+00 1.136437e+00 1.287778e+00 6.559877e-02 3.744946e-02 5.451788e-02 6.744587e-02 1.124928e-01 9.486976e-02 1.297120e-01 1.151478e-01 1.159011e-01 1.272532e-01 1.621468e-01 1.044799e-01 1.463907e-01 7.372323e-03
<GCONST> 5.280201e+01
<MIXTURE> 27 3.737597e-02
<MEAN> 39
 4.032107e+00 4.656487e+00 -1.427531e+00 2.870216e+00 3.910125e+00 7.438727e+00 5.626670e+00 1.484235e+00 1.312628e+00 2.851075e+00 3.232698e+00 3.207196e+00 2.429233e+01 -1.054498e-02 -7.516354e-02 -3.440749e-01 -2.539230e-01 -6.660624e-02 1.788372e-02 -1.469336e-01 -6.167817e-02 -2.810034e-02 -2.714641e-01 -2.862452e-01 -4.297059e-02 -1.189452e-01 -1.346867e-01 -1.462108e-01 -2.025054e-02 -5.402320e-02 -2.377713e-01 -2.635770e-01 -9.503514e-02 2.064489e-01 2.828468e-01 7.307225e-02 -2.403593e-01 -2.901945e-01 -8.747984e-02
<VARIANCE> 39
 3.554514e+00 2.905173e+00 4.703661e+00 5.525722e+00 6.802664e+00 7.054561e+00 8.419496e+00 6.328499e+00 6.472588e+00 6.336120e+00 6.898222e+00 6.873338e+00 5.818644e-01 1.793216e-01 2.904291e-01 5.693116e-01 8.004586e-01 7.186245e-01 8.358980e-01 1.025483e+00 1.507244e+00 1.395071e+00 1.188609e+00 1.111959e+00 1.116170e+00 3.826787e-02 3.397765e-02 6.134576e-02 8.229915e-02 1.227296e-01 1.400515e-01 1.321779e-01 1.719784e-01 1.496841e-01 1.504242e-01 1.235667e-01 1.477953e-01 1.514627e-01 6.327113e-03
<GCONST> 5.452610e+01
<MIXTURE> 28 3.118850e-02
<MEAN> 39
 1.867712e+00 4.326042e+00 -9.161101e-01 4.753726e+00 5.348787e+00 7.778051e+00 8.061863e+00 7.561179e+00 7.436049e+00 6.751576e+00 4.897567e+00 3.325376e+00 2.476363e+01 -2.023846e-02 -6.237680e-02 -2.140530e-01 -4.007223e-01 -2.870736e-01 -3.679315e-01 -3.872388e-01 -5.936421e-01 -5.780796e-01 -4.799782e-01 -5.075148e-01 -2.201489e-01 -1.686649e-01 -5.763698e-02 -2.879853e-02 1.474988e-01 6.880237e-02 -2.327413e-01 -2.609957e-01 -3.837267e-01 -6.254092e-01 -5.552576e-01 -4.087881e-01 -4.639357e-01 -3.166716e-01 -1.386292e-01
<VARIANCE> 39
 3.497729e+00 1.894899e+00 4.238035e+00 7.170782e+00 6.666653e+00 1.041314e+01 7.895365e+00 6.173040e+00 6.744470e+00 8.085783e+00 9.519292e+00 8.026973e+00 4.474984e-01 1.316073e-01 2.297476e-01 4.430692e-01 6.137422e-01 8.367053e-01 8.571204e-01 1.072470e+00 1.131576e+00 9.137800e-01 1.294490e+00 9.357867e-01 1.117432e+00 4.185729e-02 2.834960e-02 4.837643e-02 6.197980e-02 1.054835e-01 1.297596e-01 1.620987e-01 1.437329e-01 1.500300e-01 1.447487e-01 1.614704e-01 1.721741e-01 1.649769e-01 6.291565e-03
<GCONST> 5.303317e+01
<MIXTURE> 29 3.178945e-02
<MEAN> 39
 1.261186e+00 3.156760e+00 -2.205048e+00 2.009109e+00 1.260549e+00 4.724769e+00 4.484433e+00 2.278669e+00 1.602512e+00 5.247086e-01 -2.497964e+00 -2.202271e+00 2.282393e+01 -3.954884e-02 -7.621335e-02 1.887224e-01 -1.329395e-02 -4.878062e-02 5.041743e-02 -1.846295e-01 -3.370018e-01 -6.678745e-02 -7.765072e-02 1.396474e-01 3.124711e-02 -5.827259e-02 3.646047e-02 9.700201e-02 1.131328e-01 1.325937e-01 2.053388e-01 1.100185e-01 4.346679e-02 1.064682e-01 2.437021e-01 5.004441e-01 6.711215e-01 5.352314e-01 1.186177e-01
<VARIANCE> 39
 6.586989e+00 3.882722e+00 6.888438e+00 8.125125e+00 9.449991e+00 8.845000e+00 8.363478e+00 8.790443e+00 8.921556e+00 6.267819e+00 7.486804e+00 8.132800e+00 8.725886e-01 1.013318e+00 7.505087e-01 8.947173e-01 9.110413e-01 1.243885e+00 1.295445e+00 1.249287e+00 1.189814e+00 1.764580e+00 1.466853e+00 1.263457e+00 1.126237e+00 6.146188e-02 1.396450e-01 9.723503e-02 1.355698e-01 1.138161e-01 1.977766e-01 1.810444e-01 1.966896e-01 2.141589e-01 2.370254e-01 1.584672e-01 1.658328e-01 2.035517e-01 7.757071e-03
<GCONST> 6.807632e+01
<MIXTURE> 30 4.314756e-02
<MEAN> 39
 2.250832e+00 5.096450e+00 -3.538054e-01 3.797048e+00 2.033989e+00 1.873446e+00 1.707523e+00 1.289462e+00 2.720712e+00 2.566675e+00 1.807166e+00 1.434284e+00 2.346365e+01 1.528714e-02 2.957371e-02 1.431754e-01 2.686625e-01 1.511889e-01 -9.697507e-02 -1.461840e-01 -1.447128e-01 -2.381978e-01 -1.147363e-01 1.134874e-01 1.540087e-02 7.898403e-03 -1.405164e-01 -1.521427e-01 1.171783e-01 8.730624e-02 7.122006e-02 4.523451e-01 3.564870e-01 2.573503e-01 2.206422e-01 1.368351e-01 1.342076e-02 -9.025449e-02 5.775364e-02
<VARIANCE> 39
 2.084841e+00 1.714127e+00 3.538852e+00 3.978298e+00 4.892522e+00 5.341852e+00 6.426919e+00 7.028265e+00 5.725839e+00 6.815447e+00 5.385590e+00 6.762444e+00 5.666400e-01 2.396133e-01 3.185162e-01 5.155591e-01 5.462254e-01 6.848381e-01 1.070292e+00 1.276120e+00 1.105775e+00 1.501063e+00 1.423135e+00 1.182691e+00 1.090380e+00 4.236057e-02 4.240091e-02 5.271562e-02 1.227149e-01 1.121660e-01 1.290743e-01 1.737548e-01 1.782939e-01 1.739919e-01 1.535835e-01 1.902493e-01 1.282893e-01 1.713193e-01 6.497117e-03
<GCONST> 5.335930e+01
<MIXTURE> 31 2.911812e-02
<MEAN> 39
 2.501761e+00 5.256710e+00 1.820082e-02 4.937728e+00 4.160091e+00 4.890791e+00 4.241706e+00 2.668651e+00 2.344923e+00 -5.158969e-01 -1.111599e+00 -1.739170e-01 2.374774e+01 -2.929424e-02 -5.123758e-03 -2.435513e-01 9.183560e-02 1.885802e-01 -3.163293e-01 -1.323768e-01 -1.860561e-01 -6.835731e-01 -3.872416e-01 -9.700772e-02 -1.736959e-01 -1.396197e-01 -2.031444e-01 -2.306443e-01 9.799292e-02 -1.259099e-01 -2.407200e-01 1.073351e-01 -9.298963e-02 -1.963187e-02 2.633940e-01 6.150240e-01 5.067176e-01 1.376861e-01 -5.464360e-03
<VARIANCE> 39
 2.825142e+00 1.793976e+00 2.310127e+00 3.785228e+00 6.492436e+00 7.699765e+00 7.752433e+00 5.720006e+00 6.748526e+00 7.564383e+00 6.926287e+00 8.179195e+00 5.866777e-01 3.724914e-01 4.824525e-01 8.785577e-01 8.409143e-01 1.215929e+00 1.051973e+00 1.243669e+00 1.240833e+00 1.682178e+00 1.341627e+00 1.292920e+00 1.178726e+00 5.259621e-02 3.040282e-02 4.465646e-02 1.150766e-01 9.413302e-02 1.566482e-01 2.212915e-01 2.383371e-01 1.556200e-01 2.346438e-01 2.610154e-01 1.834931e-01 1.662728e-01 8.480030e-03
<GCONST> 5.872369e+01
<MIXTURE> 32 3.085123e-02
<MEAN> 39
 3.870299e+00 4.704482e+00 -2.333744e+00 1.413518e+00 7.180662e-01 3.271055e+00 4.570550e+00 4.401159e+00 5.099966e+00 3.179300e+00 8.696274e-01 1.312855e+00 2.396851e+01 -1.746476e-01 -1.557872e-01 -1.210214e-01 -1.730774e-01 -3.120635e-01 -2.770220e-01 -4.341243e-01 -6.414159e-01 -6.564470e-01 -5.015012e-01 -3.820490e-01 -4.562788e-01 -2.572610e-01 -1.729852e-01 -1.555923e-01 1.138314e-01 1.406375e-01 1.327963e-01 1.731088e-01 -1.212689e-01 -3.402281e-01 -3.639488e-01 -7.855006e-03 8.003178e-02 -6.656265e-02 -7.584238e-02
<VARIANCE> 39
 3.751311e+00 3.452419e+00 6.369689e+00 7.985833e+00 7.905551e+00 7.391423e+00 8.181867e+00 8.981859e+00 8.549059e+00 9.685671e+00 7.311677e+00 1.001774e+01 7.128638e-01 2.382430e-01 2.226207e-01 5.491433e-01 5.815456e-01 9.366173e-01 9.806845e-01 1.027218e+00 1.048063e+00 1.312697e+00 1.340630e+00 1.375744e+00 1.192430e+00 4.137011e-02 3.400762e-02 4.809680e-02 1.000425e-01 1.210545e-01 1.629813e-01 1.493401e-01 1.650245e-01 1.777445e-01 2.063682e-01 2.109503e-01 1.319702e-01 2.044908e-01 7.334665e-03
<GCONST> 5.895419e+01
<MIXTURE> 33 1.833655e-02
<MEAN> 39
 2.202001e+00 2.774368e+00 -1.911161e+00 2.271458e+00 1.937825e+00 3.586177e+00 2.615545e+00 2.747787e-01 1.590996e+00 3.514652e+00 2.089144e+00 6.348588e-01 2.298348e+01 -2.116051e-01 -7.294643e-01 -5.889210e-01 -6.165845e-01 -5.049369e-01 -7.528468e-01 -8.099888e-01 -8.707848e-01 -1.097960e+00 -8.377632e-01 -4.384593e-01 -5.868025e-01 -5.616910e-01 9.018263e-02 1.515220e-01 1.444705e-01 2.403736e-01 2.167541e-01 2.806482e-01 2.834330e-01 4.446977e-01 2.809299e-01 -1.954130e-02 -2.281547e-02 5.477035e-02 1.041882e-01
<VARIANCE> 39
 3.753159e+00 4.028864e+00 6.127555e+00 7.904923e+00 9.728507e+00 1.119646e+01 6.710820e+00 7.765130e+00 8.030896e+00 8.124993e+00 6.503044e+00 8.698079e+00 8.906550e-01 4.684059e-01 3.872071e-01 6.373905e-01 6.332707e-01 9.245016e-01 1.035414e+00 9.310575e-01 9.179637e-01 1.362352e+00 9.957940e-01 7.948290e-01 7.764096e-01 5.743516e-02 4.547435e-02 7.171028e-02 1.477555e-01 1.452408e-01 2.062423e-01 2.260829e-01 1.347624e-01 1.707569e-01 1.553396e-01 1.805967e-01 1.306894e-01 1.543892e-01 1.407737e-02
<GCONST> 6.102080e+01
<MIXTURE> 34 1.942464e-02
<MEAN> 39
 -1.496416e+00 4.157229e+00 -2.692998e+00 -3.563689e+00 -3.587471e+00 -4.022261e+00 -3.291039e+00 -1.545542e+00 -6.217567e-01 -1.455721e+00 -2.806862e+00 -2.356781e+00 2.109947e+01 -6.373790e-01 4.462284e-01 5.753091e-02 1.050354e+00 7.633148e-01 3.796259e-01 5.900310e-01 -1.194221e-01 -1.254141e-02 -3.917530e-01 -1.145408e-01 -1.261875e-01 -1.267164e-01 -9.029374e-02 -4.460253e-02 -1.720669e-01 -1.296383e-01 1.100598e-01 2.914305e-01 4.385393e-02 -3.483578e-02 9.612421e-02 1.046463e-01 6.245894e-02 4.769210e-02 1.070164e-02
<VARIANCE> 39
 2.503442e+01 2.748951e+01 3.967678e+01 4.130810e+01 6.562251e+01 5.099932e+01 4.801055e+01 4.472204e+01 4.819952e+01 4.612877e+01 4.503489e+01 2.910451e+01 3.106435e+00 1.918956e+00 2.139657e+00 3.097145e+00 2.781970e+00 4.297861e+00 3.105381e+00 3.395401e+00 3.213915e+00 3.223530e+00 2.954804e+00 2.864547e+00 2.353871e+00 1.151244e-01 2.035084e-01 2.505642e-01 3.268367e-01 3.678762e-01 4.971533e-01 4.757164e-01 5.041943e-01 5.109076e-01 4.787002e-01 4.650692e-01 4.252082e-01 3.818586e-01 1.122595e-02
<GCONST> 1.122650e+02
<MIXTURE> 35 3.214769e-02
<MEAN> 39
 -3.745654e-01 2.357420e+00 1.634980e+00 5.241344e+00 1.286197e+00 5.136054e+00 7.772813e+00 3.575517e+00 2.145482e+00 6.347880e+00 1.377190e+00 -1.091091e+00 2.356299e+01 -1.351960e-01 -2.044410e-01 -8.321188e-02 -1.393923e-01 -7.362667e-02 8.525046e-03 -6.621426e-02 1.501650e-01 -9.626731e-02 -1.275733e-01 -4.008511e-02 -8.108639e-02 -7.859830e-02 3.424947e-01 2.594145e-01 -3.168829e-01 -1.390354e-01 3.351420e-01 -3.065683e-02 -4.799649e-01 -6.975260e-02 2.534246e-01 -3.910934e-01 3.836706e-02 3.009115e-01 9.394703e-03
<VARIANCE> 39
 5.541492e+00 3.549074e+00 3.751023e+00 5.386046e+00 1.098295e+01 7.524230e+00 1.096119e+01 1.097077e+01 2.085276e+01 8.184758e+00 1.108548e+01 6.579735e+00 7.934976e-01 3.126839e-01 3.727293e-01 4.178378e-01 6.143852e-01 8.332282e-01 7.420847e-01 1.326651e+00 1.265442e+00 1.692472e+00 1.482335e+00 1.252965e+00 1.172955e+00 7.813548e-02 7.503532e-02 6.322454e-02 6.988100e-02 1.163507e-01 1.963838e-01 1.518655e-01 2.804289e-01 2.191818e-01 3.815728e-01 2.138400e-01 3.225003e-01 1.899999e-01 1.193775e-02
<GCONST> 6.515665e+01
<MIXTURE> 36 1.663881e-02
<MEAN> 39
 2.201023e+00 3.273411e+00 -2.721142e+00 2.659829e+00 3.095876e+00 3.391770e+00 1.580287e+00 1.818819e+00 5.054158e+00 6.881336e+00 4.942093e+00 3.030976e+00 2.332075e+01 -1.849935e-01 -3.219290e-01 -2.225678e-01 -1.235600e-01 -2.633085e-01 -3.301310e-01 -2.170603e-01 -5.537401e-01 -6.045424e-01 -4.013788e-01 -2.218555e-01 -8.303655e-02 -2.723605e-01 1.681452e-02 8.968543e-02 2.460544e-01 1.037173e-01 -8.695121e-02 1.842735e-01 3.725577e-01 1.181111e-01 -2.922064e-01 -6.432402e-01 -6.072966e-01 -3.387587e-01 8.517684e-03
<VARIANCE> 39
 3.395545e+00 2.255005e+00 3.975808e+00 5.806633e+00 5.218697e+00 5.811330e+00 9.091387e+00 6.878752e+00 8.328402e+00 1.065821e+01 6.730436e+00 6.993328e+00 8.925619e-01 1.813469e-01 3.061207e-01 4.502919e-01 3.633974e-01 9.681112e-01 6.733412e-01 1.121082e+00 9.629026e-01 9.488242e-01 1.830381e+00 1.472754e+00 1.035394e+00 3.977386e-02 2.643181e-02 4.534635e-02 7.529476e-02 7.522043e-02 1.268448e-01 9.283317e-02 1.965149e-01 1.677086e-01 1.316086e-01 2.577205e-01 1.383739e-01 1.716149e-01 5.769856e-03
<GCONST> 5.328673e+01
~h "eight"
<BEGINHMM>
<NUMSTATES> 18
<STATE> 2
<NUMMIXES> 20
<MIXTURE> 1 2.789369e-02
<MEAN> 39
 1.242087e+00 3.961223e+00 -4.191945e-01 4.245854e+00 3.344927e+00 3.036402e+00 2.618934e+00 1.585510e+00 2.625083e+00 1.565806e+00 -2.624068e-01 -4.495720e-01 2.279375e+01 -6.054358e-03 -4.098488e-02 2.272628e-03 1.220191e-02 1.720339e-01 2.124356e-01 2.354432e-01 2.016882e-01 1.089304e-01 1.487061e-01 2.490904e-01 2.305897e-01 7.793517e-02 5.386566e-02 -4.087292e-03 -5.428675e-02 2.026359e-02 1.989339e-01 3.328656e-01 3.625863e-01 3.254450e-01 2.294396e-01 2.340261e-01 2.754885e-01 2.037518e-01 1.412897e-01
<VARIANCE> 39
 2.388849e+00 2.021020e+00 3.342456e+00 4.493157e+00 6.438279e+00 6.057200e+00 7.245607e+00 7.749356e+00 7.991836e+00 6.022050e+00 8.606529e+00 8.115643e+00 7.065790e-01 1.325333e-01 2.233352e-01 4.701125e-01 4.758884e-01 6.642171e-01 7.647964e-01 8.047235e-01 8.512852e-01 1.001442e+00 1.228663e+00 1.208597e+00 1.032112e+00 3.730153e-02 2.510402e-02 3.206309e-02 8.599763e-02 7.763658e-02 1.064292e-01 1.170575e-01 1.784247e-01 2.040495e-01 1.637951e-01 1.552538e-01 2.253541e-01 2.288065e-01 7.795971e-03
<GCONST> 5.116882e+01
<MIXTURE> 2 6.328005e-02
<MEAN> 39
 -8.192153e+00 6.308777e+00 -3.919537e+00 1.434747e+00 8.018436e+00 2.227815e+00 2.769066e+00 6.896493e-01 3.963065e+00 -3.933264e+00 -4.820657e+00 -4.749594e+00 2.047887e+01 -3.948917e-02 1.840489e-01 1.992227e-01 4.215075e-01 4.008859e-01 5.424732e-01 4.517280e-01 4.907558e-01 4.241971e-01 3.862423e-01 4.953912e-02 1.133370e-01 1.536371e-01 1.642129e-01 -4.152833e-01 -3.745840e-02 -4.421456e-01 -3.299557e-01 -8.854597e-02 9.148789e-03 1.825636e-01 7.223967e-02 2.218683e-01 1.733708e-01 2.762415e-01 -7.092300e-02
<VARIANCE> 39
 4.417925e+00 1.093982e+01 1.459487e+01 1.486333e+01 1.475322e+01 1.927312e+01 2.298052e+01 2.539879e+01 2.618685e+01 2.243157e+01 2.241593e+01 1.599418e+01 2.972297e+00 5.326502e-01 1.027701e+00 1.123156e+00 1.444786e+00 1.635180e+00 1.633463e+00 1.749201e+00 1.861254e+00 2.161636e+00 2.115824e+00 1.948716e+00 1.700578e+00 5.194158e-02 9.245829e-02 1.447981e-01 1.759035e-01 1.728966e-01 2.343607e-01 2.740495e-01 3.757352e-01 4.266636e-01 4.408463e-01 4.133973e-01 4.153724e-01 3.281289e-01 8.164017e-03
<GCONST> 8.722100e+01
<MIXTURE> 3 2.925280e-02
<MEAN> 39
 7.561340e-01 3.726371e+00 -7.796007e-01 3.551032e+00 3.955298e+00 4.517206e+00 4.915861e+00 4.251118e+00 5.259763e+00 4.780154e+00 2.842106e+00 9.916733e-01 2.343519e+01 -7.174905e-02 -1.178980e-01 -6.815024e-02 -7.072932e-02 3.661852e-02 -2.078006e-01 -1.967276e-01 -1.254077e-01 -7.749622e-02 -3.470662e-02 5.054242e-02 1.252704e-01 -3.416019e-02 8.390166e-02 -4.825797e-03 -1.805662e-02 9.318143e-02 1.528518e-01 1.867805e-01 7.668938e-02 -7.344493e-02 -1.732347e-01 -2.078680e-01 -1.796653e-01 3.143003e-03 4.698218e-02
<VARIANCE> 39
 3.633564e+00 3.183115e+00 3.981664e+00 5.905000e+00 7.831612e+00 8.844896e+00 7.902683e+00 7.304918e+00 7.767179e+00 7.570652e+00 6.972858e+00 8.953348e+00 7.059534e-01 1.242758e-01 2.462199e-01 3.829780e-01 6.415724e-01 7.198560e-01 7.802200e-01 1.017471e+00 1.131446e+00 1.148000e+00 1.167868e+00 1.063434e+00 1.123608e+00 3.602571e-02 2.081716e-02 5.321394e-02 9.595588e-02 1.043402e-01 1.250048e-01 1.461671e-01 1.513051e-01 1.726534e-01 1.736892e-01 1.871252e-01 1.595957e-01 1.859338e-01 6.972226e-03
<GCONST> 5.429137e+01
<MIXTURE> 4 5.691223e-02
<MEAN> 39
 -7.628657e+00 2.673491e+00 -5.769057e+00 -2.851343e+00 4.425698e+00 -2.784856e-01 1.479427e+00 4.493469e-01 2.647837e+00 -4.231754e+00 -4.465935e+00 -3.718708e+00 1.958105e+01 -4.428664e-01 7.644208e-01 -2.157975e-01 8.451666e-01 5.374306e-01 1.172959e-01 -1.766216e-01 -3.709282e-01 -4.584881e-02 -4.329415e-01 -4.914924e-01 -7.581751e-01 1.747117e-01 8.996459e-02 1.055369e-01 1.951102e-01 1.892244e-01 2.510318e-01 2.804169e-01 2.414698e-01 2.592575e-01 2.051197e-01 2.681651e-01 1.233394e-01 1.455703e-01 7.716569e-02
<VARIANCE> 39
 9.620496e+00 1.515310e+01 2.385611e+01 2.107827e+01 2.008225e+01 2.154207e+01 2.246039e+01 2.098903e+01 2.326616e+01 2.250727e+01 2.345124e+01 1.653350e+01 3.154713e+00 6.440940e-01 1.196595e+00 1.285873e+00 1.544153e+00 2.060035e+00 1.968405e+00 2.315369e+00 2.567988e+00 2.767678e+00 2.543544e+00 2.284646e+00 1.867816e+00 5.105965e-02 1.104562e-01 1.584514e-01 2.319000e-01 2.372609e-01 2.604377e-01 3.206919e-01 3.238294e-01 3.545741e-01 3.817742e-01 3.650353e-01 3.368206e-01 3.123964e-01 8.438817e-03
<GCONST> 9.192134e+01
<MIXTURE> 5 4.850087e-02
<MEAN> 39
 2.966313e+00 1.475331e+00 -4.887063e+00 -1.561182e+00 1.605379e+00 3.015810e+00 2.209554e+00 2.271772e-01 7.251806e-01 1.066923e+00 2.967930e-03 -4.942392e-01 2.205765e+01 -1.250553e-01 -6.596696e-02 2.985170e-02 1.164768e-01 2.976467e-01 -9.572931e-03 1.564086e-02 6.488690e-02 9.029724e-02 6.180915e-02 8.675636e-02 1.681200e-02 1.387221e-04 7.494923e-02 1.125299e-01 1.668344e-01 2.803375e-01 2.671381e-01 3.243674e-01 3.343408e-01 3.070110e-01 2.781267e-01 2.812841e-01 1.816954e-01 1.962545e-01 1.715322e-01
<VARIANCE> 39
 3.386362e+00 3.730614e+00 6.076839e+00 8.489038e+00 1.058987e+01 1.226082e+01 1.178902e+01 1.347021e+01 1.379835e+01 1.240054e+01 1.028939e+01 1.297211e+01 1.135803e+00 1.971935e-01 3.156996e-01 4.740537e-01 7.269564e-01 1.039748e+00 1.042289e+00 1.048025e+00 1.354926e+00 1.406585e+00 1.316158e+00 1.063373e+00 1.267429e+00 5.684688e-02 3.238041e-02 5.274261e-02 8.933435e-02 1.273801e-01 1.775723e-01 2.196150e-01 2.146766e-01 2.626514e-01 2.681671e-01 2.385265e-01 2.383510e-01 2.456432e-01 8.111856e-03
<GCONST> 6.552042e+01
<MIXTURE> 6 7.000767e-02
<MEAN> 39
 -7.534824e+00 2.142509e+00 -4.997966e+00 -1.191920e+00 6.389610e+00 1.811265e+00 3.069335e+00 3.865128e+00 6.874506e+00 1.098009e+00 -1.650428e+00 -2.275755e+00 1.972092e+01 1.741873e-01 2.164128e-02 2.030226e-01 2.185698e-01 3.389484e-01 4.162614e-01 4.750932e-01 3.640792e-01 1.233177e-01 1.592009e-01 1.326244e-01 1.681672e-01 7.717503e-02 1.296529e-03 3.563408e-03 -6.855376e-04 -6.430540e-02 -1.002842e-01 -7.528875e-02 -4.738619e-02 -1.354284e-01 -2.667287e-01 -3.572437e-01 -1.744383e-01 -2.916504e-02 -1.475701e-02
<VARIANCE> 39
 7.349899e+00 1.650453e+01 1.941513e+01 1.685724e+01 2.607696e+01 2.040203e+01 2.324990e+01 2.744742e+01 1.865383e+01 2.010388e+01 2.012007e+01 1.481010e+01 2.725606e+00 1.176888e-01 2.933860e-01 4.374079e-01 6.201124e-01 8.131077e-01 9.773436e-01 9.999260e-01 1.237196e+00 1.290218e+00 1.381584e+00 1.283618e+00 1.085389e+00 1.106717e-02 2.894218e-02 6.194362e-02 1.005168e-01 1.295939e-01 1.836706e-01 2.153307e-01 2.259475e-01 2.684950e-01 2.029615e-01 2.105541e-01 2.164990e-01 1.816800e-01 3.052762e-03
<GCONST> 7.046896e+01
<MIXTURE> 7 4.154050e-02
<MEAN> 39
 1.159165e+00 2.178858e+00 -3.231325e+00 -1.967653e+00 6.005855e+00 5.071291e+00 2.779175e+00 3.866913e+00 2.683434e+00 2.035644e+00 1.191869e+00 -1.296236e+00 2.238101e+01 -8.583932e-01 -2.937061e-01 6.541216e-01 1.906366e-01 1.230908e+00 -1.550771e-01 -1.016366e-01 6.051303e-01 5.943298e-01 5.999113e-02 3.227160e-01 7.970811e-02 1.051663e-01 -9.800741e-03 -5.733211e-02 -1.027971e-02 1.353498e-01 -2.031697e-01 -1.055074e-01 1.884768e-02 -2.106514e-01 -2.362665e-03 6.145003e-02 -5.586086e-03 2.117122e-01 2.794497e-02
<VARIANCE> 39
 5.180288e+00 7.247680e+00 1.155058e+01 1.508231e+01 1.652022e+01 1.722822e+01 1.858152e+01 1.403913e+01 1.831786e+01 1.461092e+01 1.692884e+01 1.730203e+01 1.424784e+00 5.397863e-01 7.454776e-01 1.081381e+00 1.663439e+00 1.570508e+00 1.773435e+00 1.739829e+00 1.567285e+00 1.820307e+00 1.812804e+00 1.887464e+00 1.827383e+00 5.298262e-02 8.809116e-02 8.869022e-02 1.724366e-01 2.594904e-01 2.745411e-01 2.646253e-01 3.161931e-01 2.458894e-01 3.314469e-01 2.672825e-01 3.148469e-01 3.013896e-01 9.900290e-03
<GCONST> 8.197107e+01
<MIXTURE> 8 2.150691e-02
<MEAN> 39
 -6.250765e+00 -2.812844e+00 -7.034244e+00 -2.514824e+00 -1.131682e+00 -6.536863e-01 -2.276065e+00 -1.358646e+00 -3.030323e-01 4.493471e-01 1.858929e+00 2.120094e+00 1.485116e+01 -6.686332e-01 -1.264333e+00 -1.148673e-01 -4.881881e-01 9.358121e-01 -1.653240e-02 -9.539066e-02 1.256349e-01 2.465921e-01 -3.270463e-01 -1.906602e-01 -3.217117e-01 1.763285e-01 -2.382594e-01 -3.620158e-01 -7.199014e-02 -9.755339e-02 2.690664e-01 2.802894e-02 6.662839e-02 4.602201e-02 2.831752e-02 -1.169429e-01 -1.283503e-01 -5.140149e-02 8.862995e-02
<VARIANCE> 39
 7.960752e+00 1.737138e+01 9.850140e+00 1.347110e+01 1.725551e+01 1.996503e+01 1.706716e+01 1.924129e+01 2.022583e+01 1.587850e+01 1.509545e+01 1.446994e+01 1.000980e+00 1.099034e+00 1.994116e+00 1.045890e+00 1.653169e+00 2.117274e+00 1.965693e+00 2.125992e+00 1.995144e+00 1.999011e+00 1.975973e+00 1.814337e+00 1.702877e+00 5.278702e-02 1.753558e-01 2.680754e-01 1.656639e-01 2.605244e-01 3.694851e-01 3.154607e-01 3.741176e-01 3.400891e-01 3.536686e-01 3.105474e-01 3.432010e-01 2.822015e-01 8.771236e-03
<GCONST> 8.836262e+01
<MIXTURE> 9 5.669870e-02
<MEAN> 39
 -6.472373e+00 3.718445e+00 -1.883860e+00 -2.148961e+00 5.792134e+00 1.621471e+00 3.923851e+00 1.005792e+00 1.795922e+00 -1.926160e+00 -9.467220e-01 4.131327e-01 1.967885e+01 1.035183e-01 -4.579234e-02 1.370575e-01 -2.937293e-02 5.952777e-02 4.116782e-02 -8.642472e-02 -9.584411e-02 -4.391826e-02 1.045977e-01 1.463646e-01 1.607361e-01 -1.034232e-02 -5.126724e-02 -4.249161e-02 -1.867071e-01 2.106883e-02 4.703198e-02 -1.982865e-02 -1.073955e-01 7.005545e-02 2.411295e-01 -1.719865e-02 -3.450190e-01 -3.899851e-01 -1.190513e-02
<VARIANCE> 39
 4.493816e+00 9.974705e+00 1.145759e+01 1.925998e+01 2.031163e+01 1.732407e+01 2.234743e+01 2.546637e+01 1.566190e+01 1.850180e+01 1.860363e+01 1.268480e+01 2.889717e+00 1.301381e-01 3.148784e-01 4.842454e-01 6.416536e-01 9.721017e-01 1.017898e+00 1.198245e+00 1.270649e+00 1.246418e+00 1.351030e+00 1.563530e+00 1.398753e+00 1.108626e-02 2.691553e-02 5.764203e-02 8.821938e-02 1.353724e-01 1.727171e-01 1.773606e-01 1.908252e-01 2.527622e-01 1.967917e-01 1.910048e-01 1.976591e-01 1.627069e-01 2.885542e-03
<GCONST> 6.814614e+01
<MIXTURE> 10 5.372582e-02
<MEAN> 39
 -3.752363e+00 7.701157e-01 -3.089313e+00 1.576730e+00 7.815632e+00 3.385098e+00 5.253150e+00 4.339427e+00 1.242257e+00 -4.415858e+00 -3.267770e+00 -2.427627e-01 2.187457e+01 -4.643115e-01 -5.875087e-01 -4.202164e-01 6.171060e-01 1.226160e+00 1.254950e-01 -3.634289e-01 -1.840429e-01 -2.345195e-01 -6.519084e-01 9.416448e-02 4.602276e-02 -9.063087e-02 -3.948787e-03 1.853672e-01 -2.944760e-02 -3.042267e-01 -4.242437e-01 -2.182838e-01 -3.114821e-01 -2.897730e-01 2.317850e-01 5.622765e-01 2.818356e-01 -1.256806e-01 9.161599e-03
<VARIANCE> 39
 1.306694e+01 1.687947e+01 1.835108e+01 2.082506e+01 2.621852e+01 3.227296e+01 2.719970e+01 2.556480e+01 2.581276e+01 2.002292e+01 2.236933e+01 2.442539e+01 2.497138e+00 4.452352e-01 8.251290e-01 9.981017e-01 1.333327e+00 2.324204e+00 2.195267e+00 1.883189e+00 2.337131e+00 2.244852e+00 1.946701e+00 2.000373e+00 1.591462e+00 3.827560e-02 7.123074e-02 1.155469e-01 1.730016e-01 2.161422e-01 2.928081e-01 3.861019e-01 3.489184e-01 3.590373e-01 3.412226e-01 2.785658e-01 3.480235e-01 2.981365e-01 7.141832e-03
<GCONST> 8.963223e+01
<MIXTURE> 11 8.006280e-02
<MEAN> 39
 -6.436855e+00 2.258349e+00 -3.843080e+00 -2.044013e+00 6.740033e+00 1.963726e-01 1.858531e+00 1.734511e+00 4.356167e+00 -4.252089e+00 -7.673455e+00 -4.806345e+00 1.920806e+01 1.483805e-01 -4.335320e-02 1.303736e-01 8.018465e-02 2.070084e-01 1.257072e-01 1.574387e-01 9.038092e-02 -4.652238e-03 3.265599e-02 1.036052e-01 1.410146e-01 1.740564e-02 -3.973504e-02 4.510060e-02 2.478749e-02 5.278311e-02 1.343489e-02 1.300895e-01 1.184230e-01 -1.689876e-02 -2.994094e-02 1.383806e-01 3.424903e-01 1.902779e-01 2.343607e-02
<VARIANCE> 39
 4.175332e+00 1.087427e+01 1.920054e+01 1.801055e+01 2.136258e+01 1.839690e+01 1.905432e+01 2.028666e+01 2.628722e+01 1.938198e+01 1.617439e+01 1.523208e+01 1.718821e+00 1.147031e-01 2.583432e-01 4.135662e-01 5.982541e-01 7.324683e-01 7.556294e-01 1.041083e+00 1.149911e+00 1.200532e+00 1.140072e+00 1.405469e+00 1.081050e+00 1.027420e-02 2.004095e-02 5.088353e-02 8.771725e-02 1.186880e-01 1.602677e-01 1.572345e-01 1.922840e-01 2.247457e-01 2.060772e-01 1.847627e-01 2.312348e-01 1.956369e-01 2.358860e-03
<GCONST> 6.568941e+01
<MIXTURE> 12 7.746504e-02
<MEAN> 39
 -7.089979e+00 2.826080e+00 -4.527668e+00 -3.993506e-01 7.471847e+00 2.268386e+00 3.019295e+00 3.603401e+00 8.319633e+00 9.405370e-01 -2.578391e+00 -2.765036e+00 1.974489e+01 -1.031446e-01 -3.388687e-01 -2.332843e-01 -3.815179e-01 -4.825443e-01 -4.384319e-01 -3.534992e-01 -1.760717e-01 -1.392014e-01 6.670027e-02 4.033560e-02 3.803448e-02 -1.514895e-01 -2.729124e-02 -4.603165e-02 -4.663223e-02 -1.166222e-01 -1.453788e-01 -1.130555e-01 -8.445699e-02 -1.793242e-01 -3.972135e-01 -3.632388e-01 -1.005335e-01 -1.047637e-02 -3.642521e-02
<VARIANCE> 39
 6.407237e+00 1.236004e+01 1.553236e+01 1.597379e+01 2.024822e+01 2.073089e+01 2.423122e+01 2.198104e+01 2.003501e+01 1.663932e+01 2.412390e+01 2.150849e+01 2.037143e+00 2.159622e-01 4.120055e-01 5.748039e-01 7.777268e-01 1.110588e+00 1.204024e+00 1.209365e+00 1.620653e+00 1.583681e+00 1.553972e+00 1.408332e+00 1.303434e+00 1.704310e-02 4.371776e-02 7.291292e-02 1.063435e-01 1.294999e-01 2.195486e-01 2.315967e-01 2.709303e-01 2.853287e-01 2.225544e-01 2.113892e-01 2.612987e-01 2.548689e-01 5.271242e-03
<GCONST> 7.524409e+01
<MIXTURE> 13 4.219461e-02
<MEAN> 39
 4.486475e+00 2.566197e+00 -5.156620e+00 -1.123557e+00 2.253609e+00 5.452909e+00 4.173914e+00 1.351552e+00 1.861130e+00 2.297524e+00 1.068487e+00 7.103188e-01 2.268752e+01 -4.476794e-01 -3.278238e-01 1.701120e-01 -2.717892e-01 3.944589e-01 -2.569615e-01 -3.374703e-01 -1.200573e-01 -1.116839e-01 -3.208619e-01 -7.596882e-02 -1.154025e-01 -1.254985e-01 -2.123187e-01 -1.170524e-01 1.943440e-01 1.084869e-01 1.902086e-01 -3.224623e-02 3.881833e-04 1.433431e-01 1.165629e-01 5.055416e-02 1.740359e-02 2.312838e-02 2.622430e-02
<VARIANCE> 39
 2.084020e+00 3.248059e+00 4.974330e+00 5.826858e+00 6.762086e+00 8.599228e+00 9.330422e+00 9.676596e+00 1.046106e+01 9.665847e+00 9.137214e+00 1.083992e+01 1.452971e+00 4.510356e-01 5.736133e-01 8.073502e-01 9.348109e-01 1.166273e+00 1.292040e+00 1.267310e+00 1.639979e+00 1.663475e+00 1.245397e+00 1.383202e+00 1.540480e+00 5.430058e-02 7.546365e-02 1.014272e-01 1.307682e-01 1.490443e-01 1.784856e-01 2.151565e-01 2.265421e-01 2.169992e-01 2.683560e-01 2.513612e-01 2.021709e-01 2.462662e-01 8.116682e-03
<GCONST> 6.759479e+01
<MIXTURE> 14 3.420966e-02
<MEAN> 39
 -7.212609e-01 3.103318e+00 -1.008394e+00 1.264417e+00 6.851263e+00 4.789376e+00 4.358488e+00 5.025783e+00 4.439871e+00 3.909671e+00 3.586380e+00 1.107751e+00 2.354726e+01 -7.227199e-01 -5.365845e-01 2.498122e-01 -3.934273e-02 6.553219e-01 -3.088317e-01 -4.902627e-01 -2.002144e-01 -4.942793e-02 -2.205567e-01 -1.181360e-01 -1.587671e-01 -6.221087e-02 7.801838e-02 -1.319946e-01 -2.685809e-01 -5.198758e-02 -2.207140e-01 -3.669159e-02 -1.205592e-01 -3.725592e-01 -2.388282e-01 -3.377692e-01 -4.271016e-01 -1.551636e-01 -9.055292e-02
<VARIANCE> 39
 8.914276e+00 1.335242e+01 1.749256e+01 1.831117e+01 1.843236e+01 2.284161e+01 1.803551e+01 1.926410e+01 1.694993e+01 1.874137e+01 1.603928e+01 1.793311e+01 1.096699e+00 7.012979e-01 8.419472e-01 1.111209e+00 1.308641e+00 1.785757e+00 1.718084e+00 1.892164e+00 1.775374e+00 1.832765e+00 1.811157e+00 1.558531e+00 1.364578e+00 6.137911e-02 1.069336e-01 1.232947e-01 2.154254e-01 2.088215e-01 3.023546e-01 3.215111e-01 3.049851e-01 3.080070e-01 2.831881e-01 2.847413e-01 2.607786e-01 2.323721e-01 8.842085e-03
<GCONST> 8.480247e+01
<MIXTURE> 15 3.442739e-02
<MEAN> 39
 -4.874758e+00 -1.283265e+00 -6.569953e+00 -3.363728e+00 5.503441e+00 2.043864e+00 -1.176039e+00 -1.786595e+00 -8.408802e-01 -3.666554e+00 -3.324442e+00 -2.576432e+00 1.936972e+01 -1.248428e+00 -1.343166e+00 -5.336803e-01 7.651487e-01 1.943775e+00 4.294267e-01 -3.403873e-01 2.738861e-01 3.641607e-01 -1.291821e-01 5.484439e-01 2.747580e-01 -2.648363e-01 9.529281e-02 4.523422e-02 3.083632e-02 -2.937304e-01 -5.155493e-01 -3.259251e-01 -1.208494e-01 -4.196424e-02 -1.014130e-02 6.256163e-02 -5.117288e-02 -7.997877e-02 7.357871e-02
<VARIANCE> 39
 1.244673e+01 2.848214e+01 2.421370e+01 2.733484e+01 3.547123e+01 5.063084e+01 4.765605e+01 3.659569e+01 5.055807e+01 5.162949e+01 4.237930e+01 3.071783e+01 1.876400e+00 8.140734e-01 1.237370e+00 2.111919e+00 2.290993e+00 2.948894e+00 2.838022e+00 2.815478e+00 3.319601e+00 2.934718e+00 2.847298e+00 2.343099e+00 2.247597e+00 5.222956e-02 1.041299e-01 1.854628e-01 2.523653e-01 2.743773e-01 3.875816e-01 3.724384e-01 5.306922e-01 4.402577e-01 5.206850e-01 4.729871e-01 5.484430e-01 3.678991e-01 6.516609e-03
<GCONST> 1.034020e+02
<MIXTURE> 16 8.526155e-02
<MEAN> 39
 -8.066553e+00 1.895995e-01 -6.481663e+00 -4.293498e+00 3.103999e+00 -1.271639e+00 4.541685e-01 2.340662e+00 4.949679e+00 -8.361524e-01 -8.251379e-01 -3.315196e-01 1.891222e+01 -6.940830e-02 -2.171448e-01 -1.187626e-01 -1.268647e-01 -1.359533e-01 -7.909211e-02 -8.710659e-02 -1.025114e-01 -1.200558e-01 -7.381917e-02 5.040170e-02 9.377570e-03 -4.207441e-02 5.814518e-02 1.623024e-01 9.766573e-02 2.677526e-01 3.037926e-01 3.225525e-01 2.199464e-01 7.659317e-04 -9.014387e-02 -1.621150e-01 -2.370229e-01 -1.594082e-01 7.351467e-02
<VARIANCE> 39
 7.304709e+00 1.602341e+01 1.589540e+01 1.974018e+01 2.318166e+01 1.893503e+01 3.000143e+01 3.403656e+01 2.807600e+01 2.234405e+01 2.242560e+01 2.638753e+01 2.607101e+00 2.510710e-01 6.030553e-01 6.977814e-01 8.611394e-01 1.122407e+00 1.257169e+00 1.574434e+00 1.788315e+00 1.841619e+00 1.812503e+00 1.776192e+00 1.667125e+00 2.510540e-02 4.434497e-02 9.736199e-02 1.264632e-01 1.564435e-01 1.906450e-01 2.055064e-01 2.743925e-01 3.518100e-01 3.538283e-01 3.427860e-01 3.095084e-01 3.507805e-01 4.752940e-03
<GCONST> 8.194863e+01
<MIXTURE> 17 6.998416e-02
<MEAN> 39
 -7.627411e+00 3.464064e+00 -3.603945e+00 -1.923102e+00 5.764188e+00 2.688340e+00 3.911054e+00 1.771934e+00 2.319380e+00 -5.305582e+00 -5.826195e+00 -4.099022e+00 1.933360e+01 -4.926230e-02 -2.281569e-01 -1.051636e-01 -2.411841e-01 -3.349176e-01 -3.454784e-01 -2.992797e-01 -2.208559e-01 -1.631765e-01 -1.423232e-01 -8.172607e-02 -5.790203e-02 -1.150081e-01 -3.261170e-03 -3.608032e-02 -6.402463e-02 -3.071963e-03 -1.450716e-02 -1.230103e-01 -9.593470e-02 5.092545e-02 2.500500e-01 2.800151e-01 2.327557e-01 1.520444e-01 6.230409e-03
<VARIANCE> 39
 6.263833e+00 1.179005e+01 1.593709e+01 1.440482e+01 1.636156e+01 1.799893e+01 3.476568e+01 3.671642e+01 1.711331e+01 1.611538e+01 1.648219e+01 1.290901e+01 1.708146e+00 1.596217e-01 3.292565e-01 5.872688e-01 8.035925e-01 9.155061e-01 1.148142e+00 1.650283e+00 1.627076e+00 1.426960e+00 1.392563e+00 1.432262e+00 1.171396e+00 1.832681e-02 3.144438e-02 5.773517e-02 9.991944e-02 1.382207e-01 1.708751e-01 1.807256e-01 2.735650e-01 3.014306e-01 2.051306e-01 2.197051e-01 1.980945e-01 1.863394e-01 2.992273e-03
<GCONST> 7.153612e+01
<MIXTURE> 18 4.462723e-02
<MEAN> 39
 -7.162836e+00 -1.706314e+00 -7.994138e+00 -4.655119e+00 6.528920e+00 3.628195e+00 6.970306e+00 5.005487e+00 1.262146e+00 -5.534082e+00 -3.351702e+00 9.200966e-01 1.983823e+01 1.670982e-02 8.349913e-03 -3.409928e-02 -1.814983e-01 -1.166979e-01 -9.474450e-02 -3.363350e-02 7.369059e-02 2.569494e-02 -1.894031e-01 -1.417999e-01 -1.608840e-01 -1.803255e-02 -2.928813e-02 1.158556e-01 8.867315e-02 1.202001e-01 -7.897733e-02 -3.196177e-01 -4.128560e-01 -2.322614e-01 1.483303e-01 1.887638e-01 -5.565915e-02 -2.536593e-01 -1.325142e-02
<VARIANCE> 39
 3.152838e+00 1.578861e+01 1.607460e+01 2.067616e+01 2.564791e+01 1.412831e+01 2.298112e+01 2.059382e+01 2.473997e+01 1.921941e+01 2.322427e+01 1.422725e+01 3.115492e+00 1.908239e-01 5.160333e-01 7.115809e-01 1.081896e+00 1.159279e+00 1.337758e+00 1.481006e+00 1.514837e+00 1.542867e+00 1.603547e+00 1.718024e+00 1.401802e+00 1.773719e-02 2.855673e-02 8.130728e-02 9.423570e-02 1.877615e-01 2.111990e-01 1.947605e-01 2.144816e-01 2.338839e-01 2.517046e-01 2.557760e-01 3.005840e-01 2.297841e-01 3.286494e-03
<GCONST> 7.554755e+01
<MIXTURE> 19 3.231107e-02
<MEAN> 39
 1.175011e+00 3.566022e+00 -9.726290e-01 2.437906e+00 6.142890e+00 2.755270e+00 1.483305e+00 4.136280e+00 5.215554e+00 3.689292e+00 1.080496e+00 -1.203529e+00 2.354614e+01 -3.316655e-01 -2.884110e-01 -1.859640e-02 -7.583594e-02 1.543877e-01 -3.066373e-01 -6.166832e-01 -4.828351e-01 -2.684290e-01 -3.141031e-01 -1.155044e-01 -3.088121e-01 -1.594460e-01 4.176908e-02 -1.537367e-01 -2.250673e-01 -7.706871e-02 -1.366113e-01 3.232207e-01 3.566412e-01 -1.487985e-01 -3.377122e-01 -1.784180e-01 2.958663e-02 2.490777e-01 -2.129291e-02
<VARIANCE> 39
 4.846982e+00 5.413064e+00 8.386441e+00 1.243956e+01 1.360616e+01 1.229486e+01 1.157064e+01 1.430966e+01 1.295987e+01 1.188327e+01 1.139542e+01 1.335641e+01 7.389518e-01 2.209984e-01 3.704365e-01 4.839742e-01 7.075464e-01 1.074324e+00 1.009421e+00 1.260978e+00 1.302432e+00 1.458337e+00 1.246128e+00 1.084853e+00 1.206337e+00 5.081271e-02 3.465509e-02 6.821208e-02 1.066965e-01 1.434612e-01 2.064075e-01 1.855287e-01 2.229004e-01 2.704539e-01 2.467173e-01 2.099911e-01 2.237839e-01 2.424908e-01 8.359102e-03
<GCONST> 6.751374e+01
<MIXTURE> 20 3.013907e-02
<MEAN> 39
 1.591877e+00 3.021655e+00 -1.605396e+00 3.695770e+00 5.045992e+00 5.086001e+00 4.023582e+00 1.701716e+00 9.165756e-01 -7.700657e-01 -1.240426e+00 -5.713817e-01 2.313838e+01 -1.248581e-01 -1.450123e-01 -1.699699e-02 -7.630207e-02 3.158469e-03 -1.128729e-01 -3.260536e-01 -3.605756e-01 -3.014944e-01 -2.788758e-01 -3.708609e-02 1.113086e-01 -1.130206e-01 4.202178e-02 8.006789e-03 -5.120973e-02 -1.268846e-01 -1.231236e-01 2.633981e-02 1.423839e-01 2.404253e-01 4.082181e-01 5.439659e-01 3.969961e-01 2.069885e-01 6.261692e-02
<VARIANCE> 39
 4.696098e+00 3.391621e+00 4.894744e+00 8.563166e+00 8.176824e+00 9.918630e+00 9.203569e+00 9.999931e+00 1.067588e+01 7.776814e+00 7.390629e+00 1.147997e+01 8.618898e-01 1.220918e-01 2.846953e-01 4.553263e-01 6.621857e-01 8.147684e-01 8.300319e-01 9.798514e-01 1.088639e+00 1.199151e+00 1.138487e+00 1.021357e+00 9.429265e-01 4.270678e-02 2.053295e-02 5.068640e-02 9.488855e-02 1.152005e-01 1.449510e-01 1.718268e-01 1.733560e-01 2.034596e-01 2.117496e-01 1.503757e-01 1.379198e-01 2.629213e-01 7.905647e-03
<GCONST> 5.802013e+01
<STATE> 3
<NUMMIXES> 20
<MIXTURE> 1 4.148832e-02
<MEAN> 39
 1.148726e+00 3.925244e+00 -6.606910e-01 4.107127e+00 3.848074e+00 4.782046e+00 5.071872e+00 3.257407e+00 3.600318e+00 3.253842e+00 1.678072e+00 1.018603e+00 2.347801e+01 1.030564e-01 5.606771e-02 3.090460e-02 1.858000e-01 4.245651e-01 5.203018e-01 5.722414e-01 5.338433e-01 4.129194e-01 4.365874e-01 3.975225e-01 3.052919e-01 2.365572e-01 4.668110e-02 -4.958751e-03 -5.180252e-02 1.891103e-02 9.928920e-02 1.000668e-01 6.912408e-02 1.086347e-01 1.199006e-01 2.452028e-02 -6.540786e-02 -5.314606e-02 5.097172e-02
<VARIANCE> 39
 2.628807e+00 2.356059e+00 3.852737e+00 5.731475e+00 7.285067e+00 6.996977e+00 7.717800e+00 7.498412e+00 1.001086e+01 9.133486e+00 7.757098e+00 8.758772e+00 6.066406e-01 1.303509e-01 2.195025e-01 4.816855e-01 5.873619e-01 6.934532e-01 9.225147e-01 8.513750e-01 1.178752e+00 1.056086e+00 1.133759e+00 1.119755e+00 1.169576e+00 4.997463e-02 2.409337e-02 4.736792e-02 9.478434e-02 1.062929e-01 1.337336e-01 1.420173e-01 1.615004e-01 1.932886e-01 2.090741e-01 2.096488e-01 1.829765e-01 1.903240e-01 5.905621e-03
<GCONST> 5.459293e+01
<MIXTURE> 2 4.780370e-02
<MEAN> 39
 -7.556177e+00 5.664421e+00 -4.362014e+00 1.782627e+00 7.122912e+00 -2.348505e-01 -1.354740e+00 -3.341551e+00 3.215984e-01 -7.466681e+00 -7.521809e+00 -6.926387e+00 2.253064e+01 -5.466525e-02 4.409901e-01 3.857594e-01 6.040529e-01 6.428193e-01 2.251906e-01 3.360686e-01 -4.072811e-01 -3.422655e-01 -2.773924e-01 -1.944529e-01 -3.290421e-01 2.058306e-01 6.717962e-02 -1.733936e-01 6.048100e-02 -2.538918e-01 -2.793101e-01 4.483794e-01 4.849580e-01 6.382834e-01 6.820105e-01 9.004790e-01 8.103867e-01 4.189264e-01 -7.323079e-02
<VARIANCE> 39
 1.321063e+01 1.422180e+01 1.494818e+01 1.346698e+01 1.767900e+01 2.073977e+01 2.081049e+01 2.482045e+01 2.187147e+01 2.572313e+01 2.093607e+01 1.841327e+01 1.904195e+00 8.467092e-01 1.226134e+00 1.406818e+00 1.415266e+00 2.332772e+00 2.431380e+00 2.542196e+00 2.734115e+00 3.341975e+00 3.218901e+00 2.774478e+00 2.065312e+00 8.744275e-02 1.517206e-01 2.291333e-01 2.713807e-01 2.786542e-01 3.478374e-01 4.018693e-01 3.722144e-01 4.557905e-01 4.425282e-01 4.241340e-01 4.094023e-01 3.956650e-01 1.096215e-02
<GCONST> 9.569627e+01
<MIXTURE> 3 5.520182e-02
<MEAN> 39
 -5.516085e+00 5.859639e+00 -1.287144e+00 4.148245e+00 9.197173e+00 4.995304e+00 3.804356e+00 3.230813e+00 6.743296e+00 -7.156359e-02 -2.819065e+00 -4.745540e+00 2.303213e+01 5.173895e-02 -3.343728e-01 2.503083e-01 1.076007e-01 2.445652e-01 5.815075e-01 6.623256e-01 7.931912e-01 6.656064e-01 6.296011e-01 5.670490e-01 2.771680e-01 1.127745e-01 2.319372e-02 -2.153970e-01 -3.293802e-01 -4.256984e-01 -4.768385e-01 -2.087094e-01 -2.022359e-01 -8.711965e-02 -2.090115e-01 -7.714970e-03 1.647879e-01 1.322050e-01 -1.104469e-01
<VARIANCE> 39
 1.048522e+01 1.600865e+01 1.630105e+01 1.647320e+01 2.488511e+01 2.732502e+01 2.768152e+01 2.622857e+01 2.306068e+01 2.653109e+01 2.175353e+01 2.124941e+01 1.770179e+00 6.351314e-01 1.173014e+00 1.234126e+00 1.244363e+00 1.780552e+00 1.907071e+00 2.000027e+00 2.548555e+00 2.426348e+00 2.274206e+00 2.157954e+00 1.773953e+00 5.453260e-02 1.036668e-01 1.917490e-01 2.044877e-01 1.804557e-01 2.935927e-01 3.141735e-01 4.088947e-01 4.134451e-01 4.297841e-01 3.830366e-01 3.485670e-01 2.889051e-01 8.822137e-03
<GCONST> 9.154512e+01
<MIXTURE> 4 2.169122e-02
<MEAN> 39
 -8.755883e+00 1.271829e+01 -5.057857e+00 9.274219e+00 5.802734e+00 8.504590e+00 6.903976e+00 4.219076e+00 7.590274e+00 3.282002e+00 1.665597e+00 2.119342e+00 2.240545e+01 3.318979e-01 -1.358145e-01 1.809851e-01 -1.046523e-01 -1.146824e-01 9.952006e-02 2.880650e-02 2.026701e-03 -1.136581e-01 -5.091465e-02 -3.283204e-02 2.505597e-01 -2.139424e-02 7.655642e-02 -1.807507e-01 5.146047e-02 -1.342870e-01 1.107196e-01 -1.049726e-01 -1.332355e-01 1.635322e-02 -4.212139e-03 -1.157093e-01 -7.034042e-02 -5.439142e-02 -8.663673e-03
<VARIANCE> 39
 1.677623e+01 3.342429e+01 1.293249e+01 2.049925e+01 1.824288e+01 1.440912e+01 1.246753e+01 1.863018e+01 1.744305e+01 1.576070e+01 1.630520e+01 3.194287e+01 2.496867e+00 5.431712e-01 7.150821e-01 6.833110e-01 7.721432e-01 8.998958e-01 9.201407e-01 1.001827e+00 1.354727e+00 1.108396e+00 1.006144e+00 9.895185e-01 1.044587e+00 8.871429e-03 1.370795e-01 1.419605e-01 1.486950e-01 1.493549e-01 1.802231e-01 2.197562e-01 1.969142e-01 2.573146e-01 2.160309e-01 1.898590e-01 1.872691e-01 2.219543e-01 1.698986e-03
<GCONST> 7.463195e+01
<MIXTURE> 5 6.209329e-02
<MEAN> 39
 -6.337679e+00 2.775272e+00 -6.413153e+00 -1.208503e+00 8.169843e+00 8.005145e+00 4.822680e+00 4.348456e+00 7.445976e+00 -3.824439e+00 -5.642656e+00 -5.940005e+00 2.199004e+01 1.602176e-01 -4.274863e-02 1.272822e-02 -4.078236e-02 6.237515e-02 2.652324e-01 3.231546e-01 2.367043e-01 3.180324e-01 3.829321e-01 4.115848e-02 4.930053e-02 1.560622e-02 -2.483726e-03 1.219640e-01 1.198440e-01 1.592672e-01 -1.036987e-01 -3.620674e-01 -2.928734e-01 -3.095940e-01 -1.402632e-01 2.285546e-01 3.472781e-01 2.477493e-01 7.480587e-03
<VARIANCE> 39
 9.604683e+00 2.128514e+01 1.878041e+01 2.120368e+01 2.276596e+01 2.883484e+01 2.903805e+01 3.698351e+01 3.407766e+01 2.387238e+01 2.261228e+01 2.134752e+01 1.884073e+00 2.671494e-01 6.537917e-01 6.783413e-01 9.693227e-01 1.614942e+00 1.919742e+00 1.656894e+00 2.225938e+00 2.016053e+00 2.039153e+00 1.966922e+00 1.669141e+00 2.223850e-02 5.371496e-02 1.155126e-01 1.284213e-01 1.630759e-01 2.322039e-01 2.486206e-01 2.940735e-01 3.797914e-01 3.678965e-01 3.024280e-01 2.976846e-01 3.206872e-01 4.582702e-03
<GCONST> 8.511079e+01
<MIXTURE> 6 5.186103e-02
<MEAN> 39
 -6.920406e+00 2.200340e+00 -6.587745e+00 -2.109697e+00 2.519371e+00 1.170952e+00 -7.599707e-01 1.395416e+00 4.781288e+00 -1.300557e+00 -1.702723e+00 -3.923569e+00 2.118427e+01 6.052009e-03 4.003001e-01 1.031484e-01 4.762357e-01 7.540944e-01 -3.226670e-02 6.028834e-02 -3.185905e-01 -4.461874e-01 -1.059268e+00 -1.107525e+00 -6.173481e-01 2.525338e-01 2.950021e-02 2.395724e-01 2.778228e-01 3.583157e-01 4.196587e-01 2.768452e-01 2.452977e-01 -7.063107e-02 -5.849792e-02 -7.803519e-02 -5.434921e-02 1.240210e-02 8.950367e-02
<VARIANCE> 39
 1.292121e+01 2.341771e+01 2.746176e+01 2.540317e+01 3.549384e+01 3.602321e+01 3.207188e+01 3.083624e+01 3.505433e+01 3.062788e+01 2.779123e+01 2.819203e+01 2.311962e+00 9.705757e-01 1.812603e+00 1.978063e+00 2.029449e+00 3.294257e+00 3.232116e+00 3.239127e+00 3.534935e+00 3.410764e+00 3.789845e+00 3.040862e+00 2.211210e+00 9.794164e-02 1.261105e-01 1.864428e-01 3.009811e-01 2.701812e-01 4.767248e-01 4.435293e-01 4.156918e-01 4.582976e-01 4.958746e-01 4.993968e-01 4.767027e-01 3.789206e-01 1.213972e-02
<GCONST> 1.043780e+02
<MIXTURE> 7 3.617818e-02
<MEAN> 39
 -5.926824e+00 3.780710e+00 -4.633853e+00 -8.153098e-01 2.713395e+00 2.268298e+00 3.427799e+00 3.882287e+00 1.092389e+01 7.419383e+00 3.873365e+00 -1.259489e+00 2.216824e+01 1.354174e-01 -1.554488e-01 2.738386e-01 1.688339e-01 -1.200982e-02 1.785963e-01 -2.317615e-02 5.535549e-02 1.656341e-01 2.026958e-01 1.637725e-01 2.217919e-01 3.299750e-03 4.336660e-02 4.679374e-02 7.519210e-02 1.621803e-01 1.899865e-01 7.930943e-02 -1.567328e-01 -2.583451e-01 -5.312529e-01 -6.885083e-01 -5.077744e-01 -1.593167e-01 1.032049e-03
<VARIANCE> 39
 1.622070e+01 1.392135e+01 1.882557e+01 1.643206e+01 4.152556e+01 2.224639e+01 2.762818e+01 3.008976e+01 3.118804e+01 3.046188e+01 2.689490e+01 2.779745e+01 2.208218e+00 2.386712e-01 5.786025e-01 5.529809e-01 7.492483e-01 1.244293e+00 1.116820e+00 1.615180e+00 1.876699e+00 1.892491e+00 1.760343e+00 1.854141e+00 1.255449e+00 1.936485e-02 6.148893e-02 9.493511e-02 1.169657e-01 1.518805e-01 2.893142e-01 2.471305e-01 3.077056e-01 3.930179e-01 3.804749e-01 2.921258e-01 3.125043e-01 2.685620e-01 5.703352e-03
<GCONST> 8.356356e+01
<MIXTURE> 8 4.042885e-02
<MEAN> 39
 7.136073e-02 1.430030e+00 -2.004039e+00 1.697105e+00 5.584451e+00 2.736479e+00 1.481623e+00 1.851033e+00 2.093618e+00 1.171480e+00 7.057716e-01 3.374024e-01 2.254559e+01 7.488778e-04 -1.019857e-01 1.555809e-01 5.625154e-01 5.346755e-01 5.110143e-01 5.541131e-01 3.740303e-01 4.481610e-01 4.419953e-01 3.714931e-01 5.055298e-01 2.441137e-01 1.694546e-01 3.494995e-02 -1.368813e-01 -8.422354e-02 -1.205115e-01 2.739998e-01 4.266498e-01 1.993236e-01 1.098331e-01 1.034238e-01 -4.461659e-02 3.438127e-02 8.441807e-02
<VARIANCE> 39
 6.193643e+00 1.030297e+01 1.137382e+01 1.992318e+01 1.632292e+01 1.878703e+01 1.644381e+01 1.747209e+01 1.746485e+01 1.526184e+01 1.623658e+01 1.764932e+01 1.206154e+00 2.379264e-01 4.088622e-01 5.566733e-01 7.344042e-01 9.143419e-01 1.067713e+00 1.173741e+00 1.295551e+00 1.266705e+00 1.249820e+00 1.317717e+00 1.357247e+00 3.697354e-02 4.534452e-02 9.017072e-02 1.568052e-01 1.987572e-01 2.351750e-01 2.533185e-01 2.461335e-01 3.104622e-01 3.144997e-01 2.676936e-01 3.110749e-01 2.990154e-01 8.506318e-03
<GCONST> 7.501064e+01
<MIXTURE> 9 7.514231e-02
<MEAN> 39
 -2.402019e+00 3.468349e+00 -1.840719e+00 1.032567e+00 3.623599e+00 3.387565e+00 -6.462178e-03 3.973179e+00 5.320212e+00 4.489692e+00 -1.387219e-02 -6.293889e+00 2.277709e+01 1.293174e-01 -7.074177e-02 6.649220e-02 -1.856559e-02 -6.570254e-02 1.352780e-01 -4.626507e-02 -1.474483e-02 -1.246344e-01 8.444186e-02 1.164956e-01 4.557836e-02 -2.872470e-02 -3.797137e-02 6.067888e-02 1.229974e-02 7.571005e-03 4.874466e-03 -1.271977e-02 2.889034e-02 -3.025773e-02 -1.269460e-02 -7.418205e-02 4.431682e-03 2.640751e-02 8.511590e-03
<VARIANCE> 39
 3.522301e+00 1.185339e+01 1.236440e+01 9.184524e+00 2.203582e+01 1.807274e+01 3.284220e+01 3.354216e+01 3.476123e+01 3.631964e+01 2.700883e+01 4.403982e+01 1.556091e+00 1.116577e-01 1.875883e-01 3.306335e-01 3.706175e-01 5.409181e-01 6.479835e-01 8.606927e-01 8.981503e-01 9.364469e-01 1.065749e+00 9.700990e-01 7.915735e-01 1.406582e-02 1.858147e-02 3.778123e-02 6.428315e-02 7.597305e-02 9.466238e-02 1.223723e-01 1.737280e-01 1.760727e-01 1.831044e-01 2.236114e-01 2.250356e-01 1.505117e-01 2.756423e-03
<GCONST> 6.299292e+01
<MIXTURE> 10 5.818278e-02
<MEAN> 39
 -6.632169e+00 2.469552e+00 -6.038854e+00 -1.336721e-01 6.786310e+00 1.572918e+00 -1.499890e+00 -5.192303e+00 -9.580657e-01 -6.678835e+00 -2.974089e+00 -3.616735e+00 2.077655e+01 -3.884928e-02 -1.825503e-01 -1.605020e-01 -6.627268e-02 1.282001e-02 1.938709e-03 3.848750e-02 7.519823e-02 1.851250e-01 1.700652e-01 1.424556e-01 -3.063239e-02 -6.390810e-02 8.439951e-02 6.690846e-02 2.618169e-02 -3.965712e-02 -1.049968e-01 7.215074e-02 2.629907e-01 4.600087e-01 4.523968e-01 2.836878e-01 1.377912e-02 4.469791e-03 5.776895e-02
<VARIANCE> 39
 1.018024e+01 2.561975e+01 2.365930e+01 2.544571e+01 3.263917e+01 3.423707e+01 4.696490e+01 4.057793e+01 3.488279e+01 3.661479e+01 4.703537e+01 2.608029e+01 2.507707e+00 3.079594e-01 5.248113e-01 7.138388e-01 9.738671e-01 1.390364e+00 1.603061e+00 1.724782e+00 1.933945e+00 2.207647e+00 1.835824e+00 2.142032e+00 1.658423e+00 2.777434e-02 6.950039e-02 9.289356e-02 1.591715e-01 2.352035e-01 3.152901e-01 3.224290e-01 3.646688e-01 3.364163e-01 3.306270e-01 3.170905e-01 3.921684e-01 3.640694e-01 6.521652e-03
<GCONST> 9.035358e+01
<MIXTURE> 11 5.413298e-02
<MEAN> 39
 -5.349499e+00 6.945966e+00 -4.252935e+00 3.112299e+00 6.253741e+00 5.147681e+00 4.319146e+00 2.085308e+00 4.060468e+00 -1.097367e+00 3.461204e-01 -2.758767e-01 2.184453e+01 -9.175262e-01 1.342993e-01 -2.848326e-01 2.157308e-01 2.592131e-01 -4.022386e-01 -1.323990e-01 -2.423026e-01 1.455137e-01 -1.362328e-01 -8.504491e-03 -9.890417e-03 -3.442142e-04 -7.627361e-02 -1.073823e-01 4.513561e-02 -3.045109e-02 -4.551805e-02 -1.291474e-01 -1.556853e-01 3.901960e-02 1.232304e-01 5.322392e-02 -2.544221e-01 -2.544144e-01 7.707793e-03
<VARIANCE> 39
 1.587854e+01 2.047967e+01 2.814201e+01 2.973022e+01 3.016255e+01 2.305891e+01 2.136882e+01 2.550823e+01 2.762287e+01 2.738228e+01 2.112631e+01 2.400686e+01 2.654397e+00 1.503745e+00 2.079142e+00 2.168470e+00 1.938456e+00 2.228459e+00 2.699588e+00 2.064392e+00 2.647517e+00 2.409079e+00 2.366405e+00 2.285021e+00 2.124526e+00 2.263500e-02 2.687291e-01 2.684766e-01 3.126532e-01 3.109482e-01 3.664844e-01 4.190654e-01 3.247100e-01 3.656290e-01 3.999075e-01 3.580780e-01 3.256747e-01 3.262047e-01 5.058858e-03
<GCONST> 9.803469e+01
<MIXTURE> 12 4.961213e-02
<MEAN> 39
 -5.478229e+00 2.542257e+00 -4.235018e+00 2.434892e-01 8.484526e+00 7.053968e+00 4.151922e+00 4.669715e+00 6.416606e+00 1.734288e+00 9.707074e-01 -3.329247e+00 2.238776e+01 -1.091048e-01 -3.503028e-01 -3.397334e-01 -3.868634e-01 -4.036295e-01 -4.400811e-01 -3.970909e-01 -1.736602e-01 -1.351207e-01 -2.856930e-02 1.104373e-01 8.687720e-02 -1.763876e-01 1.727199e-02 9.660285e-02 -1.886299e-02 -2.702399e-03 -2.205939e-01 -3.523377e-01 -2.162077e-01 -2.438155e-01 -1.616014e-01 -2.175405e-01 -3.342966e-01 -6.374540e-02 -2.875707e-02
<VARIANCE> 39
 9.579340e+00 1.422949e+01 1.655122e+01 1.967699e+01 2.731108e+01 2.866540e+01 3.048552e+01 2.446560e+01 2.904654e+01 2.303669e+01 1.781974e+01 2.451707e+01 1.922835e+00 2.020231e-01 4.139269e-01 5.734728e-01 6.712434e-01 9.467771e-01 1.324421e+00 1.360730e+00 1.504436e+00 1.787135e+00 1.568797e+00 1.277397e+00 1.212632e+00 1.862028e-02 5.791800e-02 7.518137e-02 1.193566e-01 1.073808e-01 2.025681e-01 2.216181e-01 2.519740e-01 2.925119e-01 3.229622e-01 2.662326e-01 2.276915e-01 2.433632e-01 4.321622e-03
<GCONST> 7.759120e+01
<MIXTURE> 13 5.002381e-02
<MEAN> 39
 -3.483968e+00 6.602942e+00 5.252002e-01 1.140797e+00 3.151157e+00 3.086861e+00 8.104728e-01 -3.349378e-01 -2.667219e-01 -2.456576e+00 -1.940979e+00 -4.403160e+00 2.218332e+01 1.072540e-01 -9.089088e-02 1.502120e-02 -1.706027e-01 -2.317789e-01 5.994102e-02 -2.027398e-01 -1.966802e-01 -2.867847e-01 -1.676427e-01 -8.270360e-02 -6.139608e-02 -6.716561e-02 -8.249563e-02 -1.097484e-01 -2.379080e-01 -3.477353e-02 1.116833e-01 -1.759039e-02 -5.903384e-02 7.757013e-02 2.595900e-01 6.202898e-02 -8.551593e-02 -4.725699e-02 -2.170473e-02
<VARIANCE> 39
 8.342657e+00 1.369306e+01 1.622616e+01 1.698796e+01 3.030121e+01 2.524626e+01 3.384355e+01 2.963023e+01 3.453949e+01 5.317205e+01 4.031513e+01 2.808159e+01 2.725214e+00 1.708973e-01 2.878531e-01 5.691268e-01 6.074082e-01 9.472306e-01 8.981219e-01 1.551761e+00 1.127202e+00 1.175879e+00 1.211656e+00 1.345857e+00 1.043032e+00 1.796309e-02 3.388055e-02 5.642405e-02 1.059349e-01 1.166424e-01 1.732120e-01 1.791479e-01 2.701761e-01 2.583413e-01 2.274306e-01 3.054132e-01 3.147582e-01 2.383458e-01 3.353086e-03
<GCONST> 7.638887e+01
<MIXTURE> 14 3.881581e-02
<MEAN> 39
 -8.106503e+00 -5.489339e+00 -6.845363e+00 -1.982597e+00 6.761076e+00 1.831197e-03 -2.925470e+00 1.423895e+00 2.505723e+00 -1.699276e+00 -3.052776e-01 -5.490168e-01 1.879143e+01 -7.999525e-01 -1.194465e+00 -1.173995e-01 6.340515e-02 6.371567e-01 1.914501e-01 -1.658938e-02 -1.499494e-01 -6.783062e-02 -2.363080e-01 4.159131e-02 -1.649049e-01 6.078219e-02 3.740233e-01 4.663202e-01 1.422718e-02 -3.904127e-02 -4.231488e-01 1.992130e-01 3.129770e-01 -3.595788e-01 -3.666068e-01 -1.370565e-01 -3.713196e-01 -2.417745e-01 1.086648e-01
<VARIANCE> 39
 1.304151e+01 2.776926e+01 2.635564e+01 3.036137e+01 2.972541e+01 5.050453e+01 3.849999e+01 4.516612e+01 4.269949e+01 3.785903e+01 3.620737e+01 3.451244e+01 4.192567e+00 8.635177e-01 1.536032e+00 1.275129e+00 1.515764e+00 2.015519e+00 2.074193e+00 2.335456e+00 2.779912e+00 2.322695e+00 2.043136e+00 2.510968e+00 2.131086e+00 7.697161e-02 1.256358e-01 2.195513e-01 3.162236e-01 3.440812e-01 4.547618e-01 4.456308e-01 5.054730e-01 6.053247e-01 4.951497e-01 4.956805e-01 5.102440e-01 4.611760e-01 1.014890e-02
<GCONST> 1.038627e+02
<MIXTURE> 15 4.700562e-02
<MEAN> 39
 -6.526725e+00 -2.540329e+00 -9.823959e+00 1.473510e+00 9.611578e+00 4.550692e+00 -4.159544e+00 4.338245e+00 7.670949e+00 -9.165493e-01 -4.848592e-01 -7.541592e-01 2.144885e+01 4.066505e-02 -1.204986e-02 1.527712e-02 -1.071704e-01 6.238251e-02 1.164799e-01 1.663283e-02 -1.967805e-01 -2.524131e-01 6.820571e-02 1.454609e-01 3.087389e-02 -3.378903e-02 4.823780e-03 1.240775e-01 5.187309e-02 -8.078124e-02 -1.375140e-01 -4.258770e-03 2.197536e-01 -8.259520e-02 -5.884448e-02 -3.548914e-02 -1.329991e-01 -1.127798e-01 1.407198e-02
<VARIANCE> 39
 4.636866e+00 1.370673e+01 2.023016e+01 3.616917e+01 1.705744e+01 5.503906e+01 3.195079e+01 4.522863e+01 3.769143e+01 2.485189e+01 4.368843e+01 4.089470e+01 2.042178e+00 1.945070e-01 5.798614e-01 6.651711e-01 9.249181e-01 1.064651e+00 1.354278e+00 1.467672e+00 1.593171e+00 1.426559e+00 1.357716e+00 2.076194e+00 1.603720e+00 1.319234e-02 3.241779e-02 9.195535e-02 1.094055e-01 1.691089e-01 1.811804e-01 2.601129e-01 2.568359e-01 2.837434e-01 2.464913e-01 2.390666e-01 4.050770e-01 2.809550e-01 3.255548e-03
<GCONST> 8.146127e+01
<MIXTURE> 16 5.346876e-02
<MEAN> 39
 -1.226971e+00 1.091322e+00 -2.613823e-01 1.026569e+00 6.576766e+00 3.424763e+00 1.311056e+00 3.308226e+00 2.930862e+00 1.744201e+00 1.827467e+00 -1.919156e-01 2.277582e+01 -3.521292e-01 -6.189622e-01 -2.098779e-01 6.281010e-02 1.834067e-01 6.527081e-02 -1.709453e-01 -6.223751e-01 -3.596194e-01 -3.972553e-01 -3.524038e-01 -3.953763e-02 -1.262497e-01 2.773640e-01 -2.077262e-02 -4.537359e-01 -3.932520e-02 -1.758625e-01 2.066369e-01 3.860860e-01 1.436376e-02 -6.875848e-02 -7.971018e-02 -2.488003e-01 6.001345e-02 3.439172e-02
<VARIANCE> 39
 7.213274e+00 1.077677e+01 1.214575e+01 1.892337e+01 1.883402e+01 1.968077e+01 1.772901e+01 1.888281e+01 1.780591e+01 1.694924e+01 1.625590e+01 1.773504e+01 1.239939e+00 3.626112e-01 5.361675e-01 7.673156e-01 8.813500e-01 1.181326e+00 1.279464e+00 1.196960e+00 1.359196e+00 1.551533e+00 1.434901e+00 1.414591e+00 1.306111e+00 4.427374e-02 6.352415e-02 1.221715e-01 2.042707e-01 2.178953e-01 3.114061e-01 2.843358e-01 2.851981e-01 3.069641e-01 3.283456e-01 2.800449e-01 2.744527e-01 2.560252e-01 1.075101e-02
<GCONST> 7.954797e+01
<MIXTURE> 17 5.594562e-02
<MEAN> 39
 -3.799405e+00 2.961996e+00 -2.374114e+00 -1.117730e-01 2.771148e+00 3.785394e-01 -1.394618e+00 2.805938e+00 7.612280e+00 3.955681e+00 -2.432449e+00 -6.070716e+00 2.200185e+01 -5.020702e-02 -4.905108e-02 -1.482589e-01 -1.532645e-01 -2.717074e-02 -7.595214e-02 -1.410927e-01 -1.849292e-01 -2.083415e-01 -2.006000e-01 -3.567207e-02 -1.551836e-02 -4.502169e-02 -1.098099e-01 8.147919e-02 -9.650121e-02 5.663610e-02 2.595413e-01 2.627489e-01 2.630271e-01 -7.108191e-02 -3.505361e-01 -3.675047e-01 4.548717e-02 1.595754e-01 1.781738e-02
<VARIANCE> 39
 8.863487e+00 1.008247e+01 1.631626e+01 1.841230e+01 2.782061e+01 2.252771e+01 2.867071e+01 2.779788e+01 2.323876e+01 2.750334e+01 2.171979e+01 2.964835e+01 2.236793e+00 4.291252e-01 9.737971e-01 1.230320e+00 1.320222e+00 1.883239e+00 1.673226e+00 2.063050e+00 2.542834e+00 2.093553e+00 2.350299e+00 2.019992e+00 1.887236e+00 2.289032e-02 6.487617e-02 1.349185e-01 1.753304e-01 1.718237e-01 2.621212e-01 2.600352e-01 3.213950e-01 3.428460e-01 2.850118e-01 3.622268e-01 3.214757e-01 3.405058e-01 4.829653e-03
<GCONST> 8.735357e+01
<MIXTURE> 18 4.194111e-02
<MEAN> 39
 4.003316e+00 2.364683e+00 -4.301617e+00 -4.460657e-02 2.938446e+00 5.105334e+00 3.669184e+00 1.042636e+00 2.270829e+00 2.503083e+00 1.369721e+00 1.046960e+00 2.319975e+01 1.421965e-02 -2.117600e-02 6.916631e-02 3.150008e-01 4.488529e-01 4.517733e-01 4.243683e-01 1.634367e-01 1.299750e-01 2.423074e-01 2.827238e-01 4.029697e-01 1.739683e-01 3.965097e-03 -6.003407e-02 -2.408276e-02 2.527575e-02 6.663325e-03 3.008455e-02 1.885437e-01 2.260783e-01 8.523536e-02 3.541379e-02 -8.817927e-02 -3.255849e-02 3.492747e-02
<VARIANCE> 39
 2.417633e+00 2.975240e+00 6.003056e+00 6.966658e+00 8.540097e+00 1.054682e+01 9.390671e+00 1.006743e+01 1.048133e+01 1.136429e+01 1.016795e+01 1.150106e+01 9.319804e-01 1.547774e-01 3.444869e-01 5.541046e-01 6.654467e-01 9.203985e-01 1.034046e+00 1.061497e+00 1.389062e+00 1.600756e+00 1.437553e+00 1.384175e+00 1.411134e+00 4.960103e-02 2.640221e-02 5.825737e-02 8.701925e-02 1.121999e-01 1.506363e-01 1.858416e-01 1.733964e-01 2.170801e-01 2.314775e-01 2.420385e-01 2.014102e-01 2.467863e-01 6.066446e-03
<GCONST> 6.186324e+01
<MIXTURE> 19 4.240508e-02
<MEAN> 39
 -1.049096e+01 8.049428e+00 -4.507584e+00 2.467215e+00 5.804858e+00 2.761478e+00 2.146329e+00 -9.039865e-01 7.840131e+00 -9.129294e-01 -1.018849e+00 -3.219129e+00 2.158941e+01 -2.640108e-02 -5.877828e-01 -2.870159e-01 -3.771824e-01 -3.854636e-01 -4.740963e-01 -6.986680e-01 -2.896599e-01 -2.843170e-02 3.534078e-02 3.829598e-02 -4.479711e-02 3.288614e-02 3.889122e-01 -3.518134e-01 -3.610097e-02 -9.542169e-02 4.212248e-02 2.668803e-02 -4.493422e-02 9.608796e-02 -3.068739e-01 -1.775723e-01 -1.484490e-01 5.046197e-03 1.182843e-02
<VARIANCE> 39
 2.051506e+01 3.031600e+01 3.358723e+01 3.526464e+01 4.462036e+01 4.027691e+01 4.320602e+01 4.850027e+01 4.746854e+01 3.781384e+01 3.666754e+01 1.684323e+01 2.544177e+00 2.087223e+00 1.874215e+00 1.736438e+00 2.237056e+00 3.110102e+00 2.675744e+00 2.654372e+00 3.042468e+00 3.502676e+00 3.439402e+00 3.276003e+00 1.795743e+00 6.277601e-02 3.312716e-01 2.347723e-01 3.138042e-01 3.850766e-01 5.570663e-01 5.955933e-01 6.051090e-01 6.497281e-01 6.522818e-01 6.352330e-01 6.227527e-01 2.793681e-01 1.102048e-02
<GCONST> 1.097605e+02
<MIXTURE> 20 7.658273e-02
<MEAN> 39
 -7.710212e+00 8.111267e+00 -3.967691e+00 1.811142e+00 7.400088e+00 3.830190e+00 4.638294e+00 2.361770e+00 6.447722e+00 -1.728208e+00 -2.714715e+00 -2.855462e+00 2.169596e+01 2.120133e-02 7.695889e-02 1.129113e-01 4.281061e-02 -3.750343e-03 -1.089172e-02 -4.674492e-02 -8.506607e-02 2.187061e-02 4.933622e-02 -8.193264e-02 -6.446265e-02 -1.966631e-02 6.747851e-02 -1.579548e-01 3.307998e-03 -4.032527e-02 -5.861891e-02 4.706148e-02 -4.329457e-02 -2.079964e-02 -2.613102e-02 5.665427e-02 3.748111e-02 -4.444107e-02 7.926283e-03
<VARIANCE> 39
 1.977311e+01 1.479685e+01 1.363620e+01 2.066770e+01 1.611609e+01 1.815141e+01 2.177077e+01 1.746422e+01 2.092834e+01 1.595716e+01 1.540135e+01 1.517863e+01 2.201213e+00 4.553794e-01 4.757892e-01 7.111747e-01 6.444017e-01 9.581263e-01 1.033331e+00 1.240560e+00 1.289293e+00 1.383852e+00 1.534227e+00 1.452372e+00 1.097749e+00 1.773131e-02 7.997408e-02 7.587150e-02 1.176955e-01 1.129264e-01 1.715504e-01 1.860267e-01 2.248396e-01 2.314800e-01 2.150624e-01 2.474366e-01 2.429281e-01 2.092021e-01 3.863696e-03
<GCONST> 7.471299e+01
<STATE> 4
<NUMMIXES> 20
<MIXTURE> 1 5.646749e-02
<MEAN> 39
 2.451004e+00 3.307225e+00 -1.812615e+00 2.955142e+00 4.438570e+00 5.816891e+00 5.759709e+00 3.909687e+00 3.928004e+00 3.912943e+00 2.350112e+00 1.600226e+00 2.394615e+01 1.347466e-01 4.657576e-02 4.350138e-02 2.737478e-01 4.446413e-01 5.401956e-01 6.504685e-01 5.906005e-01 4.652823e-01 4.146084e-01 2.235940e-01 2.361534e-01 2.588567e-01 6.468926e-03 -5.116193e-02 -1.146582e-01 -1.184793e-01 -1.666494e-01 -1.703658e-01 -1.589665e-01 -1.554172e-01 -1.069016e-01 -1.770749e-01 -2.482446e-01 -1.863405e-01 -7.177701e-02
<VARIANCE> 39
 4.710078e+00 4.453592e+00 8.068331e+00 1.193370e+01 9.978854e+00 1.025990e+01 8.964621e+00 1.006587e+01 1.176735e+01 1.122246e+01 1.062430e+01 1.099531e+01 7.609733e-01 1.463069e-01 2.523861e-01 4.743637e-01 5.958500e-01 7.349949e-01 9.007530e-01 1.033546e+00 1.242555e+00 1.237781e+00 1.210630e+00 1.126672e+00 1.295819e+00 4.186492e-02 2.842397e-02 6.104389e-02 1.087186e-01 1.265792e-01 1.535284e-01 1.934236e-01 1.739162e-01 2.203072e-01 2.441083e-01 2.323178e-01 2.241452e-01 2.367010e-01 6.162980e-03
<GCONST> 6.235807e+01
<MIXTURE> 2 2.794367e-02
<MEAN> 39
 -7.943204e+00 3.837633e+00 -2.086074e+00 -1.828749e+00 4.167004e+00 1.912211e+00 2.191014e+00 -1.733885e-01 2.928244e+00 -4.695788e+00 -5.943414e+00 -5.140503e+00 2.236505e+01 -1.744091e-01 3.041629e-01 2.119007e-01 9.750299e-01 8.952643e-01 3.295319e-01 9.457875e-01 8.266441e-01 8.608808e-01 3.438105e-01 5.817122e-01 -4.987031e-02 2.861409e-01 5.362020e-02 2.240852e-01 5.585566e-02 1.951136e-01 2.984576e-01 2.308151e-01 2.581193e-01 2.238140e-01 3.119022e-01 3.123551e-01 1.688269e-01 1.543237e-01 1.089255e-01
<VARIANCE> 39
 4.035775e+00 6.840488e+00 1.546411e+01 1.240268e+01 1.773635e+01 1.681322e+01 2.280887e+01 2.610415e+01 2.047168e+01 2.122597e+01 2.279049e+01 1.544842e+01 1.131225e+00 3.825896e-01 4.972227e-01 8.395848e-01 9.709035e-01 1.194869e+00 1.286030e+00 1.565386e+00 1.977854e+00 1.714641e+00 1.542609e+00 1.940710e+00 1.720153e+00 3.698757e-02 4.661323e-02 7.313930e-02 1.265849e-01 1.487627e-01 1.723421e-01 1.972315e-01 2.570812e-01 3.017720e-01 2.769019e-01 2.422958e-01 2.681195e-01 2.403621e-01 4.371651e-03
<GCONST> 7.650916e+01
<MIXTURE> 3 4.209493e-02
<MEAN> 39
 -8.932829e+00 3.721394e+00 -1.631781e+00 -3.207638e-01 4.796511e+00 7.247485e+00 8.917038e+00 5.127876e+00 6.683671e+00 -9.057989e-01 -2.689153e+00 -5.486297e+00 2.322200e+01 5.710522e-02 7.706380e-02 2.000347e-01 1.937712e-01 1.888512e-01 2.439756e-01 2.207193e-01 3.550146e-01 1.929634e-01 2.241227e-01 1.468295e-01 1.111172e-01 3.526200e-02 4.021015e-02 -2.041412e-04 -9.974165e-02 5.249532e-02 6.735747e-02 -2.955518e-01 -3.884259e-01 -2.038109e-01 -1.600511e-01 -2.547166e-01 -1.223889e-01 1.569140e-01 -1.275824e-02
<VARIANCE> 39
 5.309922e+00 1.158853e+01 1.649660e+01 1.902497e+01 2.962247e+01 2.848693e+01 2.515116e+01 3.302671e+01 2.403080e+01 1.645197e+01 2.652537e+01 1.357304e+01 4.536749e-01 1.557212e-01 3.121029e-01 6.358585e-01 7.388986e-01 9.897357e-01 1.288771e+00 1.680046e+00 1.829136e+00 1.685538e+00 1.338627e+00 1.443775e+00 1.266155e+00 2.064386e-02 2.427617e-02 6.658312e-02 1.102664e-01 1.217807e-01 1.901375e-01 2.171920e-01 2.757425e-01 3.291914e-01 2.901079e-01 2.078224e-01 2.887862e-01 1.778063e-01 2.762241e-03
<GCONST> 7.321095e+01
<MIXTURE> 4 7.622401e-02
<MEAN> 39
 -7.601118e+00 3.779258e+00 -4.786638e+00 6.918879e-01 8.083665e+00 2.440171e+00 8.517509e-01 1.703196e+00 6.835187e+00 -2.191098e+00 -4.467211e+00 -4.444398e+00 2.289690e+01 1.349564e-01 8.434670e-03 1.070032e-01 -2.195150e-02 5.004914e-02 1.351541e-01 6.328615e-02 7.691281e-02 7.557607e-02 5.617073e-02 2.898414e-02 5.703627e-02 3.624989e-03 -1.638300e-02 5.064584e-02 6.171191e-02 -1.221732e-01 -2.075256e-01 2.267424e-02 2.060927e-01 -5.875764e-02 -2.353880e-01 -9.035207e-02 1.027915e-02 4.139828e-02 7.048548e-04
<VARIANCE> 39
 4.356313e+00 7.602279e+00 1.050784e+01 1.432712e+01 1.416410e+01 1.503727e+01 1.535328e+01 1.904886e+01 2.001681e+01 1.723479e+01 1.976572e+01 1.681104e+01 5.959911e-01 1.141135e-01 2.564406e-01 4.310112e-01 6.094335e-01 7.129241e-01 9.081081e-01 1.143095e+00 1.312113e+00 1.143120e+00 1.150634e+00 1.239557e+00 8.867289e-01 1.024315e-02 1.597497e-02 4.211031e-02 7.056135e-02 9.574095e-02 1.090878e-01 1.529408e-01 1.649316e-01 1.991785e-01 1.671637e-01 1.746816e-01 2.053294e-01 1.837427e-01 1.666118e-03
<GCONST> 6.023406e+01
<MIXTURE> 5 3.355541e-02
<MEAN> 39
 -8.497018e+00 6.103929e+00 -1.070324e+00 2.639873e+00 8.740476e+00 3.884943e+00 5.384678e+00 2.099149e+00 5.672907e+00 -2.748648e+00 -3.170627e+00 -4.501539e+00 2.366047e+01 1.086218e-01 5.890375e-01 2.438546e-01 4.518830e-01 7.432820e-01 8.260655e-01 1.051268e+00 8.619982e-01 9.910249e-01 8.351458e-01 3.519745e-01 3.358473e-01 3.543015e-01 1.302385e-01 -1.774029e-01 -1.804905e-01 -5.385260e-01 -4.428039e-01 -7.991564e-02 -2.560731e-01 -1.001826e-01 -1.371824e-01 2.016294e-02 -2.214005e-01 8.475150e-02 -1.127431e-01
<VARIANCE> 39
 2.548379e+00 5.782757e+00 1.139941e+01 1.022816e+01 1.287357e+01 1.385763e+01 1.551502e+01 2.024632e+01 1.813364e+01 1.468373e+01 1.952837e+01 1.323990e+01 1.012187e+00 3.735204e-01 6.420450e-01 9.088050e-01 1.234348e+00 1.354515e+00 1.155496e+00 1.601540e+00 1.740188e+00 1.831096e+00 1.873341e+00 1.994923e+00 1.583157e+00 3.997245e-02 5.741640e-02 1.163975e-01 1.546718e-01 1.774948e-01 1.971066e-01 2.280136e-01 3.356879e-01 4.096299e-01 3.349998e-01 3.064203e-01 3.405028e-01 2.762141e-01 8.443001e-03
<GCONST> 7.743022e+01
<MIXTURE> 6 4.790295e-02
<MEAN> 39
 -8.176283e+00 4.329062e+00 -3.178693e+00 -1.075689e+00 5.894447e+00 3.577662e+00 4.672569e+00 2.445765e+00 5.403626e+00 -2.105421e+00 -3.382502e+00 -2.764266e+00 2.301982e+01 -1.211364e-01 -4.805432e-01 -4.575251e-01 -6.979083e-01 -6.348163e-01 -6.041427e-01 -6.663737e-01 -6.599716e-01 -6.057163e-01 -2.752755e-01 -1.274755e-01 3.714144e-03 -2.839132e-01 1.917680e-02 3.761389e-02 5.641909e-02 8.938904e-02 4.717331e-02 -2.825917e-02 -1.800102e-02 1.366295e-02 2.390647e-02 -6.401221e-02 -8.626932e-02 -1.248767e-01 8.100788e-03
<VARIANCE> 39
 5.300435e+00 8.953988e+00 1.388938e+01 1.394893e+01 2.162544e+01 1.953631e+01 2.161997e+01 2.853913e+01 2.389430e+01 1.817296e+01 2.342949e+01 1.713676e+01 8.678940e-01 1.398467e-01 3.118222e-01 4.865060e-01 5.622552e-01 8.883938e-01 1.070726e+00 1.256673e+00 1.467557e+00 1.329603e+00 1.382870e+00 1.402148e+00 1.173016e+00 1.416205e-02 2.742082e-02 6.123376e-02 9.921522e-02 1.226808e-01 1.731535e-01 1.799496e-01 1.806583e-01 2.535699e-01 2.579886e-01 2.374316e-01 2.241445e-01 2.098910e-01 4.747277e-03
<GCONST> 6.963484e+01
<MIXTURE> 7 5.518786e-02
<MEAN> 39
 -7.910700e+00 4.230699e+00 -3.388665e+00 -4.560837e-01 7.293340e+00 4.119763e+00 3.301467e+00 -1.548185e+00 -6.191655e-01 -7.945054e+00 -7.887431e+00 -4.962290e+00 2.278084e+01 8.976953e-02 5.171404e-03 8.898304e-02 -1.462199e-02 1.336423e-01 2.810055e-01 2.636745e-01 8.251272e-02 -1.133080e-01 -5.172874e-02 -8.549536e-02 5.559049e-02 1.576533e-03 2.459138e-02 4.163394e-03 -6.281538e-03 -9.562692e-02 -1.772290e-01 -1.698154e-01 -4.017819e-02 2.431881e-01 4.670779e-01 4.615975e-01 2.557498e-01 7.215360e-02 1.529073e-02
<VARIANCE> 39
 4.800081e+00 9.577727e+00 1.417981e+01 1.333528e+01 1.831260e+01 1.712087e+01 1.830702e+01 1.755002e+01 1.709554e+01 1.556988e+01 2.104089e+01 1.854418e+01 5.247028e-01 1.484489e-01 3.012543e-01 4.893590e-01 5.892515e-01 8.651062e-01 9.988000e-01 1.204730e+00 1.298595e+00 1.259835e+00 1.438949e+00 1.331008e+00 1.107726e+00 1.048578e-02 2.758712e-02 5.333303e-02 1.057507e-01 1.243261e-01 1.695160e-01 1.875797e-01 2.086623e-01 2.001744e-01 1.871683e-01 2.023750e-01 2.466354e-01 2.223333e-01 2.427405e-03
<GCONST> 6.587474e+01
<MIXTURE> 8 5.462911e-02
<MEAN> 39
 -9.029963e+00 3.235944e+00 -5.526960e+00 -2.979275e+00 4.131277e+00 1.625448e+00 2.978571e+00 9.122506e-01 4.610647e+00 -1.833329e+00 -2.540759e+00 -2.445104e+00 2.216796e+01 1.624501e-01 3.670067e-02 1.107829e-01 -7.510848e-03 6.689152e-02 1.468775e-01 1.798066e-01 9.902407e-02 -3.538655e-02 -1.431298e-01 -1.198709e-01 -2.382267e-02 -1.592334e-03 1.176498e-01 1.621076e-01 2.277417e-01 2.487042e-01 2.181208e-01 1.583627e-01 7.133807e-02 9.619392e-02 -1.992229e-02 -1.893217e-01 -2.389609e-01 -1.495964e-01 8.222752e-02
<VARIANCE> 39
 4.453885e+00 7.423563e+00 1.289204e+01 1.188719e+01 1.555249e+01 1.607298e+01 2.180783e+01 2.518572e+01 1.952940e+01 1.507901e+01 2.100184e+01 1.624171e+01 9.494117e-01 1.366965e-01 3.109451e-01 5.002744e-01 6.859146e-01 8.135477e-01 1.053684e+00 1.192823e+00 1.424537e+00 1.316316e+00 1.326521e+00 1.278003e+00 1.282983e+00 1.867775e-02 2.943108e-02 5.000860e-02 1.072245e-01 1.099731e-01 1.357738e-01 1.699062e-01 2.219929e-01 2.764490e-01 2.473137e-01 2.015881e-01 2.208331e-01 1.983282e-01 3.404212e-03
<GCONST> 6.739170e+01
<MIXTURE> 9 5.067723e-02
<MEAN> 39
 -5.189209e+00 -1.091220e+00 -2.697002e+00 9.843409e-01 8.030667e+00 3.672732e+00 2.130811e+00 1.716289e+00 3.337830e+00 -2.209336e-01 -4.243592e-01 -9.386126e-01 2.163904e+01 1.150369e-01 -5.486950e-01 -5.443207e-01 1.311491e-01 -3.355767e-02 3.702890e-01 2.867241e-01 -4.452715e-01 -5.110949e-01 -3.878677e-01 -3.787659e-01 1.646043e-01 5.084930e-02 3.613083e-01 2.125958e-01 -3.804755e-01 -3.260871e-01 -3.860138e-01 -7.757659e-02 2.025256e-01 8.034415e-02 -1.606649e-01 -2.226256e-01 -2.762650e-01 -5.339772e-02 6.561685e-02
<VARIANCE> 39
 1.495170e+01 1.566439e+01 2.368058e+01 2.392540e+01 2.643855e+01 3.105280e+01 2.997785e+01 2.863314e+01 2.814629e+01 2.697803e+01 2.735428e+01 2.516189e+01 1.774817e+00 4.364861e-01 1.115422e+00 1.265229e+00 1.241186e+00 1.444058e+00 1.623155e+00 1.911351e+00 1.767374e+00 1.841030e+00 2.053302e+00 1.975365e+00 1.899273e+00 4.354487e-02 1.325920e-01 1.935553e-01 3.539451e-01 2.924265e-01 4.258044e-01 4.078304e-01 4.038352e-01 4.517284e-01 4.696890e-01 4.007128e-01 3.721891e-01 3.377060e-01 9.186109e-03
<GCONST> 9.418053e+01
<MIXTURE> 10 5.079262e-02
<MEAN> 39
 -7.510931e+00 6.202347e+00 -1.977064e+00 9.886298e-01 7.979973e+00 5.062515e+00 6.592963e+00 4.775450e+00 8.410131e+00 -1.428098e-01 -3.616397e+00 -3.686922e+00 2.380727e+01 1.208121e-01 -2.462787e-01 -2.903896e-01 -5.372141e-01 -3.745733e-01 -2.351087e-02 -1.624201e-01 -6.017164e-03 -3.971933e-02 1.030158e-01 -5.331014e-02 2.796184e-01 -8.262555e-02 -2.595212e-02 -2.463488e-01 -1.606296e-01 -2.434282e-01 -2.784886e-01 -2.981919e-01 -3.737022e-01 -3.863094e-01 -4.904318e-01 -3.716557e-01 -1.045513e-01 -2.984658e-02 -1.352745e-01
<VARIANCE> 39
 4.554459e+00 7.663689e+00 1.365651e+01 1.381673e+01 2.186496e+01 1.844219e+01 1.897139e+01 2.620602e+01 2.046229e+01 1.836930e+01 2.708185e+01 1.733510e+01 9.815047e-01 2.049859e-01 4.761902e-01 7.265775e-01 8.953542e-01 1.105321e+00 1.163077e+00 1.398839e+00 1.624204e+00 1.535062e+00 1.453305e+00 1.702474e+00 1.249189e+00 3.013657e-02 5.034775e-02 8.296595e-02 1.329905e-01 1.604033e-01 2.539334e-01 2.240523e-01 2.657432e-01 2.910825e-01 2.831933e-01 2.792344e-01 3.248752e-01 2.837394e-01 6.537751e-03
<GCONST> 7.640759e+01
<MIXTURE> 11 4.440928e-02
<MEAN> 39
 -5.568589e+00 2.842299e+00 3.607019e-01 5.049299e-01 9.549116e+00 -1.758734e+00 2.637990e+00 2.956071e+00 3.634792e+00 -5.614260e+00 -9.042536e+00 -4.301193e+00 2.248185e+01 1.279726e-01 -1.015909e-01 5.979134e-02 2.247061e-02 5.739072e-02 -6.311543e-02 -1.412346e-02 6.752753e-02 -8.555850e-02 -1.353526e-01 3.839893e-02 -1.001032e-02 -1.484608e-02 -3.582282e-02 4.036071e-02 -1.048084e-01 -8.966953e-02 -6.293268e-02 2.485023e-01 3.560862e-02 -1.860745e-01 -6.010542e-02 1.542059e-01 1.684336e-01 -2.310941e-02 4.054890e-03
<VARIANCE> 39
 3.924977e+00 6.494747e+00 7.941604e+00 1.092930e+01 2.251286e+01 1.666215e+01 1.395346e+01 1.739162e+01 1.888386e+01 1.781552e+01 1.474607e+01 1.074841e+01 1.230229e+00 8.005885e-02 2.032993e-01 3.704960e-01 4.736197e-01 6.850417e-01 8.619508e-01 9.364626e-01 1.021991e+00 1.019212e+00 8.368942e-01 1.010126e+00 7.586999e-01 7.091616e-03 1.903959e-02 3.831688e-02 8.589298e-02 9.452187e-02 1.406350e-01 1.496305e-01 1.477262e-01 1.751832e-01 1.761015e-01 1.382421e-01 1.904272e-01 1.392389e-01 1.336652e-03
<GCONST> 5.657114e+01
<MIXTURE> 12 5.050213e-02
<MEAN> 39
 -7.497218e+00 4.872664e+00 -2.280954e+00 -1.832749e+00 7.073539e+00 4.979980e+00 -2.604058e+00 -6.056796e+00 8.912080e-01 -4.512472e+00 -4.488223e+00 -4.721076e+00 2.187589e+01 5.294548e-03 -1.070642e-01 3.639768e-03 -4.881855e-02 -9.544262e-02 -2.019762e-01 -1.054716e-01 1.229523e-01 1.669811e-02 -7.507685e-02 -1.774534e-01 -1.625235e-01 -4.156635e-02 -9.085806e-03 1.361460e-03 -4.560968e-02 5.232201e-03 -1.497315e-01 -1.171773e-01 3.722454e-01 4.450234e-01 1.676790e-01 -9.883349e-03 -1.420263e-02 5.007910e-02 2.142759e-02
<VARIANCE> 39
 3.268251e+00 5.519914e+00 2.523129e+01 1.022282e+01 2.225502e+01 1.693253e+01 1.888421e+01 1.475720e+01 2.056873e+01 2.022328e+01 2.955057e+01 1.964605e+01 2.100671e+00 1.096278e-01 2.242602e-01 5.355158e-01 5.314203e-01 7.973168e-01 9.445873e-01 1.188674e+00 1.097467e+00 1.174653e+00 1.291472e+00 1.396631e+00 1.045164e+00 1.061864e-02 2.043361e-02 4.525275e-02 9.718978e-02 1.103222e-01 1.614890e-01 1.750472e-01 1.813865e-01 2.225320e-01 2.312185e-01 2.135444e-01 2.329643e-01 2.003181e-01 2.754965e-03
<GCONST> 6.582638e+01
<MIXTURE> 13 5.774284e-02
<MEAN> 39
 -8.138083e+00 5.424199e+00 -3.279554e+00 -2.145059e+00 2.014199e+00 -5.393180e-01 -2.123907e-01 2.685771e-01 6.838656e+00 3.861614e-01 -2.574346e+00 -3.724715e+00 2.268916e+01 6.227529e-02 -8.448036e-02 1.386543e-01 -2.257228e-02 9.171461e-02 8.464533e-02 -7.535048e-02 -1.336341e-01 -1.564768e-01 -7.812238e-02 -7.542073e-03 8.040142e-02 -3.928087e-02 -5.208247e-03 -7.078148e-02 -5.033183e-02 9.385429e-02 2.936480e-01 3.309412e-01 2.509958e-01 2.334592e-02 -2.608449e-01 -3.836835e-01 -2.040246e-01 -1.522595e-02 1.211168e-02
<VARIANCE> 39
 3.787658e+00 6.211648e+00 1.262962e+01 1.012661e+01 1.320912e+01 1.439350e+01 1.664971e+01 2.097402e+01 1.831310e+01 1.575258e+01 2.399318e+01 1.739902e+01 7.986419e-01 1.491875e-01 3.203980e-01 5.585268e-01 7.208821e-01 9.464391e-01 1.106654e+00 1.227190e+00 1.526793e+00 1.305055e+00 1.382074e+00 1.475536e+00 1.340082e+00 1.454638e-02 2.726621e-02 5.362535e-02 1.116254e-01 1.278379e-01 1.488116e-01 1.784677e-01 1.936582e-01 2.705060e-01 2.272033e-01 2.219985e-01 2.669919e-01 2.619095e-01 2.751641e-03
<GCONST> 6.713097e+01
<MIXTURE> 14 5.940413e-02
<MEAN> 39
 -7.234809e-01 2.496335e+00 -1.805693e+00 2.572961e+00 6.779001e+00 4.829661e+00 3.215797e+00 9.994997e-01 2.813829e+00 2.204778e+00 1.632895e+00 3.950733e-01 2.331076e+01 2.847138e-01 -5.376969e-01 -8.286041e-01 -1.525719e-01 1.983548e-01 5.251558e-01 6.783459e-01 2.938364e-02 -2.972718e-01 -3.103301e-01 -4.393916e-01 1.995789e-01 5.706482e-02 1.380700e-01 -1.534866e-01 -3.458588e-01 -3.345391e-01 -2.580710e-01 -1.003647e-01 2.594271e-01 3.850054e-01 6.688499e-02 -1.335102e-01 -3.325912e-01 -1.447467e-01 -7.959187e-03
<VARIANCE> 39
 1.422615e+01 9.669804e+00 1.126939e+01 1.626052e+01 1.563554e+01 1.571939e+01 1.463420e+01 1.614568e+01 1.690230e+01 1.781372e+01 1.586196e+01 1.678543e+01 8.776329e-01 2.665237e-01 5.864552e-01 1.012396e+00 1.067245e+00 1.272411e+00 1.428495e+00 1.436281e+00 1.486538e+00 1.516917e+00 1.557300e+00 1.561405e+00 1.609247e+00 4.475708e-02 6.308751e-02 1.283435e-01 1.772551e-01 1.821655e-01 2.360839e-01 2.319708e-01 2.296128e-01 2.597821e-01 3.087931e-01 3.000617e-01 2.671895e-01 2.798342e-01 7.843159e-03
<GCONST> 7.840131e+01
<MIXTURE> 15 5.291658e-02
<MEAN> 39
